%YAML:1.0
my_svm: !!opencv-ml-svm
   svm_type: C_SVC
   kernel: { type:POLY, degree:1., gamma:20., coef0:10. }
   C: 7.
   term_criteria: { epsilon:1.1920928955078125e-07, iterations:1000 }
   var_all: 10
   var_count: 10
   class_count: 7
   class_labels: !!opencv-matrix
      rows: 1
      cols: 7
      dt: i
      data: [ 1, 2, 3, 4, 5, 6, 7 ]
   sv_total: 269
   support_vectors:
      - [ 1.55247718e-01, 5.07236838e-01, 8.29811811e-01, 1.70345698e-02,
          8.34743023e-01, 7.94401526e-01, 5.19783974e-01, 4.25064594e-01,
          6.19400203e-01, 3.50755826e-02 ]
      - [ 2.20528498e-01, 3.85436445e-01, 7.21158683e-01, 5.57493232e-02,
          7.81214416e-01, 7.32365549e-01, 5.55993974e-01, 6.20155036e-01,
          4.74445015e-01, 6.66200593e-02 ]
      - [ 2.12517723e-01, 4.33970094e-01, 8.10151696e-01, 3.74695696e-02,
          8.26146960e-01, 7.76681662e-01, 7.66406417e-01, 4.58656341e-01,
          6.43431127e-01, 6.95890635e-02 ]
      - [ 1.71431482e-01, 4.01810080e-01, 8.49638224e-01, 3.79229151e-02,
          8.48596871e-01, 8.06242466e-01, 2.70827949e-01, 2.84237713e-01,
          7.63947487e-01, 2.53961291e-02 ]
      - [ 1.68787241e-01, 4.65197414e-01, 8.68643343e-01, 1.09149870e-02,
          7.63242006e-01, 7.11499095e-01, 4.03981835e-01, 2.75193810e-01,
          7.60114253e-01, 2.57511642e-02 ]
      - [ 2.61014968e-01, 2.83360392e-01, 6.54280841e-01, 2.45527346e-02,
          8.24344158e-01, 7.75388062e-01, 5.79380929e-01, 7.02842355e-01,
          4.06277895e-01, 6.45748898e-02 ]
      - [ 1.38066590e-01, 4.81674671e-01, 8.79292071e-01, 4.12407070e-02,
          8.82715940e-01, 8.43266487e-01, 3.31975579e-01, 2.23514214e-01,
          7.80411959e-01, 2.17480622e-02 ]
      - [ 1.65539548e-01, 4.50585514e-01, 8.94803643e-01, 6.45032525e-02,
          8.89376283e-01, 8.48546267e-01, 3.79613578e-01, 1.82170540e-01,
          8.37810576e-01, 2.88946573e-02 ]
      - [ 1.22843295e-01, 5.12625635e-01, 9.49747503e-01, 1.38568906e-02,
          8.56948197e-01, 8.12021554e-01, 3.32018733e-01, 4.26356606e-02,
          9.01628733e-01, 1.05488971e-02 ]
      - [ 1.89911067e-01, 5.40398657e-01, 7.51448214e-01, 4.44221348e-02,
          8.72295976e-01, 8.34638655e-01, 8.16791356e-01, 6.69250667e-01,
          3.75288635e-01, 8.17447081e-02 ]
      - [ 1.18987232e-01, 5.09033144e-01, 9.18796062e-01, 2.10268553e-02,
          8.74650657e-01, 8.39029014e-01, 3.18383455e-01, 1.96382433e-01,
          7.81728208e-01, 1.95639674e-02 ]
      - [ 2.27399349e-01, 3.21220070e-01, 7.28882968e-01, 1.23554682e-02,
          8.37893903e-01, 7.88564205e-01, 4.17432904e-01, 5.09043932e-01,
          6.06538057e-01, 3.66972201e-02 ]
      - [ 1.37569442e-01, 5.39742291e-01, 9.04170513e-01, 6.64728656e-02,
          8.35535884e-01, 7.94310212e-01, 4.85080421e-01, 2.39018083e-01,
          7.67857671e-01, 3.87280695e-02 ]
      - [ 1.38566181e-01, 5.21399677e-01, 9.08672690e-01, 2.03582421e-02,
          8.99410486e-01, 8.60562623e-01, 5.10661185e-01, 1.34366930e-01,
          8.44276309e-01, 2.35851761e-02 ]
      - [ 1.56042889e-01, 4.93626714e-01, 8.04243386e-01, 1.55439349e-02,
          8.28733742e-01, 7.92125106e-01, 3.39270473e-01, 5.03875971e-01,
          5.32967448e-01, 3.12331375e-02 ]
      - [ 1.85900778e-01, 3.98839325e-01, 8.01119328e-01, 2.03096103e-02,
          8.32941413e-01, 7.89677441e-01, 4.81645852e-01, 4.34108526e-01,
          6.42545938e-01, 3.65222357e-02 ]
      - [ 3.25444639e-01, 1.94756299e-01, 5.45118153e-01, 6.30247220e-02,
          8.50049138e-01, 8.04211140e-01, 6.34677231e-01, 9.03100789e-01,
          1.92393541e-01, 9.60036814e-02 ]
      - [ 1.39121696e-01, 5.75114846e-01, 9.50738609e-01, 1.34310937e-02,
          8.24013412e-01, 7.71200657e-01, 5.70607841e-01, 5.29715754e-02,
          9.08617854e-01, 1.74485147e-02 ]
      - [ 1.97364479e-01, 3.85021925e-01, 8.07766676e-01, 8.51718057e-03,
          7.66533792e-01, 7.09719360e-01, 3.59188139e-01, 3.66925061e-01,
          7.11444318e-01, 2.66196840e-02 ]
      - [ 1.93125591e-01, 4.16940123e-01, 8.82955432e-01, 2.01953179e-03,
          7.61368632e-01, 7.00332642e-01, 2.24306136e-01, 1.08527131e-01,
          9.15737867e-01, 1.11582512e-02 ]
      - [ 1.61346123e-01, 4.66199189e-01, 8.00931931e-01, 2.71706507e-02,
          9.44687128e-01, 9.18352723e-01, 5.70811689e-01, 4.88372087e-01,
          5.55405021e-01, 4.26803492e-02 ]
      - [ 1.88839361e-01, 4.85267192e-01, 7.57743537e-01, 3.34388800e-02,
          8.01914811e-01, 7.56306410e-01, 6.11924767e-01, 6.43410861e-01,
          4.04376686e-01, 5.41986972e-02 ]
      - [ 2.16320932e-01, 4.05713499e-01, 8.27787459e-01, 3.43094207e-02,
          7.79284835e-01, 7.21995056e-01, 5.80405831e-01, 3.06201547e-01,
          7.85769284e-01, 4.67554443e-02 ]
      - [ 9.41671208e-02, 6.12007320e-01, 9.31244910e-01, 1.26750662e-03,
          7.79318690e-01, 7.36967325e-01, 1.21802650e-01, 2.08010331e-01,
          7.43719041e-01, 4.38850140e-03 ]
      - [ 8.81123394e-02, 6.08000278e-01, 8.91150773e-01, 8.42731353e-03,
          8.69824171e-01, 8.44295502e-01, 2.27756768e-01, 3.44961226e-01,
          6.10863924e-01, 1.83477551e-02 ]
      - [ 1.82154715e-01, 4.35317278e-01, 8.73114049e-01, 1.23561872e-02,
          7.75395513e-01, 7.18272626e-01, 4.42437202e-01, 2.05426350e-01,
          8.28658521e-01, 2.59131081e-02 ]
      - [ 1.78046092e-01, 4.88341570e-01, 8.01958144e-01, 3.33063863e-02,
          7.98240304e-01, 7.57363200e-01, 5.25114596e-01, 5.55555582e-01,
          4.98414367e-01, 5.12181446e-02 ]
      - [ 1.96162492e-01, 4.05022621e-01, 7.67324030e-01, 5.97708113e-02,
          7.95223534e-01, 7.51245856e-01, 5.22261798e-01, 5.40051699e-01,
          5.29003382e-01, 6.24175221e-02 ]
      - [ 1.32613406e-01, 4.91830468e-01, 9.30066407e-01, 1.11754481e-02,
          9.39577222e-01, 9.02665675e-01, 3.55431765e-01, 6.20155036e-02,
          8.88712704e-01, 9.73020121e-03 ]
      - [ 2.17940778e-01, 4.48340178e-01, 8.45572054e-01, 3.22169848e-02,
          7.94736266e-01, 7.34715402e-01, 7.25396812e-01, 3.10077518e-01,
          7.79842377e-01, 5.07431477e-02 ]
      - [ 3.41649324e-01, 1.92407340e-01, 5.99513888e-01, 1.42581053e-02,
          8.02860498e-01, 7.34773874e-01, 6.04713023e-01, 6.62790716e-01,
          5.41750073e-01, 6.51743338e-02 ]
      - [ 1.52427107e-01, 5.92248440e-01, 8.47284675e-01, 2.30464265e-02,
          8.43999147e-01, 8.08622479e-01, 6.04919255e-01, 3.30749363e-01,
          7.00167775e-01, 4.13525887e-02 ]
      - [ 1.52657554e-01, 3.99633825e-01, 7.19622970e-01, 2.63990536e-02,
          8.65234137e-01, 8.38912785e-01, 1.46720633e-01, 7.24806190e-01,
          2.57066101e-01, 4.20405604e-02 ]
      - [ 1.53331667e-01, 4.68962669e-01, 9.17428434e-01, 2.32482366e-02,
          8.36503088e-01, 7.82944143e-01, 4.33017313e-01, 1.02067180e-01,
          8.88497174e-01, 1.90821309e-02 ]
      - [ 1.87601119e-01, 4.11309540e-01, 8.23241532e-01, 4.32376191e-03,
          8.35638940e-01, 7.87534654e-01, 3.64973545e-01, 3.16537470e-01,
          7.51185358e-01, 2.02666949e-02 ]
      - [ 1.78655073e-01, 4.71346170e-01, 8.34310472e-01, 5.58918305e-02,
          8.00475836e-01, 7.55825281e-01, 5.09606540e-01, 3.57881129e-01,
          7.08634794e-01, 4.58884910e-02 ]
      - [ 1.30529597e-01, 5.04162490e-01, 8.29866052e-01, 2.14416347e-02,
          7.68320501e-01, 7.30244756e-01, 2.02698112e-01, 4.79328156e-01,
          5.24354219e-01, 2.96519827e-02 ]
      - [ 1.75480500e-01, 4.36111778e-01, 8.43603790e-01, 4.56447639e-02,
          9.13097143e-01, 8.81885827e-01, 5.14878094e-01, 3.64341080e-01,
          6.81817472e-01, 4.29218374e-02 ]
      - [ 1.22901671e-01, 5.52488863e-01, 9.51090634e-01, 1.49581367e-02,
          8.91301394e-01, 8.50409627e-01, 4.14724678e-01, 2.58397940e-03,
          9.28338289e-01, 1.11932484e-02 ]
      - [ 7.06251860e-02, 7.02442229e-01, 9.72303927e-01, 3.50087099e-02,
          8.43474388e-01, 8.09447885e-01, 4.50585723e-01, 6.45994842e-02,
          8.22977901e-01, 3.04197166e-02 ]
      - [ 2.34183550e-01, 3.56972605e-01, 7.71248341e-01, 2.78447121e-02,
          8.09485495e-01, 7.56377161e-01, 5.59455335e-01, 4.10852700e-01,
          7.04562962e-01, 4.71179597e-02 ]
      - [ 6.60648942e-02, 6.56844795e-01, 9.58053172e-01, 2.22326424e-02,
          8.08262289e-01, 7.76292861e-01, 2.34899908e-01, 1.70542642e-01,
          7.43503511e-01, 2.01815180e-02 ]
      - [ 1.29933521e-01, 5.78431010e-01, 9.42989826e-01, 1.85663998e-02,
          8.00867558e-01, 7.52881885e-01, 4.43279028e-01, 6.71834648e-02,
          8.88004541e-01, 2.01073196e-02 ]
      - [ 1.73151508e-01, 4.73798752e-01, 8.77334297e-01, 6.17842488e-02,
          9.08028901e-01, 8.69181931e-01, 6.55562401e-01, 2.63565898e-01,
          7.81066239e-01, 5.17200828e-02 ]
      - [ 1.48585796e-01, 4.86579835e-01, 8.36091399e-01, 3.35063115e-02,
          8.74930263e-01, 8.37211132e-01, 5.41162968e-01, 4.34108526e-01,
          6.01026833e-01, 4.48907465e-02 ]
      - [ 1.49112433e-01, 4.77218568e-01, 8.03723276e-01, 3.15706767e-02,
          8.99172664e-01, 8.70654404e-01, 5.25494397e-01, 5.09043932e-01,
          5.18311858e-01, 4.41874452e-02 ]
      - [ 1.68172121e-01, 5.38153291e-01, 9.09695387e-01, 5.99835180e-02,
          8.47927868e-01, 8.01120162e-01, 7.43138611e-01, 1.96382433e-01,
          8.30605924e-01, 5.81603162e-02 ]
      - [ 9.78148580e-02, 6.62337184e-01, 9.12574232e-01, 2.21737735e-02,
          9.23185110e-01, 8.96940410e-01, 4.31729168e-01, 2.09302321e-01,
          7.49053240e-01, 1.78852342e-02 ]
      - [ 1.00382902e-01, 7.14221537e-01, 9.82322216e-01, 1.47938570e-02,
          8.70020330e-01, 8.27578485e-01, 5.58347881e-01, 0.,
          9.07347798e-01, 1.38179818e-02 ]
      - [ 1.24539346e-01, 5.76289356e-01, 8.93006980e-01, 6.09159619e-02,
          8.12933028e-01, 7.75879920e-01, 3.76377851e-01, 3.07493538e-01,
          6.91462159e-01, 3.48703004e-02 ]
      - [ 1.79926485e-01, 4.58737791e-01, 8.67958665e-01, 1.69996768e-02,
          7.99070597e-01, 7.48371542e-01, 4.65966076e-01, 3.15245479e-01,
          7.42964685e-01, 3.01736649e-02 ]
      - [ 1.72283202e-01, 4.75387752e-01, 9.03687179e-01, 3.70353386e-02,
          8.64046156e-01, 8.15591574e-01, 5.39129674e-01, 1.47286817e-01,
          8.60394418e-01, 2.90427729e-02 ]
      - [ 1.60144135e-01, 5.30761003e-01, 8.63880277e-01, 1.05021894e-02,
          8.33203137e-01, 7.83116817e-01, 5.39372563e-01, 2.85529703e-01,
          7.50631154e-01, 2.31275000e-02 ]
      - [ 7.28208348e-02, 7.05240250e-01, 8.37161303e-01, 3.40628363e-02,
          9.31816697e-01, 9.15497780e-01, 4.52248722e-01, 5.96899211e-01,
          3.23739946e-01, 3.91115434e-02 ]
      - [ 9.62865725e-02, 6.35738730e-01, 8.79215002e-01, 1.06458124e-02,
          8.60922217e-01, 8.31975877e-01, 3.88951093e-01, 3.72093022e-01,
          6.02412343e-01, 2.23455131e-02 ]
      - [ 9.60764065e-02, 7.53290296e-01, 9.53666568e-01, 3.37411538e-02,
          8.92483532e-01, 8.62505734e-01, 5.70293486e-01, 9.04392749e-02,
          8.35970938e-01, 3.24698798e-02 ]
      - [ 2.58906573e-01, 3.60910565e-01, 7.72565186e-01, 6.24051094e-02,
          8.39156032e-01, 7.84082115e-01, 8.27643216e-01, 4.40568477e-01,
          7.08211482e-01, 8.03562179e-02 ]
      - [ 1.59890354e-01, 4.85163569e-01, 8.96878779e-01, 3.60638388e-02,
          8.31839085e-01, 7.88124681e-01, 3.48198503e-01, 2.06718341e-01,
          8.16519916e-01, 2.34612226e-02 ]
      - [ 1.94159806e-01, 4.94835734e-01, 8.32435012e-01, 3.62360962e-02,
          8.13501894e-01, 7.67370880e-01, 6.23944998e-01, 3.61757100e-01,
          7.17148006e-01, 4.96325716e-02 ]
      - [ 2.01811701e-01, 5.56634068e-01, 7.97307074e-01, 5.59426099e-02,
          8.05902243e-01, 7.60880768e-01, 8.07746053e-01, 6.00775182e-01,
          4.70804214e-01, 9.28339586e-02 ]
      - [ 1.68896005e-01, 5.09724021e-01, 9.30892944e-01, 4.23394665e-02,
          8.31811488e-01, 7.77754188e-01, 7.10962296e-01, 1.13695092e-01,
          8.96548510e-01, 4.38485928e-02 ]
      - [ 1.32857367e-01, 5.32937229e-01, 9.43506420e-01, 2.46306621e-02,
          9.13870454e-01, 8.77043068e-01, 5.94949722e-01, 8.52713212e-02,
          8.80753696e-01, 2.57296395e-02 ]
      - [ 2.82274604e-01, 3.10442507e-01, 6.96474612e-01, 2.64163967e-02,
          8.85774672e-01, 8.29881430e-01, 7.74788082e-01, 5.18087864e-01,
          6.47079647e-01, 6.15761615e-02 ]
      - [ 1.82064384e-01, 4.96735632e-01, 7.93191910e-01, 6.98068142e-02,
          8.56250405e-01, 8.19186211e-01, 6.86523259e-01, 5.11627913e-01,
          5.60238898e-01, 7.32865259e-02 ]
      - [ 1.54076451e-02, 8.54848206e-01, 9.82077062e-01, 4.24128305e-03,
          9.08742309e-01, 8.96659076e-01, 7.12274089e-02, 1.29198968e-01,
          7.17348158e-01, 0. ]
      - [ 1.14656158e-01, 6.66827857e-01, 9.53412652e-01, 2.15927903e-02,
          8.50208819e-01, 8.07365954e-01, 5.62900841e-01, 8.26873407e-02,
          8.62318754e-01, 2.14817673e-02 ]
      - [ 1.04888499e-01, 6.72320306e-01, 8.67111087e-01, 1.76885948e-02,
          8.02170694e-01, 7.66789436e-01, 4.48416382e-01, 3.78552973e-01,
          6.02481604e-01, 3.18632349e-02 ]
      - [ 1.97961167e-01, 5.27099371e-01, 8.11030805e-01, 5.02876565e-02,
          8.38498473e-01, 7.97463179e-01, 7.98880398e-01, 4.90956068e-01,
          5.95261574e-01, 7.51039013e-02 ]
      - [ 1.04856543e-01, 7.31113315e-01, 8.87769341e-01, 6.41920120e-02,
          8.39276195e-01, 8.13270390e-01, 6.52656555e-01, 4.61240321e-01,
          5.00554204e-01, 7.43099377e-02 ]
      - [ 4.14887406e-02, 7.17468679e-01, 9.17656064e-01, 3.12299486e-02,
          9.21008229e-01, 9.03776109e-01, 3.82127583e-01, 2.98449606e-01,
          6.00588083e-01, 3.24427225e-02 ]
      - [ 2.03464121e-01, 4.87201631e-01, 8.40017438e-01, 4.80219536e-02,
          8.71836901e-01, 8.34951758e-01, 6.42674267e-01, 4.63824302e-01,
          6.30007088e-01, 6.71309084e-02 ]
      - [ 7.21172169e-02, 6.82061553e-01, 8.78358662e-01, 3.21067944e-02,
          8.80487323e-01, 8.63900781e-01, 1.74568281e-01, 4.59948331e-01,
          4.80441213e-01, 2.79426705e-02 ]
      - [ 6.89961165e-02, 8.78959537e-01, 8.91096473e-01, 5.13318405e-02,
          8.23809743e-01, 7.93867826e-01, 6.61426544e-01, 4.25064594e-01,
          5.02586305e-01, 6.82737753e-02 ]
      - [ 1.81259975e-01, 5.88621378e-01, 8.86501491e-01, 8.31534043e-02,
          8.86254311e-01, 8.41477990e-01, 9.09113944e-01, 2.44186044e-01,
          7.97915578e-01, 9.34642702e-02 ]
      - [ 1.49117962e-01, 6.11592829e-01, 8.89795423e-01, 3.90811153e-02,
          8.31053078e-01, 7.82969117e-01, 7.33367860e-01, 2.75193810e-01,
          7.38223135e-01, 5.22618666e-02 ]
      - [ 1.27434313e-01, 5.77532887e-01, 8.17371666e-01, 2.05794834e-02,
          8.03460956e-01, 7.71294653e-01, 4.37012911e-01, 5.60723543e-01,
          4.32048410e-01, 4.09391038e-02 ]
      - [ 5.71483336e-02, 8.15537691e-01, 9.62287426e-01, 3.91880721e-02,
          7.95961022e-01, 7.64019430e-01, 5.62671602e-01, 2.26098195e-01,
          6.92247272e-01, 4.25023697e-02 ]
      - [ 7.14959502e-02, 7.37538457e-01, 9.10245240e-01, 1.93714965e-02,
          9.66188431e-01, 9.51629639e-01, 4.74919289e-01, 3.04909557e-01,
          6.34325266e-01, 2.06126776e-02 ]
      - [ 4.82686460e-02, 8.03378344e-01, 8.83244395e-01, 3.65546308e-02,
          9.60388482e-01, 9.54352140e-01, 5.26447654e-01, 4.89664078e-01,
          4.17900801e-01, 4.23715748e-02 ]
      - [ 6.43049330e-02, 7.66658604e-01, 9.05210674e-01, 2.89963502e-02,
          9.30887640e-01, 9.15832460e-01, 5.40436327e-01, 3.29457372e-01,
          6.01103783e-01, 3.35292816e-02 ]
      - [ 5.05208299e-02, 7.95295179e-01, 9.67964590e-01, 3.47331800e-02,
          9.43214476e-01, 9.29564476e-01, 4.17514056e-01, 1.49870798e-01,
          7.49684393e-01, 1.68357398e-02 ]
      - [ 1.28035918e-01, 5.88344991e-01, 8.66703093e-01, 1.80516019e-02,
          8.70527506e-01, 8.34929049e-01, 4.86296684e-01, 3.28165382e-01,
          6.80524349e-01, 2.60357056e-02 ]
      - [ 1.19462870e-01, 7.33738661e-01, 9.38902676e-01, 5.73566332e-02,
          8.57383847e-01, 8.22918057e-01, 7.41287887e-01, 2.17054263e-01,
          7.57681906e-01, 5.90435192e-02 ]
      - [ 8.78493264e-02, 6.26688302e-01, 8.34576666e-01, 4.99476828e-02,
          1., 1., 3.87171179e-01, 5.74935377e-01, 3.62026244e-01,
          4.85395268e-02 ]
      - [ 7.78340176e-02, 7.07347393e-01, 9.48015630e-01, 2.77938042e-02,
          8.70730996e-01, 8.44880879e-01, 4.04914826e-01, 1.57622740e-01,
          7.65155971e-01, 2.29031891e-02 ]
      - [ 1.00529157e-01, 6.90801084e-01, 8.64100873e-01, 4.27153558e-02,
          8.98231387e-01, 8.74489963e-01, 5.97877026e-01, 4.62532312e-01,
          5.23415148e-01, 4.70793284e-02 ]
      - [ 9.43717510e-02, 6.01333380e-01, 9.05639708e-01, 2.58152131e-02,
          8.59219551e-01, 8.30559433e-01, 4.25760478e-01, 2.89405674e-01,
          6.71326101e-01, 3.35302800e-02 ]
      - [ 9.93222520e-02, 7.77816176e-01, 9.21606660e-01, 3.59905884e-02,
          8.50040853e-01, 8.13176811e-01, 6.12867415e-01, 2.10594311e-01,
          7.49491990e-01, 3.27874944e-02 ]
      - [ 4.38957810e-02, 7.88904607e-01, 9.88622844e-01, 4.55384813e-02,
          9.35256124e-01, 9.18401122e-01, 4.57742512e-01, 9.04392749e-02,
          7.84568489e-01, 3.00188493e-02 ]
      - [ 1.46427631e-01, 5.77463806e-01, 9.12257314e-01, 3.16869542e-02,
          9.06576276e-01, 8.65924835e-01, 6.86808407e-01, 1.61498711e-01,
          8.42706084e-01, 3.08645610e-02 ]
      - [ 2.76339024e-01, 3.22636366e-01, 6.76651657e-01, 2.66197268e-02,
          8.16903055e-01, 7.63100922e-01, 6.35351062e-01, 6.48578823e-01,
          4.95874256e-01, 6.61832690e-02 ]
      - [ 1.39232323e-01, 5.58844864e-01, 8.56038630e-01, 2.17817426e-02,
          8.34049940e-01, 8.00817966e-01, 4.36300725e-01, 3.94056857e-01,
          6.27728701e-01, 3.35514471e-02 ]
      - [ 2.38311231e-01, 3.78907740e-01, 7.20607102e-01, 6.79050162e-02,
          8.08213770e-01, 7.61258721e-01, 7.54579663e-01, 6.55038774e-01,
          4.56010044e-01, 8.90605152e-02 ]
      - [ 1.50345758e-01, 5.14318287e-01, 8.14699411e-01, 2.32967604e-02,
          8.93288434e-01, 8.64543021e-01, 5.55624485e-01, 4.94832039e-01,
          5.36500514e-01, 4.21038531e-02 ]
      - [ 7.89555013e-02, 6.99367881e-01, 9.46767032e-01, 3.84655148e-02,
          8.71953726e-01, 8.45121324e-01, 5.26755691e-01, 2.11886302e-01,
          7.23644495e-01, 3.65146063e-02 ]
      - [ 8.96492302e-02, 7.69387543e-01, 9.70517755e-01, 4.96241748e-02,
          8.82968724e-01, 8.49792242e-01, 7.81375766e-01, 9.94832069e-02,
          8.29813123e-01, 4.99618724e-02 ]
      - [ 9.05943513e-02, 8.26418877e-01, 9.13950622e-01, 7.18783885e-02,
          8.77788246e-01, 8.50769699e-01, 7.95858681e-01, 3.37209314e-01,
          6.17106438e-01, 9.06504393e-02 ]
      - [ 1.63692936e-01, 5.36426127e-01, 9.47253883e-01, 5.72840609e-02,
          8.37050796e-01, 7.82068551e-01, 6.33241832e-01, 1.80878546e-02,
          9.53339100e-01, 3.25304642e-02 ]
      - [ 1.32943407e-01, 6.71180367e-01, 9.28889632e-01, 4.46468741e-02,
          8.55576932e-01, 8.12768400e-01, 7.61323631e-01, 1.75710589e-01,
          8.07452500e-01, 5.53139076e-02 ]
      - [ 2.44022496e-02, 8.66593003e-01, 1., 2.77580936e-02,
          9.05112386e-01, 8.85782182e-01, 4.35537875e-01, 6.33074939e-02,
          7.84437656e-01, 1.24475239e-02 ]
      - [ 1.26719013e-01, 6.08691156e-01, 8.98978412e-01, 2.59138998e-02,
          8.02214146e-01, 7.60521650e-01, 5.22447348e-01, 2.71317840e-01,
          7.30071723e-01, 3.18471976e-02 ]
      - [ 1.38533622e-01, 6.07171237e-01, 8.45722675e-01, 2.62495019e-02,
          8.41691673e-01, 8.00670028e-01, 5.99082291e-01, 3.92764866e-01,
          6.23464406e-01, 4.11732532e-02 ]
      - [ 1.67264491e-01, 5.17150879e-01, 8.93266141e-01, 3.60628106e-02,
          9.34219539e-01, 8.98931026e-01, 6.29275262e-01, 2.19638243e-01,
          8.03080440e-01, 3.79325375e-02 ]
      - [ 1.38462946e-01, 5.01364470e-01, 8.60901535e-01, 1.66806057e-02,
          8.74298275e-01, 8.41198802e-01, 3.34652334e-01, 3.29457372e-01,
          6.82194650e-01, 2.46399436e-02 ]
      - [ 1.63908631e-01, 5.78016520e-01, 9.31251943e-01, 3.50217149e-02,
          8.88960361e-01, 8.48482668e-01, 6.07948482e-01, 1.00775197e-01,
          8.94008458e-01, 3.54218483e-02 ]
      - [ 1.20827086e-01, 5.78569233e-01, 8.34378779e-01, 2.79832240e-02,
          8.75581205e-01, 8.48625064e-01, 4.95134234e-01, 4.98708010e-01,
          4.91625369e-01, 4.32013907e-02 ]
      - [ 2.05058783e-01, 5.18947124e-01, 7.37349749e-01, 4.53156456e-02,
          7.86041021e-01, 7.37993836e-01, 7.69200146e-01, 6.57622755e-01,
          3.99565876e-01, 8.08141753e-02 ]
      - [ 1.02470398e-01, 7.67556727e-01, 9.16442513e-01, 5.34621514e-02,
          8.98510277e-01, 8.70779216e-01, 7.00357258e-01, 2.81653732e-01,
          6.92716837e-01, 5.72927929e-02 ]
      - [ 1.09448791e-01, 6.88072145e-01, 8.29725981e-01, 4.50896509e-02,
          9.66791868e-01, 9.63614225e-01, 5.30709565e-01, 6.57622755e-01,
          2.90764809e-01, 6.05938807e-02 ]
      - [ 1.19291417e-01, 6.34218812e-01, 8.24248433e-01, 2.94127427e-02,
          8.68945062e-01, 8.38938355e-01, 5.82277536e-01, 4.98708010e-01,
          4.97259766e-01, 4.14954275e-02 ]
      - [ 2.28245527e-01, 3.60634208e-01, 7.72484660e-01, 8.82177427e-02,
          8.96195889e-01, 8.51359606e-01, 7.86790848e-01, 4.54780370e-01,
          6.63451791e-01, 8.75858516e-02 ]
      - [ 1.37675136e-01, 4.91277754e-01, 8.16462815e-01, 2.23416630e-02,
          8.25537801e-01, 7.89604425e-01, 3.74999046e-01, 4.78036165e-01,
          5.36077142e-01, 3.76426503e-02 ]
      - [ 1.91240877e-01, 5.19223452e-01, 8.72354031e-01, 5.37314825e-02,
          8.47622514e-01, 8.04410219e-01, 7.01821446e-01, 3.03617567e-01,
          7.72668481e-01, 6.06725700e-02 ]
      - [ 1.36919916e-01, 6.17465198e-01, 9.33801591e-01, 2.07461324e-02,
          8.19659233e-01, 7.74380267e-01, 5.19856393e-01, 1.04651161e-01,
          8.62295628e-01, 2.35535279e-02 ]
      - [ 1.88678369e-01, 5.05924225e-01, 7.87271321e-01, 6.74335659e-02,
          8.07368040e-01, 7.68602371e-01, 7.74681509e-01, 5.62015533e-01,
          5.01193106e-01, 9.12329927e-02 ]
      - [ 8.59308243e-02, 6.01057053e-01, 9.58732605e-01, 4.26727831e-02,
          9.60559726e-01, 9.41403151e-01, 3.18565398e-01, 1.03359170e-01,
          8.21900308e-01, 1.86774861e-02 ]
      - [ 2.11521596e-01, 4.16352898e-01, 7.84532487e-01, 3.65428403e-02,
          8.94842327e-01, 8.55488598e-01, 7.44514763e-01, 4.74160194e-01,
          6.21824861e-01, 6.03195317e-02 ]
      - [ 1.14132598e-01, 5.97326338e-01, 8.73257637e-01, 2.78934352e-02,
          8.29199612e-01, 7.97350705e-01, 4.95124429e-01, 3.85012925e-01,
          6.01226926e-01, 3.80455106e-02 ]
      - [ 1.10851102e-01, 6.13078177e-01, 8.30247819e-01, 5.54641895e-02,
          9.08648729e-01, 8.88331771e-01, 5.87527156e-01, 5.65891445e-01,
          4.06901389e-01, 5.70719019e-02 ]
      - [ 1.26095906e-01, 5.33697188e-01, 8.75534117e-01, 1.89742725e-02,
          8.47435534e-01, 8.14651728e-01, 3.32980484e-01, 3.92764866e-01,
          6.13565683e-01, 2.73720212e-02 ]
      - [ 1.32728934e-01, 4.96839255e-01, 8.87002349e-01, 1.02958260e-02,
          7.65924156e-01, 7.24795878e-01, 2.63063431e-01, 3.43669266e-01,
          6.64252281e-01, 2.53728218e-02 ]
      - [ 1.50868088e-01, 5.17910838e-01, 9.09840703e-01, 1.65323168e-02,
          7.46026158e-01, 6.93843126e-01, 4.60027158e-01, 2.09302321e-01,
          8.05058658e-01, 2.55571455e-02 ]
      - [ 1.60841614e-01, 5.54526925e-01, 8.98015261e-01, 3.29476483e-02,
          8.08912635e-01, 7.57024646e-01, 6.41723752e-01, 2.24806204e-01,
          8.03727031e-01, 3.72867584e-02 ]
      - [ 1.68050438e-01, 5.31002820e-01, 9.51530159e-01, 2.55817473e-02,
          8.56105983e-01, 8.00161242e-01, 6.77863061e-01, 3.87596898e-02,
          9.45102990e-01, 2.97074374e-02 ]
      - [ 1.97590619e-01, 5.32902718e-01, 8.50396454e-01, 5.21304011e-02,
          8.07390988e-01, 7.56457210e-01, 7.50566363e-01, 3.74677002e-01,
          7.10266650e-01, 6.13511354e-02 ]
      - [ 2.31559590e-01, 3.81187618e-01, 8.35525751e-01, 3.93352620e-02,
          7.97169507e-01, 7.31698930e-01, 6.83777869e-01, 2.54521966e-01,
          8.46754849e-01, 4.64334078e-02 ]
      - [ 1.31664604e-01, 6.31178975e-01, 8.88623893e-01, 5.09173684e-02,
          7.63055027e-01, 7.20794380e-01, 6.70208395e-01, 3.88888896e-01,
          6.24665141e-01, 6.14297539e-02 ]
      - [ 1.56200200e-01, 6.01160645e-01, 8.98197353e-01, 3.87725271e-02,
          8.12033713e-01, 7.74344742e-01, 6.36205554e-01, 3.34625334e-01,
          7.03662395e-01, 5.42582124e-02 ]
      - [ 2.60738432e-01, 3.29752326e-01, 7.26194978e-01, 4.28590067e-02,
          6.96984828e-01, 6.38338864e-01, 6.03163183e-01, 5.90439260e-01,
          5.38309395e-01, 6.73607811e-02 ]
      - [ 1.06968619e-01, 5.14629185e-01, 8.62311244e-01, 5.44498190e-02,
          8.02094579e-01, 7.69667923e-01, 0., 3.95348847e-01,
          5.83669424e-01, 2.73028109e-02 ]
      - [ 1.45360216e-01, 4.66855496e-01, 8.16877842e-01, 1.39087541e-02,
          8.47529113e-01, 8.10839832e-01, 3.49697590e-01, 4.68992233e-01,
          5.60238898e-01, 2.76643317e-02 ]
      - [ 1.64097905e-01, 4.91795927e-01, 8.89860213e-01, 3.99413779e-02,
          8.08409750e-01, 7.58706689e-01, 5.27209163e-01, 1.78294569e-01,
          8.41151178e-01, 2.95121372e-02 ]
      - [ 2.38126263e-01, 3.94763201e-01, 8.09876800e-01, 2.43643913e-02,
          7.08550394e-01, 6.41892910e-01, 6.81828856e-01, 3.74677002e-01,
          7.46974945e-01, 5.01404963e-02 ]
      - [ 1.74681634e-01, 4.82331008e-01, 8.71439934e-01, 2.93428786e-02,
          7.47611046e-01, 6.92443669e-01, 6.47951782e-01, 3.06201547e-01,
          7.41987109e-01, 4.60973345e-02 ]
      - [ 1.19202316e-01, 7.01371372e-01, 8.67058575e-01, 4.35185805e-02,
          9.05473292e-01, 8.78400266e-01, 6.98662162e-01, 3.88888896e-01,
          6.10317409e-01, 5.10052368e-02 ]
      - [ 1.45016715e-01, 5.66824436e-01, 7.87775636e-01, 3.16591598e-02,
          8.49213958e-01, 8.18626344e-01, 5.74294329e-01, 5.95607221e-01,
          4.16268975e-01, 5.34468591e-02 ]
      - [ 5.12010939e-02, 1., 9.83036697e-01, 4.37747650e-02,
          8.58068168e-01, 8.36677015e-01, 5.96659780e-01, 1.67958662e-01,
          7.34043539e-01, 4.33564186e-02 ]
      - [ 9.09655169e-02, 7.64689624e-01, 9.33764815e-01, 3.00687123e-02,
          8.95467281e-01, 8.64307225e-01, 6.11185730e-01, 2.40310073e-01,
          7.20480919e-01, 3.06010470e-02 ]
      - [ 1.38558805e-01, 5.64164579e-01, 8.43306065e-01, 4.97577265e-02,
          9.06426251e-01, 8.78058255e-01, 6.42601609e-01, 4.68992233e-01,
          5.57714224e-01, 5.58015183e-02 ]
      - [ 1.81280877e-04, 8.78855944e-01, 9.65414941e-01, 7.41897449e-02,
          9.34684634e-01, 9.32492435e-01, 9.64038819e-02, 2.64857888e-01,
          5.89111447e-01, 2.14094203e-02 ]
      - [ 1.38368919e-01, 5.64751804e-01, 9.14024174e-01, 2.56529413e-02,
          8.14140141e-01, 7.70075679e-01, 5.27279794e-01, 1.95090443e-01,
          7.88324773e-01, 2.83597168e-02 ]
      - [ 8.83839503e-02, 6.66620612e-01, 8.95803571e-01, 2.72175055e-02,
          9.22668755e-01, 9.04171586e-01, 5.36516666e-01, 4.01808798e-01,
          5.65657794e-01, 3.72777060e-02 ]
      - [ 1.92719385e-01, 4.12414938e-01, 7.73500323e-01, 6.70017228e-02,
          9.65575457e-01, 9.39401388e-01, 6.78382754e-01, 5.68475425e-01,
          5.01924336e-01, 6.47064671e-02 ]
      - [ 2.58802712e-01, 3.05917293e-01, 5.99249482e-01, 3.89657244e-02,
          8.81738365e-01, 8.41453493e-01, 7.08152652e-01, 8.63049090e-01,
          1.84680864e-01, 8.56456682e-02 ]
      - [ 9.43717510e-02, 6.66586041e-01, 8.53967011e-01, 2.80132554e-02,
          8.41141164e-01, 8.14313710e-01, 3.72074008e-01, 4.90956068e-01,
          4.79402065e-01, 2.83078272e-02 ]
      - [ 1.36078030e-01, 5.53559721e-01, 8.25425148e-01, 3.39132436e-02,
          9.16645885e-01, 8.97659898e-01, 5.76750517e-01, 5.71059406e-01,
          4.33149099e-01, 5.47433309e-02 ]
      - [ 1.10878140e-01, 6.12180054e-01, 8.82041335e-01, 2.10850276e-02,
          8.46320271e-01, 8.12735915e-01, 3.69041353e-01, 3.19121450e-01,
          6.70548677e-01, 2.37342883e-02 ]
      - [ 1.74103990e-01, 6.68762326e-01, 8.49631190e-01, 6.71742782e-02,
          8.37241113e-01, 8.02971303e-01, 7.81464994e-01, 4.92248058e-01,
          5.68013191e-01, 9.61252823e-02 ]
      - [ 1.31366566e-01, 6.17741525e-01, 7.76032448e-01, 5.65122627e-02,
          9.32857513e-01, 9.12853420e-01, 7.15514600e-01, 6.95090413e-01,
          2.79018760e-01, 6.98747486e-02 ]
      - [ 7.97672719e-02, 6.78987205e-01, 9.08816278e-01, 1.72489714e-02,
          9.54422176e-01, 9.36524212e-01, 4.89529938e-01, 2.91989654e-01,
          6.59041226e-01, 1.99251324e-02 ]
      - [ 3.90958339e-02, 7.83101320e-01, 9.11164582e-01, 2.53953226e-02,
          9.20561373e-01, 9.09709573e-01, 3.43680263e-01, 4.00516808e-01,
          5.11799932e-01, 2.33912989e-02 ]
      - [ 1.18289769e-01, 7.38160193e-01, 8.84349346e-01, 4.93805259e-02,
          8.11399758e-01, 7.71883667e-01, 7.50983000e-01, 4.23772603e-01,
          5.83423138e-01, 5.89028150e-02 ]
      - [ 1.35066539e-01, 5.81574500e-01, 7.82450378e-01, 6.36522472e-02,
          9.51236784e-01, 9.32112575e-01, 6.50795460e-01, 6.18863046e-01,
          3.77243757e-01, 5.91069534e-02 ]
      - [ 2.32387945e-01, 3.75211567e-01, 7.67661989e-01, 3.66417579e-02,
          8.22752714e-01, 7.73605764e-01, 6.52310789e-01, 4.80620146e-01,
          6.37627363e-01, 5.97056188e-02 ]
      - [ 1.49407402e-01, 4.85785335e-01, 9.49729979e-01, 1.92253273e-02,
          8.34628761e-01, 7.82285750e-01, 4.15628433e-01, 4.39276472e-02,
          9.25859809e-01, 1.62390731e-02 ]
      - [ 1.70662120e-01, 5.78465581e-01, 9.08126354e-01, 6.59256056e-02,
          8.03450525e-01, 7.48313189e-01, 7.46488214e-01, 1.86046511e-01,
          8.42051804e-01, 5.49626499e-02 ]
      - [ 5.25536314e-02, 7.06932902e-01, 9.61664021e-01, 6.09348416e-02,
          9.13635552e-01, 8.92559528e-01, 1.03087492e-01, 1.34366930e-01,
          7.59975672e-01, 1.33849690e-02 ]
      - [ 2.22235605e-01, 3.89478058e-01, 9.20041144e-01, 5.64417653e-02,
          7.56544411e-01, 6.86024249e-01, 6.89009309e-01, 3.35917324e-02,
          1., 5.22500314e-02 ]
      - [ 8.71420205e-02, 6.36187792e-01, 9.53344345e-01, 3.98521386e-02,
          8.38967383e-01, 8.03470731e-01, 4.89829689e-01, 1.61498711e-01,
          7.78148949e-01, 3.09135281e-02 ]
      - [ 1.00067042e-01, 6.07862115e-01, 8.98066044e-01, 2.28506587e-02,
          7.99364746e-01, 7.65297592e-01, 4.11238074e-01, 3.66925061e-01,
          6.02350771e-01, 3.43837589e-02 ]
      - [ 1.01712093e-01, 5.64475477e-01, 9.15477633e-01, 2.79257018e-02,
          8.09135437e-01, 7.73257554e-01, 2.23702371e-01, 2.36434102e-01,
          7.22982526e-01, 2.30068266e-02 ]
      - [ 1.99294657e-01, 4.25921440e-01, 8.41006815e-01, 2.45815031e-02,
          8.13037455e-01, 7.62686014e-01, 6.47869051e-01, 3.42377275e-01,
          7.41463721e-01, 4.60482240e-02 ]
      - [ 8.04020613e-02, 6.20090485e-01, 9.34446037e-01, 4.15823832e-02,
          8.57209444e-01, 8.23835611e-01, 2.38068819e-01, 2.09302321e-01,
          7.28486121e-01, 1.84643660e-02 ]
      - [ 2.07583815e-01, 3.98701161e-01, 8.48456204e-01, 2.48541068e-02,
          8.26605558e-01, 7.70820677e-01, 5.94849050e-01, 2.55813956e-01,
          8.24802160e-01, 3.51512767e-02 ]
      - [ 2.01474950e-01, 4.79463875e-01, 8.00919712e-01, 2.91773360e-02,
          7.96746075e-01, 7.44289339e-01, 6.56725466e-01, 4.75452185e-01,
          6.16298199e-01, 5.34707345e-02 ]
      - [ 1.82821453e-01, 3.68164718e-01, 8.19667399e-01, 1.36426277e-02,
          8.93747032e-01, 8.50399792e-01, 4.07372028e-01, 3.46253216e-01,
          7.18810618e-01, 2.65250280e-02 ]
      - [ 2.39422262e-01, 3.43673348e-01, 7.67366052e-01, 3.13226432e-02,
          8.07321012e-01, 7.54030824e-01, 6.69697285e-01, 4.70284224e-01,
          6.63143873e-01, 5.98600060e-02 ]
      - [ 1.70640603e-01, 4.82261896e-01, 8.85051548e-01, 3.17116268e-02,
          7.71731615e-01, 7.21331537e-01, 5.70708215e-01, 2.90697664e-01,
          7.60653019e-01, 4.19238769e-02 ]
      - [ 1.34463713e-01, 6.07102156e-01, 8.64395082e-01, 2.51384228e-02,
          8.88987660e-01, 8.55586648e-01, 5.76309681e-01, 3.69509041e-01,
          6.46302223e-01, 3.41790505e-02 ]
      - [ 2.17848614e-01, 4.13865775e-01, 8.81051958e-01, 3.75554562e-02,
          7.65644431e-01, 7.00401604e-01, 7.05685139e-01, 1.40826866e-01,
          9.23689127e-01, 4.59471531e-02 ]
      - [ 2.12681174e-01, 3.96490365e-01, 8.58283579e-01, 1.88261364e-02,
          8.22822213e-01, 7.62064993e-01, 5.65103233e-01, 1.87338501e-01,
          8.83324623e-01, 2.90960167e-02 ]
      - [ 2.39456058e-01, 3.54485482e-01, 8.47892344e-01, 4.38996740e-02,
          7.59146690e-01, 6.97989881e-01, 6.35649621e-01, 2.70025849e-01,
          8.43937635e-01, 5.37867099e-02 ]
      - [ 1.68424070e-01, 4.83540028e-01, 8.58751178e-01, 6.18683919e-02,
          8.55502188e-01, 8.15836787e-01, 5.67933381e-01, 2.97157615e-01,
          7.47275174e-01, 4.81219105e-02 ]
      - [ 1.77064717e-01, 5.15803635e-01, 9.05019820e-01, 1.77995395e-02,
          7.44986594e-01, 6.86122298e-01, 5.14818132e-01, 1.25322998e-01,
          8.92830729e-01, 2.52781659e-02 ]
      - [ 1.22048736e-01, 6.39434874e-01, 8.59302759e-01, 6.69067949e-02,
          8.96582186e-01, 8.70557427e-01, 6.31282151e-01, 4.32816535e-01,
          5.75571895e-01, 5.39150834e-02 ]
      - [ 2.04283878e-01, 4.47269350e-01, 8.67153108e-01, 4.17273939e-02,
          7.69552588e-01, 7.09890723e-01, 6.36933982e-01, 2.36434102e-01,
          8.34747076e-01, 4.58902717e-02 ]
      - [ 2.15995237e-01, 4.62019414e-01, 8.98803294e-01, 7.94116482e-02,
          7.98824966e-01, 7.35213995e-01, 6.90980792e-01, 5.55555560e-02,
          9.65616226e-01, 4.81102914e-02 ]
      - [ 2.05812171e-01, 4.92348611e-01, 8.37551832e-01, 4.22475152e-02,
          7.59156048e-01, 7.00581193e-01, 6.62670195e-01, 3.43669266e-01,
          7.48398960e-01, 5.03199026e-02 ]
      - [ 2.18329161e-01, 4.12622184e-01, 7.85917640e-01, 2.10227557e-02,
          6.41948521e-01, 5.79226792e-01, 5.68739831e-01, 4.79328156e-01,
          6.22802436e-01, 4.89312671e-02 ]
      - [ 1.60882175e-01, 4.56768811e-01, 8.65463257e-01, 1.59116983e-02,
          7.08989203e-01, 6.53719842e-01, 2.57893533e-01, 2.91989654e-01,
          7.43426502e-01, 2.21671760e-02 ]
      - [ 1.51841477e-01, 4.82054651e-01, 8.34278941e-01, 3.07181980e-02,
          8.49705696e-01, 8.12564909e-01, 3.87606621e-01, 4.03100789e-01,
          6.33647919e-01, 3.20702940e-02 ]
      - [ 1.76689252e-01, 5.15423656e-01, 8.29584122e-01, 4.63056788e-02,
          7.79562116e-01, 7.28939414e-01, 4.82041866e-01, 3.39793295e-01,
          7.18156338e-01, 3.77078690e-02 ]
      - [ 1.95557207e-01, 4.07786101e-01, 7.18932986e-01, 8.13971739e-03,
          8.42394710e-01, 8.02183568e-01, 3.92268330e-01, 5.94315231e-01,
          4.69172388e-01, 4.12341245e-02 ]
      - [ 2.12984756e-01, 3.54727268e-01, 6.68598175e-01, 2.70830523e-02,
          7.55070448e-01, 7.12194860e-01, 4.95114684e-01, 7.84237742e-01,
          2.44457960e-01, 6.61889017e-02 ]
      - [ 1.88315183e-01, 5.02504408e-01, 8.35926771e-01, 2.53755171e-02,
          7.82735586e-01, 7.32484043e-01, 5.97314298e-01, 4.16020662e-01,
          6.55777574e-01, 4.36763838e-02 ]
      - [ 9.45966616e-02, 6.59884632e-01, 9.07725334e-01, 6.42524287e-02,
          8.56551588e-01, 8.27247083e-01, 4.77527082e-01, 2.80361772e-01,
          6.77329957e-01, 3.89622860e-02 ]
      - [ 1.54178455e-01, 5.36460698e-01, 8.64428341e-01, 1.81210805e-02,
          7.96370447e-01, 7.50806451e-01, 5.02469301e-01, 3.07493538e-01,
          7.26138413e-01, 3.13578732e-02 ]
      - [ 1.35391623e-01, 4.79463875e-01, 8.65064025e-01, 1.72695518e-02,
          7.98312008e-01, 7.58098722e-01, 1.64561093e-01, 3.11369509e-01,
          6.94825888e-01, 2.16953158e-02 ]
      - [ 1.48523733e-01, 4.93315846e-01, 8.32716942e-01, 1.69112645e-02,
          8.29211056e-01, 7.91552782e-01, 4.06435728e-01, 4.34108526e-01,
          5.91851652e-01, 3.17350067e-02 ]
      - [ 1.85381517e-01, 4.41086054e-01, 9.01415944e-01, 2.06228141e-02,
          8.16251159e-01, 7.65777647e-01, 4.86679375e-01, 1.66666672e-01,
          8.55929971e-01, 3.04527171e-02 ]
      - [ 2.23713502e-01, 4.29272175e-01, 8.03402841e-01, 2.70529725e-02,
          7.50345647e-01, 6.89313412e-01, 6.37114465e-01, 3.90180886e-01,
          7.22574592e-01, 4.70318571e-02 ]
      - [ 5.28387666e-01, 9.19893607e-02, 3.44836593e-01, 3.96230146e-02,
          6.45935237e-01, 5.58786631e-01, 7.96219528e-01, 1.,
          2.32173100e-01, 1.53882518e-01 ]
      - [ 2.56128997e-01, 4.46509391e-01, 7.89442718e-01, 5.94507419e-02,
          8.65949690e-01, 8.07439983e-01, 8.70788276e-01, 4.22480613e-01,
          7.12137043e-01, 7.79743940e-02 ]
      - [ 1.77590728e-01, 4.57666934e-01, 8.48584056e-01, 2.67526824e-02,
          8.55277717e-01, 8.08783174e-01, 5.49484551e-01, 3.11369509e-01,
          7.39500880e-01, 3.59537937e-02 ]
      - [ 1., 0., 0., 1., 0., 0., 1., 7.84237742e-01, 9.10334349e-01, 1. ]
      - [ 1.30178109e-01, 5.73111355e-01, 8.89133453e-01, 2.45067086e-02,
          8.11154306e-01, 7.69746959e-01, 3.14742625e-01, 2.44186044e-01,
          7.41594553e-01, 2.58769691e-02 ]
      - [ 1.47046447e-01, 4.97910112e-01, 9.04009402e-01, 2.12172065e-02,
          8.22840154e-01, 7.77749479e-01, 4.42000806e-01, 1.53746769e-01,
          8.36024821e-01, 2.55510155e-02 ]
      - [ 1.31920248e-01, 5.24335921e-01, 9.18303967e-01, 2.41014082e-02,
          9.20815587e-01, 8.84887338e-01, 5.17781198e-01, 1.55038759e-01,
          8.20653319e-01, 2.42664479e-02 ]
      - [ 2.37780288e-01, 4.37355340e-01, 8.59019101e-01, 4.23191115e-02,
          7.82925427e-01, 7.26369083e-01, 6.93271577e-01, 1.52454779e-01,
          9.21610892e-01, 5.28586023e-02 ]
      - [ 2.64646739e-01, 3.79909486e-01, 8.03534150e-01, 5.46117164e-02,
          7.86805272e-01, 7.24122703e-01, 7.99233913e-01, 3.85012925e-01,
          7.63177752e-01, 7.24796653e-02 ]
      - [ 2.40791395e-01, 4.01775539e-01, 7.18230784e-01, 6.10671341e-02,
          8.99628520e-01, 8.60384166e-01, 7.96765625e-01, 7.00258374e-01,
          3.84833276e-01, 9.10302028e-02 ]
      - [ 1.25570491e-01, 5.06442368e-01, 8.03218961e-01, 1.66428182e-02,
          9.35234666e-01, 9.19463933e-01, 3.64922732e-01, 6.26614988e-01,
          3.48709941e-01, 3.74125652e-02 ]
      - [ 2.66857743e-01, 2.95450628e-01, 6.91792071e-01, 2.21982244e-02,
          8.82064700e-01, 8.41807663e-01, 5.98131001e-01, 6.13695085e-01,
          5.27171373e-01, 5.94547912e-02 ]
      - [ 2.30986863e-01, 3.89478058e-01, 8.21122646e-01, 3.88436243e-02,
          7.47628033e-01, 6.80800617e-01, 6.32771313e-01, 3.15245479e-01,
          7.86931574e-01, 4.74540368e-02 ]
      - [ 2.38815129e-01, 3.39977205e-01, 7.66623616e-01, 3.74485478e-02,
          8.51534188e-01, 7.99146712e-01, 6.00124598e-01, 4.32816535e-01,
          6.88721955e-01, 5.06853424e-02 ]
      - [ 1.72502577e-01, 4.34695512e-01, 8.27354908e-01, 2.75194161e-02,
          9.28095341e-01, 8.90931010e-01, 5.26737273e-01, 3.64341080e-01,
          6.79069579e-01, 3.91441174e-02 ]
      - [ 2.92080969e-01, 3.23499948e-01, 7.89771914e-01, 3.90458629e-02,
          7.58201420e-01, 6.88276172e-01, 7.21472502e-01, 3.88888896e-01,
          7.76601791e-01, 6.83214590e-02 ]
      - [ 1.02491908e-01, 6.10556483e-01, 9.53361869e-01, 1.53977172e-02,
          8.27664137e-01, 7.90258765e-01, 4.06737864e-01, 1.38242900e-01,
          8.00786674e-01, 2.20446493e-02 ]
      - [ 1.77383646e-01, 4.81916487e-01, 8.60216856e-01, 2.81067099e-02,
          9.06430364e-01, 8.65340173e-01, 6.40690982e-01, 2.94573635e-01,
          7.51077592e-01, 3.78874876e-02 ]
      - [ 9.79648009e-02, 5.83094418e-01, 9.10702288e-01, 1.15612792e-02,
          8.71664464e-01, 8.40563536e-01, 2.11591110e-01, 2.35142112e-01,
          7.21812546e-01, 1.28739076e-02 ]
      - [ 1.39827162e-01, 5.57152212e-01, 9.31933105e-01, 3.03006284e-02,
          8.46837997e-01, 8.00548136e-01, 4.82589096e-01, 1.08527131e-01,
          8.60602260e-01, 2.51223519e-02 ]
      - [ 7.82125592e-02, 5.97015440e-01, 9.52375948e-01, 6.15664897e-03,
          9.29398298e-01, 9.06829536e-01, 1.60490468e-01, 1.09819122e-01,
          7.98462093e-01, 5.73857408e-03 ]
      - [ 2.88558602e-01, 2.81633228e-01, 7.03619242e-01, 4.89570536e-02,
          8.57083082e-01, 8.05391788e-01, 7.15364814e-01, 5.42635679e-01,
          6.31338716e-01, 7.44370222e-02 ]
      - [ 2.74055511e-01, 3.28336030e-01, 7.67185688e-01, 3.26028690e-02,
          8.29795420e-01, 7.65473127e-01, 7.32763052e-01, 4.05684769e-01,
          7.45058358e-01, 5.71719073e-02 ]
      - [ 1.60474136e-01, 4.71277088e-01, 9.14377928e-01, 1.61026102e-02,
          8.82035911e-01, 8.38509440e-01, 4.66829777e-01, 1.09819122e-01,
          8.83401573e-01, 2.07577292e-02 ]
      - [ 2.07771242e-01, 3.98079395e-01, 7.68311679e-01, 4.30389903e-02,
          9.52741086e-01, 9.19480383e-01, 6.94770813e-01, 4.93540049e-01,
          5.92621386e-01, 5.67795224e-02 ]
      - [ 1.02247946e-01, 6.05824053e-01, 9.20965731e-01, 3.46441753e-02,
          9.72761750e-01, 9.57962453e-01, 3.44883054e-01, 1.89922482e-01,
          7.65771747e-01, 2.11536773e-02 ]
      - [ 1.15013190e-01, 6.11005545e-01, 9.31278169e-01, 1.95211377e-02,
          8.19283247e-01, 7.78936863e-01, 4.35393542e-01, 1.57622740e-01,
          8.02018225e-01, 2.19330993e-02 ]
      - [ 2.89043456e-01, 3.12826008e-01, 6.74252629e-01, 2.66438723e-02,
          8.05061281e-01, 7.50476897e-01, 6.41528189e-01, 6.12403095e-01,
          5.48823833e-01, 6.62875473e-02 ]
      - [ 1.26053497e-01, 5.63059151e-01, 9.25527453e-01, 3.54856402e-02,
          9.34502542e-01, 9.04708743e-01, 4.71360117e-01, 1.34366930e-01,
          8.31314087e-01, 2.84250081e-02 ]
      - [ 2.03910872e-01, 4.30204839e-01, 8.68441999e-01, 2.45577078e-02,
          8.04310799e-01, 7.42143393e-01, 5.83845019e-01, 1.79586560e-01,
          8.76728058e-01, 3.00385226e-02 ]
      - [ 1.27132580e-01, 5.25234044e-01, 8.98176372e-01, 5.41855618e-02,
          8.98482084e-01, 8.68223190e-01, 2.36810833e-01, 2.31266156e-01,
          7.49137878e-01, 2.95094997e-02 ]
      - [ 2.54590869e-01, 3.30443203e-01, 7.11285770e-01, 4.01140936e-02,
          8.57174993e-01, 8.13484013e-01, 6.46752656e-01, 6.07235134e-01,
          5.13477921e-01, 7.21436590e-02 ]
      - [ 1.81282714e-01, 4.46198493e-01, 7.93811798e-01, 3.31475921e-02,
          8.81556571e-01, 8.45372200e-01, 5.43653548e-01, 4.47028428e-01,
          6.15697861e-01, 4.78973128e-02 ]
      - [ 2.54853874e-01, 3.68786484e-01, 7.88934886e-01, 2.84624882e-02,
          7.74143219e-01, 7.09562242e-01, 6.17771268e-01, 3.43669266e-01,
          7.82621086e-01, 4.99184653e-02 ]
      - [ 1.59991741e-01, 4.70827997e-01, 8.11570168e-01, 4.12928089e-02,
          9.06691790e-01, 8.74980867e-01, 6.11127138e-01, 4.71576214e-01,
          5.63387096e-01, 5.33494912e-02 ]
      - [ 2.15287328e-01, 3.71895403e-01, 8.22441220e-01, 2.43790969e-02,
          8.37396264e-01, 7.88008988e-01, 4.19128388e-01, 2.88113683e-01,
          7.92596757e-01, 3.52115780e-02 ]
      - [ 2.30728760e-01, 3.78009617e-01, 7.83325970e-01, 3.65264341e-02,
          8.55289340e-01, 8.08991373e-01, 6.62013650e-01, 4.12144691e-01,
          7.04462886e-01, 5.62938340e-02 ]
      - [ 1.85387045e-01, 4.38909799e-01, 8.93651426e-01, 3.21295448e-02,
          8.34375978e-01, 7.80501783e-01, 6.24661207e-01, 1.43410847e-01,
          8.82000685e-01, 3.68228145e-02 ]
      - [ 2.29684100e-01, 3.95592242e-01, 8.19021225e-01, 1.43958582e-02,
          7.87159145e-01, 7.20422864e-01, 5.13427079e-01, 2.44186044e-01,
          8.47055018e-01, 3.77604738e-02 ]
      - [ 1.23161614e-01, 5.50727129e-01, 8.98754239e-01, 1.43594854e-02,
          8.71155500e-01, 8.36506724e-01, 3.39785069e-01, 2.37726092e-01,
          7.46890306e-01, 2.01477334e-02 ]
      - [ 1.61998734e-01, 4.61812139e-01, 8.87914658e-01, 2.18720026e-02,
          9.03457820e-01, 8.61957550e-01, 4.60244447e-01, 1.66666672e-01,
          8.38403285e-01, 2.53520794e-02 ]
      - [ 1.17915526e-01, 5.34422576e-01, 9.50087190e-01, 7.27653736e-03,
          8.06727171e-01, 7.58840144e-01, 1.53255627e-01, 6.45994814e-03,
          9.13436353e-01, 4.83676745e-03 ]
      - [ 9.76643041e-02, 5.37324250e-01, 9.38140929e-01, 2.16148999e-02,
          8.99959147e-01, 8.70987177e-01, 2.22444430e-01, 1.57622740e-01,
          7.85307407e-01, 1.76652707e-02 ]
      - [ 1.36233494e-01, 5.16356349e-01, 8.93994629e-01, 2.46589202e-02,
          8.28185558e-01, 7.89497077e-01, 3.30861747e-01, 2.26098195e-01,
          7.70551741e-01, 2.56341975e-02 ]
      - [ 1.22217111e-01, 5.32073617e-01, 8.80787551e-01, 3.57304998e-02,
          9.13026392e-01, 8.87014449e-01, 4.00747508e-01, 3.01033586e-01,
          6.83118343e-01, 3.43944505e-02 ]
      - [ 2.30926022e-01, 3.58388901e-01, 7.79587269e-01, 2.99512669e-02,
          8.29780579e-01, 7.80911148e-01, 5.85280776e-01, 4.52196389e-01,
          6.69086158e-01, 5.22682816e-02 ]
      - [ 2.13146374e-01, 4.36042696e-01, 8.26785803e-01, 2.90675480e-02,
          7.76692212e-01, 7.19847500e-01, 6.61531627e-01, 3.26873392e-01,
          7.69304752e-01, 4.60377485e-02 ]
      - [ 1.51979744e-01, 5.63024640e-01, 9.13455069e-01, 2.75185611e-02,
          8.62338185e-01, 8.16008925e-01, 6.08029068e-01, 1.57622740e-01,
          8.41728508e-01, 3.06829456e-02 ]
      - [ 1.66622326e-01, 5.03022552e-01, 8.74376595e-01, 2.55326554e-02,
          8.40887010e-01, 7.93196499e-01, 5.18526673e-01, 2.26098195e-01,
          7.94990599e-01, 3.21949609e-02 ]
      - [ 1.45832777e-01, 4.94213969e-01, 9.22110975e-01, 1.37403728e-02,
          8.85196447e-01, 8.43485653e-01, 4.48046118e-01, 9.94832069e-02,
          8.83832633e-01, 1.76517274e-02 ]
      - [ 2.10837036e-01, 4.56388831e-01, 8.49301994e-01, 4.10286337e-02,
          8.21435630e-01, 7.74393797e-01, 6.15278959e-01, 2.33850136e-01,
          8.30221057e-01, 4.97931577e-02 ]
      - [ 1.98577523e-01, 4.23641562e-01, 7.94827461e-01, 2.93202884e-02,
          8.09557319e-01, 7.63904989e-01, 5.69253385e-01, 5.12919903e-01,
          5.67097187e-01, 4.88942042e-02 ]
      - [ 1.34845316e-01, 5.58464885e-01, 8.87091637e-01, 4.29561473e-02,
          8.73771667e-01, 8.42692018e-01, 4.72145259e-01, 3.52713168e-01,
          6.61673725e-01, 4.04618271e-02 ]
      - [ 1.74016729e-01, 4.00255620e-01, 8.18236768e-01, 3.66673619e-02,
          8.50084186e-01, 8.11594367e-01, 3.39937598e-01, 3.94056857e-01,
          6.57609522e-01, 3.68462652e-02 ]
      - [ 2.82584935e-01, 3.26194346e-01, 6.96082354e-01, 3.82518768e-02,
          7.64180362e-01, 7.05342889e-01, 7.23455071e-01, 6.33074939e-01,
          5.13916671e-01, 7.84573033e-02 ]
      - [ 1.33848578e-01, 5.04162490e-01, 8.52765739e-01, 2.46958248e-02,
          8.62028420e-01, 8.30886424e-01, 4.10216093e-01, 4.08268720e-01,
          6.02797210e-01, 3.51040214e-02 ]
      - [ 1.77145824e-01, 3.99461120e-01, 7.73167610e-01, 1.30324401e-02,
          7.70390928e-01, 7.25463688e-01, 3.55106920e-01, 5.32299757e-01,
          5.24123251e-01, 3.72976661e-02 ]
      - [ 2.02153981e-01, 3.83432925e-01, 8.05458665e-01, 1.62551962e-02,
          8.71774256e-01, 8.21873546e-01, 5.26307702e-01, 3.43669266e-01,
          7.40532339e-01, 2.93128435e-02 ]
      - [ 2.93990880e-01, 3.13655049e-01, 6.77915990e-01, 4.95584980e-02,
          7.74895549e-01, 7.15961635e-01, 7.69011378e-01, 6.58914745e-01,
          4.96536225e-01, 8.92369300e-02 ]
      - [ 2.74358451e-01, 3.54105502e-01, 8.26369047e-01, 4.90168743e-02,
          8.21333528e-01, 7.61484146e-01, 7.61148810e-01, 3.02325577e-01,
          8.44638050e-01, 6.32093474e-02 ]
      - [ 1.69434324e-01, 5.89588583e-01, 8.57891321e-01, 4.56681140e-02,
          8.40939641e-01, 7.98244715e-01, 6.97347939e-01, 2.95865625e-01,
          7.49669015e-01, 4.96759079e-02 ]
      - [ 1.88739821e-01, 4.43262279e-01, 7.89020717e-01, 3.32453251e-02,
          8.26283872e-01, 7.84598768e-01, 6.59576833e-01, 5.68475425e-01,
          4.92964685e-01, 6.00090474e-02 ]
      - [ 2.52647161e-01, 4.30964798e-01, 8.43150258e-01, 6.37453198e-02,
          8.14832449e-01, 7.58580685e-01, 8.10146332e-01, 2.76485801e-01,
          8.39842677e-01, 7.97700956e-02 ]
      - [ 1.20490946e-01, 5.55390537e-01, 8.93243372e-01, 2.64815185e-02,
          8.00491631e-01, 7.57900655e-01, 3.39240372e-01, 2.60981917e-01,
          7.18017817e-01, 2.82411110e-02 ]
      - [ 7.13158995e-02, 6.88037574e-01, 8.94194245e-01, 2.56464537e-02,
          8.80997360e-01, 8.63247097e-01, 3.52048308e-01, 4.12144691e-01,
          5.31312525e-01, 2.89114788e-02 ]
      - [ 1.78487301e-01, 4.39289778e-01, 8.31351042e-01, 3.54249589e-02,
          9.84647751e-01, 9.56509948e-01, 7.14949846e-01, 4.05684769e-01,
          6.52021289e-01, 5.09234816e-02 ]
      - [ 2.28788137e-01, 3.88787180e-01, 7.09282458e-01, 3.14930007e-02,
          8.53256702e-01, 8.15907836e-01, 7.24663138e-01, 7.48062015e-01,
          3.09715509e-01, 7.98725262e-02 ]
      - [ 1.33745953e-01, 5.07305980e-01, 9.40296590e-01, 1.79839525e-02,
          8.96724641e-01, 8.55847418e-01, 4.36151117e-01, 6.71834648e-02,
          8.86649847e-01, 1.75268501e-02 ]
      - [ 1.68326974e-01, 5.32419086e-01, 9.00186658e-01, 1.80439744e-02,
          8.44470024e-01, 7.91384697e-01, 5.80215812e-01, 1.27906978e-01,
          8.72417569e-01, 2.62219533e-02 ]
      - [ 2.14067519e-01, 4.56699699e-01, 7.40218103e-01, 3.23977657e-02,
          8.22962344e-01, 7.79025853e-01, 6.03873730e-01, 5.99483192e-01,
          4.84613121e-01, 5.75851761e-02 ]
      - [ 1.19089246e-01, 5.38464189e-01, 8.80258679e-01, 1.69166159e-02,
          9.10405874e-01, 8.83272171e-01, 4.60526943e-01, 3.56589139e-01,
          6.38928235e-01, 2.73184199e-02 ]
      - [ 3.15523356e-01, 3.01599354e-01, 7.04172611e-01, 4.56308424e-02,
          8.37018967e-01, 7.84349501e-01, 8.20047438e-01, 6.39534891e-01,
          5.49016297e-01, 9.54637527e-02 ]
      - [ 2.57914126e-01, 3.19596529e-01, 7.25277364e-01, 2.87269391e-02,
          8.39695632e-01, 7.91013300e-01, 5.59310973e-01, 5.64599454e-01,
          5.67081809e-01, 5.87281846e-02 ]
      - [ 2.59919912e-01, 2.62737930e-01, 6.45672202e-01, 2.74386518e-02,
          8.61612976e-01, 8.16117883e-01, 5.21509111e-01, 6.52454793e-01,
          4.66578394e-01, 6.19665496e-02 ]
      - [ 1.00996800e-01, 5.41780353e-01, 9.23191428e-01, 1.92565396e-02,
          8.79816473e-01, 8.49034786e-01, 2.29890674e-01, 2.04134360e-01,
          7.49553561e-01, 1.65566877e-02 ]
      - [ 1.42271683e-01, 4.78151232e-01, 8.07300866e-01, 1.77426022e-02,
          8.52727354e-01, 8.20999026e-01, 3.93077344e-01, 5.20671844e-01,
          4.90701675e-01, 3.79898436e-02 ]
      - [ 2.25534305e-01, 3.91827017e-01, 7.67325819e-01, 3.98659632e-02,
          8.58029723e-01, 8.17518950e-01, 6.31697237e-01, 5.86563289e-01,
          5.09051979e-01, 6.62938952e-02 ]
      - [ 2.08896399e-01, 3.56765360e-01, 7.29739308e-01, 2.10153498e-02,
          7.46596277e-01, 6.97644770e-01, 4.00176138e-01, 6.56330764e-01,
          4.13882822e-01, 5.00927381e-02 ]
   decision_functions:
      -
         sv_count: 43
         rho: -2.0363209112294232e+01
         alpha: [ 7., 7., 7., 7., 7., 7., 7., 7., 7.,
             1.0925168235529155e+00, 7., 7., 7., 7.,
             6.2776106570071732e-01, 7., 7., 7., 7., 7., 7., 7., -7.,
             -7., -7., -7., -7., -7., -7., -7., -7., -7., -7., -7.,
             -5.3438530817158520e+00, -7., -7., -7.,
             -5.5912996366546883e+00, -4.7851251708830924e+00, -7., -7.,
             -7. ]
         index: [ 0, 2, 6, 7, 8, 9, 10, 12, 13, 14, 17, 20, 21, 22, 23,
             24, 26, 28, 29, 31, 33, 35, 37, 38, 40, 41, 42, 43, 44, 45,
             49, 50, 51, 52, 54, 56, 57, 58, 60, 61, 62, 71, 75 ]
      -
         sv_count: 32
         rho: -1.4602108853805955e+01
         alpha: [ 7., 7., 6.3570707439172143e+00, 7., 7., 7., 7., 7., 7.,
             7., 7., 7., 7., 7., 7., -7., -7., -7., -7., -7., -7., -7.,
             -7., -3.0424322713431380e+00, -7., -1.7686415600907843e+00,
             -2.8729984432811868e+00, -7., -7., -7., -7.,
             -5.6729984692020983e+00 ]
         index: [ 0, 2, 7, 9, 12, 13, 17, 20, 21, 24, 26, 28, 29, 31, 35,
             81, 86, 90, 91, 92, 93, 97, 100, 102, 103, 104, 106, 110,
             111, 112, 113, 115 ]
      -
         sv_count: 46
         rho: -4.4651557919909504e+00
         alpha: [ 7., 7., 7., 5.2656515097524466e+00,
             4.6819750287352315e+00, 7., 9.8161784857361789e-01, 7., 7.,
             1.3337731183279880e-01, 7., 7., 7., 5.9406226708107068e+00,
             7., 7., 7., 7., 7., 7., 5.8368638100719483e+00, 7.,
             5.8525470671803070e+00, -7., -7., -7., -7., -7., -7., -7.,
             -1.7123315929022562e-01, -7., -7., -7., -7., -7., -7., -7.,
             -1.8324040825579939e+00, -1.6521762991176072e+00, -7., -7.,
             -7., -4.0368417059912201e+00, -7., -7. ]
         index: [ 0, 1, 2, 4, 8, 9, 10, 12, 13, 14, 17, 20, 21, 22, 23,
             24, 26, 27, 29, 31, 33, 35, 36, 116, 117, 119, 120, 121,
             122, 123, 124, 125, 128, 129, 130, 131, 132, 133, 135, 139,
             140, 142, 143, 144, 146, 149 ]
      -
         sv_count: 61
         rho: -9.0613354723788646e+00
         alpha: [ 7., 7., 7., 7., 2.4565238658485238e+00, 7., 7., 7., 7.,
             7., 7., 4.4464217817612468e+00, 7., 7., 7., 7.,
             2.3318675250285437e+00, 7., 7., 7., 7., 7., 7., 7., 7., 7.,
             7., 7., 6.4488900972335692e+00, -7., -7., -7.,
             -4.8118799702372455e+00, -7., -7., -7., -7., -7., -7., -7.,
             -7., -2.3815508781067343e+00, -7., -7., -7., -7.,
             -1.5971046789853438e+00, -4.1089852335192916e+00,
             -3.5844352470588736e-01, -7., -7., -7., -7., -7., -7.,
             -1.8912761098611550e+00, -7., -7., -7., -7.,
             -5.3446287445622609e-01 ]
         index: [ 0, 1, 2, 4, 6, 7, 8, 9, 10, 12, 13, 14, 15, 17, 18, 19,
             20, 21, 22, 23, 24, 25, 26, 27, 29, 31, 33, 35, 36, 153,
             154, 156, 158, 159, 160, 161, 162, 163, 164, 165, 166, 167,
             168, 170, 171, 172, 173, 174, 178, 179, 180, 181, 182, 183,
             184, 185, 186, 187, 188, 189, 190 ]
      -
         sv_count: 54
         rho: -2.1825214953711797e+01
         alpha: [ 7., 7., 2.1303360785988334e+00, 7., 7., 7., 7., 7., 7.,
             7., 7., 7., 4.7452083524180217e+00, 7., 7.,
             5.1447338904699880e+00, 7., 1.8464083384667669e+00, 7., 7.,
             7., 7., 7., 7., 7., 7., 7., -4.9023558052075042e+00, -7.,
             -7., -7., -1.0890252327558390e+00, -2.2661599531258436e+00,
             -7., -7., -7., -7., -6.5254430944771533e+00,
             -6.0837025743872868e+00, -7., -7., -7., -7., -7., -7., -7.,
             -7., -7., -7., -7., -7., -7., -7., -7. ]
         index: [ 0, 2, 3, 5, 6, 7, 8, 9, 10, 11, 12, 13, 15, 16, 17, 19,
             20, 21, 22, 25, 28, 29, 30, 31, 33, 34, 35, 191, 193, 195,
             196, 197, 200, 201, 202, 203, 204, 205, 206, 207, 209, 210,
             211, 214, 217, 218, 220, 221, 222, 223, 224, 225, 226, 228 ]
      -
         sv_count: 71
         rho: -2.1131417425399022e+01
         alpha: [ 7., 5.3633682634738831e+00, 7., 7., 7., 7., 7., 7., 7.,
             7., 7., 7., 7., 7., 7., 7., 7., 7., 7., 7., 7.,
             3.2394631751115059e+00, 7., 7., 7., 7., 7., 7., 7., 7.,
             7.0087759679144546e-01, 7., 7., 7., -7., -7.,
             -6.0810512120934943e+00, -7., -7., -7.,
             -5.5917519458803717e+00, -7., -7., -6.2194947067143858e-01,
             -7., -7., -7., -7., -2.2687878844733116e+00, -7., -7., -7.,
             -7., -7., -7., -2.6659190086763362e+00,
             -3.0037940651802035e+00, -7., -7., -7.,
             -4.3834641169180104e+00, -6.0995421595814934e+00, -7., -7.,
             -3.3117456861250458e+00, -7., -7., -7., -7.,
             -3.2757034857771248e+00, -7. ]
         index: [ 0, 1, 2, 3, 4, 5, 6, 7, 8, 9, 10, 11, 12, 13, 14, 15,
             16, 17, 20, 21, 22, 23, 24, 25, 26, 27, 28, 29, 30, 31, 32,
             33, 34, 35, 229, 230, 231, 232, 233, 234, 235, 236, 237,
             238, 239, 240, 241, 242, 243, 244, 245, 246, 247, 248, 249,
             250, 251, 252, 254, 255, 257, 258, 259, 260, 262, 263, 264,
             265, 266, 267, 268 ]
      -
         sv_count: 67
         rho: -2.1248285878874409e+00
         alpha: [ 7., 7., 7., 7., 7., 7., 7., 7., 7.,
             3.7278489831428501e+00, 7., 7., 7., 7., 7.,
             2.4018809847655249e+00, 7., 7., 7., 7., 7., 7., 7., 7., 7.,
             7., 7., 7., 7., 7., 7., 7., 4.3918389548757636e-01, 7.,
             -6.1309968427059314e+00, -7., -7., -4.3791702069002147e-01,
             -7., -7., -7., -7., -7., -7., -7., -7., -7., -7., -7., -7.,
             -7., -7., -7., -7., -7., -7., -7., -7., -7., -7., -7., -7.,
             -7., -7., -7., -7., -7. ]
         index: [ 37, 38, 39, 43, 44, 45, 46, 47, 48, 51, 52, 53, 54, 55,
             56, 58, 59, 60, 61, 62, 63, 64, 65, 66, 67, 68, 69, 70, 71,
             72, 73, 74, 75, 76, 80, 81, 82, 83, 84, 85, 86, 87, 88, 89,
             90, 91, 92, 93, 94, 95, 97, 98, 99, 100, 101, 102, 103, 104,
             105, 106, 109, 110, 111, 112, 113, 114, 115 ]
      -
         sv_count: 69
         rho: -3.8287958591906874e+00
         alpha: [ 7., 1.1615369838693634e+00, 7., 7.,
             3.6915665311735357e+00, 7., 7., 7., 3.7358657824413266e-01,
             1.1780260443647717e+00, 7., 7., 7., 7., 7., 7., 7., 7., 7.,
             5.5922113098747541e+00, 7., 7., 6.9461965284890299e+00,
             2.1859528639261923e+00, 7., 7., 7., 7., 7., 7., 7.,
             3.0420598501956011e+00, 7., 7., 7., -7., -7., -7., -7., -7.,
             -7., -7., -7., -7., -6.3843482623464426e-02, -7.,
             -4.8739819305513130e+00, -7., -7., -7., -7., -7., -7., -7.,
             -7., -7., -7., -7., -7., -7., -5.1837276140149653e+00,
             -6.4925701542081882e-01, -1.2490729795219193e+00, -7., -7.,
             -7., -7., -5.1512536680048928e+00, -7. ]
         index: [ 37, 39, 40, 41, 42, 44, 45, 46, 47, 48, 49, 50, 52, 53,
             54, 56, 57, 58, 59, 60, 62, 63, 64, 65, 66, 67, 68, 69, 70,
             71, 72, 73, 74, 75, 76, 116, 117, 119, 120, 121, 122, 123,
             124, 125, 126, 127, 128, 129, 130, 131, 132, 133, 134, 136,
             137, 138, 139, 140, 141, 142, 143, 144, 145, 146, 147, 149,
             150, 151, 152 ]
      -
         sv_count: 46
         rho: 1.8114835182559407e+01
         alpha: [ 7., 7., 4.7481633255920972e+00, 7., 7., 7., 7.,
             1.9581327833772944e+00, 7., 7., 7., 7., 7., 7., 7., 7.,
             2.5023167916162392e-01, 7., 7., 7., 7.,
             1.0720325907491171e+00, 7., 7., -7., -7., -7., -7., -7.,
             -7., -7., -7., -7., -7., -7., -7., -2.0887276527751886e+00,
             -7., -7., -5.9398327261049415e+00, -7., -7., -7., -7., -7.,
             -7. ]
         index: [ 37, 38, 39, 40, 41, 42, 44, 46, 49, 50, 51, 52, 54, 56,
             57, 58, 59, 60, 62, 63, 66, 70, 71, 75, 153, 154, 155, 156,
             158, 159, 161, 162, 163, 164, 165, 168, 170, 172, 174, 176,
             180, 182, 184, 185, 186, 188 ]
      -
         sv_count: 47
         rho: 1.3501655419637443e+01
         alpha: [ 7., 7., 7., 7., 7., 7., 7., 7., 1.9504124086950794e+00,
             7., 6.5649356648248673e+00, 7., 7., 7., 7., 7., 7., 7., 7.,
             7., 4.5839656859397833e+00, 7., 1.3285472232195752e+00, -7.,
             -7., -6.1227083883793255e-02, -7., -7., -7., -7., -7., -7.,
             -7., -7., -2.4956675131111199e+00, -7., -7., -7., -7., -7.,
             -7., -7., -4.4950564410312985e+00, -3.7590994465309541e-01,
             -7., -7., -7. ]
         index: [ 37, 38, 40, 41, 42, 43, 44, 45, 46, 47, 49, 50, 51, 52,
             56, 57, 58, 60, 61, 62, 63, 70, 71, 192, 193, 194, 195, 196,
             197, 198, 199, 200, 201, 203, 206, 207, 208, 209, 210, 216,
             217, 219, 220, 221, 223, 225, 228 ]
      -
         sv_count: 49
         rho: 5.3299115255989973e+00
         alpha: [ 7., 7., 7., 6.9759227211812229e+00, 7., 7., 7., 7.,
             2.0324341153245955e+00, 6.8747835887326234e+00, 7., 7., 7.,
             7., 7., 7., 7., 7., 7., 7., 7., 7., 7., 7., -7., -7., -7.,
             -7., -7., -7., -3.1202245309390784e+00, -7., -7., -7., -7.,
             -6.6239526271782241e+00, -7., -7., -7., -7., -7.,
             -6.2533207397313388e+00, -1.5985846230731429e+00, -7., -7.,
             -7., -7., -7., -5.2870579043166570e+00 ]
         index: [ 37, 38, 40, 41, 42, 43, 44, 45, 47, 49, 50, 51, 52, 54,
             56, 57, 58, 60, 61, 62, 63, 70, 71, 75, 230, 234, 235, 237,
             238, 239, 240, 241, 242, 243, 246, 250, 251, 252, 253, 254,
             255, 256, 257, 258, 259, 260, 261, 265, 266 ]
      -
         sv_count: 66
         rho: -8.3906524933524000e+00
         alpha: [ 3.9022879854712178e-01, 7., 7., 7., 7., 7., 7., 7., 7.,
             5.8816825434323894e+00, 7., 7., 7., 7., 7., 7., 7.,
             2.6385552978252846e+00, 7., 7., 3.4492660767995118e+00, 7.,
             7., 7., 2.2467574343921539e+00, 7., 7., 7., 7., 7., 7., 7.,
             -7., -7., -7., -6.1494460571715404e-01, -7., -7., -7., -7.,
             -7., -7., -2.4768413819790465e+00, -4.1317700455942559e+00,
             -7., -7.3509109554190322e-01, -2.5752486386776723e+00, -7.,
             -2.2534885527370654e+00, -7., -7., -7., -7., -7., -7., -7.,
             -7., -1.8191058307493735e+00, -7., -7., -7., -7., -7., -7.,
             -7., -7. ]
         index: [ 77, 78, 79, 81, 82, 83, 84, 85, 86, 87, 90, 91, 92, 93,
             94, 96, 97, 98, 100, 101, 102, 103, 105, 106, 107, 108, 109,
             110, 111, 112, 113, 114, 116, 117, 118, 119, 121, 122, 123,
             124, 125, 127, 129, 130, 131, 132, 133, 134, 135, 136, 137,
             138, 139, 140, 141, 142, 143, 144, 145, 146, 147, 148, 149,
             150, 151, 152 ]
      -
         sv_count: 32
         rho: 1.0050259962904741e+01
         alpha: [ 7., 7., 7., 7., 7., 7., 7., 7., 3.1092089002393708e+00,
             7., 2.5702607494545786e+00, 7., 7., 7.,
             5.8649597990909355e+00, 5.3262480127821465e+00, -7., -7.,
             -7., -7., -7., -7., -7., -6.8691821063928344e+00, -7., -7.,
             -7., -2.5512459615112038e+00, -6.5075057673793664e+00, -7.,
             -7., -9.4274362628363284e-01 ]
         index: [ 81, 84, 86, 90, 91, 92, 97, 100, 101, 103, 110, 111,
             112, 113, 114, 115, 153, 155, 156, 158, 159, 161, 164, 165,
             168, 172, 174, 176, 182, 184, 185, 188 ]
      -
         sv_count: 36
         rho: 4.8904769127582117e+00
         alpha: [ 4.1508252876139435e+00, 7.0809020240222798e-01,
             1.3103411515570471e+00, 5.3797489203173781e+00, 7., 7., 7.,
             7., 7., 7., 7., 7., 7., 7., 6.5577464604121278e+00, 7., 7.,
             -7., -6.5275611149318694e-02, -7., -1.3555907097607374e+00,
             -7., -7., -7., -7., -9.0386738433177094e-01, -7., -7.,
             -2.4837704552941560e+00, -7., -4.0750176060798919e+00,
             -4.9821788697504488e+00, -7., -7., -4.2410513859363972e+00,
             -7. ]
         index: [ 81, 83, 86, 89, 90, 91, 92, 93, 97, 102, 103, 104, 110,
             111, 112, 113, 115, 192, 194, 195, 197, 198, 199, 200, 201,
             203, 207, 208, 209, 210, 215, 216, 217, 219, 223, 225 ]
      -
         sv_count: 36
         rho: 6.7291245245181370e+00
         alpha: [ 7., 7., 7., 7., 7., 7., 7., 7., 7., 7., 7., 7.,
             1.0674494117794263e-01, 7., 7., 7., 7., 7., -7., -7., -7.,
             -7., -7., -7., -7., -7., -7., -7., -7., -7., -7.,
             -4.2964151290412653e+00, -2.8103298121366795e+00, -7., -7.,
             -7. ]
         index: [ 81, 86, 90, 91, 92, 93, 97, 100, 102, 103, 104, 105,
             106, 110, 111, 112, 113, 115, 230, 235, 238, 239, 241, 243,
             246, 251, 252, 253, 254, 255, 256, 257, 258, 259, 260, 261 ]
      -
         sv_count: 49
         rho: 8.4341143602519413e+00
         alpha: [ 7., 7., 7., 7., 7., 7., 7., 7., 7.,
             3.2704754324653393e+00, 7., 7., 7., 7., 7., 7., 7., 7., 7.,
             7., 6.4403516538025434e+00, 7., 7., 1.8378713858196600e+00,
             -7., -7., -7., -7., -7., -5.2216646468477217e+00, -7., -7.,
             -7., -7., -7., -7., -7., -7., -3.8393502588863964e+00, -7.,
             -2.4750102686115119e+00, -7., -7., -7., -7., -7., -7., -7.,
             -1.2673297741915118e-02 ]
         index: [ 116, 117, 119, 120, 121, 122, 123, 124, 125, 126, 127,
             128, 129, 130, 131, 132, 133, 139, 140, 142, 143, 144, 146,
             149, 153, 155, 156, 158, 159, 160, 161, 162, 164, 166, 167,
             168, 172, 174, 175, 177, 178, 180, 182, 183, 184, 185, 186,
             188, 189 ]
      -
         sv_count: 33
         rho: -9.9558350560959070e+00
         alpha: [ 7., 7., 2.7422556694439884e+00, 7., 7., 7., 7., 7., 7.,
             7., 7.4425423571004234e-01, 7., 7., 7.,
             4.4353644450543701e+00, 7., -4.7823473546832784e-01,
             -3.9090175831612775e+00, -4.0289882943855249e+00, -7., -7.,
             -7., -7., -7., -7., -7., -7., -7., -7.,
             -2.9878565073376862e-01, -6.2068480864595070e+00, -7., -7. ]
         index: [ 116, 119, 121, 122, 123, 125, 129, 130, 131, 132, 138,
             140, 142, 143, 146, 149, 191, 192, 193, 195, 196, 199, 200,
             201, 203, 207, 209, 210, 217, 218, 222, 223, 225 ]
      -
         sv_count: 45
         rho: -2.6119257793988306e+00
         alpha: [ 7., 7., 7., 7., 7., 7., 4.2423653777038890e+00, 7., 7.,
             7., 7., 7., 7., 1.7507896405105063e+00, 7., 7., 7., 7., 7.,
             7., 7., 4.2572470590702185e+00, -2.5041576522792561e+00,
             -7., -7., -7., -7., -7., -1.9044385120460954e+00, -7., -7.,
             -4.2221045989463466e+00, -7., -7., -7., -7., -7., -7., -7.,
             -7., -7., -7., -7., -3.0380049688036315e+00,
             -5.5816963452092923e+00 ]
         index: [ 116, 119, 120, 121, 122, 123, 124, 125, 128, 129, 130,
             131, 132, 135, 138, 140, 142, 143, 145, 146, 149, 152, 230,
             234, 235, 237, 238, 239, 241, 242, 243, 245, 246, 251, 252,
             253, 254, 255, 257, 259, 260, 261, 266, 267, 268 ]
      -
         sv_count: 54
         rho: -7.0137245197053799e+00
         alpha: [ 7., 7., 3.0851766054503740e+00, 7.,
             6.9224616844420863e+00, 7., 5.4263948997793063e+00, 7.,
             2.9819394948945073e+00, 7., 7., 7., 4.5425621718260594e+00,
             7., 1.3257459989734930e+00, 7., 7., 7., 7., 7.,
             1.7818040039949894e-02, 1.6137348308181578e+00,
             6.9634022004119567e+00, 7., 7., -8.0344833111954700e-02,
             -7., -3.4299464516606365e-01, -7., -7., -7., -7.,
             -3.3596741889213630e+00, -7., -7., -6.0883895615114170e-01,
             -7., -7., -7., -7., -6.8551991998910129e+00,
             -6.3336588259038162e-01, -1.1151451519673277e+00, -7.,
             -2.0555135833187395e+00, -7., -7., -5.1249643684620705e-01,
             -7., -7., -7., -2.9627360824735876e+00,
             -3.5292696619811309e-01, -7. ]
         index: [ 153, 154, 155, 156, 157, 161, 162, 163, 164, 165, 166,
             168, 169, 170, 171, 172, 174, 176, 180, 182, 183, 185, 187,
             188, 189, 192, 193, 194, 195, 196, 198, 199, 200, 201, 203,
             204, 206, 207, 209, 210, 211, 213, 214, 217, 218, 220, 221,
             222, 223, 224, 225, 226, 227, 228 ]
      -
         sv_count: 54
         rho: -1.0279034350427100e+01
         alpha: [ 7., 7., 7., 4.4927076535555903e+00, 7., 7., 7., 7., 7.,
             7., 7., 2.4805177946354453e+00, 7., 7., 7., 7.,
             6.5674178522405544e+00, 7., 7., 7., 7., 7., 7., 7., 7., 7.,
             7., -7., -7., -7., -7., -7., -7., -7., -7.,
             -5.6572383367004715e+00, -7., -7., -7.,
             -4.7010562924188912e+00, -7., -7., -7.,
             -6.5182556808228140e+00, -7., -7., -7., -7., -7., -7., -7.,
             -3.6640929904894119e+00, -7., -7. ]
         index: [ 153, 154, 156, 160, 161, 162, 163, 164, 165, 166, 168,
             169, 170, 171, 172, 174, 176, 180, 182, 183, 184, 185, 186,
             187, 188, 189, 190, 229, 230, 232, 233, 234, 237, 238, 239,
             240, 241, 242, 243, 244, 245, 246, 247, 249, 250, 251, 252,
             253, 254, 255, 259, 260, 265, 268 ]
      -
         sv_count: 69
         rho: 7.1917400704269563e-01
         alpha: [ 2.7018160102440918e+00, 3.5051325411832401e+00, 7., 7.,
             7., 7., 3.9806713469224677e+00, 7., 7., 7., 7., 7., 7., 7.,
             7., 7., 7., 7., 7., 7., 1.8188515288945922e-01,
             1.0241100903470579e+00, 4.9290482256728181e+00,
             1.6267959307231665e+00, 5.1448665301428118e+00, 7., 7.,
             1.8784235216524378e-01, 7., 7., 7., 7., 7., 7., 7., 7., 7.,
             -7., -7., -7., -7., -7., -7., -7., -7., -7., -7., -7., -7.,
             -7., -7., -7., -7., -7., -7., -7., -7., -7., -7.,
             -5.1910057136491252e+00, -7., -7., -4.0911624666412232e+00,
             -7., -7., -7., -7., -7., -7. ]
         index: [ 191, 192, 193, 195, 196, 197, 198, 199, 200, 201, 202,
             203, 204, 205, 206, 207, 208, 209, 210, 211, 212, 213, 214,
             215, 216, 217, 218, 219, 220, 221, 222, 223, 224, 225, 226,
             227, 228, 229, 230, 231, 232, 233, 234, 235, 236, 237, 238,
             239, 240, 241, 243, 244, 245, 248, 249, 250, 251, 253, 256,
             257, 258, 259, 260, 261, 262, 263, 264, 265, 267 ]
