%YAML:1.0
my_svm: !!opencv-ml-svm
   svm_type: C_SVC
   kernel: { type:LINEAR }
   C: 3.
   term_criteria: { epsilon:1.1920928955078125e-07, iterations:1000 }
   var_all: 10
   var_count: 10
   class_count: 8
   class_labels: !!opencv-matrix
      rows: 1
      cols: 8
      dt: i
      data: [ 0, 1, 2, 3, 4, 5, 6, 7 ]
   sv_total: 28
   support_vectors:
      - [ -1.43433884e-01, -3.34704727e-01, -6.31033659e-01,
          -1.44868335e-02, -6.18578613e-01, -5.82161367e-01,
          -1.50962949e-01, -4.09377456e-01, -4.20962185e-01,
          -2.83148289e-02 ]
      - [ -1.40924260e-01, -2.72634834e-01, -5.28877795e-01,
          -1.91342272e-02, -5.50912857e-01, -5.18930495e-01,
          -3.36893290e-01, -2.80934423e-01, -4.50610191e-01,
          -2.97116097e-02 ]
      - [ -1.70422345e-01, -2.40226313e-01, -4.80672449e-01,
          -1.68226678e-02, -5.60260594e-01, -5.26334286e-01,
          -3.93809974e-01, -4.00532037e-01, -3.58482808e-01,
          -3.97813357e-02 ]
      - [ -1.62448674e-01, -3.10686231e-01, -6.09017551e-01,
          -3.69302705e-02, -5.77437699e-01, -5.38578153e-01,
          -3.07142586e-01, -4.10342067e-01, -4.36040938e-01,
          -4.18758579e-02 ]
      - [ -1.55220836e-01, -3.28759313e-01, -6.22055173e-01,
          -1.74804591e-02, -5.84741652e-01, -5.43675482e-01,
          -3.26947123e-01, -4.34678912e-01, -4.09155637e-01,
          -3.66940051e-02 ]
      - [ -3.45622599e-01, -2.41507486e-01, -4.41127419e-01,
          -1.58836633e-01, -5.22606134e-01, -4.83587801e-01,
          -4.72105682e-01, -5.14795601e-01, -4.65857863e-01,
          -1.95626572e-01 ]
      - [ -1.36568159e-01, -3.07959110e-01, -5.96063018e-01,
          -1.00471824e-02, -5.93922377e-01, -5.59286356e-01,
          -2.73764849e-01, -4.10369247e-01, -4.04065669e-01,
          -2.87541281e-02 ]
      - [ 7.30343044e-01, -3.88154840e+00, -9.96691167e-01,
          -4.03761715e-01, -1.34944189e+00, -1.65225196e+00,
          -3.03734994e+00, 5.40038288e-01, -6.10091630e-03,
          -3.21936041e-01 ]
      - [ 1.01445568e+00, -4.09925365e+00, -7.14416504e-01,
          -3.13630283e-01, -1.38791668e+00, -1.77148795e+00,
          -3.07012844e+00, 5.42641580e-02, 1.06699884e+00,
          -2.53324240e-01 ]
      - [ 1.35434437e+00, -4.27668285e+00, -1.53073847e+00,
          -4.48404789e-01, 2.91250080e-01, -4.99877147e-03,
          -2.24638557e+00, -8.26957822e-01, 1.55057418e+00,
          -2.13454783e-01 ]
      - [ 3.41732770e-01, -1.91190815e+00, -1.04772305e+00,
          -6.19576931e-01, 2.03608918e+00, 2.14749789e+00,
          -3.13677025e+00, 9.85403001e-01, -1.16426313e+00,
          -2.81778365e-01 ]
      - [ -1.20382404e+00, -1.11990064e-01, 3.35852176e-01,
          -6.69509649e-01, -1.84143221e+00, -2.06545472e+00,
          -3.25442028e+00, 1.49130476e+00, -1.99737811e+00,
          -9.13240254e-01 ]
      - [ -4.66899276e-02, -9.41542745e-01, -8.13376486e-01,
          -4.54725847e-02, -9.88421202e-01, -1.17384827e+00,
          -3.28452682e+00, 1.04610407e+00, -1.02695107e+00,
          -3.33283603e-01 ]
      - [ 1.16134071e+00, -3.89621282e+00, -2.80798316e-01,
          -2.22864319e-02, -1.40217912e+00, -1.79302895e+00,
          -2.56393838e+00, -3.29769194e-01, 1.55376434e+00,
          5.80044724e-02 ]
      - [ 2.73348600e-01, -9.79792774e-01, -1.76108629e-01,
          -2.24774331e-02, 1.56347537e+00, 1.57769108e+00,
          -7.62107909e-01, -2.29919815e+00, 2.11516500e+00,
          -5.25233988e-03 ]
      - [ -1.09371758e+00, 3.25986862e+00, 9.49409604e-01,
          -1.83992535e-01, 2.91825414e+00, 3.42871380e+00,
          1.72597980e+00, -2.60012418e-01, -1.03171527e+00,
          9.93042737e-02 ]
      - [ -1.87057137e+00, 4.95002842e+00, 1.50340080e+00,
          3.19468200e-01, -9.60570395e-01, -7.72697687e-01,
          1.36459100e+00, -3.91095970e-03, -1.39851916e+00,
          6.34402484e-02 ]
      - [ -1.58899808e+00, 4.60281372e+00, 1.30927896e+00,
          6.24475062e-01, 1.01236962e-01, 3.04356277e-01, 1.78216290e+00,
          -4.86692399e-01, -8.10530305e-01, 1.38567761e-01 ]
      - [ -5.66896796e-01, 1.78882277e+00, 5.44272289e-02,
          1.97903551e-02, 2.45795345e+00, 2.75419593e+00, 1.43811142e+00,
          -1.83283854e+00, 8.30131114e-01, 6.21333197e-02 ]
      - [ -1.07117343e+00, 3.53781223e+00, 5.28062999e-01,
          -3.22965562e-01, 2.37483239e+00, 2.80539274e+00,
          2.78333426e+00, -5.39859943e-02, -1.50379145e+00,
          6.90004379e-02 ]
      - [ -1.78896475e+00, 5.28401613e+00, 1.09617043e+00,
          4.04971719e-01, -1.91327199e-01, 9.57030728e-02,
          2.52767038e+00, 6.18087590e-01, -2.17054558e+00,
          1.67747378e-01 ]
      - [ -1.62034214e+00, 4.89266396e+00, 6.49796426e-01,
          4.19776857e-01, 8.08529496e-01, 1.12249327e+00, 1.98289967e+00,
          1.93180516e-01, -1.79812455e+00, 8.87825340e-02 ]
      - [ -9.37409282e-01, 2.66848636e+00, 8.77032816e-01,
          -1.69531778e-01, 1.01429915e+00, 1.31907737e+00,
          1.20429909e+00, 1.07985842e+00, -2.16613436e+00,
          2.38162838e-02 ]
      - [ -2.27518749e+00, 4.45045757e+00, 1.96277368e+00,
          9.05305669e-02, -1.98789954e+00, -1.84669995e+00,
          1.54141772e+00, 1.43174803e+00, -2.51613402e+00,
          -2.13446796e-01 ]
      - [ -1.85108256e+00, 4.75137043e+00, 1.38996279e+00,
          2.32943952e-01, -1.10933471e+00, -9.84522462e-01,
          1.11091077e+00, 7.99804747e-01, -2.25686836e+00,
          -1.33018553e-01 ]
      - [ -1.93030345e+00, 2.42194605e+00, 1.82093215e+00,
          -5.04880071e-01, -3.03931808e+00, -3.40493369e+00,
          -3.87306750e-01, -5.07208943e-01, -5.86579621e-01,
          -1.11529517e+00 ]
      - [ -7.12825298e-01, 1.71162903e+00, 9.65841591e-01,
          7.17040598e-01, -3.14896131e+00, -3.47004151e+00,
          6.05062008e-01, -1.19139957e+00, 9.62822974e-01,
          -6.84994757e-02 ]
      - [ 1.51325071e+00, -1.55404282e+00, -1.33311403e+00,
          2.87224770e-01, 1.32272410e+00, 1.21317339e+00, 2.16648960e+00,
          -3.83720994e-01, 1.19100821e+00, 2.74310052e-01 ]
   decision_functions:
      -
         sv_count: 1
         rho: -1.0000000348707272e+00
         alpha: [ 1. ]
         index: [ 0 ]
      -
         sv_count: 1
         rho: -9.9999999884791191e-01
         alpha: [ 1. ]
         index: [ 1 ]
      -
         sv_count: 1
         rho: -9.9999999623266456e-01
         alpha: [ 1. ]
         index: [ 2 ]
      -
         sv_count: 1
         rho: -9.9999998597988393e-01
         alpha: [ 1. ]
         index: [ 3 ]
      -
         sv_count: 1
         rho: -9.9999996630123023e-01
         alpha: [ 1. ]
         index: [ 4 ]
      -
         sv_count: 1
         rho: -1.0000000334568120e+00
         alpha: [ 1. ]
         index: [ 5 ]
      -
         sv_count: 1
         rho: -1.
         alpha: [ 1. ]
         index: [ 6 ]
      -
         sv_count: 1
         rho: -6.3683042558547998e+00
         alpha: [ 1. ]
         index: [ 7 ]
      -
         sv_count: 1
         rho: -6.3451469147093960e+00
         alpha: [ 1. ]
         index: [ 8 ]
      -
         sv_count: 1
         rho: -3.5571438251118521e+00
         alpha: [ 1. ]
         index: [ 9 ]
      -
         sv_count: 1
         rho: -4.3257719741065348e-01
         alpha: [ 1. ]
         index: [ 10 ]
      -
         sv_count: 1
         rho: -5.6897393455538827e+00
         alpha: [ 1. ]
         index: [ 11 ]
      -
         sv_count: 1
         rho: -4.7985046839978258e+00
         alpha: [ 1. ]
         index: [ 12 ]
      -
         sv_count: 1
         rho: -5.6729672322308158e+00
         alpha: [ 1. ]
         index: [ 13 ]
      -
         sv_count: 1
         rho: 2.0371949042190942e+00
         alpha: [ 1. ]
         index: [ 14 ]
      -
         sv_count: 1
         rho: 7.6036185156182654e+00
         alpha: [ 1. ]
         index: [ 15 ]
      -
         sv_count: 1
         rho: 1.8478618730559724e+00
         alpha: [ 1. ]
         index: [ 16 ]
      -
         sv_count: 1
         rho: 3.8791913206369562e+00
         alpha: [ 1. ]
         index: [ 17 ]
      -
         sv_count: 1
         rho: 6.0422396538554199e+00
         alpha: [ 1. ]
         index: [ 18 ]
      -
         sv_count: 1
         rho: 7.1349674308868893e+00
         alpha: [ 1. ]
         index: [ 19 ]
      -
         sv_count: 1
         rho: 3.6191621856562564e+00
         alpha: [ 1. ]
         index: [ 20 ]
      -
         sv_count: 1
         rho: 4.7691679136558474e+00
         alpha: [ 1. ]
         index: [ 21 ]
      -
         sv_count: 1
         rho: 3.4837705765346541e+00
         alpha: [ 1. ]
         index: [ 22 ]
      -
         sv_count: 1
         rho: 2.2106058794903594e-01
         alpha: [ 1. ]
         index: [ 23 ]
      -
         sv_count: 1
         rho: 1.1714951684879684e+00
         alpha: [ 1. ]
         index: [ 24 ]
      -
         sv_count: 1
         rho: -3.8695424508605236e+00
         alpha: [ 1. ]
         index: [ 25 ]
      -
         sv_count: 1
         rho: -3.0970044667608230e+00
         alpha: [ 1. ]
         index: [ 26 ]
      -
         sv_count: 1
         rho: 2.4452580213546735e+00
         alpha: [ 1. ]
         index: [ 27 ]
