%YAML:1.0
my_svm: !!opencv-ml-svm
   svm_type: C_SVC
   kernel: { type:RBF, gamma:20. }
   C: 7.
   term_criteria: { epsilon:1.1920928955078125e-07, iterations:1000 }
   var_all: 9
   var_count: 9
   class_count: 7
   class_labels: !!opencv-matrix
      rows: 1
      cols: 7
      dt: i
      data: [ 0, 1, 2, 3, 4, 5, 6 ]
   sv_total: 240
   support_vectors:
      - [ 4.22230989e-01, 9.87924993e-01, 8.13297987e-01, 8.38975012e-01,
          1.73914999e-01, 2.93383986e-01, 1.19359002e-01, 8.13297987e-01,
          8.33585978e-01 ]
      - [ 1., 5.69810987e-01, 2.20710993e-01, 3.45351011e-01,
          8.22218001e-01, 6.25442028e-01, 5.58475971e-01, 2.20710993e-01,
          3.95458996e-01 ]
      - [ 1.24082997e-01, 6.46037996e-01, 4.28095996e-01, 4.83931988e-01,
          6.67954981e-01, 3.99453014e-01, 4.31970000e-01, 4.28095996e-01,
          5.47263980e-01 ]
      - [ 1.49940001e-02, 8.98868024e-01, 8.25514019e-01, 7.80385971e-01,
          2.61743993e-01, 2.12567002e-01, 1.77426994e-01, 8.25514019e-01,
          6.74035013e-01 ]
      - [ 1.84913993e-01, 5.06415009e-01, 3.60911012e-01, 4.40470994e-01,
          7.08743989e-01, 4.66805011e-01, 4.93030995e-01, 3.60911012e-01,
          4.87863004e-01 ]
      - [ 1.05088003e-01, 6.20377004e-01, 8.09410989e-01, 6.44429028e-01,
          2.77788013e-01, 3.02177995e-01, 3.43564987e-01, 8.09410989e-01,
          3.62527013e-01 ]
      - [ 1.53255999e-01, 6.07546985e-01, 6.99056029e-01, 7.51774013e-01,
          2.86036015e-01, 2.97035009e-01, 2.62255013e-01, 6.99056029e-01,
          5.90708971e-01 ]
      - [ 1.81900002e-02, 8.73961985e-01, 8.12465012e-01, 7.93231010e-01,
          2.06779003e-01, 2.16434002e-01, 1.71541005e-01, 8.12465012e-01,
          6.20802999e-01 ]
      - [ 1.48554996e-01, 6.46037996e-01, 7.35285997e-01, 7.59323001e-01,
          1.81069002e-01, 3.48989993e-01, 2.73081005e-01, 7.35285997e-01,
          6.82304978e-01 ]
      - [ 7.12129995e-02, 7.34340012e-01, 1., 7.82342970e-01,
          1.68889999e-01, 1.27929002e-01, 2.11606994e-01, 1.,
          4.90487993e-01 ]
      - [ 4.19328988e-01, 1., 8.11493993e-01, 8.36597979e-01,
          2.09870994e-01, 2.36451000e-01, 1.17524996e-01, 8.11493993e-01,
          8.86928976e-01 ]
      - [ 1.09522998e-01, 6.70943022e-01, 3.82425994e-01, 4.64500993e-01,
          7.28011012e-01, 4.55085993e-01, 4.29886997e-01, 3.82425994e-01,
          5.15163004e-01 ]
      - [ 9.91939977e-02, 6.33207977e-01, 6.68794990e-01, 6.29969001e-01,
          2.40479007e-01, 4.92399991e-01, 3.67805988e-01, 6.68794990e-01,
          3.67700011e-01 ]
      - [ 6.47260025e-02, 7.09433973e-01, 7.23209023e-01, 6.79253995e-01,
          2.75790989e-01, 3.09661001e-01, 2.94342995e-01, 7.23209023e-01,
          3.90112996e-01 ]
      - [ 1.15580998e-01, 6.07546985e-01, 7.00582981e-01, 6.36180997e-01,
          2.10258007e-01, 4.48682994e-01, 3.77315015e-01, 7.00582981e-01,
          3.96822989e-01 ]
      - [ 4.19140011e-01, 9.37358022e-01, 7.64436007e-01, 8.03855002e-01,
          2.04845995e-01, 2.42106006e-01, 1.46547005e-01, 7.64436007e-01,
          6.52146995e-01 ]
      - [ 7.88680017e-02, 7.09433973e-01, 6.69906020e-01, 6.83447003e-01,
          3.10265005e-01, 4.41870004e-01, 2.90237010e-01, 6.69906020e-01,
          4.54614013e-01 ]
      - [ 4.23740000e-01, 9.37358022e-01, 5.73848009e-01, 7.50748992e-01,
          3.30691010e-01, 4.10169989e-01, 1.88319996e-01, 5.73848009e-01,
          6.55920982e-01 ]
      - [ 2.64059994e-02, 8.73961985e-01, 6.48111999e-01, 7.82607019e-01,
          2.77144015e-01, 3.43576998e-01, 1.80489004e-01, 6.48111999e-01,
          6.74669027e-01 ]
      - [ 1.20669998e-01, 5.95471978e-01, 8.26068997e-01, 6.78663015e-01,
          1.86930999e-01, 2.82081991e-01, 3.28824997e-01, 8.26068997e-01,
          3.89250994e-01 ]
      - [ 1.85442999e-01, 6.33207977e-01, 6.53248012e-01, 7.71237016e-01,
          2.76564002e-01, 4.11442995e-01, 2.54128993e-01, 6.53248012e-01,
          8.31763983e-01 ]
      - [ 1.15268998e-01, 6.96604013e-01, 6.60605013e-01, 7.76781976e-01,
          2.41832003e-01, 3.15008014e-01, 2.31984004e-01, 6.60605013e-01,
          6.59265995e-01 ]
      - [ 4.62599993e-02, 7.59999990e-01, 6.51582003e-01, 6.81846976e-01,
          2.38352001e-01, 3.84195000e-01, 2.86327988e-01, 6.51582003e-01,
          4.19548988e-01 ]
      - [ 1.42444000e-01, 5.06415009e-01, 5.97862005e-01, 5.37518978e-01,
          3.38681996e-01, 4.83850002e-01, 4.62563992e-01, 5.97862005e-01,
          2.39534006e-01 ]
      - [ 8.42199996e-02, 7.47169971e-01, 3.04275006e-01, 5.18599987e-01,
          6.97338998e-01, 4.78828996e-01, 3.76055002e-01, 3.04275006e-01,
          5.97428024e-01 ]
      - [ 6.98200008e-03, 9.11697984e-01, 9.04914021e-01, 7.90669024e-01,
          1.38861999e-01, 2.30802998e-01, 1.86125994e-01, 9.04914021e-01,
          6.84885025e-01 ]
      - [ 1.35176003e-01, 5.95471978e-01, 8.03858995e-01, 6.71441019e-01,
          2.12255001e-01, 3.61512005e-01, 3.47626001e-01, 8.03858995e-01,
          4.54190999e-01 ]
      - [ 1.26981005e-01, 6.83773994e-01, 6.30761027e-01, 6.77528977e-01,
          3.35716993e-01, 4.22688007e-01, 3.05864990e-01, 6.30761027e-01,
          6.86716974e-01 ]
      - [ 6.17149994e-02, 7.97735989e-01, 7.65824020e-01, 7.60783017e-01,
          1.97178006e-01, 2.91855007e-01, 2.31628001e-01, 7.65824020e-01,
          6.44937992e-01 ]
      - [ 2.53576994e-01, 3.54716986e-01, 3.92836988e-01, 3.63959014e-01,
          7.00753987e-01, 4.89356011e-01, 6.10146999e-01, 3.92836988e-01,
          4.48655993e-01 ]
      - [ 1.27147004e-01, 6.33207977e-01, 7.05579996e-01, 6.02289975e-01,
          3.46091002e-01, 2.87434995e-01, 3.66169006e-01, 7.05579996e-01,
          5.27805984e-01 ]
      - [ 1.86661005e-01, 4.81509000e-01, 3.63963991e-01, 3.42011005e-01,
          7.84200013e-01, 5.40769994e-01, 5.91596007e-01, 3.63963991e-01,
          4.17674005e-01 ]
      - [ 1.34832993e-01, 6.96604013e-01, 5.07218003e-01, 7.27482021e-01,
          3.34814996e-01, 3.87695998e-01, 2.45778993e-01, 5.07218003e-01,
          7.48673022e-01 ]
      - [ 1.28073007e-01, 5.82641006e-01, 3.44947010e-01, 3.19193989e-01,
          8.22926998e-01, 5.87179005e-01, 5.78476012e-01, 3.44947010e-01,
          3.86238992e-01 ]
      - [ 1.72858000e-01, 5.82641006e-01, 5.50526977e-01, 6.39473975e-01,
          3.16064000e-01, 4.24888998e-01, 3.56332988e-01, 5.50526977e-01,
          6.42094016e-01 ]
      - [ 6.94440007e-02, 6.96604013e-01, 4.06857014e-01, 3.31510991e-01,
          8.51536989e-01, 5.16797006e-01, 5.38783014e-01, 4.06857014e-01,
          3.70678991e-01 ]
      - [ 5.28750010e-02, 7.97735989e-01, 2.70404994e-01, 4.87426996e-01,
          6.80455983e-01, 5.52525997e-01, 4.02456999e-01, 2.70404994e-01,
          5.82027972e-01 ]
      - [ 3.48407000e-01, 1.77358001e-01, 2.89839000e-01, 3.85486007e-01,
          6.74785972e-01, 5.69693983e-01, 6.31775975e-01, 2.89839000e-01,
          4.46000993e-01 ]
      - [ 1.37099996e-01, 5.56981027e-01, 1.66435003e-01, 3.49869996e-01,
          8.05721998e-01, 6.67436004e-01, 5.50903022e-01, 1.66435003e-01,
          3.56025994e-01 ]
      - [ 1.63361996e-01, 5.82641006e-01, 5.19294977e-01, 5.76273024e-01,
          3.64455998e-01, 5.04235029e-01, 4.14617985e-01, 5.19294977e-01,
          5.62096000e-01 ]
      - [ 1.50984004e-01, 6.20377004e-01, 3.89227986e-01, 6.37175977e-01,
          4.19485003e-01, 5.36953986e-01, 3.43136013e-01, 3.89227986e-01,
          6.31134987e-01 ]
      - [ 7.95949996e-02, 8.10566008e-01, 5.45669019e-01, 7.50889003e-01,
          3.51891011e-01, 3.11899990e-01, 2.06665993e-01, 5.45669019e-01,
          7.97308981e-01 ]
      - [ 9.49250013e-02, 7.09433973e-01, 3.56191009e-01, 4.39772993e-01,
          7.21696019e-01, 5.16647995e-01, 4.55805987e-01, 3.56191009e-01,
          5.60208976e-01 ]
      - [ 1.59853995e-01, 6.58113003e-01, 5.73848009e-01, 7.11172998e-01,
          2.62064993e-01, 3.79819989e-01, 2.95231014e-01, 5.73848009e-01,
          7.66345978e-01 ]
      - [ 3.04163992e-01, 3.04150999e-01, 6.03691995e-01, 6.13986015e-01,
          2.88291991e-01, 4.24059004e-01, 4.48101997e-01, 6.03691995e-01,
          5.69501996e-01 ]
      - [ 2.04051003e-01, 4.68679011e-01, 3.27872992e-01, 3.77036989e-01,
          7.50177026e-01, 5.73059022e-01, 5.61010003e-01, 3.27872992e-01,
          4.65685993e-01 ]
      - [ 1.48068994e-01, 6.33207977e-01, 6.80038989e-01, 7.11888015e-01,
          2.35581994e-01, 2.87818015e-01, 2.94730991e-01, 6.80038989e-01,
          6.41041994e-01 ]
      - [ 2.15201005e-01, 5.06415009e-01, 3.87423992e-01, 4.93717015e-01,
          6.54745996e-01, 4.03373986e-01, 4.61631000e-01, 3.87423992e-01,
          6.32200003e-01 ]
      - [ 2.18366995e-01, 4.30189013e-01, 3.28705996e-01, 3.65170002e-01,
          7.18667984e-01, 5.84253013e-01, 5.92754006e-01, 3.28705996e-01,
          4.68484014e-01 ]
      - [ 1.36723995e-01, 6.46037996e-01, 5.27900994e-01, 6.00627005e-01,
          4.52089995e-01, 4.26501006e-01, 3.60381007e-01, 5.27900994e-01,
          6.06356025e-01 ]
      - [ 2.18631998e-01, 3.92453015e-01, 5.53165019e-01, 3.29196990e-01,
          7.42509007e-01, 3.99751008e-01, 6.17527008e-01, 5.53165019e-01,
          3.55293006e-01 ]
      - [ 1.24802999e-01, 6.33207977e-01, 5.87728977e-01, 5.80372989e-01,
          3.00406009e-01, 4.46853995e-01, 4.05755997e-01, 5.87728977e-01,
          5.09371996e-01 ]
      - [ 1.49556994e-01, 6.96604013e-01, 6.33675992e-01, 7.85417974e-01,
          3.28242004e-01, 3.17624986e-01, 2.06245005e-01, 6.33675992e-01,
          8.47172022e-01 ]
      - [ 1.69698000e-01, 5.82641006e-01, 1.40061006e-01, 4.33279991e-01,
          6.98240995e-01, 7.14451015e-01, 4.99440998e-01, 1.40061006e-01,
          5.94877005e-01 ]
      - [ 1.89732999e-01, 5.82641006e-01, 5.79539001e-01, 7.10799992e-01,
          3.35395008e-01, 3.35337996e-01, 2.93278009e-01, 5.79539001e-01,
          7.13946998e-01 ]
      - [ 1.32780999e-01, 6.20377004e-01, 6.24930978e-01, 5.55956006e-01,
          4.69294995e-01, 2.96824992e-01, 4.10901010e-01, 6.24930978e-01,
          5.05966008e-01 ]
      - [ 1.47137001e-01, 6.58113003e-01, 6.48528993e-01, 7.28926003e-01,
          3.50151002e-01, 2.53179014e-01, 2.51639992e-01, 6.48528993e-01,
          7.17091024e-01 ]
      - [ 1.71482995e-01, 4.93584991e-01, 4.80704993e-01, 3.23062003e-01,
          7.84844995e-01, 4.81243014e-01, 6.02320015e-01, 4.80704993e-01,
          3.71872991e-01 ]
      - [ 2.20633000e-01, 4.43019003e-01, 3.72709990e-01, 4.20403004e-01,
          7.18151987e-01, 4.85576987e-01, 5.26982009e-01, 3.72709990e-01,
          5.12667000e-01 ]
      - [ 1.85698003e-01, 4.55848992e-01, 2.99001008e-01, 2.60217011e-01,
          8.94517004e-01, 5.86834013e-01, 6.48910999e-01, 2.99001008e-01,
          3.48004997e-01 ]
      - [ 1.63858995e-01, 6.46037996e-01, 4.46974009e-01, 5.39490998e-01,
          6.25234008e-01, 5.02945006e-01, 4.08421010e-01, 4.46974009e-01,
          7.83784986e-01 ]
      - [ 2.16141999e-01, 4.93584991e-01, 2.87063003e-01, 4.55413997e-01,
          6.80971980e-01, 5.65177023e-01, 5.05232990e-01, 2.87063003e-01,
          6.20401025e-01 ]
      - [ 4.15760018e-02, 8.23396027e-01, 5.52470982e-01, 6.55488014e-01,
          3.82950008e-01, 3.98173004e-01, 2.81567007e-01, 5.52470982e-01,
          5.86887002e-01 ]
      - [ 1.66895002e-01, 5.82641006e-01, 1.95031002e-01, 4.87845987e-01,
          6.93665981e-01, 6.04732990e-01, 4.34904993e-01, 1.95031002e-01,
          5.85815012e-01 ]
      - [ 1.36320993e-01, 6.58113003e-01, 4.41560000e-01, 6.10072017e-01,
          3.92551005e-01, 5.32236993e-01, 3.67752999e-01, 4.41560000e-01,
          6.39995992e-01 ]
      - [ 1.32211000e-01, 6.33207977e-01, 6.65463984e-01, 6.05908990e-01,
          3.48926991e-01, 3.08178008e-01, 3.72693986e-01, 6.65463984e-01,
          5.52868009e-01 ]
      - [ 2.12339997e-01, 5.44151008e-01, 6.25486016e-01, 7.49692976e-01,
          2.62710005e-01, 2.98988998e-01, 2.86794007e-01, 6.25486016e-01,
          7.33096004e-01 ]
      - [ 1.43158004e-01, 6.96604013e-01, 5.28734028e-01, 7.27777004e-01,
          3.29273999e-01, 3.49305004e-01, 2.63568997e-01, 5.28734028e-01,
          8.06711972e-01 ]
      - [ 1.57993004e-01, 6.07546985e-01, 6.23681009e-01, 6.88992023e-01,
          2.57104009e-01, 4.09781009e-01, 3.13418001e-01, 6.23681009e-01,
          6.08125985e-01 ]
      - [ 1.28196999e-01, 7.09433973e-01, 4.50028002e-01, 8.09400022e-01,
          2.05360994e-01, 4.30530012e-01, 1.93268999e-01, 4.50028002e-01,
          7.65801013e-01 ]
      - [ 1.00432001e-01, 7.34340012e-01, 5.94807982e-01, 7.31954992e-01,
          3.04143012e-01, 3.60673010e-01, 2.42091000e-01, 5.94807982e-01,
          6.89764977e-01 ]
      - [ 1.06473997e-01, 6.70943022e-01, 6.83925986e-01, 6.49244010e-01,
          2.55492985e-01, 2.96967000e-01, 3.33961993e-01, 6.83925986e-01,
          5.23736000e-01 ]
      - [ 7.71690011e-02, 8.10566008e-01, 6.50888026e-01, 7.88167000e-01,
          2.92221993e-01, 2.12230995e-01, 1.79052994e-01, 6.50888026e-01,
          7.91683972e-01 ]
      - [ 5.51530011e-02, 8.61132026e-01, 7.91365981e-01, 9.27370012e-01,
          0., 1.09708004e-01, 7.89609998e-02, 7.91365981e-01,
          8.07223976e-01 ]
      - [ 1.25358999e-01, 6.83773994e-01, 8.42310011e-01, 7.75663972e-01,
          1.62897006e-01, 1.80101007e-01, 2.32086003e-01, 8.42310011e-01,
          6.62586987e-01 ]
      - [ 1.83852002e-01, 5.44151008e-01, 7.11272001e-01, 7.00532973e-01,
          1.70886993e-01, 2.94072002e-01, 3.32455993e-01, 7.11272001e-01,
          5.87916970e-01 ]
      - [ 2.59837002e-01, 4.81509000e-01, 5.55801988e-01, 7.27155983e-01,
          3.15097004e-01, 4.25978988e-01, 3.20596993e-01, 5.55801988e-01,
          8.06726992e-01 ]
      - [ 1.61815003e-01, 5.82641006e-01, 5.50249994e-01, 5.92068970e-01,
          3.67098004e-01, 4.63142008e-01, 3.96479994e-01, 5.50249994e-01,
          5.71550012e-01 ]
      - [ 1.67566001e-01, 6.20377004e-01, 7.92892992e-01, 8.23348999e-01,
          1.61027998e-01, 1.69102997e-01, 1.88761994e-01, 7.92892992e-01,
          7.02549994e-01 ]
      - [ 2.08767995e-01, 5.06415009e-01, 6.65463984e-01, 6.98840022e-01,
          2.25079000e-01, 3.19444001e-01, 3.34702998e-01, 6.65463984e-01,
          5.97271979e-01 ]
      - [ 1.08273998e-01, 7.47169971e-01, 4.90976989e-01, 7.14061022e-01,
          2.56974995e-01, 2.74385005e-01, 2.62630999e-01, 4.90976989e-01,
          7.55728006e-01 ]
      - [ 2.49252006e-01, 5.06415009e-01, 7.76234984e-01, 8.35448027e-01,
          9.19520035e-02, 6.80330023e-02, 2.11954996e-01, 7.76234984e-01,
          8.27401996e-01 ]
      - [ 1.10146999e-01, 7.84906030e-01, 6.05219007e-01, 8.97750020e-01,
          3.46670002e-02, 3.34057987e-01, 1.26420006e-01, 6.05219007e-01,
          9.12995994e-01 ]
      - [ 2.89570987e-01, 3.79622996e-01, 4.65297014e-01, 6.24858975e-01,
          2.34421998e-01, 4.09678996e-01, 4.35781002e-01, 4.65297014e-01,
          6.80450022e-01 ]
      - [ 2.08472997e-01, 5.44151008e-01, 8.58133972e-01, 8.76190007e-01,
          3.17029990e-02, 1.41546994e-01, 1.73011005e-01, 8.58133972e-01,
          7.23246992e-01 ]
      - [ 2.14195997e-01, 5.32074988e-01, 4.82371002e-01, 6.41197979e-01,
          3.01629990e-01, 3.74267995e-01, 3.62154007e-01, 4.82371002e-01,
          6.99644983e-01 ]
      - [ 2.33100995e-01, 5.19245028e-01, 7.34036982e-01, 8.53076994e-01,
          7.39089996e-02, 2.34222993e-01, 2.12982997e-01, 7.34036982e-01,
          7.82600999e-01 ]
      - [ 2.54099995e-01, 4.68679011e-01, 4.93059009e-01, 6.77141011e-01,
          2.37193003e-01, 3.06634992e-01, 3.57286006e-01, 4.93059009e-01,
          7.40294993e-01 ]
      - [ 1.57160997e-01, 6.96604013e-01, 5.39560974e-01, 8.32994998e-01,
          1.27972007e-01, 2.62212992e-01, 1.90394998e-01, 5.39560974e-01,
          8.99882972e-01 ]
      - [ 1.48717999e-01, 6.70943022e-01, 5.36785007e-01, 8.08142006e-01,
          1.41633004e-01, 3.65559012e-01, 2.09884003e-01, 5.36785007e-01,
          7.53573000e-01 ]
      - [ 1.84257001e-01, 5.82641006e-01, 6.77124023e-01, 7.43340015e-01,
          2.07101002e-01, 2.83012986e-01, 2.82148004e-01, 6.77124023e-01,
          6.76270008e-01 ]
      - [ 1.39449999e-01, 6.96604013e-01, 7.11965978e-01, 8.76453996e-01,
          2.42929999e-02, 2.00240999e-01, 1.59932002e-01, 7.11965978e-01,
          7.64846981e-01 ]
      - [ 1.69265002e-01, 6.33207977e-01, 6.21460021e-01, 8.36597979e-01,
          1.07095003e-01, 3.10213000e-01, 2.00308993e-01, 6.21460021e-01,
          7.68173993e-01 ]
      - [ 2.18758002e-01, 4.93584991e-01, 5.12354016e-01, 5.92800021e-01,
          3.35202008e-01, 3.49958986e-01, 4.26955998e-01, 5.12354016e-01,
          6.24499977e-01 ]
      - [ 1.91962004e-01, 6.46037996e-01, 4.24208999e-01, 7.97564983e-01,
          1.86544999e-01, 3.84012997e-01, 2.25082994e-01, 4.24208999e-01,
          9.39544976e-01 ]
      - [ 1.62313998e-01, 6.96604013e-01, 6.39227986e-01, 8.09121013e-01,
          2.85714000e-01, 2.39628002e-01, 2.07899004e-01, 6.39227986e-01,
          9.05481994e-01 ]
      - [ 2.16212004e-01, 5.06415009e-01, 3.55774999e-01, 7.14854002e-01,
          2.69475996e-01, 5.54609001e-01, 3.13475013e-01, 3.55774999e-01,
          6.58975005e-01 ]
      - [ 8.15529972e-02, 7.72074997e-01, 7.31399000e-01, 7.72045016e-01,
          1.63799003e-01, 2.56476015e-01, 2.18562007e-01, 7.31399000e-01,
          6.81859016e-01 ]
      - [ 2.50393987e-01, 4.93584991e-01, 3.81871015e-01, 7.46057987e-01,
          2.62001008e-01, 3.56335014e-01, 2.85026014e-01, 3.81871015e-01,
          7.94048011e-01 ]
      - [ 3.52191001e-01, 1.77358001e-01, 4.34202999e-01, 5.19315004e-01,
          3.90489012e-01, 4.87964004e-01, 5.57403982e-01, 4.34202999e-01,
          4.61317003e-01 ]
      - [ 2.61485010e-01, 4.30189013e-01, 6.02998018e-01, 7.70211995e-01,
          1.35059997e-01, 2.90443003e-01, 3.01075995e-01, 6.02998018e-01,
          6.74649000e-01 ]
      - [ 2.84045011e-01, 3.67547005e-01, 4.05885994e-01, 5.25776029e-01,
          3.98607999e-01, 3.99713993e-01, 5.04251003e-01, 4.05885994e-01,
          6.15520000e-01 ]
      - [ 3.24346006e-01, 1.51697993e-01, 1.63242996e-01, 2.32662007e-01,
          8.17255974e-01, 7.16398001e-01, 7.43754983e-01, 1.63242996e-01,
          3.02769989e-01 ]
      - [ 4.13228005e-01, 1.51697993e-01, 4.04774994e-01, 6.53779984e-01,
          1.94858000e-01, 4.20870006e-01, 4.63656992e-01, 4.04774994e-01,
          6.96348011e-01 ]
      - [ 2.36787006e-01, 3.54716986e-01, 3.81594002e-01, 3.43719006e-01,
          7.99021006e-01, 4.38158989e-01, 5.93626022e-01, 3.81594002e-01,
          3.43219995e-01 ]
      - [ 2.55304992e-01, 4.55848992e-01, 4.17822987e-01, 6.61701024e-01,
          3.05947989e-01, 3.51567000e-01, 3.61867011e-01, 4.17822987e-01,
          6.95990026e-01 ]
      - [ 1.33543998e-01, 6.33207977e-01, 5.09299994e-01, 5.92395008e-01,
          4.59630013e-01, 4.58728999e-01, 3.80012989e-01, 5.09299994e-01,
          5.61536014e-01 ]
      - [ 2.18457997e-01, 4.68679011e-01, 4.63075995e-01, 4.76989001e-01,
          4.85985011e-01, 3.73528987e-01, 5.14111996e-01, 4.63075995e-01,
          5.42178988e-01 ]
      - [ 2.23507002e-01, 3.92453015e-01, 5.40950000e-01, 4.32177007e-01,
          4.72517014e-01, 4.66131002e-01, 5.75753987e-01, 5.40950000e-01,
          3.93123001e-01 ]
      - [ 2.41986006e-01, 3.29057008e-01, 4.20322001e-01, 4.34181005e-01,
          5.00612020e-01, 5.95484972e-01, 5.78930974e-01, 4.20322001e-01,
          3.30265999e-01 ]
      - [ 1.45116001e-01, 6.33207977e-01, 5.42199016e-01, 6.03533030e-01,
          3.74958992e-01, 4.25278008e-01, 3.89104009e-01, 5.42199016e-01,
          6.04304016e-01 ]
      - [ 3.50719988e-01, 2.78490990e-01, 4.38089997e-01, 6.77109003e-01,
          2.12062001e-01, 3.70054990e-01, 3.95051986e-01, 4.38089997e-01,
          7.17248023e-01 ]
      - [ 4.08939987e-01, 0., 1.42837003e-01, 3.08631003e-01,
          7.20664978e-01, 7.36761987e-01, 7.18679011e-01, 1.42837003e-01,
          3.41740996e-01 ]
      - [ 1.27789006e-01, 7.59999990e-01, 6.16741002e-01, 8.56060028e-01,
          1.76235005e-01, 1.42150000e-01, 1.26452997e-01, 6.16741002e-01,
          8.99972975e-01 ]
      - [ 2.91956007e-01, 3.79622996e-01, 3.18295002e-01, 6.01202011e-01,
          3.45124990e-01, 4.89133000e-01, 4.29592013e-01, 3.18295002e-01,
          6.94495976e-01 ]
      - [ 2.65958011e-01, 5.06415009e-01, 6.01888001e-01, 8.30415010e-01,
          8.73759985e-02, 2.73925006e-01, 2.38860995e-01, 6.01888001e-01,
          9.11814988e-01 ]
      - [ 1.68818995e-01, 4.81509000e-01, 5.58717012e-01, 3.93222004e-01,
          4.50673014e-01, 5.41104972e-01, 5.96527994e-01, 5.58717012e-01,
          3.22486013e-01 ]
      - [ 2.03027993e-01, 5.19245028e-01, 2.41809994e-01, 5.45161009e-01,
          5.48424006e-01, 6.87231004e-01, 4.47730005e-01, 2.41809994e-01,
          6.19605005e-01 ]
      - [ 1.70224994e-01, 5.69810987e-01, 3.04275006e-01, 5.29567003e-01,
          5.89793026e-01, 4.53280985e-01, 4.20933992e-01, 3.04275006e-01,
          5.72287023e-01 ]
      - [ 2.52561003e-01, 4.43019003e-01, 4.22264993e-01, 5.30933022e-01,
          5.55319011e-01, 3.47110987e-01, 4.53559011e-01, 4.22264993e-01,
          6.46341026e-01 ]
      - [ 1.54498994e-01, 6.58113003e-01, 4.01582003e-01, 6.43700004e-01,
          3.24892014e-01, 3.54573995e-01, 3.34089011e-01, 4.01582003e-01,
          7.36083984e-01 ]
      - [ 1.84976995e-01, 6.07546985e-01, 3.80899012e-01, 7.45576978e-01,
          1.13472998e-01, 4.22338992e-01, 2.83360004e-01, 3.80899012e-01,
          7.85283029e-01 ]
      - [ 1.67597994e-01, 5.95471978e-01, 3.02332014e-01, 5.80218017e-01,
          3.73542011e-01, 5.01694977e-01, 4.02604014e-01, 3.02332014e-01,
          6.38835013e-01 ]
      - [ 2.01557994e-01, 5.06415009e-01, 4.07689989e-01, 4.62590009e-01,
          5.27418017e-01, 4.15641993e-01, 5.01406014e-01, 4.07689989e-01,
          5.57147026e-01 ]
      - [ 2.10705996e-01, 4.05283004e-01, 2.02110007e-01, 2.50353009e-01,
          8.28338981e-01, 6.83755994e-01, 6.84454024e-01, 2.02110007e-01,
          3.33243996e-01 ]
      - [ 1.37244001e-01, 6.58113003e-01, 5.56774020e-01, 6.37625992e-01,
          3.59043002e-01, 3.88577014e-01, 3.58985007e-01, 5.56774020e-01,
          6.44722998e-01 ]
      - [ 3.04877013e-01, 2.78490990e-01, 3.50777000e-01, 5.24735987e-01,
          4.09047008e-01, 5.26820004e-01, 5.10248005e-01, 3.50777000e-01,
          4.88647014e-01 ]
      - [ 3.13569993e-01, 3.04150999e-01, 2.96085000e-01, 5.42442977e-01,
          3.16193014e-01, 5.58506012e-01, 5.16973019e-01, 2.96085000e-01,
          6.07719004e-01 ]
      - [ 2.71387994e-01, 4.30189013e-01, 4.16990995e-01, 6.85357988e-01,
          1.94149002e-01, 3.92722011e-01, 3.67642999e-01, 4.16990995e-01,
          7.30189979e-01 ]
      - [ 1.99536994e-01, 4.81509000e-01, 4.15185988e-01, 5.38978994e-01,
          4.68136013e-01, 6.14087999e-01, 4.55915987e-01, 4.15185988e-01,
          4.96414989e-01 ]
      - [ 1.60749003e-01, 5.69810987e-01, 6.83925986e-01, 5.51405013e-01,
          4.31405991e-01, 3.31555992e-01, 4.26910996e-01, 6.83925986e-01,
          5.18846989e-01 ]
      - [ 2.20511004e-01, 3.29057008e-01, 2.07939997e-01, 2.69226015e-01,
          8.22862029e-01, 6.64026022e-01, 6.67303026e-01, 2.07939997e-01,
          2.22273007e-01 ]
      - [ 1.84368998e-01, 4.81509000e-01, 3.35646987e-01, 5.13490021e-01,
          5.63439012e-01, 5.54781020e-01, 4.68127012e-01, 3.35646987e-01,
          4.11680996e-01 ]
      - [ 2.17106000e-01, 4.81509000e-01, 4.45724994e-01, 5.48515975e-01,
          5.10728002e-01, 4.47506994e-01, 4.42153990e-01, 4.45724994e-01,
          5.68329990e-01 ]
      - [ 3.05548996e-01, 2.91321009e-01, 2.97057003e-01, 4.35548007e-01,
          5.18975973e-01, 5.04072011e-01, 5.81836998e-01, 2.97057003e-01,
          5.17774999e-01 ]
      - [ 2.39748001e-01, 5.44151008e-01, 4.65436012e-01, 7.79018998e-01,
          2.05102995e-01, 3.30215007e-01, 2.57681996e-01, 4.65436012e-01,
          8.88768017e-01 ]
      - [ 2.71407008e-01, 4.30189013e-01, 3.40088993e-01, 6.79377973e-01,
          2.27592006e-01, 4.48983997e-01, 3.67617995e-01, 3.40088993e-01,
          7.35467970e-01 ]
      - [ 3.37559998e-01, 2.91321009e-01, 3.56606990e-01, 6.54851973e-01,
          2.53816992e-01, 4.24439013e-01, 4.07070011e-01, 3.56606990e-01,
          6.97067022e-01 ]
      - [ 2.71221012e-01, 2.53585011e-01, 0., 2.65900999e-01,
          9.23578024e-01, 8.75474989e-01, 6.88624978e-01, 0.,
          2.86830992e-01 ]
      - [ 1.70457006e-01, 5.44151008e-01, 3.06080014e-01, 4.59141999e-01,
          6.58032000e-01, 5.45690000e-01, 5.03408015e-01, 3.06080014e-01,
          5.19945025e-01 ]
      - [ 1.61018997e-01, 6.20377004e-01, 6.93364978e-01, 7.33135998e-01,
          2.21147999e-01, 2.39086002e-01, 2.70498991e-01, 6.93364978e-01,
          6.80437028e-01 ]
      - [ 1.66408002e-01, 6.46037996e-01, 5.00000000e-01, 6.44445002e-01,
          5.54288030e-01, 3.26844990e-01, 3.21621001e-01, 5.00000000e-01,
          7.73495972e-01 ]
      - [ 2.10712999e-01, 4.30189013e-01, 4.18240011e-01, 5.25076985e-01,
          4.73870009e-01, 5.47138989e-01, 4.83619988e-01, 4.18240011e-01,
          4.11143005e-01 ]
      - [ 2.53829002e-01, 3.92453015e-01, 2.91505009e-01, 6.41834974e-01,
          2.99953997e-01, 5.05510986e-01, 3.80208999e-01, 2.91505009e-01,
          5.26282012e-01 ]
      - [ 1.76230997e-01, 5.69810987e-01, 3.57024014e-01, 5.18025994e-01,
          4.51445997e-01, 6.27624989e-01, 4.85404998e-01, 3.57024014e-01,
          6.18692994e-01 ]
      - [ 2.45125994e-01, 3.16226006e-01, 1.69211999e-01, 2.80625999e-01,
          5.54997027e-01, 8.33625972e-01, 7.39452004e-01, 1.69211999e-01,
          3.08290988e-01 ]
      - [ 1.79399997e-01, 4.68679011e-01, 3.78401011e-01, 4.72095996e-01,
          3.22057009e-01, 6.37109995e-01, 5.42748988e-01, 3.78401011e-01,
          3.35794985e-01 ]
      - [ 2.09405005e-01, 3.92453015e-01, 5.62188029e-01, 4.60197985e-01,
          3.00792992e-01, 4.59930986e-01, 5.71144998e-01, 5.62188029e-01,
          3.24216992e-01 ]
      - [ 2.67199993e-01, 2.15094000e-01, 1.97252005e-01, 5.07140011e-02,
          1., 7.13334024e-01, 8.80625010e-01, 1.97252005e-01,
          1.68412998e-01 ]
      - [ 1.60306007e-01, 5.69810987e-01, 2.65962988e-01, 4.52012002e-01,
          6.19240999e-01, 7.21616030e-01, 5.04921973e-01, 2.65962988e-01,
          5.37301004e-01 ]
      - [ 3.15320998e-01, 1.77358001e-01, 2.64158994e-01, 2.51673013e-01,
          6.75430000e-01, 6.92066014e-01, 7.71938026e-01, 2.64158994e-01,
          3.15414995e-01 ]
      - [ 2.38918006e-01, 3.54716986e-01, 1.97945997e-01, 3.35099012e-01,
          7.59585023e-01, 6.78412974e-01, 6.16913021e-01, 1.97945997e-01,
          3.77710998e-01 ]
      - [ 2.36670002e-01, 3.92453015e-01, 2.47363001e-01, 3.68012995e-01,
          5.39532006e-01, 7.57941008e-01, 6.41902983e-01, 2.47363001e-01,
          4.36105013e-01 ]
      - [ 1.77361995e-01, 5.19245028e-01, 2.67352015e-01, 4.07527000e-01,
          5.49454987e-01, 6.97263002e-01, 5.75663984e-01, 2.67352015e-01,
          4.87506002e-01 ]
      - [ 1.57739997e-01, 5.19245028e-01, 1.56163007e-01, 2.96687007e-01,
          8.46575022e-01, 7.99875021e-01, 6.05934978e-01, 1.56163007e-01,
          3.57661009e-01 ]
      - [ 2.06965998e-01, 3.92453015e-01, 2.72071004e-01, 2.58740991e-01,
          8.29241991e-01, 6.44897997e-01, 6.69283986e-01, 2.72071004e-01,
          3.02100003e-01 ]
      - [ 2.09269002e-01, 4.43019003e-01, 4.16157991e-01, 4.40284997e-01,
          5.14531016e-01, 5.53575993e-01, 5.67649007e-01, 4.16157991e-01,
          4.51557010e-01 ]
      - [ 2.28515998e-01, 3.54716986e-01, 2.09745005e-01, 2.25796998e-01,
          8.62426996e-01, 7.16620982e-01, 7.01866984e-01, 2.09745005e-01,
          2.96247989e-01 ]
      - [ 2.02745005e-01, 5.19245028e-01, 3.51193994e-01, 5.53143978e-01,
          5.14724016e-01, 5.43461978e-01, 4.43313003e-01, 3.51193994e-01,
          5.99826992e-01 ]
      - [ 2.25042000e-01, 3.92453015e-01, 2.96362996e-01, 3.31851989e-01,
          5.73040009e-01, 6.68868005e-01, 6.63999021e-01, 2.96362996e-01,
          3.77323002e-01 ]
      - [ 2.87182987e-01, 8.83020014e-02, 2.92892992e-01, 0.,
          6.89800024e-01, 7.78742015e-01, 1., 2.92892992e-01, 0. ]
      - [ 2.22111002e-01, 4.18112993e-01, 3.95891011e-01, 4.20031011e-01,
          5.20651996e-01, 5.27092993e-01, 5.79217017e-01, 3.95891011e-01,
          4.39658999e-01 ]
      - [ 2.89595008e-01, 2.65659988e-01, 3.13021004e-01, 3.05866987e-01,
          5.64468980e-01, 7.19830990e-01, 7.22584009e-01, 3.13021004e-01,
          3.94991010e-01 ]
      - [ 2.38583997e-01, 3.79622996e-01, 2.83731014e-01, 3.90643001e-01,
          6.20271981e-01, 5.37945986e-01, 5.83527029e-01, 2.83731014e-01,
          4.17562008e-01 ]
      - [ 1.38282001e-01, 5.44151008e-01, 4.38506007e-01, 4.83047009e-01,
          4.45841014e-01, 6.00485981e-01, 5.01303971e-01, 4.38506007e-01,
          3.32960993e-01 ]
      - [ 2.61886001e-01, 3.29057008e-01, 1.61715999e-01, 5.30870974e-01,
          4.93072987e-01, 7.25286007e-01, 4.89219993e-01, 1.61715999e-01,
          4.24483001e-01 ]
      - [ 2.54283994e-01, 3.41886997e-01, 3.37173998e-01, 4.32301998e-01,
          6.49784029e-01, 4.96850014e-01, 5.35004973e-01, 3.37173998e-01,
          3.97053003e-01 ]
      - [ 2.13000000e-01, 4.18112993e-01, 3.56469005e-01, 3.40272009e-01,
          5.95914006e-01, 6.04210973e-01, 6.50475025e-01, 3.56469005e-01,
          4.06287014e-01 ]
      - [ 2.96970010e-01, 1.90189004e-01, 4.60855007e-01, 2.72253990e-01,
          5.70976973e-01, 5.74890971e-01, 7.43574977e-01, 4.60855007e-01,
          2.43294001e-01 ]
      - [ 2.50272989e-01, 4.30189013e-01, 5.27485013e-01, 6.67293012e-01,
          2.83201009e-01, 4.86752003e-01, 3.73537004e-01, 5.27485013e-01,
          6.11644030e-01 ]
      - [ 1.85954005e-01, 5.95471978e-01, 5.93698025e-01, 8.01136971e-01,
          1.47238001e-01, 3.04771990e-01, 2.31268004e-01, 5.93698025e-01,
          7.30877995e-01 ]
      - [ 2.34934002e-01, 3.67547005e-01, 4.48500991e-01, 2.86186993e-01,
          8.61910999e-01, 4.50762004e-01, 6.40736997e-01, 4.48500991e-01,
          3.73104990e-01 ]
      - [ 2.83953011e-01, 3.41886997e-01, 2.00305000e-01, 4.71242011e-01,
          5.67691028e-01, 7.04542994e-01, 5.51808000e-01, 2.00305000e-01,
          5.62260985e-01 ]
      - [ 1.42325997e-01, 6.46037996e-01, 5.06246984e-01, 7.12352991e-01,
          3.44417006e-01, 4.38342005e-01, 2.78656989e-01, 5.06246984e-01,
          6.45671010e-01 ]
      - [ 1.58000007e-01, 6.33207977e-01, 5.48444986e-01, 7.03189015e-01,
          3.30498010e-01, 4.76038992e-01, 3.11031014e-01, 5.48444986e-01,
          6.85339987e-01 ]
      - [ 4.05800007e-02, 8.86038005e-01, 5.96612990e-01, 8.20381999e-01,
          3.44417006e-01, 2.81810999e-01, 1.26166001e-01, 5.96612990e-01,
          8.13444018e-01 ]
      - [ 1.98353007e-01, 5.32074988e-01, 4.23097998e-01, 5.94072998e-01,
          4.63432014e-01, 5.34824014e-01, 4.04217005e-01, 4.23097998e-01,
          6.22128010e-01 ]
      - [ 1.09137997e-01, 6.83773994e-01, 7.58189976e-01, 7.17509985e-01,
          2.59875000e-01, 3.19054008e-01, 2.77065009e-01, 7.58189976e-01,
          5.80308974e-01 ]
      - [ 3.10411990e-01, 3.41886997e-01, 4.28927988e-01, 6.60939991e-01,
          5.05057991e-01, 4.92915004e-01, 3.72018993e-01, 4.28927988e-01,
          6.67281985e-01 ]
      - [ 2.42861003e-01, 4.18112993e-01, 5.50943971e-01, 6.68395996e-01,
          2.70635992e-01, 5.23643017e-01, 3.95411998e-01, 5.50943971e-01,
          5.34587026e-01 ]
      - [ 1.10178001e-01, 6.70943022e-01, 4.59466994e-01, 6.53873980e-01,
          4.14846003e-01, 5.13284981e-01, 3.18129003e-01, 4.59466994e-01,
          5.17105997e-01 ]
      - [ 2.52276987e-01, 3.79622996e-01, 5.43587029e-01, 6.56654000e-01,
          3.69610995e-01, 4.67637986e-01, 3.75964999e-01, 5.43587029e-01,
          5.04091978e-01 ]
      - [ 2.74643987e-01, 4.05283004e-01, 5.63021004e-01, 7.26130009e-01,
          2.14640006e-01, 4.49434012e-01, 3.58833998e-01, 5.63021004e-01,
          6.80319011e-01 ]
      - [ 1.70900002e-01, 5.06415009e-01, 4.77234989e-01, 6.28974974e-01,
          3.35072994e-01, 5.01285017e-01, 3.82510006e-01, 4.77234989e-01,
          4.05647993e-01 ]
      - [ 3.02518994e-01, 3.41886997e-01, 6.02859974e-01, 7.24965990e-01,
          2.38674998e-01, 3.61021996e-01, 3.60020995e-01, 6.02859974e-01,
          6.52284980e-01 ]
      - [ 1.18436001e-01, 6.58113003e-01, 6.24374986e-01, 7.37546980e-01,
          2.52979994e-01, 3.53166014e-01, 2.65446991e-01, 6.24374986e-01,
          5.39992988e-01 ]
      - [ 3.28361988e-01, 7.62260035e-02, 3.63270015e-01, 3.06580991e-01,
          4.60660994e-01, 1., 7.47394025e-01, 3.63270015e-01,
          1.53696999e-01 ]
      - [ 1.73584998e-01, 5.56981027e-01, 6.36452019e-01, 6.83058977e-01,
          2.90675998e-01, 4.26447004e-01, 3.33876997e-01, 6.36452019e-01,
          5.67551970e-01 ]
      - [ 3.04220002e-02, 7.97735989e-01, 5.93976021e-01, 6.38060987e-01,
          3.36618990e-01, 4.70542997e-01, 3.17838013e-01, 5.93976021e-01,
          4.27008003e-01 ]
      - [ 3.62839013e-01, 2.53585011e-01, 3.98945004e-01, 6.77824020e-01,
          3.70963991e-01, 4.88766998e-01, 4.06500995e-01, 3.98945004e-01,
          7.14462996e-01 ]
      - [ 1.33920997e-01, 7.34340012e-01, 5.92449009e-01, 7.48420000e-01,
          5.62536001e-01, 2.21261993e-01, 1.97272003e-01, 5.92449009e-01,
          8.73649001e-01 ]
      - [ 2.12998003e-01, 5.56981027e-01, 6.07024014e-01, 7.49553025e-01,
          3.13100010e-01, 3.63323987e-01, 2.82577991e-01, 6.07024014e-01,
          7.75030017e-01 ]
      - [ 1.26273006e-01, 5.56981027e-01, 4.63770002e-01, 5.49152970e-01,
          3.53437990e-01, 5.80115974e-01, 4.48805988e-01, 4.63770002e-01,
          3.14153999e-01 ]
      - [ 2.14329995e-02, 9.24528003e-01, 5.66767991e-01, 7.89379001e-01,
          3.53630990e-01, 3.85235012e-01, 1.45536005e-01, 5.66767991e-01,
          8.09746981e-01 ]
      - [ 8.71730000e-02, 6.96604013e-01, 4.25179988e-01, 6.28260016e-01,
          3.54404002e-01, 5.45158029e-01, 3.46758008e-01, 4.25179988e-01,
          4.75100994e-01 ]
      - [ 1.92903996e-01, 5.19245028e-01, 4.75014001e-01, 6.62353992e-01,
          3.76571000e-01, 4.82804000e-01, 3.51011008e-01, 4.75014001e-01,
          5.43690026e-01 ]
      - [ 2.16812998e-01, 4.05283004e-01, 6.01610005e-01, 6.07834995e-01,
          2.96216995e-01, 4.93753999e-01, 4.35023993e-01, 6.01610005e-01,
          3.85334015e-01 ]
      - [ 9.58100036e-02, 6.70943022e-01, 6.70737982e-01, 6.73258007e-01,
          3.45640987e-01, 2.68570989e-01, 3.08075994e-01, 6.70737982e-01,
          4.57300007e-01 ]
      - [ 1.51728004e-01, 6.96604013e-01, 5.20404994e-01, 7.67539978e-01,
          4.20451999e-01, 3.67792994e-01, 2.11107999e-01, 5.20404994e-01,
          8.35593998e-01 ]
      - [ 2.19310001e-01, 4.43019003e-01, 6.04942024e-01, 6.41570985e-01,
          3.32625002e-01, 3.64596993e-01, 3.86574000e-01, 6.04942024e-01,
          4.81844991e-01 ]
      - [ 1.37054995e-01, 6.20377004e-01, 3.97417992e-01, 6.59388006e-01,
          3.59622985e-01, 5.48047006e-01, 3.35215002e-01, 3.97417992e-01,
          5.38092971e-01 ]
      - [ 9.72009972e-02, 7.59999990e-01, 6.59355998e-01, 7.67292023e-01,
          3.13035011e-01, 3.18302989e-01, 2.18303993e-01, 6.59355998e-01,
          7.38762975e-01 ]
      - [ 9.95210037e-02, 7.09433973e-01, 6.34091973e-01, 7.17447996e-01,
          3.28693986e-01, 3.27306002e-01, 2.56805986e-01, 6.34091973e-01,
          5.96839011e-01 ]
      - [ 2.44927004e-01, 4.68679011e-01, 5.62743008e-01, 7.39642978e-01,
          2.79592991e-01, 3.59349012e-01, 3.16614985e-01, 5.62743008e-01,
          6.97668016e-01 ]
      - [ 1.81646004e-01, 5.56981027e-01, 4.83065009e-01, 7.09433019e-01,
          4.38237011e-01, 4.43585992e-01, 2.76580989e-01, 4.83065009e-01,
          6.01473987e-01 ]
      - [ 1.91365004e-01, 5.32074988e-01, 6.48250997e-01, 7.52162993e-01,
          2.71923989e-01, 2.97829986e-01, 2.74607986e-01, 6.48250997e-01,
          5.78347981e-01 ]
      - [ 2.39061996e-01, 4.18112993e-01, 6.23820007e-01, 6.45797014e-01,
          2.29589999e-01, 4.46173996e-01, 4.17544991e-01, 6.23820007e-01,
          5.12488008e-01 ]
      - [ 3.41935009e-01, 2.40755007e-01, 2.94281006e-01, 5.22095025e-01,
          6.82904005e-01, 5.66572011e-01, 5.03453016e-01, 2.94281006e-01,
          5.84366977e-01 ]
      - [ 2.63054997e-01, 4.18112993e-01, 1.51998997e-01, 5.38854003e-01,
          7.57394016e-01, 6.33225977e-01, 4.35499012e-01, 1.51998997e-01,
          6.39873028e-01 ]
      - [ 2.43772998e-01, 4.18112993e-01, 1.68934003e-01, 5.17063022e-01,
          7.35808015e-01, 6.29680991e-01, 4.62233007e-01, 1.68934003e-01,
          5.61544001e-01 ]
      - [ 2.23139003e-01, 3.92453015e-01, 1.81842998e-01, 4.71210986e-01,
          6.81873977e-01, 7.05380023e-01, 5.09298027e-01, 1.81842998e-01,
          3.92102003e-01 ]
      - [ 3.33656013e-01, 3.77359986e-02, 2.34590005e-02, 1.72551006e-01,
          6.70145988e-01, 9.05550003e-01, 8.58639002e-01, 2.34590005e-02,
          7.95850009e-02 ]
      - [ 1.98103994e-01, 4.93584991e-01, 2.82898009e-01, 6.25774980e-01,
          4.63625014e-01, 6.00215018e-01, 3.70065987e-01, 2.82898009e-01,
          5.21188021e-01 ]
      - [ 1.57765999e-01, 5.95471978e-01, 3.95058006e-01, 6.53685987e-01,
          4.37141001e-01, 3.84070009e-01, 3.27609986e-01, 3.95058006e-01,
          5.77961028e-01 ]
      - [ 1.53019994e-01, 5.06415009e-01, 2.21959993e-01, 3.88359994e-01,
          6.29422009e-01, 6.32034004e-01, 5.71276009e-01, 2.21959993e-01,
          3.13439012e-01 ]
      - [ 2.20810995e-01, 4.81509000e-01, 4.40450013e-01, 6.75680995e-01,
          3.48347008e-01, 4.74640012e-01, 3.61883014e-01, 4.40450013e-01,
          5.98765016e-01 ]
      - [ 1.99322999e-01, 5.44151008e-01, 3.35229993e-01, 6.55224025e-01,
          5.72395027e-01, 4.57717001e-01, 3.21289003e-01, 3.35229993e-01,
          6.81511998e-01 ]
      - [ 3.23011994e-01, 2.40755007e-01, 3.35092008e-01, 5.61547995e-01,
          3.91584009e-01, 5.76923013e-01, 4.98827010e-01, 3.35092008e-01,
          4.81445014e-01 ]
      - [ 3.33808005e-01, 2.27925003e-01, 1.71155006e-01, 5.11533022e-01,
          6.04614019e-01, 7.04858005e-01, 5.35912991e-01, 1.71155006e-01,
          5.19994020e-01 ]
      - [ 2.58740008e-01, 3.79622996e-01, 2.79706001e-01, 4.91775990e-01,
          5.79612017e-01, 5.53034008e-01, 5.27267992e-01, 2.79706001e-01,
          5.12404025e-01 ]
      - [ 2.35207006e-01, 3.41886997e-01, 3.26624006e-01, 4.50583011e-01,
          5.14787972e-01, 6.46645010e-01, 5.63748002e-01, 3.26624006e-01,
          3.20524007e-01 ]
      - [ 1.82060003e-01, 5.19245028e-01, 6.32287979e-01, 6.94194973e-01,
          9.74280015e-02, 3.58108997e-01, 3.51534992e-01, 6.32287979e-01,
          5.06278992e-01 ]
      - [ 4.51849997e-02, 7.72074997e-01, 4.94309008e-01, 7.15552986e-01,
          2.75339991e-01, 4.36486006e-01, 2.46867999e-01, 4.94309008e-01,
          4.73190993e-01 ]
      - [ 1.73207000e-01, 5.95471978e-01, 3.47862005e-01, 6.92223012e-01,
          3.69740009e-01, 4.78899986e-01, 3.17514986e-01, 3.47862005e-01,
          6.73740029e-01 ]
      - [ 9.99530032e-02, 6.96604013e-01, 3.45640987e-01, 6.34100020e-01,
          6.00037992e-01, 4.50239986e-01, 3.04915994e-01, 3.45640987e-01,
          5.44583023e-01 ]
      - [ 1.95057005e-01, 5.56981027e-01, 4.28651005e-01, 6.99087977e-01,
          4.17423993e-01, 4.04951006e-01, 2.98698008e-01, 4.28651005e-01,
          6.64394975e-01 ]
      - [ 2.75934011e-01, 3.54716986e-01, 4.70155001e-01, 6.81365013e-01,
          2.20375001e-01, 4.56348985e-01, 3.93038005e-01, 4.70155001e-01,
          5.52420974e-01 ]
      - [ 2.71764994e-01, 2.78490990e-01, 5.05690992e-01, 5.23804009e-01,
          4.70391005e-01, 4.53704000e-01, 5.10775983e-01, 5.05690992e-01,
          3.52880001e-01 ]
      - [ 2.18805000e-01, 4.05283004e-01, 4.40171987e-01, 6.12432003e-01,
          4.03311998e-01, 4.80394006e-01, 4.07826990e-01, 4.40171987e-01,
          3.92863989e-01 ]
      - [ 2.43415996e-01, 4.43019003e-01, 4.51555014e-01, 6.44273996e-01,
          3.69740009e-01, 5.22827983e-01, 3.81940991e-01, 4.51555014e-01,
          6.11738980e-01 ]
      - [ 2.83886999e-01, 3.79622996e-01, 2.31399000e-01, 5.24518013e-01,
          7.41028011e-01, 5.60706973e-01, 4.65184003e-01, 2.31399000e-01,
          6.37395978e-01 ]
      - [ 3.45739990e-01, 1.64527997e-01, 3.77707005e-01, 5.54853022e-01,
          4.30503994e-01, 5.09594023e-01, 5.11668026e-01, 3.77707005e-01,
          4.20767009e-01 ]
      - [ 1.28985003e-01, 6.33207977e-01, 6.36035979e-01, 6.94226980e-01,
          5.72200008e-02, 3.60639006e-01, 3.39845002e-01, 6.36035979e-01,
          5.24533987e-01 ]
      - [ 2.30176002e-01, 4.30189013e-01, 2.89839000e-01, 5.87969005e-01,
          6.00618005e-01, 5.76466024e-01, 4.08964992e-01, 2.89839000e-01,
          5.21242976e-01 ]
      - [ 2.09018007e-01, 4.93584991e-01, 2.54996985e-01, 5.89412987e-01,
          6.76783025e-01, 5.21966994e-01, 3.82759988e-01, 2.54996985e-01,
          5.65042973e-01 ]
      - [ 1.42609999e-01, 5.69810987e-01, 4.21570987e-01, 6.29301012e-01,
          3.45317990e-01, 5.06492972e-01, 3.63094985e-01, 4.21570987e-01,
          4.40629005e-01 ]
      - [ 2.89990008e-01, 3.04150999e-01, 3.22459996e-01, 5.87315977e-01,
          4.09626991e-01, 4.88835007e-01, 4.60561991e-01, 3.22459996e-01,
          5.01329005e-01 ]
      - [ 1.72738999e-01, 5.32074988e-01, 2.11965993e-01, 5.42800009e-01,
          6.02164984e-01, 6.56515002e-01, 4.28364009e-01, 2.11965993e-01,
          4.88530993e-01 ]
      - [ 2.56024003e-01, 3.54716986e-01, 5.71349025e-01, 5.55211008e-01,
          4.61950004e-01, 3.67796004e-01, 4.85408992e-01, 5.71349025e-01,
          4.32772011e-01 ]
      - [ 9.17569995e-02, 7.21508980e-01, 3.43697995e-01, 6.22807980e-01,
          5.87988973e-01, 4.96762007e-01, 3.18194985e-01, 3.43697995e-01,
          5.80860019e-01 ]
   decision_functions:
      -
         sv_count: 52
         rho: 9.2170040078539905e-02
         alpha: [ 5.5455592049245932e-02, 1.0921748520885102e+00,
             4.3750901908422074e-01, 3.5559641270349079e-01, 7.,
             5.7344382950398165e-01, 4.4129822911912617e+00,
             9.6663830495840464e-01, 9.3429268047638836e-01,
             8.4023229810876121e-01, 2.0851457663689805e+00,
             4.7463069706174466e-01, 5.0016801368506159e-01,
             6.9363339078107700e-01, 1.0142758957786402e+00,
             6.5942363386851799e-01, 3.2324754257448907e-01,
             3.2606403971668914e+00, 2.5327007576857112e+00,
             8.5668793002854138e-01, 1.1083546238121433e+00,
             5.3711539197954439e+00, 6.8626775497220516e-01,
             8.0365976578550852e-02, 4.0091634885282978e+00,
             -1.2727465322968781e+00, -2.3236889714148931e-02,
             -9.3400086594054257e-02, -6.5140151053187079e-01,
             -2.8746396353757544e+00, -6.1483246035635697e-01,
             -6.3685170696808713e-01, -6.8287676109397066e-01,
             -5.2477264571246280e+00, -2.8552651344704350e+00,
             -8.4138059146999478e-01, -1.0741037626162810e-01, -7.,
             -2.0222367425454033e+00, -2.2958204719427827e-01,
             -5.4038245920242955e-01, -1.3433140397405385e+00,
             -2.8661293161718193e+00, -1.3688129760092715e-01,
             -9.2451983362668480e-02, -8.0026461270311877e-01,
             -4.3249636033903827e-01, -5.3277613707826168e+00,
             -4.9081949286941357e-01, -5.6724002202176993e-01,
             -1.7424981038817089e+00, -8.3035907817702692e-01 ]
         index: [ 0, 1, 2, 3, 4, 5, 6, 8, 9, 10, 11, 12, 14, 15, 17, 18,
             19, 20, 21, 22, 23, 24, 25, 26, 27, 30, 31, 33, 35, 36, 37,
             38, 40, 42, 43, 44, 45, 46, 47, 49, 50, 51, 52, 53, 55, 56,
             57, 58, 59, 60, 62, 63 ]
      -
         sv_count: 44
         rho: -1.4633668233429994e-01
         alpha: [ 5.1733217809599205e-02, 8.5366322233204328e-01,
             4.4448800045663495e-01, 6.1894287330637643e-01,
             1.7758667768541916e-01, 2.5835678900517896e+00,
             7.4144225810388820e-01, 2.0294876932404313e+00,
             8.2995545175588736e-01, 6.7104521088691371e-01,
             4.9279924444250228e-01, 1.4115830377163483e+00,
             6.1732078777356247e-01, 8.3738017903508355e-01,
             1.7269471007542845e+00, 5.8641685204075367e-01,
             1.1380516957791618e+00, 7., 1.1184774272033355e+00,
             7.4598171576890582e-01, 6.4141869042466093e-01,
             6.5095707138589765e-01, 5.5297229782061335e+00,
             3.6186743452039023e+00, -3.2429510590305881e+00, -7.,
             -4.0270165125750852e+00, -5.1096798674126942e-01,
             -7.9940994526216214e-01, -1.0336539662641386e+00,
             -6.9839283634661775e-01, -7.2414054628325253e-01,
             -5.0866702992011070e-01, -7.0093440110110994e-01,
             -4.9629363538017340e-01, -4.4928817105075247e-01,
             -3.9167893839114769e+00, -3.8523795536011507e-01,
             -7.2576550464422507e-01, -7.1172386157711665e-01,
             -7.6648137066475519e-01, -7., -2.9685216704752676e-01,
             -1.1230772882030371e+00 ]
         index: [ 0, 1, 2, 4, 5, 6, 7, 8, 9, 10, 13, 14, 15, 17, 18, 19,
             20, 21, 22, 23, 24, 25, 27, 28, 68, 70, 71, 72, 73, 74, 76,
             77, 81, 82, 83, 84, 90, 92, 94, 95, 96, 97, 98, 99 ]
      -
         sv_count: 47
         rho: 8.7890275683593200e-02
         alpha: [ 5.9265377295055037e-02, 1.0878925404772812e+00,
             9.6510213741467310e-01, 4.7454741279297236e-01,
             2.3684660738101946e+00, 5.2290656858945894e-01,
             3.7794779578719345e-01, 9.3430423897795645e-01,
             8.3086394642363393e-01, 4.3191496326726758e-01,
             3.9915409061559035e-02, 7.1251813388859586e-01,
             9.6724976651305816e-01, 5.4881612214865116e-01,
             3.8071170526605941e-01, 6.2448694605849153e-01,
             5.5362437279510401e-01, 1.3655231289784204e+00,
             1.2096727244782994e+00, 6.5669232165236813e-01,
             8.6293498860163978e-02, 2.2871875038737861e+00,
             -4.3742428257488486e-01, -6.3865027585840339e-01,
             -1.2277287280631985e+00, -1.9210907830107610e-01,
             -3.2636565771311071e-01, -3.3042915853550103e-01,
             -7.3177858814897767e-01, -9.6355088960746360e-01,
             -7.9616048945177009e-01, -1.0090018054351662e+00,
             -4.6688722861823195e-01, -1.7430971088938123e+00,
             -3.7029090693268846e-01, -4.1933970413070711e-02,
             -5.7795019970394501e-01, -6.6947657141853489e-01,
             -5.6490192059721223e-01, -2.4805229155443675e+00,
             -4.9402416095128493e-01, -1.0319583512890547e+00,
             -3.1272731083611049e-01, -7.9839309771811773e-01,
             -4.7382596694519691e-01, -4.2729717300304287e-01,
             -3.7941685185602053e-01 ]
         index: [ 0, 1, 2, 3, 4, 5, 6, 9, 10, 12, 14, 15, 17, 18, 19, 20,
             22, 23, 24, 25, 26, 27, 102, 103, 104, 108, 109, 111, 112,
             113, 115, 116, 117, 118, 119, 120, 121, 123, 124, 125, 127,
             130, 131, 132, 134, 135, 136 ]
      -
         sv_count: 48
         rho: 1.6326702926857928e-01
         alpha: [ 5.4013774943312165e-02, 1.1632696312503779e+00,
             2.1822201220444382e-01, 4.9654744166575565e-01,
             3.9936257847321359e+00, 2.8725311151286764e-01,
             2.4204312441342783e+00, 1.9020577481631094e+00,
             9.9990028360278327e-01, 8.8529423145476216e-01,
             3.3670731388544001e-01, 7.6524716113486146e-01,
             1.0343703321770072e+00, 4.1113324804507101e-01,
             5.2943637035250113e-01, 1.2639840491310208e+00,
             1.1131504915215871e+00, 3.1295239846834855e-01,
             1.7351829064252124e+00, 1.3541449500504592e+00,
             6.8098038421718066e-01, 1.5972248565129316e-01,
             -7.6968651172312630e-01, -3.4273259282376300e+00,
             -4.7465145010914318e+00, -9.5430434045454360e-01,
             -6.3946725989520503e-01, -9.3673856176508891e-02,
             -5.8922170148720521e-01, -2.1185669256955786e-01,
             -1.3721582412419722e+00, -7.6944252880934338e-01,
             -4.0847779435768089e-01, -6.2243288340425840e-01,
             -2.6340233462324897e-01, -4.4407521260540636e-02,
             -1.6751087095673575e-01, -7.7752475594965995e-02,
             -8.1004781169974338e-01, -1.6267121839632681e-01,
             -7.0083064518073002e-01, -5.4656091944993712e-01,
             -1.1985972754667464e+00, -6.5857150297556977e-01,
             -8.0735834319968802e-01, -1.0229346612105088e+00,
             -9.2287301414972678e-01, -1.2954652111087245e-01 ]
         index: [ 0, 1, 2, 3, 4, 5, 6, 8, 9, 10, 12, 15, 17, 18, 19, 20,
             21, 22, 23, 24, 25, 27, 138, 139, 140, 141, 143, 144, 145,
             146, 147, 148, 150, 154, 155, 156, 157, 158, 160, 162, 164,
             165, 166, 168, 169, 170, 171, 172 ]
      -
         sv_count: 43
         rho: -1.5277388903751871e-01
         alpha: [ 4.4898757920591399e-02, 8.4722593594937989e-01,
             5.3955751467188118e-01, 3.6705946508457066e-01,
             6.4838228172072399e-01, 7., 8.1902128338443914e-01,
             6.5756437412022950e-01, 8.6447882514455987e-01,
             5.2153362182157725e-01, 3.9317147091693960e+00,
             8.4510625732584688e-01, 3.2023810203356637e+00,
             1.3727656857848580e-01, 2.2657576307654144e+00,
             6.9751976267844498e+00, 2.4990236244068855e+00,
             1.9097362929953010e+00, 6.3578487867114275e-01,
             3.3715377299498506e-01, 1.5613080131105470e+00,
             6.4167280084023641e+00, 1.3303295898594072e+00,
             -2.1975946580678563e+00, -6.2865819139652468e-01, -7.,
             -4.0135101239870902e-01, -1.9704175973008685e-02,
             -5.4748430426999519e+00, -1.1527713852737620e+00,
             -6.5816594397627981e-01, -3.6303819656473117e+00,
             -8.4983795041384635e-01, -4.9551537519974193e-01,
             -3.2427301545109657e+00, -1.3627744061459965e+00,
             -1.3125534413289424e+00, -1.4695995602570453e+00,
             -1.4246987524918964e+00, -1.6215289858717900e-02, -7.,
             -3.4474691070031644e+00, -2.5723556405741217e+00 ]
         index: [ 0, 1, 2, 3, 4, 6, 9, 10, 13, 15, 16, 17, 18, 19, 20,
             21, 22, 23, 24, 25, 26, 27, 28, 174, 176, 177, 178, 184,
             185, 186, 187, 188, 189, 190, 191, 192, 193, 196, 197, 200,
             201, 202, 205 ]
      -
         sv_count: 48
         rho: -3.1703763132390060e-02
         alpha: [ 6.0351028612146321e-02, 9.6829969952625705e-01,
             5.7123034000581929e-01, 3.4413265898716788e-01,
             1.1635407446962058e+00, 3.1597150404020052e-01,
             5.3111937978613721e-01, 8.2346280585304232e-01,
             7.2713779789671396e-01, 7.3106250836388720e-01,
             6.1975435854199656e-01, 8.7357777473115239e-01,
             6.1316430393422772e-01, 6.7031286048299710e-01,
             4.8495813351177730e-01, 1.1081808116717620e+00,
             1.0576364837038199e+00, 1.8641081397605013e+00,
             6.0645652596053068e-01, 5.4870853168736755e-01,
             -5.6168746447550488e-01, -5.5247582996160216e-01,
             -1.4098160805521207e-01, -1.0316785374144763e+00,
             -1.2306516708167378e-01, -8.3385570527948971e-01,
             -1.4706410672409517e-01, -1.4244380914010460e-01,
             -5.8580978077289148e-01, -8.3522513359960984e-02,
             -5.5882276614523985e-01, -6.5257260394574124e-01,
             -1.3120140086619427e+00, -1.0774308133962709e-01,
             -2.4237771650554765e-01, -4.6845245820924836e-01,
             -6.3071454288826523e-01, -3.2954417764061861e-01,
             -2.2751994751251062e-01, -1.0596551751066596e-01,
             -5.0666453302674574e-01, -1.3162935324683338e+00,
             -7.7589288687417657e-01, -3.6204602701446975e-01,
             -1.1435301502208625e-01, -2.8270300766254397e-01,
             -8.2007438632639962e-01, -1.6668276607345356e+00 ]
         index: [ 0, 1, 2, 3, 4, 6, 8, 9, 10, 14, 15, 17, 18, 19, 20, 22,
             23, 24, 25, 27, 207, 208, 210, 211, 212, 214, 216, 217, 218,
             219, 220, 221, 222, 223, 224, 225, 226, 227, 228, 229, 231,
             232, 234, 235, 236, 237, 238, 239 ]
      -
         sv_count: 52
         rho: -6.8515081810201592e-02
         alpha: [ 3.0941131685811213e-01, 3.3250468738719059e+00,
             3.9021957947663042e+00, 7., 7.4715089631238596e-01,
             7.0750957342638343e-01, 8.6680961481689578e-01,
             6.0806391125598103e-01, 3.0590467530861587e+00,
             8.0859525908350494e-01, 4.4997193369860176e+00,
             3.6515460168375771e-02, 5.8916361747188422e+00,
             1.7385765073521404e+00, 7., 6.5630349601497862e-01,
             2.2382927081896400e-02, 7.5918881505032154e-01,
             3.5123699462102471e+00, 5.6306477594406594e+00,
             6.4487645993369702e-01, 5.7134891526056704e+00,
             2.8640385275321328e-01, 1.1241189620179247e-01,
             6.2122681531885449e-01, 5.6166819287472602e-01,
             2.5347655295790594e-01, 1.9008631222226153e+00,
             7.5021995361929716e-02, -5.5158293510198231e+00, -7.,
             -6.6742025218784251e+00, -1.1660848714654315e+00, -7.,
             -4.9538496472566980e+00, -1.7488066415454249e+00,
             -8.5957580992284865e-01, -1.0696682996507942e+00,
             -2.3219081901873048e-01, -1.6411325393701341e+00, -7.,
             -1.8076477524471630e+00, -4.3112108911475383e-01,
             -6.5321710345511641e-01, -4.9380153387483722e-01,
             -3.6845952364933314e+00, -1.5206061394167281e+00,
             -1.4534781238470900e+00, -1.3790865107001840e-01,
             -3.9106627977140609e+00, -1.0560249466260920e+00,
             -1.2402045815440212e+00 ]
         index: [ 29, 30, 32, 34, 35, 36, 37, 38, 39, 40, 41, 42, 43, 44,
             46, 47, 48, 50, 51, 52, 53, 54, 56, 57, 59, 60, 61, 62, 63,
             66, 67, 68, 69, 70, 71, 72, 73, 74, 75, 76, 77, 80, 81, 82,
             84, 85, 90, 93, 94, 95, 96, 99 ]
      -
         sv_count: 59
         rho: -9.4154291814217642e-03
         alpha: [ 2.7523930285841711e+00, 8.2409551786181923e-01,
             1.3139729854088211e+00, 5.3981124842408654e+00,
             5.9436695999148381e-01, 8.5393739164564164e-01,
             1.4631991265112692e+00, 1.0009809866315893e+00,
             4.8014492138560101e+00, 2.6123405563658366e+00,
             1.4549742848905362e-01, 2.0279616698845568e-01,
             7.1783504263651943e-01, 9.6942690762226347e-01,
             3.7362979857595726e+00, 7., 1.1974766581364773e+00,
             1.5894222133579434e+00, 6.4627394236032942e-01,
             3.7059900140116497e-01, 4.9723665087686897e-01,
             5.8780710525800464e+00, 5.6527187755390185e-01,
             2.2931198917341398e+00, 4.8448513510915481e-01,
             7.2788095191995761e-01, 1.8232525530761452e+00,
             1.1625623244908345e+00, 8.3145498262370598e-01,
             2.4620736064398243e+00, -3.9125303399540245e-01,
             -7.9728159218579442e-01, -3.8149048715425620e+00,
             -5.9554171379344245e-01, -7., -5.6723202405546924e-01,
             -6.9092748516772051e-01, -7., -2.8621707553245468e-01,
             -9.3821658322984469e-01, -1.1602813389831774e+00,
             -8.4840202027435330e-01, -6.5656774411924923e-01,
             -1.3262170742231394e+00, -2.4461610296519356e+00,
             -2.3405355481212431e+00, -1.1332271768494615e+00,
             -6.9271842172012543e-01, -1.3075751675598823e+00,
             -7.0657269357703689e-01, -2.2658848525771993e+00, -7.,
             -1.8989687995625981e-01, -4.3264027915932685e-01,
             -9.3452760923770795e-01, -7., -5.5841595090250967e-02,
             -1.5838431006490497e+00, -7.5341571300177723e-01 ]
         index: [ 29, 30, 32, 34, 35, 36, 37, 38, 39, 40, 41, 42, 43, 44,
             47, 49, 50, 51, 52, 53, 54, 55, 57, 59, 60, 61, 62, 63, 64,
             65, 102, 103, 104, 105, 106, 108, 109, 110, 111, 112, 113,
             115, 116, 117, 118, 119, 120, 121, 122, 123, 124, 125, 127,
             128, 129, 130, 131, 134, 135 ]
      -
         sv_count: 54
         rho: 1.3423376471893417e-01
         alpha: [ 2.5401710198188407e+00, 1.2943527622921513e-01,
             5.2752104754937312e-01, 6.0107579947781120e-01,
             1.7657860498390938e+00, 2.2279422139339964e+00,
             1.3196172719939172e+00, 1.5851048811132935e+00,
             4.1343446647495818e-01, 1.2763119371743841e+00,
             2.0619000205806208e+00, 6.8565754958987331e+00,
             1.2054573300633473e+00, 2.5923521197786874e+00,
             1.6275235265927117e+00, 1.1058287358742522e+00,
             6.6384285922272213e-01, 6.2160222918140928e-01,
             5.1034778304309025e-01, 6.0198798808375853e-01,
             1.0237041661555881e+00, 2.3269465728438329e-01,
             3.1849635430188679e+00, 1.1035352598583272e+00,
             3.1685693220531359e+00, 3.2951681253770948e-01,
             1.1456563853137751e+00, -7.4073997685936321e-01,
             -4.6872747890342668e+00, -7., -1.9591859229535862e+00,
             -5.7307678826647035e-01, -3.6791753717428116e-01,
             -3.7098425723119616e-01, -2.1575804356018352e-01,
             -9.9443361541543862e-01, -7.6678950174620697e-01,
             -1.0073833351876542e+00, -4.7486933891107524e-01,
             -4.3443164703212528e-01, -1.8962595612934101e+00,
             -3.0198052256460879e+00, -1.2348723451222448e+00,
             -8.3789446650734323e-01, -2.5286299992033262e-01,
             -1.8486620065046955e-01, -2.0895818193748894e-01,
             -2.7959377949510853e+00, -1.6035864809665417e+00,
             -7.6437804717630242e-01, -2.4818272134948804e+00,
             -1.1263792406373661e+00, -3.4642170257971800e+00,
             -9.5776866067342614e-01 ]
         index: [ 29, 32, 35, 36, 37, 38, 39, 40, 41, 42, 44, 46, 47, 48,
             50, 52, 53, 54, 55, 56, 57, 58, 59, 60, 61, 62, 63, 138,
             139, 140, 141, 143, 144, 145, 146, 147, 148, 149, 150, 151,
             154, 155, 158, 160, 162, 164, 165, 166, 167, 168, 169, 170,
             171, 172 ]
      -
         sv_count: 53
         rho: -1.7814180314939820e-02
         alpha: [ 2.6862702662874238e-01, 2.1678005847104966e+00,
             6.7534806749815308e+00, 2.5791413726265180e+00,
             7.9141489486133909e-01, 6.8000055575953544e-01,
             8.6622305885733586e-01, 6.4190555143160721e-01,
             3.8887405850615977e+00, 7., 2.7185501201985187e+00,
             3.2421151071774688e+00, 4.8800351014493462e+00,
             1.2516545504256025e+00, 7.9868666953656997e-01,
             1.3571427884680859e-01, 5.8668234944275959e+00,
             6.9319371282500752e-01, 7., 1.3452663990617446e-02,
             1.2559777197114902e-01, 6.6326883132393366e-01,
             7.7823841350557399e-01, 4.6704619957384591e-01,
             2.8208258402708530e+00, 1.4052919409648437e-01, -7.,
             -2.0097537371596763e+00, -6.6574136470379019e-01,
             -5.6550728106303234e+00, -1.7591032920811398e+00,
             -8.1806424210096512e-02, -5.2825687665229626e-01,
             -5.4356825482305460e-01, -1.0209670201738343e+00,
             -1.0185108750482821e+00, -7.1264616849232998e-01,
             -1.3963692956637752e+00, -8.5894162931064688e-01,
             -7.6547568530759147e-01, -7., -7.9785933391439812e-01,
             -1.4886409946325851e+00, -2.0700898117538111e-01,
             -3.6081318392720618e-01, -1.7056957121092142e+00,
             -6.0934525791434568e+00, -1.0672086710863624e+00,
             -3.3085381570699886e+00, -5.7373525071724210e+00,
             -1.5367937013252460e+00, -2.1801386836781629e+00,
             -1.7333503150468224e+00 ]
         index: [ 29, 30, 32, 34, 35, 36, 37, 38, 39, 40, 41, 44, 46, 47,
             50, 51, 52, 53, 54, 56, 57, 59, 60, 61, 62, 64, 173, 174,
             175, 176, 177, 179, 180, 181, 184, 186, 187, 188, 189, 190,
             191, 192, 193, 194, 196, 197, 198, 199, 200, 201, 202, 205,
             206 ]
      -
         sv_count: 54
         rho: 2.4328944424147465e-02
         alpha: [ 2.0152885051027727e-01, 1.2081860777859738e-01,
             6.0297902263400704e-01, 3.3816437664585774e-01,
             8.1613942831495101e-01, 1.3041170561862419e+00,
             1.4925775703978263e+00, 1.2723946668128476e+00,
             3.5678287489631688e-01, 5.7074403618085991e+00,
             2.3363669266283407e-01, 1.8745634675078291e+00,
             9.6402404742321124e-01, 9.5316218218822235e-01,
             6.5962843547398864e-01, 9.4530326445565249e-01,
             7.7505192263544587e-01, 4.0815278962286833e-01,
             4.9956415023052669e-01, 7.3154213901242396e-02,
             5.9985428166861454e-01, 3.2438477596122534e-02,
             5.6437905520030263e-01, 5.4171044040820071e-01,
             1.1333925872431410e+00, 1.1062158062111320e+00,
             1.7753939030631791e+00, -8.6024574700532674e-01,
             -8.7332269521624006e-01, -2.2939888670407102e-01,
             -1.6463841426870673e-01, -9.7570974978033009e-01,
             -1.3544210058085651e-01, -3.7593979561621754e-01,
             -1.4581646067438636e+00, -6.0699502309855957e-01,
             -5.2882086005137074e-01, -5.7785715051599340e-01,
             -5.2674553779504918e-01, -9.4477939330503602e-01,
             -1.6183643519586832e+00, -3.1825589026203756e+00,
             -8.5671261759571360e-01, -7.7539651481329719e-01,
             -1.0335446607037679e-01, -1.1303150575193841e+00,
             -2.7061115048892226e-01, -7.2118293556238577e-01,
             -7.5518599090855976e-01, -9.0321519580002319e-01,
             -1.5453549101584023e+00, -1.3835378137701231e+00,
             -1.3980576006897742e+00, -2.4506610648403955e+00 ]
         index: [ 29, 30, 32, 34, 35, 36, 37, 38, 39, 40, 41, 44, 46, 47,
             48, 50, 51, 52, 53, 54, 55, 57, 59, 60, 61, 62, 63, 207,
             208, 209, 210, 211, 212, 213, 214, 216, 218, 219, 220, 221,
             222, 223, 225, 226, 227, 229, 230, 231, 232, 234, 235, 237,
             238, 239 ]
      -
         sv_count: 57
         rho: 1.2253681408947652e-01
         alpha: [ 2.2194580919475959e-01, 3.3778892593787024e-01,
             6.5690835194211461e-01, 1.5058867645509983e+00,
             8.0519177085907101e-01, 1.0826027203887718e+00,
             5.0556415912472263e-01, 1.3094673105996846e-01, 7.,
             8.5539330654134582e-01, 6.7699561293785737e-01,
             7.5993992163034807e-01, 4.6753523889453277e+00,
             3.6233762048532403e-01, 4.1992222207308147e+00,
             4.1237518736473050e-01, 3.1386572559851587e+00,
             1.8629741148138519e+00, 5.2116533375240404e-01,
             1.0328528151275509e-03, 3.4788731633870493e+00,
             1.3421719690244556e+00, 2.1435879360906167e+00, 7.,
             2.1196954753462163e+00, 4.1925414090452995e-01,
             -5.1173532380791342e-01, -4.1673706393965865e-01,
             -7.6709036271827413e-01, -7.4370311636957687e-01, -7.,
             -3.5931272258227293e-01, -4.8558321198469484e-01,
             -3.7270520322411455e-01, -7., -9.1120717756321168e-01,
             -7.0573553380310672e-01, -3.2489691997607455e+00,
             -7.7021715318900241e-01, -5.0267281130861674e-01,
             -6.1221255847505551e-01, -1.4431803537334045e-01,
             -1.6432193679035756e+00, -2.5412415323094506e+00,
             -3.7471338329623582e-01, -5.2305693580289581e-01,
             -1.2678863709912565e+00, -1.3288421786326399e+00,
             -1.7372967756748744e-01, -4.6938808502453959e+00,
             -6.7710156050070736e-01, -1.4168957195857914e+00,
             -3.3537576171153560e-01, -1.1238651491239876e-01,
             -1.5593860762356671e-01, -6.2450540752969230e+00,
             -1.7434172333398590e-01 ]
         index: [ 67, 69, 70, 71, 72, 73, 74, 76, 77, 80, 81, 82, 83, 84,
             85, 86, 87, 88, 91, 92, 94, 95, 96, 98, 99, 100, 101, 102,
             103, 104, 105, 107, 108, 109, 110, 111, 112, 113, 115, 116,
             117, 118, 120, 121, 122, 124, 125, 126, 127, 128, 129, 130,
             131, 133, 134, 135, 136 ]
      -
         sv_count: 55
         rho: 1.2440450728108193e-01
         alpha: [ 7.0315920539336196e-01, 8.5601924455375566e-02,
             1.9448649229788395e-01, 1.0233659384317522e+00,
             6.4108750880271248e-01, 8.9797610897743541e-01,
             1.0115261701230791e+00, 1.0689582936032918e+00,
             1.7106012415369509e+00, 1.7786788355959360e-01,
             7.2117483966022455e-01, 7.9336522726552139e-01,
             8.4169191017041456e-02, 2.1952314962169326e+00,
             3.2818463506113221e-01, 1.5778017512994222e+00, 7.,
             3.9720929418901689e+00, 7.3984771361075785e-01,
             5.7538786115116558e-01, 6.1670093789860203e-01,
             1.8088600090873805e+00, 8.2481601089989687e-01,
             1.9082575891565548e-01, 1.3285743665963217e+00,
             1.2664341363008966e+00, -8.0680193920599119e-01,
             -1.6473159179212582e-01, -7., -1.3483662371655443e+00,
             -1.4102438610955155e+00, -5.3992321491628947e-01,
             -5.9795812295550110e-01, -3.4322650822432710e-01,
             -8.6853461470599636e-01, -8.0681287158524728e-01,
             -3.6708187010962134e-01, -4.1322212493564792e-01,
             -7.7616841127550653e-03, -6.6237254394576961e-01,
             -3.2894045451214771e-01, -1.4718455077579978e-01,
             -2.2864420297738208e-01, -8.4766760960385434e-01,
             -1.5047257970579786e-01, -2.3318192167412938e-01,
             -4.4333286822218276e-01, -5.2299083826646875e-01,
             -4.6747565017108639e-01, -1.9288389799395279e-02,
             -7.4507253375727578e-01, -4.0059049753132818e+00, -7.,
             -7.2879469804989261e-01, -3.3210918647353038e-01 ]
         index: [ 66, 67, 70, 71, 72, 73, 74, 76, 77, 78, 80, 81, 82, 83,
             84, 89, 90, 92, 93, 94, 95, 96, 97, 98, 99, 100, 138, 139,
             140, 141, 143, 144, 145, 146, 147, 148, 149, 150, 152, 154,
             155, 157, 158, 160, 161, 162, 164, 165, 166, 167, 168, 169,
             170, 171, 172 ]
      -
         sv_count: 51
         rho: -4.8483021696309962e-02
         alpha: [ 6.4780722712325414e+00, 2.7997249320594837e+00, 7.,
             3.3798087060861443e-01, 7., 4.1707523028342148e+00,
             4.3969626275949638e+00, 6.5786197076320918e-01,
             7.3511554433081983e-01, 7., 4.4502668800890746e+00,
             3.2259588633002476e+00, 3.2222186866936015e-01,
             6.0575434555311158e-01, 1.9161817991119681e+00,
             4.5849670361065237e-01, 5.8394361172264220e-01,
             2.4409044240940028e-01, 5.1407263047890606e-01,
             1.6669756928773163e+00, 1.2851060204136389e+00,
             6.5226558105054108e-02, 1.0856142367020418e+00,
             1.2901634595367406e+00, -6.1049748636348511e-01,
             -4.5394517643066417e+00, -2.5544077395070501e+00,
             -1.7677956065383031e+00, -2.5290815819784069e+00,
             -3.6097815504011871e-01, -1.8737440988781511e+00,
             -5.8189624818200303e-01, -2.2692672095408681e-01,
             -3.3685171040428581e+00, -1.0485825423974819e+00,
             -5.4801705135815739e+00, -1.0637656627148613e+00,
             -1.5606354754281440e+00, -4.7505191138350605e-01, -7.,
             -7.3408402503139492e-01, -4.1748959777647071e-01,
             -5.4167907537604798e-01, -1.2752812249760739e+00,
             -2.1279172900978089e+00, -4.1330512532196700e-01, -7.,
             -1.8133013745261399e+00, -5.8534613504502202e+00,
             -2.6664047385391751e+00, -4.0611721861203193e-01 ]
         index: [ 66, 67, 68, 69, 70, 71, 72, 73, 74, 76, 77, 79, 81, 82,
             83, 84, 85, 94, 95, 96, 97, 98, 99, 100, 173, 174, 175, 176,
             177, 178, 182, 183, 184, 185, 186, 187, 188, 189, 190, 191,
             192, 194, 196, 197, 198, 200, 201, 202, 203, 205, 206 ]
      -
         sv_count: 50
         rho: 8.3156778549706746e-03
         alpha: [ 9.1023232881041430e-02, 5.3827547118730967e-01,
             1.8634719934841537e-01, 7.1056298801111450e-01,
             3.6687838704009995e-01, 8.5127567700146600e-01,
             3.7076090810906515e-01, 1.3350960490632273e+00,
             2.3565834114259671e-01, 1.7276153534410714e+00,
             4.7518470552638709e-01, 5.7906498699772546e-01,
             7.3138949182036339e-01, 1.9835198761798227e+00,
             5.0248508670598746e-01, 2.7651268646872340e-01,
             1.1282920019926719e-01, 7.6545668685659662e-01,
             4.2673277562308959e-01, 3.4824043210116101e-01,
             3.1869761299703510e+00, 1.3873489340750245e-01,
             4.4617354849923579e-01, 4.6854889612056354e+00,
             9.0296692306711812e-01, -3.9509732784651252e-01,
             -6.0988344075399714e-01, -1.8895593405402050e-01,
             -9.9166086389110064e-01, -2.4684479360125194e-01,
             -7.1745918452419166e-01, -1.3208382590632513e+00,
             -5.4910908250548696e-01, -3.5044596784446724e-01,
             -1.7252197618920699e+00, -1.1211671775217447e+00,
             -2.0163556907458315e+00, -2.7732569344546570e-01,
             -5.0982233434908941e-01, -2.0576346097474922e+00,
             -9.9234899510536811e-01, -1.0643203768207132e+00,
             -7.0601104354938035e-02, -3.9946877882245131e+00,
             -8.6408875112800132e-01, -2.3068928324224686e-01,
             -3.4538833423873927e-01, -2.6167735560988109e-01,
             -8.5225068086847544e-01, -2.2137720047552278e-01 ]
         index: [ 68, 69, 70, 71, 72, 73, 74, 75, 76, 77, 80, 81, 82, 83,
             84, 85, 91, 93, 94, 95, 96, 97, 98, 99, 100, 207, 208, 210,
             211, 212, 214, 215, 218, 220, 221, 222, 223, 224, 225, 226,
             227, 229, 230, 231, 232, 234, 235, 237, 238, 239 ]
      -
         sv_count: 60
         rho: 3.3095709558521466e-02
         alpha: [ 1.8873517180305435e+00, 6.5133145189564279e-01,
             5.9436046525163349e+00, 5.3114035876084320e-01,
             2.1215991998692774e+00, 4.5190780177862679e+00,
             4.3714983352198566e-01, 6.7334059240294797e-01,
             1.1518842688773483e+00, 1.4485694026703844e+00,
             1.3291603611820766e+00, 1.6548675962369335e+00,
             3.7925066163495984e+00, 2.3814179485225577e+00,
             1.5137617446910490e-01, 6.3782021420398138e-01,
             2.3237428659725867e+00, 2.7468408783102176e+00, 7.,
             1.4404850825670819e+00, 8.6806345070670110e-01,
             2.9454052604755149e-01, 3.8015313008457097e-01, 7.,
             7.5467788630885879e-01, 5.2570418076020697e+00,
             6.8802440465985697e+00, 1.5404690067367208e+00,
             2.8840556337844125e+00, 5.8431793560372980e-01,
             -1.0470371561374290e+00, -2.6491166481956134e+00,
             -6.5767954002452056e-01, -1.5736147876400792e+00, -7.,
             -2.3759755216296887e+00, -2.3060251824735798e+00,
             -7.4680637773452885e-01, -4.2481564527449722e-01,
             -2.1195401451121887e+00, -8.3925164740540614e-01,
             -1.6263675752356579e+00, -1.3510306594752091e+00,
             -1.9042904389016204e+00, -1.3162204550623704e+00,
             -4.0142096823411624e+00, -2.5837889323100471e+00, -7., -7.,
             -9.3672703096791932e-01, -1.7228736783720207e+00,
             -1.0752913853843041e-01, -1.9038781808526708e+00,
             -9.8639314940628264e-01, -4.8246407469542696e+00,
             -1.4184327670055228e+00, -1.8760137795781033e+00,
             -1.5997564707023950e+00, -4.0757195456001911e+00,
             -1.2790957746874883e+00 ]
         index: [ 102, 103, 104, 105, 108, 109, 111, 112, 113, 114, 115,
             116, 117, 118, 120, 121, 122, 123, 124, 125, 126, 127, 128,
             129, 130, 131, 132, 133, 134, 135, 138, 139, 140, 141, 142,
             143, 144, 145, 146, 147, 148, 149, 150, 151, 154, 155, 156,
             157, 158, 160, 161, 162, 164, 165, 166, 168, 169, 170, 171,
             172 ]
      -
         sv_count: 57
         rho: -2.2630573585600500e-01
         alpha: [ 7.9057570107142205e-02, 3.6732655721988228e-01,
             8.4367787559597673e-01, 6.5166878235269898e-01,
             8.6151305037568060e-01, 2.5258355239156556e+00,
             1.0177017198038059e-01, 8.4829881503263194e-01,
             6.2635552457975197e-01, 9.7180332986935758e-01,
             1.1468049264001861e+00, 7.0190504742169035e-01,
             8.2229463958267801e-01, 4.9531145321966930e-01,
             4.4398517892223793e-01, 1.2965630931022329e-01,
             5.5870331443193733e-01, 4.5471456761618734e-01,
             1.4707967316800712e+00, 4.5909532152222093e-01,
             2.8556085029587703e+00, 4.0739250919374602e-02,
             1.4597842622811485e-01, 2.4656974248443855e+00,
             9.4385047931935373e-01, 2.9875698268390927e-01,
             1.8144149950188728e+00, 2.8931754945243576e-01,
             6.1845340127770765e-01, 5.8710982810187906e-01,
             -1.3960942829541476e+00, -9.7722512696781971e-01,
             -6.8593596467863449e-01, -5.4272195865896320e+00,
             -5.7436627907116322e-01, -5.4769489222221593e-02,
             -1.2530910576645087e+00, -6.1072610711081936e-02,
             -3.4564317644961762e-01, -1.3265330642650411e-01,
             -6.3352529789699330e-01, -1.2295448467853143e+00,
             -2.7809074476792317e-01, -1.0490668351312682e+00,
             -2.7068822532597054e+00, -9.4203883242633080e-01,
             -7.6663127903807937e-01, -1.6645510544002093e+00,
             -5.0135750586750627e-01, -1.6971020003950887e-01,
             -5.9899438680795147e-01, -1.0636114575148463e+00,
             -4.2789556675236862e-01, -9.7877556062955540e-01,
             -2.0953148948761888e-01, -2.6127710893613065e-01,
             -2.3094623146441706e-01 ]
         index: [ 101, 102, 103, 104, 105, 106, 109, 111, 112, 113, 114,
             115, 116, 117, 118, 119, 120, 121, 122, 124, 125, 126, 127,
             129, 130, 131, 133, 134, 135, 137, 173, 174, 175, 176, 177,
             178, 180, 181, 182, 183, 184, 186, 187, 188, 189, 190, 191,
             192, 193, 194, 196, 197, 198, 199, 201, 202, 203 ]
      -
         sv_count: 56
         rho: -1.2516438900359822e-01
         alpha: [ 4.0044737584336626e-01, 7.3420010283322612e-01,
             7.5760888525399162e-01, 1.6376855247431692e+00,
             1.6679253118285886e+00, 1.3696953753581069e+00,
             2.0421664882231276e+00, 3.5691457760439044e-01,
             7.5673612045920247e-01, 8.0229804827550788e-01,
             6.2413662851832130e-01, 7.4388483632147639e-01,
             3.1742619861733825e+00, 1.6215556312009975e+00,
             5.6386212043947992e-01, 1.4462885519178241e+00,
             5.9883737906055901e-01, 1.9488766013502121e+00,
             7.1876918258673139e-01, 4.4851255294667297e-01, 7.,
             1.1256425907741869e+00, 7.3981666707022525e-02,
             7.1015575359240302e-01, 3.8555411906188569e-01,
             3.1684103938443959e+00, 2.0510963046662383e+00,
             8.8579276823654823e-02, 8.7203019558294195e-02,
             -3.5026506383845790e-01, -6.1973449721475660e-01,
             -1.1615312561712818e+00, -1.5704873808745090e+00,
             -1.0209030731158284e+00, -8.0300596194675311e-01,
             -5.4815710721981525e-01, -4.4488293352368693e+00,
             -3.2417404093037450e-01, -3.5003429930858543e+00,
             -2.8323039100390566e+00, -5.9990674939784128e-01,
             -1.0573946155894036e+00, -1.7510828162929033e+00,
             -1.1122682494307865e+00, -1.0823995599841174e+00,
             -2.2041015345642334e+00, -6.0424798153291284e-02,
             -9.5727682460732910e-01, -9.0908150566456969e-01,
             -7.0146758172704404e-01, -8.9889200643404721e-01,
             -8.5569787883760695e-01, -3.3638838024082123e+00,
             -2.1210106807575282e+00, -9.3498849087008373e-01,
             -1.3156746915738637e+00 ]
         index: [ 102, 103, 104, 105, 106, 108, 109, 111, 112, 113, 114,
             115, 117, 118, 119, 120, 121, 122, 124, 125, 126, 127, 129,
             130, 131, 132, 134, 135, 136, 207, 208, 211, 212, 213, 214,
             216, 217, 218, 219, 220, 221, 222, 223, 225, 226, 227, 228,
             229, 231, 232, 234, 235, 236, 237, 238, 239 ]
      -
         sv_count: 51
         rho: -2.2179484262689139e-01
         alpha: [ 7.1740924168287723e-01, 3.0278429647657235e+00,
             1.8883522648843405e+00, 1.6580597667451324e-01,
             8.5309324332055647e-01, 5.3764372470919686e-01,
             5.4458075015602991e-01, 4.3943081458940275e-01,
             1.1259466934572036e+00, 7.1982795004063738e-01,
             3.8230545891576218e-01, 6.0882609001589851e-02,
             7.8175912839010698e-03, 5.9733730436348986e-01,
             3.1151147489712183e-01, 8.8327353407608084e-02,
             3.0158680867577088e+00, 7.5665762316805729e-01,
             2.2653224229851682e-01, 2.4487911306851431e+00,
             4.7083387955227629e-01, 1.7111618241754264e-01,
             6.4478305494588795e-01, 7., 1.3904102611898128e+00,
             6.7560265635693273e-01, 2.2605778110861297e-01,
             -2.0258220841926108e-01, -1.6726897983091218e-01,
             -1.2693913228630641e-01, -4.1509570508607982e+00,
             -1.7226892027016276e+00, -6.3539553697611073e-01,
             -3.8732751109457850e+00, -8.1506987947699738e-01,
             -3.0065762059684573e+00, -1.2518535453880300e+00,
             -7.9216638343790591e-01, -1.2156129190293061e+00,
             -1.1908053891142845e+00, -1.2307563453394212e+00,
             -2.9744597175760203e+00, -6.7462062422042879e-01,
             -1.4167396639997265e-01, -2.0990302037400604e-01,
             -6.6615485388848261e-01, -2.3672878819083895e-01,
             -9.8455688013498044e-01, -2.9445986064447427e-01,
             -1.9623184854432146e-01, -1.7340308648817162e+00 ]
         index: [ 138, 140, 141, 142, 143, 144, 145, 146, 147, 148, 150,
             151, 152, 154, 155, 157, 158, 160, 162, 164, 165, 166, 168,
             169, 170, 171, 172, 173, 174, 175, 176, 177, 178, 179, 181,
             182, 186, 188, 189, 190, 191, 192, 193, 196, 197, 198, 200,
             201, 203, 204, 205 ]
      -
         sv_count: 51
         rho: -2.3224344985172971e-01
         alpha: [ 7.2105045140722757e-01, 4.2533026263922069e-01,
             7.7181295646293435e-01, 1.1933910447676055e+00,
             3.2176573966957509e+00, 3.4590492261345438e+00,
             5.0568852086254390e-01, 6.7815342132688361e-01,
             1.2114351117974920e+00, 7.2972877264477332e-01,
             1.1732379522227503e+00, 2.9199176290586643e-01,
             7.8715042185784356e-01, 3.4419150810647219e-04,
             8.4052841805952594e-01, 3.9291283166944471e+00,
             7.6891557105858688e-01, 7.5826382348529264e-01,
             5.6698340404698552e-02, 2.9831799904075744e+00,
             2.4038150293862754e+00, 1.3858166845107169e+00,
             7.2023453132981630e-01, 5.9689483812917352e+00,
             5.8162532615125428e-01, 4.2687697981416156e-01,
             4.2461614093281739e+00, -9.3065966360166774e-01,
             -1.6723456221505089e+00, -1.2665315317464658e+00,
             -2.4887270560872246e+00, -1.9143388572001032e+00,
             -1.1672928262030799e+00, -1.5509695243926155e-01,
             -3.5525124757600488e+00, -5.1315205224771603e+00,
             -3.0144256165464851e+00, -1.4296612125072787e+00,
             -9.9843104593287157e-01, -4.4034080833170709e-02,
             -7.2855813062440766e-01, -3.2837342400586849e+00,
             -1.2691430237662908e+00, -1.4260121976974689e+00,
             -4.2111193795207589e+00, -5.7576611790832033e-01,
             -8.6988253927982628e-01, -1.0799349685088684e+00,
             -9.2053955624164097e-01, -9.7546858709108220e-01,
             -1.1304780909731171e+00 ]
         index: [ 138, 139, 140, 141, 142, 143, 145, 146, 147, 148, 149,
             150, 151, 153, 154, 158, 159, 160, 162, 163, 165, 166, 168,
             169, 170, 171, 172, 208, 210, 211, 212, 214, 216, 217, 218,
             219, 220, 221, 222, 223, 225, 226, 227, 228, 229, 232, 235,
             236, 237, 238, 239 ]
      -
         sv_count: 51
         rho: 8.5601806594565802e-02
         alpha: [ 1.1500701992543598e-01, 3.3314044230509482e-01,
             3.9922382672918633e+00, 6.7927183993080831e-01,
             2.3890293048693416e+00, 5.2178322606152117e-01,
             1.8209061079872617e+00, 1.6942188732844863e+00,
             4.4920292723970290e+00, 8.6278748506020975e-01,
             1.0885777728946429e+00, 1.5533686358861594e+00,
             1.3828377441187032e+00, 7.2154027417412114e-01,
             8.6593996818197169e-02, 1.1819451459898307e+00,
             6.5841160470190385e-01, 9.8479118644306507e-01,
             3.0621787672178291e+00, 1.8454748621804148e-01,
             8.2392942150314230e-01, 4.1353073458062788e+00,
             1.1604152091169403e-01, 1.7716691255363313e+00,
             2.2599275891559562e-01, 2.9643823025889238e-01,
             -6.9206882348990906e-01, -5.7196356925096137e-01,
             -1.5623470104069395e-01, -9.1614675028642267e-01,
             -5.7211439212884729e-01, -4.9738795937305857e-01,
             -6.5338016968022117e-01, -7.3244560139842974e-01,
             -4.8050403955336024e-01, -4.2434664663891075e-01,
             -1.7727216590886701e+00, -2.4754947852376259e+00,
             -5.8348347381591259e-01, -3.0879195356506393e+00,
             -1.2704242350005617e+00, -1.9812769055296242e+00, -7.,
             -5.5814827327558048e-01, -3.9494939933159601e-01,
             -1.6026358137817973e-01, -1.2155126144166270e-01, -7.,
             -1.5761240601263493e-01, -1.5636743531696973e+00,
             -1.3504703347342837e+00 ]
         index: [ 173, 175, 176, 177, 178, 179, 181, 182, 183, 185, 186,
             188, 189, 190, 191, 192, 193, 194, 195, 197, 198, 200, 203,
             204, 205, 206, 207, 208, 210, 211, 212, 213, 214, 216, 218,
             220, 221, 222, 223, 225, 226, 228, 229, 231, 232, 233, 234,
             235, 237, 238, 239 ]
