%YAML:1.0
my_svm: !!opencv-ml-svm
   svm_type: C_SVC
   kernel: { type:RBF, gamma:5.0625000000000009e-01 }
   C: 3.1250000000000000e+02
   term_criteria: { epsilon:1.1920928955078125e-07, iterations:1000 }
   var_all: 9
   var_count: 9
   class_count: 7
   class_labels: !!opencv-matrix
      rows: 1
      cols: 7
      dt: i
      data: [ 0, 1, 2, 3, 4, 5, 6 ]
   sv_total: 197
   support_vectors:
      - [ 1.24082997e-01, 6.46037996e-01, 4.28095996e-01, 4.83931988e-01,
          6.67954981e-01, 3.99453014e-01, 4.31970000e-01, 4.28095996e-01,
          5.47263980e-01 ]
      - [ 6.17149994e-02, 7.97735989e-01, 7.65824020e-01, 7.60783017e-01,
          1.97178006e-01, 2.91855007e-01, 2.31628001e-01, 7.65824020e-01,
          6.44937992e-01 ]
      - [ 7.12129995e-02, 7.34340012e-01, 1., 7.82342970e-01,
          1.68889999e-01, 1.27929002e-01, 2.11606994e-01, 1.,
          4.90487993e-01 ]
      - [ 8.42199996e-02, 7.47169971e-01, 3.04275006e-01, 5.18599987e-01,
          6.97338998e-01, 4.78828996e-01, 3.76055002e-01, 3.04275006e-01,
          5.97428024e-01 ]
      - [ 1.51066005e-01, 5.82641006e-01, 4.16018993e-01, 4.53456998e-01,
          7.11965978e-01, 4.33878988e-01, 4.65346992e-01, 4.16018993e-01,
          5.07100999e-01 ]
      - [ 4.65309992e-02, 8.35471988e-01, 6.52414978e-01, 7.67012000e-01,
          2.72569001e-01, 3.77158999e-01, 2.00951993e-01, 6.52414978e-01,
          6.63246989e-01 ]
      - [ 1.42444000e-01, 5.06415009e-01, 5.97862005e-01, 5.37518978e-01,
          3.38681996e-01, 4.83850002e-01, 4.62563992e-01, 5.97862005e-01,
          2.39534006e-01 ]
      - [ 1.53255999e-01, 6.07546985e-01, 6.99056029e-01, 7.51774013e-01,
          2.86036015e-01, 2.97035009e-01, 2.62255013e-01, 6.99056029e-01,
          5.90708971e-01 ]
      - [ 4.23740000e-01, 9.37358022e-01, 5.73848009e-01, 7.50748992e-01,
          3.30691010e-01, 4.10169989e-01, 1.88319996e-01, 5.73848009e-01,
          6.55920982e-01 ]
      - [ 1.09522998e-01, 6.70943022e-01, 3.82425994e-01, 4.64500993e-01,
          7.28011012e-01, 4.55085993e-01, 4.29886997e-01, 3.82425994e-01,
          5.15163004e-01 ]
      - [ 1., 5.69810987e-01, 2.20710993e-01, 3.45351011e-01,
          8.22218001e-01, 6.25442028e-01, 5.58475971e-01, 2.20710993e-01,
          3.95458996e-01 ]
      - [ 4.62599993e-02, 7.59999990e-01, 6.51582003e-01, 6.81846976e-01,
          2.38352001e-01, 3.84195000e-01, 2.86327988e-01, 6.51582003e-01,
          4.19548988e-01 ]
      - [ 1.49940001e-02, 8.98868024e-01, 8.25514019e-01, 7.80385971e-01,
          2.61743993e-01, 2.12567002e-01, 1.77426994e-01, 8.25514019e-01,
          6.74035013e-01 ]
      - [ 8.90590027e-02, 6.70943022e-01, 7.23487020e-01, 6.71424985e-01,
          1.94407001e-01, 3.62542003e-01, 3.28521997e-01, 7.23487020e-01,
          4.01834011e-01 ]
      - [ 1.48554996e-01, 6.46037996e-01, 7.35285997e-01, 7.59323001e-01,
          1.81069002e-01, 3.48989993e-01, 2.73081005e-01, 7.35285997e-01,
          6.82304978e-01 ]
      - [ 4.19328988e-01, 1., 8.11493993e-01, 8.36597979e-01,
          2.09870994e-01, 2.36451000e-01, 1.17524996e-01, 8.11493993e-01,
          8.86928976e-01 ]
      - [ 1.15268998e-01, 6.96604013e-01, 6.60605013e-01, 7.76781976e-01,
          2.41832003e-01, 3.15008014e-01, 2.31984004e-01, 6.60605013e-01,
          6.59265995e-01 ]
      - [ 2.64059994e-02, 8.73961985e-01, 6.48111999e-01, 7.82607019e-01,
          2.77144015e-01, 3.43576998e-01, 1.80489004e-01, 6.48111999e-01,
          6.74669027e-01 ]
      - [ 1.85442999e-01, 6.33207977e-01, 6.53248012e-01, 7.71237016e-01,
          2.76564002e-01, 4.11442995e-01, 2.54128993e-01, 6.53248012e-01,
          8.31763983e-01 ]
      - [ 7.88680017e-02, 7.09433973e-01, 6.69906020e-01, 6.83447003e-01,
          3.10265005e-01, 4.41870004e-01, 2.90237010e-01, 6.69906020e-01,
          4.54614013e-01 ]
      - [ 4.19140011e-01, 9.37358022e-01, 7.64436007e-01, 8.03855002e-01,
          2.04845995e-01, 2.42106006e-01, 1.46547005e-01, 7.64436007e-01,
          6.52146995e-01 ]
      - [ 1.84913993e-01, 5.06415009e-01, 3.60911012e-01, 4.40470994e-01,
          7.08743989e-01, 4.66805011e-01, 4.93030995e-01, 3.60911012e-01,
          4.87863004e-01 ]
      - [ 1.26981005e-01, 6.83773994e-01, 6.30761027e-01, 6.77528977e-01,
          3.35716993e-01, 4.22688007e-01, 3.05864990e-01, 6.30761027e-01,
          6.86716974e-01 ]
      - [ 2.15201005e-01, 5.06415009e-01, 3.87423992e-01, 4.93717015e-01,
          6.54745996e-01, 4.03373986e-01, 4.61631000e-01, 3.87423992e-01,
          6.32200003e-01 ]
      - [ 1.49556994e-01, 6.96604013e-01, 6.33675992e-01, 7.85417974e-01,
          3.28242004e-01, 3.17624986e-01, 2.06245005e-01, 6.33675992e-01,
          8.47172022e-01 ]
      - [ 1.59853995e-01, 6.58113003e-01, 5.73848009e-01, 7.11172998e-01,
          2.62064993e-01, 3.79819989e-01, 2.95231014e-01, 5.73848009e-01,
          7.66345978e-01 ]
      - [ 1.32211000e-01, 6.33207977e-01, 6.65463984e-01, 6.05908990e-01,
          3.48926991e-01, 3.08178008e-01, 3.72693986e-01, 6.65463984e-01,
          5.52868009e-01 ]
      - [ 2.18631998e-01, 3.92453015e-01, 5.53165019e-01, 3.29196990e-01,
          7.42509007e-01, 3.99751008e-01, 6.17527008e-01, 5.53165019e-01,
          3.55293006e-01 ]
      - [ 1.47137001e-01, 6.58113003e-01, 6.48528993e-01, 7.28926003e-01,
          3.50151002e-01, 2.53179014e-01, 2.51639992e-01, 6.48528993e-01,
          7.17091024e-01 ]
      - [ 1.50984004e-01, 6.20377004e-01, 3.89227986e-01, 6.37175977e-01,
          4.19485003e-01, 5.36953986e-01, 3.43136013e-01, 3.89227986e-01,
          6.31134987e-01 ]
      - [ 3.04163992e-01, 3.04150999e-01, 6.03691995e-01, 6.13986015e-01,
          2.88291991e-01, 4.24059004e-01, 4.48101997e-01, 6.03691995e-01,
          5.69501996e-01 ]
      - [ 5.28750010e-02, 7.97735989e-01, 2.70404994e-01, 4.87426996e-01,
          6.80455983e-01, 5.52525997e-01, 4.02456999e-01, 2.70404994e-01,
          5.82027972e-01 ]
      - [ 1.36723995e-01, 6.46037996e-01, 5.27900994e-01, 6.00627005e-01,
          4.52089995e-01, 4.26501006e-01, 3.60381007e-01, 5.27900994e-01,
          6.06356025e-01 ]
      - [ 1.71482995e-01, 4.93584991e-01, 4.80704993e-01, 3.23062003e-01,
          7.84844995e-01, 4.81243014e-01, 6.02320015e-01, 4.80704993e-01,
          3.71872991e-01 ]
      - [ 1.27147004e-01, 6.33207977e-01, 7.05579996e-01, 6.02289975e-01,
          3.46091002e-01, 2.87434995e-01, 3.66169006e-01, 7.05579996e-01,
          5.27805984e-01 ]
      - [ 1.72858000e-01, 5.82641006e-01, 5.50526977e-01, 6.39473975e-01,
          3.16064000e-01, 4.24888998e-01, 3.56332988e-01, 5.50526977e-01,
          6.42094016e-01 ]
      - [ 1.86661005e-01, 4.81509000e-01, 3.63963991e-01, 3.42011005e-01,
          7.84200013e-01, 5.40769994e-01, 5.91596007e-01, 3.63963991e-01,
          4.17674005e-01 ]
      - [ 2.53576994e-01, 3.54716986e-01, 3.92836988e-01, 3.63959014e-01,
          7.00753987e-01, 4.89356011e-01, 6.10146999e-01, 3.92836988e-01,
          4.48655993e-01 ]
      - [ 9.49250013e-02, 7.09433973e-01, 3.56191009e-01, 4.39772993e-01,
          7.21696019e-01, 5.16647995e-01, 4.55805987e-01, 3.56191009e-01,
          5.60208976e-01 ]
      - [ 2.20633000e-01, 4.43019003e-01, 3.72709990e-01, 4.20403004e-01,
          7.18151987e-01, 4.85576987e-01, 5.26982009e-01, 3.72709990e-01,
          5.12667000e-01 ]
      - [ 1.89732999e-01, 5.82641006e-01, 5.79539001e-01, 7.10799992e-01,
          3.35395008e-01, 3.35337996e-01, 2.93278009e-01, 5.79539001e-01,
          7.13946998e-01 ]
      - [ 4.15760018e-02, 8.23396027e-01, 5.52470982e-01, 6.55488014e-01,
          3.82950008e-01, 3.98173004e-01, 2.81567007e-01, 5.52470982e-01,
          5.86887002e-01 ]
      - [ 1.36320993e-01, 6.58113003e-01, 4.41560000e-01, 6.10072017e-01,
          3.92551005e-01, 5.32236993e-01, 3.67752999e-01, 4.41560000e-01,
          6.39995992e-01 ]
      - [ 7.95949996e-02, 8.10566008e-01, 5.45669019e-01, 7.50889003e-01,
          3.51891011e-01, 3.11899990e-01, 2.06665993e-01, 5.45669019e-01,
          7.97308981e-01 ]
      - [ 1.37099996e-01, 5.56981027e-01, 1.66435003e-01, 3.49869996e-01,
          8.05721998e-01, 6.67436004e-01, 5.50903022e-01, 1.66435003e-01,
          3.56025994e-01 ]
      - [ 2.18366995e-01, 4.30189013e-01, 3.28705996e-01, 3.65170002e-01,
          7.18667984e-01, 5.84253013e-01, 5.92754006e-01, 3.28705996e-01,
          4.68484014e-01 ]
      - [ 1.69698000e-01, 5.82641006e-01, 1.40061006e-01, 4.33279991e-01,
          6.98240995e-01, 7.14451015e-01, 4.99440998e-01, 1.40061006e-01,
          5.94877005e-01 ]
      - [ 1.34832993e-01, 6.96604013e-01, 5.07218003e-01, 7.27482021e-01,
          3.34814996e-01, 3.87695998e-01, 2.45778993e-01, 5.07218003e-01,
          7.48673022e-01 ]
      - [ 6.94440007e-02, 6.96604013e-01, 4.06857014e-01, 3.31510991e-01,
          8.51536989e-01, 5.16797006e-01, 5.38783014e-01, 4.06857014e-01,
          3.70678991e-01 ]
      - [ 3.48407000e-01, 1.77358001e-01, 2.89839000e-01, 3.85486007e-01,
          6.74785972e-01, 5.69693983e-01, 6.31775975e-01, 2.89839000e-01,
          4.46000993e-01 ]
      - [ 1.48068994e-01, 6.33207977e-01, 6.80038989e-01, 7.11888015e-01,
          2.35581994e-01, 2.87818015e-01, 2.94730991e-01, 6.80038989e-01,
          6.41041994e-01 ]
      - [ 1.24802999e-01, 6.33207977e-01, 5.87728977e-01, 5.80372989e-01,
          3.00406009e-01, 4.46853995e-01, 4.05755997e-01, 5.87728977e-01,
          5.09371996e-01 ]
      - [ 1.32780999e-01, 6.20377004e-01, 6.24930978e-01, 5.55956006e-01,
          4.69294995e-01, 2.96824992e-01, 4.10901010e-01, 6.24930978e-01,
          5.05966008e-01 ]
      - [ 1.66895002e-01, 5.82641006e-01, 1.95031002e-01, 4.87845987e-01,
          6.93665981e-01, 6.04732990e-01, 4.34904993e-01, 1.95031002e-01,
          5.85815012e-01 ]
      - [ 2.04051003e-01, 4.68679011e-01, 3.27872992e-01, 3.77036989e-01,
          7.50177026e-01, 5.73059022e-01, 5.61010003e-01, 3.27872992e-01,
          4.65685993e-01 ]
      - [ 1.63361996e-01, 5.82641006e-01, 5.19294977e-01, 5.76273024e-01,
          3.64455998e-01, 5.04235029e-01, 4.14617985e-01, 5.19294977e-01,
          5.62096000e-01 ]
      - [ 1.85698003e-01, 4.55848992e-01, 2.99001008e-01, 2.60217011e-01,
          8.94517004e-01, 5.86834013e-01, 6.48910999e-01, 2.99001008e-01,
          3.48004997e-01 ]
      - [ 2.12339997e-01, 5.44151008e-01, 6.25486016e-01, 7.49692976e-01,
          2.62710005e-01, 2.98988998e-01, 2.86794007e-01, 6.25486016e-01,
          7.33096004e-01 ]
      - [ 2.54099995e-01, 4.68679011e-01, 4.93059009e-01, 6.77141011e-01,
          2.37193003e-01, 3.06634992e-01, 3.57286006e-01, 4.93059009e-01,
          7.40294993e-01 ]
      - [ 1.00432001e-01, 7.34340012e-01, 5.94807982e-01, 7.31954992e-01,
          3.04143012e-01, 3.60673010e-01, 2.42091000e-01, 5.94807982e-01,
          6.89764977e-01 ]
      - [ 2.49252006e-01, 5.06415009e-01, 7.76234984e-01, 8.35448027e-01,
          9.19520035e-02, 6.80330023e-02, 2.11954996e-01, 7.76234984e-01,
          8.27401996e-01 ]
      - [ 1.43158004e-01, 6.96604013e-01, 5.28734028e-01, 7.27777004e-01,
          3.29273999e-01, 3.49305004e-01, 2.63568997e-01, 5.28734028e-01,
          8.06711972e-01 ]
      - [ 8.15529972e-02, 7.72074997e-01, 7.31399000e-01, 7.72045016e-01,
          1.63799003e-01, 2.56476015e-01, 2.18562007e-01, 7.31399000e-01,
          6.81859016e-01 ]
      - [ 2.59837002e-01, 4.81509000e-01, 5.55801988e-01, 7.27155983e-01,
          3.15097004e-01, 4.25978988e-01, 3.20596993e-01, 5.55801988e-01,
          8.06726992e-01 ]
      - [ 2.08767995e-01, 5.06415009e-01, 6.65463984e-01, 6.98840022e-01,
          2.25079000e-01, 3.19444001e-01, 3.34702998e-01, 6.65463984e-01,
          5.97271979e-01 ]
      - [ 2.89570987e-01, 3.79622996e-01, 4.65297014e-01, 6.24858975e-01,
          2.34421998e-01, 4.09678996e-01, 4.35781002e-01, 4.65297014e-01,
          6.80450022e-01 ]
      - [ 3.52191001e-01, 1.77358001e-01, 4.34202999e-01, 5.19315004e-01,
          3.90489012e-01, 4.87964004e-01, 5.57403982e-01, 4.34202999e-01,
          4.61317003e-01 ]
      - [ 2.61485010e-01, 4.30189013e-01, 6.02998018e-01, 7.70211995e-01,
          1.35059997e-01, 2.90443003e-01, 3.01075995e-01, 6.02998018e-01,
          6.74649000e-01 ]
      - [ 5.51530011e-02, 8.61132026e-01, 7.91365981e-01, 9.27370012e-01,
          0., 1.09708004e-01, 7.89609998e-02, 7.91365981e-01,
          8.07223976e-01 ]
      - [ 2.18758002e-01, 4.93584991e-01, 5.12354016e-01, 5.92800021e-01,
          3.35202008e-01, 3.49958986e-01, 4.26955998e-01, 5.12354016e-01,
          6.24499977e-01 ]
      - [ 1.57160997e-01, 6.96604013e-01, 5.39560974e-01, 8.32994998e-01,
          1.27972007e-01, 2.62212992e-01, 1.90394998e-01, 5.39560974e-01,
          8.99882972e-01 ]
      - [ 2.50393987e-01, 4.93584991e-01, 3.81871015e-01, 7.46057987e-01,
          2.62001008e-01, 3.56335014e-01, 2.85026014e-01, 3.81871015e-01,
          7.94048011e-01 ]
      - [ 2.08472997e-01, 5.44151008e-01, 8.58133972e-01, 8.76190007e-01,
          3.17029990e-02, 1.41546994e-01, 1.73011005e-01, 8.58133972e-01,
          7.23246992e-01 ]
      - [ 2.16212004e-01, 5.06415009e-01, 3.55774999e-01, 7.14854002e-01,
          2.69475996e-01, 5.54609001e-01, 3.13475013e-01, 3.55774999e-01,
          6.58975005e-01 ]
      - [ 1.57993004e-01, 6.07546985e-01, 6.23681009e-01, 6.88992023e-01,
          2.57104009e-01, 4.09781009e-01, 3.13418001e-01, 6.23681009e-01,
          6.08125985e-01 ]
      - [ 1.69798002e-01, 6.20377004e-01, 7.58189976e-01, 8.49210024e-01,
          6.66920021e-02, 1.78133994e-01, 1.93509996e-01, 7.58189976e-01,
          7.04194009e-01 ]
      - [ 7.71690011e-02, 8.10566008e-01, 6.50888026e-01, 7.88167000e-01,
          2.92221993e-01, 2.12230995e-01, 1.79052994e-01, 6.50888026e-01,
          7.91683972e-01 ]
      - [ 1.08273998e-01, 7.47169971e-01, 4.90976989e-01, 7.14061022e-01,
          2.56974995e-01, 2.74385005e-01, 2.62630999e-01, 4.90976989e-01,
          7.55728006e-01 ]
      - [ 1.91962004e-01, 6.46037996e-01, 4.24208999e-01, 7.97564983e-01,
          1.86544999e-01, 3.84012997e-01, 2.25082994e-01, 4.24208999e-01,
          9.39544976e-01 ]
      - [ 2.14195997e-01, 5.32074988e-01, 4.82371002e-01, 6.41197979e-01,
          3.01629990e-01, 3.74267995e-01, 3.62154007e-01, 4.82371002e-01,
          6.99644983e-01 ]
      - [ 1.61815003e-01, 5.82641006e-01, 5.50249994e-01, 5.92068970e-01,
          3.67098004e-01, 4.63142008e-01, 3.96479994e-01, 5.50249994e-01,
          5.71550012e-01 ]
      - [ 1.06473997e-01, 6.70943022e-01, 6.83925986e-01, 6.49244010e-01,
          2.55492985e-01, 2.96967000e-01, 3.33961993e-01, 6.83925986e-01,
          5.23736000e-01 ]
      - [ 1.67566001e-01, 6.20377004e-01, 7.92892992e-01, 8.23348999e-01,
          1.61027998e-01, 1.69102997e-01, 1.88761994e-01, 7.92892992e-01,
          7.02549994e-01 ]
      - [ 1.25358999e-01, 6.83773994e-01, 8.42310011e-01, 7.75663972e-01,
          1.62897006e-01, 1.80101007e-01, 2.32086003e-01, 8.42310011e-01,
          6.62586987e-01 ]
      - [ 1.62313998e-01, 6.96604013e-01, 6.39227986e-01, 8.09121013e-01,
          2.85714000e-01, 2.39628002e-01, 2.07899004e-01, 6.39227986e-01,
          9.05481994e-01 ]
      - [ 1.84976995e-01, 6.07546985e-01, 3.80899012e-01, 7.45576978e-01,
          1.13472998e-01, 4.22338992e-01, 2.83360004e-01, 3.80899012e-01,
          7.85283029e-01 ]
      - [ 2.03027993e-01, 5.19245028e-01, 2.41809994e-01, 5.45161009e-01,
          5.48424006e-01, 6.87231004e-01, 4.47730005e-01, 2.41809994e-01,
          6.19605005e-01 ]
      - [ 2.41986006e-01, 3.29057008e-01, 4.20322001e-01, 4.34181005e-01,
          5.00612020e-01, 5.95484972e-01, 5.78930974e-01, 4.20322001e-01,
          3.30265999e-01 ]
      - [ 2.23507002e-01, 3.92453015e-01, 5.40950000e-01, 4.32177007e-01,
          4.72517014e-01, 4.66131002e-01, 5.75753987e-01, 5.40950000e-01,
          3.93123001e-01 ]
      - [ 1.60749003e-01, 5.69810987e-01, 6.83925986e-01, 5.51405013e-01,
          4.31405991e-01, 3.31555992e-01, 4.26910996e-01, 6.83925986e-01,
          5.18846989e-01 ]
      - [ 1.33543998e-01, 6.33207977e-01, 5.09299994e-01, 5.92395008e-01,
          4.59630013e-01, 4.58728999e-01, 3.80012989e-01, 5.09299994e-01,
          5.61536014e-01 ]
      - [ 1.37244001e-01, 6.58113003e-01, 5.56774020e-01, 6.37625992e-01,
          3.59043002e-01, 3.88577014e-01, 3.58985007e-01, 5.56774020e-01,
          6.44722998e-01 ]
      - [ 3.04877013e-01, 2.78490990e-01, 3.50777000e-01, 5.24735987e-01,
          4.09047008e-01, 5.26820004e-01, 5.10248005e-01, 3.50777000e-01,
          4.88647014e-01 ]
      - [ 1.70224994e-01, 5.69810987e-01, 3.04275006e-01, 5.29567003e-01,
          5.89793026e-01, 4.53280985e-01, 4.20933992e-01, 3.04275006e-01,
          5.72287023e-01 ]
      - [ 3.24346006e-01, 1.51697993e-01, 1.63242996e-01, 2.32662007e-01,
          8.17255974e-01, 7.16398001e-01, 7.43754983e-01, 1.63242996e-01,
          3.02769989e-01 ]
      - [ 2.17106000e-01, 4.81509000e-01, 4.45724994e-01, 5.48515975e-01,
          5.10728002e-01, 4.47506994e-01, 4.42153990e-01, 4.45724994e-01,
          5.68329990e-01 ]
      - [ 1.27789006e-01, 7.59999990e-01, 6.16741002e-01, 8.56060028e-01,
          1.76235005e-01, 1.42150000e-01, 1.26452997e-01, 6.16741002e-01,
          8.99972975e-01 ]
      - [ 1.68818995e-01, 4.81509000e-01, 5.58717012e-01, 3.93222004e-01,
          4.50673014e-01, 5.41104972e-01, 5.96527994e-01, 5.58717012e-01,
          3.22486013e-01 ]
      - [ 2.52561003e-01, 4.43019003e-01, 4.22264993e-01, 5.30933022e-01,
          5.55319011e-01, 3.47110987e-01, 4.53559011e-01, 4.22264993e-01,
          6.46341026e-01 ]
      - [ 3.13569993e-01, 3.04150999e-01, 2.96085000e-01, 5.42442977e-01,
          3.16193014e-01, 5.58506012e-01, 5.16973019e-01, 2.96085000e-01,
          6.07719004e-01 ]
      - [ 2.71387994e-01, 4.30189013e-01, 4.16990995e-01, 6.85357988e-01,
          1.94149002e-01, 3.92722011e-01, 3.67642999e-01, 4.16990995e-01,
          7.30189979e-01 ]
      - [ 2.55304992e-01, 4.55848992e-01, 4.17822987e-01, 6.61701024e-01,
          3.05947989e-01, 3.51567000e-01, 3.61867011e-01, 4.17822987e-01,
          6.95990026e-01 ]
      - [ 2.20511004e-01, 3.29057008e-01, 2.07939997e-01, 2.69226015e-01,
          8.22862029e-01, 6.64026022e-01, 6.67303026e-01, 2.07939997e-01,
          2.22273007e-01 ]
      - [ 3.05548996e-01, 2.91321009e-01, 2.97057003e-01, 4.35548007e-01,
          5.18975973e-01, 5.04072011e-01, 5.81836998e-01, 2.97057003e-01,
          5.17774999e-01 ]
      - [ 1.99536994e-01, 4.81509000e-01, 4.15185988e-01, 5.38978994e-01,
          4.68136013e-01, 6.14087999e-01, 4.55915987e-01, 4.15185988e-01,
          4.96414989e-01 ]
      - [ 2.65958011e-01, 5.06415009e-01, 6.01888001e-01, 8.30415010e-01,
          8.73759985e-02, 2.73925006e-01, 2.38860995e-01, 6.01888001e-01,
          9.11814988e-01 ]
      - [ 1.45116001e-01, 6.33207977e-01, 5.42199016e-01, 6.03533030e-01,
          3.74958992e-01, 4.25278008e-01, 3.89104009e-01, 5.42199016e-01,
          6.04304016e-01 ]
      - [ 3.50719988e-01, 2.78490990e-01, 4.38089997e-01, 6.77109003e-01,
          2.12062001e-01, 3.70054990e-01, 3.95051986e-01, 4.38089997e-01,
          7.17248023e-01 ]
      - [ 2.36787006e-01, 3.54716986e-01, 3.81594002e-01, 3.43719006e-01,
          7.99021006e-01, 4.38158989e-01, 5.93626022e-01, 3.81594002e-01,
          3.43219995e-01 ]
      - [ 4.08939987e-01, 0., 1.42837003e-01, 3.08631003e-01,
          7.20664978e-01, 7.36761987e-01, 7.18679011e-01, 1.42837003e-01,
          3.41740996e-01 ]
      - [ 1.84368998e-01, 4.81509000e-01, 3.35646987e-01, 5.13490021e-01,
          5.63439012e-01, 5.54781020e-01, 4.68127012e-01, 3.35646987e-01,
          4.11680996e-01 ]
      - [ 3.37559998e-01, 2.91321009e-01, 3.56606990e-01, 6.54851973e-01,
          2.53816992e-01, 4.24439013e-01, 4.07070011e-01, 3.56606990e-01,
          6.97067022e-01 ]
      - [ 1.67597994e-01, 5.95471978e-01, 3.02332014e-01, 5.80218017e-01,
          3.73542011e-01, 5.01694977e-01, 4.02604014e-01, 3.02332014e-01,
          6.38835013e-01 ]
      - [ 1.54498994e-01, 6.58113003e-01, 4.01582003e-01, 6.43700004e-01,
          3.24892014e-01, 3.54573995e-01, 3.34089011e-01, 4.01582003e-01,
          7.36083984e-01 ]
      - [ 2.10705996e-01, 4.05283004e-01, 2.02110007e-01, 2.50353009e-01,
          8.28338981e-01, 6.83755994e-01, 6.84454024e-01, 2.02110007e-01,
          3.33243996e-01 ]
      - [ 2.39748001e-01, 5.44151008e-01, 4.65436012e-01, 7.79018998e-01,
          2.05102995e-01, 3.30215007e-01, 2.57681996e-01, 4.65436012e-01,
          8.88768017e-01 ]
      - [ 4.13228005e-01, 1.51697993e-01, 4.04774994e-01, 6.53779984e-01,
          1.94858000e-01, 4.20870006e-01, 4.63656992e-01, 4.04774994e-01,
          6.96348011e-01 ]
      - [ 2.01557994e-01, 5.06415009e-01, 4.07689989e-01, 4.62590009e-01,
          5.27418017e-01, 4.15641993e-01, 5.01406014e-01, 4.07689989e-01,
          5.57147026e-01 ]
      - [ 2.10712999e-01, 4.30189013e-01, 4.18240011e-01, 5.25076985e-01,
          4.73870009e-01, 5.47138989e-01, 4.83619988e-01, 4.18240011e-01,
          4.11143005e-01 ]
      - [ 2.96970010e-01, 1.90189004e-01, 4.60855007e-01, 2.72253990e-01,
          5.70976973e-01, 5.74890971e-01, 7.43574977e-01, 4.60855007e-01,
          2.43294001e-01 ]
      - [ 2.54283994e-01, 3.41886997e-01, 3.37173998e-01, 4.32301998e-01,
          6.49784029e-01, 4.96850014e-01, 5.35004973e-01, 3.37173998e-01,
          3.97053003e-01 ]
      - [ 1.76230997e-01, 5.69810987e-01, 3.57024014e-01, 5.18025994e-01,
          4.51445997e-01, 6.27624989e-01, 4.85404998e-01, 3.57024014e-01,
          6.18692994e-01 ]
      - [ 1.60306007e-01, 5.69810987e-01, 2.65962988e-01, 4.52012002e-01,
          6.19240999e-01, 7.21616030e-01, 5.04921973e-01, 2.65962988e-01,
          5.37301004e-01 ]
      - [ 1.57739997e-01, 5.19245028e-01, 1.56163007e-01, 2.96687007e-01,
          8.46575022e-01, 7.99875021e-01, 6.05934978e-01, 1.56163007e-01,
          3.57661009e-01 ]
      - [ 2.09269002e-01, 4.43019003e-01, 4.16157991e-01, 4.40284997e-01,
          5.14531016e-01, 5.53575993e-01, 5.67649007e-01, 4.16157991e-01,
          4.51557010e-01 ]
      - [ 2.53829002e-01, 3.92453015e-01, 2.91505009e-01, 6.41834974e-01,
          2.99953997e-01, 5.05510986e-01, 3.80208999e-01, 2.91505009e-01,
          5.26282012e-01 ]
      - [ 1.70457006e-01, 5.44151008e-01, 3.06080014e-01, 4.59141999e-01,
          6.58032000e-01, 5.45690000e-01, 5.03408015e-01, 3.06080014e-01,
          5.19945025e-01 ]
      - [ 1.66408002e-01, 6.46037996e-01, 5.00000000e-01, 6.44445002e-01,
          5.54288030e-01, 3.26844990e-01, 3.21621001e-01, 5.00000000e-01,
          7.73495972e-01 ]
      - [ 2.28515998e-01, 3.54716986e-01, 2.09745005e-01, 2.25796998e-01,
          8.62426996e-01, 7.16620982e-01, 7.01866984e-01, 2.09745005e-01,
          2.96247989e-01 ]
      - [ 2.71221012e-01, 2.53585011e-01, 0., 2.65900999e-01,
          9.23578024e-01, 8.75474989e-01, 6.88624978e-01, 0.,
          2.86830992e-01 ]
      - [ 2.61886001e-01, 3.29057008e-01, 1.61715999e-01, 5.30870974e-01,
          4.93072987e-01, 7.25286007e-01, 4.89219993e-01, 1.61715999e-01,
          4.24483001e-01 ]
      - [ 1.38282001e-01, 5.44151008e-01, 4.38506007e-01, 4.83047009e-01,
          4.45841014e-01, 6.00485981e-01, 5.01303971e-01, 4.38506007e-01,
          3.32960993e-01 ]
      - [ 2.87182987e-01, 8.83020014e-02, 2.92892992e-01, 0.,
          6.89800024e-01, 7.78742015e-01, 1., 2.92892992e-01, 0. ]
      - [ 2.09405005e-01, 3.92453015e-01, 5.62188029e-01, 4.60197985e-01,
          3.00792992e-01, 4.59930986e-01, 5.71144998e-01, 5.62188029e-01,
          3.24216992e-01 ]
      - [ 2.67199993e-01, 2.15094000e-01, 1.97252005e-01, 5.07140011e-02,
          1., 7.13334024e-01, 8.80625010e-01, 1.97252005e-01,
          1.68412998e-01 ]
      - [ 2.38918006e-01, 3.54716986e-01, 1.97945997e-01, 3.35099012e-01,
          7.59585023e-01, 6.78412974e-01, 6.16913021e-01, 1.97945997e-01,
          3.77710998e-01 ]
      - [ 2.06965998e-01, 3.92453015e-01, 2.72071004e-01, 2.58740991e-01,
          8.29241991e-01, 6.44897997e-01, 6.69283986e-01, 2.72071004e-01,
          3.02100003e-01 ]
      - [ 2.22111002e-01, 4.18112993e-01, 3.95891011e-01, 4.20031011e-01,
          5.20651996e-01, 5.27092993e-01, 5.79217017e-01, 3.95891011e-01,
          4.39658999e-01 ]
      - [ 2.38583997e-01, 3.79622996e-01, 2.83731014e-01, 3.90643001e-01,
          6.20271981e-01, 5.37945986e-01, 5.83527029e-01, 2.83731014e-01,
          4.17562008e-01 ]
      - [ 1.85954005e-01, 5.95471978e-01, 5.93698025e-01, 8.01136971e-01,
          1.47238001e-01, 3.04771990e-01, 2.31268004e-01, 5.93698025e-01,
          7.30877995e-01 ]
      - [ 1.61018997e-01, 6.20377004e-01, 6.93364978e-01, 7.33135998e-01,
          2.21147999e-01, 2.39086002e-01, 2.70498991e-01, 6.93364978e-01,
          6.80437028e-01 ]
      - [ 2.34934002e-01, 3.67547005e-01, 4.48500991e-01, 2.86186993e-01,
          8.61910999e-01, 4.50762004e-01, 6.40736997e-01, 4.48500991e-01,
          3.73104990e-01 ]
      - [ 2.02745005e-01, 5.19245028e-01, 3.51193994e-01, 5.53143978e-01,
          5.14724016e-01, 5.43461978e-01, 4.43313003e-01, 3.51193994e-01,
          5.99826992e-01 ]
      - [ 3.15320998e-01, 1.77358001e-01, 2.64158994e-01, 2.51673013e-01,
          6.75430000e-01, 6.92066014e-01, 7.71938026e-01, 2.64158994e-01,
          3.15414995e-01 ]
      - [ 2.50272989e-01, 4.30189013e-01, 5.27485013e-01, 6.67293012e-01,
          2.83201009e-01, 4.86752003e-01, 3.73537004e-01, 5.27485013e-01,
          6.11644030e-01 ]
      - [ 2.83953011e-01, 3.41886997e-01, 2.00305000e-01, 4.71242011e-01,
          5.67691028e-01, 7.04542994e-01, 5.51808000e-01, 2.00305000e-01,
          5.62260985e-01 ]
      - [ 3.62839013e-01, 2.53585011e-01, 3.98945004e-01, 6.77824020e-01,
          3.70963991e-01, 4.88766998e-01, 4.06500995e-01, 3.98945004e-01,
          7.14462996e-01 ]
      - [ 3.02518994e-01, 3.41886997e-01, 6.02859974e-01, 7.24965990e-01,
          2.38674998e-01, 3.61021996e-01, 3.60020995e-01, 6.02859974e-01,
          6.52284980e-01 ]
      - [ 1.98353007e-01, 5.32074988e-01, 4.23097998e-01, 5.94072998e-01,
          4.63432014e-01, 5.34824014e-01, 4.04217005e-01, 4.23097998e-01,
          6.22128010e-01 ]
      - [ 2.14329995e-02, 9.24528003e-01, 5.66767991e-01, 7.89379001e-01,
          3.53630990e-01, 3.85235012e-01, 1.45536005e-01, 5.66767991e-01,
          8.09746981e-01 ]
      - [ 4.05800007e-02, 8.86038005e-01, 5.96612990e-01, 8.20381999e-01,
          3.44417006e-01, 2.81810999e-01, 1.26166001e-01, 5.96612990e-01,
          8.13444018e-01 ]
      - [ 1.18436001e-01, 6.58113003e-01, 6.24374986e-01, 7.37546980e-01,
          2.52979994e-01, 3.53166014e-01, 2.65446991e-01, 6.24374986e-01,
          5.39992988e-01 ]
      - [ 1.42325997e-01, 6.46037996e-01, 5.06246984e-01, 7.12352991e-01,
          3.44417006e-01, 4.38342005e-01, 2.78656989e-01, 5.06246984e-01,
          6.45671010e-01 ]
      - [ 8.71730000e-02, 6.96604013e-01, 4.25179988e-01, 6.28260016e-01,
          3.54404002e-01, 5.45158029e-01, 3.46758008e-01, 4.25179988e-01,
          4.75100994e-01 ]
      - [ 1.37054995e-01, 6.20377004e-01, 3.97417992e-01, 6.59388006e-01,
          3.59622985e-01, 5.48047006e-01, 3.35215002e-01, 3.97417992e-01,
          5.38092971e-01 ]
      - [ 3.28361988e-01, 7.62260035e-02, 3.63270015e-01, 3.06580991e-01,
          4.60660994e-01, 1., 7.47394025e-01, 3.63270015e-01,
          1.53696999e-01 ]
      - [ 9.95210037e-02, 7.09433973e-01, 6.34091973e-01, 7.17447996e-01,
          3.28693986e-01, 3.27306002e-01, 2.56805986e-01, 6.34091973e-01,
          5.96839011e-01 ]
      - [ 1.92903996e-01, 5.19245028e-01, 4.75014001e-01, 6.62353992e-01,
          3.76571000e-01, 4.82804000e-01, 3.51011008e-01, 4.75014001e-01,
          5.43690026e-01 ]
      - [ 1.33920997e-01, 7.34340012e-01, 5.92449009e-01, 7.48420000e-01,
          5.62536001e-01, 2.21261993e-01, 1.97272003e-01, 5.92449009e-01,
          8.73649001e-01 ]
      - [ 2.16812998e-01, 4.05283004e-01, 6.01610005e-01, 6.07834995e-01,
          2.96216995e-01, 4.93753999e-01, 4.35023993e-01, 6.01610005e-01,
          3.85334015e-01 ]
      - [ 2.44927004e-01, 4.68679011e-01, 5.62743008e-01, 7.39642978e-01,
          2.79592991e-01, 3.59349012e-01, 3.16614985e-01, 5.62743008e-01,
          6.97668016e-01 ]
      - [ 1.09137997e-01, 6.83773994e-01, 7.58189976e-01, 7.17509985e-01,
          2.59875000e-01, 3.19054008e-01, 2.77065009e-01, 7.58189976e-01,
          5.80308974e-01 ]
      - [ 2.39061996e-01, 4.18112993e-01, 6.23820007e-01, 6.45797014e-01,
          2.29589999e-01, 4.46173996e-01, 4.17544991e-01, 6.23820007e-01,
          5.12488008e-01 ]
      - [ 2.19310001e-01, 4.43019003e-01, 6.04942024e-01, 6.41570985e-01,
          3.32625002e-01, 3.64596993e-01, 3.86574000e-01, 6.04942024e-01,
          4.81844991e-01 ]
      - [ 1.68633997e-01, 5.56981027e-01, 6.15352988e-01, 7.43636012e-01,
          2.80624002e-01, 3.13589990e-01, 2.66945988e-01, 6.15352988e-01,
          5.31657994e-01 ]
      - [ 1.58000007e-01, 6.33207977e-01, 5.48444986e-01, 7.03189015e-01,
          3.30498010e-01, 4.76038992e-01, 3.11031014e-01, 5.48444986e-01,
          6.85339987e-01 ]
      - [ 2.74643987e-01, 4.05283004e-01, 5.63021004e-01, 7.26130009e-01,
          2.14640006e-01, 4.49434012e-01, 3.58833998e-01, 5.63021004e-01,
          6.80319011e-01 ]
      - [ 2.12998003e-01, 5.56981027e-01, 6.07024014e-01, 7.49553025e-01,
          3.13100010e-01, 3.63323987e-01, 2.82577991e-01, 6.07024014e-01,
          7.75030017e-01 ]
      - [ 3.04220002e-02, 7.97735989e-01, 5.93976021e-01, 6.38060987e-01,
          3.36618990e-01, 4.70542997e-01, 3.17838013e-01, 5.93976021e-01,
          4.27008003e-01 ]
      - [ 1.26273006e-01, 5.56981027e-01, 4.63770002e-01, 5.49152970e-01,
          3.53437990e-01, 5.80115974e-01, 4.48805988e-01, 4.63770002e-01,
          3.14153999e-01 ]
      - [ 9.58100036e-02, 6.70943022e-01, 6.70737982e-01, 6.73258007e-01,
          3.45640987e-01, 2.68570989e-01, 3.08075994e-01, 6.70737982e-01,
          4.57300007e-01 ]
      - [ 1.51728004e-01, 6.96604013e-01, 5.20404994e-01, 7.67539978e-01,
          4.20451999e-01, 3.67792994e-01, 2.11107999e-01, 5.20404994e-01,
          8.35593998e-01 ]
      - [ 1.73584998e-01, 5.56981027e-01, 6.36452019e-01, 6.83058977e-01,
          2.90675998e-01, 4.26447004e-01, 3.33876997e-01, 6.36452019e-01,
          5.67551970e-01 ]
      - [ 1.70900002e-01, 5.06415009e-01, 4.77234989e-01, 6.28974974e-01,
          3.35072994e-01, 5.01285017e-01, 3.82510006e-01, 4.77234989e-01,
          4.05647993e-01 ]
      - [ 9.72009972e-02, 7.59999990e-01, 6.59355998e-01, 7.67292023e-01,
          3.13035011e-01, 3.18302989e-01, 2.18303993e-01, 6.59355998e-01,
          7.38762975e-01 ]
      - [ 3.33656013e-01, 3.77359986e-02, 2.34590005e-02, 1.72551006e-01,
          6.70145988e-01, 9.05550003e-01, 8.58639002e-01, 2.34590005e-02,
          7.95850009e-02 ]
      - [ 2.83886999e-01, 3.79622996e-01, 2.31399000e-01, 5.24518013e-01,
          7.41028011e-01, 5.60706973e-01, 4.65184003e-01, 2.31399000e-01,
          6.37395978e-01 ]
      - [ 4.51849997e-02, 7.72074997e-01, 4.94309008e-01, 7.15552986e-01,
          2.75339991e-01, 4.36486006e-01, 2.46867999e-01, 4.94309008e-01,
          4.73190993e-01 ]
      - [ 2.35207006e-01, 3.41886997e-01, 3.26624006e-01, 4.50583011e-01,
          5.14787972e-01, 6.46645010e-01, 5.63748002e-01, 3.26624006e-01,
          3.20524007e-01 ]
      - [ 2.58740008e-01, 3.79622996e-01, 2.79706001e-01, 4.91775990e-01,
          5.79612017e-01, 5.53034008e-01, 5.27267992e-01, 2.79706001e-01,
          5.12404025e-01 ]
      - [ 1.73207000e-01, 5.95471978e-01, 3.47862005e-01, 6.92223012e-01,
          3.69740009e-01, 4.78899986e-01, 3.17514986e-01, 3.47862005e-01,
          6.73740029e-01 ]
      - [ 3.33808005e-01, 2.27925003e-01, 1.71155006e-01, 5.11533022e-01,
          6.04614019e-01, 7.04858005e-01, 5.35912991e-01, 1.71155006e-01,
          5.19994020e-01 ]
      - [ 1.95057005e-01, 5.56981027e-01, 4.28651005e-01, 6.99087977e-01,
          4.17423993e-01, 4.04951006e-01, 2.98698008e-01, 4.28651005e-01,
          6.64394975e-01 ]
      - [ 3.23011994e-01, 2.40755007e-01, 3.35092008e-01, 5.61547995e-01,
          3.91584009e-01, 5.76923013e-01, 4.98827010e-01, 3.35092008e-01,
          4.81445014e-01 ]
      - [ 1.28985003e-01, 6.33207977e-01, 6.36035979e-01, 6.94226980e-01,
          5.72200008e-02, 3.60639006e-01, 3.39845002e-01, 6.36035979e-01,
          5.24533987e-01 ]
      - [ 2.75934011e-01, 3.54716986e-01, 4.70155001e-01, 6.81365013e-01,
          2.20375001e-01, 4.56348985e-01, 3.93038005e-01, 4.70155001e-01,
          5.52420974e-01 ]
      - [ 1.82060003e-01, 5.19245028e-01, 6.32287979e-01, 6.94194973e-01,
          9.74280015e-02, 3.58108997e-01, 3.51534992e-01, 6.32287979e-01,
          5.06278992e-01 ]
      - [ 2.43415996e-01, 4.43019003e-01, 4.51555014e-01, 6.44273996e-01,
          3.69740009e-01, 5.22827983e-01, 3.81940991e-01, 4.51555014e-01,
          6.11738980e-01 ]
      - [ 2.56024003e-01, 3.54716986e-01, 5.71349025e-01, 5.55211008e-01,
          4.61950004e-01, 3.67796004e-01, 4.85408992e-01, 5.71349025e-01,
          4.32772011e-01 ]
      - [ 9.17569995e-02, 7.21508980e-01, 3.43697995e-01, 6.22807980e-01,
          5.87988973e-01, 4.96762007e-01, 3.18194985e-01, 3.43697995e-01,
          5.80860019e-01 ]
      - [ 3.41935009e-01, 2.40755007e-01, 2.94281006e-01, 5.22095025e-01,
          6.82904005e-01, 5.66572011e-01, 5.03453016e-01, 2.94281006e-01,
          5.84366977e-01 ]
      - [ 1.53019994e-01, 5.06415009e-01, 2.21959993e-01, 3.88359994e-01,
          6.29422009e-01, 6.32034004e-01, 5.71276009e-01, 2.21959993e-01,
          3.13439012e-01 ]
      - [ 2.55814999e-01, 3.92453015e-01, 2.89144993e-01, 5.40548027e-01,
          5.68400025e-01, 5.96925020e-01, 4.73280013e-01, 2.89144993e-01,
          5.32375991e-01 ]
      - [ 1.98103994e-01, 4.93584991e-01, 2.82898009e-01, 6.25774980e-01,
          4.63625014e-01, 6.00215018e-01, 3.70065987e-01, 2.82898009e-01,
          5.21188021e-01 ]
      - [ 2.23139003e-01, 3.92453015e-01, 1.81842998e-01, 4.71210986e-01,
          6.81873977e-01, 7.05380023e-01, 5.09298027e-01, 1.81842998e-01,
          3.92102003e-01 ]
      - [ 2.20810995e-01, 4.81509000e-01, 4.40450013e-01, 6.75680995e-01,
          3.48347008e-01, 4.74640012e-01, 3.61883014e-01, 4.40450013e-01,
          5.98765016e-01 ]
      - [ 1.42609999e-01, 5.69810987e-01, 4.21570987e-01, 6.29301012e-01,
          3.45317990e-01, 5.06492972e-01, 3.63094985e-01, 4.21570987e-01,
          4.40629005e-01 ]
   decision_functions:
      -
         sv_count: 26
         rho: 2.4639273942840143e+00
         alpha: [ 3.1250000000000000e+02, 3.1250000000000000e+02,
             3.1250000000000000e+02, 6.7790216137357916e+01,
             7.6526464975315164e+01, 9.4046486976147250e+00,
             4.7323218091180443e+01, 3.1250000000000000e+02,
             7.9785193515455504e+01, 3.1250000000000000e+02,
             3.1250000000000000e+02, 3.1250000000000000e+02,
             -1.3519418601669923e+02, -3.1250000000000000e+02,
             -1.4162699875706576e+02, -5.7845812179039712e+01,
             -6.6393402496919066e+01, -3.1250000000000000e+02,
             -1.6650024942775268e+01, -1.9286043283502465e+02,
             -3.1250000000000000e+02, -3.1250000000000000e+02,
             -2.1443761065399414e+02, -2.9659389650767901e+02,
             -1.2149902169580848e+01, -8.4577474858146914e+01 ]
         index: [ 0, 3, 4, 6, 9, 10, 12, 16, 17, 18, 21, 22, 23, 24, 28,
             29, 31, 32, 34, 38, 39, 41, 48, 50, 52, 53 ]
      -
         sv_count: 16
         rho: -1.5062861354559047e+00
         alpha: [ 1.6091879103904648e+02, 7.9067340264885413e+00,
             2.7823569510788367e+01, 3.4373021827741461e+01,
             1.5820077629370945e+02, 1.6883060799848085e+01,
             3.1250000000000000e+02, 3.1250000000000000e+02,
             4.9344380404552250e+00, 4.5989627678684123e+01,
             2.3127638598729939e+02, -3.1250000000000000e+02,
             -1.7155416598574010e+02, -3.1250000000000000e+02,
             -2.0425223921832105e+02, -3.1250000000000000e+02 ]
         index: [ 1, 2, 3, 6, 7, 13, 14, 16, 20, 21, 22, 59, 62, 74, 80,
             83 ]
      -
         sv_count: 15
         rho: -3.8633041236826040e+00
         alpha: [ 1.2398894402369451e+02, 1.3768410127592728e+02,
             6.4259728162096650e+01, 4.0518566763427897e+00,
             1.8698432709082038e+01, 3.1250000000000000e+02,
             2.8473157003260593e+02, -2.0226834827588235e+02,
             -3.1250000000000000e+02, -1.3035679604528329e+02,
             -7.2283130556292065e+01, -3.7246576757029516e+01,
             -8.6728067260271175e+01, -5.5337085969105068e+01,
             -4.9194628015885606e+01 ]
         index: [ 0, 6, 7, 10, 18, 21, 22, 89, 90, 91, 93, 96, 108, 110,
             114 ]
      -
         sv_count: 12
         rho: 2.4660411638901065e+00
         alpha: [ 1.6711664598750184e+02, 1.2146116846556700e+02,
             8.1684190511396562e+00, 3.2654907719617582e-01,
             7.3098534782006226e+01, 2.0318767016034377e+02,
             3.1250000000000000e+02, -1.4066243730416511e+02,
             -2.4199238190258981e+02, -2.1108312444285713e+02,
             -1.9087415156476524e+02, -1.0124689230937729e+02 ]
         index: [ 0, 6, 10, 15, 16, 18, 21, 126, 127, 131, 140, 141 ]
      -
         sv_count: 24
         rho: -6.9765635525965832e+00
         alpha: [ 7.0388063930286265e+01, 7.6994381689487753e+01,
             2.8888262032861076e+02, 3.1250000000000000e+02,
             3.1250000000000000e+02, 7.6768589022286760e+00,
             2.3166395672783528e+02, 3.1250000000000000e+02,
             3.1250000000000000e+02, 7.5049368517827816e+01,
             1.7640276516309814e+02, 3.1250000000000000e+02,
             -3.1250000000000000e+02, -3.1250000000000000e+02,
             -2.5271209485712344e+01, -1.3477308005847885e+02,
             -3.2178424249394105e+01, -3.1250000000000000e+02,
             -6.3223449083281666e+00, -3.1250000000000000e+02,
             -1.4513573026753050e+02, -2.7087722628993089e+02,
             -3.1250000000000000e+02, -3.1250000000000000e+02 ]
         index: [ 0, 3, 5, 6, 7, 8, 11, 16, 17, 18, 19, 22, 149, 151,
             155, 156, 159, 161, 162, 168, 169, 170, 172, 174 ]
      -
         sv_count: 10
         rho: -3.2306631433075617e+00
         alpha: [ 8.5823812801928369e+01, 9.0631791304428958e+01,
             1.3422284056457425e+00, 3.3643778073193602e+01,
             3.6576566048433662e+01, 7.9374586088168314e+01,
             -5.0437442813067371e+01, -9.6749939692654038e+01,
             -1.4211270546339870e+02, -3.8092674752678334e+01 ]
         index: [ 3, 6, 10, 16, 18, 21, 184, 188, 189, 191 ]
      -
         sv_count: 23
         rho: 3.8742813059258712e+00
         alpha: [ 1.9220425913809396e+02, 3.1250000000000000e+02,
             3.1250000000000000e+02, 3.1250000000000000e+02,
             3.1250000000000000e+02, 3.1250000000000000e+02,
             1.1142627656977832e+02, 3.1250000000000000e+02,
             4.9620564181059962e+01, 3.1250000000000000e+02,
             3.1250000000000000e+02, -1.8333784186491019e+02,
             -3.1250000000000000e+02, -3.1250000000000000e+02,
             -3.1250000000000000e+02, -9.1993902971930424e+01,
             -9.9408337866093802e+01, -3.1250000000000000e+02,
             -3.1250000000000000e+02, -1.8870620295504537e+02,
             -3.1250000000000000e+02, -2.8672111125897095e+02,
             -1.2808370297198127e+02 ]
         index: [ 24, 25, 28, 30, 35, 40, 43, 47, 49, 50, 51, 57, 59, 61,
             63, 64, 66, 69, 74, 76, 80, 81, 84 ]
      -
         sv_count: 38
         rho: -9.1617477131364233e-01
         alpha: [ 2.8297142827784791e+02, 6.9462060969509849e+01,
             1.1701079061441355e+01, 1.2708652666771401e+02,
             4.2161031752912358e+01, 3.1250000000000000e+02,
             7.9013192557021753e+01, 2.0076344060956064e+01,
             3.1250000000000000e+02, 2.3383375661813335e+02,
             3.1250000000000000e+02, 1.2914633536416949e+02,
             3.1250000000000000e+02, 3.1250000000000000e+02,
             2.8721401609685721e+01, 2.4286051078782030e+01,
             3.1250000000000000e+02, 8.9069793325268833e+01,
             3.1250000000000000e+02, 8.9844081422831614e+00,
             3.1250000000000000e+02, -3.1250000000000000e+02,
             -1.0515595439451043e+02, -3.1250000000000000e+02,
             -3.1250000000000000e+02, -3.1250000000000000e+02,
             -1.2679375267966428e+02, -5.7933703928723133e+01,
             -3.1250000000000000e+02, -7.8670373321407624e+01,
             -3.1250000000000000e+02, -2.9388774419243816e+02,
             -1.0764747742427572e+02, -3.1250000000000000e+02,
             -3.1250000000000000e+02, -2.0999692332741759e+01,
             -3.1250000000000000e+02, -4.2924711211964336e+01 ]
         index: [ 23, 25, 26, 27, 28, 29, 30, 34, 35, 37, 40, 42, 44, 45,
             46, 47, 49, 51, 52, 53, 55, 86, 88, 89, 90, 91, 93, 94, 95,
             96, 98, 104, 105, 106, 108, 109, 114, 117 ]
      -
         sv_count: 37
         rho: 1.6281810132483152e-01
         alpha: [ 4.8710276710785266e+01, 7.7865102229289434e+01,
             7.7591134614030651e+01, 1.6272450455304855e+02,
             3.1250000000000000e+02, 2.1733578870089542e+02,
             6.7021731832173810e+00, 1.0738011395484509e+02,
             1.4364420487390539e+01, 1.5749284838644051e+01,
             3.1250000000000000e+02, 2.0035389089601607e+00,
             3.1250000000000000e+02, 3.1250000000000000e+02,
             2.0872796712658248e+02, 9.0004334254449290e+01,
             2.9617851370155961e+02, 2.7889973629104170e-02,
             2.3964225596787441e+02, 2.5385389156283216e+02,
             3.1250000000000000e+02, -3.1144416322086937e+02,
             -2.8560552056693837e+02, -1.3274077284269114e+02,
             -2.7844621997234464e+02, -3.1250000000000000e+02,
             -3.1250000000000000e+02, -3.3637602835954414e+00,
             -3.1446807448429325e+01, -1.1177859893290959e+01,
             -1.2573108445039112e+02, -1.9839044365015241e+02,
             -1.2801455843933059e+02, -3.1250000000000000e+02,
             -3.1250000000000000e+02, -3.1250000000000000e+02,
             -3.1250000000000000e+02 ]
         index: [ 23, 25, 27, 28, 29, 30, 33, 35, 36, 37, 40, 42, 44, 45,
             46, 47, 49, 50, 54, 55, 56, 120, 121, 122, 123, 126, 127,
             128, 133, 134, 135, 136, 139, 140, 141, 142, 144 ]
      -
         sv_count: 24
         rho: 5.1350419450125946e+00
         alpha: [ 3.1250000000000000e+02, 3.1250000000000000e+02,
             3.1250000000000000e+02, 3.1250000000000000e+02,
             3.1250000000000000e+02, 2.6289600210764092e+02,
             2.1944214883627016e+01, 3.1250000000000000e+02,
             9.2134336460287898e+00, 2.7968137489185210e+01,
             -4.8438538343709027e+01, -3.1250000000000000e+02,
             -1.4439112387161506e+02, -2.2827466824191017e+01,
             -2.0490329053720410e+02, -5.5465969268756737e+01,
             -1.4893430629953446e+02, -3.1250000000000000e+02,
             -3.5143772930299171e+01, -1.1667777612411714e+02,
             -3.1250000000000000e+02, -7.6022489897564782e+01,
             -9.4217054029490257e+01, -3.1250000000000000e+02 ]
         index: [ 24, 28, 29, 30, 40, 41, 44, 47, 49, 50, 147, 148, 149,
             152, 153, 156, 158, 160, 162, 163, 167, 170, 171, 174 ]
      -
         sv_count: 16
         rho: -1.5906819575620210e+00
         alpha: [ 3.1250000000000000e+02, 1.2120660947287965e+02,
             6.3590186399491316e+01, 4.8108060963814907e+01,
             2.0334651451694486e+02, 3.7756320682008152e+01,
             4.1526305358563540e+01, 2.5356222524690213e+02,
             -2.9553222917236130e+01, -2.2539343734807005e+02,
             -1.0032828288293450e+02, -8.7455839424705161e+01,
             -2.3921346019455589e+02, -8.0685325896855332e+01,
             -2.1473633364918425e+02, -1.0423032032706338e+02 ]
         index: [ 29, 30, 40, 44, 49, 51, 52, 53, 175, 176, 179, 184,
             187, 188, 189, 191 ]
      -
         sv_count: 29
         rho: 1.1996519500619764e+01
         alpha: [ 3.1250000000000000e+02, 1.7022537034420793e+02,
             3.1250000000000000e+02, 1.9035972218675295e+02,
             3.4071240097994711e+00, 3.1250000000000000e+02,
             2.9042014431491680e+02, 3.1250000000000000e+02,
             2.6119904648403013e+02, 6.8345058809860916e+01,
             3.1250000000000000e+02, 3.1250000000000000e+02,
             3.1250000000000000e+02, 3.1250000000000000e+02,
             1.6933789705773133e+01, 3.1579100587269561e+01,
             -3.1250000000000000e+02, -2.1389729213123610e+02,
             -3.1250000000000000e+02, -2.1604141909633401e+02,
             -3.1250000000000000e+02, -3.1250000000000000e+02,
             -3.1250000000000000e+02, -2.2140302024891707e+01,
             -3.1250000000000000e+02, -3.1250000000000000e+02,
             -2.6789034319014922e+02, -3.1250000000000000e+02,
             -3.1250000000000000e+02 ]
         index: [ 58, 60, 65, 66, 68, 69, 70, 71, 73, 76, 77, 78, 79, 80,
             81, 84, 85, 89, 91, 92, 96, 100, 101, 104, 105, 106, 107,
             113, 115 ]
      -
         sv_count: 24
         rho: 1.6895253024506789e+00
         alpha: [ 5.0805796408962919e+01, 3.0209731950576803e+01,
             2.0110451534764632e+01, 1.5800878908921214e+02,
             4.7694005478435415e+01, 3.1250000000000000e+02,
             5.6473922348504821e+01, 6.9027762371923885e+01,
             3.1250000000000000e+02, 4.9923502259228037e+01,
             3.7700794293917816e+01, 3.9424150597983456e+01,
             6.9823807557483053e-01, 3.1250000000000000e+02,
             6.4481743601365352e+01, 3.7863477099926776e+01,
             7.0110279270672265e+01, -1.4888597294634937e+02,
             -2.1673185302059994e+02, -2.0862294350814321e+02,
             -1.5829187490595669e+02, -3.1250000000000000e+02,
             -3.1250000000000000e+02, -3.1250000000000000e+02 ]
         index: [ 59, 61, 64, 66, 67, 69, 71, 72, 73, 74, 75, 76, 77, 80,
             81, 82, 84, 121, 125, 127, 133, 139, 140, 144 ]
      -
         sv_count: 22
         rho: 1.7713696856574663e+00
         alpha: [ 3.1250000000000000e+02, 3.1250000000000000e+02,
             3.1250000000000000e+02, 3.1250000000000000e+02,
             1.4917541549701139e+02, 2.6065504752381747e+02,
             3.1250000000000000e+02, 3.1250000000000000e+02,
             4.1122514680451729e+01, -6.5110482763552639e+01,
             -2.6208488942932541e+02, -1.5043218407943806e+01,
             -1.3957717805322659e+02, -6.4185765254384762e+01,
             -1.1848657283202368e+02, -3.1250000000000000e+02,
             -7.1240001290804457e+01, -3.1250000000000000e+02,
             -3.1250000000000000e+02, -3.1250000000000000e+02,
             -2.7724869670019089e+01, -3.1250000000000000e+02 ]
         index: [ 57, 59, 63, 64, 66, 73, 74, 80, 82, 146, 148, 150, 151,
             152, 153, 160, 161, 162, 166, 167, 170, 174 ]
      -
         sv_count: 13
         rho: -4.6358822284892307e+00
         alpha: [ 3.1206833344442276e+02, 1.2235237238736214e+02,
             3.1250000000000000e+02, 3.0534991153867276e+02,
             1.6253444440493757e+02, -1.4401006767557742e+01,
             -9.0734622108665818e+01, -1.0203334271339735e+02,
             -1.1454298836961142e+02, -2.5527333675551557e+02,
             -1.2898505402006640e+02, -3.1250000000000000e+02,
             -1.9633471104058083e+02 ]
         index: [ 66, 67, 73, 80, 81, 175, 180, 182, 183, 184, 185, 187,
             188 ]
      -
         sv_count: 48
         rho: 1.4536911088935334e+00
         alpha: [ 3.1250000000000000e+02, 3.1250000000000000e+02,
             3.1250000000000000e+02, 1.3177136984865459e+02,
             1.3808481197624488e+02, 3.1250000000000000e+02,
             3.1250000000000000e+02, 2.5424948763764550e+02,
             3.1250000000000000e+02, 1.3080844376809154e+02,
             1.2864437320033988e+02, 3.1250000000000000e+02,
             1.2335467319758308e+02, 1.3983221218435452e+02,
             2.9159975685853624e+01, 3.1250000000000000e+02,
             9.7496791714001972e+01, 3.1250000000000000e+02,
             1.2993618715583355e+02, 5.1295214348634808e+01,
             3.1250000000000000e+02, 3.1250000000000000e+02,
             1.7305082495339457e+02, 3.1250000000000000e+02,
             -3.1250000000000000e+02, -2.2798885933950592e+02,
             -3.1250000000000000e+02, -3.1250000000000000e+02,
             -1.2066777879955767e+02, -2.9101540423849019e+02,
             -2.4319122515092752e+02, -3.1250000000000000e+02,
             -1.8860169617975242e+02, -3.2213741894172280e+01,
             -3.1250000000000000e+02, -1.7814226277134628e+02,
             -3.6313784480458089e+01, -1.4750569295756310e+02,
             -2.0889978848040795e+02, -3.1250000000000000e+02,
             -3.1250000000000000e+02, -1.7655263384028112e+02,
             -3.0731553725662695e+02, -2.8401485076802038e+02,
             -3.1250000000000000e+02, -1.1215218277797214e+02,
             -1.3558048762217669e+02, -8.7528439113374176e+01 ]
         index: [ 86, 87, 88, 89, 90, 91, 92, 93, 94, 95, 96, 97, 98, 99,
             101, 102, 103, 104, 105, 106, 108, 110, 112, 114, 118, 119,
             120, 121, 124, 125, 126, 127, 129, 130, 131, 133, 134, 135,
             136, 137, 138, 139, 140, 141, 142, 143, 144, 145 ]
      -
         sv_count: 20
         rho: 1.6891806774100242e+00
         alpha: [ 1.0476860842269522e+01, 3.1250000000000000e+02,
             1.2398030904299890e+01, 2.8241219562428672e+01,
             3.1250000000000000e+02, 5.0976461847535212e+01,
             8.9616248190232568e+01, 6.4836724645322349e+01,
             -1.4493157419017430e+02, -3.1250000000000000e+02,
             -9.7729586385333192e+01, -1.5190792175422315e+01,
             -5.1388946595984912e+01, -2.8966817436518475e+01,
             -2.9964708927598025e+01, -2.1266283754468454e+01,
             -3.7293649813491484e+01, -1.3094575576390736e+02,
             -3.6213653787661442e+00, -7.7460655704236592e+00 ]
         index: [ 86, 90, 91, 96, 104, 111, 115, 116, 146, 148, 153, 155,
             158, 160, 163, 165, 167, 169, 170, 174 ]
      -
         sv_count: 26
         rho: -1.8627691725244383e-01
         alpha: [ 3.1250000000000000e+02, 1.2456640379778639e+02,
             4.6097460145711125e+01, 3.1250000000000000e+02,
             3.1250000000000000e+02, 3.8522890781519827e+01,
             1.2374238591832881e+02, 1.7459936752867338e+02,
             3.1250000000000000e+02, 7.3747462404179620e+00,
             6.3605754608406002e+01, 3.1250000000000000e+02,
             4.6071992407608249e+01, -3.0845523006199588e+01,
             -1.1591280281590592e+02, -3.1250000000000000e+02,
             -3.1250000000000000e+02, -2.2998259414919343e+02,
             -1.3315267613675040e+01, -3.3872015483044940e+01,
             -3.1250000000000000e+02, -1.3791541425715548e+02,
             -1.2685813642796553e+02, -5.6057132779311232e+01,
             -3.1250000000000000e+02, -1.9232211489600058e+02 ]
         index: [ 86, 87, 90, 92, 93, 96, 101, 102, 104, 105, 109, 110,
             111, 175, 176, 178, 179, 180, 183, 184, 187, 188, 189, 190,
             191, 192 ]
      -
         sv_count: 19
         rho: -6.3397927572981150e-01
         alpha: [ 1.1378411088777791e+02, 5.9109488088528742e+01,
             2.7023923053461374e+02, 3.1250000000000000e+02,
             1.8288518997395803e+02, 9.0937683273007011e+01,
             3.1250000000000000e+02, -3.9690785737416284e+01,
             -3.1250000000000000e+02, -7.9698473217757755e+00,
             -2.8905219290543570e+01, -2.6762645521188471e+01,
             -1.0508257121997437e+02, -3.1250000000000000e+02,
             -1.1499292400009070e+02, -3.1946724833296837e+01,
             -3.1250000000000000e+02, -3.9535454205663743e+00,
             -4.5151439413032811e+01 ]
         index: [ 118, 125, 127, 131, 139, 140, 144, 146, 148, 150, 153,
             155, 158, 160, 163, 167, 169, 170, 174 ]
      -
         sv_count: 32
         rho: -3.1693377007467327e+00
         alpha: [ 3.1250000000000000e+02, 3.1250000000000000e+02,
             3.1250000000000000e+02, 1.9435829473284227e+02,
             1.0255416476712315e+02, 3.1250000000000000e+02,
             1.7713786144212182e+02, 6.2089127590969273e+00,
             1.3603740291973133e+02, 3.3742707396163789e+00,
             6.3084377283863255e+01, 3.1250000000000000e+02,
             4.3675323422201577e+00, 3.1250000000000000e+02,
             3.1250000000000000e+02, 1.5315211277053183e+02,
             -4.6354373413629595e+01, -3.1250000000000000e+02,
             -3.1250000000000000e+02, -2.8986818218875771e+02,
             -1.0593686736693934e+02, -7.8746909956091429e+01,
             -2.4619647986485965e+01, -2.8107019173871367e+02,
             -1.9386878842891420e+02, -3.0577144949760520e+00,
             -3.1250000000000000e+02, -2.2407477584092788e+02,
             -3.1250000000000000e+02, -3.1250000000000000e+02,
             -1.6067423956731997e+02, -5.7003238774390297e+01 ]
         index: [ 118, 120, 125, 126, 129, 130, 131, 132, 133, 135, 138,
             139, 140, 142, 144, 145, 175, 178, 179, 180, 181, 182, 183,
             184, 185, 186, 187, 188, 191, 192, 194, 195 ]
      -
         sv_count: 19
         rho: 5.3248200487394759e-01
         alpha: [ 2.8713447179979460e+02, 4.7207901925047608e+01,
             3.7186685760374779e+01, 3.1250000000000000e+02,
             3.1250000000000000e+02, 2.5327058862113506e+02,
             3.1250000000000000e+02, 1.6225607012465056e+02,
             3.1250000000000000e+02, -3.1250000000000000e+02,
             -1.3740389805499839e+02, -1.0553715131057460e+02,
             -1.4361441478327944e+02, -3.1250000000000000e+02,
             -2.7269185147547398e+02, -3.6721516646012013e+01,
             -9.1086885960665072e+01, -3.1250000000000000e+02,
             -3.1250000000000000e+02 ]
         index: [ 146, 148, 150, 153, 154, 157, 163, 164, 173, 177, 182,
             185, 186, 187, 188, 189, 193, 195, 196 ]
