%YAML:1.0
my_svm: !!opencv-ml-svm
   svm_type: C_SVC
   kernel: { type:RBF, gamma:5.0625000000000009e-001 }
   C: 3.1250000000000000e+002
   term_criteria: { epsilon:1.1920928955078125e-007, iterations:1000 }
   var_all: 9
   var_count: 9
   class_count: 7
   class_labels: !!opencv-matrix
      rows: 1
      cols: 7
      dt: i
      data: [ 0, 1, 2, 3, 4, 5, 6 ]
   sv_total: 205
   support_vectors:
      - [ 4.45696443e-001, 5.97834587e-001, 2.90447891e-001,
          4.85358208e-001, 6.45438313e-001, 5.13375282e-001,
          4.71963733e-001, 2.90447891e-001, 6.98857069e-001 ]
      - [ 1.72686785e-001, 7.69734561e-001, 7.20598996e-001,
          6.73882782e-001, 3.21307212e-001, 2.96042234e-001,
          2.81930208e-001, 7.20598996e-001, 3.90073746e-001 ]
      - [ 3.54215145e-001, 6.70559406e-001, 7.62600422e-001,
          7.60657191e-001, 2.41232812e-001, 2.61935920e-001,
          2.67729998e-001, 7.62600422e-001, 6.52608931e-001 ]
      - [ 7.91039392e-002, 9.89094198e-001, 8.05128515e-001,
          8.18653643e-001, 2.35194176e-001, 2.34714657e-001,
          1.07586175e-001, 8.05128515e-001, 8.86161089e-001 ]
      - [ 3.33216578e-001, 6.92391336e-001, 6.52149439e-001,
          7.46385038e-001, 2.55515605e-001, 3.17380697e-001,
          2.87036538e-001, 6.52149439e-001, 6.58853650e-001 ]
      - [ 2.20552847e-001, 7.84416497e-001, 4.35809106e-001,
          5.11834741e-001, 5.81407487e-001, 3.48864257e-001,
          3.77681017e-001, 4.35809106e-001, 6.04354739e-001 ]
      - [ 2.88194001e-001, 6.54190183e-001, 8.21244657e-001,
          6.63133204e-001, 2.42925465e-001, 2.72432894e-001,
          3.49305183e-001, 8.21244657e-001, 3.89105469e-001 ]
      - [ 3.25497568e-001, 7.07657993e-001, 6.20804965e-001,
          6.54393554e-001, 3.62760514e-001, 4.16134208e-001,
          3.35687578e-001, 6.20804965e-001, 6.86085224e-001 ]
      - [ 2.01387063e-001, 8.13844979e-001, 7.57707000e-001,
          7.34062016e-001, 2.28858680e-001, 2.90352166e-001,
          2.60418981e-001, 7.57707000e-001, 6.44470453e-001 ]
      - [ 4.88300502e-001, 5.98295331e-001, 6.45168304e-001,
          7.41045237e-001, 2.85131305e-001, 4.14717972e-001,
          3.26163501e-001, 6.45168304e-001, 8.31083953e-001 ]
      - [ 1.41567141e-001, 8.78703773e-001, 6.40388668e-001,
          7.64368713e-001, 2.91097134e-001, 3.42020303e-001,
          1.84599087e-001, 6.40388668e-001, 6.74328387e-001 ]
      - [ 4.14338559e-001, 5.61481893e-001, 3.72832447e-001,
          3.94566536e-001, 6.69999838e-001, 4.46507841e-001,
          5.65416098e-001, 3.72832447e-001, 4.88952428e-001 ]
      - [ 2.19763622e-001, 7.15908527e-001, 6.62349224e-001,
          6.24003053e-001, 2.85548508e-001, 4.81642544e-001,
          3.72754931e-001, 6.62349224e-001, 3.67503703e-001 ]
      - [ 1.95497036e-001, 8.33835483e-001, 6.76067948e-001,
          7.78290510e-001, 2.19830036e-001, 3.56770366e-001,
          1.93320751e-001, 6.76067948e-001, 6.97750330e-001 ]
      - [ 2.85957098e-001, 6.58735335e-001, 2.24176139e-001,
          2.95943230e-001, 8.01302314e-001, 6.04893982e-001,
          6.14837766e-001, 2.24176139e-001, 3.96415979e-001 ]
      - [ 4.09992516e-001, 5.98172665e-001, 6.96021855e-001,
          7.26176918e-001, 3.04872423e-001, 2.94160575e-001,
          3.16947430e-001, 6.96021855e-001, 5.90498269e-001 ]
      - [ 2.26426780e-001, 7.77119696e-001, 3.15507561e-001,
          4.65453148e-001, 6.47986174e-001, 4.65670049e-001,
          4.23335016e-001, 3.15507561e-001, 5.98452687e-001 ]
      - [ 2.15885490e-001, 7.45863795e-001, 6.63109601e-001,
          6.54301226e-001, 3.36486638e-001, 4.41179633e-001,
          3.12339395e-001, 6.63109601e-001, 4.54518229e-001 ]
      - [ 4.23617542e-001, 5.71272194e-001, 7.64241576e-001,
          7.29539752e-001, 2.27233067e-001, 2.68799901e-001,
          3.42128664e-001, 7.64241576e-001, 5.47214568e-001 ]
      - [ 6.12211600e-002, 9.50259566e-001, 5.66624403e-001,
          7.37051547e-001, 3.35396647e-001, 4.06797528e-001,
          1.72360852e-001, 5.66624403e-001, 6.55579746e-001 ]
      - [ 2.91760832e-001, 6.99496627e-001, 4.45792913e-001,
          4.53812420e-001, 6.19059086e-001, 3.74733984e-001,
          4.70276862e-001, 4.45792913e-001, 5.48307598e-001 ]
      - [ 3.98266882e-001, 6.25392258e-001, 5.55062652e-001,
          6.36782289e-001, 3.20167661e-001, 4.09318060e-001,
          3.73475313e-001, 5.55062652e-001, 6.42067015e-001 ]
      - [ 3.72409910e-001, 6.49810135e-001, 6.91283882e-001,
          7.03857422e-001, 2.38480046e-001, 2.74660885e-001,
          3.24044734e-001, 6.91283882e-001, 6.41221285e-001 ]
      - [ 2.60443419e-001, 7.18414068e-001, 5.91750264e-001,
          5.76486170e-001, 3.34138572e-001, 4.26338017e-001,
          4.08844084e-001, 5.91750264e-001, 5.09516060e-001 ]
      - [ 2.95141786e-001, 6.83508515e-001, 6.38446927e-001,
          5.38241208e-001, 4.72932637e-001, 2.74447590e-001,
          4.35814291e-001, 6.38446927e-001, 5.06145656e-001 ]
      - [ 3.58078659e-001, 6.95116162e-001, 5.11645436e-001,
          7.13144660e-001, 3.15933853e-001, 3.81275445e-001,
          2.63772607e-001, 5.11645436e-001, 7.48797357e-001 ]
      - [ 4.16157037e-001, 6.69497371e-001, 6.32243454e-001,
          7.57307589e-001, 3.13482046e-001, 3.17874223e-001,
          2.53718436e-001, 6.32243454e-001, 8.46944869e-001 ]
      - [ 6.72083437e-001, 3.38379681e-001, 6.05684519e-001,
          5.97547889e-001, 3.00564706e-001, 4.11853820e-001,
          5.33513665e-001, 6.05684519e-001, 5.69563746e-001 ]
      - [ 1.19808182e-001, 8.17242384e-001, 4.28728998e-001,
          3.05104882e-001, 8.10186028e-001, 4.81174171e-001,
          5.47373474e-001, 4.28728998e-001, 3.71636927e-001 ]
      - [ 2.78499663e-001, 7.06279933e-001, 7.16116369e-001,
          6.07248724e-001, 3.70317936e-001, 2.62292355e-001,
          3.47824812e-001, 7.16116369e-001, 5.27902484e-001 ]
      - [ 2.10628241e-001, 7.81774104e-001, 3.69302005e-001,
          4.18059468e-001, 6.77664042e-001, 4.88649219e-001,
          4.69438195e-001, 3.69302005e-001, 5.61012745e-001 ]
      - [ 5.13813913e-001, 5.82410097e-001, 5.36007106e-001,
          7.29532421e-001, 3.54539692e-001, 3.56286734e-001,
          2.98247457e-001, 5.36007106e-001, 8.56359899e-001 ]
      - [ 7.15427816e-001, 3.36929083e-001, 5.07570148e-001,
          6.26406014e-001, 3.20113540e-001, 3.59704524e-001,
          5.21644831e-001, 5.07570148e-001, 6.81482315e-001 ]
      - [ 2.74110258e-001, 6.58188224e-001, 1.76789507e-001,
          3.16548079e-001, 7.61363685e-001, 6.41823530e-001,
          5.88151574e-001, 1.76789507e-001, 3.57078403e-001 ]
      - [ 4.53451753e-001, 5.16589522e-001, 3.42355460e-001,
          3.23241293e-001, 6.80399954e-001, 5.59839249e-001,
          6.83207691e-001, 3.42355460e-001, 4.69316542e-001 ]
      - [ 3.88307840e-001, 6.17927551e-001, 2.03411445e-001,
          4.40607429e-001, 6.49929166e-001, 5.90835094e-001,
          4.95118827e-001, 2.03411445e-001, 5.86838067e-001 ]
      - [ 3.95622939e-001, 6.70336962e-001, 4.52840030e-001,
          4.97156978e-001, 5.81268966e-001, 4.89924461e-001,
          4.80716079e-001, 4.52840030e-001, 7.84187734e-001 ]
      - [ 4.01869535e-001, 6.01598442e-001, 1.88034713e-001,
          4.10273463e-001, 6.27470255e-001, 6.42280161e-001,
          5.54129303e-001, 1.88034713e-001, 5.76423466e-001 ]
      - [ 4.00137186e-001, 6.60874784e-001, 5.71844161e-001,
          6.97798669e-001, 2.63188154e-001, 3.73028845e-001,
          3.32196683e-001, 5.71844161e-001, 7.66267657e-001 ]
      - [ 7.52567053e-001, 2.13679761e-001, 3.06718677e-001,
          3.28986526e-001, 6.21056497e-001, 5.54354250e-001,
          7.91497529e-001, 3.06718677e-001, 4.46897000e-001 ]
      - [ 4.88309294e-001, 5.32801747e-001, 3.01689506e-001,
          4.06064898e-001, 6.23580694e-001, 5.50070286e-001,
          6.06595993e-001, 3.01689506e-001, 6.21215105e-001 ]
      - [ 3.90922338e-001, 6.55039966e-001, 6.57352448e-001,
          7.14932084e-001, 3.30303192e-001, 2.42664084e-001,
          2.79367268e-001, 6.57352448e-001, 7.17260242e-001 ]
      - [ 5.64700663e-001, 5.21587074e-001, 3.34118396e-001,
          6.93862081e-001, 3.18336487e-001, 5.66415370e-001,
          3.83820772e-001, 3.34118396e-001, 8.11456740e-001 ]
      - [ 3.56458396e-001, 7.15797365e-001, 5.21942973e-001,
          7.27870584e-001, 2.80029595e-001, 3.59990001e-001,
          2.83443511e-001, 5.21942973e-001, 8.15992534e-001 ]
      - [ 1.38718903e-001, 8.57265532e-001, 2.84411132e-001,
          4.46959436e-001, 6.34665787e-001, 5.34484506e-001,
          4.30476934e-001, 2.84411132e-001, 5.82943439e-001 ]
      - [ 4.27820623e-001, 6.09994769e-001, 6.24697864e-001,
          6.62535429e-001, 2.76874900e-001, 3.58773500e-001,
          3.90151948e-001, 6.24697864e-001, 6.83456361e-001 ]
      - [ 3.79389912e-001, 5.72919369e-001, 3.81083548e-001,
          3.08653295e-001, 7.39048004e-001, 5.11055470e-001,
          6.57690525e-001, 3.81083548e-001, 4.18547422e-001 ]
      - [ 4.96423006e-001, 5.33965826e-001, 3.19913268e-001,
          5.40285110e-001, 4.42893982e-001, 5.79474390e-001,
          5.15179217e-001, 3.19913268e-001, 6.48874283e-001 ]
      - [ 3.39888096e-001, 5.97318470e-001, 5.02974689e-001,
          2.88148552e-001, 7.51227200e-001, 4.49283123e-001,
          6.62166893e-001, 5.02974689e-001, 3.72809321e-001 ]
      - [ 5.29252470e-001, 4.35108632e-001, 4.15100187e-001,
          3.24908763e-001, 6.56972408e-001, 4.63078618e-001,
          7.11591303e-001, 4.15100187e-001, 4.49515551e-001 ]
      - [ 4.86781299e-001, 5.42068720e-001, 5.63965321e-001,
          6.29324198e-001, 3.42304587e-001, 4.42080170e-001,
          4.11814362e-001, 5.63965321e-001, 6.45526171e-001 ]
      - [ 1.23148784e-001, 8.73357415e-001, 5.60874999e-001,
          6.58728123e-001, 3.63083601e-001, 3.80509764e-001,
          2.52811104e-001, 5.60874999e-001, 5.87081552e-001 ]
      - [ 3.74236345e-001, 6.34190798e-001, 1.45071685e-001,
          3.92425716e-001, 6.42941117e-001, 6.99938834e-001,
          5.66645980e-001, 1.45071685e-001, 5.95663488e-001 ]
      - [ 2.52822280e-001, 8.06783259e-001, 5.50960243e-001,
          7.37504959e-001, 3.28203082e-001, 3.04008603e-001,
          2.15903342e-001, 5.50960243e-001, 7.97405243e-001 ]
      - [ 5.20634055e-001, 4.06283855e-001, 3.60465646e-001,
          3.89185280e-001, 4.93867457e-001, 6.25824273e-001,
          6.80528700e-001, 3.60465646e-001, 3.44807565e-001 ]
      - [ 3.53660971e-001, 5.75618625e-001, 3.18023950e-001,
          2.22463191e-001, 8.52154016e-001, 5.53385258e-001,
          7.06852734e-001, 3.18023950e-001, 3.48863810e-001 ]
      - [ 3.57534975e-001, 6.39966905e-001, 5.19070864e-001,
          5.66812515e-001, 3.74004483e-001, 4.88869488e-001,
          4.38463151e-001, 5.19070864e-001, 5.62129140e-001 ]
      - [ 4.92859095e-001, 5.32296240e-001, 4.04247880e-001,
          4.53037888e-001, 6.14079416e-001, 3.83024842e-001,
          5.40713668e-001, 4.04247880e-001, 6.33108318e-001 ]
      - [ 6.32754385e-001, 4.63901073e-001, 8.01443458e-001,
          8.29683840e-001, 5.93825467e-002, 5.85358888e-002,
          2.74705678e-001, 8.01443458e-001, 8.28015387e-001 ]
      - [ 3.69894713e-001, 6.70266211e-001, 5.06658673e-001,
          6.42214060e-001, 2.77027339e-001, 3.21167558e-001,
          3.68430912e-001, 5.06658673e-001, 7.01765776e-001 ]
      - [ 4.91906404e-001, 5.30534923e-001, 5.31228602e-001,
          5.80827236e-001, 3.13950926e-001, 3.29901278e-001,
          4.93416905e-001, 5.31228602e-001, 6.24926090e-001 ]
      - [ 7.56593049e-001, 2.15436250e-001, 4.36076283e-001,
          4.84431118e-001, 3.92997026e-001, 4.76688743e-001,
          6.90091848e-001, 4.36076283e-001, 4.61579621e-001 ]
      - [ 4.58405733e-001, 6.47575617e-001, 6.38024986e-001,
          7.74430335e-001, 2.67743438e-001, 2.42258221e-001,
          2.84033895e-001, 6.38024986e-001, 9.05153930e-001 ]
      - [ 3.86489123e-001, 6.85318410e-001, 5.26130974e-001,
          6.97746396e-001, 3.14766765e-001, 3.48098218e-001,
          3.16965848e-001, 5.26130974e-001, 8.06755304e-001 ]
      - [ 4.62218046e-001, 5.83895564e-001, 7.58094549e-001,
          8.30352008e-001, 7.37594813e-002, 1.79269806e-001,
          2.51616955e-001, 7.58094549e-001, 7.04348505e-001 ]
      - [ 3.34126174e-001, 6.92573190e-001, 8.45612824e-001,
          7.71159470e-001, 1.88647538e-001, 1.68899432e-001,
          2.46010110e-001, 8.45612824e-001, 6.62553251e-001 ]
      - [ 3.79910141e-001, 6.82196975e-001, 4.81182009e-001,
          7.10894585e-001, 2.41955489e-001, 2.98235923e-001,
          2.73481965e-001, 4.81182009e-001, 7.74691284e-001 ]
      - [ 5.98841190e-001, 4.80653405e-001, 7.33692944e-001,
          8.32303524e-001, 7.10671470e-002, 2.38077641e-001,
          2.94655561e-001, 7.33692944e-001, 7.82591105e-001 ]
      - [ 5.29313087e-001, 5.05951345e-001, 3.46767634e-001,
          6.84353173e-001, 2.57951587e-001, 5.60683608e-001,
          3.92580390e-001, 3.46767634e-001, 6.59169137e-001 ]
      - [ 2.57980168e-001, 8.00457537e-001, 6.56815708e-001,
          7.71516979e-001, 2.80932784e-001, 2.05835983e-001,
          1.92781165e-001, 6.56815708e-001, 7.91712940e-001 ]
      - [ 6.20638251e-001, 4.64285910e-001, 3.95344943e-001,
          7.19407082e-001, 2.23450422e-001, 3.52946252e-001,
          3.71884435e-001, 3.95344943e-001, 7.94614315e-001 ]
      - [ 3.55477363e-001, 6.44849360e-001, 5.50474942e-001,
          5.88486612e-001, 3.84059578e-001, 4.45009828e-001,
          4.09297198e-001, 5.50474942e-001, 5.71564317e-001 ]
      - [ 3.52406204e-001, 7.69736469e-001, 8.86493266e-001, 1.,
          6.07079780e-003, 0., 0., 8.86493266e-001, 1. ]
      - [ 4.49759662e-001, 5.95165491e-001, 7.94564486e-001,
          8.13405454e-001, 1.77897796e-001, 1.63309947e-001,
          2.14179099e-001, 7.94564486e-001, 7.02717423e-001 ]
      - [ 3.11425328e-001, 7.23363221e-001, 4.78139728e-001,
          6.44532084e-001, 3.09508473e-001, 3.50268722e-001,
          3.30517620e-001, 4.78139728e-001, 6.94444478e-001 ]
      - [ 4.42397118e-001, 6.69265449e-001, 6.87354028e-001,
          8.88984919e-001, 2.88637411e-002, 1.31914049e-001,
          1.53458893e-001, 6.87354028e-001, 9.29998398e-001 ]
      - [ 5.35433233e-001, 5.24074733e-001, 6.30669296e-001,
          7.21233010e-001, 2.51206905e-001, 2.95755237e-001,
          3.69939774e-001, 6.30669296e-001, 7.33206093e-001 ]
      - [ 3.35358709e-001, 6.60748065e-001, 5.43795824e-001,
          6.07696474e-001, 3.44741940e-001, 4.18615222e-001,
          4.02649641e-001, 5.43795824e-001, 5.59947968e-001 ]
      - [ 3.81985039e-001, 6.30510092e-001, 6.22713149e-001,
          6.83742166e-001, 2.74158925e-001, 4.00334299e-001,
          3.33068281e-001, 6.22713149e-001, 6.08025610e-001 ]
      - [ 3.69985163e-001, 6.88907802e-001, 4.43916559e-001,
          7.84196973e-001, 1.97474748e-001, 4.36513126e-001,
          2.39368141e-001, 4.43916559e-001, 7.65968561e-001 ]
      - [ 2.43669525e-001, 7.83892453e-001, 7.31393874e-001,
          7.66800344e-001, 1.79932073e-001, 2.49371067e-001,
          2.23796919e-001, 7.31393874e-001, 6.81795657e-001 ]
      - [ 5.07884204e-001, 6.12641513e-001, 4.31081027e-001,
          7.80743122e-001, 1.46626979e-001, 3.83730203e-001,
          2.88699389e-001, 4.31081027e-001, 9.39815998e-001 ]
      - [ 5.26267648e-001, 4.43171561e-001, 5.68146050e-001,
          5.21882296e-001, 3.85598719e-001, 4.37985122e-001,
          5.76049507e-001, 5.68146050e-001, 4.64302421e-001 ]
      - [ 4.33044106e-001, 5.75117767e-001, 7.15614557e-001,
          6.93413019e-001, 1.98376447e-001, 2.81973213e-001,
          3.72463644e-001, 7.15614557e-001, 5.87838173e-001 ]
      - [ 5.92124581e-001, 4.40758258e-001, 4.93850648e-001,
          6.17542624e-001, 3.31195772e-001, 5.02250850e-001,
          4.79987323e-001, 4.93850648e-001, 6.42887354e-001 ]
      - [ 3.83845180e-001, 6.17751241e-001, 6.82211220e-001,
          7.66294003e-001, 1.93143696e-001, 2.64607012e-001,
          2.55702704e-001, 6.82211220e-001, 5.72555363e-001 ]
      - [ 6.33082509e-001, 3.57681304e-001, 3.15442055e-001,
          4.27392989e-001, 4.97169763e-001, 4.75522608e-001,
          6.55021608e-001, 3.15442055e-001, 5.18252611e-001 ]
      - [ 3.82669210e-001, 7.15314567e-001, 6.37963414e-001,
          8.59648824e-001, 1.39481753e-001, 1.29591942e-001,
          1.27501473e-001, 6.37963414e-001, 9.00417149e-001 ]
      - [ 4.26972091e-001, 5.51420510e-001, 4.06755865e-001,
          5.16791999e-001, 5.03438056e-001, 6.02406859e-001,
          4.94768947e-001, 4.06755865e-001, 4.96188700e-001 ]
      - [ 4.68252867e-001, 4.71188545e-001, 1.43455043e-001,
          3.04372758e-001, 7.15576828e-001, 6.66821539e-001,
          6.87999308e-001, 1.43455043e-001, 3.79691571e-001 ]
      - [ 6.59633040e-001, 3.94414127e-001, 3.25321138e-001,
          5.77411234e-001, 3.26836050e-001, 4.79185224e-001,
          5.17622173e-001, 3.25321138e-001, 6.95073426e-001 ]
      - [ 6.82029128e-001, 3.42667192e-001, 3.07509035e-001,
          5.24278820e-001, 2.87306041e-001, 5.43846309e-001,
          6.26367867e-001, 3.07509035e-001, 6.08278275e-001 ]
      - [ 6.56449854e-001, 3.24261546e-001, 3.63820642e-001,
          5.07986128e-001, 3.70821327e-001, 5.11505723e-001,
          6.02679908e-001, 3.63820642e-001, 4.89280820e-001 ]
      - [ 3.31214935e-001, 6.89971447e-001, 5.55109620e-001,
          6.21792436e-001, 3.70695055e-001, 3.77384871e-001,
          3.95417303e-001, 5.55109620e-001, 6.44292474e-001 ]
      - [ 4.17622387e-001, 5.80388486e-001, 4.33700979e-001,
          4.61027414e-001, 5.02118409e-001, 3.84066731e-001,
          5.23836732e-001, 4.33700979e-001, 5.57690859e-001 ]
      - [ 4.77125645e-001, 4.43735242e-001, 4.77303237e-001,
          3.62607598e-001, 5.45197845e-001, 5.26409388e-001,
          7.06458211e-001, 4.77303237e-001, 3.27186644e-001 ]
      - [ 9.34157133e-001, 1.35652274e-001, 4.19254929e-001,
          6.29339397e-001, 1.48375377e-001, 4.15076584e-001,
          6.23120308e-001, 4.19254929e-001, 6.96874142e-001 ]
      - [ 6.34526134e-001, 4.31932479e-001, 3.49320680e-001,
          6.68794930e-001, 1.90795422e-001, 4.40428615e-001,
          4.51080263e-001, 3.49320680e-001, 7.36016095e-001 ]
      - [ 4.60893720e-001, 5.17527401e-001, 1.14352040e-001,
          2.50851870e-001, 8.50294113e-001, 7.74147093e-001,
          7.36009181e-001, 1.14352040e-001, 4.94113237e-001 ]
      - [ 6.20324075e-001, 4.52282816e-001, 5.18687248e-001,
          7.20111549e-001, 1.05986819e-001, 3.46219212e-001,
          4.00992930e-001, 5.18687248e-001, 7.57219076e-001 ]
      - [ 6.70389593e-001, 4.56335336e-001, 6.05046570e-001,
          8.03670406e-001, 6.15574345e-002, 2.79380649e-001,
          3.39141071e-001, 6.05046570e-001, 9.11794662e-001 ]
      - [ 6.04168832e-001, 5.09590209e-001, 4.74467844e-001,
          7.59573638e-001, 1.69171318e-001, 3.28431547e-001,
          3.35570931e-001, 4.74467844e-001, 8.89088511e-001 ]
      - [ 4.45329189e-001, 5.51704645e-001, 2.96701550e-001,
          4.69572276e-001, 4.65964526e-001, 5.20245254e-001,
          5.30081391e-001, 2.96701550e-001, 5.51952004e-001 ]
      - [ 4.02900487e-001, 5.47258615e-001, 3.34582746e-001,
          4.65107232e-001, 5.70996940e-001, 5.48934400e-001,
          5.43922186e-001, 3.34582746e-001, 4.11718249e-001 ]
      - [ 3.70866656e-001, 6.79567099e-001, 4.22144353e-001,
          6.52030826e-001, 2.91079968e-001, 3.30779463e-001,
          3.43021482e-001, 4.22144353e-001, 7.36668408e-001 ]
      - [ 4.70698625e-001, 4.51286972e-001, 4.18623507e-001,
          4.06690955e-001, 5.42209446e-001, 5.77698052e-001,
          6.38496757e-001, 4.18623507e-001, 3.30158502e-001 ]
      - [ 4.00606781e-001, 6.01793230e-001, 3.18713963e-001,
          4.91062254e-001, 5.38564265e-001, 4.38338488e-001,
          4.91116792e-001, 3.18713963e-001, 5.73334873e-001 ]
      - [ 5.14311731e-001, 4.90719825e-001, 4.65818793e-001,
          4.96065259e-001, 4.52380627e-001, 4.40814614e-001,
          5.60180306e-001, 4.65818793e-001, 5.69373906e-001 ]
      - [ 6.35783851e-001, 4.29027319e-001, 4.27454203e-001,
          6.73004150e-001, 1.70378506e-001, 3.83460611e-001,
          4.51407820e-001, 4.27454203e-001, 7.30763018e-001 ]
      - [ 4.31302309e-001, 5.12655735e-001, 5.46533942e-001,
          4.12854254e-001, 5.19496620e-001, 4.41836327e-001,
          6.19785070e-001, 5.46533942e-001, 3.92924100e-001 ]
      - [ 4.83248413e-001, 4.43704814e-001, 4.05956239e-001,
          3.09132546e-001, 7.52544641e-001, 4.07042623e-001,
          6.60825968e-001, 4.05956239e-001, 3.44396681e-001 ]
      - [ 5.03654659e-001, 5.64388871e-001, 5.15767515e-001,
          6.89373195e-001, 2.49661610e-001, 2.41198614e-001,
          3.26979846e-001, 5.15767515e-001, 7.66918540e-001 ]
      - [ 3.27054143e-001, 6.81977272e-001, 5.40699303e-001,
          5.91146827e-001, 3.95767927e-001, 4.10299778e-001,
          4.14170831e-001, 5.40699303e-001, 6.03914261e-001 ]
      - [ 4.21750993e-001, 4.62898046e-001, 2.30365708e-001,
          2.28930876e-001, 7.79126048e-001, 6.36498392e-001,
          7.45724142e-001, 2.30365708e-001, 2.23474592e-001 ]
      - [ 8.39896023e-001, 8.41880962e-002, 1.53183356e-001,
          2.54592746e-001, 6.76530957e-001, 7.19148457e-001,
          8.81071210e-001, 1.53183356e-001, 3.42784792e-001 ]
      - [ 6.31889105e-001, 2.78409779e-001, 1.78849578e-001,
          1.96986228e-001, 7.76692450e-001, 6.87804163e-001,
          8.48278761e-001, 1.78849578e-001, 3.03690195e-001 ]
      - [ 2.85429627e-001, 6.35638893e-001, 5.60316086e-001,
          3.78758848e-001, 5.15396297e-001, 5.14077723e-001,
          6.11726880e-001, 5.60316086e-001, 3.22322547e-001 ]
      - [ 6.61850929e-001, 3.26640189e-001, 5.74818790e-001,
          4.71444815e-001, 4.95203316e-001, 2.83236027e-001,
          6.19700789e-001, 5.74818790e-001, 5.10109365e-001 ]
      - [ 6.04858816e-001, 3.73882234e-001, 3.32733601e-001,
          4.35924888e-001, 4.47511047e-001, 5.10107636e-001,
          6.55207992e-001, 3.32733601e-001, 4.86674041e-001 ]
      - [ 5.77625930e-001, 4.43928152e-001, 5.22526562e-001,
          6.43393219e-001, 3.04435194e-001, 4.81981337e-001,
          4.43794936e-001, 5.22526562e-001, 6.11408293e-001 ]
      - [ 3.23240787e-001, 5.78799963e-001, 3.62951100e-001,
          1.61113054e-001, 7.63288379e-001, 6.12298131e-001,
          7.99937963e-001, 3.62951100e-001, 2.66347975e-001 ]
      - [ 3.71974498e-001, 6.43357873e-001, 3.56126696e-001,
          4.71680492e-001, 4.60249126e-001, 6.21905565e-001,
          5.66009283e-001, 3.56126696e-001, 6.18730068e-001 ]
      - [ 4.57793772e-001, 4.79648232e-001, 4.70726699e-001,
          2.49899730e-001, 8.36784065e-001, 4.14700776e-001,
          6.99042857e-001, 4.70726699e-001, 3.73899788e-001 ]
      - [ 3.73757124e-001, 5.39848208e-001, 2.85764992e-001,
          2.31228650e-001, 8.20762992e-001, 6.09379649e-001,
          7.09824681e-001, 2.85764992e-001, 3.02980542e-001 ]
      - [ 5.42626500e-001, 4.81639355e-001, 4.44984585e-001,
          7.07133472e-001, 1.54191419e-001, 3.43571216e-001,
          3.80645722e-001, 4.44984585e-001, 6.23902440e-001 ]
      - [ 2.65145659e-001, 6.59495115e-001, 4.34566528e-001,
          4.53814268e-001, 4.83474374e-001, 5.86630523e-001,
          5.37652433e-001, 4.34566528e-001, 3.32871586e-001 ]
      - [ 5.92641711e-001, 4.12561774e-001, 1.99126288e-001,
          4.34351176e-001, 5.55575430e-001, 6.94717765e-001,
          6.49564266e-001, 1.99126288e-001, 5.62307537e-001 ]
      - [ 3.89838278e-001, 5.30818462e-001, 5.71823537e-001,
          4.55289781e-001, 3.54936630e-001, 4.31510329e-001,
          6.02675974e-001, 5.71823537e-001, 3.24185610e-001 ]
      - [ 4.07368422e-001, 6.28456771e-001, 7.04630136e-001,
          7.34180033e-001, 2.15756863e-001, 2.23541379e-001,
          2.89478362e-001, 7.04630136e-001, 6.80581987e-001 ]
      - [ 5.38541079e-001, 4.07528549e-001, 3.72465819e-001,
          4.27053928e-001, 5.70241451e-001, 4.61374253e-001,
          5.94841003e-001, 3.72465819e-001, 3.97966117e-001 ]
      - [ 3.43480527e-001, 6.11783981e-001, 3.21465164e-001,
          3.40776533e-001, 5.57722628e-001, 6.30761087e-001,
          6.67623103e-001, 3.21465164e-001, 4.28758770e-001 ]
      - [ 4.38443571e-001, 5.85524201e-001, 3.53249401e-001,
          5.22875786e-001, 5.20713747e-001, 5.51741540e-001,
          4.84630495e-001, 3.53249401e-001, 6.37264907e-001 ]
      - [ 3.54862124e-001, 6.29514575e-001, 3.11444014e-001,
          4.18565005e-001, 6.51280463e-001, 5.28551102e-001,
          5.61684132e-001, 3.11444014e-001, 5.20155549e-001 ]
      - [ 2.90652186e-001, 6.42003298e-001, 1.60549834e-001,
          2.63711452e-001, 8.14795613e-001, 7.73957133e-001,
          6.38586044e-001, 1.60549834e-001, 3.58513504e-001 ]
      - [ 5.80513358e-001, 3.75464022e-001, 1.57137871e-001,
          4.93433863e-001, 4.71504182e-001, 7.20815539e-001,
          5.94063103e-001, 1.57137871e-001, 4.24633890e-001 ]
      - [ 3.11944008e-001, 7.31430471e-001, 6.04841352e-001,
          6.98223412e-001, 2.92290002e-001, 4.29441929e-001,
          2.97855735e-001, 6.04841352e-001, 7.24499822e-001 ]
      - [ 3.69679153e-001, 5.38749754e-001, 2.38083124e-001,
          4.14808095e-001, 5.62166393e-001, 6.06273890e-001,
          5.71213841e-001, 2.38083124e-001, 2.87709504e-001 ]
      - [ 4.80169863e-001, 4.72682297e-001, 3.07897478e-001,
          3.80626261e-001, 5.86200655e-001, 5.06488144e-001,
          6.35707796e-001, 3.07897478e-001, 4.18059558e-001 ]
      - [ 4.52584743e-001, 5.60178399e-001, 3.54968458e-001,
          5.16502738e-001, 4.96546954e-001, 5.35147548e-001,
          5.17840922e-001, 3.54968458e-001, 5.99966109e-001 ]
      - [ 5.36468387e-001, 3.52448165e-001, 4.80635196e-001,
          2.65052468e-001, 5.94572902e-001, 5.36323071e-001,
          8.02603006e-001, 4.80635196e-001, 2.43352950e-001 ]
      - [ 4.09142464e-001, 5.04690707e-001, 3.50837797e-001,
          1.73493803e-001, 8.97551417e-001, 5.56422830e-001,
          7.56907701e-001, 3.50837797e-001, 3.05046111e-001 ]
      - [ 5.68716466e-001, 3.46891791e-001, 2.72485852e-001,
          2.11090997e-001, 7.00376928e-001, 6.65633917e-001,
          8.68816197e-001, 2.72485852e-001, 3.15474957e-001 ]
      - [ 4.05512124e-001, 5.20628452e-001, 4.29552823e-001,
          4.72116560e-001, 3.76094133e-001, 5.73918521e-001,
          5.78214586e-001, 4.29552823e-001, 3.40602636e-001 ]
      - [ 4.22723472e-001, 6.41842365e-001, 5.01540482e-001,
          5.89933693e-001, 5.40804803e-001, 3.23851734e-001,
          3.92580390e-001, 5.01540482e-001, 7.73288786e-001 ]
      - [ 5.94610691e-001, 3.98351222e-001, 3.06440234e-001,
          6.27951622e-001, 2.36884490e-001, 4.95475471e-001,
          4.63537812e-001, 3.06440234e-001, 5.27209222e-001 ]
      - [ 4.79068547e-001, 4.59960997e-001, 2.04267636e-001,
          3.00941616e-001, 7.34170675e-001, 6.53269410e-001,
          6.86419010e-001, 2.04267636e-001, 3.78451645e-001 ]
      - [ 3.79141867e-001, 5.69101095e-001, 3.61330390e-001,
          3.13408345e-001, 6.30150795e-001, 5.77693641e-001,
          6.97205305e-001, 3.61330390e-001, 4.06353503e-001 ]
      - [ 3.28201771e-001, 6.60646558e-001, 2.58122981e-001,
          4.15553480e-001, 6.41048551e-001, 7.08115458e-001,
          5.48698187e-001, 2.58122981e-001, 5.36918581e-001 ]
      - [ 2.91721702e-001, 6.41068935e-001, 5.10796547e-001,
          4.99857455e-001, 3.52187783e-001, 4.81211245e-001,
          5.12303770e-001, 5.10796547e-001, 3.58945072e-001 ]
      - [ 3.95091116e-001, 5.52991986e-001, 4.67047364e-001,
          5.92616856e-001, 3.79702598e-001, 4.99131382e-001,
          4.42357481e-001, 4.67047364e-001, 4.05582309e-001 ]
      - [ 4.17730808e-001, 5.83362997e-001, 6.22437537e-001,
          6.50647700e-001, 3.30245316e-001, 4.25017715e-001,
          3.90025824e-001, 6.22437537e-001, 5.67298710e-001 ]
      - [ 4.30002362e-001, 6.53308749e-001, 5.13980210e-001,
          7.21313715e-001, 4.13086772e-001, 3.72196257e-001,
          2.75757521e-001, 5.13980210e-001, 8.35207880e-001 ]
      - [ 4.57735837e-001, 5.81253409e-001, 6.19924247e-001,
          6.92084312e-001, 3.35900486e-001, 3.55460435e-001,
          3.47970456e-001, 6.19924247e-001, 6.82211876e-001 ]
      - [ 2.97635823e-001, 7.48790443e-001, 6.50624812e-001,
          7.25489020e-001, 3.32054615e-001, 3.21883023e-001,
          2.69661278e-001, 6.50624812e-001, 7.38398731e-001 ]
      - [ 4.78870779e-001, 5.12552142e-001, 5.07036567e-001,
          6.08367801e-001, 3.66045028e-001, 4.83554542e-001,
          4.59329307e-001, 5.07036567e-001, 5.31794012e-001 ]
      - [ 4.76444691e-001, 5.03769457e-001, 5.99675238e-001,
          5.96683443e-001, 3.22957158e-001, 4.68768716e-001,
          4.88811105e-001, 5.99675238e-001, 4.98446554e-001 ]
      - [ 6.51717424e-001, 3.96690130e-001, 3.50572646e-001,
          6.31349981e-001, 3.85102779e-001, 5.34041345e-001,
          4.82270688e-001, 3.50572646e-001, 6.79830551e-001 ]
      - [ 3.37512553e-001, 6.51922047e-001, 3.83228689e-001,
          6.15228117e-001, 3.86506766e-001, 5.51709890e-001,
          3.96474183e-001, 3.83228689e-001, 5.37932873e-001 ]
      - [ 2.50488222e-001, 7.12529778e-001, 6.66879117e-001,
          6.32453859e-001, 3.76227438e-001, 2.63864219e-001,
          3.52895409e-001, 6.66879117e-001, 4.57215399e-001 ]
      - [ 6.07515514e-001, 4.44449037e-001, 5.54445028e-001,
          6.86703086e-001, 2.88403362e-001, 3.65769863e-001,
          4.42074597e-001, 5.54445028e-001, 6.97301149e-001 ]
      - [ 7.08724856e-001, 2.63993561e-001, 4.07185972e-001,
          5.13477743e-001, 3.55106980e-001, 5.67891538e-001,
          6.68968439e-001, 4.07185972e-001, 4.65381205e-001 ]
      - [ 3.49483043e-001, 6.63300276e-001, 4.89863425e-001,
          6.60471261e-001, 3.91209781e-001, 4.40002352e-001,
          3.44568819e-001, 4.89863425e-001, 6.13313854e-001 ]
      - [ 6.63867891e-001, 3.85201246e-001, 5.50271213e-001,
          6.68676376e-001, 2.41193503e-001, 4.60385889e-001,
          5.06016135e-001, 5.50271213e-001, 6.79903388e-001 ]
      - [ 4.07061398e-001, 6.30085826e-001, 5.35767436e-001,
          6.64717972e-001, 3.30844015e-001, 4.81079221e-001,
          3.88730139e-001, 5.35767436e-001, 6.84948027e-001 ]
      - [ 3.14086020e-001, 6.75246119e-001, 6.16044044e-001,
          7.09253907e-001, 2.79768974e-001, 3.52292299e-001,
          3.07295561e-001, 6.16044044e-001, 5.39816201e-001 ]
      - [ 6.15053535e-001, 2.35783979e-001, 3.40775132e-001,
          2.27741033e-001, 5.66636145e-001, 1., 8.84381294e-001,
          3.40775132e-001, 1.53523818e-001 ]
      - [ 2.87004203e-001, 7.13451505e-001, 7.48733163e-001,
          6.92673922e-001, 3.01185101e-001, 3.14718813e-001,
          3.04667354e-001, 7.48733163e-001, 5.80018818e-001 ]
      - [ 1.43864989e-001, 9.10926402e-001, 5.54397225e-001,
          7.53233254e-001, 3.65079671e-001, 3.91057640e-001,
          1.51602969e-001, 5.54397225e-001, 8.09325218e-001 ]
      - [ 8.53193879e-001, 2.18592361e-001, 3.88676107e-001,
          6.15939736e-001, 3.70174557e-001, 4.98244613e-001,
          5.75319111e-001, 3.88676107e-001, 7.14059234e-001 ]
      - [ 6.42678976e-001, 3.91314596e-001, 5.35977781e-001,
          5.90802133e-001, 3.58972400e-001, 5.34124851e-001,
          5.29233217e-001, 5.35977781e-001, 6.39399290e-001 ]
      - [ 2.10767567e-001, 7.56886005e-001, 4.11681592e-001,
          5.92042089e-001, 3.85746926e-001, 5.44254541e-001,
          3.79446000e-001, 4.11681592e-001, 4.74996954e-001 ]
      - [ 8.58579725e-002, 8.66538823e-001, 5.83413064e-001,
          6.06836200e-001, 3.81190509e-001, 4.65568751e-001,
          3.25209856e-001, 5.83413064e-001, 4.26943600e-001 ]
      - [ 4.00179565e-001, 6.91661656e-001, 5.90137243e-001,
          6.98695123e-001, 5.36526203e-001, 2.21390367e-001,
          2.53769219e-001, 5.90137243e-001, 8.73211920e-001 ]
      - [ 4.92697269e-001, 5.14497042e-001, 6.37818813e-001,
          7.04460979e-001, 3.00023884e-001, 3.02534759e-001,
          3.61352593e-001, 6.37818813e-001, 5.78179002e-001 ]
      - [ 6.83449924e-001, 4.00091946e-001, 6.39750957e-001,
          6.84209168e-001, 2.79224277e-001, 3.54071915e-001,
          4.65081811e-001, 6.39750957e-001, 7.77329683e-001 ]
      - [ 4.32969689e-001, 5.57108343e-001, 6.09623849e-001,
          7.18080342e-001, 3.11547250e-001, 3.10356230e-001,
          3.13588768e-001, 6.09623849e-001, 5.31548381e-001 ]
      - [ 5.01464844e-001, 6.01375341e-001, 5.29433548e-001,
          7.21303403e-001, 2.99217194e-001, 3.60530674e-001,
          3.57815921e-001, 5.29433548e-001, 8.81860793e-001 ]
      - [ 4.85956788e-001, 5.48852026e-001, 4.19949770e-001,
          6.56278133e-001, 4.21370149e-001, 4.06832188e-001,
          3.67610663e-001, 4.19949770e-001, 6.64318204e-001 ]
      - [ 4.38846856e-001, 5.96411407e-001, 3.33417863e-001,
          6.45034552e-001, 3.80776465e-001, 4.82818663e-001,
          4.02959883e-001, 3.33417863e-001, 6.73311472e-001 ]
      - [ 5.65813720e-001, 4.28187996e-001, 2.81904727e-001,
          4.87689286e-001, 5.70369422e-001, 5.92209578e-001,
          5.78603506e-001, 2.81904727e-001, 5.32314479e-001 ]
      - [ 4.55561012e-001, 5.48063219e-001, 3.87023330e-001,
          5.95943213e-001, 5.35462201e-001, 4.74837571e-001,
          4.02211607e-001, 3.87023330e-001, 5.71153104e-001 ]
      - [ 7.71520257e-001, 2.47883826e-001, 2.88162768e-001,
          4.33461308e-001, 6.63803041e-001, 5.72149813e-001,
          6.75289035e-001, 2.88162768e-001, 5.84376097e-001 ]
      - [ 4.68620718e-001, 5.19091904e-001, 2.76527882e-001,
          5.86524189e-001, 4.60692137e-001, 5.99979579e-001,
          4.41244841e-001, 2.76527882e-001, 5.21401048e-001 ]
      - [ 2.80571878e-001, 6.32184982e-001, 4.56555367e-001,
          4.71977115e-001, 5.54734707e-001, 4.76142168e-001,
          5.12028694e-001, 4.56555367e-001, 2.96351552e-001 ]
      - [ 4.73081499e-001, 4.70793754e-001, 1.72614411e-001,
          4.07835901e-001, 6.77674532e-001, 7.03642488e-001,
          6.06710911e-001, 1.72614411e-001, 3.92283052e-001 ]
      - [ 3.90321553e-001, 6.13284111e-001, 3.99122149e-001,
          6.20802402e-001, 4.33170110e-001, 3.76280576e-001,
          3.78560990e-001, 3.99122149e-001, 5.78239143e-001 ]
      - [ 6.15807414e-001, 4.17144150e-001, 1.45946532e-001,
          4.69568014e-001, 7.24034727e-001, 6.34617448e-001,
          5.54601908e-001, 1.45946532e-001, 6.39901936e-001 ]
      - [ 3.14116329e-001, 7.24967480e-001, 3.63805413e-001,
          6.07245326e-001, 4.23307002e-001, 5.43143511e-001,
          3.87808859e-001, 3.63805413e-001, 7.08917856e-001 ]
      - [ 4.58484828e-001, 4.60220128e-001, 3.17558229e-001,
          4.13327098e-001, 5.53866923e-001, 6.34188890e-001,
          6.33211851e-001, 3.17558229e-001, 3.20546657e-001 ]
      - [ 1., 0., 3.60257953e-001, 5.34857810e-001, 3.65517497e-001,
          5.24748802e-001, 7.07587600e-001, 3.60257953e-001,
          5.18248320e-001 ]
      - [ 4.61856753e-001, 5.25835335e-001, 3.84431362e-001,
          6.11711264e-001, 3.34694892e-001, 5.31210124e-001,
          4.52572376e-001, 3.84431362e-001, 5.21879911e-001 ]
      - [ 5.75032830e-001, 3.54550064e-001, 5.02617240e-001,
          4.82970595e-001, 5.09912789e-001, 4.42276776e-001,
          6.01224601e-001, 5.02617240e-001, 3.52864861e-001 ]
      - [ 5.64225972e-001, 4.56775099e-001, 4.38693494e-001,
          6.06451511e-001, 3.97839874e-001, 5.22307336e-001,
          4.63865370e-001, 4.38693494e-001, 6.11334264e-001 ]
      - [ 6.32783175e-001, 3.70138615e-001, 4.58967537e-001,
          6.48861289e-001, 2.57421702e-001, 4.56413627e-001,
          4.95932400e-001, 4.58967537e-001, 5.52112281e-001 ]
      - [ 6.46915615e-001, 3.38151067e-001, 3.25901657e-001,
          5.48178315e-001, 3.96100909e-001, 4.83223766e-001,
          5.74680150e-001, 3.25901657e-001, 5.01575649e-001 ]
      - [ 2.44043052e-001, 7.55138636e-001, 3.37490171e-001,
          5.76280594e-001, 5.81222117e-001, 4.92430657e-001,
          3.59631121e-001, 3.37490171e-001, 5.80842853e-001 ]
      - [ 5.68168879e-001, 2.54814565e-001, 3.07079200e-002,
          1.43917426e-001, 7.08066702e-001, 8.75327706e-001,
          9.43542957e-001, 3.07079200e-002, 7.98258632e-002 ]
      - [ 5.66191792e-001, 3.92599434e-001, 5.68917990e-001,
          4.86429989e-001, 4.82115656e-001, 3.65852594e-001,
          6.22164428e-001, 5.68917990e-001, 4.32715476e-001 ]
      - [ 4.16037142e-001, 5.65395176e-001, 6.27414644e-001,
          6.72054887e-001, 1.54893383e-001, 3.53328407e-001,
          4.01305407e-001, 6.27414644e-001, 5.06184220e-001 ]
      - [ 3.59674901e-001, 6.49759352e-001, 4.95790809e-001,
          6.90801322e-001, 3.42978835e-001, 4.09540445e-001,
          3.09242457e-001, 4.95790809e-001, 6.00872397e-001 ]
      - [ 2.66795903e-001, 6.51682019e-001, 2.21694455e-001,
          3.65911037e-001, 6.58528447e-001, 6.08350515e-001,
          5.89890897e-001, 2.21694455e-001, 3.13516676e-001 ]
      - [ 6.14396214e-001, 4.01782423e-001, 4.92937058e-001,
          6.81876600e-001, 3.27480435e-001, 3.90310585e-001,
          4.10341233e-001, 4.92937058e-001, 5.91515839e-001 ]
      - [ 4.51075763e-001, 5.28651118e-001, 3.28579336e-001,
          5.15914142e-001, 4.90596592e-001, 5.68391025e-001,
          5.10152698e-001, 3.28579336e-001, 4.98594999e-001 ]
      - [ 5.64236939e-001, 4.22849029e-001, 2.78968543e-001,
          4.18080300e-001, 5.75302243e-001, 5.51444411e-001,
          6.67365313e-001, 2.78968543e-001, 5.12588382e-001 ]
      - [ 2.89231509e-001, 6.94696069e-001, 6.24520361e-001,
          6.79802358e-001, 1.42021626e-001, 3.53876173e-001,
          3.61887157e-001, 6.24520361e-001, 5.24103761e-001 ]
   decision_functions:
      -
         sv_count: 31
         rho: 8.0244306064419710e+000
         alpha: [ 3.1250000000000000e+002, 3.2840869313894572e+001,
             3.1250000000000000e+002, 3.1250000000000000e+002,
             6.9378363854765510e+001, 3.1250000000000000e+002,
             5.7149850191445594e+001, 3.1250000000000000e+002,
             3.1250000000000000e+002, 3.1250000000000000e+002,
             2.2181311287651758e+002, 1.6248222316788031e+002,
             1.5510833713876772e+002, 3.1250000000000000e+002,
             -3.1250000000000000e+002, -1.2478465923038296e+002,
             -3.1250000000000000e+002, -9.6873782095469210e+001,
             -3.1250000000000000e+002, -3.1250000000000000e+002,
             -9.5583700079827068e+001, -3.1250000000000000e+002,
             -1.1301986999755000e+002, -2.2121416942981700e+001,
             -1.1858180099648692e+002, -8.0379723666211120e+001,
             -1.8263165486053563e+002, -3.1250000000000000e+002,
             -7.5690488270889048e+001, -1.0160566040293752e+002,
             -3.1250000000000000e+002 ]
         index: [ 0, 3, 4, 5, 6, 7, 8, 9, 11, 14, 16, 18, 19, 20, 22, 25,
             26, 28, 29, 30, 33, 35, 36, 41, 44, 46, 50, 51, 53, 55, 57 ]
      -
         sv_count: 18
         rho: -3.5937145266724495e+000
         alpha: [ 3.0622250629868276e+001, 3.1250000000000000e+002,
             3.1250000000000000e+002, 1.3540184971265340e+001,
             2.8158219726555512e+001, 1.9995506639071289e+002,
             5.5397077322344174e+001, 7.3615995870879289e+001,
             1.5194354348008463e+002, 2.7252180167683491e+002,
             -3.1250000000000000e+002, -8.4320455042250956e+001,
             -3.1250000000000000e+002, -7.0126618220502195e+001,
             -3.1250000000000000e+002, -3.1250000000000000e+002,
             -1.4107623571383408e+001, -3.2199443234408172e+001 ]
         index: [ 0, 2, 4, 5, 7, 8, 9, 11, 13, 18, 65, 69, 71, 73, 78,
             80, 82, 85 ]
      -
         sv_count: 13
         rho: 1.4390784885031960e+000
         alpha: [ 1.0642093716669597e+001, 2.6802410589255663e+002,
             1.3423000683190776e+002, 4.3191060079883570e+001,
             3.1250000000000000e+002, 2.5138490887663266e+001,
             3.5867429856999258e+000, 7.6871187457137935e+001,
             -6.9257862815906066e+001, -3.0783577116913830e+002,
             -4.3232539081226292e+001, -1.4135751478524713e+002,
             -3.1250000000000000e+002 ]
         index: [ 0, 4, 7, 9, 11, 12, 19, 20, 87, 93, 98, 110, 112 ]
      -
         sv_count: 18
         rho: 1.7255016951563105e+000
         alpha: [ 3.1250000000000000e+002, 7.3464725894615057e+000,
             3.1250000000000000e+002, 1.8065492632621476e+002,
             2.7296952147879819e+002, 3.1250000000000000e+002,
             9.4709362006545106e+001, 3.6992094523120834e+001,
             1.6165122017953092e+002, -1.1350561672689821e+001,
             -1.0925681189880382e+002, -3.9756569622085340e+000,
             -3.1250000000000000e+002, -2.6048258499025485e+002,
             -3.1250000000000000e+002, -5.6757981579714311e+001,
             -3.1250000000000000e+002, -3.1250000000000000e+002 ]
         index: [ 0, 3, 4, 7, 9, 11, 14, 18, 20, 119, 122, 125, 128, 131,
             132, 133, 135, 143 ]
      -
         sv_count: 28
         rho: -8.1482151443135287e+000
         alpha: [ 1.1581367259929736e+002, 3.1250000000000000e+002,
             2.8841262280759020e+002, 3.1250000000000000e+002,
             2.5646861961775221e+002, 8.6680973098151640e+001,
             6.7729834950571748e+000, 3.1205967996235569e+002,
             3.1250000000000000e+002, 7.8440959556013539e+001,
             3.3624390100097408e+001, 3.1250000000000000e+002,
             2.8161113458775378e-001, -3.1250000000000000e+002,
             -1.5629954184736834e+001, -6.6103033557051887e+001,
             -3.1250000000000000e+002, -2.0018586326468994e+002,
             -2.7599418297656989e+001, -3.1250000000000000e+002,
             -1.1310640693279355e+000, -3.1250000000000000e+002,
             -3.1250000000000000e+002, -1.1160217865322861e+002,
             -3.1250000000000000e+002, -3.2884618485514068e+001,
             -7.4678343461693842e+001, -2.3741038397002871e+001 ]
         index: [ 1, 4, 5, 7, 9, 10, 11, 12, 15, 17, 18, 19, 20, 150,
             151, 152, 153, 158, 163, 164, 165, 166, 167, 170, 171, 172,
             174, 176 ]
      -
         sv_count: 11
         rho: -8.0486284896357463e-001
         alpha: [ 9.0571870675297490e+001, 5.9881389358944524e+001,
             3.2929794539969365e+001, 1.0112771377100087e+002,
             9.2136080749723817e+001, 1.8368957744158374e+000,
             -2.9489492833894349e+001, -2.8454301774129441e+001,
             -1.8180493154106588e+002, -3.7278849842414772e+001,
             -1.0145616887784736e+002 ]
         index: [ 0, 4, 11, 12, 16, 19, 183, 186, 195, 197, 204 ]
      -
         sv_count: 32
         rho: -3.5438256968064397e+000
         alpha: [ 3.1250000000000000e+002, 3.1250000000000000e+002,
             2.5566524630259505e+002, 1.5043372631830579e-001,
             3.1250000000000000e+002, 3.1250000000000000e+002,
             2.8932000236534083e+000, 3.1250000000000000e+002,
             3.1250000000000000e+002, 3.1250000000000000e+002,
             3.0892349562313765e+001, 3.1250000000000000e+002,
             3.1250000000000000e+002, 3.5044259572555575e-001,
             3.0608694917953682e+002, 2.7508287177795910e+002,
             -6.5057971652176278e+001, -2.2879551799080022e+002,
             -3.1250000000000000e+002, -3.1250000000000000e+002,
             -4.8265379692830209e+001, -3.1250000000000000e+002,
             -3.1250000000000000e+002, -3.1250000000000000e+002,
             -3.1250000000000000e+002, -3.1250000000000000e+002,
             -3.1250000000000000e+002, -1.3764778809197961e+002,
             -5.1648717566700178e+001, -3.1250000000000000e+002,
             -2.7206118173615664e+001, -3.1250000000000000e+002 ]
         index: [ 21, 22, 23, 24, 25, 27, 29, 32, 38, 41, 42, 43, 45, 50,
             53, 54, 59, 61, 62, 63, 65, 69, 71, 74, 76, 77, 78, 79, 80,
             82, 83, 84 ]
      -
         sv_count: 42
         rho: 2.3281540708522779e+000
         alpha: [ 6.5787419898898008e+001, 5.2702457873664358e+001,
             2.4476522582086042e+002, 3.1250000000000000e+002,
             2.3554129057043813e+001, 1.4984208591012685e+002,
             3.1250000000000000e+002, 2.6092552576184255e+002,
             2.1870649888920699e+000, 9.8527055152681541e+001,
             2.7742299931191337e+002, 1.1926260143655654e+000,
             1.7878668141871870e+002, 2.6547934431235535e+002,
             9.4628790223506272e+001, 3.1250000000000000e+002,
             3.5842629525988471e+001, 3.1250000000000000e+002,
             9.2393550684389538e+001, 1.3812996857073426e+002,
             2.7886058715194963e+002, -9.7827197091872250e+001,
             -9.0221712596008317e+001, -3.1250000000000000e+002,
             -7.0478883523823086e+001, -4.7520249143355102e+001,
             -3.1250000000000000e+002, -1.4931839377651707e+002,
             -1.1667000869010484e+002, -1.0670861958033767e+002,
             -3.0557163456671026e+002, -5.0452412765846560e+001,
             -8.9982055105614283e+000, -2.1118282253840679e+000,
             -3.1250000000000000e+002, -3.1250000000000000e+002,
             -2.0942737581664775e+002, -3.1250000000000000e+002,
             -5.3065957548427271e+001, -9.2506178451733462e+001,
             -2.5675816709691816e+002, -2.9089131729368358e+002 ]
         index: [ 21, 22, 23, 24, 25, 27, 32, 33, 34, 37, 39, 42, 43, 47,
             48, 49, 52, 54, 55, 56, 57, 86, 87, 88, 90, 91, 93, 94, 95,
             96, 98, 100, 102, 103, 106, 107, 110, 112, 113, 114, 116,
             117 ]
      -
         sv_count: 50
         rho: 1.3458789685875137e+000
         alpha: [ 3.1250000000000000e+002, 2.1875790571918918e+002,
             2.7599399268650220e+001, 1.7221327047741602e+002,
             3.5535153892687440e+001, 1.6682309334469387e+001,
             3.8171488078671004e+001, 3.0285221218739787e+002,
             3.1250000000000000e+002, 3.9254369151250479e+001,
             1.6230734752303781e+002, 6.5102128715038063e+001,
             9.2897852230899190e+001, 8.6818681214983044e+000,
             1.1394907634845171e+002, 1.8517590418915211e+002,
             8.1416856917228380e+000, 3.6721931005761419e+001,
             3.1250000000000000e+002, 3.1250000000000000e+002,
             2.6239134739487395e+002, 3.1250000000000000e+002,
             1.9268500299696311e+002, 3.0436910290874476e+002,
             3.1250000000000000e+002, 3.1250000000000000e+002,
             3.1250000000000000e+002, 4.2998814996263320e+001,
             -3.1250000000000000e+002, -1.1054205715395547e+001,
             -3.1121380283413248e+002, -3.1250000000000000e+002,
             -1.2262289595394290e+002, -1.2484298565843946e+002,
             -2.8367211117527791e+002, -1.5447904336469176e+002,
             -3.1250000000000000e+002, -7.5395246851260580e+001,
             -3.1250000000000000e+002, -3.1250000000000000e+002,
             -2.2203245021416205e+002, -3.1250000000000000e+002,
             -3.1250000000000000e+002, -3.1250000000000000e+002,
             -6.8308061895600474e+001, -2.9103901757923012e+002,
             -3.1250000000000000e+002, -1.5527123895247539e+002,
             -1.4061078262490017e+002, -5.3446327412629763e+001 ]
         index: [ 21, 22, 23, 25, 27, 31, 32, 33, 34, 36, 37, 38, 39, 40,
             41, 42, 43, 45, 46, 47, 48, 49, 50, 52, 54, 55, 56, 57, 119,
             120, 121, 122, 123, 124, 126, 127, 128, 130, 131, 132, 133,
             135, 137, 138, 139, 140, 143, 146, 147, 148 ]
      -
         sv_count: 35
         rho: 2.8645184283401242e+000
         alpha: [ 1.1457946840506219e+001, 3.8655760234198453e+001,
             3.1250000000000000e+002, 3.1250000000000000e+002,
             1.1480264634058864e+002, 3.1250000000000000e+002,
             3.1250000000000000e+002, 6.1887597777298913e+000,
             3.1250000000000000e+002, 3.1250000000000000e+002,
             5.7977028877441853e+001, 1.9037722175611467e+001,
             3.1250000000000000e+002, 3.1250000000000000e+002,
             2.5527996839094314e+002, 9.3098009501478799e+001,
             3.0089882477020780e+002, -3.1250000000000000e+002,
             -3.1250000000000000e+002, -3.1250000000000000e+002,
             -1.5104008671733831e+002, -2.5260552270114948e+002,
             -5.2147230613700714e+001, -3.1250000000000000e+002,
             -3.1250000000000000e+002, -1.7268558883914133e+002,
             -1.2120355524146302e+002, -4.4164492955470740e+000,
             -2.3947980498775223e+002, -1.5471824738238791e+001,
             -1.9026553544653027e+002, -3.7010268315257221e+001,
             -2.7181791344344997e+001, -2.5888900866824343e+002,
             -3.1250000000000000e+002 ]
         index: [ 22, 23, 26, 27, 29, 31, 32, 33, 41, 42, 45, 47, 50, 51,
             53, 54, 56, 151, 152, 153, 155, 156, 157, 158, 159, 160,
             163, 165, 167, 169, 170, 172, 173, 174, 176 ]
      -
         sv_count: 23
         rho: -7.7032765319419350e-001
         alpha: [ 1.1468029978133664e+001, 2.3990868653154669e+002,
             3.0095463696645897e+001, 6.2477702173212670e+001,
             3.7425947923436183e+001, 2.3354064119640432e+002,
             2.1126455655096893e+002, 2.0501502069122117e+002,
             2.8830404204856114e+002, 7.8216566650375484e+001,
             2.5595936202152893e+002, 7.8273804467438055e+001,
             3.0756364578973330e+002, -2.0683604669846960e+002,
             -3.1250000000000000e+002, -6.5357690392411229e+001,
             -3.1250000000000000e+002, -2.2820623665331535e+001,
             -6.2770066137369753e+001, -2.3171702976471713e+002,
             -3.1250000000000000e+002, -3.1250000000000000e+002,
             -2.0001201306090672e+002 ]
         index: [ 21, 23, 24, 25, 27, 32, 33, 35, 39, 42, 47, 51, 54,
             181, 187, 189, 192, 195, 196, 197, 200, 203, 204 ]
      -
         sv_count: 28
         rho: 2.8300900888688330e-001
         alpha: [ 1.3179446211302238e+002, 3.1250000000000000e+002,
             3.1250000000000000e+002, 3.1250000000000000e+002,
             1.3444239481860112e+002, 3.1250000000000000e+002,
             2.7442766539849817e+001, 3.1250000000000000e+002,
             2.5068162831047641e+002, 1.7651940129675936e+002,
             1.5599200739537201e+002, 1.3861833016155020e+002,
             1.6324295924006019e+001, 1.0517634133637627e+002,
             -3.1250000000000000e+002, -2.1588585440814548e+001,
             -4.7708372437699005e+001, -3.1250000000000000e+002,
             -3.1250000000000000e+002, -3.1250000000000000e+002,
             -1.3376881367261302e+002, -1.9426417401689261e+002,
             -3.1250000000000000e+002, -3.7293110829576115e+000,
             -2.7321298481184357e+002, -3.1250000000000000e+002,
             -9.1581522102187485e-001, -1.4930357121217125e+002 ]
         index: [ 58, 59, 60, 61, 62, 66, 68, 70, 71, 74, 75, 81, 82, 84,
             87, 88, 91, 92, 93, 99, 100, 101, 104, 108, 111, 112, 114,
             117 ]
      -
         sv_count: 26
         rho: 5.7395999432941371e+000
         alpha: [ 1.1010763105189902e+001, 2.2748950851753170e+002,
             6.4638355621994364e+001, 5.8347494847090587e+001,
             1.3794034054677615e+001, 1.1554073327709013e+001,
             3.1250000000000000e+002, 4.2552900032923034e+001,
             1.3807333821172037e+002, 3.1250000000000000e+002,
             1.7109432874301479e+001, 8.3936487918566669e+001,
             1.3170354410133530e+002, 3.1250000000000000e+002,
             3.1250000000000000e+002, 8.1839769068220804e+001,
             -3.1250000000000000e+002, -6.0722784689242587e+001,
             -3.1250000000000000e+002, -2.6584413873619536e+002,
             -3.1250000000000000e+002, -3.1250000000000000e+002,
             -1.1199566262245030e+002, -2.4889368334470049e+002,
             -1.5140546875234500e+002, -4.3187963536327182e+001 ]
         index: [ 58, 60, 61, 62, 64, 67, 68, 69, 70, 71, 72, 73, 74, 77,
             82, 85, 119, 121, 124, 127, 128, 135, 138, 143, 144, 148 ]
      -
         sv_count: 26
         rho: 5.8827201053912759e-001
         alpha: [ 2.3901385841896001e+002, 1.7820235736503952e+002,
             3.1250000000000000e+002, 5.9680047104094562e+001,
             3.1250000000000000e+002, 3.1250000000000000e+002,
             3.1250000000000000e+002, 3.1250000000000000e+002,
             2.8692623298843279e+002, 3.1250000000000000e+002,
             2.2172761448866581e+002, -2.4308720109170980e+002,
             -1.7211715130435547e+002, -3.1250000000000000e+002,
             -2.3683465568703401e+001, -2.5711545157825589e+002,
             -4.0532750263449401e+001, -3.1250000000000000e+002,
             -3.1250000000000000e+002, -1.2317813924823621e+002,
             -6.7061634313007730e+001, -3.1250000000000000e+002,
             -5.9630562093469504e+000, -5.2811260788127626e+001,
             -3.1250000000000000e+002, -3.1250000000000000e+002 ]
         index: [ 61, 62, 68, 69, 71, 76, 77, 78, 82, 84, 85, 153, 154,
             155, 156, 157, 158, 159, 160, 162, 163, 164, 165, 166, 173,
             176 ]
      -
         sv_count: 19
         rho: 3.9351339941228107e+000
         alpha: [ 3.1250000000000000e+002, 3.1250000000000000e+002,
             3.6121930049931599e+001, 2.9537176386995748e+002,
             1.2277624513963111e+002, 3.1250000000000000e+002,
             3.6356692299414085e+001, 3.1250000000000000e+002,
             2.9412541310273423e+002, -7.2630644496179087e+001,
             -1.8928272082299731e+002, -8.8183846676627169e+001,
             -3.1250000000000000e+002, -1.7678341293645593e+002,
             -1.1433972955810384e+001, -3.1250000000000000e+002,
             -2.6314532435959421e+002, -3.1250000000000000e+002,
             -2.9579212221400417e+002 ]
         index: [ 61, 68, 70, 71, 74, 77, 79, 82, 85, 177, 187, 189, 192,
             193, 196, 197, 198, 199, 204 ]
      -
         sv_count: 49
         rho: 4.8648246081842874e+000
         alpha: [ 8.9722770529896057e+000, 1.3853412133780805e+002,
             3.1250000000000000e+002, 3.1250000000000000e+002,
             9.3546712032900516e+001, 2.8322731549527248e+002,
             3.1250000000000000e+002, 3.1250000000000000e+002,
             7.8606544048262762e+001, 3.1250000000000000e+002,
             1.8592807570342481e+002, 3.1250000000000000e+002,
             3.1250000000000000e+002, 2.7776616267756182e+001,
             3.1250000000000000e+002, 3.1250000000000000e+002,
             3.8352420535834874e+001, 5.8988875046845976e+001,
             3.1250000000000000e+002, 3.1250000000000000e+002,
             3.1250000000000000e+002, 1.4875259376998540e+002,
             3.1250000000000000e+002, 2.5692368155748866e+001,
             2.7206683141335350e+001, -1.8967192281056256e+002,
             -4.6051082843960586e+001, -1.6402591506793635e+002,
             -3.1250000000000000e+002, -3.1250000000000000e+002,
             -1.5471374094379155e+002, -3.1250000000000000e+002,
             -3.1250000000000000e+002, -1.3088646231922226e+002,
             -3.1250000000000000e+002, -3.1250000000000000e+002,
             -1.1675716253825087e+002, -9.4099481550549754e+001,
             -2.4117474161950500e+002, -1.5040846082998121e+002,
             -3.1250000000000000e+002, -3.1250000000000000e+002,
             -1.8948465532828061e+002, -3.1250000000000000e+002,
             -3.1250000000000000e+002, -5.8459072490996064e+001,
             -3.1250000000000000e+002, -1.5233743732006639e+001,
             -1.8961816051312115e+002 ]
         index: [ 86, 87, 88, 89, 91, 92, 93, 95, 97, 98, 99, 102, 103,
             104, 105, 106, 107, 109, 110, 112, 113, 115, 116, 117, 118,
             119, 121, 122, 123, 124, 125, 126, 127, 128, 129, 132, 133,
             134, 135, 136, 137, 138, 139, 141, 143, 144, 145, 146, 148 ]
      -
         sv_count: 18
         rho: 3.1474819672629346e+000
         alpha: [ 6.7587366871993353e+001, 2.4242649932050378e+002,
             1.7489853379778353e+002, 3.1250000000000000e+002,
             9.6155793328408507e+001, 1.7406794794269857e+002,
             1.7354562293169892e+002, 1.3775786940543555e+000,
             -1.8874113530264922e+000, -8.5077493515356181e+001,
             -9.9542225583847767e+001, -1.4259923364192451e+002,
             -1.2293280452719102e+002, -2.5381779087655508e+002,
             -1.4561413761405029e+000, -1.8002765931474511e+002,
             -4.2718582698354133e+001, -3.1250000000000000e+002 ]
         index: [ 87, 88, 92, 93, 96, 101, 112, 114, 154, 156, 157, 158,
             159, 160, 165, 170, 172, 176 ]
      -
         sv_count: 29
         rho: 4.0373559071199923e+000
         alpha: [ 3.4440524428935682e+000, 3.1250000000000000e+002,
             3.1250000000000000e+002, 4.9844841692430911e+001,
             3.1250000000000000e+002, 1.5500945396584845e+002,
             1.4323253307552420e+002, 3.1250000000000000e+002,
             3.1250000000000000e+002, 1.9714117423431202e+002,
             3.8196693734904137e+001, 9.2161316071222359e+001,
             1.8146175804341939e+002, -4.7812581824620381e+001,
             -1.6161322285846353e+002, -4.8246182301192505e+001,
             -5.5423687679486470e+001, -1.8063462741790056e+002,
             -3.1250000000000000e+002, -1.7153527526194441e+001,
             -1.8092416841755559e+002, -2.0019717196580046e+002,
             -7.1507466998744647e+001, -3.1250000000000000e+002,
             -8.6073752196267577e+001, -2.0644876354291119e+002,
             -2.1818283789515530e+002, -3.1250000000000000e+002,
             -1.1273832636262908e+001 ]
         index: [ 87, 88, 89, 90, 92, 93, 97, 103, 105, 106, 112, 114,
             117, 177, 181, 183, 185, 187, 188, 191, 192, 194, 196, 197,
             198, 200, 202, 203, 204 ]
      -
         sv_count: 24
         rho: 4.9007364442827822e-001
         alpha: [ 3.1250000000000000e+002, 1.2132961432261736e+002,
             3.1250000000000000e+002, 4.2009685144900750e+000,
             3.1250000000000000e+002, 1.2889702566651986e+001,
             3.1250000000000000e+002, 1.4928607393188844e+002,
             7.5457433053408593e+001, -6.5444920012131831e+001,
             -2.5711726105095341e+001, -1.0993638730501948e+002,
             -1.4666724895460590e+002, -8.2759580297831192e+001,
             -2.3144099479053810e+002, -9.4885657448794888e+001,
             -1.4132652561360032e+002, -8.8584117766587511e+001,
             -6.0107956754102361e+000, -1.4774867433487111e+002,
             -4.7383159374276808e+001, -9.3085406910671139e+001,
             -4.3487858581460024e+001, -2.8869073921816312e+002 ]
         index: [ 119, 125, 128, 134, 135, 142, 143, 144, 148, 149, 152,
             153, 154, 155, 157, 158, 159, 160, 165, 166, 170, 172, 173,
             176 ]
      -
         sv_count: 37
         rho: -7.5332380200353333e-001
         alpha: [ 3.1250000000000000e+002, 3.1250000000000000e+002,
             1.8502708705872612e+002, 8.4131448934839767e+001,
             3.6930610435964546e+001, 3.1250000000000000e+002,
             2.7476020174767456e+002, 1.9053182361201465e+002,
             6.7197377722057219e+000, 3.1250000000000000e+002,
             2.0728304848220714e+002, 3.1250000000000000e+002,
             3.1250000000000000e+002, 1.7811035047096894e+001,
             2.2811252423021067e+001, 1.0689604214918960e+002,
             2.1589768436535891e+002, 3.6924936511455257e+001,
             3.1250000000000000e+002, -9.1291408408255876e+001,
             -5.1749583744695840e+001, -1.6753349922539923e+002,
             -2.0317564602280657e+002, -1.6658177951739066e+002,
             -3.1250000000000000e+002, -3.1250000000000000e+002,
             -1.9258090450498401e+002, -3.1250000000000000e+002,
             -1.0718658529969457e+002, -1.8988930114197902e+002,
             -5.0968491537019588e+001, -3.4609664107057228e+001,
             -2.6436838530971181e+002, -3.1250000000000000e+002,
             -3.1250000000000000e+002, -3.1250000000000000e+002,
             -1.7828965972075963e+002 ]
         index: [ 119, 124, 125, 126, 128, 129, 131, 132, 133, 134, 135,
             136, 138, 141, 142, 144, 145, 147, 148, 177, 178, 179, 183,
             184, 187, 188, 190, 192, 193, 194, 196, 197, 198, 200, 202,
             203, 204 ]
      -
         sv_count: 24
         rho: 2.8798919632111253e+000
         alpha: [ 3.1250000000000000e+002, 3.1250000000000000e+002,
             3.1250000000000000e+002, 2.6003655059776241e+002,
             3.1250000000000000e+002, 3.0663495799227013e+002,
             4.9399228042300862e+001, 2.7233698309163606e+002,
             2.9855162980640830e+002, 6.1344450473150260e+001,
             -7.6260043500456035e+001, -8.8270369050319193e+000,
             -1.9864880811383298e+002, -3.1250000000000000e+002,
             -3.3097824233891714e+001, -1.0848493503574140e+002,
             -3.1250000000000000e+002, -3.1250000000000000e+002,
             -2.3005811689425227e+002, -2.5216090951280030e+001,
             -3.5132871511221758e+001, -3.1250000000000000e+002,
             -3.1250000000000000e+002, -2.2007807285781988e+002 ]
         index: [ 149, 156, 157, 159, 160, 161, 168, 170, 175, 176, 180,
             182, 183, 187, 188, 189, 190, 192, 193, 197, 198, 199, 201,
             204 ]
