%YAML:1.0
my_svm: !!opencv-ml-svm
   svm_type: C_SVC
   kernel: { type:RBF, gamma:2. }
   C: 7.
   term_criteria: { epsilon:1.1920928955078125e-007, iterations:1000 }
   var_all: 9
   var_count: 9
   class_count: 7
   class_labels: !!opencv-matrix
      rows: 1
      cols: 7
      dt: i
      data: [ 0, 1, 2, 3, 4, 5, 6 ]
   sv_total: 235
   support_vectors:
      - [ 2.59634346e-001, 6.83080733e-001, 6.92211211e-001,
          6.26139760e-001, 2.59427696e-001, 4.40755755e-001,
          3.96398127e-001, 6.92211211e-001, 3.96611899e-001 ]
      - [ 1.12928189e-001, 8.92058790e-001, 8.09091866e-001,
          7.91037858e-001, 2.07005426e-001, 2.09243238e-001,
          1.54103726e-001, 8.09091866e-001, 6.20499074e-001 ]
      - [ 2.25486517e-001, 7.78035879e-001, 3.16977292e-001,
          4.76505458e-001, 6.30802810e-001, 4.64690447e-001,
          4.16344315e-001, 3.16977292e-001, 5.98510742e-001 ]
      - [ 7.72452056e-002, 9.80279088e-001, 8.02699268e-001,
          8.32459867e-001, 1.73903510e-001, 2.94018149e-001,
          1.02436878e-001, 8.02699268e-001, 8.32947791e-001 ]
      - [ 4.19420332e-001, 5.75051963e-001, 7.64624059e-001,
          7.32316732e-001, 2.12855518e-001, 2.68631876e-001,
          3.33860666e-001, 7.64624059e-001, 5.47249198e-001 ]
      - [ 2.49686375e-001, 7.68141806e-001, 7.79404640e-001,
          7.76231766e-001, 2.08952397e-001, 2.81745344e-001,
          2.16117918e-001, 7.79404640e-001, 6.44132733e-001 ]
      - [ 2.14287192e-001, 7.46049404e-001, 6.62564993e-001,
          6.57057703e-001, 3.27867776e-001, 4.41451102e-001,
          3.09897363e-001, 6.62564993e-001, 4.54542637e-001 ]
      - [ 3.23552072e-001, 7.10407913e-001, 6.21239901e-001,
          6.58005059e-001, 3.46461862e-001, 4.16713446e-001,
          3.32085341e-001, 6.21239901e-001, 6.86124623e-001 ]
      - [ 3.91417533e-001, 6.44873023e-001, 7.25031376e-001,
          7.35635638e-001, 1.96058899e-001, 3.50484461e-001,
          3.30045342e-001, 7.25031376e-001, 6.81744933e-001 ]
      - [ 2.21397460e-001, 7.83661008e-001, 4.36487496e-001,
          5.17592072e-001, 5.77625692e-001, 3.48509043e-001,
          3.75593126e-001, 4.36487496e-001, 6.04382753e-001 ]
      - [ 4.83340889e-001, 6.05215967e-001, 6.46972597e-001,
          7.47642815e-001, 2.49444783e-001, 4.15116698e-001,
          3.16147804e-001, 6.46972597e-001, 8.31135035e-001 ]
      - [ 2.91082293e-001, 6.51733935e-001, 2.26529717e-001,
          3.02437067e-001, 7.89702594e-001, 6.05524719e-001,
          6.10542655e-001, 2.26529717e-001, 3.96443039e-001 ]
      - [ 3.04727107e-001, 6.77615345e-001, 6.90534532e-001,
          6.73745155e-001, 2.81530827e-001, 3.88958901e-001,
          3.32263678e-001, 6.90534532e-001, 5.19762158e-001 ]
      - [ 4.43654418e-001, 6.00902259e-001, 2.92209595e-001,
          4.94936854e-001, 6.24253988e-001, 5.12576222e-001,
          4.61778522e-001, 2.92209595e-001, 6.98908031e-001 ]
      - [ 3.48472089e-001, 6.31301224e-001, 4.31963056e-001,
          4.11534309e-001, 6.66503727e-001, 4.14855063e-001,
          5.21700621e-001, 4.31963056e-001, 5.08152723e-001 ]
      - [ 2.92450607e-001, 5.97837925e-001, 5.93100488e-001,
          5.20600379e-001, 3.93422991e-001, 4.70332742e-001,
          4.86734837e-001, 5.93100488e-001, 2.39528641e-001 ]
      - [ 1.28643230e-001, 8.20193589e-001, 6.43006027e-001,
          6.78274095e-001, 2.76954114e-001, 3.74518842e-001,
          2.67505527e-001, 6.43006027e-001, 4.19414818e-001 ]
      - [ 1.37803540e-001, 8.82897496e-001, 6.40973449e-001,
          7.70316780e-001, 2.53182709e-001, 3.42678517e-001,
          1.83345586e-001, 6.40973449e-001, 6.74355865e-001 ]
      - [ 1.13123581e-001, 9.06090617e-001, 8.22946191e-001,
          7.57962406e-001, 2.60128081e-001, 2.09443137e-001,
          1.83231547e-001, 8.22946191e-001, 6.73636615e-001 ]
      - [ 2.21885324e-001, 7.11541593e-001, 6.60754979e-001,
          6.21153533e-001, 2.93725520e-001, 4.83988881e-001,
          3.74499679e-001, 6.60754979e-001, 3.67569894e-001 ]
      - [ 3.29080641e-001, 6.96993768e-001, 6.53975070e-001,
          7.55051255e-001, 2.21362293e-001, 3.16848457e-001,
          2.77410805e-001, 6.53975070e-001, 6.58904672e-001 ]
      - [ 2.56902456e-001, 7.23121345e-001, 3.97810191e-001,
          4.36924368e-001, 6.79167330e-001, 4.31188256e-001,
          4.51734811e-001, 3.97810191e-001, 5.16252100e-001 ]
      - [ 2.23760650e-001, 7.47603118e-001, 1., 7.75636315e-001,
          1.88177273e-001, 1.18346490e-001, 2.15925038e-001, 1.,
          4.90339339e-001 ]
      - [ 2.93981463e-001, 6.96940482e-001, 4.45735574e-001,
          4.56352770e-001, 6.20642841e-001, 3.75748605e-001,
          4.68812704e-001, 4.45735574e-001, 5.48339784e-001 ]
      - [ 1.92376286e-001, 8.37673485e-001, 6.75257802e-001,
          7.80556917e-001, 1.99073851e-001, 3.58496457e-001,
          1.93634748e-001, 6.75257802e-001, 6.97784662e-001 ]
      - [ 3.60624284e-001, 5.66314161e-001, 3.19104433e-001,
          2.28208348e-001, 8.49527240e-001, 5.52741170e-001,
          7.00733006e-001, 3.19104433e-001, 3.48897666e-001 ]
      - [ 5.09835720e-001, 5.88661015e-001, 5.36548615e-001,
          7.35171437e-001, 3.16889346e-001, 3.56444985e-001,
          2.91292399e-001, 5.36548615e-001, 8.56447875e-001 ]
      - [ 4.85924423e-001, 5.43592811e-001, 5.63962936e-001,
          6.30901396e-001, 3.40670645e-001, 4.42793638e-001,
          4.06008214e-001, 5.63962936e-001, 6.45612061e-001 ]
      - [ 5.26457667e-001, 3.98247004e-001, 3.59857231e-001,
          3.89382690e-001, 5.13317823e-001, 6.26532972e-001,
          6.71661437e-001, 3.59857231e-001, 3.44844013e-001 ]
      - [ 2.50274897e-001, 6.89418137e-001, 3.65255773e-001,
          2.92661667e-001, 7.79074848e-001, 5.56226015e-001,
          6.11026049e-001, 3.65255773e-001, 3.87205154e-001 ]
      - [ 3.52456242e-001, 7.21594095e-001, 5.21410823e-001,
          7.30682731e-001, 2.69679308e-001, 3.60590488e-001,
          2.78554022e-001, 5.21410823e-001, 8.16048026e-001 ]
      - [ 3.55494350e-001, 6.99046195e-001, 5.10431349e-001,
          7.15908945e-001, 3.03932130e-001, 3.82072240e-001,
          2.61911601e-001, 5.10431349e-001, 7.48868108e-001 ]
      - [ 4.25616741e-001, 6.13066614e-001, 6.23224258e-001,
          6.63838327e-001, 2.77700305e-001, 3.59494776e-001,
          3.83437753e-001, 6.23224258e-001, 6.83510184e-001 ]
      - [ 4.93477583e-001, 5.32286644e-001, 4.05467033e-001,
          4.59710240e-001, 6.06600821e-001, 3.82677495e-001,
          5.31410694e-001, 4.05467033e-001, 6.33141518e-001 ]
      - [ 3.55814099e-001, 6.47720039e-001, 3.22730511e-001,
          4.26042587e-001, 6.26207232e-001, 5.51332533e-001,
          5.24968743e-001, 3.22730511e-001, 5.82056880e-001 ]
      - [ 1.40938148e-001, 8.54915261e-001, 2.84072071e-001,
          4.53188896e-001, 6.28984213e-001, 5.35284221e-001,
          4.28396583e-001, 2.84072071e-001, 5.83011448e-001 ]
      - [ 1.27208546e-001, 8.07524204e-001, 4.28771198e-001,
          3.10840875e-001, 7.91407287e-001, 4.82409537e-001,
          5.49117923e-001, 4.28771198e-001, 3.71652573e-001 ]
      - [ 3.98716450e-001, 6.25559390e-001, 5.55366933e-001,
          6.39099956e-001, 3.17584276e-001, 4.09888923e-001,
          3.70313615e-001, 5.55366933e-001, 6.42165065e-001 ]
      - [ 4.04954195e-001, 5.98604023e-001, 1.87911600e-001,
          4.13251191e-001, 6.32200658e-001, 6.43392742e-001,
          5.48731208e-001, 1.87911600e-001, 5.76494336e-001 ]
      - [ 3.86911929e-001, 6.60068154e-001, 6.58022106e-001,
          7.19385743e-001, 3.12555790e-001, 2.41769195e-001,
          2.74774820e-001, 6.58022106e-001, 7.17311800e-001 ]
      - [ 2.80368090e-001, 7.03857720e-001, 7.16197014e-001,
          6.09138846e-001, 3.64330739e-001, 2.62892455e-001,
          3.49527389e-001, 7.16197014e-001, 5.27954817e-001 ]
      - [ 2.49065012e-001, 8.12107861e-001, 5.52509785e-001,
          7.43066430e-001, 3.00689846e-001, 3.03855598e-001,
          2.13669643e-001, 5.52509785e-001, 7.97461390e-001 ]
      - [ 2.95230329e-001, 7.78132200e-001, 7.82774091e-001,
          7.98639417e-001, 2.28861332e-001, 1.51762441e-001,
          2.01559633e-001, 7.82774091e-001, 8.28925431e-001 ]
      - [ 3.71203333e-001, 6.51515484e-001, 6.90398097e-001,
          7.05378413e-001, 2.36997962e-001, 2.75351733e-001,
          3.20467621e-001, 6.90398097e-001, 6.41296744e-001 ]
      - [ 2.80082107e-001, 6.49907470e-001, 1.77403778e-001,
          3.20349991e-001, 7.61603355e-001, 6.43042862e-001,
          5.86210012e-001, 1.77403778e-001, 3.57156217e-001 ]
      - [ 3.89278442e-001, 6.17054045e-001, 2.04708368e-001,
          4.52193886e-001, 6.33105516e-001, 5.90724468e-001,
          4.86102700e-001, 2.04708368e-001, 5.86899281e-001 ]
      - [ 4.96108681e-001, 5.35008669e-001, 3.20922792e-001,
          5.44641197e-001, 4.38271761e-001, 5.79332352e-001,
          5.03986835e-001, 3.20922792e-001, 6.48949862e-001 ]
      - [ 2.98058629e-001, 6.94421291e-001, 6.73924387e-001,
          6.07062519e-001, 3.57029915e-001, 2.86916971e-001,
          3.73749763e-001, 6.73924387e-001, 5.53025961e-001 ]
      - [ 4.90212739e-001, 5.31465530e-001, 3.02167326e-001,
          4.12587613e-001, 6.25399292e-001, 5.50154448e-001,
          5.94423056e-001, 3.02167326e-001, 6.21300399e-001 ]
      - [ 4.38717753e-001, 4.90528107e-001, 5.83308399e-001,
          3.14702868e-001, 7.11329877e-001, 3.59792471e-001,
          6.65110171e-001, 5.83308399e-001, 3.56274486e-001 ]
      - [ 3.58844727e-001, 6.38503373e-001, 5.18283665e-001,
          5.66978812e-001, 3.81153435e-001, 4.90292251e-001,
          4.35784608e-001, 5.18283665e-001, 5.62198400e-001 ]
      - [ 3.76132220e-001, 6.32518351e-001, 1.45113274e-001,
          3.97640407e-001, 6.48079395e-001, 7.00854182e-001,
          5.59192121e-001, 1.45113274e-001, 5.95785081e-001 ]
      - [ 6.72910094e-001, 3.37746829e-001, 6.05736971e-001,
          5.99238038e-001, 3.06198001e-001, 4.12488550e-001,
          5.22328556e-001, 6.05736971e-001, 5.69605112e-001 ]
      - [ 2.64451027e-001, 7.13709354e-001, 5.91734827e-001,
          5.77437401e-001, 3.38947326e-001, 4.27998334e-001,
          4.08893406e-001, 5.91734827e-001, 5.09583533e-001 ]
      - [ 1.23535842e-001, 8.72798324e-001, 5.59060872e-001,
          6.57172740e-001, 3.59816730e-001, 3.82433832e-001,
          2.58462816e-001, 5.59060872e-001, 5.87156594e-001 ]
      - [ 4.85643417e-001, 4.99353021e-001, 3.86776596e-001,
          3.87504697e-001, 6.76647604e-001, 4.62124735e-001,
          5.94470441e-001, 3.86776596e-001, 5.13600349e-001 ]
      - [ 7.14351356e-001, 3.39197606e-001, 5.07190764e-001,
          6.30089581e-001, 3.11970741e-001, 3.59789610e-001,
          5.07012367e-001, 5.07190764e-001, 6.81564987e-001 ]
      - [ 5.33553720e-001, 4.29750621e-001, 4.15105045e-001,
          3.28832716e-001, 6.63940191e-001, 4.63352710e-001,
          7.00964808e-001, 4.15105045e-001, 4.49583709e-001 ]
      - [ 3.46468717e-001, 5.88652551e-001, 5.02287924e-001,
          2.90979177e-001, 7.57095039e-001, 4.49577421e-001,
          6.57511473e-001, 5.02287924e-001, 3.72829318e-001 ]
      - [ 4.79559749e-001, 5.82721949e-001, 4.57132638e-001,
          6.74416721e-001, 2.93410391e-001, 4.85263228e-001,
          3.76453787e-001, 4.57132638e-001, 7.48024166e-001 ]
      - [ 5.60992241e-001, 5.27264476e-001, 3.33269328e-001,
          6.97806060e-001, 3.04487467e-001, 5.66965997e-001,
          3.72521162e-001, 3.33269328e-001, 8.11505497e-001 ]
      - [ 3.98010224e-001, 6.64556086e-001, 5.72296381e-001,
          7.00505912e-001, 2.57944137e-001, 3.73347104e-001,
          3.26977134e-001, 5.72296381e-001, 7.66309857e-001 ]
      - [ 4.36778665e-001, 6.77514851e-001, 6.86029971e-001,
          8.90159547e-001, 4.29213569e-002, 1.31842196e-001,
          1.48497120e-001, 6.86029971e-001, 9.30083215e-001 ]
      - [ 4.52414572e-001, 6.55984938e-001, 6.39140427e-001,
          7.80918539e-001, 2.35173479e-001, 2.41333380e-001,
          2.73771942e-001, 6.39140427e-001, 9.05214012e-001 ]
      - [ 2.45426789e-001, 7.36538053e-001, 6.90159440e-001,
          6.57999873e-001, 2.83916324e-001, 2.77076930e-001,
          3.19262952e-001, 6.90159440e-001, 5.23775041e-001 ]
      - [ 5.02671659e-001, 6.20642543e-001, 4.29855496e-001,
          7.81398892e-001, 1.59304395e-001, 3.84611666e-001,
          2.80673325e-001, 4.29855496e-001, 9.39848721e-001 ]
      - [ 6.53505504e-001, 3.96544397e-001, 4.82697457e-001,
          6.15829349e-001, 2.32847586e-001, 3.95247996e-001,
          5.17719626e-001, 4.82697457e-001, 6.81008637e-001 ]
      - [ 5.00109792e-001, 5.14002681e-001, 6.67792797e-001,
          6.78935170e-001, 2.36257404e-001, 3.13857615e-001,
          3.93851757e-001, 6.67792797e-001, 5.97582817e-001 ]
      - [ 6.26465380e-001, 4.79480445e-001, 5.34064054e-001,
          7.33988643e-001, 3.15909177e-001, 4.04400289e-001,
          3.36539835e-001, 5.34064054e-001, 8.50230277e-001 ]
      - [ 2.80523598e-001, 7.52194226e-001, 5.95430315e-001,
          7.17884004e-001, 2.83851773e-001, 3.56440812e-001,
          2.58223474e-001, 5.95430315e-001, 6.89913452e-001 ]
      - [ 3.58121663e-001, 6.42184615e-001, 5.51469326e-001,
          5.90100050e-001, 3.73997897e-001, 4.46837932e-001,
          4.08410490e-001, 5.51469326e-001, 5.71623504e-001 ]
      - [ 3.78266692e-001, 6.85484767e-001, 4.80509996e-001,
          7.08355427e-001, 2.66213953e-001, 2.99492300e-001,
          2.74208874e-001, 4.80509996e-001, 7.74746418e-001 ]
      - [ 7.58882523e-001, 2.12394327e-001, 4.36218739e-001,
          4.86573935e-001, 4.03785557e-001, 4.76581037e-001,
          6.73488855e-001, 4.36218739e-001, 4.61611480e-001 ]
      - [ 3.83257776e-001, 6.90341592e-001, 5.26506960e-001,
          7.01174676e-001, 3.03250909e-001, 3.47828656e-001,
          3.10931653e-001, 5.26506960e-001, 8.06760371e-001 ]
      - [ 5.26320577e-001, 5.09656250e-001, 3.47060919e-001,
          6.89708710e-001, 2.52062112e-001, 5.61017036e-001,
          3.80889058e-001, 3.47060919e-001, 6.59212887e-001 ]
      - [ 4.56674397e-001, 5.90326190e-001, 7.57773578e-001,
          8.32907438e-001, 7.77069479e-002, 1.78736418e-001,
          2.42730364e-001, 7.57773578e-001, 7.04387307e-001 ]
      - [ 3.11584890e-001, 7.24188387e-001, 4.77468044e-001,
          6.43660903e-001, 3.24783534e-001, 3.52342218e-001,
          3.30715001e-001, 4.77468044e-001, 6.94491804e-001 ]
      - [ 3.31572622e-001, 6.95697904e-001, 8.45442891e-001,
          7.75025010e-001, 1.73349649e-001, 1.69484138e-001,
          2.42753357e-001, 8.45442891e-001, 6.62569761e-001 ]
      - [ 3.35902750e-001, 6.59975171e-001, 5.44013321e-001,
          6.11707151e-001, 3.39792311e-001, 4.19251800e-001,
          3.97229224e-001, 5.44013321e-001, 5.59993386e-001 ]
      - [ 5.31750202e-001, 5.29067516e-001, 6.30426407e-001,
          7.25780070e-001, 2.37320438e-001, 2.95687526e-001,
          3.58791649e-001, 6.30426407e-001, 7.33271062e-001 ]
      - [ 4.32642907e-001, 5.75601399e-001, 7.15862572e-001,
          6.95752978e-001, 1.97807714e-001, 2.82759190e-001,
          3.66310596e-001, 7.15862572e-001, 5.87844908e-001 ]
      - [ 3.29986125e-001, 7.44873703e-001, 4.58828390e-001,
          7.37752676e-001, 2.15242609e-001, 3.38400930e-001,
          2.45864749e-001, 4.58828390e-001, 8.24822664e-001 ]
      - [ 3.95086825e-001, 6.66891277e-001, 7.12750971e-001,
          8.68893862e-001, 2.98453011e-002, 2.00913385e-001,
          1.93785399e-001, 7.12750971e-001, 7.65071690e-001 ]
      - [ 6.16133451e-001, 4.70631808e-001, 3.95692319e-001,
          7.22774088e-001, 2.29911670e-001, 3.52527946e-001,
          3.59938115e-001, 3.95692319e-001, 7.94704139e-001 ]
      - [ 3.06040943e-001, 7.28747070e-001, 6.63823366e-001,
          8.09237242e-001, 1.45244345e-001, 3.04567099e-001,
          1.98856533e-001, 6.63823366e-001, 6.92267716e-001 ]
      - [ 6.30209982e-001, 4.61492032e-001, 5.51446795e-001,
          6.95941269e-001, 2.75497615e-001, 4.27977026e-001,
          4.12119299e-001, 5.51446795e-001, 8.06428015e-001 ]
      - [ 2.92188555e-001, 7.60386288e-001, 5.05835831e-001,
          7.13659227e-001, 2.47088403e-001, 2.58447260e-001,
          2.71849275e-001, 5.05835831e-001, 7.56293058e-001 ]
      - [ 4.92623329e-001, 5.30366778e-001, 5.30609429e-001,
          5.80798686e-001, 3.36547285e-001, 3.31000835e-001,
          4.85195100e-001, 5.30609429e-001, 6.24992013e-001 ]
      - [ 2.69146711e-001, 7.71028876e-001, 7.54622102e-001,
          7.80268431e-001, 1.74866900e-001, 2.01313898e-001,
          2.20083416e-001, 7.54622102e-001, 7.18025267e-001 ]
      - [ 2.40533575e-001, 7.87655413e-001, 7.32292712e-001,
          7.71599174e-001, 1.66386262e-001, 2.49845564e-001,
          2.20798135e-001, 7.32292712e-001, 6.81828141e-001 ]
      - [ 5.43545544e-001, 5.14729857e-001, 8.58913183e-001,
          8.70648980e-001, 4.16473895e-002, 1.40266731e-001,
          2.11867571e-001, 8.58913183e-001, 7.23381400e-001 ]
      - [ 3.37687880e-001, 7.62658060e-001, 5.98401010e-001,
          8.84642065e-001, 3.44047621e-002, 3.42636377e-001,
          1.58875450e-001, 5.98401010e-001, 9.12917793e-001 ]
      - [ 3.81725162e-001, 6.31009161e-001, 6.21584177e-001,
          6.83583260e-001, 2.72083521e-001, 4.01939452e-001,
          3.31579924e-001, 6.21584177e-001, 6.08071089e-001 ]
      - [ 5.28036177e-001, 4.40448701e-001, 5.69198072e-001,
          5.25790989e-001, 3.85644197e-001, 4.37509507e-001,
          5.63704789e-001, 5.69198072e-001, 4.64334846e-001 ]
      - [ 4.45820928e-001, 6.00050032e-001, 7.93774664e-001,
          8.15891743e-001, 1.64016962e-001, 1.63941056e-001,
          2.11044431e-001, 7.93774664e-001, 7.02735722e-001 ]
      - [ 4.96510565e-001, 5.51414967e-001, 5.00388741e-001,
          6.42088115e-001, 2.98386067e-001, 3.54992121e-001,
          3.90408099e-001, 5.00388741e-001, 7.00159311e-001 ]
      - [ 6.27473176e-001, 4.71230567e-001, 8.01612318e-001,
          8.31539750e-001, 7.88063556e-002, 5.73545583e-002,
          2.64820725e-001, 8.01612318e-001, 8.28076124e-001 ]
      - [ 5.90091705e-001, 4.43455160e-001, 4.94916081e-001,
          6.21218264e-001, 3.26581270e-001, 5.02606273e-001,
          4.67947781e-001, 4.94916081e-001, 6.42903984e-001 ]
      - [ 4.77287471e-001, 4.42255616e-001, 4.20755714e-001,
          4.14205790e-001, 5.23618698e-001, 5.77832520e-001,
          6.29133999e-001, 4.20755714e-001, 3.30167860e-001 ]
      - [ 2.93567538e-001, 6.24756336e-001, 5.61710715e-001,
          3.81312668e-001, 5.21581650e-001, 5.14569163e-001,
          6.08806312e-001, 5.61710715e-001, 3.22292447e-001 ]
      - [ 6.09256446e-001, 3.68895292e-001, 3.31145823e-001,
          4.33174044e-001, 4.80520934e-001, 5.11296391e-001,
          6.46678865e-001, 3.31145823e-001, 4.86730695e-001 ]
      - [ 5.13531208e-001, 4.91491705e-001, 4.64148849e-001,
          5.01877725e-001, 4.68618393e-001, 4.39832211e-001,
          5.45632958e-001, 4.64148849e-001, 5.69431007e-001 ]
      - [ 3.31363112e-001, 6.90363646e-001, 5.55546463e-001,
          6.25012815e-001, 3.50395173e-001, 3.77907276e-001,
          3.91053855e-001, 5.55546463e-001, 6.44320071e-001 ]
      - [ 5.83359599e-001, 4.51369464e-001, 4.39580798e-001,
          4.84724522e-001, 5.20748675e-001, 3.34034562e-001,
          5.51259756e-001, 4.39580798e-001, 6.47286594e-001 ]
      - [ 3.81413966e-001, 6.41140819e-001, 3.13257605e-001,
          5.73154569e-001, 3.63391489e-001, 4.86091793e-001,
          4.32485968e-001, 3.13257605e-001, 6.39391780e-001 ]
      - [ 6.26130462e-001, 2.39001989e-001, 4.52206403e-001,
          2.38528833e-001, 6.03613377e-001, 5.77155352e-001,
          8.56512070e-001, 4.52206403e-001, 1.98698744e-001 ]
      - [ 3.44720483e-001, 6.38255179e-001, 6.86859131e-001,
          5.46970546e-001, 4.47961658e-001, 3.09905201e-001,
          4.32122737e-001, 6.86859131e-001, 5.18579662e-001 ]
      - [ 3.77917200e-001, 7.22487688e-001, 6.36498690e-001,
          8.60632658e-001, 1.38532072e-001, 1.30436271e-001,
          1.27273992e-001, 6.36498690e-001, 9.00463879e-001 ]
      - [ 8.04604888e-001, 2.67380685e-001, 4.51461673e-001,
          6.62815154e-001, 2.14768559e-001, 3.60533923e-001,
          4.86360818e-001, 4.51461673e-001, 7.17930734e-001 ]
      - [ 5.02772510e-001, 5.67012250e-001, 5.13596594e-001,
          6.87680125e-001, 2.73335576e-001, 2.42450982e-001,
          3.25322419e-001, 5.13596594e-001, 7.66955435e-001 ]
      - [ 5.97019851e-001, 4.55372930e-001, 4.33865130e-001,
          6.50389493e-001, 2.85196662e-001, 3.38412374e-001,
          4.23073918e-001, 4.33865130e-001, 6.96618378e-001 ]
      - [ 4.66336519e-001, 5.11464715e-001, 1.16033033e-001,
          2.60271549e-001, 8.25906157e-001, 7.74040103e-001,
          7.23430157e-001, 1.16033033e-001, 4.94200945e-001 ]
      - [ 6.33643508e-001, 4.32625800e-001, 4.26760018e-001,
          6.74711943e-001, 1.99741125e-001, 3.84282500e-001,
          4.38775390e-001, 4.26760018e-001, 7.30767548e-001 ]
      - [ 4.88948196e-001, 4.35747445e-001, 4.07296121e-001,
          3.14745605e-001, 7.51102746e-001, 4.06479627e-001,
          6.53521597e-001, 4.07296121e-001, 3.44416082e-001 ]
      - [ 6.59786403e-001, 3.95578772e-001, 3.27283204e-001,
          5.81555426e-001, 3.41781586e-001, 4.79196608e-001,
          5.05044639e-001, 3.27283204e-001, 6.95115983e-001 ]
      - [ 4.50262338e-001, 5.46715915e-001, 2.96902537e-001,
          4.70760167e-001, 4.82058913e-001, 5.21601677e-001,
          5.26736081e-001, 2.96902537e-001, 5.52000880e-001 ]
      - [ 7.72086561e-001, 2.90533453e-001, 3.66469055e-001,
          6.39610589e-001, 2.53789127e-001, 4.14555609e-001,
          4.94192779e-001, 3.66469055e-001, 6.97760046e-001 ]
      - [ 4.84186679e-001, 4.34202254e-001, 4.78257924e-001,
          3.66467297e-001, 5.41166127e-001, 5.26451707e-001,
          6.96662366e-001, 4.78257924e-001, 3.27200323e-001 ]
      - [ 4.59982872e-001, 5.59690595e-001, 2.32904747e-001,
          5.03411293e-001, 5.11857569e-001, 6.88324213e-001,
          5.26181877e-001, 2.32904747e-001, 6.19347155e-001 ]
      - [ 4.59872872e-001, 6.12948775e-001, 3.85914475e-001,
          7.39658892e-001, 1.24516517e-001, 4.18223590e-001,
          3.26485783e-001, 3.85914475e-001, 7.86032617e-001 ]
      - [ 6.37360573e-001, 3.53157938e-001, 3.15127075e-001,
          4.27170843e-001, 5.14423907e-001, 4.76741701e-001,
          6.46554053e-001, 3.15127075e-001, 5.18290877e-001 ]
      - [ 5.51375866e-001, 3.72316211e-001, 1.77652508e-001,
          2.76620835e-001, 7.13084698e-001, 6.57271147e-001,
          7.49577522e-001, 1.77652508e-001, 3.42559934e-001 ]
      - [ 6.63722217e-001, 3.24407339e-001, 5.70802510e-001,
          4.74372774e-001, 5.02384484e-001, 2.82820165e-001,
          6.06747985e-001, 5.70802510e-001, 5.10142267e-001 ]
      - [ 6.26002371e-001, 4.48041886e-001, 4.35927331e-001,
          6.80779159e-001, 1.96225613e-001, 3.46298695e-001,
          4.28215444e-001, 4.35927331e-001, 7.55030870e-001 ]
      - [ 6.40706837e-001, 2.66998202e-001, 1.79414570e-001,
          1.98424995e-001, 7.94824898e-001, 6.88630283e-001,
          8.38415802e-001, 1.79414570e-001, 3.03747803e-001 ]
      - [ 6.83458388e-001, 3.41833025e-001, 3.06871712e-001,
          5.23524404e-001, 3.23995471e-001, 5.45585513e-001,
          6.12841725e-001, 3.06871712e-001, 6.08310699e-001 ]
      - [ 4.21800584e-001, 5.76154113e-001, 4.34007734e-001,
          4.62602019e-001, 5.12317359e-001, 3.85232598e-001,
          5.21065652e-001, 4.34007734e-001, 5.57714939e-001 ]
      - [ 9.31518137e-001, 1.39720216e-001, 4.17141736e-001,
          6.27592325e-001, 1.95267603e-001, 4.15063769e-001,
          6.02613091e-001, 4.17141736e-001, 6.96901262e-001 ]
      - [ 5.99438846e-001, 5.16853988e-001, 4.73853707e-001,
          7.62813091e-001, 1.76277623e-001, 3.28147620e-001,
          3.24087232e-001, 4.73853707e-001, 8.89123201e-001 ]
      - [ 3.28729093e-001, 6.80524647e-001, 5.42003453e-001,
          5.96968651e-001, 3.67132157e-001, 4.11362857e-001,
          4.10091490e-001, 5.42003453e-001, 6.03938580e-001 ]
      - [ 3.70861232e-001, 6.80984259e-001, 4.21728730e-001,
          6.53844118e-001, 3.03655744e-001, 3.32080483e-001,
          3.40479523e-001, 4.21728730e-001, 7.36713290e-001 ]
      - [ 4.05164868e-001, 5.43398857e-001, 3.36528808e-001,
          4.73941207e-001, 5.40789127e-001, 5.47903478e-001,
          5.33249378e-001, 3.36528808e-001, 4.11788166e-001 ]
      - [ 6.18070960e-001, 4.56211925e-001, 5.17406046e-001,
          7.20567048e-001, 1.43728092e-001, 3.46169531e-001,
          3.88937354e-001, 5.17406046e-001, 7.57259190e-001 ]
      - [ 4.01859492e-001, 5.19686043e-001, 2.16237485e-001,
          2.12192804e-001, 8.02620649e-001, 6.56488717e-001,
          7.55764186e-001, 2.16237485e-001, 3.34226370e-001 ]
      - [ 4.30308431e-001, 5.47390282e-001, 4.07514393e-001,
          5.21731555e-001, 4.74081635e-001, 6.04493916e-001,
          4.90668416e-001, 4.07514393e-001, 4.96229202e-001 ]
      - [ 3.32485557e-001, 6.56009495e-001, 2.58973181e-001,
          4.23612714e-001, 6.10191703e-001, 7.09086537e-001,
          5.42723835e-001, 2.58973181e-001, 5.36941171e-001 ]
      - [ 5.80947459e-001, 3.73740643e-001, 1.57460645e-001,
          4.99759048e-001, 4.59584743e-001, 7.21507728e-001,
          5.79600573e-001, 1.57460645e-001, 4.24741268e-001 ]
      - [ 2.68913448e-001, 6.53141737e-001, 4.34754580e-001,
          4.59266663e-001, 4.77420390e-001, 5.86926818e-001,
          5.31025410e-001, 4.34754580e-001, 3.32913339e-001 ]
      - [ 5.34160852e-001, 4.09176886e-001, 3.16741496e-001,
          2.78100252e-001, 6.11894786e-001, 6.95872247e-001,
          7.90739775e-001, 3.16741496e-001, 3.95081908e-001 ]
      - [ 4.20947462e-001, 6.45276427e-001, 5.04459679e-001,
          6.01217031e-001, 4.94406670e-001, 3.21576178e-001,
          3.82646531e-001, 5.04459679e-001, 7.73320615e-001 ]
      - [ 4.12008435e-001, 5.11762917e-001, 4.27916944e-001,
          4.71271098e-001, 3.94573122e-001, 5.76199114e-001,
          5.74582934e-001, 4.27916944e-001, 3.40662390e-001 ]
      - [ 5.77608168e-001, 4.44420010e-001, 5.21300852e-001,
          6.45715952e-001, 2.95502126e-001, 4.83692169e-001,
          4.36038017e-001, 5.21300852e-001, 6.11472487e-001 ]
      - [ 5.93317330e-001, 3.99318218e-001, 3.04403245e-001,
          6.27705693e-001, 2.71815628e-001, 4.96307015e-001,
          4.52742368e-001, 3.04403245e-001, 5.27295351e-001 ]
      - [ 4.65871245e-001, 4.69614863e-001, 4.72428113e-001,
          2.56345361e-001, 8.21498513e-001, 4.14424658e-001,
          6.93757474e-001, 4.72428113e-001, 3.73909950e-001 ]
      - [ 4.40226674e-001, 5.84388912e-001, 3.51984620e-001,
          5.25894940e-001, 5.04179180e-001, 5.52586854e-001,
          4.79647160e-001, 3.51984620e-001, 6.37275815e-001 ]
      - [ 4.05590475e-001, 6.31066680e-001, 7.04505563e-001,
          7.35705435e-001, 2.13279575e-001, 2.24395007e-001,
          2.86865592e-001, 7.04505563e-001, 6.80580676e-001 ]
      - [ 5.42514026e-001, 4.01941866e-001, 3.69848460e-001,
          4.27680612e-001, 5.80598295e-001, 4.63474929e-001,
          5.88851690e-001, 3.69848460e-001, 3.97984982e-001 ]
      - [ 3.68698686e-001, 4.95224714e-001, 4.88540292e-001,
          3.16311985e-001, 4.67613935e-001, 5.70812345e-001,
          7.16009736e-001, 4.88540292e-001, 1.72293931e-001 ]
      - [ 5.70613027e-001, 3.93016368e-001, 3.83454680e-001,
          3.35547566e-001, 6.90447450e-001, 5.33586502e-001,
          6.85905337e-001, 3.83454680e-001, 4.49164540e-001 ]
      - [ 4.50348049e-001, 4.09265995e-001, 2.21558273e-001,
          2.54001766e-002, 1., 6.64830565e-001, 9.33340311e-001,
          2.21558273e-001, 1.69183150e-001 ]
      - [ 2.98268139e-001, 6.32100105e-001, 1.60938054e-001,
          2.67176837e-001, 8.10802102e-001, 7.75588036e-001,
          6.37469053e-001, 1.60938054e-001, 3.58560860e-001 ]
      - [ 4.78999794e-001, 5.77789783e-001, 5.99771202e-001,
          7.87504733e-001, 1.27254188e-001, 3.05062950e-001,
          2.82201797e-001, 5.99771202e-001, 7.30964243e-001 ]
      - [ 3.09117526e-001, 7.35342205e-001, 6.04885221e-001,
          7.03598142e-001, 2.75617689e-001, 4.29607689e-001,
          2.92195290e-001, 6.04885221e-001, 7.24576652e-001 ]
      - [ 5.95322967e-001, 4.10000324e-001, 2.00009644e-001,
          4.40580398e-001, 5.38145125e-001, 6.95051610e-001,
          6.36319339e-001, 2.00009644e-001, 5.62364459e-001 ]
      - [ 3.87995422e-001, 5.58593333e-001, 3.62625033e-001,
          3.16918224e-001, 6.25466108e-001, 5.78192770e-001,
          6.91867650e-001, 3.62625033e-001, 4.06361967e-001 ]
      - [ 4.85255301e-001, 4.66164440e-001, 3.07738215e-001,
          3.81763220e-001, 5.95614493e-001, 5.07466316e-001,
          6.30329788e-001, 3.07738215e-001, 4.18123364e-001 ]
      - [ 5.56415081e-001, 3.46195191e-001, 0., 2.11489767e-001,
          8.57200921e-001, 8.59945416e-001, 8.04466963e-001, 0.,
          2.87808776e-001 ]
      - [ 5.78896403e-001, 3.34176451e-001, 2.74044842e-001,
          2.17001915e-001, 7.02249765e-001, 6.65275156e-001,
          8.54780376e-001, 2.74044842e-001, 3.15522075e-001 ]
      - [ 4.84900087e-001, 4.52284127e-001, 2.05349326e-001,
          3.08194071e-001, 7.28065133e-001, 6.53442860e-001,
          6.77149355e-001, 2.05349326e-001, 3.78570944e-001 ]
      - [ 3.58381033e-001, 6.25484645e-001, 3.14545304e-001,
          4.28641558e-001, 6.17211223e-001, 5.27510345e-001,
          5.52692473e-001, 3.14545304e-001, 5.20205796e-001 ]
      - [ 5.39842069e-001, 4.84856457e-001, 4.43268180e-001,
          7.07186222e-001, 1.87193543e-001, 3.44166309e-001,
          3.70720953e-001, 4.43268180e-001, 6.23958349e-001 ]
      - [ 4.53525543e-001, 5.59529066e-001, 3.55796874e-001,
          5.20915866e-001, 4.81097460e-001, 5.35123646e-001,
          5.09185135e-001, 3.55796874e-001, 6.00042999e-001 ]
      - [ 3.37812662e-001, 5.84762037e-001, 3.75783622e-001,
          4.65123445e-001, 3.91665787e-001, 6.19307637e-001,
          5.61266840e-001, 3.75783622e-001, 3.35813135e-001 ]
      - [ 5.48060477e-001, 3.37348104e-001, 4.78836149e-001,
          2.63757825e-001, 6.12016857e-001, 5.38318932e-001,
          7.97438443e-001, 4.78836149e-001, 2.43365616e-001 ]
      - [ 4.18540776e-001, 4.92457598e-001, 3.51901054e-001,
          1.79005235e-001, 8.90008450e-001, 5.56623399e-001,
          7.53032923e-001, 3.51901054e-001, 3.05040658e-001 ]
      - [ 2.58559972e-001, 6.12818182e-001, 5.17820656e-001,
          3.57579350e-001, 4.87654954e-001, 5.23913264e-001,
          6.23707652e-001, 5.17820656e-001, 1.81780487e-001 ]
      - [ 3.29434991e-001, 6.43249631e-001, 2.67898858e-001,
          3.89848530e-001, 5.60572207e-001, 6.77206695e-001,
          6.06510520e-001, 2.67898858e-001, 4.87595648e-001 ]
      - [ 4.96990651e-001, 6.08251154e-001, 5.30992448e-001,
          7.27984965e-001, 2.67201960e-001, 3.59898210e-001,
          3.45148921e-001, 5.30992448e-001, 8.81883025e-001 ]
      - [ 3.73777539e-001, 6.25266612e-001, 4.24617678e-001,
          6.29772425e-001, 3.78443092e-001, 5.09859800e-001,
          3.80258799e-001, 4.24617678e-001, 5.65987110e-001 ]
      - [ 4.76052612e-001, 5.03443122e-001, 6.00532472e-001,
          6.02759719e-001, 3.08735818e-001, 4.68607515e-001,
          4.76550341e-001, 6.00532472e-001, 4.98456329e-001 ]
      - [ 1.87756941e-001, 8.53665292e-001, 4.62251604e-001,
          7.09364474e-001, 3.31956893e-001, 4.89391834e-001,
          2.35481247e-001, 4.62251604e-001, 7.40456462e-001 ]
      - [ 5.44921517e-001, 4.41012949e-001, 6.12155080e-001,
          6.05943799e-001, 2.81079531e-001, 4.46590424e-001,
          5.08918583e-001, 6.12155080e-001, 5.12129188e-001 ]
      - [ 4.77573097e-001, 5.13428032e-001, 5.09566784e-001,
          6.19111717e-001, 3.34451139e-001, 4.82453525e-001,
          4.45155352e-001, 5.09566784e-001, 5.31811774e-001 ]
      - [ 8.60483199e-002, 8.64549577e-001, 5.83441675e-001,
          6.10692799e-001, 3.65072668e-001, 4.66526359e-001,
          3.24517101e-001, 5.83441675e-001, 4.26926404e-001 ]
      - [ 4.66117173e-001, 5.47890902e-001, 4.72674042e-001,
          6.71439171e-001, 3.97797376e-001, 4.48052734e-001,
          3.37507963e-001, 4.72674042e-001, 6.01334870e-001 ]
      - [ 2.49748245e-001, 7.11923599e-001, 6.69472694e-001,
          6.41378284e-001, 3.45493227e-001, 2.62377471e-001,
          3.45490098e-001, 6.69472694e-001, 4.57213998e-001 ]
      - [ 1.93915129e-001, 8.67413998e-001, 5.92399895e-001,
          7.93957651e-001, 2.88942963e-001, 2.86120981e-001,
          1.41766116e-001, 5.92399895e-001, 8.13080728e-001 ]
      - [ 2.85083205e-001, 7.15187430e-001, 7.50694096e-001,
          6.97046340e-001, 2.82351583e-001, 3.14464986e-001,
          3.00545841e-001, 7.50694096e-001, 5.80024719e-001 ]
      - [ 3.95441741e-001, 5.50939858e-001, 4.68017489e-001,
          5.97944796e-001, 3.56318146e-001, 5.00089824e-001,
          4.35017794e-001, 4.68017489e-001, 4.05587405e-001 ]
      - [ 1.39157310e-001, 9.17126894e-001, 5.54926991e-001,
          7.61287451e-001, 3.20932537e-001, 3.90854806e-001,
          1.50587335e-001, 5.54926991e-001, 8.09371889e-001 ]
      - [ 3.36309880e-001, 6.52633369e-001, 3.84694189e-001,
          6.23449862e-001, 3.59472483e-001, 5.51640928e-001,
          3.87312204e-001, 3.84694189e-001, 5.37971318e-001 ]
      - [ 2.77802140e-001, 7.27207720e-001, 6.26687646e-001,
          6.85461402e-001, 3.32899481e-001, 3.27127665e-001,
          2.85939664e-001, 6.26687646e-001, 5.96641243e-001 ]
      - [ 6.24061763e-001, 2.22278804e-001, 3.42585593e-001,
          2.36539498e-001, 5.88147938e-001, 1., 8.65570724e-001,
          3.42585593e-001, 1.53523371e-001 ]
      - [ 3.93601507e-001, 7.00301766e-001, 5.93950033e-001,
          7.09171534e-001, 4.70224470e-001, 2.19196707e-001,
          2.46901870e-001, 5.93950033e-001, 8.73220384e-001 ]
      - [ 4.53644335e-001, 5.86115241e-001, 6.21637940e-001,
          7.01632679e-001, 3.00198019e-001, 3.54278982e-001,
          3.36683899e-001, 6.21637940e-001, 6.82217300e-001 ]
      - [ 5.93247414e-001, 3.90924037e-001, 5.32316327e-001,
          6.19229555e-001, 3.66178602e-001, 4.69890982e-001,
          4.58812624e-001, 5.32316327e-001, 5.03970027e-001 ]
      - [ 4.03552741e-001, 6.34381950e-001, 5.37727952e-001,
          6.70015752e-001, 3.09590638e-001, 4.80832845e-001,
          3.78552467e-001, 5.37727952e-001, 6.84986174e-001 ]
      - [ 4.24588114e-001, 6.60607159e-001, 5.16559720e-001,
          7.31277704e-001, 3.62409264e-001, 3.71272832e-001,
          2.66818017e-001, 5.16559720e-001, 8.35184872e-001 ]
      - [ 5.75334489e-001, 4.64368433e-001, 4.95121658e-001,
          6.63775563e-001, 3.39118302e-001, 4.47825581e-001,
          4.14111435e-001, 4.95121658e-001, 6.62899911e-001 ]
      - [ 6.03796542e-001, 4.49240535e-001, 5.55678427e-001,
          6.94542229e-001, 2.61093646e-001, 3.65153104e-001,
          4.25364047e-001, 5.55678427e-001, 6.97354019e-001 ]
      - [ 7.08453417e-001, 2.63455182e-001, 4.08319473e-001,
          5.21958888e-001, 3.46174896e-001, 5.67236185e-001,
          6.47050083e-001, 4.08319473e-001, 4.65390265e-001 ]
      - [ 6.26366377e-001, 4.02276695e-001, 6.01305902e-001,
          6.88569605e-001, 2.90853888e-001, 3.70439976e-001,
          4.16657329e-001, 6.01305902e-001, 6.24280810e-001 ]
      - [ 7.33931422e-001, 3.15317780e-001, 4.19860929e-001,
          6.14795566e-001, 4.51451242e-001, 4.97783661e-001,
          4.79075104e-001, 4.19860929e-001, 6.67055428e-001 ]
      - [ 3.12166691e-001, 6.76627517e-001, 6.16673648e-001,
          7.13563323e-001, 2.55184203e-001, 3.53177160e-001,
          3.02604616e-001, 6.16673648e-001, 5.39788663e-001 ]
      - [ 4.16219652e-001, 5.84714293e-001, 6.25187457e-001,
          6.57348037e-001, 3.08409870e-001, 4.24789399e-001,
          3.81225526e-001, 6.25187457e-001, 5.67312419e-001 ]
      - [ 4.83728856e-001, 4.55885977e-001, 5.90344727e-001,
          5.68924427e-001, 3.34815472e-001, 4.93720412e-001,
          5.14972448e-001, 5.90344727e-001, 3.85265857e-001 ]
      - [ 6.59821689e-001, 3.90191376e-001, 5.52225173e-001,
          6.77476585e-001, 2.17886776e-001, 4.59903270e-001,
          4.85390335e-001, 5.52225173e-001, 6.79903626e-001 ]
      - [ 5.40914416e-001, 5.33945262e-001, 6.00557745e-001,
          7.06780612e-001, 2.88963556e-001, 3.69280964e-001,
          3.72721553e-001, 6.00557745e-001, 7.74611652e-001 ]
      - [ 2.59306669e-001, 6.56674981e-001, 4.54219490e-001,
          5.21964669e-001, 3.94140005e-001, 5.73725700e-001,
          4.84260738e-001, 4.54219490e-001, 3.14156562e-001 ]
      - [ 6.48766518e-001, 4.00649250e-001, 3.52678418e-001,
          6.39141202e-001, 3.52321863e-001, 5.33363581e-001,
          4.66228306e-001, 3.52678418e-001, 6.79880917e-001 ]
      - [ 6.78351939e-001, 4.06877667e-001, 6.41624987e-001,
          6.94540143e-001, 2.47606054e-001, 3.52357298e-001,
          4.45020199e-001, 6.41624987e-001, 7.77320385e-001 ]
      - [ 3.81037861e-001, 6.19733334e-001, 2.78049409e-001,
          5.18673360e-001, 6.10077679e-001, 5.58533907e-001,
          4.45420504e-001, 2.78049409e-001, 5.70583820e-001 ]
      - [ 3.84117126e-001, 5.90054393e-001, 1.98607638e-001,
          4.95912313e-001, 5.74411452e-001, 6.56798244e-001,
          4.89865929e-001, 1.98607638e-001, 4.88557935e-001 ]
      - [ 6.72407568e-001, 4.27535772e-001, 3.57292324e-001,
          5.68577766e-001, 5.17417967e-001, 5.09348094e-001,
          5.08183241e-001, 3.57292324e-001, 8.21527660e-001 ]
      - [ 2.75339812e-001, 6.40282810e-001, 2.22986057e-001,
          3.70048255e-001, 6.38412654e-001, 6.09297752e-001,
          5.88636756e-001, 2.22986057e-001, 3.13544422e-001 ]
      - [ 6.31699145e-001, 3.71128887e-001, 4.60430503e-001,
          6.54406011e-001, 2.44344637e-001, 4.56653714e-001,
          4.81197715e-001, 4.60430503e-001, 5.52091002e-001 ]
      - [ 2.43039295e-001, 7.55962193e-001, 3.40050966e-001,
          5.86863220e-001, 5.23617327e-001, 4.92141753e-001,
          3.54004890e-001, 3.40050966e-001, 5.80869019e-001 ]
      - [ 4.15149093e-001, 5.65554559e-001, 6.27792776e-001,
          6.76017642e-001, 1.66702807e-001, 3.52995694e-001,
          3.92079711e-001, 6.27792776e-001, 5.06154358e-001 ]
      - [ 4.61594194e-001, 5.25585890e-001, 3.84804368e-001,
          6.15676165e-001, 3.22702914e-001, 5.31884849e-001,
          4.43268836e-001, 3.84804368e-001, 5.21873236e-001 ]
      - [ 3.88622046e-001, 6.14879787e-001, 3.99924994e-001,
          6.28015459e-001, 4.08568770e-001, 3.75626564e-001,
          3.70829850e-001, 3.99924994e-001, 5.78220904e-001 ]
      - [ 5.65562904e-001, 4.21046942e-001, 2.81155795e-001,
          4.26531821e-001, 5.61259389e-001, 5.49675047e-001,
          6.49783194e-001, 2.81155795e-001, 5.12544036e-001 ]
      - [ 2.70821124e-001, 7.18251526e-001, 3.41134369e-001,
          5.96453965e-001, 5.29480755e-001, 4.46588010e-001,
          3.43901098e-001, 3.41134369e-001, 5.44708669e-001 ]
      - [ 4.95104730e-001, 4.47440475e-001, 4.40018922e-001,
          5.76707184e-001, 4.01780188e-001, 4.75662857e-001,
          4.80434179e-001, 4.40018922e-001, 3.93241405e-001 ]
      - [ 4.74889100e-001, 4.67240661e-001, 1.75205812e-001,
          4.20135289e-001, 6.33989275e-001, 7.02476859e-001,
          5.92385411e-001, 1.75205812e-001, 3.92313510e-001 ]
      - [ 4.43632424e-001, 5.17087460e-001, 1.77341208e-001,
          4.89174157e-001, 5.79429805e-001, 6.34775043e-001,
          5.30114055e-001, 1.77341208e-001, 4.45797890e-001 ]
      - [ 4.52762365e-001, 5.26271224e-001, 3.31141710e-001,
          5.24962544e-001, 4.67141926e-001, 5.67803919e-001,
          4.99332428e-001, 3.31141710e-001, 4.98610824e-001 ]
      - [ 6.47075593e-001, 3.37485880e-001, 3.26705575e-001,
          5.51250398e-001, 3.99185240e-001, 4.82651144e-001,
          5.60059369e-001, 3.26705575e-001, 5.01604855e-001 ]
      - [ 7.71686316e-001, 2.48117760e-001, 2.91809112e-001,
          4.47496146e-001, 6.17392600e-001, 5.69348574e-001,
          6.52975798e-001, 2.91809112e-001, 5.84400892e-001 ]
      - [ 2.83673316e-001, 6.26100481e-001, 4.58950430e-001,
          4.80986416e-001, 5.22193134e-001, 4.75324273e-001,
          5.04158139e-001, 4.58950430e-001, 2.96342582e-001 ]
      - [ 4.94736880e-001, 4.95843738e-001, 3.32544059e-001,
          5.49169958e-001, 4.70696896e-001, 4.87827510e-001,
          4.82761830e-001, 3.32544059e-001, 5.29149830e-001 ]
      - [ 1.40949354e-001, 8.23685527e-001, 4.83544648e-001,
          7.06614494e-001, 2.93047339e-001, 4.31508005e-001,
          2.34913886e-001, 4.83544648e-001, 4.73121405e-001 ]
      - [ 6.54900312e-001, 3.79727304e-001, 2.29720697e-001,
          4.48072761e-001, 6.68326020e-001, 5.63108444e-001,
          5.97432137e-001, 2.29720697e-001, 6.37385845e-001 ]
      - [ 4.83371437e-001, 5.52172899e-001, 4.22256768e-001,
          6.64805949e-001, 3.82137179e-001, 4.05955404e-001,
          3.58017772e-001, 4.22256768e-001, 6.64365470e-001 ]
      - [ 1., 0., 3.61252993e-001, 5.40489376e-001, 3.56617302e-001,
          5.24724901e-001, 6.85481071e-001, 3.61252993e-001,
          5.18295646e-001 ]
      - [ 5.57608187e-001, 4.46257144e-001, 1.67004004e-001,
          4.54746395e-001, 6.53742671e-001, 6.29468918e-001,
          5.72141230e-001, 1.67004004e-001, 5.61727822e-001 ]
      - [ 7.37027824e-001, 2.56753117e-001, 1.59348950e-001,
          4.50879633e-001, 5.62572360e-001, 7.08134472e-001,
          6.76480114e-001, 1.59348950e-001, 5.19931138e-001 ]
      - [ 5.78625619e-001, 3.48889977e-001, 5.04089832e-001,
          4.87631470e-001, 4.86167997e-001, 4.42161500e-001,
          5.91019332e-001, 5.04089832e-001, 3.52880269e-001 ]
      - [ 3.13837916e-001, 7.26333559e-001, 3.64869326e-001,
          6.12994492e-001, 3.95214528e-001, 5.44257343e-001,
          3.82340550e-001, 3.64869326e-001, 7.08948493e-001 ]
      - [ 5.64517081e-001, 4.56942350e-001, 4.40413177e-001,
          6.13147497e-001, 3.65216821e-001, 5.22973537e-001,
          4.54112679e-001, 4.40413177e-001, 6.11359358e-001 ]
      - [ 2.90276557e-001, 6.93030119e-001, 6.25721514e-001,
          6.83579087e-001, 1.53626651e-001, 3.54140729e-001,
          3.56089950e-001, 6.25721514e-001, 5.24098456e-001 ]
      - [ 6.10602081e-001, 4.05746192e-001, 4.95191127e-001,
          6.88349009e-001, 2.99107850e-001, 3.89774710e-001,
          3.98375213e-001, 4.95191127e-001, 5.91559291e-001 ]
      - [ 4.63720560e-001, 4.52437252e-001, 3.19064200e-001,
          4.20042515e-001, 5.35816193e-001, 6.34022653e-001,
          6.22768104e-001, 3.19064200e-001, 3.20574313e-001 ]
      - [ 5.66579580e-001, 4.27150279e-001, 2.83130884e-001,
          4.95035887e-001, 5.37889302e-001, 5.92023432e-001,
          5.65431774e-001, 2.83130884e-001, 5.32341957e-001 ]
      - [ 5.29244781e-001, 4.86328781e-001, 4.31847095e-001,
          6.39178753e-001, 3.27539474e-001, 4.77367640e-001,
          4.51508135e-001, 4.31847095e-001, 5.98460913e-001 ]
      - [ 3.58396858e-001, 6.51137829e-001, 4.96194601e-001,
          6.95365191e-001, 3.13372970e-001, 4.10755098e-001,
          3.05724889e-001, 4.96194601e-001, 6.00888491e-001 ]
   decision_functions:
      -
         sv_count: 40
         rho: 1.3398823789732409e-001
         alpha: [ 7., 7., 7., 7., 7., 7., 7., 7., 7., 7., 7.,
             5.9235138956775579e-001, 7., 4.8221746168949338e+000, 7.,
             7., 7., 1.7625516039033839e+000, -1.5708545604366293e+000,
             -3.5545803401202547e+000, -5.2728921647994009e-001, -7.,
             -2.8327143940167963e+000, -7., -7., -7., -7.,
             -3.8547651751364049e+000, -7., -7., -7., -7.,
             -7.5746685961598104e-001, -7., -7.,
             -1.9218294729883321e+000, -7., -7.,
             -3.6294263969746186e+000, -2.5281511945971160e+000 ]
         index: [ 2, 4, 7, 8, 9, 10, 11, 12, 13, 14, 15, 16, 17, 18, 20,
             21, 23, 24, 27, 29, 31, 32, 33, 34, 35, 36, 37, 39, 40, 41,
             42, 43, 44, 45, 47, 50, 53, 54, 55, 58 ]
      -
         sv_count: 30
         rho: -1.3047510076444946e+000
         alpha: [ 2.2118072738852357e+000, 7., 7., 7., 7.,
             4.1745102664009820e-001, 7., 7., 2.7203351841013341e+000,
             4.5820336544975699e+000, 4.8499494770480611e+000, 7.,
             1.4116896626782423e+000, 3.0086787102984660e+000, 7., -7.,
             -2.3599325611295185e+000, -7., -7.,
             -6.1601013876680877e-001, -7., -7.,
             -3.8402726372907559e+000, -7., -7., -7.,
             -7.0805836849383341e-001, -1.9559062769423339e+000, -7.,
             -2.7217650065257608e+000 ]
         index: [ 1, 4, 5, 7, 8, 9, 10, 12, 13, 15, 17, 20, 22, 23, 24,
             64, 68, 69, 70, 72, 77, 78, 80, 84, 88, 89, 90, 91, 92, 93 ]
      -
         sv_count: 25
         rho: 1.6556441326909468e-001
         alpha: [ 1.4298376460848146e+000, 5.2309806219392663e-001,
             8.1834558262739276e-001, 7., 6.9721242704455415e+000,
             4.1474266198833876e+000, 7., 7., 7., 7., 7.,
             -5.9840725389532414e+000, -7., -7.,
             -6.5477242623090097e+000, -1.7812658672554156e+000,
             -6.5219951757287431e-001, -3.4020312902255831e+000, -7.,
             -1.0239487534497909e+000, -7., -2.9440718679142979e+000,
             -2.9997951418204236e+000, -2.5757163865843202e-002,
             -2.5299657778685862e+000 ]
         index: [ 0, 3, 4, 7, 10, 11, 13, 14, 15, 20, 23, 99, 102, 106,
             107, 111, 113, 118, 126, 128, 129, 130, 131, 132, 133 ]
      -
         sv_count: 21
         rho: 4.0385052439746094e-001
         alpha: [ 1.6126993839307144e+000, 3.6371393665168777e-001,
             4.6410975177533791e+000, 5.2617823019793555e+000, 7., 7.,
             7., 7., 7., 7., 3.3535502633012535e+000, -7., -7.,
             -3.7091790870561092e+000, -4.9188176227197156e+000, -7.,
             -3.5479140339382038e+000, -7., -7., -7.,
             -3.0569326599023601e+000 ]
         index: [ 2, 3, 7, 8, 10, 11, 13, 14, 15, 20, 23, 137, 139, 143,
             144, 145, 150, 151, 152, 159, 165 ]
      -
         sv_count: 33
         rho: -4.6785717289326728e-001
         alpha: [ 1.2075176352242583e+000, 5.9178293143753162e+000, 7.,
             7., 7., 7., 2.2607287130184830e-001, 7., 7., 7.,
             4.3200383439816532e+000, 7., 9.9392907126545926e-001, 7.,
             2.3673731933835405e+000, 6.8028973813487559e+000,
             -1.0919009024389634e+000, -7., -7., -7., -7., -7., -7.,
             -1.0377786085747418e+000, -1.1332944963595657e+000, -7.,
             -1.8498246861569043e+000, -7., -7.,
             -2.2407451711455422e+000, -6.8176329542104819e+000,
             -6.6448099199463884e-001, -7. ]
         index: [ 2, 4, 6, 7, 9, 10, 11, 12, 13, 15, 16, 17, 19, 20, 23,
             24, 169, 173, 175, 176, 177, 179, 181, 182, 183, 184, 186,
             193, 194, 197, 198, 200, 201 ]
      -
         sv_count: 21
         rho: -6.4061626659443005e-001
         alpha: [ 7., 5.4719097377022193e-003, 9.8590910529191955e-001,
             2.8744029131759161e+000, 6.4264798646574599e+000, 7.,
             1.1158832985811877e+000, 7., 2.2666117597114748e+000,
             5.6370442343961908e+000, 7., -2.5638285021783149e+000, -7.,
             -7., -7., -2.5091463663405422e+000, -7.,
             -3.1021806784525854e+000, -3.1219575925993177e+000,
             -1.0146899459810848e+000, -7. ]
         index: [ 2, 4, 9, 10, 11, 13, 14, 15, 16, 19, 20, 203, 204, 206,
             207, 211, 218, 220, 221, 227, 229 ]
      -
         sv_count: 46
         rho: 7.5185327359869603e-003
         alpha: [ 7., 7., 4.6688234872035101e+000, 7., 7., 7., 7., 7.,
             4.0348902804689937e+000, 7., 7., 7.,
             3.9964953326768016e+000, 7., 4.4189688545422623e+000, 7.,
             7., 1.3603770612280246e+000, 7., 6.0782231958145971e-002,
             7., 7., 7., -7., -7., -7., -7., -7.,
             -2.9280103689826338e+000, -3.9540965733264768e+000, -7.,
             -7., -7., -4.8919011449517740e+000, -7.,
             -1.8702645132802120e+000, -5.2186722962293821e+000,
             -6.9700324075237550e+000, -4.6913954592769089e+000, -7.,
             -7., -2.0159644845065947e+000, -7., -7., -7., -7. ]
         index: [ 26, 27, 28, 30, 31, 32, 37, 39, 40, 41, 42, 43, 46, 47,
             50, 52, 53, 54, 56, 57, 59, 60, 61, 63, 64, 68, 69, 70, 71,
             72, 73, 74, 76, 77, 78, 80, 81, 85, 86, 87, 88, 89, 92, 93,
             95, 97 ]
      -
         sv_count: 49
         rho: 4.2245400560702007e-001
         alpha: [ 2.5652177698857095e+000, 5.4764950855925658e+000, 7.,
             7., 7., 7., 7., 2.2757073677023407e+000,
             1.5727715055536833e+000, 7., 2.0016779787353349e+000, 7.,
             7., 6.9818971344104082e+000, 7., 7.,
             1.0855830084273235e+000, 7., 7., 7., 7., 7.,
             2.8997589199971716e+000, 7., 7., -7., -7., -7., -7.,
             -5.4565015335433973e+000, -1.6075375069612767e+000, -7.,
             -6.3010543262204068e+000, -7., -7.,
             -4.7582284539881776e+000, -7., -7.5952646741334329e-001,
             -7., -6.5636849439240912e+000, -7.,
             -7.2178049281381607e-001, -7., -7., -7.,
             -5.6907950454400353e+000, -7., -7., -7. ]
         index: [ 25, 26, 28, 30, 33, 37, 38, 39, 42, 44, 45, 46, 47, 48,
             49, 50, 51, 52, 53, 55, 56, 57, 58, 59, 60, 99, 101, 102,
             103, 104, 105, 106, 107, 111, 113, 114, 115, 117, 118, 122,
             126, 127, 128, 129, 130, 131, 132, 133, 134 ]
      -
         sv_count: 46
         rho: -3.0411187597592321e-001
         alpha: [ 7., 4.3988265466700177e-001, 7., 7.,
             6.0944706631828165e+000, 7., 7., 4.2323998627394205e-001,
             3.2066435008776795e+000, 7., 7., 1.1032373512472329e+000,
             7., 7., 1.9692995683385375e+000, 7., 7.,
             2.5335283063043073e+000, 7., 6.2105054780753868e+000, 7.,
             7., 7., 1.3352935045656307e+000, 1.4815722377523826e+000,
             -7., -1.6990944093443143e+000, -7., -7.,
             -1.5059708289113241e-001, -7., -7., -7., -7., -7., -7., -7.,
             -7., -5.5003229391338939e+000, -7., -7., -7., -7., -7.,
             -3.4476588199155738e+000, -7. ]
         index: [ 25, 26, 28, 29, 31, 37, 38, 39, 42, 43, 44, 45, 46, 48,
             49, 50, 51, 52, 55, 56, 57, 58, 59, 60, 61, 135, 137, 139,
             141, 142, 143, 144, 145, 146, 148, 150, 151, 152, 153, 154,
             159, 160, 161, 164, 165, 166 ]
      -
         sv_count: 51
         rho: 9.5759539513626968e-001
         alpha: [ 7., 7., 7., 7., 7., 7., 3.9243611688031974e+000, 7.,
             7., 7., 7., 3.5989393402137115e+000, 7.,
             2.0470748424514612e-001, 1.7384794323314985e+000, 7.,
             5.1167723467378492e+000, 7., 7., 7., 7., 7., 7., 7., 7.,
             -7., -7., -7., -7., -1.6850244534199739e+000, -7., -7., -7.,
             -2.9587954278101187e+000, -6.7239416967701802e+000, -7.,
             -1.9011354034214323e+000, -7., -7., -7., -7.,
             -3.9104843008892978e+000, -7., -5.0537296925087798e+000,
             -7., -7., -7., -1.6725808846760957e+000, -7.,
             -4.6775679128355296e+000, -7. ]
         index: [ 26, 27, 28, 30, 31, 32, 35, 37, 39, 40, 41, 42, 43, 44,
             45, 46, 47, 50, 52, 53, 54, 56, 59, 60, 61, 167, 168, 169,
             170, 173, 175, 176, 177, 179, 180, 181, 182, 183, 184, 186,
             187, 188, 189, 190, 193, 194, 197, 198, 199, 200, 201 ]
      -
         sv_count: 37
         rho: -6.0553494681635189e-001
         alpha: [ 7., 4.9271151783360061e+000, 1.5549152446458014e-001,
             7., 7., 1.1137180309291814e+000, 4.8386019616709310e+000,
             7., 7., 2.9219241717426616e+000, 7., 7., 7.,
             3.9808123900529004e+000, 6.2784972360785174e+000, 7., 7.,
             7., -4.3903945384998568e+000, -7., -7., -7., -7., -7.,
             -1.9982638559544850e+000, -2.3444453496775881e+000,
             -1.1498378885329639e+000, -7., -8.1706401748140201e-001,
             -5.1623717324014216e+000, -5.6035784428802815e+000, -7.,
             -7., -7., -4.0383678274338743e+000,
             -5.7118368404129161e+000, -7. ]
         index: [ 28, 31, 35, 37, 38, 43, 44, 45, 46, 48, 50, 52, 53, 54,
             55, 56, 59, 60, 202, 203, 204, 206, 207, 210, 213, 218, 221,
             222, 223, 224, 226, 227, 228, 229, 230, 233, 234 ]
      -
         sv_count: 37
         rho: 7.1675250022425996e-001
         alpha: [ 4.2769263640923683e+000, 4.2682424014272796e-001, 7.,
             7., 7., 7., 7., 7., 7., 7., 7., 7., 4.6091311407717592e+000,
             7., 7., 7., 3.7430096507892952e+000,
             6.6569081690867131e+000, -7., -7., -1.9180307713244997e+000,
             -1.0788713764856583e+000, -7., -7., -7., -7., -7., -7.,
             -5.6510543467365029e+000, -6.8464202020745786e+000,
             -2.4100805181683795e+000, -1.8083423500932483e+000, -7.,
             -7., -7., -7., -7. ]
         index: [ 62, 64, 65, 66, 68, 70, 71, 72, 74, 76, 78, 83, 86, 87,
             93, 95, 96, 97, 101, 102, 104, 105, 106, 107, 109, 110, 112,
             119, 122, 123, 125, 127, 128, 129, 130, 132, 134 ]
      -
         sv_count: 26
         rho: -1.6331004122786441e-001
         alpha: [ 2.1512452125809558e+000, 7., 4.5338269923891712e+000,
             7., 1.4003801850940714e+000, 7., 6.1988330416568731e+000,
             3.4539351187892162e+000, 6.0994094071637903e+000,
             1.3158125085214280e-002, 4.8904502887766137e+000,
             3.3722102328143890e+000, 4.5676204035618095e+000,
             5.7273330895381394e+000, -7., -2.2400355817867617e+000, -7.,
             -7., -2.3163975877385323e+000, -7., -7., -7., -7.,
             -6.3288047180403186e+000, -1.6946664882182594e+000,
             -1.8284977216663800e+000 ]
         index: [ 63, 70, 72, 74, 75, 76, 78, 82, 83, 91, 93, 94, 95, 97,
             139, 140, 141, 142, 144, 145, 151, 152, 160, 161, 163, 165 ]
      -
         sv_count: 47
         rho: 7.4794272514722915e-001
         alpha: [ 4.4625489598289239e+000, 7., 7., 7., 7., 7., 7., 7.,
             7., 7., 7., 7., 7., 7., 2.8054993011987399e+000,
             2.6832896904578494e+000, 7., 3.8400712024136219e+000,
             5.1720414687704102e+000, 7., 7., 7., 7., -7.,
             -9.7709744560272405e-001, -7., -6.3723618874112962e+000,
             -7., -7., -7., -5.8063364534953532e+000, -7.,
             -1.4792219878619681e-001, -4.0265938474160521e+000, -7.,
             -7., -7., -7., -7., -5.8990711586251674e+000,
             -2.7340676313327488e+000, -7., -7., -7., -7., -7., -7. ]
         index: [ 63, 64, 66, 67, 68, 69, 70, 72, 73, 74, 76, 78, 79, 80,
             83, 84, 85, 87, 89, 92, 93, 95, 97, 167, 168, 171, 172, 175,
             176, 177, 180, 181, 182, 183, 184, 186, 187, 188, 189, 190,
             191, 193, 194, 196, 197, 199, 200 ]
      -
         sv_count: 27
         rho: 3.6154060396310017e-001
         alpha: [ 1.9586880255536687e-001, 7., 7., 7., 7., 7., 7., 7.,
             5.9957252842308550e-001, 9.7066804865295009e-001, 7., 7.,
             3.0799882790326012e+000, 7., -3.5437722442908330e+000, -7.,
             -7., -4.2438142324968897e-001, -7.,
             -2.6867519589346482e+000, -5.4862294721670803e+000,
             -6.7049625600217500e+000, -7., -7., -7., -7., -7. ]
         index: [ 64, 66, 70, 72, 74, 76, 78, 83, 84, 90, 92, 93, 95, 97,
             203, 205, 207, 220, 222, 223, 226, 227, 228, 229, 230, 233,
             234 ]
      -
         sv_count: 57
         rho: 3.4082441453153878e-001
         alpha: [ 7., 7., 7., 6.2437448523491863e+000, 7., 7., 7.,
             4.5169610886178315e+000, 7., 3.2636566081862017e-001,
             3.4457632049407003e+000, 7., 1.9459072182098061e+000, 7.,
             7., 7., 7., 2.7074346143882106e+000, 7., 7., 7.,
             2.0478905641612788e+000, 8.6025878672235268e-001,
             8.2305241052161393e-001, 7., 7., 7., 7., 7.,
             -3.1410905481873379e+000, -1.4066703944421359e+000,
             -6.8743487112836048e+000, -6.8282059029452329e+000, -7.,
             -7., -7., -7., -7., -7., -7., -7., -5.4542764435441232e-002,
             -7., -1.3218581177533295e+000, -7., -7., -7., -7.,
             -6.7710090641864706e+000, -7., -4.8223151307649417e+000,
             -7., -7., -7., -7., -5.4023511321512716e+000,
             -2.9498663457984453e-001 ]
         index: [ 98, 99, 100, 101, 102, 104, 105, 106, 107, 108, 109,
             111, 112, 113, 115, 117, 118, 119, 120, 121, 124, 125, 126,
             128, 129, 131, 132, 133, 134, 135, 136, 137, 138, 139, 140,
             141, 142, 143, 144, 145, 146, 147, 148, 149, 151, 152, 153,
             155, 156, 157, 158, 159, 160, 161, 163, 165, 166 ]
      -
         sv_count: 37
         rho: 1.3619550876386219e-001
         alpha: [ 3.7626584894033979e+000, 7., 3.0788300188336670e+000,
             1.4800957620629431e+000, 7., 5.7812394316888680e+000, 7.,
             4.8289618166353572e+000, 5.1189454232603673e+000,
             6.0174236011386384e+000, 1.6048890071199386e+000,
             1.3869451372065492e-001, 1.5168072071756757e+000,
             2.7685544033332268e+000, 1.9714175551860280e+000, 7., 7.,
             5.0066881514672765e+000, 7., 7., -7., -7.,
             -2.1159103038827975e+000, -7., -3.6678923413942224e+000,
             -7., -2.6406334382153474e+000, -6.3693834570368502e+000,
             -7., -7., -5.7570972644475553e+000,
             -1.3873663010409669e+000, -1.8429380804836273e+000,
             -6.9899115301691062e+000, -7., -5.3040726643555631e+000,
             -7. ]
         index: [ 98, 102, 104, 105, 106, 107, 108, 109, 114, 118, 122,
             124, 125, 127, 128, 129, 130, 131, 132, 134, 167, 168, 172,
             175, 176, 180, 182, 183, 189, 190, 192, 196, 197, 198, 199,
             200, 201 ]
      -
         sv_count: 48
         rho: 2.8956591723569972e-002
         alpha: [ 7., 2.2274922345710324e-001, 7., 7., 7., 7.,
             8.7103523961246665e-001, 1.0297183526599927e+000, 7.,
             2.7322597738987602e+000, 7.1274193328531632e-001, 7., 7.,
             7., 7., 2.8582050114099915e+000, 7., 7.,
             2.1996605089939463e+000, 7., 7., 9.3298558745330773e-001,
             7., 7., -7., -7., -7., -1.2332931985607140e-001,
             -1.0241579335580633e-001, -7., -7.,
             -1.9213815929080380e+000, -7., -7.,
             -3.6460216471973436e-002, -2.7929664735413997e+000,
             -1.5242329197327311e+000, -7., -7.,
             -2.4405328490370626e+000, -2.6180364658677977e+000, -7.,
             -7., -7., -7., -7., -7., -7. ]
         index: [ 98, 99, 100, 101, 102, 104, 106, 107, 110, 111, 113,
             114, 115, 116, 118, 119, 120, 121, 122, 125, 129, 130, 131,
             134, 203, 204, 205, 206, 207, 209, 210, 213, 215, 216, 217,
             218, 219, 221, 222, 223, 225, 226, 227, 228, 229, 231, 232,
             233 ]
      -
         sv_count: 31
         rho: 5.0877845286327583e-001
         alpha: [ 8.3433092815120702e-001, 7., 7., 7., 7., 7., 7., 7.,
             1.5520670711652448e-001, 7., 7., 1.3194510352360120e+000,
             7., 7., 3.1416253861721124e+000, 8.7143073202528210e-001,
             -7., -3.4182615860857770e+000, -7.,
             -2.0509064724589297e+000, -3.9469811205881831e+000, -7.,
             -7., -2.9252316707741701e+000, -2.7140507303743098e+000,
             -7., -6.7133596633374468e+000, -5.5532535450823231e+000,
             -7., -7., -7. ]
         index: [ 136, 137, 139, 140, 141, 142, 144, 145, 149, 151, 152,
             156, 160, 161, 162, 163, 167, 168, 172, 176, 177, 178, 180,
             182, 183, 184, 189, 190, 198, 199, 201 ]
      -
         sv_count: 43
         rho: -6.5584763443003702e-001
         alpha: [ 7., 7., 6.8795565562172962e+000,
             5.4149774751257800e+000, 7., 7., 7., 7.,
             3.8223344929146030e+000, 7., 4.3385580735525342e-001,
             3.2894995845185702e+000, 7., 7., 7.,
             1.3907890613630749e+000, 5.6194057213340836e+000, 7., 7.,
             7., 7., -7., -2.7224870526874225e+000, -7.,
             -1.7726062133279545e+000, -2.2457753791822026e+000, -7.,
             -7., -7., -2.4274708769851387e+000, -7., -7., -7.,
             -2.7243930237013920e+000, -4.1473632956863398e+000, -7.,
             -7., -7., -7., -7., -7., -7., -3.8103228572582073e+000 ]
         index: [ 135, 136, 137, 139, 140, 141, 142, 144, 145, 146, 148,
             151, 152, 153, 155, 156, 158, 159, 160, 161, 162, 202, 203,
             204, 205, 206, 207, 210, 213, 214, 215, 218, 222, 224, 225,
             226, 227, 228, 229, 231, 232, 233, 234 ]
      -
         sv_count: 41
         rho: 2.9320778306965134e-001
         alpha: [ 1.4907201327847741e+000, 7., 7., 7.,
             1.9391989936876273e+000, 7., 4.5532675657838020e+000,
             2.1680049656025460e-001, 7., 7., 2.0938196689484210e+000,
             7., 7., 6.7625141003722709e+000, 7., 7., 7.,
             3.6721904601136113e+000, 7., 7., 7., -7., -7.,
             -6.6095175907566119e+000, -7., -7., -7.,
             -8.2054867202856374e-001, -7., -7., -7.,
             -3.3705234297838125e+000, -8.7792898861687318e-001, -7.,
             -7., -7., -7., -7., -2.0499927370648918e+000, -7., -7. ]
         index: [ 167, 168, 170, 172, 173, 174, 175, 176, 178, 180, 182,
             185, 188, 189, 190, 192, 193, 195, 198, 199, 201, 203, 205,
             206, 207, 208, 212, 215, 218, 220, 222, 223, 225, 226, 227,
             228, 229, 230, 231, 233, 234 ]
