%YAML:1.0
my_svm: !!opencv-ml-svm
   svm_type: C_SVC
   kernel: { type:RBF, gamma:5.0625000000000009e-001 }
   C: 6.2500000000000000e+001
   term_criteria: { epsilon:1.1920928955078125e-007, iterations:1000 }
   var_all: 9
   var_count: 9
   class_count: 7
   class_labels: !!opencv-matrix
      rows: 1
      cols: 7
      dt: i
      data: [ 0, 1, 2, 3, 4, 5, 6 ]
   sv_total: 210
   support_vectors:
      - [ 3.69734049e-001, 6.56119525e-001, 6.41156495e-001,
          7.26123869e-001, 6.77931309e-001, 3.02717954e-001,
          3.03248703e-001, 6.41156495e-001, 6.58977270e-001 ]
      - [ 2.60671198e-001, 6.98170483e-001, 6.88543618e-001,
          6.28903508e-001, 5.17734349e-001, 4.08782214e-001,
          3.50763440e-001, 6.88543618e-001, 3.97127777e-001 ]
      - [ 3.99065256e-001, 5.83930612e-001, 3.66325021e-001,
          3.68260622e-001, 3.27030689e-001, 4.22992021e-001,
          5.04201889e-001, 3.66325021e-001, 4.89229232e-001 ]
      - [ 2.18319640e-001, 7.33607113e-001, 6.54816031e-001,
          6.15809858e-001, 5.48685968e-001, 4.50007528e-001,
          3.04830313e-001, 6.54816031e-001, 3.67712736e-001 ]
      - [ 2.30621681e-001, 7.42447674e-001, 6.45990431e-001,
          6.07876539e-001, 6.48811042e-001, 4.25567120e-001,
          2.71330625e-001, 6.45990431e-001, 4.54886198e-001 ]
      - [ 5.28808534e-001, 5.49012065e-001, 6.29224896e-001,
          7.07444906e-001, 7.58035481e-001, 3.95976722e-001,
          3.66563112e-001, 6.29224896e-001, 8.31216633e-001 ]
      - [ 3.45462888e-001, 6.86030149e-001, 6.03662074e-001,
          6.06621921e-001, 6.39026821e-001, 4.00590450e-001,
          3.10934901e-001, 6.03662074e-001, 6.86265409e-001 ]
      - [ 2.27382943e-001, 7.89666116e-001, 7.46710896e-001,
          6.99130595e-001, 5.88753521e-001, 2.79663086e-001,
          2.50583082e-001, 7.46710896e-001, 6.44647121e-001 ]
      - [ 4.66421366e-001, 5.33328056e-001, 7.48356462e-001,
          6.80511713e-001, 6.10735118e-001, 2.66601771e-001,
          4.00615185e-001, 7.48356462e-001, 5.47498643e-001 ]
      - [ 8.16429481e-002, 9.31467652e-001, 7.50483692e-001,
          8.13638866e-001, 7.02038348e-001, 2.09660038e-001,
          4.74486314e-003, 7.50483692e-001, 6.51842356e-001 ]
      - [ 2.14304388e-001, 7.93366373e-001, 4.35705066e-001,
          5.11655092e-001, 3.77710044e-001, 3.20235550e-001,
          2.55738676e-001, 4.35705066e-001, 6.04749262e-001 ]
      - [ 2.02202022e-001, 8.17913711e-001, 6.24396205e-001,
          7.16170669e-001, 7.81488478e-001, 3.55994999e-001,
          1.56394005e-001, 6.24396205e-001, 6.62858784e-001 ]
      - [ 1.25195190e-001, 8.96274924e-001, 8.96724105e-001,
          7.31095016e-001, 5.57220042e-001, 2.16968909e-001,
          1.69049323e-001, 8.96724105e-001, 6.84508383e-001 ]
      - [ 2.16973066e-001, 7.89407790e-001, 3.08481961e-001,
          4.03990567e-001, 4.21232104e-001, 4.48047847e-001,
          3.45114440e-001, 3.08481961e-001, 5.98622501e-001 ]
      - [ 8.73565301e-002, 9.26714420e-001, 5.52573323e-001,
          7.22898781e-001, 8.26581836e-001, 3.77183288e-001,
          7.69352466e-002, 5.52573323e-001, 6.55545592e-001 ]
      - [ 2.28939474e-001, 8.00007045e-001, 6.71744406e-001,
          7.89533556e-001, 6.85811281e-001, 3.25514615e-001,
          1.29218444e-001, 6.71744406e-001, 6.97889924e-001 ]
      - [ 4.46224749e-001, 5.92943013e-001, 2.78806686e-001,
          4.29496467e-001, 5.27474523e-001, 4.93199527e-001,
          4.39227968e-001, 2.78806686e-001, 6.98867142e-001 ]
      - [ 2.75976479e-001, 6.41653180e-001, 5.89547992e-001,
          5.02161264e-001, 5.23809552e-001, 4.43974376e-001,
          4.26690668e-001, 5.89547992e-001, 2.39781633e-001 ]
      - [ 2.29875460e-001, 7.57835150e-001, 3.90541643e-001,
          4.18912083e-001, 4.16756660e-001, 3.99304330e-001,
          3.19076717e-001, 3.90541643e-001, 5.16437352e-001 ]
      - [ 4.47274297e-001, 5.63626349e-001, 6.80253983e-001,
          7.02588201e-001, 7.63430595e-001, 2.76763946e-001,
          3.23691726e-001, 6.80253983e-001, 5.90547919e-001 ]
      - [ 4.35886204e-001, 5.98436892e-001, 7.06817150e-001,
          6.62072062e-001, 6.17025554e-001, 3.44214499e-001,
          4.06448305e-001, 7.06817150e-001, 6.81849062e-001 ]
      - [ 1.24608934e-001, 8.76585543e-001, 5.59930325e-001,
          6.73339963e-001, 4.77188170e-001, 3.50781024e-001,
          1.31758481e-001, 5.59930325e-001, 5.86895764e-001 ]
      - [ 2.03487262e-001, 7.53383875e-001, 3.76856595e-001,
          2.75452137e-001, 3.90238047e-001, 5.19566834e-001,
          4.81140941e-001, 3.76856595e-001, 3.87288392e-001 ]
      - [ 3.49409908e-001, 7.15743959e-001, 7.74255097e-001,
          7.61146843e-001, 6.43918037e-001, 1.52221292e-001,
          2.28371918e-001, 7.74255097e-001, 8.28547716e-001 ]
      - [ 3.53250295e-001, 6.56325936e-001, 1.42845541e-001,
          3.52039099e-001, 3.01282287e-001, 6.65778995e-001,
          5.12419283e-001, 1.42845541e-001, 5.95555365e-001 ]
      - [ 3.88508648e-001, 6.76247716e-001, 5.17859519e-001,
          7.14913607e-001, 5.25243998e-001, 3.37565094e-001,
          2.74944752e-001, 5.17859519e-001, 8.15828085e-001 ]
      - [ 2.69717813e-001, 7.21353531e-001, 7.22905517e-001,
          6.49822950e-001, 4.80638087e-001, 2.31455460e-001,
          2.18639046e-001, 7.22905517e-001, 5.28007150e-001 ]
      - [ 3.77874643e-001, 6.70204878e-001, 5.04697442e-001,
          6.98520660e-001, 5.37886798e-001, 3.61978292e-001,
          2.20572412e-001, 5.04697442e-001, 7.48634100e-001 ]
      - [ 3.96338731e-001, 6.61321044e-001, 4.41158414e-001,
          4.50862259e-001, 5.20686686e-001, 4.65415418e-001,
          4.54654694e-001, 4.41158414e-001, 7.83994794e-001 ]
      - [ 4.64780629e-001, 5.25610149e-001, 3.86282533e-001,
          3.54482710e-001, 3.75368983e-001, 4.35859263e-001,
          5.45961440e-001, 3.86282533e-001, 5.13458312e-001 ]
      - [ 2.94276595e-001, 7.03315556e-001, 6.77737236e-001,
          6.29080653e-001, 4.56837833e-001, 2.59789437e-001,
          2.82255620e-001, 6.77737236e-001, 5.53019762e-001 ]
      - [ 3.94738495e-001, 5.82104027e-001, 3.49085689e-001,
          3.64089102e-001, 4.08477336e-001, 4.99294341e-001,
          5.16925693e-001, 3.49085689e-001, 4.66457188e-001 ]
      - [ 5.49842477e-001, 5.35899222e-001, 5.27546525e-001,
          6.99944854e-001, 6.77456737e-001, 3.41346294e-001,
          3.14914912e-001, 5.27546525e-001, 8.56260359e-001 ]
      - [ 4.16872352e-001, 6.25488162e-001, 6.46151900e-001,
          6.92777455e-001, 5.77414632e-001, 2.32220575e-001,
          2.55424738e-001, 6.46151900e-001, 7.17106342e-001 ]
      - [ 7.39416957e-001, 2.32967868e-001, 3.08308154e-001,
          2.88593471e-001, 1.81152344e-001, 5.36013305e-001,
          8.61723840e-001, 3.08308154e-001, 4.46711183e-001 ]
      - [ 5.01656950e-001, 4.70977426e-001, 4.17109668e-001,
          3.05247635e-001, 2.75686800e-001, 4.36911047e-001,
          6.91307724e-001, 4.17109668e-001, 4.49627221e-001 ]
      - [ 3.99340659e-001, 6.23138368e-001, 6.92875087e-001,
          7.00718343e-001, 3.88120055e-001, 2.58047581e-001,
          3.10712993e-001, 6.92875087e-001, 6.40978038e-001 ]
      - [ 2.82884657e-001, 7.70889223e-001, 5.49191773e-001,
          7.38836646e-001, 6.41889572e-001, 2.81156689e-001,
          1.54101834e-001, 5.49191773e-001, 7.97115862e-001 ]
      - [ 3.03787649e-001, 6.48509026e-001, 5.10781944e-001,
          2.61667639e-001, 3.61890167e-001, 4.24116284e-001,
          5.76066554e-001, 5.10781944e-001, 3.72902691e-001 ]
      - [ 4.46955591e-001, 5.88209152e-001, 6.14599228e-001,
          6.20968282e-001, 4.62261200e-001, 3.46939355e-001,
          4.19915676e-001, 6.14599228e-001, 6.83245718e-001 ]
      - [ 4.20345366e-001, 6.34392083e-001, 5.68067908e-001,
          6.95255280e-001, 4.41269696e-001, 3.53032619e-001,
          3.19338739e-001, 5.68067908e-001, 7.66344130e-001 ]
      - [ 4.95008856e-001, 5.32163560e-001, 5.60743392e-001,
          6.30304039e-001, 4.64268148e-001, 4.13400441e-001,
          3.87542009e-001, 5.60743392e-001, 6.45627260e-001 ]
      - [ 7.58984685e-002, 8.78668368e-001, 4.42766041e-001,
          3.17601055e-001, 4.41596955e-001, 4.41366822e-001,
          3.65616500e-001, 4.42766041e-001, 3.71856898e-001 ]
      - [ 2.89063156e-001, 6.97000742e-001, 6.34569407e-001,
          5.27865410e-001, 5.65078855e-001, 2.56777048e-001,
          3.65219921e-001, 6.34569407e-001, 5.06270111e-001 ]
      - [ 4.80833262e-001, 5.39322793e-001, 2.98462808e-001,
          3.57184976e-001, 2.98322052e-001, 5.26799679e-001,
          6.04181588e-001, 2.98462808e-001, 6.21213019e-001 ]
      - [ 3.03667396e-001, 6.42312884e-001, 3.24008226e-001,
          1.84278101e-001, 4.03265625e-001, 5.26047528e-001,
          6.03442729e-001, 3.24008226e-001, 3.48844618e-001 ]
      - [ 7.27667511e-001, 3.19085717e-001, 5.06071866e-001,
          6.29696488e-001, 3.92389625e-001, 3.38891596e-001,
          5.92430413e-001, 5.06071866e-001, 6.81356430e-001 ]
      - [ 3.80004019e-001, 6.25433683e-001, 1.89123213e-001,
          3.81260246e-001, 2.68799692e-001, 6.10718846e-001,
          5.03349721e-001, 1.89123213e-001, 5.76329827e-001 ]
      - [ 5.94198704e-001, 4.82607007e-001, 3.27702403e-001,
          6.60493255e-001, 5.29473424e-001, 5.42877138e-001,
          4.41258132e-001, 3.27702403e-001, 8.11060548e-001 ]
      - [ 3.73346120e-001, 5.86039364e-001, 5.52662432e-001,
          3.09920818e-001, 3.18924278e-001, 2.99343884e-001,
          5.81668317e-001, 5.52662432e-001, 4.01751488e-001 ]
      - [ 4.84386861e-001, 4.57564503e-001, 3.60561937e-001,
          3.82454038e-001, 2.95195758e-001, 5.93610883e-001,
          6.53830349e-001, 3.60561937e-001, 3.44788462e-001 ]
      - [ 4.99862880e-001, 5.28339684e-001, 3.13680530e-001,
          5.13839066e-001, 4.67334777e-001, 5.52977145e-001,
          5.27683079e-001, 3.13680530e-001, 6.48697555e-001 ]
      - [ 4.54400033e-001, 6.22233152e-001, 6.27932131e-001,
          7.47123122e-001, 6.76780760e-001, 3.00053746e-001,
          2.50592530e-001, 6.27932131e-001, 8.46764028e-001 ]
      - [ 1.22759923e-001, 8.77516806e-001, 2.82622665e-001,
          4.14164633e-001, 4.13067937e-001, 5.03462911e-001,
          3.19468588e-001, 2.82622665e-001, 5.82658768e-001 ]
      - [ 3.72973740e-001, 6.46179616e-001, 3.77192855e-001,
          5.83159089e-001, 5.21899104e-001, 5.05166113e-001,
          3.54759961e-001, 3.77192855e-001, 6.31521702e-001 ]
      - [ 3.20592284e-001, 6.98774576e-001, 4.43080336e-001,
          6.00282371e-001, 4.41491067e-001, 4.89586681e-001,
          3.32732946e-001, 4.43080336e-001, 6.39991939e-001 ]
      - [ 3.34765434e-001, 6.65484130e-001, 5.40221453e-001,
          5.96215069e-001, 4.20662373e-001, 3.96555156e-001,
          3.69945884e-001, 5.40221453e-001, 5.60256660e-001 ]
      - [ 4.17610556e-001, 6.46780431e-001, 5.13559103e-001,
          6.69933438e-001, 4.88458902e-001, 3.38158667e-001,
          3.28703344e-001, 5.13559103e-001, 8.06742549e-001 ]
      - [ 2.69434214e-001, 7.57732630e-001, 7.27697313e-001,
          7.90347934e-001, 4.35773611e-001, 2.28813291e-001,
          1.79372355e-001, 7.27697313e-001, 6.82230949e-001 ]
      - [ 4.09592003e-001, 6.44427896e-001, 4.29922491e-001,
          7.58105934e-001, 4.73833323e-001, 4.19086963e-001,
          2.58979827e-001, 4.29922491e-001, 7.66179025e-001 ]
      - [ 5.11443138e-001, 5.83823621e-001, 6.26807332e-001,
          7.39960670e-001, 6.41055942e-001, 2.37973645e-001,
          3.41457844e-001, 6.26807332e-001, 9.05160785e-001 ]
      - [ 4.14868504e-001, 6.94632113e-001, 8.71427655e-001, 1.,
          4.85560417e-001, 0., 0., 8.71427655e-001, 1. ]
      - [ 6.73390925e-001, 4.19492900e-001, 5.16381443e-001,
          6.77490532e-001, 7.07154095e-001, 3.94977689e-001,
          4.13206786e-001, 5.16381443e-001, 8.50375414e-001 ]
      - [ 3.98826629e-001, 6.56695783e-001, 4.78389740e-001,
          7.24733412e-001, 3.07379007e-001, 2.73193598e-001,
          2.10511401e-001, 4.78389740e-001, 7.74686992e-001 ]
      - [ 5.71145892e-001, 4.83205408e-001, 6.22929752e-001,
          6.99309051e-001, 4.78783637e-001, 2.83748567e-001,
          4.27868634e-001, 6.22929752e-001, 7.33367920e-001 ]
      - [ 3.00924540e-001, 7.29478478e-001, 5.84522188e-001,
          6.82046175e-001, 5.31622648e-001, 3.41072857e-001,
          2.29901612e-001, 5.84522188e-001, 6.90006554e-001 ]
      - [ 5.44923723e-001, 5.61688602e-001, 4.27086174e-001,
          7.74719656e-001, 2.79195368e-001, 3.65363777e-001,
          3.37484896e-001, 4.27086174e-001, 9.39960420e-001 ]
      - [ 5.23659408e-001, 4.53411281e-001, 5.69653392e-001,
          5.28185546e-001, 3.95816714e-001, 4.13727731e-001,
          5.90473473e-001, 5.69653392e-001, 4.64952260e-001 ]
      - [ 6.10308647e-001, 4.20388579e-001, 4.83916193e-001,
          5.91562629e-001, 4.01361138e-001, 4.82375264e-001,
          5.30815661e-001, 4.83916193e-001, 6.43011987e-001 ]
      - [ 3.96311134e-001, 6.17695153e-001, 6.18298829e-001,
          6.76007986e-001, 4.91693735e-001, 3.75932336e-001,
          3.00139755e-001, 6.18298829e-001, 6.08314812e-001 ]
      - [ 5.51597357e-001, 4.81458753e-001, 3.39331120e-001,
          6.65137708e-001, 3.77774626e-001, 5.38493335e-001,
          4.36529785e-001, 3.39331120e-001, 6.59512877e-001 ]
      - [ 3.13381106e-001, 7.32948840e-001, 5.04198551e-001,
          7.48439908e-001, 2.80098110e-001, 2.31340006e-001,
          2.13433862e-001, 5.04198551e-001, 7.56279171e-001 ]
      - [ 2.97941357e-001, 7.38820791e-001, 7.45384812e-001,
          7.90894628e-001, 4.59995776e-001, 1.84013590e-001,
          1.89088702e-001, 7.45384812e-001, 7.18145430e-001 ]
      - [ 3.50935072e-001, 6.52544677e-001, 5.47907889e-001,
          6.06032014e-001, 5.17002881e-001, 4.09886301e-001,
          3.28630179e-001, 5.47907889e-001, 5.71630895e-001 ]
      - [ 6.65712059e-001, 3.76436800e-001, 5.95084310e-001,
          7.25930274e-001, 2.77607530e-001, 2.87670881e-001,
          4.95078087e-001, 5.95084310e-001, 6.74951255e-001 ]
      - [ 4.05340493e-001, 5.99767983e-001, 6.86042607e-001,
          8.03408742e-001, 4.46713954e-001, 2.38493368e-001,
          2.12307841e-001, 6.86042607e-001, 5.72876751e-001 ]
      - [ 6.63535833e-001, 3.80358756e-001, 4.90045935e-001,
          6.47307456e-001, 3.12337559e-002, 3.64943147e-001,
          5.85346162e-001, 4.90045935e-001, 6.81337118e-001 ]
      - [ 6.64199889e-001, 4.15745229e-001, 5.42839408e-001,
          6.53975725e-001, 5.69659054e-001, 4.11510468e-001,
          5.14024496e-001, 5.42839408e-001, 8.06365669e-001 ]
      - [ 3.61630321e-001, 6.64814472e-001, 8.44402909e-001,
          8.01879346e-001, 4.71733868e-001, 1.48401022e-001,
          2.07692817e-001, 8.44402909e-001, 6.63019896e-001 ]
      - [ 2.96855360e-001, 7.56561100e-001, 6.48211539e-001,
          7.53462136e-001, 6.02436006e-001, 1.95545048e-001,
          1.58398166e-001, 6.48211539e-001, 7.91728318e-001 ]
      - [ 4.78784114e-001, 6.12736046e-001, 5.36752641e-001,
          8.02326918e-001, 2.39894494e-001, 2.52160877e-001,
          2.99502373e-001, 5.36752641e-001, 9.00355518e-001 ]
      - [ 6.49230957e-001, 4.26502109e-001, 3.82727832e-001,
          6.83860064e-001, 2.74266720e-001, 3.45137537e-001,
          4.47391033e-001, 3.82727832e-001, 7.94655502e-001 ]
      - [ 3.78612190e-001, 6.58147514e-001, 5.10654926e-001,
          6.69209182e-001, 1.66048497e-001, 2.94509113e-001,
          3.24987739e-001, 5.10654926e-001, 7.01882720e-001 ]
      - [ 4.96197164e-001, 5.25485992e-001, 5.34845948e-001,
          6.13509297e-001, 2.31000707e-001, 3.01534206e-001,
          4.86945719e-001, 5.34845948e-001, 6.25160396e-001 ]
      - [ 3.94505024e-001, 6.06415451e-001, 4.44874585e-001,
          5.03742158e-001, 2.68429220e-001, 3.49905938e-001,
          4.23624218e-001, 4.44874585e-001, 5.57956278e-001 ]
      - [ 6.09949827e-001, 3.83896858e-001, 3.21311891e-001,
          4.52008009e-001, 2.49430969e-001, 4.39868599e-001,
          6.26024485e-001, 3.21311891e-001, 5.18387318e-001 ]
      - [ 6.38690531e-001, 4.25864220e-001, 5.11493087e-001,
          7.04924881e-001, 6.98917732e-002, 3.35097969e-001,
          4.76053774e-001, 5.11493087e-001, 7.57412851e-001 ]
      - [ 7.13743746e-001, 3.99287879e-001, 5.97277164e-001,
          7.66750097e-001, 2.15478018e-001, 2.82819778e-001,
          4.69462901e-001, 5.97277164e-001, 9.12084997e-001 ]
      - [ 6.77138388e-001, 3.23849559e-001, 3.94570708e-001,
          4.17118251e-001, 5.13360918e-001, 5.82420886e-001,
          7.65013576e-001, 3.94570708e-001, 5.38048148e-001 ]
      - [ 6.11971438e-001, 4.34032798e-001, 4.28429991e-001,
          6.34699166e-001, 2.62404978e-001, 3.21498632e-001,
          4.62388098e-001, 4.28429991e-001, 6.96441114e-001 ]
      - [ 3.79007250e-001, 6.66195989e-001, 4.30392742e-001,
          6.94369376e-001, 2.42476091e-001, 2.96185315e-001,
          2.68816561e-001, 4.30392742e-001, 7.36815453e-001 ]
      - [ 5.23845315e-001, 4.83208656e-001, 4.56630230e-001,
          4.30925101e-001, 1.85768917e-001, 4.36119527e-001,
          6.16926670e-001, 4.56630230e-001, 5.69378614e-001 ]
      - [ 4.42159981e-001, 5.55821717e-001, 4.92463410e-001,
          4.66248989e-001, 2.31241271e-001, 3.26857746e-001,
          5.46530366e-001, 4.92463410e-001, 5.43124855e-001 ]
      - [ 4.25244629e-001, 5.27673662e-001, 1.38844967e-001,
          2.40736485e-001, 3.21575493e-001, 6.40925050e-001,
          6.54769897e-001, 1.38844967e-001, 3.80290151e-001 ]
      - [ 4.59937513e-001, 5.58950424e-001, 2.21220136e-001,
          4.26370680e-001, 6.50382638e-001, 6.66581511e-001,
          5.59136093e-001, 2.21220136e-001, 6.19413614e-001 ]
      - [ 2.39602327e-001, 7.00645089e-001, 5.65344393e-001,
          3.70839477e-001, 4.77954119e-001, 4.77856338e-001,
          5.02676964e-001, 5.65344393e-001, 3.22647512e-001 ]
      - [ 5.15920937e-001, 5.44326186e-001, 5.11083603e-001,
          7.04760909e-001, 2.65655249e-001, 2.20750168e-001,
          2.82586128e-001, 5.11083603e-001, 7.66961336e-001 ]
      - [ 4.24256057e-001, 5.60272813e-001, 1.05629645e-001,
          1.48754552e-001, 5.69368541e-001, 7.50142336e-001,
          7.29684412e-001, 1.05629645e-001, 4.94350493e-001 ]
      - [ 4.97345835e-001, 4.43705380e-001, 1.80230230e-001,
          2.38876566e-001, 2.29153767e-001, 6.26537442e-001,
          7.38187432e-001, 1.80230230e-001, 3.42666626e-001 ]
      - [ 3.91389042e-001, 5.70585072e-001, 3.26101094e-001,
          4.12252188e-001, 6.39916778e-001, 5.30228376e-001,
          5.24699271e-001, 3.26101094e-001, 4.11944598e-001 ]
      - [ 4.21047151e-001, 6.65936112e-001, 6.32532120e-001,
          8.70023489e-001, 4.18624610e-001, 1.14926375e-001,
          9.36390534e-002, 6.32532120e-001, 9.00366724e-001 ]
      - [ 4.17434752e-001, 5.67567885e-001, 4.06367242e-001,
          5.03164530e-001, 6.82219684e-001, 5.63413441e-001,
          4.29471493e-001, 4.06367242e-001, 4.96385396e-001 ]
      - [ 5.78392267e-001, 3.48914504e-001, 1.85444146e-001,
          1.77194506e-001, 2.07623586e-001, 6.52633607e-001,
          8.08479846e-001, 1.85444146e-001, 3.03822249e-001 ]
      - [ 6.38796628e-001, 4.62091833e-001, 4.69339162e-001,
          7.51445293e-001, 2.64295250e-001, 3.14636111e-001,
          3.99361700e-001, 4.69339162e-001, 8.89082074e-001 ]
      - [ 6.44617796e-001, 3.40763032e-001, 3.62734288e-001,
          5.00661314e-001, 2.17567593e-001, 4.86825198e-001,
          6.31956756e-001, 3.62734288e-001, 4.89442766e-001 ]
      - [ 3.28952789e-001, 6.81929410e-001, 5.43598711e-001,
          6.02344930e-001, 5.99940836e-001, 3.77895743e-001,
          3.52503210e-001, 5.43598711e-001, 6.04149044e-001 ]
      - [ 8.28329265e-001, 2.34337032e-001, 4.54973519e-001,
          6.85142159e-001, 2.20071338e-002, 3.39591533e-001,
          5.76751113e-001, 4.54973519e-001, 7.18083620e-001 ]
      - [ 3.40430826e-001, 6.00977898e-001, 2.14858040e-001,
          1.76301584e-001, 2.58902937e-001, 6.25314951e-001,
          6.90415382e-001, 2.14858040e-001, 3.34522724e-001 ]
      - [ 5.60106933e-001, 3.59579533e-001, 4.03299242e-001,
          2.90839791e-001, 4.27000821e-001, 5.64800382e-001,
          8.08463335e-001, 4.03299242e-001, 2.78491765e-001 ]
      - [ 4.33358043e-001, 5.05231023e-001, 4.20030177e-001,
          3.90648931e-001, 5.93952775e-001, 5.41700304e-001,
          5.83379745e-001, 4.20030177e-001, 3.30516994e-001 ]
      - [ 3.67121011e-001, 5.42575300e-001, 2.35241011e-001,
          1.88358068e-001, 2.80855060e-001, 6.09752238e-001,
          6.80241048e-001, 2.35241011e-001, 2.23997831e-001 ]
      - [ 3.49574953e-001, 6.71863317e-001, 5.57100654e-001,
          6.26845598e-001, 6.72235668e-001, 3.48624647e-001,
          3.55279297e-001, 5.57100654e-001, 6.44483864e-001 ]
      - [ 4.03813303e-001, 5.52919924e-001, 5.54498672e-001,
          4.27514136e-001, 5.30171514e-001, 4.10222828e-001,
          5.38983405e-001, 5.54498672e-001, 3.93155366e-001 ]
      - [ 3.18178892e-001, 6.81931019e-001, 5.05179524e-001,
          5.26204586e-001, 6.75363064e-001, 4.27636802e-001,
          3.69537503e-001, 5.05179524e-001, 5.61360300e-001 ]
      - [ 4.41604465e-001, 5.00989676e-001, 4.00459886e-001,
          2.76931405e-001, 3.90685201e-001, 3.86981785e-001,
          5.80459654e-001, 4.00459886e-001, 3.44924778e-001 ]
      - [ 4.85405236e-001, 5.77972710e-001, 3.89802158e-001,
          7.56307304e-001, 0., 3.93308282e-001, 3.58045965e-001,
          3.89802158e-001, 7.86056757e-001 ]
      - [ 6.63180530e-001, 3.84822667e-001, 3.18748444e-001,
          5.50367117e-001, 1.93558469e-001, 4.60457921e-001,
          5.61201632e-001, 3.18748444e-001, 6.95454717e-001 ]
      - [ 3.92590493e-001, 6.12386107e-001, 3.12740356e-001,
          4.49688435e-001, 3.51374060e-001, 4.21250612e-001,
          4.62862581e-001, 3.12740356e-001, 5.73751032e-001 ]
      - [ 3.76039505e-001, 6.45161688e-001, 3.16244245e-001,
          5.98106861e-001, 1.99311137e-001, 4.49948102e-001,
          3.85141253e-001, 3.16244245e-001, 6.39683783e-001 ]
      - [ 4.76233929e-001, 4.35153157e-001, 4.98386413e-001,
          2.84476876e-001, 2.97329128e-001, 4.96696323e-001,
          7.30949700e-001, 4.98386413e-001, 2.43384674e-001 ]
      - [ 4.35346365e-001, 5.98613083e-001, 7.06889629e-001,
          7.41284490e-001, 3.87860566e-001, 2.07143530e-001,
          2.67558366e-001, 7.06889629e-001, 6.80793166e-001 ]
      - [ 3.89536291e-001, 5.47112882e-001, 3.13210785e-001,
          1.87594473e-001, 3.14753443e-001, 6.05662704e-001,
          7.13242650e-001, 3.13210785e-001, 3.20768386e-001 ]
      - [ 5.98131835e-001, 3.98139298e-001, 3.11375856e-001,
          6.36591017e-001, 5.89018427e-002, 4.71125722e-001,
          5.08163035e-001, 3.11375856e-001, 5.27139425e-001 ]
      - [ 3.46743673e-001, 5.86594462e-001, 3.45435023e-001,
          1.25446796e-001, 4.56755370e-001, 5.32209873e-001,
          6.31961465e-001, 3.45435023e-001, 3.05391014e-001 ]
      - [ 3.88060063e-001, 5.84708631e-001, 4.22991395e-001,
          3.54419589e-001, 4.54080433e-001, 5.13580978e-001,
          6.34343386e-001, 4.22991395e-001, 4.51775640e-001 ]
      - [ 5.18760562e-001, 5.32062471e-001, 5.99492848e-001,
          7.77194500e-001, 2.86468536e-001, 2.96147496e-001,
          3.44141871e-001, 5.99492848e-001, 7.30458736e-001 ]
      - [ 4.48879659e-001, 5.12645006e-001, 4.09022421e-001,
          4.45574611e-001, 6.59379065e-001, 5.15652418e-001,
          5.46112537e-001, 4.09022421e-001, 4.11132962e-001 ]
      - [ 5.77750921e-001, 3.87344778e-001, 1.57911971e-001,
          4.56676126e-001, 4.40180093e-001, 6.90187573e-001,
          6.34515703e-001, 1.57911971e-001, 4.24445212e-001 ]
      - [ 5.07362306e-001, 4.16807085e-001, 0., 1.44475862e-001,
          4.39781994e-001, 8.20848227e-001, 8.07469487e-001, 0.,
          2.88013697e-001 ]
      - [ 3.04554880e-001, 6.89230084e-001, 2.47459456e-001,
          3.24772298e-001, 6.98346078e-001, 6.81750774e-001,
          4.97391492e-001, 2.47459456e-001, 5.36821902e-001 ]
      - [ 3.38952631e-001, 5.89699686e-001, 2.50318140e-001,
          4.12910968e-001, 2.63550282e-001, 5.72623432e-001,
          5.20827830e-001, 2.50318140e-001, 2.87822992e-001 ]
      - [ 1.87642410e-001, 7.18492627e-001, 5.26570618e-001,
          3.67333978e-001, 2.47207746e-001, 4.84905809e-001,
          4.73322541e-001, 5.26570618e-001, 1.82185337e-001 ]
      - [ 2.34502375e-001, 7.08495617e-001, 4.35498446e-001,
          4.18373615e-001, 5.14431238e-001, 5.57647765e-001,
          4.75779951e-001, 4.35498446e-001, 3.33045006e-001 ]
      - [ 4.03581321e-001, 5.47926188e-001, 4.68511671e-001,
          2.15368956e-001, 4.60909098e-001, 3.94728214e-001,
          5.97696960e-001, 4.68511671e-001, 3.74336690e-001 ]
      - [ 3.38093877e-001, 6.52083516e-001, 3.01547438e-001,
          3.57993394e-001, 6.54216051e-001, 5.08208394e-001,
          5.11080801e-001, 3.01547438e-001, 5.20217299e-001 ]
      - [ 5.41388273e-001, 4.31202084e-001, 3.75875354e-001,
          2.76807547e-001, 3.85468870e-001, 5.12535155e-001,
          6.75878644e-001, 3.75875354e-001, 4.49372083e-001 ]
      - [ 4.43766505e-001, 6.13955200e-001, 4.77304786e-001,
          4.77515101e-001, 7.40823209e-001, 3.33313167e-001,
          4.13121790e-001, 4.77304786e-001, 7.73250818e-001 ]
      - [ 5.06304622e-001, 4.26377803e-001, 2.70512372e-001,
          1.56052321e-001, 4.46908593e-001, 6.37633264e-001,
          8.44656467e-001, 2.70512372e-001, 3.15734893e-001 ]
      - [ 4.42171901e-001, 5.10055840e-001, 2.06344992e-001,
          2.56633162e-001, 4.51009184e-001, 6.18916869e-001,
          6.18760884e-001, 2.06344992e-001, 3.78302425e-001 ]
      - [ 4.37651843e-001, 5.85194290e-001, 3.48826647e-001,
          4.67549235e-001, 5.89830577e-001, 5.28709590e-001,
          4.61370677e-001, 3.48826647e-001, 6.37483716e-001 ]
      - [ 3.89906883e-001, 5.79679906e-001, 4.01960313e-001,
          3.66545379e-001, 4.53615367e-001, 4.78516698e-001,
          5.64796865e-001, 4.01960313e-001, 4.39963669e-001 ]
      - [ 3.32912415e-001, 7.07087398e-001, 5.89802444e-001,
          6.25837684e-001, 5.75955033e-001, 4.23368007e-001,
          3.06756586e-001, 5.89802444e-001, 7.24737823e-001 ]
      - [ 5.55958331e-001, 4.67302471e-001, 4.48407173e-001,
          7.17869580e-001, 5.06901219e-002, 3.24924499e-001,
          4.26263422e-001, 4.48407173e-001, 6.23894453e-001 ]
      - [ 3.59534770e-001, 6.55930698e-001, 3.51292998e-001,
          4.11120147e-001, 4.04408187e-001, 6.02852225e-001,
          5.80903471e-001, 3.51292998e-001, 6.18915856e-001 ]
      - [ 3.76824766e-001, 5.65634966e-001, 4.33355719e-001,
          4.70112801e-001, 3.80961239e-001, 5.34732759e-001,
          5.18006861e-001, 4.33355719e-001, 3.40557396e-001 ]
      - [ 4.66509581e-001, 4.90344346e-001, 3.16809833e-001,
          2.43654296e-001, 3.22693259e-001, 6.60355687e-001,
          7.63174653e-001, 3.16809833e-001, 3.95263284e-001 ]
      - [ 5.73281467e-001, 4.32846516e-001, 1.91902846e-001,
          3.88845980e-001, 5.32915652e-001, 6.64766967e-001,
          6.65236890e-001, 1.91902846e-001, 5.62288463e-001 ]
      - [ 2.80101210e-001, 7.01158285e-001, 2.68844634e-001,
          3.72786880e-001, 4.68553156e-001, 6.34059906e-001,
          5.24515152e-001, 2.68844634e-001, 4.87531722e-001 ]
      - [ 5.10956645e-001, 4.46389139e-001, 3.95015478e-001,
          4.56238478e-001, 2.33286709e-001, 4.22493577e-001,
          5.44157922e-001, 3.95015478e-001, 3.97902578e-001 ]
      - [ 3.58129799e-001, 5.80179691e-001, 5.76927125e-001,
          4.47029799e-001, 3.30091923e-001, 4.01408792e-001,
          5.51383793e-001, 5.76927125e-001, 3.24300379e-001 ]
      - [ 2.93483287e-001, 6.95375323e-001, 4.30307984e-001,
          5.68860590e-001, 7.93006957e-001, 4.87337291e-001,
          3.16690117e-001, 4.30307984e-001, 5.17507970e-001 ]
      - [ 4.79245514e-001, 5.19766033e-001, 4.49628443e-001,
          5.60953021e-001, 6.43651426e-001, 4.71306801e-001,
          4.59486902e-001, 4.49628443e-001, 5.44053257e-001 ]
      - [ 8.85616243e-001, 1.78793445e-001, 3.70706499e-001,
          5.30616760e-001, 6.44696176e-001, 4.92884636e-001,
          7.40307271e-001, 3.70706499e-001, 7.14624822e-001 ]
      - [ 7.28714466e-001, 3.46909940e-001, 6.20211780e-001,
          5.88870227e-001, 5.94741166e-001, 3.60932976e-001,
          6.25594854e-001, 6.20211780e-001, 7.77803242e-001 ]
      - [ 2.38465384e-001, 8.16046238e-001, 5.78111827e-001,
          7.35875964e-001, 8.39843392e-001, 2.78294414e-001,
          1.12141654e-001, 5.78111827e-001, 8.13598096e-001 ]
      - [ 3.99731994e-001, 5.60697794e-001, 4.58643436e-001,
          5.61036706e-001, 6.08841836e-001, 4.76072729e-001,
          4.33319330e-001, 4.58643436e-001, 4.06383783e-001 ]
      - [ 1.77653283e-001, 8.72184813e-001, 5.32207549e-001,
          6.83845997e-001, 8.38603139e-001, 3.81471843e-001,
          1.03386089e-001, 5.32207549e-001, 8.09915066e-001 ]
      - [ 3.92167300e-001, 6.31233811e-001, 4.77736413e-001,
          6.14509642e-001, 7.07185268e-001, 4.31834102e-001,
          3.40964466e-001, 4.77736413e-001, 6.45932496e-001 ]
      - [ 7.70163760e-002, 8.89591098e-001, 5.70688725e-001,
          5.72485626e-001, 5.77444971e-001, 4.44739431e-001,
          2.46536955e-001, 5.70688725e-001, 4.27612185e-001 ]
      - [ 5.23902357e-001, 4.85815793e-001, 6.19705439e-001,
          6.33296490e-001, 6.32134914e-001, 3.03078741e-001,
          4.28812891e-001, 6.19705439e-001, 5.78929067e-001 ]
      - [ 2.08303407e-001, 7.69540787e-001, 4.00875747e-001,
          5.55275440e-001, 5.85126817e-001, 5.21985948e-001,
          3.34855139e-001, 4.00875747e-001, 4.75741535e-001 ]
      - [ 3.90465647e-001, 6.12645566e-001, 4.08936262e-001,
          5.55757940e-001, 7.04711735e-001, 4.97619033e-001,
          4.06825989e-001, 4.08936262e-001, 5.66605449e-001 ]
      - [ 7.64231265e-001, 2.79773384e-001, 3.97722930e-001,
          5.22427559e-001, 8.23995471e-001, 4.87782508e-001,
          5.80768883e-001, 3.97722930e-001, 6.67654991e-001 ]
      - [ 5.08109450e-001, 4.73903120e-001, 5.87355435e-001,
          5.76604068e-001, 6.31552875e-001, 3.39790404e-001,
          4.64274257e-001, 5.87355435e-001, 4.82324213e-001 ]
      - [ 4.28258240e-001, 5.76097369e-001, 6.11750603e-001,
          6.15288436e-001, 6.41127646e-001, 4.05751824e-001,
          3.90091509e-001, 6.11750603e-001, 5.67911446e-001 ]
      - [ 3.30953240e-001, 7.12295711e-001, 6.26236141e-001,
          6.31733775e-001, 7.86803186e-001, 3.21334362e-001,
          2.98581749e-001, 6.26236141e-001, 7.38992512e-001 ]
      - [ 4.67134923e-001, 6.07638061e-001, 4.94718075e-001,
          6.25462055e-001, 8.50629508e-001, 3.67198437e-001,
          3.10184211e-001, 4.94718075e-001, 8.35849285e-001 ]
      - [ 6.99343204e-001, 3.45924973e-001, 5.40056407e-001,
          6.10751510e-001, 5.09854555e-001, 4.51456457e-001,
          6.54545605e-001, 5.40056407e-001, 6.80664182e-001 ]
      - [ 2.35926241e-001, 7.02453852e-001, 4.45575982e-001,
          4.87976521e-001, 5.26649415e-001, 5.45039177e-001,
          4.46375966e-001, 4.45575982e-001, 3.14870089e-001 ]
      - [ 3.07010740e-001, 6.97562516e-001, 7.42982328e-001,
          6.79378211e-001, 6.24656141e-001, 2.96073735e-001,
          2.71129996e-001, 7.42982328e-001, 5.80684900e-001 ]
      - [ 6.10140681e-001, 4.26380038e-001, 4.75631952e-001,
          5.65489113e-001, 6.54311955e-001, 4.46995825e-001,
          5.22404730e-001, 4.75631952e-001, 6.63440466e-001 ]
      - [ 2.11080626e-001, 8.26325774e-001, 4.47861195e-001,
          6.45015776e-001, 7.27149785e-001, 4.71813560e-001,
          2.02907816e-001, 4.47861195e-001, 7.41097808e-001 ]
      - [ 2.60648429e-001, 7.13234127e-001, 6.56420708e-001,
          5.96500754e-001, 6.56358302e-001, 2.55140752e-001,
          3.26784164e-001, 6.56420708e-001, 4.57923472e-001 ]
      - [ 3.87933165e-001, 6.16338789e-001, 2.57367492e-001,
          4.12071288e-001, 8.10802937e-001, 5.50205469e-001,
          4.49791789e-001, 2.57367492e-001, 5.71308792e-001 ]
      - [ 7.10620165e-001, 2.67874449e-001, 3.99134636e-001,
          4.69977498e-001, 4.68407035e-001, 5.47237813e-001,
          7.73636997e-001, 3.99134636e-001, 4.65949297e-001 ]
      - [ 4.85526294e-001, 5.01061976e-001, 5.82914114e-001,
          5.39179981e-001, 4.94538277e-001, 4.58970100e-001,
          5.42583406e-001, 5.82914114e-001, 4.99201477e-001 ]
      - [ 6.82314157e-001, 3.62146944e-001, 3.32018167e-001,
          5.40593147e-001, 6.57872021e-001, 5.29346466e-001,
          5.96717298e-001, 3.32018167e-001, 6.80409014e-001 ]
      - [ 4.56559598e-001, 5.38818061e-001, 6.08053863e-001,
          7.23905206e-001, 7.42732286e-001, 2.84283340e-001,
          2.90144861e-001, 6.08053863e-001, 5.32393575e-001 ]
      - [ 3.31738412e-001, 6.63502395e-001, 6.08568907e-001,
          6.88464224e-001, 6.91885352e-001, 3.31636071e-001,
          2.94863731e-001, 6.08568907e-001, 5.40589631e-001 ]
      - [ 6.61102474e-001, 3.70463133e-001, 5.21207273e-001,
          5.14340520e-001, 5.50677598e-001, 5.24483204e-001,
          6.20590329e-001, 5.21207273e-001, 6.39842629e-001 ]
      - [ 4.85003054e-001, 4.69051182e-001, 5.72340369e-001,
          4.98334259e-001, 4.72147167e-001, 4.84155029e-001,
          5.83471835e-001, 5.72340369e-001, 3.85919034e-001 ]
      - [ 4.18957055e-001, 5.68918407e-001, 6.20021164e-001,
          6.33865774e-001, 3.54661137e-001, 3.42295110e-001,
          4.25956517e-001, 6.20021164e-001, 5.06798863e-001 ]
      - [ 4.70281124e-001, 5.22662759e-001, 3.71554315e-001,
          5.40649772e-001, 5.55665731e-001, 5.18957615e-001,
          5.05028129e-001, 3.71554315e-001, 5.22596896e-001 ]
      - [ 2.21166775e-001, 7.17264831e-001, 2.17480153e-001,
          3.25082451e-001, 7.07916498e-001, 5.73170543e-001,
          4.78541881e-001, 2.17480153e-001, 3.13654840e-001 ]
      - [ 6.57765567e-001, 3.73109818e-001, 1.95981488e-001,
          2.63750583e-001, 7.43997216e-001, 5.78618586e-001,
          7.21474171e-001, 1.95981488e-001, 6.37793720e-001 ]
      - [ 4.45008129e-001, 5.11385441e-001, 1.59227669e-001,
          3.30056459e-001, 6.92663074e-001, 6.81041420e-001,
          5.99063754e-001, 1.59227669e-001, 3.92867804e-001 ]
      - [ 4.99173760e-001, 4.96195793e-001, 3.14535826e-001,
          4.69314009e-001, 5.65885603e-001, 4.79469597e-001,
          5.12657702e-001, 3.14535826e-001, 5.29578149e-001 ]
      - [ 2.62691289e-001, 6.70485914e-001, 4.44766909e-001,
          4.21864480e-001, 6.14818692e-001, 4.59785491e-001,
          4.67623979e-001, 4.44766909e-001, 2.97009468e-001 ]
      - [ 6.46251321e-001, 3.58714551e-001, 4.51695025e-001,
          6.29666090e-001, 4.60748911e-001, 4.35008347e-001,
          5.68130076e-001, 4.51695025e-001, 5.52737176e-001 ]
      - [ 2.47381866e-001, 7.55812347e-001, 3.32075149e-001,
          5.25197148e-001, 8.05352092e-001, 4.69617248e-001,
          3.06017727e-001, 3.32075149e-001, 5.81223965e-001 ]
      - [ 7.68776417e-001, 2.49172419e-001, 2.65559375e-001,
          2.80251682e-001, 7.01263666e-001, 5.79090655e-001,
          8.05663645e-001, 2.65559375e-001, 5.84893942e-001 ]
      - [ 6.30237401e-001, 3.86154562e-001, 4.76557136e-001,
          6.33405924e-001, 6.77873254e-001, 3.77939820e-001,
          4.63698268e-001, 4.76557136e-001, 5.92005491e-001 ]
      - [ 3.23123962e-001, 6.46781445e-001, 3.93510729e-001,
          5.52265227e-001, 6.21665478e-001, 4.82383758e-001,
          3.65930468e-001, 3.93510729e-001, 4.41258997e-001 ]
      - [ 5.63596845e-001, 3.79758865e-001, 4.88927305e-001,
          4.32466954e-001, 6.28024220e-001, 4.27384019e-001,
          6.20939732e-001, 4.88927305e-001, 3.53527576e-001 ]
      - [ 5.65733790e-001, 4.02132869e-001, 5.52402377e-001,
          3.87675673e-001, 5.46408534e-001, 3.72101843e-001,
          7.24257350e-001, 5.52402377e-001, 4.33371663e-001 ]
      - [ 1.46088853e-001, 8.30852866e-001, 4.77152735e-001,
          7.03377664e-001, 7.14329481e-001, 3.94159913e-001,
          1.30394042e-001, 4.77152735e-001, 4.73686904e-001 ]
      - [ 4.07834500e-001, 5.97853005e-001, 3.63343328e-001,
          5.25610685e-001, 8.72471988e-001, 4.51791584e-001,
          3.84433061e-001, 3.63343328e-001, 5.74772775e-001 ]
      - [ 1., 0., 3.46934170e-001, 4.61935282e-001, 4.71847951e-001,
          5.15266418e-001, 8.66556048e-001, 3.46934170e-001,
          5.18843234e-001 ]
      - [ 4.15089190e-001, 5.21190047e-001, 3.10556591e-001,
          3.81187528e-001, 5.84301829e-001, 6.01563513e-001,
          5.93794823e-001, 3.10556591e-001, 3.21119308e-001 ]
      - [ 5.63669086e-001, 4.33688283e-001, 2.78295815e-001,
          4.34241414e-001, 6.99811757e-001, 5.66910923e-001,
          6.04415298e-001, 2.78295815e-001, 5.32577515e-001 ]
      - [ 2.88938403e-001, 7.01658249e-001, 6.17823541e-001,
          6.40609443e-001, 3.58623207e-001, 3.38613868e-001,
          3.54278415e-001, 6.17823541e-001, 5.24754584e-001 ]
      - [ 4.03069198e-001, 6.03530645e-001, 3.85682970e-001,
          5.86570501e-001, 6.07631743e-001, 3.59250873e-001,
          3.53199601e-001, 3.85682970e-001, 5.78733385e-001 ]
      - [ 6.94493115e-001, 3.91797811e-001, 3.31474394e-001,
          4.30098236e-001, 7.72082984e-001, 5.14294446e-001,
          6.37714326e-001, 3.31474394e-001, 8.21942806e-001 ]
      - [ 6.45262063e-001, 3.44149023e-001, 3.16258132e-001,
          5.14531076e-001, 4.26328689e-001, 4.65838820e-001,
          6.35429263e-001, 3.16258132e-001, 5.02083957e-001 ]
      - [ 3.26051921e-001, 7.09998608e-001, 3.54114503e-001,
          5.53906262e-001, 6.65448844e-001, 5.18613935e-001,
          3.71577084e-001, 3.54114503e-001, 7.09226251e-001 ]
      - [ 4.81935263e-001, 3.77305090e-001, 4.25654501e-002,
          1.27652138e-001, 3.20691764e-001, 8.25709939e-001,
          8.79659891e-001, 4.25654501e-002, 7.99552053e-002 ]
      - [ 4.59828973e-001, 5.73407531e-001, 3.23246539e-001,
          5.79944611e-001, 6.50000572e-001, 4.69704926e-001,
          4.54635799e-001, 3.23246539e-001, 6.73751354e-001 ]
      - [ 3.82216245e-001, 6.29640877e-001, 4.84962642e-001,
          6.50160253e-001, 7.47803628e-001, 3.86584222e-001,
          2.85180449e-001, 4.84962642e-001, 6.01439238e-001 ]
      - [ 5.80713570e-001, 4.40052330e-001, 4.26616907e-001,
          5.41301548e-001, 6.38427436e-001, 5.07866204e-001,
          5.13306856e-001, 4.26616907e-001, 6.12016559e-001 ]
      - [ 4.42525417e-001, 5.43586135e-001, 3.12698126e-001,
          4.26053047e-001, 6.24903798e-001, 5.54442167e-001,
          5.17485201e-001, 3.12698126e-001, 4.99220639e-001 ]
   decision_functions:
      -
         sv_count: 29
         rho: 1.5585748968438022e+000
         alpha: [ 6.2500000000000000e+001, 6.2500000000000000e+001,
             2.4612830153301108e+001, 6.2500000000000000e+001,
             6.2500000000000000e+001, 1.2844725528534447e+001,
             6.2500000000000000e+001, 3.6151979540207108e+001,
             6.2500000000000000e+001, 1.9355278548857164e+001,
             6.2500000000000000e+001, 3.9257103877425564e+001,
             6.2500000000000000e+001, 6.2500000000000000e+001,
             -5.4998166656464676e+001, -6.2500000000000000e+001,
             -6.2500000000000000e+001, -6.2500000000000000e+001,
             -5.2818692840722520e+001, -6.2500000000000000e+001,
             -1.9226160404899545e+001, -2.4833763509030811e+000,
             -4.9953104365811797e+001, -6.2500000000000000e+001,
             -1.3109087266413425e+001, -3.5604021171111299e+001,
             -6.2500000000000000e+001, -2.9029308591999047e+001,
             -6.2500000000000000e+001 ]
         index: [ 0, 2, 5, 6, 7, 9, 10, 12, 13, 15, 16, 17, 18, 20, 21,
             23, 26, 28, 30, 31, 37, 41, 42, 43, 45, 51, 52, 53, 54 ]
      -
         sv_count: 16
         rho: -4.7618686695060646e+000
         alpha: [ 6.2500000000000000e+001, 4.0776856797651725e+001,
             3.4413579992949877e+001, 6.2867552932656601e+000,
             6.2500000000000000e+001, 3.9352158505778853e+001,
             5.9827702269556082e-001, 6.2500000000000000e+001,
             -5.2542402270376805e+001, -1.0910222554459093e+001,
             -2.7340840152083739e+001, -6.2500000000000000e+001,
             -2.8457592348830964e+001, -6.2500000000000000e+001,
             -2.1765702865910646e+000, -6.2500000000000000e+001 ]
         index: [ 0, 2, 5, 8, 10, 15, 16, 20, 56, 60, 62, 65, 67, 73, 78,
             79 ]
      -
         sv_count: 20
         rho: -1.9676326369060715e+000
         alpha: [ 6.2500000000000000e+001, 6.2500000000000000e+001,
             9.1110685515292626e+000, 5.0607598984964689e+001,
             3.4521554212068722e+001, 6.2500000000000000e+001,
             6.2500000000000000e+001, 6.2500000000000000e+001,
             4.4985124489317364e+001, -5.7048579709950602e+001,
             -6.2500000000000000e+001, -2.9170968386359482e+000,
             -3.9383762893609315e+001, -3.0947880697063447e+001,
             -6.2500000000000000e+001, -3.3366876800368495e+000,
             -6.2500000000000000e+001, -5.5913384185839181e+000,
             -6.2500000000000000e+001, -6.2500000000000000e+001 ]
         index: [ 0, 2, 5, 6, 10, 16, 17, 18, 20, 84, 95, 97, 100, 101,
             105, 107, 111, 112, 113, 117 ]
      -
         sv_count: 22
         rho: 1.5038805741559227e+000
         alpha: [ 1.1485785977953229e+001, 6.2500000000000000e+001,
             3.6981291875196867e+001, 4.4242630406020893e+001,
             1.5179253455494475e+001, 6.2500000000000000e+001,
             6.2500000000000000e+001, 4.5060013297494294e+001,
             6.2500000000000000e+001, -6.2500000000000000e+001,
             -2.4584458871090660e+000, -5.7139304010477443e-001,
             -6.5098963629542395e+000, -1.7563701865302175e+001,
             -6.2500000000000000e+001, -2.0161586669003032e+001,
             -6.2500000000000000e+001, -6.2500000000000000e+001,
             -5.3802443936217192e-001, -6.2500000000000000e+001,
             -8.1660969553388405e+000, -3.4479829792985385e+001 ]
         index: [ 1, 2, 5, 6, 13, 16, 17, 18, 20, 120, 122, 125, 130,
             131, 132, 134, 136, 139, 140, 141, 148, 149 ]
      -
         sv_count: 28
         rho: -3.7535725655271444e+000
         alpha: [ 6.2500000000000000e+001, 4.0708058369479382e+001,
             6.2500000000000000e+001, 6.2500000000000000e+001,
             6.2500000000000000e+001, 6.2500000000000000e+001,
             6.2500000000000000e+001, 6.2500000000000000e+001,
             6.2500000000000000e+001, 6.2500000000000000e+001,
             5.0838399392684693e+001, 6.2500000000000000e+001,
             4.0022612161907226e+001, -2.8891346537514920e+001,
             -6.2500000000000000e+001, -1.1711003598468478e+001,
             -6.2500000000000000e+001, -5.6906566295228970e+001,
             -2.6018064644791814e+001, -6.2500000000000000e+001,
             -6.2500000000000000e+001, -3.7583522330110995e+001,
             -6.2500000000000000e+001, -6.2500000000000000e+001,
             -6.2500000000000000e+001, -6.2500000000000000e+001,
             -3.2958566517956115e+001, -6.2500000000000000e+001 ]
         index: [ 0, 3, 4, 5, 6, 8, 11, 14, 16, 17, 18, 19, 20, 153, 154,
             156, 158, 159, 160, 164, 165, 168, 169, 171, 172, 175, 177,
             178 ]
      -
         sv_count: 19
         rho: -1.1603167994315617e+000
         alpha: [ 6.2500000000000000e+001, 6.2500000000000000e+001,
             4.8346787042189888e+001, 1.4642200330273576e+001,
             9.1024149592041947e+000, 2.5858498851804402e+001,
             6.2500000000000000e+001, 6.2500000000000000e+001,
             2.8679316651536908e+000, 1.5347648519321185e+001,
             -6.2500000000000000e+001, -5.8891815849979871e+001,
             -1.5416651771949535e+001, -3.8185433880283554e+001,
             -6.2500000000000000e+001, -1.1240027029918174e+001,
             -4.4772037592915716e+001, -1.0159515242900090e+001,
             -6.2500000000000000e+001 ]
         index: [ 0, 2, 3, 5, 10, 14, 16, 17, 18, 19, 181, 187, 194, 195,
             200, 202, 204, 205, 207 ]
      -
         sv_count: 37
         rho: 3.6540973917033021e-001
         alpha: [ 2.1030321522142472e+001, 4.8228496337065870e+001,
             6.2500000000000000e+001, 4.0649386494927583e+001,
             6.2500000000000000e+001, 6.2500000000000000e+001,
             6.2500000000000000e+001, 6.2500000000000000e+001,
             2.5604971586104210e+000, 6.2500000000000000e+001,
             6.2500000000000000e+001, 6.2500000000000000e+001,
             6.2500000000000000e+001, 6.2500000000000000e+001,
             6.2500000000000000e+001, 3.5800017028243005e+001,
             6.2500000000000000e+001, 4.2515723626543924e+001,
             -6.2500000000000000e+001, -6.2500000000000000e+001,
             -1.6191998693980565e+001, -6.2500000000000000e+001,
             -6.2500000000000000e+001, -6.2500000000000000e+001,
             -3.6587774038244753e+001, -1.7278033349088933e+000,
             -6.2500000000000000e+001, -6.2500000000000000e+001,
             -5.0553005899566614e+001, -6.2500000000000000e+001,
             -3.4061475060463188e+001, -6.2500000000000000e+001,
             -6.2500000000000000e+001, -6.2500000000000000e+001,
             -4.5800745313928694e+001, -6.2500000000000000e+001,
             -5.8616398264405785e+000 ]
         index: [ 21, 23, 25, 26, 27, 30, 32, 33, 34, 36, 39, 40, 41, 46,
             48, 50, 52, 55, 56, 57, 58, 59, 60, 62, 63, 64, 65, 67, 68,
             69, 70, 72, 73, 77, 78, 79, 83 ]
      -
         sv_count: 42
         rho: 3.5765087594841991e+000
         alpha: [ 4.4596064028852481e+001, 3.2495465848181986e+001,
             6.2500000000000000e+001, 3.2473510238891130e+001,
             6.2500000000000000e+001, 1.4383018300867926e+001,
             6.2500000000000000e+001, 6.2500000000000000e+001,
             6.2500000000000000e+001, 3.7284144193531525e+001,
             2.9951328250978342e+001, 6.2500000000000000e+001,
             3.6002737384431711e+001, 6.2500000000000000e+001,
             6.2500000000000000e+001, 6.2500000000000000e+001,
             5.5155303439025886e+001, 6.2500000000000000e+001,
             6.2500000000000000e+001, 6.2500000000000000e+001,
             6.2500000000000000e+001, -6.2500000000000000e+001,
             -3.6729479968609340e+001, -2.2743194428308822e+001,
             -6.2500000000000000e+001, -6.2500000000000000e+001,
             -6.2500000000000000e+001, -1.5532848236002668e+001,
             -6.2500000000000000e+001, -6.2500000000000000e+001,
             -5.8960476057406339e+001, -9.6281764445081865e+000,
             -3.1286996186903146e+001, -6.2500000000000000e+001,
             -6.2500000000000000e+001, -6.2500000000000000e+001,
             -6.2500000000000000e+001, -6.2500000000000000e+001,
             -6.2500000000000000e+001, -6.2500000000000000e+001,
             -6.2500000000000000e+001, -4.4960400363022444e+001 ]
         index: [ 22, 25, 29, 30, 31, 33, 34, 35, 36, 37, 41, 43, 44, 45,
             46, 47, 48, 49, 50, 51, 54, 84, 85, 87, 88, 91, 92, 93, 94,
             95, 100, 101, 102, 105, 107, 111, 112, 113, 114, 116, 117,
             118 ]
      -
         sv_count: 38
         rho: 3.4811269814777046e+000
         alpha: [ 6.2500000000000000e+001, 2.1205849930615177e+001,
             6.0594275981822783e+001, 6.2500000000000000e+001,
             3.4702791759901785e+001, 6.2500000000000000e+001,
             6.2500000000000000e+001, 6.2500000000000000e+001,
             6.2500000000000000e+001, 6.2500000000000000e+001,
             4.3668312042135206e+001, 6.2500000000000000e+001,
             1.9101987360158024e+001, 2.6492363507943143e+001,
             2.6739757529975829e+001, 6.2500000000000000e+001,
             6.2500000000000000e+001, 1.6356425965367105e+001,
             6.2500000000000000e+001, 1.9434861536254488e+001,
             -6.2500000000000000e+001, -4.0246862821498418e+001,
             -6.0126570728976127e+001, -6.3126679887483421e+000,
             -6.2500000000000000e+001, -6.2500000000000000e+001,
             -3.1185450269865029e+001, -6.2500000000000000e+001,
             -6.2500000000000000e+001, -6.2500000000000000e+001,
             -6.2500000000000000e+001, -6.2500000000000000e+001,
             -6.2500000000000000e+001, -6.2500000000000000e+001,
             -5.4250738050856526e+000, -6.2500000000000000e+001,
             -6.2500000000000000e+001, -6.2500000000000000e+001 ]
         index: [ 22, 24, 29, 31, 34, 35, 36, 38, 39, 41, 43, 45, 46, 48,
             49, 50, 51, 52, 54, 55, 120, 121, 122, 123, 124, 125, 131,
             133, 135, 136, 139, 140, 141, 143, 146, 147, 148, 149 ]
      -
         sv_count: 14
         rho: 1.1134492559551481e+000
         alpha: [ 8.5391746808525095e+000, 7.0912594879634963e+000,
             3.2199679398026584e+000, 6.2500000000000000e+001,
             1.6890597029382540e+001, 6.2500000000000000e+001,
             3.5024210713529527e+001, -2.0984866844068584e+001,
             -1.8071499735829882e+001, -4.0014861318148974e+001,
             -2.1784612065040402e+001, -1.2642274232055751e+001,
             -4.9875197200611225e+001, -3.2391898455775973e+001 ]
         index: [ 26, 32, 42, 43, 50, 52, 54, 154, 159, 160, 166, 167,
             169, 175 ]
      -
         sv_count: 21
         rho: 1.3459766020540104e-001
         alpha: [ 4.5023970272149354e+000, 2.4639880636306476e+001,
             3.9135984670583865e+000, 1.8749110042300988e+001,
             5.0884386558536585e+000, 6.2500000000000000e+001,
             6.2500000000000000e+001, 1.3711166301204567e+001,
             6.2500000000000000e+001, 6.2500000000000000e+001,
             6.2500000000000000e+001, -6.2500000000000000e+001,
             -6.0157715489359454e+001, -6.3656168891848042e+000,
             -6.2500000000000000e+001, -4.4247438698092502e+001,
             -1.7583992385017602e+001, -4.6069699851858104e+001,
             -6.2500000000000000e+001, -1.4622704782784670e+001,
             -6.5574230336418626e+000 ]
         index: [ 21, 26, 30, 32, 41, 43, 46, 48, 50, 51, 54, 181, 188,
             194, 200, 201, 202, 203, 204, 205, 208 ]
      -
         sv_count: 31
         rho: 5.4740322409499518e+000
         alpha: [ 1.2174196811802330e+001, 1.6736787615104234e+001,
             2.8120563152651236e+001, 6.2500000000000000e+001,
             6.2500000000000000e+001, 4.3747531254304533e+001,
             5.8072916765799519e+001, 5.5460193148339251e+001,
             6.1983841112700951e+001, 2.8927509056034921e+001,
             6.2500000000000000e+001, 3.4365878083003549e+000,
             6.2500000000000000e+001, 6.2500000000000000e+001,
             6.2500000000000000e+001, 6.2500000000000000e+001,
             -1.9668113439303603e+001, -6.2500000000000000e+001,
             -6.2500000000000000e+001, -2.7948626660116460e+001,
             -6.2500000000000000e+001, -6.2500000000000000e+001,
             -2.1419576772236862e+001, -6.2500000000000000e+001,
             -6.2500000000000000e+001, -6.2500000000000000e+001,
             -6.2500000000000000e+001, -6.2500000000000000e+001,
             -1.2275844971131079e+001, -6.2500000000000000e+001,
             -3.9847964882249293e+001 ]
         index: [ 60, 61, 62, 63, 66, 67, 70, 71, 73, 74, 76, 79, 80, 81,
             82, 83, 84, 86, 87, 88, 89, 90, 92, 96, 100, 103, 105, 111,
             112, 115, 118 ]
      -
         sv_count: 21
         rho: 3.5957519752161402e+000
         alpha: [ 6.2500000000000000e+001, 1.8784312618603625e+001,
             7.5503039824958416e+000, 1.9256508052333889e+001,
             6.2500000000000000e+001, 6.2500000000000000e+001,
             6.2500000000000000e+001, 4.9846709723511481e+001,
             8.2997017252352094e+000, 4.5681076096335751e+000,
             5.4221233879053038e+001, 3.3786083347848958e+001,
             -6.2500000000000000e+001, -5.1997136097030392e+001,
             -6.2500000000000000e+001, -2.0210797281552946e+001,
             -5.2912855903780539e+001, -6.2500000000000000e+001,
             -6.2500000000000000e+001, -8.6921716563516718e+000,
             -6.2500000000000000e+001 ]
         index: [ 56, 61, 62, 65, 67, 70, 73, 76, 78, 81, 82, 83, 120,
             122, 125, 136, 139, 141, 142, 143, 149 ]
      -
         sv_count: 13
         rho: 1.4784627368556353e+000
         alpha: [ 6.1410513327224194e+001, 6.2500000000000000e+001,
             6.2500000000000000e+001, 5.2372927853050619e+001,
             -2.6331361708242643e+001, -4.5347226086941752e+001,
             -2.8336052051761552e+001, -1.3151107669956366e+000,
             -1.2988939839499540e+001, -6.2500000000000000e+001,
             -7.5163375172047955e+000, -8.6877910100019164e+000,
             -4.5760622199626916e+001 ]
         index: [ 62, 67, 73, 77, 153, 157, 159, 160, 166, 167, 169, 171,
             175 ]
      -
         sv_count: 14
         rho: 2.0205496959809328e+000
         alpha: [ 6.2500000000000000e+001, 3.0426110712962572e+001,
             1.3544207776678694e+000, 6.2500000000000000e+001,
             1.0580068657702865e+001, 4.0284764975103677e+001,
             6.2500000000000000e+001, 1.1626903369332037e+001,
             -6.2500000000000000e+001, -6.2500000000000000e+001,
             -6.2500000000000000e+001, -3.5207978466644519e+001,
             -1.7613595953335189e+001, -4.1450694072789325e+001 ]
         index: [ 56, 62, 65, 67, 68, 70, 73, 75, 181, 188, 200, 204,
             207, 208 ]
      -
         sv_count: 55
         rho: -2.9767452775498016e+000
         alpha: [ 6.2500000000000000e+001, 5.0289882613446707e+001,
             6.5798503434761608e+000, 6.2500000000000000e+001,
             6.2500000000000000e+001, 6.2500000000000000e+001,
             6.2500000000000000e+001, 6.2500000000000000e+001,
             6.2500000000000000e+001, 2.0274593758409374e+001,
             6.2500000000000000e+001, 6.2500000000000000e+001,
             6.2500000000000000e+001, 2.6422724675551617e+001,
             6.2500000000000000e+001, 1.5203746642487415e+001,
             6.2500000000000000e+001, 6.2500000000000000e+001,
             6.2500000000000000e+001, 6.2500000000000000e+001,
             6.2500000000000000e+001, 6.2500000000000000e+001,
             4.1521380113234898e+001, 6.2500000000000000e+001,
             6.2500000000000000e+001, 6.2500000000000000e+001,
             1.2505136005290327e+001, 6.2500000000000000e+001,
             -6.2500000000000000e+001, -6.2500000000000000e+001,
             -6.2500000000000000e+001, -6.2500000000000000e+001,
             -4.0134076779310163e+001, -6.2500000000000000e+001,
             -6.2500000000000000e+001, -2.3639675113264534e+001,
             -4.9751626214716033e+001, -6.2500000000000000e+001,
             -5.5289546792210096e+001, -6.2500000000000000e+001,
             -6.2500000000000000e+001, -6.2500000000000000e+001,
             -6.2500000000000000e+001, -5.3630372452987814e+001,
             -6.2500000000000000e+001, -6.2500000000000000e+001,
             -6.2500000000000000e+001, -6.2500000000000000e+001,
             -6.2500000000000000e+001, -6.2007789740949185e+001,
             -2.1210391683726350e+001, -6.2500000000000000e+001,
             -9.5956631734410820e+000, -6.2500000000000000e+001,
             -4.5038172201291282e+001 ]
         index: [ 84, 86, 87, 88, 91, 92, 93, 94, 95, 96, 97, 98, 99,
             100, 101, 102, 104, 105, 107, 108, 109, 110, 111, 112, 113,
             114, 117, 118, 119, 120, 121, 122, 124, 125, 126, 127, 128,
             130, 132, 133, 134, 135, 136, 137, 138, 139, 140, 141, 142,
             143, 145, 146, 147, 148, 149 ]
      -
         sv_count: 25
         rho: 2.5045584060351720e+000
         alpha: [ 7.1325048482113997e+000, 6.2500000000000000e+001,
             3.1502002967416225e+001, 3.3711182537870705e+000,
             5.0340202205416354e+001, 8.4484255459144808e-001,
             6.2500000000000000e+001, 6.2500000000000000e+001,
             1.7186962156940332e+001, 6.2500000000000000e+001,
             6.2500000000000000e+001, 6.2500000000000000e+001,
             6.2500000000000000e+001, -5.1107406435730034e+001,
             -3.7188555941298020e+001, -6.2500000000000000e+001,
             -3.7728755892400848e+001, -6.2500000000000000e+001,
             -2.3975731009484441e+001, -6.2500000000000000e+001,
             -6.2500000000000000e+001, -6.2500000000000000e+001,
             -2.0067514266619327e+001, -1.0493679436492428e+001,
             -5.4815990004337706e+001 ]
         index: [ 87, 88, 94, 95, 99, 100, 101, 105, 106, 109, 111, 112,
             113, 151, 160, 161, 165, 168, 172, 173, 174, 175, 176, 179,
             180 ]
      -
         sv_count: 30
         rho: 1.8410510389806007e+000
         alpha: [ 6.2500000000000000e+001, 6.2500000000000000e+001,
             2.2977064483221756e+001, 3.7065903336482521e+001,
             6.2500000000000000e+001, 6.2500000000000000e+001,
             6.2500000000000000e+001, 6.2500000000000000e+001,
             3.4267557484029886e+001, 6.2500000000000000e+001,
             6.2500000000000000e+001, 6.2500000000000000e+001,
             6.2500000000000000e+001, 8.5481628437294574e+000,
             -6.2500000000000000e+001, -6.2500000000000000e+001,
             -6.2500000000000000e+001, -6.2500000000000000e+001,
             -1.2797070524021771e+001, -7.4093400759677257e+000,
             -6.2500000000000000e+001, -5.0820046728171377e+001,
             -6.2500000000000000e+001, -1.8775749343559607e+001,
             -2.2967285689213508e+001, -6.2500000000000000e+001,
             -2.8343098276816399e+001, -2.4246097509713294e+001,
             -6.2500000000000000e+001, -6.2500000000000000e+001 ]
         index: [ 88, 89, 90, 93, 94, 99, 101, 105, 108, 109, 111, 112,
             113, 114, 181, 182, 186, 187, 189, 190, 194, 198, 200, 202,
             203, 204, 205, 207, 208, 209 ]
      -
         sv_count: 16
         rho: 1.2969089803652121e+000
         alpha: [ 1.2190092596110638e+001, 6.2500000000000000e+001,
             3.1793617511522591e+001, 6.2500000000000000e+001,
             5.4697976857631694e+001, 6.2500000000000000e+001,
             5.3448737806585100e+001, -6.2500000000000000e+001,
             -3.4899463662201541e+001, -6.4981049776706774e+000,
             -6.2500000000000000e+001, -6.2500000000000000e+001,
             -2.9546554247507260e+000, -6.2500000000000000e+001,
             -1.6782950419660928e+001, -2.8495250287566126e+001 ]
         index: [ 120, 126, 129, 132, 136, 141, 144, 160, 165, 166, 168,
             173, 174, 175, 179, 180 ]
      -
         sv_count: 29
         rho: 1.5020539668967570e+000
         alpha: [ 5.2331785762906968e+001, 1.5460272853963962e+001,
             6.2500000000000000e+001, 6.2500000000000000e+001,
             3.8340954079877392e+001, 6.2500000000000000e+001,
             6.2500000000000000e+001, 6.2500000000000000e+001,
             2.3104085585897796e+001, 6.2500000000000000e+001,
             6.2500000000000000e+001, 4.7381430574328220e+001,
             2.8798289121833054e+001, -6.2500000000000000e+001,
             -6.2500000000000000e+001, -1.6647951731085225e+001,
             -3.6239425718461270e+001, -1.2080146930077107e+000,
             -6.2500000000000000e+001, -3.8602986282060940e+001,
             -1.7520108832563555e+001, -6.2500000000000000e+001,
             -6.2500000000000000e+001, -1.4419219210563613e+001,
             -1.6219336446288811e+001, -6.2500000000000000e+001,
             -6.2500000000000000e+001, -2.0597750647762370e+000,
             -6.2500000000000000e+001 ]
         index: [ 120, 125, 126, 127, 128, 132, 134, 136, 137, 139, 144,
             146, 149, 181, 182, 183, 184, 185, 186, 187, 194, 198, 200,
             202, 203, 204, 205, 206, 209 ]
      -
         sv_count: 37
         rho: 2.5800852343170084e+000
         alpha: [ 1.4442159577552919e+001, 6.2500000000000000e+001,
             6.2500000000000000e+001, 6.2500000000000000e+001,
             6.2500000000000000e+001, 4.0566584091187723e+000,
             6.2500000000000000e+001, 6.2500000000000000e+001,
             1.5546947127723882e+001, 6.2500000000000000e+001,
             6.2500000000000000e+001, 3.9031571660012133e+001,
             5.4209911184246380e+001, 5.3784347258244992e+001,
             6.2500000000000000e+001, 6.2500000000000000e+001,
             6.2500000000000000e+001, 1.6571955625570151e+001,
             3.0919426975891586e+001, -1.3187127395734375e+001,
             -6.2500000000000000e+001, -6.2500000000000000e+001,
             -4.1384742786500659e+001, -1.9002098176258151e+001,
             -6.2500000000000000e+001, -6.2500000000000000e+001,
             -6.2500000000000000e+001, -3.7579921693873352e+001,
             -6.2500000000000000e+001, -6.2500000000000000e+001,
             -3.1605111210566225e+001, -2.3303976555428054e+001,
             -6.2500000000000000e+001, -6.2500000000000000e+001,
             -6.2500000000000000e+001, -6.2500000000000000e+001,
             -6.2500000000000000e+001 ]
         index: [ 150, 151, 152, 155, 157, 159, 160, 161, 162, 163, 168,
             170, 171, 172, 173, 174, 176, 177, 180, 181, 182, 187, 188,
             189, 191, 192, 193, 194, 195, 196, 197, 199, 200, 202, 204,
             207, 208 ]
