%YAML:1.0
my_svm: !!opencv-ml-svm
   svm_type: C_SVC
   kernel: { type:RBF, gamma:5.0625000000000009e-001 }
   C: 3.1250000000000000e+002
   term_criteria: { epsilon:1.1920928955078125e-007, iterations:1000 }
   var_all: 9
   var_count: 9
   class_count: 7
   class_labels: !!opencv-matrix
      rows: 1
      cols: 7
      dt: i
      data: [ 0, 1, 2, 3, 4, 5, 6 ]
   sv_total: 196
   support_vectors:
      - [ 1.43473729e-001, 8.22536647e-001, 6.39963746e-001,
          7.37629116e-001, 6.68693960e-001, 3.25760096e-001,
          1.42990068e-001, 6.39963746e-001, 4.19380993e-001 ]
      - [ 4.05786067e-001, 6.20273530e-001, 7.52496898e-001,
          7.89532006e-001, 7.43599892e-001, 2.32355326e-001,
          2.66956061e-001, 7.52496898e-001, 6.52815461e-001 ]
      - [ 2.24046856e-001, 7.64544308e-001, 3.81186396e-001,
          4.76613551e-001, 5.71157873e-001, 3.76687050e-001,
          2.55660892e-001, 3.81186396e-001, 5.16502500e-001 ]
      - [ 2.68235385e-001, 6.91767871e-001, 6.87010407e-001,
          6.86140776e-001, 5.85747004e-001, 3.88157576e-001,
          3.38783443e-001, 6.87010407e-001, 3.97085667e-001 ]
      - [ 2.07502782e-001, 8.13356400e-001, 6.23729527e-001,
          7.46746778e-001, 8.52494419e-001, 3.37969065e-001,
          1.51573509e-001, 6.23729527e-001, 6.62710607e-001 ]
      - [ 9.62221920e-002, 9.18878853e-001, 5.49878657e-001,
          7.59621561e-001, 9.21667874e-001, 3.53174239e-001,
          6.41554445e-002, 5.49878657e-001, 6.55409336e-001 ]
      - [ 3.83262783e-001, 6.43456042e-001, 6.27201319e-001,
          7.40840793e-001, 7.91529834e-001, 2.91906834e-001,
          3.20970923e-001, 6.27201319e-001, 6.58830047e-001 ]
      - [ 2.36143693e-001, 7.81738102e-001, 7.39547312e-001,
          7.11975336e-001, 6.60038769e-001, 2.72849202e-001,
          2.68699348e-001, 7.39547312e-001, 6.44353032e-001 ]
      - [ 3.31502467e-001, 6.59292698e-001, 6.82781756e-001,
          6.73490822e-001, 6.80427015e-001, 3.50598484e-001,
          2.94871211e-001, 6.82781756e-001, 5.19602597e-001 ]
      - [ 2.80274063e-001, 6.38846576e-001, 5.83811522e-001,
          5.43050110e-001, 5.83741069e-001, 4.29169655e-001,
          4.09790426e-001, 5.83811522e-001, 2.39689186e-001 ]
      - [ 1.41806260e-001, 9.10561919e-001, 7.84451902e-001,
          8.17433834e-001, 8.16144288e-001, 2.67743170e-001,
          5.32096699e-002, 7.84451902e-001, 8.33114386e-001 ]
      - [ 4.86512035e-001, 5.14223635e-001, 7.42221355e-001,
          6.90256476e-001, 7.05593646e-001, 2.60845900e-001,
          4.31256592e-001, 7.42221355e-001, 5.47643542e-001 ]
      - [ 3.98286194e-001, 5.85485101e-001, 3.69148344e-001,
          4.39557642e-001, 4.21181470e-001, 3.99627477e-001,
          4.51731503e-001, 3.69148344e-001, 4.89096105e-001 ]
      - [ 2.77757466e-001, 7.05402911e-001, 1., 8.35633874e-001,
          6.65175200e-001, 9.74138305e-002, 1.70157015e-001, 1.,
          4.91175801e-001 ]
      - [ 3.58025044e-001, 6.74493670e-001, 5.93731165e-001,
          6.22511804e-001, 6.68154836e-001, 3.91398013e-001,
          3.13906670e-001, 5.93731165e-001, 6.86879933e-001 ]
      - [ 1.41169056e-001, 8.81519675e-001, 8.93604159e-001,
          7.55976796e-001, 6.40320182e-001, 2.10906252e-001,
          1.85835063e-001, 8.93604159e-001, 6.84221804e-001 ]
      - [ 2.25394115e-001, 7.36083329e-001, 7.03369200e-001,
          6.46015286e-001, 5.80428302e-001, 3.33296448e-001,
          3.24989170e-001, 7.03369200e-001, 4.01806116e-001 ]
      - [ 4.48107362e-001, 5.91412485e-001, 2.76422739e-001,
          4.84485209e-001, 5.70250511e-001, 4.69981819e-001,
          4.00690466e-001, 2.76422739e-001, 6.99099302e-001 ]
      - [ 2.14520693e-001, 7.92568028e-001, 3.04240763e-001,
          4.63462710e-001, 4.94999349e-001, 4.27619398e-001,
          2.90021181e-001, 3.04240763e-001, 5.98783612e-001 ]
      - [ 4.54845518e-001, 5.80522120e-001, 6.99795246e-001,
          6.64770186e-001, 6.67868733e-001, 3.40523541e-001,
          4.40242618e-001, 6.99795246e-001, 6.81850314e-001 ]
      - [ 2.39969492e-001, 7.89860845e-001, 6.77244961e-001,
          8.35325480e-001, 7.60240376e-001, 3.01033527e-001,
          1.29700944e-001, 6.77244961e-001, 6.97646976e-001 ]
      - [ 5.45985460e-001, 5.32745600e-001, 6.38422728e-001,
          7.41377413e-001, 8.09217632e-001, 3.75179768e-001,
          3.83607179e-001, 6.38422728e-001, 8.31254661e-001 ]
      - [ 4.69907165e-001, 5.42242050e-001, 6.79322898e-001,
          7.21071601e-001, 8.20401251e-001, 2.65366673e-001,
          3.41814220e-001, 6.79322898e-001, 5.91210842e-001 ]
      - [ 2.11073995e-001, 7.97165990e-001, 4.42252427e-001,
          5.93772471e-001, 4.54239279e-001, 2.95149952e-001,
          1.96218729e-001, 4.42252427e-001, 6.04489088e-001 ]
      - [ 3.32046598e-001, 6.56054497e-001, 4.24131244e-001,
          4.48396146e-001, 4.75434482e-001, 3.72105122e-001,
          3.93702179e-001, 4.24131244e-001, 5.08664846e-001 ]
      - [ 1.56295866e-001, 8.53698313e-001, 8.04207563e-001,
          8.40011477e-001, 7.74522424e-001, 1.74012288e-001,
          5.84432855e-002, 8.04207563e-001, 6.20378256e-001 ]
      - [ 4.54162389e-001, 5.81564009e-001, 6.16687119e-001,
          6.51253462e-001, 5.39703488e-001, 3.33701134e-001,
          4.25791323e-001, 6.16687119e-001, 6.83324099e-001 ]
      - [ 5.29893339e-001, 5.17182052e-001, 5.83326936e-001,
          7.22701013e-001, 6.09010279e-001, 2.93698013e-001,
          3.47047836e-001, 5.83326936e-001, 7.13852346e-001 ]
      - [ 2.91445881e-001, 6.55899942e-001, 3.24242055e-001,
          2.61344969e-001, 4.22821492e-001, 5.03020167e-001,
          5.31048477e-001, 3.24242055e-001, 3.48171681e-001 ]
      - [ 4.28048998e-001, 6.27092063e-001, 5.68914592e-001,
          7.26248682e-001, 5.08232892e-001, 3.41836125e-001,
          3.32364857e-001, 5.68914592e-001, 7.66016960e-001 ]
      - [ 5.05686581e-001, 5.22173405e-001, 5.62379539e-001,
          6.54684901e-001, 6.28881037e-001, 3.94343227e-001,
          3.86641741e-001, 5.62379539e-001, 6.45759881e-001 ]
      - [ 3.74439836e-001, 6.31259143e-001, 1.84808612e-001,
          4.41183031e-001, 3.82687062e-001, 5.81147492e-001,
          4.55601633e-001, 1.84808612e-001, 5.75498879e-001 ]
      - [ 4.61570710e-001, 6.15436792e-001, 6.30382538e-001,
          7.79594719e-001, 6.96684062e-001, 2.87372053e-001,
          2.63826549e-001, 6.30382538e-001, 8.47030222e-001 ]
      - [ 3.25891793e-001, 6.86112761e-001, 5.32649279e-001,
          6.52082741e-001, 6.00536585e-001, 3.58909428e-001,
          2.49614507e-001, 5.32649279e-001, 6.06508553e-001 ]
      - [ 4.16308761e-001, 6.07431471e-001, 5.67111373e-001,
          6.90574706e-001, 5.34906685e-001, 3.57722223e-001,
          3.11753213e-001, 5.67111373e-001, 6.42108023e-001 ]
      - [ 4.18835491e-001, 5.59587955e-001, 3.45562577e-001,
          3.77198458e-001, 3.29274058e-001, 5.02656460e-001,
          5.94432950e-001, 3.45562577e-001, 4.68558222e-001 ]
      - [ 3.87671024e-001, 5.89994311e-001, 3.56644809e-001,
          4.50816035e-001, 5.13582766e-001, 4.65681791e-001,
          4.51872021e-001, 3.56644809e-001, 4.66362089e-001 ]
      - [ 4.82017338e-001, 5.41563809e-001, 4.05123830e-001,
          4.99617875e-001, 5.03959894e-001, 3.38646650e-001,
          4.53383625e-001, 4.05123830e-001, 6.32559359e-001 ]
      - [ 1.20134689e-001, 8.81786287e-001, 5.70795894e-001,
          7.29898214e-001, 5.77021182e-001, 3.25462759e-001,
          1.01231307e-001, 5.70795894e-001, 5.86756289e-001 ]
      - [ 3.64314109e-001, 6.37745261e-001, 5.26589930e-001,
          6.35525942e-001, 4.62962210e-001, 4.30046320e-001,
          3.57249200e-001, 5.26589930e-001, 5.62166393e-001 ]
      - [ 3.62335294e-001, 7.03653574e-001, 7.72786319e-001,
          7.89325476e-001, 7.08817422e-001, 1.44745082e-001,
          2.46587515e-001, 7.72786319e-001, 8.28554094e-001 ]
      - [ 2.26741537e-001, 7.23727584e-001, 1.82996929e-001,
          3.91489267e-001, 4.44228649e-001, 5.64978600e-001,
          3.76763225e-001, 1.82996929e-001, 3.56446862e-001 ]
      - [ 7.46037126e-001, 2.26792961e-001, 3.10112298e-001,
          3.55393678e-001, 2.69107133e-001, 5.13932824e-001,
          8.36975574e-001, 3.10112298e-001, 4.46456730e-001 ]
      - [ 4.01595294e-001, 6.63828373e-001, 5.16060412e-001,
          7.45636463e-001, 6.64882183e-001, 3.17453176e-001,
          2.79143780e-001, 5.16060412e-001, 8.15256476e-001 ]
      - [ 4.82248157e-001, 4.60657626e-001, 3.59785318e-001,
          4.38869625e-001, 3.84731263e-001, 5.69919705e-001,
          6.25834584e-001, 3.59785318e-001, 3.44131738e-001 ]
      - [ 3.38331968e-001, 6.26650810e-001, 3.93595099e-001,
          4.07905370e-001, 3.96065116e-001, 4.44242537e-001,
          5.00748217e-001, 3.93595099e-001, 4.18024570e-001 ]
      - [ 6.74510598e-001, 3.36425692e-001, 6.06690109e-001,
          6.64072692e-001, 4.82530594e-001, 3.62993717e-001,
          5.57782412e-001, 6.06690109e-001, 5.69285154e-001 ]
      - [ 4.97795314e-001, 4.75721747e-001, 4.19961065e-001,
          3.81006509e-001, 3.57974827e-001, 4.13618922e-001,
          6.45261288e-001, 4.19961065e-001, 4.49936152e-001 ]
      - [ 2.94224292e-001, 6.92777991e-001, 6.38096213e-001,
          5.97059548e-001, 5.82259476e-001, 2.39968419e-001,
          3.35855186e-001, 6.38096213e-001, 5.06217718e-001 ]
      - [ 3.44596624e-001, 6.65259600e-001, 1.39632195e-001,
          4.00696576e-001, 4.23677653e-001, 6.36171877e-001,
          4.65396613e-001, 1.39632195e-001, 5.95275819e-001 ]
      - [ 1.18630007e-001, 8.82349968e-001, 2.84554303e-001,
          4.77675140e-001, 5.07280171e-001, 4.77187574e-001,
          2.62808681e-001, 2.84554303e-001, 5.82238913e-001 ]
      - [ 5.07149816e-001, 5.47556639e-001, 4.56330240e-001,
          6.94968462e-001, 5.41213214e-001, 4.35123235e-001,
          4.08947289e-001, 4.56330240e-001, 7.47207820e-001 ]
      - [ 3.92172486e-001, 5.55764735e-001, 6.15855038e-001,
          4.37367588e-001, 4.42568004e-001, 2.96323776e-001,
          4.92715478e-001, 6.15855038e-001, 3.56416613e-001 ]
      - [ 3.67016643e-001, 6.41273320e-001, 2.00210884e-001,
          4.14272249e-001, 4.86416161e-001, 5.42746484e-001,
          3.91514570e-001, 2.00210884e-001, 5.86500704e-001 ]
      - [ 2.70136595e-001, 7.21775770e-001, 7.31370568e-001,
          7.18867481e-001, 5.34627616e-001, 2.11678773e-001,
          1.89363390e-001, 7.31370568e-001, 5.27920008e-001 ]
      - [ 4.25121009e-001, 6.17840052e-001, 6.48915648e-001,
          7.17083752e-001, 6.64034963e-001, 2.22720489e-001,
          2.58817017e-001, 6.48915648e-001, 7.17200041e-001 ]
      - [ 4.03841585e-001, 6.54479384e-001, 4.47674543e-001,
          4.98688519e-001, 6.02072060e-001, 4.40539032e-001,
          4.25483674e-001, 4.47674543e-001, 7.84723938e-001 ]
      - [ 7.36759365e-001, 3.10267746e-001, 5.06392181e-001,
          6.66169941e-001, 5.25600970e-001, 3.20502669e-001,
          6.07266307e-001, 5.06392181e-001, 6.81278348e-001 ]
      - [ 5.60938478e-001, 5.25276780e-001, 5.29358804e-001,
          7.21346796e-001, 7.19406068e-001, 3.30392867e-001,
          3.33792895e-001, 5.29358804e-001, 8.56298983e-001 ]
      - [ 3.03401321e-001, 6.49936795e-001, 5.21201491e-001,
          3.62713128e-001, 3.78965020e-001, 3.99485230e-001,
          5.02958596e-001, 5.21201491e-001, 3.72010797e-001 ]
      - [ 1.80725798e-001, 8.16983819e-001, 3.74439687e-001,
          4.83380824e-001, 5.13234675e-001, 4.27118868e-001,
          2.69907087e-001, 3.74439687e-001, 5.60248196e-001 ]
      - [ 5.34172952e-001, 4.43487704e-001, 5.68750978e-001,
          6.10007465e-001, 4.69213605e-001, 3.90525073e-001,
          5.72780669e-001, 5.68750978e-001, 4.64494079e-001 ]
      - [ 4.30807799e-001, 6.34391487e-001, 5.14062047e-001,
          6.98066175e-001, 6.08338237e-001, 3.22782010e-001,
          3.38418812e-001, 5.14062047e-001, 8.06962013e-001 ]
      - [ 3.35532755e-001, 6.65243030e-001, 5.35133958e-001,
          6.42744243e-001, 5.00805736e-001, 3.78903121e-001,
          3.55452746e-001, 5.35133958e-001, 5.59552372e-001 ]
      - [ 4.02532041e-001, 6.12078309e-001, 6.18794322e-001,
          7.06372321e-001, 6.10860407e-001, 3.60762864e-001,
          3.01813900e-001, 6.18794322e-001, 6.08120322e-001 ]
      - [ 6.62332475e-001, 4.10575449e-001, 7.20103085e-001,
          8.18699300e-001, 5.72103679e-001, 2.23537564e-001,
          4.30736274e-001, 7.20103085e-001, 7.82793224e-001 ]
      - [ 3.54880273e-001, 6.49407864e-001, 5.59026599e-001,
          6.52455330e-001, 5.99210382e-001, 3.86954278e-001,
          3.13272417e-001, 5.59026599e-001, 5.71967900e-001 ]
      - [ 4.88075227e-001, 6.03821039e-001, 5.29467344e-001,
          8.07791293e-001, 4.90627229e-001, 2.40994096e-001,
          3.25524688e-001, 5.29467344e-001, 9.00374413e-001 ]
      - [ 3.78483295e-001, 6.58397138e-001, 5.16849697e-001,
          7.31854498e-001, 2.73930848e-001, 2.75095791e-001,
          3.08376819e-001, 5.16849697e-001, 7.01335669e-001 ]
      - [ 5.00784159e-001, 5.41951776e-001, 7.85183072e-001,
          8.03733349e-001, 6.75095856e-001, 1.50003359e-001,
          2.39834711e-001, 7.85183072e-001, 7.02614427e-001 ]
      - [ 6.91760898e-001, 4.02038008e-001, 5.09535372e-001,
          6.85076296e-001, 7.34353423e-001, 3.86059701e-001,
          4.44978684e-001, 5.09535372e-001, 8.50699127e-001 ]
      - [ 3.03859085e-001, 7.26910770e-001, 5.79982102e-001,
          7.08002985e-001, 6.00630641e-001, 3.29238355e-001,
          2.33222425e-001, 5.79982102e-001, 6.89371765e-001 ]
      - [ 6.16930366e-001, 4.14196104e-001, 4.83954757e-001,
          6.32927656e-001, 5.05678177e-001, 4.60194230e-001,
          5.35541475e-001, 4.83954757e-001, 6.43185318e-001 ]
      - [ 3.11369836e-001, 7.43002236e-001, 6.53283179e-001,
          7.76863873e-001, 7.11844385e-001, 1.84101894e-001,
          1.66503355e-001, 6.53283179e-001, 7.91565597e-001 ]
      - [ 6.81606770e-001, 3.99207026e-001, 5.46108961e-001,
          6.82301939e-001, 6.39668524e-001, 3.93806696e-001,
          5.40099025e-001, 5.46108961e-001, 8.06769967e-001 ]
      - [ 5.50878584e-001, 5.55603027e-001, 4.21265304e-001,
          7.94602573e-001, 4.40383673e-001, 3.49245697e-001,
          3.63079101e-001, 4.21265304e-001, 9.39638674e-001 ]
      - [ 5.34939885e-001, 4.80648398e-001, 6.68973804e-001,
          7.24849284e-001, 4.29817617e-001, 2.81127900e-001,
          4.31176841e-001, 6.68973804e-001, 5.97432137e-001 ]
      - [ 4.03146595e-001, 6.52526557e-001, 4.75710839e-001,
          7.66573846e-001, 4.23709095e-001, 2.59144634e-001,
          2.02246130e-001, 4.75710839e-001, 7.74071991e-001 ]
      - [ 3.15427184e-001, 7.17025220e-001, 4.82313484e-001,
          7.28815019e-001, 4.47482377e-001, 2.91482657e-001,
          2.29048461e-001, 4.82313484e-001, 6.94563627e-001 ]
      - [ 5.55317760e-001, 4.78032827e-001, 3.41789544e-001,
          6.96424246e-001, 4.75806773e-001, 5.16746640e-001,
          4.51123834e-001, 3.41789544e-001, 6.59581482e-001 ]
      - [ 5.38498700e-001, 5.58575451e-001, 6.31299257e-001,
          7.82279968e-001, 7.22335339e-001, 2.25512266e-001,
          3.62547368e-001, 6.31299257e-001, 9.05555785e-001 ]
      - [ 2.49913573e-001, 7.40742505e-001, 7.06626058e-001,
          7.82858074e-001, 5.64682305e-001, 2.18357280e-001,
          1.88151821e-001, 7.06626058e-001, 5.24320006e-001 ]
      - [ 3.73049259e-001, 6.54388368e-001, 8.52314234e-001,
          8.36051941e-001, 5.75607240e-001, 1.38730079e-001,
          2.20081434e-001, 8.52314234e-001, 6.63833499e-001 ]
      - [ 2.94718057e-001, 7.42069781e-001, 7.42029130e-001,
          8.22393239e-001, 6.17456496e-001, 1.70044392e-001,
          1.98216468e-001, 7.42029130e-001, 7.17578053e-001 ]
      - [ 6.68323040e-001, 3.75660062e-001, 5.03895044e-001,
          7.26316512e-001, 1.86904371e-001, 3.36000919e-001,
          5.80722213e-001, 5.03895044e-001, 6.81130946e-001 ]
      - [ 6.61808074e-001, 4.14366007e-001, 3.76355141e-001,
          6.90546751e-001, 4.44765449e-001, 3.34253192e-001,
          4.74883974e-001, 3.76355141e-001, 7.94514537e-001 ]
      - [ 4.94945019e-001, 5.68746328e-001, 3.85935307e-001,
          7.66633213e-001, 2.38084674e-001, 3.74928534e-001,
          3.75661790e-001, 3.85935307e-001, 7.85550714e-001 ]
      - [ 4.23405886e-001, 5.62349975e-001, 4.02803987e-001,
          5.38384199e-001, 7.10048258e-001, 5.39587021e-001,
          4.14758176e-001, 4.02803987e-001, 4.96270418e-001 ]
      - [ 9.71247077e-001, 9.07010511e-002, 4.09528971e-001,
          6.26742721e-001, 2.53458291e-001, 3.90399009e-001,
          8.30431700e-001, 4.09528971e-001, 6.96778953e-001 ]
      - [ 3.32838058e-001, 6.09959662e-001, 2.15281487e-001,
          2.49617457e-001, 3.01575065e-001, 6.00835085e-001,
          6.28474176e-001, 2.15281487e-001, 3.34395677e-001 ]
      - [ 3.90311718e-001, 6.15153670e-001, 3.10832649e-001,
          4.96974260e-001, 4.53443348e-001, 4.00836021e-001,
          4.26790178e-001, 3.10832649e-001, 5.73743463e-001 ]
      - [ 4.17284727e-001, 5.67820191e-001, 1.03941217e-001,
          1.98023155e-001, 5.20518422e-001, 7.26743817e-001,
          6.82781458e-001, 1.03941217e-001, 4.94065017e-001 ]
      - [ 7.88018823e-001, 1.48797438e-001, 1.50825202e-001,
          2.78022170e-001, 2.23769352e-001, 6.65502191e-001,
          9.03964341e-001, 1.50825202e-001, 3.42764407e-001 ]
      - [ 7.24969864e-001, 3.88345093e-001, 5.94763696e-001,
          7.63483405e-001, 4.00259912e-001, 2.78172106e-001,
          5.18234074e-001, 5.94763696e-001, 9.12368655e-001 ]
      - [ 5.65728247e-001, 3.54831308e-001, 4.07393813e-001,
          3.74766201e-001, 5.07753968e-001, 5.36218762e-001,
          7.65425503e-001, 4.07393813e-001, 2.78136551e-001 ]
      - [ 6.49580836e-001, 4.51699883e-001, 4.57841754e-001,
          7.51489043e-001, 4.63000178e-001, 3.05303693e-001,
          4.31252807e-001, 4.57841754e-001, 8.89511764e-001 ]
      - [ 6.74596667e-001, 3.73735130e-001, 3.15425128e-001,
          5.78332126e-001, 3.42084020e-001, 4.45130169e-001,
          5.62989473e-001, 3.15425128e-001, 6.95176780e-001 ]
      - [ 6.88411057e-001, 3.13084602e-001, 3.90398473e-001,
          4.48711991e-001, 5.34870505e-001, 5.68007231e-001,
          7.77332127e-001, 3.90398473e-001, 5.38115859e-001 ]
      - [ 3.37170929e-001, 6.74508214e-001, 5.47059596e-001,
          6.57421768e-001, 6.70151711e-001, 3.54318470e-001,
          3.36140037e-001, 5.47059596e-001, 6.04213357e-001 ]
      - [ 3.51294726e-001, 5.60418427e-001, 2.36910343e-001,
          2.62988955e-001, 3.15201968e-001, 5.84140718e-001,
          6.12374544e-001, 2.36910343e-001, 2.23312363e-001 ]
      - [ 3.92822117e-001, 6.08627141e-001, 4.57675248e-001,
          5.86454511e-001, 3.84235233e-001, 3.25675100e-001,
          3.80435854e-001, 4.57675248e-001, 5.57885885e-001 ]
      - [ 4.08208638e-001, 5.49485981e-001, 5.69524884e-001,
          5.12355626e-001, 6.09880388e-001, 3.84471297e-001,
          4.99270797e-001, 5.69524884e-001, 3.93022001e-001 ]
      - [ 6.37328088e-001, 4.26859319e-001, 5.05046248e-001,
          7.14200735e-001, 2.69637942e-001, 3.25230360e-001,
          4.99251813e-001, 5.05046248e-001, 7.57152021e-001 ]
      - [ 5.17996907e-001, 5.42280376e-001, 5.08652985e-001,
          7.32242525e-001, 4.60681170e-001, 2.09078819e-001,
          2.77301759e-001, 5.08652985e-001, 7.67014384e-001 ]
      - [ 6.61288798e-001, 3.31074715e-001, 5.91677785e-001,
          5.31716108e-001, 3.99984509e-001, 2.55297482e-001,
          6.32017732e-001, 5.91677785e-001, 5.09999037e-001 ]
      - [ 3.85777950e-001, 5.77004433e-001, 3.15723449e-001,
          4.38512444e-001, 7.37725735e-001, 5.14161050e-001,
          5.05058885e-001, 3.15723449e-001, 4.11137789e-001 ]
      - [ 6.19063020e-001, 4.27178830e-001, 4.23643976e-001,
          6.48626029e-001, 4.74144638e-001, 3.08921069e-001,
          4.70269442e-001, 4.23643976e-001, 6.96223795e-001 ]
      - [ 5.40507615e-001, 3.55683923e-001, 4.67387617e-001,
          3.63896698e-001, 4.26140010e-001, 5.02529740e-001,
          7.15288401e-001, 4.67387617e-001, 1.99098766e-001 ]
      - [ 5.73129594e-001, 4.11197513e-001, 3.51910740e-001,
          5.45372725e-001, 3.12695295e-001, 4.43996608e-001,
          6.04387403e-001, 3.51910740e-001, 4.86464202e-001 ]
      - [ 3.38583291e-001, 6.52188182e-001, 6.91012204e-001,
          6.12759590e-001, 7.46679366e-001, 2.67551154e-001,
          2.95042127e-001, 6.91012204e-001, 5.19638717e-001 ]
      - [ 4.31924343e-001, 5.11859357e-001, 3.93827081e-001,
          3.33752602e-001, 4.28089052e-001, 3.72729033e-001,
          5.23080289e-001, 3.93827081e-001, 3.44570994e-001 ]
      - [ 3.74465406e-001, 6.46912634e-001, 3.22319269e-001,
          6.58131719e-001, 3.72991204e-001, 4.22785282e-001,
          3.61757398e-001, 3.22319269e-001, 6.39058590e-001 ]
      - [ 4.38619822e-001, 5.00001788e-001, 4.80997056e-001,
          4.09784943e-001, 5.17671049e-001, 4.75608557e-001,
          6.42754614e-001, 4.80997056e-001, 3.26956660e-001 ]
      - [ 4.34280366e-001, 5.05431592e-001, 4.21930701e-001,
          4.91208255e-001, 5.58350742e-001, 5.11032045e-001,
          5.33410788e-001, 4.21930701e-001, 3.30372602e-001 ]
      - [ 4.11260009e-001, 5.42704940e-001, 1.31301269e-001,
          2.94186294e-001, 3.47201586e-001, 6.20301664e-001,
          6.03703797e-001, 1.31301269e-001, 3.79789740e-001 ]
      - [ 4.20593828e-001, 5.79870760e-001, 3.04708093e-001,
          5.40530264e-001, 3.46792579e-001, 4.62490112e-001,
          4.21222329e-001, 3.04708093e-001, 5.51933825e-001 ]
      - [ 3.26286137e-001, 6.74626172e-001, 5.05129158e-001,
          5.56908906e-001, 7.12777853e-001, 4.12289947e-001,
          3.60188842e-001, 5.05129158e-001, 5.61153471e-001 ]
      - [ 3.67062420e-001, 6.55478179e-001, 5.64239323e-001,
          6.92550361e-001, 6.85889959e-001, 3.27055097e-001,
          3.47894788e-001, 5.64239323e-001, 6.44770622e-001 ]
      - [ 5.99930108e-001, 3.96792293e-001, 3.09307933e-001,
          6.55481815e-001, 2.95333296e-001, 4.52028483e-001,
          5.23995638e-001, 3.09307933e-001, 5.27166903e-001 ]
      - [ 5.74904084e-001, 3.90609086e-001, 1.51744619e-001,
          4.83319134e-001, 5.15112758e-001, 6.67431116e-001,
          6.32933021e-001, 1.51744619e-001, 4.23388422e-001 ]
      - [ 2.64653295e-001, 6.85832083e-001, 5.19396961e-001,
          5.28437912e-001, 4.04035270e-001, 4.34993893e-001,
          4.24454421e-001, 5.19396961e-001, 3.59261245e-001 ]
      - [ 3.88128102e-001, 5.64760685e-001, 4.73100036e-001,
          2.96758831e-001, 4.66175318e-001, 3.76743972e-001,
          5.23509502e-001, 4.73100036e-001, 3.74683827e-001 ]
      - [ 2.79928237e-001, 6.20938778e-001, 5.15145242e-001,
          3.93617511e-001, 1.57091185e-001, 5.08976996e-001,
          5.59115529e-001, 5.15145242e-001, 1.72208294e-001 ]
      - [ 2.77344644e-001, 7.04870760e-001, 2.74861366e-001,
          4.47617531e-001, 4.48208481e-001, 6.02391601e-001,
          4.82514113e-001, 2.74861366e-001, 4.87819463e-001 ]
      - [ 4.42321599e-001, 5.92016339e-001, 6.99398816e-001,
          7.60180533e-001, 5.52407980e-001, 2.00381234e-001,
          2.78726012e-001, 6.99398816e-001, 6.80280864e-001 ]
      - [ 4.66410369e-001, 4.46631312e-001, 5.18528283e-001,
          3.95075202e-001, 3.09773296e-001, 4.66561913e-001,
          6.70908988e-001, 5.18528283e-001, 2.43131384e-001 ]
      - [ 3.34003627e-001, 7.06489205e-001, 5.89045346e-001,
          6.09739959e-001, 6.74305499e-001, 4.17459577e-001,
          3.28665614e-001, 5.89045346e-001, 7.25616515e-001 ]
      - [ 4.61094975e-001, 5.53003132e-001, 3.54097426e-001,
          5.14373422e-001, 5.65035284e-001, 4.92088795e-001,
          5.07189572e-001, 3.54097426e-001, 5.99860549e-001 ]
      - [ 3.90450269e-001, 5.80001831e-001, 4.10836577e-001,
          4.46140021e-001, 4.75620359e-001, 4.54775661e-001,
          5.16730070e-001, 4.10836577e-001, 4.39800322e-001 ]
      - [ 3.39325815e-001, 5.96388876e-001, 1.78155765e-001,
          2.99807698e-001, 3.20306838e-001, 7.32521355e-001,
          7.01175094e-001, 1.78155765e-001, 3.08694363e-001 ]
      - [ 4.43348616e-001, 5.20878971e-001, 3.17543447e-001,
          4.35554534e-001, 3.91855985e-001, 4.58088219e-001,
          5.42556345e-001, 3.17543447e-001, 4.17243212e-001 ]
      - [ 3.84463340e-001, 5.53474545e-001, 3.15010905e-001,
          2.54842430e-001, 3.24089378e-001, 5.83847880e-001,
          6.53199017e-001, 3.15010905e-001, 3.20504576e-001 ]
      - [ 3.69705826e-001, 6.46643460e-001, 3.51958930e-001,
          4.54339027e-001, 4.46755499e-001, 5.80964863e-001,
          5.70258796e-001, 3.51958930e-001, 6.19353592e-001 ]
      - [ 2.87272900e-001, 6.80483878e-001, 3.24069202e-001,
          3.45113605e-001, 3.84862632e-001, 5.86397171e-001,
          5.66730499e-001, 3.24069202e-001, 4.28975999e-001 ]
      - [ 3.36239040e-001, 5.98833978e-001, 3.45557392e-001,
          2.07267404e-001, 4.08830494e-001, 5.12130439e-001,
          5.49537003e-001, 3.45557392e-001, 3.05764884e-001 ]
      - [ 3.95224541e-001, 5.78349531e-001, 4.18903887e-001,
          4.06594247e-001, 4.90480244e-001, 4.94509578e-001,
          6.13498747e-001, 4.18903887e-001, 4.51423824e-001 ]
      - [ 5.54286063e-001, 4.69117314e-001, 4.40298319e-001,
          7.27436543e-001, 2.77990729e-001, 3.14749420e-001,
          4.49179262e-001, 4.40298319e-001, 6.23832941e-001 ]
      - [ 6.02259994e-001, 4.19432938e-001, 5.12524247e-001,
          6.29880786e-001, 5.91085613e-001, 4.47773904e-001,
          4.91496325e-001, 5.12524247e-001, 6.12342298e-001 ]
      - [ 3.27220500e-001, 5.70270360e-001, 2.31665805e-001,
          1.16446622e-001, 3.94654006e-001, 5.88579476e-001,
          6.76993370e-001, 2.31665805e-001, 1.68934047e-001 ]
      - [ 3.25902879e-001, 6.04315519e-001, 2.49444917e-001,
          4.54585165e-001, 3.82833779e-001, 5.52270651e-001,
          4.96076703e-001, 2.49444917e-001, 2.87014455e-001 ]
      - [ 5.00598192e-001, 4.24896657e-001, 0., 2.15669408e-001,
          4.91242915e-001, 7.84617186e-001, 7.48110533e-001, 0.,
          2.87787110e-001 ]
      - [ 5.43623030e-001, 4.29682702e-001, 3.81427616e-001,
          3.34050775e-001, 4.13269013e-001, 4.92053092e-001,
          6.34664893e-001, 3.81427616e-001, 4.49368656e-001 ]
      - [ 2.31480375e-001, 7.12963462e-001, 4.34184998e-001,
          4.49283153e-001, 5.48241735e-001, 5.38449287e-001,
          4.55278814e-001, 4.34184998e-001, 3.32868040e-001 ]
      - [ 4.47308362e-001, 5.76216757e-001, 3.51292759e-001,
          4.99430209e-001, 6.05383873e-001, 5.08607209e-001,
          4.47416991e-001, 3.51292759e-001, 6.37622893e-001 ]
      - [ 4.96109545e-001, 4.37857389e-001, 2.69791931e-001,
          2.38209754e-001, 4.11358029e-001, 6.14272892e-001,
          7.89561629e-001, 2.69791931e-001, 3.15520436e-001 ]
      - [ 3.41987908e-001, 6.48971200e-001, 2.94383436e-001,
          3.99727196e-001, 6.21609390e-001, 4.91296083e-001,
          4.77648914e-001, 2.94383436e-001, 5.20119607e-001 ]
      - [ 2.31442958e-001, 7.19297528e-001, 1.65527329e-001,
          3.09735954e-001, 4.72926348e-001, 6.94764197e-001,
          4.26285058e-001, 1.65527329e-001, 3.58299196e-001 ]
      - [ 3.78389776e-001, 5.65211236e-001, 4.39896345e-001,
          5.40760994e-001, 4.22277331e-001, 5.07470608e-001,
          4.88287032e-001, 4.39896345e-001, 3.40363771e-001 ]
      - [ 2.98115194e-001, 6.37127101e-001, 2.93208808e-001,
          3.05160761e-001, 4.34943944e-001, 5.41870654e-001,
          4.94568884e-001, 2.93208808e-001, 3.02794099e-001 ]
      - [ 2.45240897e-001, 8.09891522e-001, 5.74552298e-001,
          7.62137949e-001, 8.89906228e-001, 2.67132133e-001,
          1.15314208e-001, 5.74552298e-001, 8.13927591e-001 ]
      - [ 7.25603342e-001, 2.53274411e-001, 3.90469998e-001,
          5.21070182e-001, 5.69195390e-001, 5.25683284e-001,
          7.81654239e-001, 3.90469998e-001, 4.65524793e-001 ]
      - [ 2.04355896e-001, 7.74379015e-001, 4.04076129e-001,
          6.18467212e-001, 6.72727644e-001, 4.95220065e-001,
          3.05752426e-001, 4.04076129e-001, 4.75164205e-001 ]
      - [ 9.01520133e-001, 1.63403958e-001, 3.66854399e-001,
          5.61944902e-001, 6.74657524e-001, 4.76240575e-001,
          7.61680663e-001, 3.66854399e-001, 7.15083838e-001 ]
      - [ 3.31625193e-001, 6.64379895e-001, 6.18440628e-001,
          7.67212212e-001, 7.14861810e-001, 3.06368500e-001,
          2.77108073e-001, 6.18440628e-001, 5.40761709e-001 ]
      - [ 5.66916347e-001, 4.25156623e-001, 5.87083936e-001,
          5.69351614e-001, 5.07135153e-001, 4.24675703e-001,
          6.15731955e-001, 5.87083936e-001, 5.12749016e-001 ]
      - [ 5.03692329e-001, 5.33895850e-001, 6.01503789e-001,
          6.50316000e-001, 7.05341876e-001, 3.39840621e-001,
          4.07295167e-001, 6.01503789e-001, 6.82803154e-001 ]
      - [ 3.93661320e-001, 6.30159676e-001, 4.74355757e-001,
          6.43035293e-001, 7.38410294e-001, 4.17695940e-001,
          3.42851073e-001, 4.74355757e-001, 6.45940244e-001 ]
      - [ 7.90065825e-001, 2.50106424e-001, 5.75676978e-001,
          6.40471220e-001, 5.84936142e-001, 3.57560426e-001,
          6.83320820e-001, 5.75676978e-001, 6.52700841e-001 ]
      - [ 3.19951117e-001, 6.85681820e-001, 7.44253576e-001,
          7.05887675e-001, 7.53096521e-001, 2.82957256e-001,
          2.75991470e-001, 7.44253576e-001, 5.81100225e-001 ]
      - [ 3.53436619e-001, 6.42333329e-001, 3.58855754e-001,
          5.73300958e-001, 7.41009653e-001, 5.16856432e-001,
          4.03876990e-001, 3.58855754e-001, 5.38221300e-001 ]
      - [ 3.94228548e-001, 6.10725284e-001, 2.53394127e-001,
          4.39612508e-001, 8.48550260e-001, 5.33280015e-001,
          4.30455238e-001, 2.53394127e-001, 5.71168184e-001 ]
      - [ 5.46120405e-001, 3.35287809e-001, 3.09756935e-001, 0., 0., 1.,
          1., 3.09756935e-001, 1.54285267e-001 ]
      - [ 3.80739093e-001, 6.34563804e-001, 4.75389600e-001,
          6.34937346e-001, 6.69994831e-001, 4.16512311e-001,
          3.66709977e-001, 4.75389600e-001, 6.13402367e-001 ]
      - [ 5.10188818e-001, 4.72562134e-001, 5.97665906e-001,
          6.37225330e-001, 6.90109491e-001, 3.19953978e-001,
          4.51055467e-001, 5.97665906e-001, 4.82563764e-001 ]
      - [ 7.46446609e-001, 3.29705119e-001, 6.16615772e-001,
          5.98785996e-001, 6.30584002e-001, 3.55183154e-001,
          6.68151677e-001, 6.16615772e-001, 7.77338743e-001 ]
      - [ 2.16034129e-001, 8.22114766e-001, 4.41111594e-001,
          6.69746041e-001, 7.55955338e-001, 4.56946820e-001,
          2.01721996e-001, 4.41111594e-001, 7.41825104e-001 ]
      - [ 6.74930513e-001, 3.57323080e-001, 5.19493222e-001,
          5.31359136e-001, 5.87185442e-001, 5.11624515e-001,
          6.42898917e-001, 5.19493222e-001, 6.40334845e-001 ]
      - [ 4.90754306e-001, 4.64321941e-001, 5.65974951e-001,
          5.22806346e-001, 4.79447633e-001, 4.75834012e-001,
          5.97547293e-001, 5.65974951e-001, 3.86301219e-001 ]
      - [ 4.36701655e-001, 5.68455100e-001, 6.11322820e-001,
          6.55208528e-001, 6.33920908e-001, 3.92813951e-001,
          3.95115048e-001, 6.11322820e-001, 5.68211257e-001 ]
      - [ 3.41684848e-001, 7.02306867e-001, 6.21222258e-001,
          6.40845001e-001, 7.92833269e-001, 3.16568583e-001,
          3.15095454e-001, 6.21222258e-001, 7.38967597e-001 ]
      - [ 3.11853379e-001, 6.97502196e-001, 6.00956559e-001,
          6.16716683e-001, 7.23596334e-001, 3.23358864e-001,
          2.81168103e-001, 6.00956559e-001, 5.97374618e-001 ]
      - [ 4.65166748e-001, 5.55099010e-001, 4.00721997e-001,
          5.30357182e-001, 6.89839363e-001, 4.94028330e-001,
          4.77493197e-001, 4.00721997e-001, 6.22540236e-001 ]
      - [ 6.60776421e-002, 9.01787758e-001, 5.63332021e-001,
          6.09673738e-001, 6.90950036e-001, 4.24389869e-001,
          2.18474880e-001, 5.63332021e-001, 4.27020997e-001 ]
      - [ 5.31679153e-001, 4.78608131e-001, 6.16590977e-001,
          6.58232749e-001, 6.58042908e-001, 2.97060549e-001,
          4.47922140e-001, 6.16590977e-001, 5.78920007e-001 ]
      - [ 6.95758879e-001, 3.49254519e-001, 3.24847013e-001,
          5.56809664e-001, 7.36053348e-001, 5.16612113e-001,
          6.18542492e-001, 3.24847013e-001, 6.80603743e-001 ]
      - [ 2.63484180e-001, 6.71177804e-001, 4.46956724e-001,
          4.87892807e-001, 6.61620975e-001, 4.38045919e-001,
          4.31594610e-001, 4.46956724e-001, 2.96990693e-001 ]
      - [ 1., 0., 3.42129827e-001, 4.83522028e-001, 5.31478643e-001,
          5.04542708e-001, 8.93424928e-001, 3.42129827e-001,
          5.18873215e-001 ]
      - [ 6.47589386e-001, 3.57713431e-001, 4.51122940e-001,
          6.69352293e-001, 5.83061576e-001, 4.15719628e-001,
          5.73790908e-001, 4.51122940e-001, 5.52690625e-001 ]
      - [ 4.04699177e-001, 5.32961071e-001, 3.03967893e-001,
          4.51548845e-001, 6.35904312e-001, 5.72581172e-001,
          5.48052013e-001, 3.03967893e-001, 3.20790261e-001 ]
      - [ 3.56880218e-001, 6.26320362e-001, 1.66676223e-001,
          4.28276896e-001, 7.55608320e-001, 6.18083894e-001,
          4.53353226e-001, 1.66676223e-001, 4.88541305e-001 ]
      - [ 5.68784416e-001, 4.26085055e-001, 2.73294538e-001,
          4.97951359e-001, 7.51536608e-001, 5.44187844e-001,
          5.64349115e-001, 2.73294538e-001, 5.22109330e-001 ]
      - [ 5.63648164e-001, 4.53126162e-001, 4.13577527e-001,
          5.93909502e-001, 6.96154296e-001, 4.50345904e-001,
          5.61690569e-001, 4.13577527e-001, 5.98800659e-001 ]
      - [ 4.47082907e-001, 5.39815843e-001, 3.07305455e-001,
          4.59345162e-001, 6.39400303e-001, 5.38135052e-001,
          5.03106773e-001, 3.07305455e-001, 4.99346793e-001 ]
      - [ 4.73276675e-001, 5.20239055e-001, 3.64848435e-001,
          5.79709947e-001, 5.89462698e-001, 5.03572881e-001,
          5.07903576e-001, 3.64848435e-001, 5.22271812e-001 ]
      - [ 4.70236242e-001, 3.91552359e-001, 4.74660285e-002,
          2.13962704e-001, 3.85880500e-001, 7.88821638e-001,
          8.09523821e-001, 4.74660285e-002, 7.94475749e-002 ]
      - [ 6.10478997e-001, 3.60726863e-001, 4.32219714e-001,
          4.78010952e-001, 5.63204706e-001, 4.24454391e-001,
          6.32268369e-001, 4.32219714e-001, 4.42061633e-001 ]
      - [ 3.30778897e-001, 7.05810726e-001, 3.51608455e-001,
          5.98897457e-001, 7.28130877e-001, 4.94525999e-001,
          3.55027378e-001, 3.51608455e-001, 7.09314704e-001 ]
      - [ 3.94510716e-001, 6.18273377e-001, 4.84516174e-001,
          6.90865636e-001, 7.69481599e-001, 3.68359566e-001,
          2.82694906e-001, 4.84516174e-001, 6.01699531e-001 ]
      - [ 2.47714743e-001, 7.56241143e-001, 3.33873004e-001,
          5.76546550e-001, 8.21479023e-001, 4.46125925e-001,
          2.78688014e-001, 3.33873004e-001, 5.81329942e-001 ]
      - [ 2.14123279e-001, 7.25989997e-001, 2.18114719e-001,
          3.93775344e-001, 6.81750000e-001, 5.45646727e-001,
          4.21867996e-001, 2.18114719e-001, 3.13662142e-001 ]
      - [ 4.18052197e-001, 5.70509255e-001, 6.24962926e-001,
          6.69606864e-001, 4.02369320e-001, 3.30837667e-001,
          4.31875676e-001, 6.24962926e-001, 5.06747246e-001 ]
      - [ 5.91842830e-001, 4.29528177e-001, 4.21767980e-001,
          5.66269338e-001, 6.78939462e-001, 4.93846357e-001,
          5.24569094e-001, 4.21767980e-001, 6.12095535e-001 ]
      - [ 5.57834029e-001, 4.34187382e-001, 2.30610386e-001,
          2.66219407e-001, 5.42142272e-001, 5.54007292e-001,
          7.68148661e-001, 2.30610386e-001, 5.12870550e-001 ]
      - [ 2.90089041e-001, 7.01269925e-001, 6.17063463e-001,
          6.72545969e-001, 4.23930228e-001, 3.28348815e-001,
          3.52509320e-001, 6.17063463e-001, 5.24383724e-001 ]
      - [ 7.00938523e-001, 3.85506302e-001, 3.26642931e-001,
          4.34623688e-001, 7.38108695e-001, 5.07802069e-001,
          6.57186925e-001, 3.26642931e-001, 8.22482347e-001 ]
      - [ 5.71200728e-001, 3.97429883e-001, 5.41661322e-001,
          4.25494224e-001, 5.16502678e-001, 3.70847434e-001,
          7.31965303e-001, 5.41661322e-001, 4.33485508e-001 ]
   decision_functions:
      -
         sv_count: 34
         rho: 2.4360984883504235e+000
         alpha: [ 6.6267617116666472e+001, 3.4247347234492249e+000,
             1.3245045186381938e+002, 5.7515862735145909e+001,
             1.1565671835773338e+002, 2.8908053888187975e+001,
             3.1250000000000000e+002, 2.0482110801702071e+000,
             3.1250000000000000e+002, 4.9641974889012630e+001,
             3.1250000000000000e+002, 3.1250000000000000e+002,
             3.1250000000000000e+002, 1.2048795829505985e+002,
             2.9271302872589708e+001, 3.1250000000000000e+002,
             3.1250000000000000e+002, 3.5076540135176506e+000,
             -2.5989112373458624e+002, -3.1250000000000000e+002,
             -2.5237997137603105e+002, -1.7785728541604223e+002,
             -2.0928260789180939e+002, -1.8116530641948594e+002,
             -8.4705400217758928e+000, -3.1250000000000000e+002,
             -1.4215534082789875e+002, -5.4935997981319311e+001,
             -2.2525416769093181e+002, -1.7882234338576485e+001,
             -1.7866631813836231e+000, -2.3750699305595506e+002,
             -9.0612307899556924e+001, -3.1250000000000000e+002 ]
         index: [ 0, 1, 2, 7, 9, 11, 12, 13, 14, 15, 17, 18, 19, 20, 21,
             23, 24, 25, 30, 33, 36, 37, 38, 40, 45, 48, 50, 52, 53, 54,
             55, 56, 59, 60 ]
      -
         sv_count: 11
         rho: -9.6126360437430485e+000
         alpha: [ 2.9965381817616537e+002, 1.3443147636965723e+001,
             1.7631785861563387e+002, 6.0779054626117613e+001,
             1.7091056136829067e+002, -3.1250000000000000e+002,
             -7.5234411768828934e+001, -8.2456201345693756e+001,
             -1.9282327990777787e+002, -5.0558427431594957e+001,
             -7.5321199692781144e+000 ]
         index: [ 1, 12, 14, 20, 23, 66, 69, 71, 73, 81, 82 ]
      -
         sv_count: 24
         rho: -8.4030720221537258e+000
         alpha: [ 4.6703561443606056e+001, 3.1250000000000000e+002,
             9.1703595399140365e+000, 2.4290038927357770e+002,
             3.1250000000000000e+002, 1.9767611279159217e+002,
             2.6420395137383724e+002, 8.8144350794179672e+001,
             1.6593885380690085e+002, 7.0651994872468482e-002,
             3.1250000000000000e+002, -6.7428048324791192e+001,
             -7.5024390198414991e+001, -2.0834307876966000e+002,
             -3.5457381003733532e+000, -5.3960638410628732e+001,
             -3.1250000000000000e+002, -4.1530086029738861e+001,
             -2.6128385856591461e+001, -3.1250000000000000e+002,
             -1.5308965008117335e+002, -1.1186300761223383e+002,
             -3.1250000000000000e+002, -2.7389520763487485e+002 ]
         index: [ 5, 6, 7, 9, 12, 14, 17, 19, 22, 23, 24, 87, 89, 90, 91,
             93, 98, 101, 103, 109, 110, 115, 116, 117 ]
      -
         sv_count: 17
         rho: 4.1335653385007065e+000
         alpha: [ 1.4498193135479337e+002, 4.6413082842978621e+000,
             3.1250000000000000e+002, 2.9150994585289897e+002,
             3.3454317606412530e+001, 2.4284770173465375e+002,
             2.5378093693550002e+002, 2.1453137239725052e+001,
             1.4337206375300056e+002, -2.1789321629983046e+001,
             -1.8048574309211912e+002, -1.6501263270550101e+002,
             -2.7845236475502946e+002, -3.1250000000000000e+002,
             -2.9416185862514887e+001, -3.1250000000000000e+002,
             -1.4838509471613435e+002 ]
         index: [ 9, 10, 12, 14, 15, 17, 19, 21, 24, 118, 120, 121, 124,
             126, 137, 143, 145 ]
      -
         sv_count: 30
         rho: -1.1166478469325524e+001
         alpha: [ 1.1829344177169799e+002, 3.1250000000000000e+002,
             2.8452074389894432e+002, 3.1250000000000000e+002,
             8.2068466306639650e+001, 2.4541915123217234e+002,
             2.5017375341834713e+002, 3.1250000000000000e+002,
             7.4114461612172020e+000, 1.1953669287949218e+002,
             3.1250000000000000e+002, 9.5268704688844821e+001,
             2.5674733749143689e+002, 5.2430245173372903e+001,
             5.2775371961661001e+001, -3.1250000000000000e+002,
             -6.1572975540614657e+001, -3.1250000000000000e+002,
             -2.9726538798663296e+002, -3.1250000000000000e+002,
             -3.2195615721501149e+001, -2.3441913158605047e+001,
             -7.8913321601025928e+000, -1.0160522436957243e+002,
             -8.5235988630546956e+001, -3.1250000000000000e+002,
             -2.3854919253267130e+002, -3.1250000000000000e+002,
             -3.1250000000000000e+002, -9.1887724883579324e+001 ]
         index: [ 2, 4, 5, 6, 7, 8, 9, 14, 16, 17, 19, 21, 22, 23, 24,
             149, 151, 153, 155, 158, 160, 161, 164, 165, 167, 168, 169,
             170, 172, 173 ]
      -
         sv_count: 13
         rho: -4.8482699526929087e+000
         alpha: [ 8.1924477534938276e+001, 2.2129810103586036e+002,
             2.3065101735175418e+002, 1.3298687595667778e+002,
             9.2903205074972959e+001, 8.5583588566812935e+001,
             -2.1754511384641407e+002, -9.8040817425893536e+000,
             -2.4777746475000811e+002, -1.4532343792558551e+001,
             -3.1250000000000000e+002, -1.6502542787401630e+001,
             -2.6685718602045252e+001 ]
         index: [ 3, 6, 9, 12, 17, 23, 175, 184, 187, 192, 193, 194, 195 ]
      -
         sv_count: 37
         rho: 3.4401312615823079e+000
         alpha: [ 1.6337716842890705e+002, 3.1250000000000000e+002,
             3.1250000000000000e+002, 1.9290040673042014e+002,
             3.1250000000000000e+002, 1.7170891232406123e+002,
             1.6129277127593113e+002, 2.8685765990321153e+002,
             3.1250000000000000e+002, 4.0201630394874277e+000,
             3.1250000000000000e+002, 9.6439090107584519e+001,
             3.1250000000000000e+002, 1.3125545911305394e+002,
             3.1250000000000000e+002, 3.1250000000000000e+002,
             1.8500108838455543e+002, 3.1250000000000000e+002,
             3.1250000000000000e+002, -3.0823262848390993e+002,
             -3.1250000000000000e+002, -3.1250000000000000e+002,
             -3.1250000000000000e+002, -3.1250000000000000e+002,
             -2.2616879573240399e+002, -3.1250000000000000e+002,
             -3.1250000000000000e+002, -3.1250000000000000e+002,
             -3.1250000000000000e+002, -2.4426942055415600e+002,
             -2.7965535223752767e+002, -9.2994525184227911e+001,
             -1.9315079313946313e+002, -5.7075083423266681e+000,
             -2.7749775418769957e+002, -2.8014469619614283e+002,
             -1.1003124524935444e+002 ]
         index: [ 26, 27, 29, 30, 32, 34, 38, 39, 40, 41, 43, 44, 46, 48,
             51, 54, 55, 57, 58, 61, 62, 63, 64, 66, 69, 70, 71, 72, 73,
             74, 76, 77, 78, 79, 80, 83, 85 ]
      -
         sv_count: 43
         rho: 8.4820311009791300e+000
         alpha: [ 1.2650918514169882e+002, 2.2536744937144957e+002,
             2.1881500210170461e+002, 1.1531904251774864e+002,
             3.1250000000000000e+002, 3.1250000000000000e+002,
             2.7515698854098424e+001, 1.7616743246963284e+002,
             3.1250000000000000e+002, 3.1250000000000000e+002,
             3.1250000000000000e+002, 4.5409745964089474e+001,
             1.8390885510990583e+002, 3.1250000000000000e+002,
             3.1250000000000000e+002, 1.7554782062438821e+002,
             1.7594248853255723e+002, 9.2243830293427322e+001,
             3.1250000000000000e+002, -1.5879258020651200e+001,
             -3.6468246244638109e+001, -3.1250000000000000e+002,
             -3.1250000000000000e+002, -2.7621052473990233e+001,
             -4.4247795893478958e+001, -1.6388947579419875e+002,
             -6.1097742601266184e+001, -1.1877957768906529e+002,
             -3.1250000000000000e+002, -3.1250000000000000e+002,
             -6.7167269248502251e+001, -3.1250000000000000e+002,
             -8.9967443882720175e+001, -3.1250000000000000e+002,
             -1.4815559892741129e+002, -1.2197525956143348e+001,
             -1.2951124479117934e+002, -3.1250000000000000e+002,
             -1.7706229013952917e+001, -9.6125691819994490e+000,
             -3.1250000000000000e+002, -3.1104977679037893e+002,
             -3.0939574447112449e+002 ]
         index: [ 27, 28, 31, 33, 36, 37, 38, 41, 42, 43, 44, 45, 46, 47,
             48, 51, 52, 55, 57, 87, 88, 89, 90, 91, 92, 93, 95, 96, 97,
             98, 99, 100, 103, 104, 107, 108, 109, 110, 112, 114, 115,
             116, 117 ]
      -
         sv_count: 42
         rho: 5.0554247186896193e+000
         alpha: [ 2.2184754632915020e+001, 3.1250000000000000e+002,
             3.1250000000000000e+002, 3.8334575950354477e+000,
             6.8924867314438643e+001, 3.1250000000000000e+002,
             3.1250000000000000e+002, 3.1250000000000000e+002,
             6.5807381015680505e+001, 5.2580070489432970e+001,
             6.5507897736256851e+001, 3.1250000000000000e+002,
             3.1250000000000000e+002, 1.3333302464735388e+002,
             2.6453893558667892e+002, 1.0274299801984219e+002,
             3.1250000000000000e+002, 1.4953830544449005e+002,
             8.4345758875648826e+001, 1.3618774748907401e+002,
             4.2819171399145873e+001, 2.8513696216845796e+002,
             -3.6500713320018924e+001, -3.1250000000000000e+002,
             -3.1250000000000000e+002, -7.4387014218208762e+001,
             -1.4736562066156151e+002, -3.1250000000000000e+002,
             -6.8030852411323778e+001, -3.1250000000000000e+002,
             -1.7238861830985297e+001, -3.1250000000000000e+002,
             -3.1250000000000000e+002, -3.3225505239271357e+001,
             -2.5825016154329262e+002, -1.1253070564727507e+002,
             -2.0409270736843922e+002, -3.1250000000000000e+002,
             -3.1250000000000000e+002, -3.1250000000000000e+002,
             -1.8761520301680480e+002, -2.5743987157269796e+001 ]
         index: [ 27, 28, 30, 33, 34, 35, 36, 39, 40, 41, 42, 44, 45, 46,
             47, 49, 51, 52, 54, 56, 57, 59, 118, 120, 121, 122, 123,
             124, 125, 126, 127, 128, 130, 131, 132, 133, 134, 136, 137,
             141, 143, 148 ]
      -
         sv_count: 12
         rho: 4.2934583919919428e-001
         alpha: [ 3.1250000000000000e+002, 5.2194465685729170e+001,
             3.4991627971419398e+001, 1.0122637680197006e+002,
             1.8110701026813174e+000, -4.4099253441561341e+000,
             -6.7598984523701517e+001, -5.5876261020132256e+000,
             -1.1350604588270652e+001, -1.3995659197408247e+002,
             -1.7829124208618018e+002, -9.5528565943395904e+001 ]
         index: [ 30, 44, 46, 48, 56, 152, 154, 157, 161, 162, 168, 173 ]
      -
         sv_count: 18
         rho: 1.8580825298943984e+000
         alpha: [ 3.1250000000000000e+002, 4.7017458758345910e+001,
             1.6402277181566825e+002, 1.5516865259979954e+002,
             2.7654247812512585e+002, 1.7458695384111273e+001,
             5.3797851211992800e+000, 4.5837637685172744e+001,
             3.0589050811587615e+001, -7.0617434722778629e+000,
             -2.6697075438803587e+001, -1.1494328215117770e+002,
             -4.3982842000217623e+001, -1.2981265332002252e+002,
             -3.1250000000000000e+002, -6.7667202076397629e+001,
             -3.1250000000000000e+002, -3.9351731842113672e+001 ]
         index: [ 39, 43, 44, 46, 48, 51, 52, 54, 57, 176, 184, 185, 186,
             187, 190, 191, 193, 195 ]
      -
         sv_count: 27
         rho: 1.5759551046061493e+000
         alpha: [ 5.7292434783748540e+001, 2.0103282607904131e+002,
             1.9758322160090950e+002, 5.4731579147713973e+001,
             2.3455537907820727e+002, 1.8813498349417451e+001,
             1.0388708608210302e+002, 7.2758385544402469e+000,
             2.1606640248737879e+001, 6.8163648733381379e+001,
             2.7943071484804409e+002, 2.0616000389913094e+002,
             3.0399824139717452e+001, 7.6089271253018438e+001,
             3.1250000000000000e+002, 3.1250000000000000e+002,
             -3.1250000000000000e+002, -5.4215509683302940e+000,
             -1.4013195878874822e+002, -3.1250000000000000e+002,
             -6.1245254206550605e+001, -3.1250000000000000e+002,
             -3.1250000000000000e+002, -2.9715713251605717e+002,
             -2.0405120229956065e+001, -9.5160950087968715e+001,
             -3.1250000000000000e+002 ]
         index: [ 61, 62, 63, 65, 66, 67, 68, 69, 72, 74, 75, 77, 79, 80,
             84, 85, 86, 88, 93, 95, 97, 98, 102, 103, 107, 111, 117 ]
      -
         sv_count: 21
         rho: 3.8221179893323747e+000
         alpha: [ 1.4700497373937714e+002, 2.2029140343991454e+001,
             3.1250000000000000e+002, 3.1250000000000000e+002,
             1.0592248061767474e+002, 1.1620649604951511e+002,
             2.9635781525140139e+001, 1.9874471419675194e+002,
             1.6557401950670279e+001, 1.7393943352362722e+001,
             2.5371320103666815e+001, 1.2392382743934983e+001,
             9.0360140255891167e+001, 6.2577658820569567e+001,
             -3.1637718230346820e+001, -1.7292935606069079e+002,
             -3.1250000000000000e+002, -3.1250000000000000e+002,
             -1.4629359408508339e+001, -3.1250000000000000e+002,
             -3.1250000000000000e+002 ]
         index: [ 61, 62, 63, 66, 68, 69, 70, 72, 73, 79, 80, 82, 84, 85,
             118, 120, 124, 126, 127, 136, 137 ]
      -
         sv_count: 10
         rho: -8.8699549545921008e-001
         alpha: [ 2.3481665735343560e+002, 2.8612690424336444e+002,
             7.6327705829343103e+001, 6.5173214349803771e+001,
             -2.1957882034345772e+001, -1.4267062530040920e+002,
             -7.5337933977966657e+001, -2.9171420567222306e+000,
             -1.9237901595443282e+002, -2.2718188245206989e+002 ]
         index: [ 61, 66, 70, 74, 153, 154, 157, 161, 162, 168 ]
      -
         sv_count: 15
         rho: 2.6207736364463954e+000
         alpha: [ 3.1250000000000000e+002, 3.1250000000000000e+002,
             2.2570781186412123e+002, 2.3792265236884917e+000,
             6.9674645184745813e+001, 7.0262403234770598e+000,
             6.9566625477792442e+001, 1.2354067043218748e+002,
             -1.2168498522487940e+002, -2.6078710840799218e+001,
             -2.2106841331222350e+002, -3.1250000000000000e+002,
             -1.0514090510797284e+002, -3.1250000000000000e+002,
             -2.3922205320137678e+001 ]
         index: [ 61, 63, 66, 68, 70, 76, 79, 81, 177, 186, 187, 190,
             191, 193, 195 ]
      -
         sv_count: 45
         rho: -7.0286066445010507e+000
         alpha: [ 3.1250000000000000e+002, 3.1250000000000000e+002,
             2.2810825720465299e+001, 3.1250000000000000e+002,
             4.1050925656127490e+001, 7.0368905471050695e+001,
             1.6516941461345175e+002, 1.4468722531855320e+002,
             3.1250000000000000e+002, 3.1250000000000000e+002,
             2.3831992997101029e+001, 2.8928482300503822e+002,
             1.1121526747973964e+002, 4.9112238314269206e+001,
             4.2344947418686672e+001, 1.8020216056907586e+002,
             3.1250000000000000e+002, 3.1250000000000000e+002,
             3.1250000000000000e+002, 3.1250000000000000e+002,
             3.1250000000000000e+002, 3.1250000000000000e+002,
             1.4896978594718416e+002, 9.5134054028755600e+001,
             -3.1250000000000000e+002, -2.6931972234524943e+002,
             -2.7803591897929857e+002, -2.6438403019677031e+002,
             -5.6763305988282411e+001, -3.1250000000000000e+002,
             -2.5641073288847173e+002, -1.2102172783254952e+002,
             -3.1250000000000000e+002, -3.1250000000000000e+002,
             -3.1250000000000000e+002, -1.5978644897683810e+002,
             -3.1250000000000000e+002, -1.7257285083921136e+002,
             -3.1250000000000000e+002, -8.8098743935659002e+001,
             -2.0500692765191380e+002, -3.1250000000000000e+002,
             -3.1250000000000000e+002, -1.1773355713415768e+002,
             -2.0048599771097290e+001 ]
         index: [ 87, 89, 90, 91, 93, 94, 97, 98, 99, 100, 101, 102, 103,
             105, 106, 107, 108, 110, 112, 113, 114, 115, 116, 117, 118,
             121, 124, 125, 126, 127, 128, 129, 130, 136, 137, 138, 139,
             140, 141, 142, 143, 144, 145, 146, 148 ]
      -
         sv_count: 23
         rho: 6.4628254112957784e+000
         alpha: [ 3.1250000000000000e+002, 7.3454922734621732e+001,
             3.1250000000000000e+002, 3.1250000000000000e+002,
             7.8908658821775319e+001, 3.9805067917814817e+001,
             6.2420558674587348e+001, 3.1250000000000000e+002,
             2.6415405210472205e+001, 3.1250000000000000e+002,
             3.1250000000000000e+002, -1.8913359156231556e+002,
             -4.9660881379175173e+001, -9.3852094534460335e+001,
             -8.6426624523238544e+001, -1.8146661005298927e+001,
             -3.1250000000000000e+002, -3.1250000000000000e+002,
             -9.4369063335312674e+001, -3.1250000000000000e+002,
             -3.1250000000000000e+002, -1.1523271374417835e+002,
             -2.5918298327529169e+002 ]
         index: [ 87, 93, 97, 98, 101, 104, 107, 109, 113, 116, 117, 150,
             153, 158, 160, 161, 162, 167, 169, 170, 171, 172, 173 ]
      -
         sv_count: 29
         rho: 3.4446356654092840e+000
         alpha: [ 3.1250000000000000e+002, 1.2086941526583674e+002,
             1.4072499103440373e+002, 2.0673688932684087e+002,
             3.1250000000000000e+002, 3.1250000000000000e+002,
             3.1250000000000000e+002, 1.3870692430912075e+002,
             3.1250000000000000e+002, 2.0517051244121768e+002,
             1.2215040728101238e+001, 1.0281644048052007e+002,
             3.1250000000000000e+002, 1.0805385914731572e+001,
             3.1250000000000000e+002, -3.1250000000000000e+002,
             -7.7659616184103104e+000, -7.1407955680733494e+001,
             -3.1250000000000000e+002, -2.2943328324695503e+002,
             -7.6134161359574179e+001, -3.1250000000000000e+002,
             -1.8854410991763336e+002, -3.1250000000000000e+002,
             -3.1250000000000000e+002, -3.1075301902331739e+002,
             -2.0162064487177688e+002, -1.6488646378237183e+002,
             -3.1250000000000000e+002 ]
         index: [ 87, 90, 91, 94, 97, 98, 101, 104, 105, 106, 110, 111,
             113, 116, 117, 175, 176, 178, 182, 183, 184, 185, 186, 187,
             190, 191, 192, 193, 195 ]
      -
         sv_count: 16
         rho: 2.3755970812275321e-002
         alpha: [ 1.0253815048628384e+001, 6.2751312774951508e+001,
             2.2072271444481527e+002, 1.8438272500604064e+001,
             3.1250000000000000e+002, 6.8365698088809424e+001,
             3.8233625548966060e+001, -1.6759350316130153e+001,
             -2.3137535098213931e+002, -2.2387422960582452e+001,
             -4.3662120165923497e+001, -8.7056488546017007e+001,
             -1.4513220154087193e+002, -1.0138384460273409e+002,
             -8.2401305907171832e+001, -1.1073533852046569e+000 ]
         index: [ 119, 125, 126, 127, 137, 142, 145, 161, 162, 164, 165,
             166, 167, 168, 171, 172 ]
      -
         sv_count: 22
         rho: 1.4240964639090059e+000
         alpha: [ 1.7447469126893355e+002, 1.1623496558160393e+002,
             1.6870594874572694e+002, 1.5970748823813537e+001,
             1.2135680382053682e+000, 1.8590803036911240e+002,
             1.4857245763971937e+001, 3.1250000000000000e+002,
             1.7024984019173343e+002, 8.6220334916145859e+001,
             1.7570219540006323e+002, 3.1250000000000000e+002,
             5.3817781470957215e+001, -3.1250000000000000e+002,
             -2.3568487969781037e+002, -2.0652848802476183e+002,
             -5.8546694499665200e+001, -1.0254393771953588e+002,
             -3.1250000000000000e+002, -1.5694707603662138e+002,
             -2.7540855564144425e+002, -1.2769571895042870e+002 ]
         index: [ 119, 120, 124, 125, 126, 127, 135, 137, 140, 142, 144,
             145, 147, 182, 183, 184, 186, 189, 190, 191, 192, 193 ]
      -
         sv_count: 27
         rho: 4.0692250188572352e+000
         alpha: [ 3.6964303538451816e+001, 2.9158635870514405e+002,
             2.0048992844393175e+002, 2.3037764881836750e+002,
             1.8673508013325423e+002, 3.1250000000000000e+002,
             3.1250000000000000e+002, 1.0401269024263389e+001,
             3.1250000000000000e+002, 9.8119719692118053e+001,
             3.1250000000000000e+002, 8.2550374208376567e+001,
             3.1250000000000000e+002, -1.9166864615777513e+002,
             -1.5987085165878025e+002, -1.5415174985945180e+002,
             -4.3570988241366777e+001, -2.9360569431223318e+001,
             -2.7241929537219369e+002, -3.1250000000000000e+002,
             -3.1250000000000000e+002, -3.1250000000000000e+002,
             -2.3182062689302660e+002, -3.1250000000000000e+002,
             -7.2090704798515716e+001, -2.5748585365193469e+002,
             -3.7285396499639319e+001 ]
         index: [ 149, 150, 151, 152, 156, 159, 160, 161, 162, 163, 171,
             173, 174, 175, 176, 177, 178, 179, 180, 181, 186, 187, 188,
             191, 193, 194, 195 ]
