%YAML:1.0
my_svm: !!opencv-ml-svm
   svm_type: C_SVC
   kernel: { type:RBF, gamma:2. }
   C: 1.
   term_criteria: { epsilon:1.1920928955078125e-07, iterations:1000 }
   var_all: 10
   var_count: 10
   class_count: 7
   class_labels: !!opencv-matrix
      rows: 1
      cols: 7
      dt: i
      data: [ 0, 1, 2, 3, 4, 5, 6 ]
   sv_total: 222
   support_vectors:
      - [ 5.77319384e-01, 3.92881185e-01, 6.80135012e-01, 3.57107699e-01,
          6.86334074e-01, 5.78597784e-01, 6.06468976e-01, 3.93568248e-01,
          6.79367006e-01, 6.93087161e-01 ]
      - [ 6.78994834e-01, 5.41364133e-01, 6.44549668e-01, 3.76696497e-01,
          6.45312488e-01, 4.44444925e-01, 7.06199467e-01, 5.47573209e-01,
          6.92042291e-01, 5.59477627e-01 ]
      - [ 6.68127477e-01, 4.57821846e-01, 7.64625490e-01, 2.69733787e-01,
          7.63353705e-01, 5.22843838e-01, 6.92722380e-01, 4.20163065e-01,
          7.86169648e-01, 6.64642751e-01 ]
      - [ 6.56872451e-01, 4.47125852e-01, 8.24397087e-01, 2.71339625e-01,
          8.22497427e-01, 5.16470194e-01, 6.81940675e-01, 4.15054053e-01,
          5.98064959e-01, 6.43573880e-01 ]
      - [ 7.07593381e-01, 3.22407067e-01, 6.60386384e-01, 3.39769036e-01,
          6.65941656e-01, 3.28284323e-01, 7.33153641e-01, 3.58540088e-01,
          7.71394312e-01, 4.07188207e-01 ]
      - [ 6.79724038e-01, 4.37798917e-01, 6.39356434e-01, 3.54069114e-01,
          6.32468998e-01, 4.47502017e-01, 7.06199467e-01, 4.69923377e-01,
          7.07417667e-01, 5.67382753e-01 ]
      - [ 5.78317642e-01, 4.94904190e-01, 6.75683379e-01, 4.32075322e-01,
          6.83190763e-01, 5.38271964e-01, 6.09164417e-01, 4.85110402e-01,
          7.07417667e-01, 6.36971235e-01 ]
      - [ 6.34429753e-01, 5.31624794e-01, 6.76422477e-01, 3.78017783e-01,
          6.71127737e-01, 4.15534496e-01, 6.63072765e-01, 5.58071196e-01,
          7.39443481e-01, 4.96049255e-01 ]
      - [ 5.46968639e-01, 5.61050355e-01, 5.57232082e-01, 3.93924862e-01,
          5.71090102e-01, 5.57561398e-01, 5.76819420e-01, 5.31336367e-01,
          6.64891601e-01, 6.48553550e-01 ]
      - [ 7.03400373e-01, 4.90229428e-01, 8.61463964e-01, 1.65310159e-01,
          8.58148932e-01, 5.13447702e-01, 7.25067377e-01, 4.44273353e-01,
          4.81887043e-01, 6.58892453e-01 ]
      - [ 6.47716641e-01, 4.56285298e-01, 5.03481865e-01, 4.11379397e-01,
          5.03242671e-01, 5.17754436e-01, 6.76549852e-01, 5.02432048e-01,
          6.53791368e-01, 6.43658996e-01 ]
      - [ 7.60530174e-01, 4.11086828e-01, 6.82315528e-01, 2.51828611e-01,
          6.96474433e-01, 4.50900704e-01, 7.81671166e-01, 3.93428296e-01,
          7.07417667e-01, 6.01289511e-01 ]
      - [ 7.38809645e-01, 5.54756343e-01, 8.74614835e-01, 1.30550832e-01,
          8.65554214e-01, 4.60625440e-01, 7.57412374e-01, 5.18108964e-01,
          5.99339962e-01, 6.11036420e-01 ]
      - [ 7.42622018e-01, 3.84039342e-01, 7.36877739e-01, 2.89655000e-01,
          7.43941367e-01, 4.58346665e-01, 7.65498638e-01, 3.82160485e-01,
          7.07417667e-01, 6.02956891e-01 ]
      - [ 6.72543406e-01, 4.97886986e-01, 6.48396492e-01, 4.29256409e-01,
          6.44567847e-01, 4.11837459e-01, 7.00808644e-01, 5.31581342e-01,
          8.88472199e-01, 5.13582468e-01 ]
      - [ 7.72110879e-01, 4.50656533e-01, 6.65844977e-01, 3.78628761e-01,
          6.55826688e-01, 3.88617426e-01, 7.95148253e-01, 4.73912597e-01,
          7.40118504e-01, 5.26495755e-01 ]
      - [ 7.37301648e-01, 3.56214076e-01, 9.71094012e-01, 1.17460437e-01,
          9.64710236e-01, 4.68858361e-01, 7.54716992e-01, 3.32435161e-01,
          8.46396148e-01, 6.12207472e-01 ]
      - [ 6.66957498e-01, 4.96698081e-01, 6.89727604e-01, 3.99620533e-01,
          6.88093245e-01, 4.26699132e-01, 6.95417762e-01, 4.84445542e-01,
          8.72946799e-01, 5.33169806e-01 ]
      - [ 6.63293779e-01, 4.43530768e-01, 7.45076478e-01, 3.23180825e-01,
          7.46329665e-01, 4.76896733e-01, 6.90026939e-01, 4.30381089e-01,
          8.81272018e-01, 5.97541153e-01 ]
      - [ 7.23908544e-01, 4.44556296e-01, 6.98900700e-01, 3.94241810e-01,
          6.93019986e-01, 3.75165403e-01, 7.49326169e-01, 4.73247707e-01,
          6.80642009e-01, 4.79866534e-01 ]
      - [ 6.67559326e-01, 4.84291226e-01, 6.70933843e-01, 3.89618188e-01,
          6.73318148e-01, 4.96078104e-01, 6.95417762e-01, 4.91899073e-01,
          7.07417667e-01, 6.14361703e-01 ]
      - [ 7.00329542e-01, 3.65678489e-01, 8.63449574e-01, 1.85835943e-01,
          8.63005877e-01, 5.06321728e-01, 7.22371995e-01, 3.44542801e-01,
          6.28140688e-01, 6.45512700e-01 ]
      - [ 7.70772815e-01, 4.55801338e-01, 7.15019047e-01, 3.31302255e-01,
          7.07928240e-01, 3.84379894e-01, 7.92452812e-01, 4.78741646e-01,
          8.92222285e-01, 5.17151058e-01 ]
      - [ 6.43760800e-01, 3.96572739e-01, 7.51285851e-01, 3.16353321e-01,
          7.57006049e-01, 5.07151961e-01, 6.71159029e-01, 3.84365052e-01,
          7.24593103e-01, 6.25685930e-01 ]
      - [ 8.23355675e-01, 2.80376017e-01, 8.79040003e-01, 1.29126102e-01,
          8.87371659e-01, 3.46086323e-01, 8.38274956e-01, 2.88168818e-01,
          8.24720621e-01, 4.77274120e-01 ]
      - [ 8.04969609e-01, 4.52544570e-01, 9.83635545e-01, 9.30742547e-02,
          9.73194242e-01, 4.37617302e-01, 8.19406986e-01, 4.34930176e-01,
          7.07417667e-01, 6.00542963e-01 ]
      - [ 5.74218512e-01, 5.30874193e-01, 7.09844410e-01, 4.16328579e-01,
          6.82423770e-01, 4.77778822e-01, 6.03773594e-01, 5.60695648e-01,
          7.07417667e-01, 5.54916859e-01 ]
      - [ 7.70020545e-01, 4.38490897e-01, 7.17893064e-01, 2.36953944e-01,
          7.13268161e-01, 3.94238681e-01, 7.89757431e-01, 4.58445609e-01,
          7.07567692e-01, 5.25583804e-01 ]
      - [ 7.64047027e-01, 5.21283567e-01, 9.98508394e-01, 6.33688271e-02,
          9.85571146e-01, 4.87663567e-01, 7.78975725e-01, 4.55786109e-01,
          7.07417667e-01, 6.54440343e-01 ]
      - [ 6.50504231e-01, 4.82388079e-01, 6.55982792e-01, 4.38737214e-01,
          6.51598215e-01, 4.13268715e-01, 6.79245293e-01, 5.05861342e-01,
          6.22140527e-01, 5.06921232e-01 ]
      - [ 7.63616979e-01, 3.03183377e-01, 7.39370763e-01, 2.57977188e-01,
          7.38452017e-01, 3.15165222e-01, 7.84366548e-01, 3.44752759e-01,
          8.42496037e-01, 4.14082468e-01 ]
      - [ 7.70420551e-01, 5.89093983e-01, 9.29792881e-01, 1.22504279e-01,
          9.26781833e-01, 4.59916294e-01, 7.87061989e-01, 5.24197757e-01,
          5.23588061e-01, 6.17502391e-01 ]
      - [ 5.95415175e-01, 5.84942222e-01, 6.61865771e-01, 4.19950902e-01,
          6.64002717e-01, 5.39681554e-01, 6.25336945e-01, 5.83371222e-01,
          7.07417667e-01, 6.46689355e-01 ]
      - [ 5.96749723e-01, 4.15563196e-01, 5.56132436e-01, 4.62618530e-01,
          5.59555471e-01, 5.26891112e-01, 6.28032327e-01, 4.29331273e-01,
          6.21465564e-01, 6.25879705e-01 ]
      - [ 7.35860884e-01, 4.07096893e-01, 6.05519235e-01, 5.25019526e-01,
          6.06748223e-01, 3.35431933e-01, 7.62803257e-01, 4.54456389e-01,
          7.07417667e-01, 4.32191312e-01 ]
      - [ 5.42942047e-01, 4.17783111e-01, 7.76243508e-01, 2.33474955e-01,
          7.78120458e-01, 6.23649836e-01, 5.66037714e-01, 3.77296418e-01,
          2.45931149e-01, 7.37976074e-01 ]
      - [ 3.41890365e-01, 4.45355356e-01, 5.61377764e-01, 5.42956114e-01,
          5.53986728e-01, 7.13023126e-01, 3.69272232e-01, 4.58375603e-01,
          7.29468226e-01, 7.77828574e-01 ]
      - [ 5.59880257e-01, 2.62675107e-01, 7.06413150e-01, 4.07760084e-01,
          7.14257121e-01, 5.56303144e-01, 5.90296507e-01, 2.63603598e-01,
          8.90272260e-01, 6.46602750e-01 ]
      - [ 5.10058522e-01, 4.33566093e-01, 7.75458455e-01, 3.18917692e-01,
          7.66574919e-01, 5.88365793e-01, 5.36388159e-01, 4.25097108e-01,
          7.61944056e-01, 6.85834587e-01 ]
      - [ 5.56991756e-01, 4.82572198e-01, 8.12674463e-01, 3.55430245e-01,
          8.03386092e-01, 6.06150508e-01, 5.84905684e-01, 4.62784767e-01,
          5.70914268e-01, 7.17761934e-01 ]
      - [ 5.29784381e-01, 5.07342100e-01, 7.44925261e-01, 3.42211008e-01,
          7.42849410e-01, 6.19269609e-01, 5.57951510e-01, 4.85880256e-01,
          3.96159917e-01, 7.23329782e-01 ]
      - [ 5.04116833e-01, 3.60931486e-01, 7.86208689e-01, 3.97253990e-01,
          7.93644428e-01, 6.56832397e-01, 5.33692718e-01, 3.37334216e-01,
          8.27645719e-01, 7.65804648e-01 ]
      - [ 3.98145825e-01, 5.80679655e-01, 6.23504162e-01, 4.94438559e-01,
          6.20220363e-01, 7.04046428e-01, 4.25876021e-01, 5.64544916e-01,
          5.99865019e-01, 7.85893977e-01 ]
      - [ 3.94142240e-01, 5.32413900e-01, 6.90604270e-01, 4.15597379e-01,
          6.79424584e-01, 7.34989166e-01, 4.20485169e-01, 5.02117097e-01,
          8.11670303e-01, 8.25084329e-01 ]
      - [ 4.42526817e-01, 6.12456858e-01, 5.73652267e-01, 4.43362355e-01,
          5.60473859e-01, 6.58133924e-01, 4.71698105e-01, 5.98488271e-01,
          7.07417667e-01, 7.42557704e-01 ]
      - [ 4.71353680e-01, 5.96730649e-01, 6.46663785e-01, 3.58691722e-01,
          6.54171109e-01, 6.66055560e-01, 4.98652279e-01, 5.58806062e-01,
          5.51263809e-01, 7.63155937e-01 ]
      - [ 3.62717122e-01, 5.18370688e-01, 5.93756914e-01, 5.98186910e-01,
          5.90143144e-01, 6.70997918e-01, 3.93530995e-01, 5.18178940e-01,
          7.32093275e-01, 7.21820891e-01 ]
      - [ 5.79657495e-01, 4.04084384e-01, 7.70328641e-01, 3.73159140e-01,
          7.68017769e-01, 5.41130126e-01, 6.09164417e-01, 3.88634205e-01,
          6.03390098e-01, 6.46731257e-01 ]
      - [ 4.67504084e-01, 4.52026427e-01, 7.80069768e-01, 3.88296515e-01,
          7.70175457e-01, 6.78538978e-01, 4.95956868e-01, 4.23277467e-01,
          2.94832379e-01, 7.79601514e-01 ]
      - [ 4.25278842e-01, 3.52127194e-01, 6.73557043e-01, 3.96367043e-01,
          6.78789735e-01, 7.41764903e-01, 4.52830195e-01, 3.39083880e-01,
          1., 8.45664561e-01 ]
      - [ 4.54847306e-01, 5.48174500e-01, 7.81004131e-01, 3.70408297e-01,
          7.67132103e-01, 6.99337542e-01, 4.82479781e-01, 5.03901720e-01,
          7.31043279e-01, 8.06710720e-01 ]
      - [ 3.77961546e-01, 5.52921653e-01, 6.41674578e-01, 5.14319777e-01,
          6.35211468e-01, 7.00621784e-01, 4.07008082e-01, 5.40259659e-01,
          7.07417667e-01, 7.70656586e-01 ]
      - [ 4.98063684e-01, 3.52068096e-01, 7.42778182e-01, 3.32265943e-01,
          7.39963353e-01, 6.51384115e-01, 5.25606453e-01, 3.47132295e-01,
          6.28440738e-01, 7.46700287e-01 ]
      - [ 3.36474359e-01, 4.63608325e-01, 4.26153243e-01, 5.38904548e-01,
          4.33108836e-01, 7.66801000e-01, 3.63881409e-01, 4.73667622e-01,
          5.58238983e-01, 8.37001264e-01 ]
      - [ 3.83735061e-01, 6.05515361e-01, 7.13869393e-01, 3.11422735e-01,
          7.02457488e-01, 7.55891502e-01, 4.04312670e-01, 5.63355148e-01,
          3.10807765e-01, 8.41068089e-01 ]
      - [ 3.75980973e-01, 5.35172582e-01, 5.51044762e-01, 4.53436613e-01,
          5.43446004e-01, 7.36779273e-01, 4.01617259e-01, 5.36620378e-01,
          6.90917253e-01, 8.21076810e-01 ]
      - [ 4.15692896e-01, 4.82902914e-01, 5.76361656e-01, 5.40649951e-01,
          5.72713435e-01, 6.95156217e-01, 4.47439343e-01, 4.88119811e-01,
          7.07417667e-01, 7.76841879e-01 ]
      - [ 2.99328834e-01, 7.07437396e-01, 6.07611835e-01, 4.73175555e-01,
          6.05913341e-01, 7.80910313e-01, 3.23450148e-01, 6.40690088e-01,
          6.01365030e-01, 8.37738276e-01 ]
      - [ 3.68959665e-01, 5.96169114e-01, 6.69986546e-01, 4.69161034e-01,
          6.54294968e-01, 7.45280325e-01, 3.96226406e-01, 5.58736026e-01,
          7.07417667e-01, 8.26841414e-01 ]
      - [ 4.59098667e-01, 4.39432412e-01, 6.60087347e-01, 4.09868747e-01,
          6.60155594e-01, 6.85414195e-01, 4.87870634e-01, 4.17748541e-01,
          6.87692165e-01, 7.87281811e-01 ]
      - [ 4.03791904e-01, 5.18879533e-01, 6.43831134e-01, 5.42299092e-01,
          6.39414907e-01, 6.90304697e-01, 4.33962256e-01, 4.93368804e-01,
          7.07417667e-01, 7.68797755e-01 ]
      - [ 4.94058341e-01, 5.88536978e-01, 6.50802732e-01, 4.23512548e-01,
          6.50765955e-01, 6.44988894e-01, 5.22911072e-01, 5.65524697e-01,
          5.98814964e-01, 7.37411082e-01 ]
      - [ 3.05272281e-01, 6.91259801e-01, 5.99345088e-01, 4.90682989e-01,
          5.85555315e-01, 6.86702728e-01, 3.28840971e-01, 6.80127382e-01,
          6.46891177e-01, 7.12126017e-01 ]
      - [ 4.82401580e-01, 4.58076358e-01, 6.92910612e-01, 2.25061938e-01,
          7.01607108e-01, 6.98697627e-01, 5.04043102e-01, 4.21387821e-01,
          8.25545609e-01, 8.08673799e-01 ]
      - [ 5.49975753e-01, 2.98779726e-01, 8.04269850e-01, 2.99145997e-01,
          8.15200567e-01, 6.20597064e-01, 5.76819420e-01, 2.78475702e-01,
          2.44131103e-01, 7.44375467e-01 ]
      - [ 2.55937219e-01, 7.68559337e-01, 4.09941286e-01, 7.34404325e-01,
          3.90757740e-01, 7.49245465e-01, 2.83018857e-01, 7.78668165e-01,
          7.07492709e-01, 7.82570302e-01 ]
      - [ 3.72872978e-01, 6.20932102e-01, 6.82649672e-01, 4.40114915e-01,
          6.78409159e-01, 7.34911323e-01, 3.98921847e-01, 5.93799233e-01,
          9.27323163e-01, 8.13372254e-01 ]
      - [ 3.95896226e-01, 4.96310771e-01, 6.00540340e-01, 5.02686501e-01,
          6.00028276e-01, 6.96237206e-01, 4.25876021e-01, 4.96658146e-01,
          7.07417667e-01, 7.72197783e-01 ]
      - [ 5.41973889e-01, 3.56693715e-01, 7.21453786e-01, 4.11447942e-01,
          7.14355648e-01, 5.72267413e-01, 5.71428597e-01, 3.57245326e-01,
          6.37215912e-01, 6.70039415e-01 ]
      - [ 6.20001256e-01, 2.84643531e-01, 8.04680049e-01, 2.94700205e-01,
          8.05125058e-01, 5.71886897e-01, 6.46900296e-01, 2.71372080e-01,
          4.84212101e-01, 7.01765299e-01 ]
      - [ 4.85065341e-01, 4.13879365e-01, 7.23090231e-01, 4.09374237e-01,
          7.22415984e-01, 6.41875565e-01, 5.14824808e-01, 4.00846839e-01,
          4.62611556e-01, 7.36457169e-01 ]
      - [ 4.63650942e-01, 5.14719427e-01, 6.61831856e-01, 5.28316617e-01,
          6.51601017e-01, 5.92101753e-01, 4.95956868e-01, 5.16849220e-01,
          7.57143915e-01, 6.52911365e-01 ]
      - [ 7.05064118e-01, 6.06638670e-01, 8.91312361e-01, 1.20543130e-01,
          8.91129732e-01, 5.21866620e-01, 7.25067377e-01, 5.43269038e-01,
          7.07417667e-01, 6.67771757e-01 ]
      - [ 8.15670609e-01, 1.86736602e-02, 1., 0., 1., 5.00873446e-01,
          8.27493250e-01, 0., 1.83379591e-01, 6.88188791e-01 ]
      - [ 6.63805306e-01, 4.53317434e-01, 6.75493181e-01, 3.15422952e-01,
          6.85381234e-01, 5.26973248e-01, 6.90026939e-01, 4.37064767e-01,
          7.07492709e-01, 6.51353240e-01 ]
      - [ 6.88212633e-01, 5.69502532e-01, 6.88552737e-01, 4.01411861e-01,
          6.72733724e-01, 4.48271692e-01, 7.14285731e-01, 6.09336197e-01,
          8.27720702e-01, 5.76107085e-01 ]
      - [ 6.97455168e-01, 5.43183267e-01, 8.11810195e-01, 2.09269240e-01,
          8.06364954e-01, 5.12552619e-01, 7.19676554e-01, 5.02257049e-01,
          6.41716063e-01, 6.60028756e-01 ]
      - [ 5.62328100e-01, 6.18299961e-01, 8.45154822e-01, 1.93780437e-01,
          8.31974447e-01, 6.28133833e-01, 5.82210243e-01, 5.62305331e-01,
          7.07417667e-01, 7.52232790e-01 ]
      - [ 6.41620994e-01, 7.49121666e-01, 7.66792655e-01, 3.33154589e-01,
          7.44310141e-01, 4.83062804e-01, 6.68463588e-01, 7.16345310e-01,
          7.07417667e-01, 5.93790233e-01 ]
      - [ 7.34745860e-01, 6.59135759e-01, 8.42142344e-01, 1.56882674e-01,
          8.32685828e-01, 4.76533502e-01, 7.54716992e-01, 5.96318722e-01,
          7.07417667e-01, 6.31640792e-01 ]
      - [ 6.76270902e-01, 5.62266648e-01, 7.78153241e-01, 2.69585371e-01,
          7.70691812e-01, 5.21905482e-01, 7.00808644e-01, 5.24267793e-01,
          6.91742301e-01, 6.51194811e-01 ]
      - [ 6.36305869e-01, 6.83389723e-01, 6.90320194e-01, 2.70276427e-01,
          6.78998530e-01, 5.48969567e-01, 6.60377383e-01, 6.55177236e-01,
          7.07717717e-01, 6.84252501e-01 ]
      - [ 6.58302546e-01, 5.66402674e-01, 7.36281574e-01, 3.20209265e-01,
          7.31931031e-01, 4.88498092e-01, 6.84636116e-01, 5.50092757e-01,
          8.95447373e-01, 6.10258937e-01 ]
      - [ 7.69307256e-01, 3.93169075e-01, 8.87826204e-01, 1.49469092e-01,
          8.91777813e-01, 5.08263230e-01, 7.87061989e-01, 3.53676021e-01,
          2.60406524e-01, 6.77202046e-01 ]
      - [ 5.34531355e-01, 4.38589692e-01, 6.18912339e-01, 4.73475754e-01,
          6.25491261e-01, 5.44727743e-01, 5.66037714e-01, 4.51341987e-01,
          3.99684995e-01, 6.25060499e-01 ]
      - [ 5.84015071e-01, 4.41813558e-01, 7.95236409e-01, 2.34890997e-01,
          7.94070363e-01, 6.37573183e-01, 6.09164417e-01, 3.93393278e-01,
          7.21593022e-01, 7.76071370e-01 ]
      - [ 7.01885343e-01, 4.05642867e-01, 7.41593063e-01, 3.31164539e-01,
          7.40715563e-01, 4.67582792e-01, 7.27762818e-01, 3.84470016e-01,
          6.46366179e-01, 5.96016824e-01 ]
      - [ 5.76643288e-01, 5.59934020e-01, 7.84586966e-01, 3.10405612e-01,
          7.71093190e-01, 5.56774437e-01, 6.03773594e-01, 5.25737464e-01,
          5.99339962e-01, 6.70015037e-01 ]
      - [ 5.70149422e-01, 5.22003770e-01, 7.36238837e-01, 2.55514115e-01,
          7.36183107e-01, 6.18439376e-01, 5.95687330e-01, 4.84760463e-01,
          6.48616195e-01, 7.44083166e-01 ]
      - [ 6.11387014e-01, 6.17419660e-01, 6.73632920e-01, 3.50928038e-01,
          6.59710467e-01, 5.43599129e-01, 6.38814032e-01, 6.17944479e-01,
          7.58418977e-01, 6.57265246e-01 ]
      - [ 6.26698673e-01, 5.47295392e-01, 7.92527676e-01, 3.01296383e-01,
          7.70449460e-01, 5.23328125e-01, 6.52291119e-01, 5.30741513e-01,
          7.07417667e-01, 6.39330089e-01 ]
      - [ 6.26167715e-01, 4.91276562e-01, 7.24200904e-01, 3.82830441e-01,
          7.16530919e-01, 5.00566423e-01, 6.54986501e-01, 4.91899073e-01,
          7.07717717e-01, 6.25751495e-01 ]
      - [ 7.42439747e-01, 5.25002539e-01, 9.21996713e-01, 9.82022136e-02,
          9.13848281e-01, 4.82180685e-01, 7.60107815e-01, 4.59495395e-01,
          5.73764324e-01, 6.50023758e-01 ]
      - [ 5.49660683e-01, 4.54947472e-01, 6.73394382e-01, 3.89550060e-01,
          6.63747311e-01, 6.35938704e-01, 5.79514802e-01, 4.49802279e-01,
          8.79396975e-01, 7.65499234e-01 ]
      - [ 6.09162211e-01, 4.51833338e-01, 8.56371164e-01, 1.24596052e-01,
          8.55039179e-01, 6.17375672e-01, 6.30727768e-01, 4.05046016e-01,
          7.07417667e-01, 7.55014658e-01 ]
      - [ 6.88294053e-01, 6.17037296e-01, 7.54947066e-01, 2.29134008e-01,
          7.52232790e-01, 5.11008978e-01, 7.11590290e-01, 5.65699697e-01,
          7.00292528e-01, 6.56286359e-01 ]
      - [ 5.54536879e-01, 5.57319462e-01, 6.46968544e-01, 4.32407230e-01,
          6.41936123e-01, 5.82329452e-01, 5.84905684e-01, 5.50932586e-01,
          6.91142261e-01, 6.89996481e-01 ]
      - [ 4.94230032e-01, 6.03936315e-01, 6.34321690e-01, 3.82601947e-01,
          6.34614646e-01, 6.38714731e-01, 5.22911072e-01, 5.95723808e-01,
          7.07342684e-01, 7.40821481e-01 ]
      - [ 4.14576083e-01, 9.21497762e-01, 7.06699491e-01, 3.50440621e-01,
          6.80163145e-01, 6.95874035e-01, 4.39353108e-01, 8.49879265e-01,
          6.93167329e-01, 7.82772779e-01 ]
      - [ 5.86733639e-01, 4.67992872e-01, 6.24180853e-01, 4.58982706e-01,
          6.20077968e-01, 5.40771246e-01, 6.17250681e-01, 4.88329768e-01,
          7.07417667e-01, 6.59007013e-01 ]
      - [ 6.13459587e-01, 5.50575554e-01, 7.82273829e-01, 2.74681985e-01,
          7.76845038e-01, 5.83289385e-01, 6.38814032e-01, 5.14119744e-01,
          6.46441162e-01, 7.12509036e-01 ]
      - [ 6.63838923e-01, 4.76194501e-01, 7.25746453e-01, 2.91068822e-01,
          7.25791991e-01, 5.43313742e-01, 6.90026939e-01, 4.47317779e-01,
          7.07417667e-01, 6.88815176e-01 ]
      - [ 5.95091283e-01, 6.14918828e-01, 7.00455964e-01, 3.40896994e-01,
          7.00319469e-01, 5.62110305e-01, 6.22641504e-01, 5.70108831e-01,
          6.58291459e-01, 6.82649374e-01 ]
      - [ 4.90403444e-01, 9.22013223e-01, 7.71343112e-01, 2.82510102e-01,
          7.51988947e-01, 6.16247118e-01, 5.14824808e-01, 8.36616874e-01,
          6.44641101e-01, 7.19523489e-01 ]
      - [ 5.93544364e-01, 4.04224992e-01, 8.10647547e-01, 2.57569015e-01,
          7.99276114e-01, 4.47069615e-01, 6.17250681e-01, 4.09105211e-01,
          5.99714994e-01, 5.11321843e-01 ]
      - [ 2.99521774e-01, 6.58018768e-01, 7.76036739e-01, 3.52432758e-01,
          7.51887202e-01, 7.77425110e-01, 3.18059295e-01, 5.95898807e-01,
          5.24263084e-01, 8.24930727e-01 ]
      - [ 2.66252398e-01, 7.51955032e-01, 5.99710405e-01, 4.78544623e-01,
          5.75015962e-01, 7.16672599e-01, 2.85714298e-01, 7.16345310e-01,
          7.07417667e-01, 7.24424064e-01 ]
      - [ 4.78403300e-01, 4.80732292e-01, 7.08064616e-01, 2.97977418e-01,
          7.06995606e-01, 7.11786449e-01, 5.04043102e-01, 4.56555963e-01,
          9.50873792e-01, 8.32214355e-01 ]
      - [ 2.61601001e-01, 6.78211391e-01, 5.50381839e-01, 5.78460217e-01,
          5.44765353e-01, 7.37834334e-01, 2.83018857e-01, 6.83031797e-01,
          6.15015388e-01, 7.62866139e-01 ]
      - [ 2.86029577e-01, 6.22848332e-01, 5.43677092e-01, 4.93174285e-01,
          5.22378504e-01, 5.95184743e-01, 3.07277620e-01, 6.45589113e-01,
          7.07417667e-01, 5.85346699e-01 ]
      - [ 3.06256354e-01, 4.38948125e-01, 4.30419594e-01, 6.08913898e-01,
          4.32170480e-01, 7.83902526e-01, 3.34231794e-01, 4.58305627e-01,
          6.00764990e-01, 8.35225284e-01 ]
      - [ 5.63595355e-01, 3.04384708e-01, 8.48584294e-01, 1.17220961e-01,
          8.53849530e-01, 6.36172175e-01, 5.84905684e-01, 2.63988525e-01,
          2.83732086e-01, 7.57948935e-01 ]
      - [ 2.93365955e-01, 6.61759973e-01, 3.50195318e-01, 6.24575734e-01,
          3.51324290e-01, 7.77269483e-01, 3.20754707e-01, 6.60636187e-01,
          7.07417667e-01, 8.35953474e-01 ]
      - [ 3.41810703e-01, 4.45070803e-01, 4.70170438e-01, 6.00220263e-01,
          4.79524821e-01, 7.38344610e-01, 3.71967643e-01, 4.44728285e-01,
          6.53716326e-01, 7.98749745e-01 ]
      - [ 4.61019069e-01, 3.17254633e-01, 7.56127179e-01, 3.25561911e-01,
          7.63334930e-01, 6.45624518e-01, 4.87870634e-01, 3.04300666e-01,
          4.47086185e-01, 7.24089384e-01 ]
      - [ 3.99460882e-01, 3.81513447e-01, 6.77015603e-01, 4.00638491e-01,
          6.82596505e-01, 7.83668995e-01, 4.25876021e-01, 3.56265515e-01,
          6.04965150e-01, 8.86295497e-01 ]
      - [ 2.88502187e-01, 8.61424446e-01, 6.87238932e-01, 4.03184354e-01,
          6.65477216e-01, 7.65166521e-01, 3.07277620e-01, 7.87696421e-01,
          6.89642251e-01, 8.25422406e-01 ]
      - [ 4.87468898e-01, 3.62162560e-01, 6.45695508e-01, 2.73070693e-01,
          6.56763911e-01, 7.10368156e-01, 5.12129366e-01, 3.54375899e-01,
          6.66766644e-01, 8.23499084e-01 ]
      - [ 3.91257256e-01, 3.84193748e-01, 7.59509623e-01, 3.13766003e-01,
          7.64159799e-01, 7.77719140e-01, 4.15094346e-01, 3.34499776e-01,
          5.29363215e-01, 8.73542905e-01 ]
      - [ 3.35164607e-01, 5.60483038e-01, 6.76133752e-01, 4.13410664e-01,
          6.62790120e-01, 7.82994449e-01, 3.58490556e-01, 5.20733476e-01,
          7.07417667e-01, 8.63358498e-01 ]
      - [ 2.21055448e-01, 7.29225874e-01, 3.24318796e-01, 7.21091211e-01,
          3.19097817e-01, 7.94063985e-01, 2.45283023e-01, 7.57217348e-01,
          7.07417667e-01, 8.20323110e-01 ]
      - [ 4.45089668e-01, 3.76880348e-01, 8.12139869e-01, 3.73735368e-01,
          8.01484466e-01, 7.16361225e-01, 4.71698105e-01, 3.63334149e-01,
          4.80161995e-01, 8.21052253e-01 ]
      - [ 2.40388393e-01, 7.01693296e-01, 5.13812363e-01, 5.41244924e-01,
          5.08224726e-01, 8.52282643e-01, 2.58760095e-01, 6.69384480e-01,
          6.88967228e-01, 9.08352196e-01 ]
      - [ 3.46481562e-01, 6.45827532e-01, 6.41687393e-01, 4.58267093e-01,
          6.36147976e-01, 7.52674401e-01, 3.71967643e-01, 6.25083089e-01,
          7.59168983e-01, 8.24867427e-01 ]
      - [ 3.45522255e-01, 6.20990515e-01, 6.70300007e-01, 4.17797446e-01,
          6.48647726e-01, 7.80538440e-01, 3.69272232e-01, 6.01007819e-01,
          5.92214823e-01, 8.55525255e-01 ]
      - [ 2.96711117e-01, 5.65472126e-01, 3.65448803e-01, 6.88265800e-01,
          3.70807439e-01, 7.24490404e-01, 3.26145560e-01, 5.75882673e-01,
          6.41716063e-01, 7.66292632e-01 ]
      - [ 2.22007662e-01, 6.78312480e-01, 5.21034896e-01, 5.98225355e-01,
          5.08061111e-01, 8.15800846e-01, 2.42587596e-01, 6.70959175e-01,
          6.59941494e-01, 8.43556881e-01 ]
      - [ 6.65571690e-01, 6.58989698e-02, 6.89301193e-01, 3.23445290e-01,
          7.15595782e-01, 5.35028934e-01, 6.92722380e-01, 9.28368941e-02,
          3.30758274e-01, 6.72408700e-01 ]
      - [ 3.78729671e-01, 5.09793460e-01, 4.37883645e-01, 5.96150517e-01,
          4.36707199e-01, 6.89556599e-01, 4.09703493e-01, 5.52752197e-01,
          6.40441000e-01, 7.55664587e-01 ]
      - [ 4.65089887e-01, 5.04393697e-01, 6.55270159e-01, 3.61977994e-01,
          6.44021869e-01, 6.95861042e-01, 4.93261456e-01, 5.02991915e-01,
          7.20242977e-01, 8.07041287e-01 ]
      - [ 4.43675518e-01, 1.97142214e-01, 8.67764473e-01, 2.34129697e-01,
          8.74570727e-01, 7.70095885e-01, 4.66307282e-01, 1.58519089e-01,
          2.44431108e-01, 8.86819780e-01 ]
      - [ 3.14465284e-01, 6.13292456e-01, 5.61366796e-01, 5.61485827e-01,
          5.58662415e-01, 7.57642686e-01, 3.42318058e-01, 6.04052186e-01,
          6.24390602e-01, 8.13069940e-01 ]
      - [ 2.63482451e-01, 6.08073294e-01, 6.07678354e-01, 4.39557731e-01,
          6.04728460e-01, 8.35302234e-01, 2.83018857e-01, 5.58001161e-01,
          6.05940163e-01, 8.97443414e-01 ]
      - [ 3.48120511e-01, 5.52161753e-01, 3.78714472e-01, 6.87363267e-01,
          3.71396661e-01, 6.80752873e-01, 3.80053908e-01, 6.05381966e-01,
          6.46891177e-01, 7.39385903e-01 ]
      - [ 3.27191085e-01, 6.91906273e-01, 4.06116515e-01, 7.16300130e-01,
          3.99017900e-01, 6.83027327e-01, 3.58490556e-01, 7.05742359e-01,
          4.70036745e-01, 7.19689906e-01 ]
      - [ 3.69179130e-01, 5.40707827e-01, 4.40123111e-01, 5.64440012e-01,
          4.40714866e-01, 6.82184160e-01, 3.98921847e-01, 5.65664709e-01,
          6.20715499e-01, 7.30716288e-01 ]
      - [ 3.11141372e-01, 6.29801989e-01, 6.80187821e-01, 4.49035585e-01,
          6.66281641e-01, 8.12843204e-01, 3.34231794e-01, 5.73188245e-01,
          7.07342684e-01, 8.87463093e-01 ]
      - [ 2.41657436e-01, 6.28700256e-01, 5.21479309e-01, 3.69998217e-01,
          5.07331789e-01, 8.73172045e-01, 2.53369272e-01, 5.95443904e-01,
          6.58291459e-01, 9.33215857e-01 ]
      - [ 4.15834516e-01, 4.17680651e-01, 4.21135277e-01, 6.70140088e-01,
          4.20833021e-01, 6.48534596e-01, 4.50134784e-01, 4.75312322e-01,
          6.15015388e-01, 7.18265891e-01 ]
      - [ 3.94244909e-01, 5.27986348e-01, 6.00330234e-01, 4.87456977e-01,
          5.91801643e-01, 7.06078708e-01, 4.23180580e-01, 5.09955585e-01,
          7.07417667e-01, 7.85488009e-01 ]
      - [ 3.08005035e-01, 5.01121521e-01, 3.20922971e-01, 7.58939683e-01,
          3.20920974e-01, 7.17701674e-01, 3.39622647e-01, 5.60695648e-01,
          6.95117354e-01, 7.60310471e-01 ]
      - [ 1.50113106e-01, 4.25866693e-01, 2.85423756e-01, 8.16347957e-01,
          2.94571728e-01, 8.87558043e-01, 1.69811323e-01, 4.72162932e-01,
          4.07110184e-01, 9.18239534e-01 ]
      - [ 4.87527311e-01, 4.39996086e-02, 5.96494377e-01, 5.42793214e-01,
          6.13378823e-01, 6.53974235e-01, 5.20215631e-01, 9.92756411e-02,
          3.94209862e-01, 7.56242514e-01 ]
      - [ 2.08411068e-01, 5.86022198e-01, 4.00963098e-01, 7.39235580e-01,
          3.96448582e-01, 8.17080736e-01, 2.31805936e-01, 6.07761502e-01,
          6.78991973e-01, 8.43315363e-01 ]
      - [ 5.32915413e-01, 2.40291938e-01, 6.73826575e-01, 3.01245928e-01,
          6.84509814e-01, 6.89223647e-01, 5.60646892e-01, 2.44147390e-01,
          0., 8.25372934e-01 ]
      - [ 1.69490293e-01, 5.98021507e-01, 5.31958997e-01, 5.52500367e-01,
          5.09032607e-01, 8.35146546e-01, 1.83288410e-01, 5.90754807e-01,
          7.77394414e-01, 8.48377287e-01 ]
      - [ 1.27427906e-01, 7.02879012e-01, 3.20284665e-01, 6.82977915e-01,
          3.16201419e-01, 8.93698156e-01, 1.40161723e-01, 6.96049273e-01,
          7.59918988e-01, 9.06862915e-01 ]
      - [ 2.63983339e-01, 4.43293661e-01, 3.58961463e-01, 8.03979516e-01,
          3.45074236e-01, 7.53080845e-01, 2.93800533e-01, 5.12964964e-01,
          5.58913946e-01, 7.90553153e-01 ]
      - [ 2.44319409e-01, 4.68666285e-01, 3.67249191e-01, 7.72023976e-01,
          3.58215451e-01, 6.24916792e-01, 2.72237211e-01, 5.67834258e-01,
          7.39968479e-01, 6.00197375e-01 ]
      - [ 2.55273521e-01, 4.26233441e-01, 5.03215492e-01, 6.26103163e-01,
          5.00622571e-01, 8.35838377e-01, 2.80323446e-01, 4.28246498e-01,
          6.12240314e-01, 8.88422370e-01 ]
      - [ 0., 7.66070127e-01, 2.62928814e-01, 8.58030975e-01,
          2.52771646e-01, 1., 0., 7.68765092e-01, 7.07417667e-01,
          9.98827517e-01 ]
      - [ 2.37021983e-01, 5.18971503e-01, 3.58809561e-01, 7.61609554e-01,
          3.51578146e-01, 7.78480172e-01, 2.64150947e-01, 5.49567819e-01,
          5.98664939e-01, 8.08135331e-01 ]
      - [ 1.77281529e-01, 6.23307586e-01, 2.20311373e-01, 8.13015699e-01,
          2.13417545e-01, 8.14672291e-01, 1.99460924e-01, 6.80512309e-01,
          6.28065705e-01, 8.36371362e-01 ]
      - [ 2.91169465e-01, 5.12678027e-01, 4.29232597e-01, 7.43813276e-01,
          4.20318037e-01, 7.45042503e-01, 3.20754707e-01, 5.45963526e-01,
          5.76989412e-01, 7.88092971e-01 ]
      - [ 2.99112916e-01, 2.78415084e-01, 3.77510995e-01, 6.97064877e-01,
          3.83558691e-01, 6.35056615e-01, 3.28840971e-01, 3.41883332e-01,
          5.54038823e-01, 6.37489498e-01 ]
      - [ 6.30665123e-01, 1.51798964e-01, 6.81516528e-01, 4.49003994e-01,
          6.80633426e-01, 5.23570240e-01, 6.60377383e-01, 2.12653533e-01,
          8.98522437e-02, 6.46248698e-01 ]
      - [ 1.21305712e-01, 6.45685256e-01, 4.69471186e-01, 6.07401967e-01,
          4.62053508e-01, 9.62860942e-01, 1.29380047e-01, 6.23088479e-01,
          5.71739316e-01, 1. ]
      - [ 3.33853096e-01, 3.71345580e-01, 4.05975342e-01, 6.37275100e-01,
          4.10826415e-01, 7.55757451e-01, 3.63881409e-01, 4.15438980e-01,
          2.30480760e-01, 8.26035559e-01 ]
      - [ 1.29295185e-01, 5.77765942e-01, 5.51755786e-01, 5.94764173e-01,
          5.46245098e-01, 9.24519837e-01, 1.40161723e-01, 5.57476282e-01,
          3.83409590e-01, 9.45620477e-01 ]
      - [ 6.58927336e-02, 7.66459942e-01, 0., 1., 0., 8.74032497e-01,
          8.08625370e-02, 8.43440533e-01, 7.07417667e-01, 8.56871545e-01 ]
      - [ 4.31526721e-01, 0., 5.51792324e-01, 4.32296157e-01,
          5.78398764e-01, 8.06162596e-01, 4.60916430e-01, 3.15288529e-02,
          2.99557477e-01, 9.34946120e-01 ]
      - [ 2.21221820e-01, 4.41237956e-01, 3.50994170e-01, 6.33702099e-01,
          3.53602648e-01, 8.61250699e-01, 2.42587596e-01, 4.98197854e-01,
          8.25470626e-01, 9.15678203e-01 ]
      - [ 2.35383034e-01, 4.60248649e-01, 4.65776026e-01, 6.30895317e-01,
          4.52959448e-01, 8.30986857e-01, 2.56064683e-01, 4.80876237e-01,
          4.24735606e-01, 8.73537600e-01 ]
      - [ 2.62220472e-01, 5.11658609e-01, 5.12275279e-01, 6.10311270e-01,
          5.08216202e-01, 7.37830043e-01, 2.85714298e-01, 5.13139963e-01,
          5.43688595e-01, 7.57964849e-01 ]
      - [ 5.27679920e-01, 2.41214380e-01, 6.56333625e-01, 4.16135073e-01,
          6.65435970e-01, 6.49546385e-01, 5.57951510e-01, 2.55975097e-01,
          1.42803565e-01, 7.69760311e-01 ]
      - [ 7.65358567e-01, 5.73132813e-01, 6.91583276e-01, 3.01058471e-01,
          6.85689569e-01, 4.23659325e-01, 7.87061989e-01, 5.69164038e-01,
          6.93617344e-01, 5.62378109e-01 ]
      - [ 7.64749706e-01, 7.50433922e-01, 6.29188716e-01, 3.22842121e-01,
          6.10518157e-01, 4.04875785e-01, 7.87061989e-01, 7.49448836e-01,
          6.79516971e-01, 5.31395018e-01 ]
      - [ 8.13022792e-01, 5.74892044e-01, 5.91210961e-01, 3.55735570e-01,
          5.86623311e-01, 3.50185513e-01, 8.32884073e-01, 6.05486929e-01,
          7.07417667e-01, 4.91977930e-01 ]
      - [ 7.99596131e-01, 6.75604761e-01, 7.65751719e-01, 3.24743003e-01,
          7.45824456e-01, 3.09652090e-01, 8.19406986e-01, 6.94439590e-01,
          6.91967309e-01, 4.33309525e-01 ]
      - [ 8.19405138e-01, 3.97227705e-01, 7.43156850e-01, 3.16217452e-01,
          7.36972034e-01, 3.55659723e-01, 8.38274956e-01, 4.21212852e-01,
          7.07417667e-01, 5.04081666e-01 ]
      - [ 1., 3.75678509e-01, 8.62638414e-01, 7.87478760e-02,
          8.66039336e-01, 2.82925278e-01, 1., 3.54760826e-01,
          6.60991549e-01, 4.84035134e-01 ]
      - [ 9.07538831e-01, 4.60081130e-01, 8.57669115e-01, 1.37636274e-01,
          8.49551737e-01, 3.41632575e-01, 9.16442037e-01, 4.56905901e-01,
          7.07417667e-01, 5.22286475e-01 ]
      - [ 8.35980535e-01, 5.13551474e-01, 7.19413459e-01, 2.06942901e-01,
          7.13329852e-01, 3.98363799e-01, 8.51752043e-01, 5.04006743e-01,
          7.07417667e-01, 5.59546232e-01 ]
      - [ 7.81119823e-01, 4.78027910e-01, 7.29901254e-01, 2.40913466e-01,
          7.30388165e-01, 4.32623029e-01, 8.00539076e-01, 4.71428066e-01,
          6.64591610e-01, 5.93164802e-01 ]
      - [ 7.64349699e-01, 5.07012069e-01, 6.96038127e-01, 3.55287910e-01,
          6.83020055e-01, 3.53973359e-01, 7.87061989e-01, 5.32071233e-01,
          7.07417667e-01, 4.72022504e-01 ]
      - [ 7.74753332e-01, 6.16518021e-01, 7.44789541e-01, 2.65681654e-01,
          7.28735566e-01, 3.54427367e-01, 7.95148253e-01, 6.18469417e-01,
          6.75541878e-01, 4.89781529e-01 ]
      - [ 8.87597024e-01, 5.72257042e-01, 7.84806132e-01, 2.35307261e-01,
          7.77369678e-01, 3.26208770e-01, 9.00269568e-01, 5.47083318e-01,
          5.25988162e-01, 4.82841074e-01 ]
      - [ 7.19566941e-01, 6.12426639e-01, 5.78574538e-01, 4.94855851e-01,
          5.60048938e-01, 3.94411623e-01, 7.46630728e-01, 6.55247211e-01,
          7.69069254e-01, 5.08697152e-01 ]
      - [ 9.86442327e-01, 3.95022899e-01, 8.49329352e-01, 6.39518839e-05,
          8.56035650e-01, 3.46129566e-01, 9.86522913e-01, 3.50106716e-01,
          3.58358949e-01, 5.49221933e-01 ]
      - [ 7.74102032e-01, 6.52531624e-01, 6.94669962e-01, 2.91356981e-01,
          6.89967573e-01, 3.79779130e-01, 7.95148253e-01, 6.53217614e-01,
          7.07417667e-01, 5.15721321e-01 ]
      - [ 7.44984925e-01, 6.00980878e-01, 6.41823769e-01, 3.43421251e-01,
          6.24616683e-01, 3.76527458e-01, 7.68194079e-01, 6.30752027e-01,
          7.07417667e-01, 5.01760066e-01 ]
      - [ 8.18766236e-01, 6.39986634e-01, 7.68242836e-01, 2.34029710e-01,
          7.53763855e-01, 3.55741858e-01, 8.35579515e-01, 6.36875808e-01,
          7.23093092e-01, 5.07994533e-01 ]
      - [ 8.10159028e-01, 4.78366107e-01, 6.23646259e-01, 3.66371363e-01,
          6.16489649e-01, 2.83370674e-01, 8.30188692e-01, 5.43269038e-01,
          7.07417667e-01, 3.98905754e-01 ]
      - [ 8.93699765e-01, 4.61049706e-01, 8.15383434e-01, 2.04049408e-01,
          8.11297774e-01, 3.36720496e-01, 9.05660391e-01, 4.38359529e-01,
          7.07417667e-01, 5.05721748e-01 ]
      - [ 6.39889956e-01, 1., 5.96026599e-01, 4.17116642e-01,
          5.67645311e-01, 3.51543248e-01, 6.68463588e-01, 1.,
          7.07417667e-01, 4.12282825e-01 ]
      - [ 9.02105153e-01, 3.99165899e-01, 8.25386107e-01, 9.45896506e-02,
          8.31633389e-01, 2.97596693e-01, 9.11051214e-01, 3.83840144e-01,
          7.07417667e-01, 4.47269499e-01 ]
      - [ 5.97468317e-01, 6.70347750e-01, 6.36377513e-01, 4.17423308e-01,
          6.27195239e-01, 4.87646252e-01, 6.28032327e-01, 6.55247211e-01,
          7.07417667e-01, 5.80580711e-01 ]
      - [ 7.55535483e-01, 5.60588002e-01, 5.49259186e-01, 3.68467540e-01,
          5.43297172e-01, 3.98355126e-01, 7.78975725e-01, 6.30542040e-01,
          7.07417667e-01, 5.36689758e-01 ]
      - [ 6.75807178e-01, 4.03825700e-01, 6.20232880e-01, 4.03828263e-01,
          6.30588591e-01, 4.71859246e-01, 7.03504026e-01, 4.12219614e-01,
          7.06892669e-01, 5.85267961e-01 ]
      - [ 6.87223256e-01, 5.71098030e-01, 6.65784776e-01, 2.56227106e-01,
          6.68307424e-01, 5.20872056e-01, 7.11590290e-01, 5.44598818e-01,
          5.69264233e-01, 6.61018848e-01 ]
      - [ 5.84558427e-01, 6.57565176e-01, 6.49761021e-01, 4.06793505e-01,
          6.41818702e-01, 5.35115421e-01, 6.14555240e-01, 6.46219015e-01,
          7.07417667e-01, 6.40282035e-01 ]
      - [ 5.33458769e-01, 3.27154219e-01, 7.97110558e-01, 3.14071506e-01,
          7.71653891e-01, 8.26061741e-02, 5.60646892e-01, 4.33390498e-01,
          7.11467803e-01, 2.25953460e-02 ]
      - [ 6.91171944e-01, 6.67829037e-01, 6.07472837e-01, 3.29347998e-01,
          6.01791918e-01, 4.57451582e-01, 7.16981113e-01, 6.65850163e-01,
          5.47888696e-01, 5.72839022e-01 ]
      - [ 9.06326413e-01, 4.86598134e-01, 7.76269674e-01, 1.71024337e-01,
          7.78869510e-01, 2.90241539e-01, 9.16442037e-01, 4.71638024e-01,
          5.33188343e-01, 4.39728379e-01 ]
      - [ 8.04035068e-01, 2.57036060e-01, 7.95543969e-01, 2.25051671e-01,
          8.03677797e-01, 4.21103835e-01, 8.22102427e-01, 2.68817574e-01,
          6.91442311e-01, 5.82846284e-01 ]
      - [ 8.29398215e-01, 4.24004734e-01, 8.20488453e-01, 2.10846990e-01,
          8.26181293e-01, 3.90498400e-01, 8.46361160e-01, 3.78556192e-01,
          5.32888293e-01, 5.45871139e-01 ]
      - [ 6.51344955e-01, 5.59672713e-01, 7.12873757e-01, 3.63699228e-01,
          7.02119410e-01, 2.79033661e-01, 6.79245293e-01, 5.77947319e-01,
          7.11542785e-01, 3.11142713e-01 ]
      - [ 7.04513669e-01, 5.71931481e-01, 6.26213551e-01, 3.53087306e-01,
          6.22287452e-01, 4.47994947e-01, 7.30458200e-01, 5.69513917e-01,
          7.07417667e-01, 5.74564755e-01 ]
      - [ 5.48425317e-01, 8.03123236e-01, 4.48685110e-01, 5.73901713e-01,
          4.40897435e-01, 4.91857857e-01, 5.82210243e-01, 8.17475617e-01,
          7.07417667e-01, 5.74534893e-01 ]
      - [ 6.76899195e-01, 4.80627716e-01, 6.52005672e-01, 3.51961702e-01,
          6.45069778e-01, 4.96467263e-01, 7.03504026e-01, 4.83290762e-01,
          6.33315861e-01, 6.21904194e-01 ]
      - [ 7.07230508e-01, 5.58183312e-01, 6.53764188e-01, 3.67541820e-01,
          6.53610229e-01, 4.50433701e-01, 7.33153641e-01, 5.52367270e-01,
          7.07417667e-01, 5.80670893e-01 ]
      - [ 5.50612926e-01, 5.96974552e-01, 5.65525711e-01, 4.57784206e-01,
          5.64788163e-01, 5.50755382e-01, 5.82210243e-01, 5.78577161e-01,
          7.25493133e-01, 6.47117674e-01 ]
      - [ 7.16044784e-01, 5.67137361e-01, 6.23669744e-01, 3.76769364e-01,
          6.23284221e-01, 4.38741535e-01, 7.41239905e-01, 5.76862514e-01,
          6.76966906e-01, 5.63277066e-01 ]
      - [ 7.17616498e-01, 4.33880061e-01, 7.73700893e-01, 3.02208900e-01,
          7.65853167e-01, 4.73039716e-01, 7.41239905e-01, 4.19393212e-01,
          7.07417667e-01, 6.17518902e-01 ]
      - [ 6.38408542e-01, 6.21698439e-01, 5.93683958e-01, 4.72027481e-01,
          5.80619156e-01, 4.93492335e-01, 6.68463588e-01, 6.17524564e-01,
          7.07417667e-01, 6.09627485e-01 ]
      - [ 5.44062436e-01, 5.71110964e-01, 5.30216455e-01, 5.15912652e-01,
          5.23141861e-01, 4.87516552e-01, 5.76819420e-01, 6.05626881e-01,
          6.94217384e-01, 5.61245918e-01 ]
      - [ 7.58850515e-01, 3.56007695e-01, 6.79512143e-01, 2.70595610e-01,
          6.77272558e-01, 3.87354821e-01, 7.78975725e-01, 4.06585723e-01,
          7.07417667e-01, 5.16103566e-01 ]
      - [ 7.05713689e-01, 3.71203631e-01, 7.29944110e-01, 2.99429566e-01,
          7.32776940e-01, 4.28355217e-01, 7.30458200e-01, 3.74252021e-01,
          7.07417667e-01, 5.55509508e-01 ]
      - [ 6.39711201e-01, 4.21482801e-01, 8.48082483e-01, 2.83458591e-01,
          8.38335633e-01, 7.32533112e-02, 6.65768206e-01, 5.05721390e-01,
          7.26543188e-01, 4.06903028e-02 ]
      - [ 5.69931746e-01, 6.79145455e-01, 5.77257812e-01, 4.78200942e-01,
          5.61898291e-01, 4.98845488e-01, 6.01078153e-01, 6.85551345e-01,
          7.07417667e-01, 5.78992665e-01 ]
      - [ 7.23520935e-01, 5.40557086e-01, 7.72828698e-01, 2.67155588e-01,
          7.73401439e-01, 4.65446711e-01, 7.46630728e-01, 5.09325683e-01,
          6.76066875e-01, 6.07266009e-01 ]
      - [ 6.75283253e-01, 2.75933176e-01, 9.30222631e-01, 2.08110049e-01,
          9.19581592e-01, 1.10989079e-01, 6.98113203e-01, 3.55355710e-01,
          6.86267138e-01, 9.96373296e-02 ]
      - [ 6.74823105e-01, 4.63684857e-01, 7.16473818e-01, 3.07281822e-01,
          7.16049075e-01, 4.10064608e-01, 7.00808644e-01, 4.82730865e-01,
          6.10665262e-01, 5.04506648e-01 ]
      - [ 6.71054900e-01, 5.43172479e-01, 6.65525913e-01, 3.86921316e-01,
          6.58600450e-01, 4.79651123e-01, 6.98113203e-01, 5.42044282e-01,
          6.08040214e-01, 6.09073102e-01 ]
      - [ 6.67883217e-01, 7.42005169e-01, 6.55631185e-01, 3.84464413e-01,
          6.39270723e-01, 4.37721074e-01, 6.95417762e-01, 7.28732884e-01,
          7.07417667e-01, 5.57417989e-01 ]
      - [ 5.07626653e-01, 6.87945783e-01, 5.19736409e-01, 4.62879807e-01,
          5.18140018e-01, 5.72302043e-01, 5.39083540e-01, 6.85131371e-01,
          6.90617263e-01, 6.58944666e-01 ]
      - [ 2.37016678e-01, 2.56191164e-01, 3.30378711e-01, 7.31979012e-01,
          3.46337944e-01, 8.17059159e-01, 2.64150947e-01, 2.96987087e-01,
          4.89312232e-01, 8.54198039e-01 ]
      - [ 7.28857279e-01, 5.65756381e-01, 7.19987333e-01, 2.61231422e-01,
          7.23064661e-01, 4.60508674e-01, 7.52021551e-01, 5.30531526e-01,
          7.07417667e-01, 6.07473195e-01 ]
      - [ 7.93192506e-01, 4.68574613e-01, 7.18781173e-01, 3.28007340e-01,
          7.08813667e-01, 4.01356012e-01, 8.14016163e-01, 4.92179036e-01,
          7.07417667e-01, 5.46263039e-01 ]
      - [ 6.97520673e-01, 5.15748799e-01, 7.16531396e-01, 2.28588715e-01,
          7.16640592e-01, 4.62225318e-01, 7.19676554e-01, 5.04601598e-01,
          6.40141010e-01, 5.95724702e-01 ]
      - [ 5.71761847e-01, 5.74145913e-01, 5.98943710e-01, 5.37238002e-01,
          5.89241624e-01, 4.66259629e-01, 6.03773594e-01, 6.19344234e-01,
          7.07417667e-01, 5.47715425e-01 ]
      - [ 6.86915278e-01, 5.11966407e-01, 8.05595875e-01, 1.66228518e-01,
          8.01657856e-01, 5.11562467e-01, 7.08894908e-01, 4.72267896e-01,
          7.05692649e-01, 6.54153824e-01 ]
   decision_functions:
      -
         sv_count: 27
         rho: 3.1480920345203106e-01
         alpha: [ 1., 9.4801453802847446e-01, 1., 1., 1., 1.,
             6.8816012202244403e-01, 9.9996176862817227e-02, 1., 1., 1.,
             1., 1., -5.8617019467579712e-01, -1., -1., -1., -1., -1.,
             -1.9041599626849054e-03, -1., -1., -1.,
             -1.4809648227525365e-01, -1., -1., -1. ]
         index: [ 0, 2, 3, 6, 8, 9, 10, 16, 21, 23, 26, 32, 33, 35, 37,
             38, 39, 40, 44, 45, 47, 61, 63, 65, 68, 69, 71 ]
      -
         sv_count: 52
         rho: 2.3901143466995176e-01
         alpha: [ 1., 1., 1., 1., 2.4996718189154060e-01, 1., 1., 1., 1.,
             1., 5.1828479662461935e-01, 1., 7.1614481316672240e-01,
             5.1518171381002578e-02, 1., 1., 1., 1., 1., 1., 1., 1., 1.,
             9.4525264661028918e-01, 1., 1., 1., -1., -1., -1., -1., -1.,
             -1., -1., -1., -1., -1., -1., -1., -4.8116760967417432e-01,
             -1., -1., -1., -1., -1., -1., -1., -1., -1., -1., -1., -1. ]
         index: [ 0, 1, 2, 3, 5, 6, 7, 8, 9, 10, 11, 12, 13, 14, 16, 17,
             18, 20, 21, 23, 25, 26, 28, 29, 31, 32, 33, 72, 73, 74, 75,
             76, 79, 80, 82, 83, 84, 85, 86, 87, 89, 90, 91, 92, 93, 94,
             95, 96, 99, 101, 102, 104 ]
      -
         sv_count: 17
         rho: 7.0756199306438405e-01
         alpha: [ 1., 1., 1., 9.5582927836072085e-01,
             9.1902116489051167e-01, 6.1794524335535883e-01,
             8.7563968342464926e-01, 1.4134607503595167e-01, 1., -1.,
             -7.6609383174300905e-01, -1., -7.4368761332418354e-01, -1.,
             -1., -1., -1. ]
         index: [ 0, 6, 8, 9, 10, 16, 21, 32, 33, 107, 109, 111, 114,
             117, 127, 129, 138 ]
      -
         sv_count: 15
         rho: 4.2142952505328712e-01
         alpha: [ 5.2092247590866847e-01, 1., 3.5159049832819048e-02,
             6.0463149834040053e-01, 9.5656901710688108e-02,
             3.7603406587296945e-01, 1., -4.7711908273355097e-01,
             -1.5229145544036321e-01, -3.7777109274847465e-01,
             -7.1798432317559682e-02, -7.6161852286604081e-01,
             -3.5349857301450399e-01, -1., -4.3830683254505270e-01 ]
         index: [ 0, 8, 9, 24, 28, 31, 33, 142, 145, 148, 154, 155, 159,
             163, 164 ]
      -
         sv_count: 35
         rho: -2.5163644240490229e-01
         alpha: [ 1., 1., 1.0856068930627134e-01, 1.1527637090830578e-01,
             1., 1., 1., 1., 1., 1., 1., 1., 1., 4.1495393160052751e-01,
             1., 8.2955674013760794e-01, 1., 1., -1.,
             -9.3099238874078738e-01, -1., -3.9271474930036460e-01, -1.,
             -1., -1., -1., -1., -1., -8.5815422407758657e-01, -1., -1.,
             -1., -1., -2.8648636983397380e-01, -1. ]
         index: [ 1, 7, 9, 10, 11, 12, 14, 15, 19, 22, 24, 25, 27, 28,
             29, 30, 31, 34, 165, 167, 169, 170, 171, 172, 173, 174, 175,
             177, 178, 179, 180, 182, 183, 184, 185 ]
      -
         sv_count: 60
         rho: 6.2222200028622965e-01
         alpha: [ 9.5092610824665025e-01, 1., 1., 1., 1., 1., 1., 1., 1.,
             1., 1., 1., 1., 1., 1., 1., 1., 1., 1.,
             9.3928894230568383e-01, 1., 1., 1., 4.1161332630345754e-01,
             1., 4.0508988954080738e-01, 1., 1., 1., 1.,
             -1.3088204848354482e-01, -1., -1., -1., -1.,
             -7.6976894080707015e-01, -1., -1., -1., -1., -1., -1., -1.,
             -1., -1., -1., -1., -1., -1., -1., -1., -1., -1., -1.,
             -8.0626727710598445e-01, -1., -1., -1., -1., -1. ]
         index: [ 0, 1, 3, 4, 5, 6, 7, 8, 9, 10, 11, 12, 13, 14, 15, 17,
             19, 20, 22, 24, 25, 26, 27, 28, 29, 30, 31, 32, 33, 34, 186,
             187, 188, 189, 190, 191, 193, 194, 195, 196, 197, 199, 200,
             201, 202, 203, 204, 205, 206, 207, 210, 211, 212, 213, 216,
             217, 218, 219, 220, 221 ]
      -
         sv_count: 36
         rho: 1.3029705093754426e-01
         alpha: [ 1., 1., 1., 1., 1., 4.4145123673306280e-01, 1., 1., 1.,
             1., 1., 1., 8.5818129720821046e-01, 5.7934119200807999e-01,
             8.5190800869547334e-01, 1., 1., 1., -1.,
             -5.1314586977079291e-01, -5.1332423155622187e-01,
             -9.0636910537741644e-01, -1., -1., -1., -1., -1., -1., -1.,
             -1., -1., -1., -1., -1., -7.9804252794039554e-01, -1. ]
         index: [ 35, 37, 38, 39, 40, 41, 44, 45, 47, 50, 61, 63, 64, 65,
             66, 68, 69, 71, 73, 74, 77, 83, 84, 85, 87, 88, 91, 93, 94,
             96, 97, 98, 99, 100, 102, 104 ]
      -
         sv_count: 55
         rho: 8.2520197776436843e-01
         alpha: [ 1., 1., 1., 1., 1., 1., 1., 1., 1., 1., 1., 1., 1., 1.,
             1., 1., 1., 5.9746404880147153e-01, 1., 1., 1., 1., 1., 1.,
             1., 1., 7.6144760815972212e-01, -1., -1., -1.,
             -7.8112077687425996e-01, -1., -1.8072275299134777e-01, -1.,
             -1., -1., -1., -7.4999581464920573e-01, -1., -1., -1., -1.,
             -1., -1., -1., -1., -1., -7.4388669917755945e-01, -1.,
             -9.3273375990875973e-01, -9.7045185336006079e-01, -1., -1.,
             -1., -1. ]
         index: [ 35, 36, 42, 43, 44, 45, 46, 48, 49, 51, 52, 53, 54, 55,
             56, 57, 58, 59, 60, 62, 63, 64, 65, 66, 67, 69, 70, 105,
             106, 107, 108, 109, 110, 111, 113, 114, 115, 116, 117, 118,
             119, 121, 123, 124, 127, 128, 129, 130, 131, 132, 133, 135,
             136, 138, 139 ]
      -
         sv_count: 27
         rho: 4.9835072913692513e-01
         alpha: [ 1., 1., 4.4678452912615761e-02, 1.,
             6.2950889835601165e-01, 2.0007762517177866e-01, 1.,
             5.3765280412170402e-01, 3.4130731769075551e-01, 1.,
             4.1461576531162692e-01, 1., 1., 5.7535409668011750e-01,
             -6.7549158293192091e-01, -3.6545696378623188e-01, -1., -1.,
             -1., -1., -1., -7.9956334995241851e-01,
             -6.0955693943180489e-01, -1.8641141611744183e-01,
             -1.0671470802479141e-01, -1., -1. ]
         index: [ 35, 36, 37, 46, 48, 49, 53, 55, 56, 57, 62, 64, 65, 69,
             142, 143, 144, 145, 148, 149, 153, 155, 158, 159, 161, 163,
             164 ]
      -
         sv_count: 13
         rho: -3.6996503256404717e-02
         alpha: [ 9.6784440078111419e-02, 7.9552953131887361e-01,
             6.6398975000477020e-02, 7.9214681276457172e-02, 1.,
             5.4840238485779680e-01, 8.1901275242206606e-01,
             9.1079936131303052e-01, -1., -1., -9.5032621277030316e-01,
             -6.7834794316211822e-01, -6.8746797033439200e-01 ]
         index: [ 35, 37, 39, 44, 47, 61, 65, 69, 169, 173, 177, 178,
             184 ]
      -
         sv_count: 25
         rho: 2.5309652366824170e-01
         alpha: [ 1., 8.5167381374221396e-01, 1., 1.,
             4.1149209621594779e-01, 1., 5.0102094629040594e-01, 1., 1.,
             1., 1., 1., -1., -1., -3.1120173537708412e-01, -1., -1.,
             -1., -1., -1., -1.5675942632219564e-01, -1., -1.,
             -2.9622569454928815e-01, -1. ]
         index: [ 37, 38, 39, 44, 45, 47, 53, 61, 65, 68, 69, 71, 188,
             190, 191, 194, 199, 201, 203, 205, 207, 215, 216, 220, 221 ]
      -
         sv_count: 25
         rho: 9.2061742123316262e-02
         alpha: [ 1., 8.6446788743304137e-01, 1., 1., 1., 1.,
             7.4395857214958527e-01, 1., 1., 1., 1.,
             4.3296483501348010e-01, -1., -1., -1., -1., -1., -1.,
             -9.8259930343034685e-01, -4.6346152654341677e-01, -1., -1.,
             -2.2029472519764251e-01, -3.8203680520859384e-01,
             -9.9299893421610674e-01 ]
         index: [ 73, 83, 84, 85, 88, 93, 94, 96, 97, 98, 99, 103, 107,
             109, 111, 114, 116, 117, 121, 123, 127, 129, 134, 138, 139 ]
      -
         sv_count: 15
         rho: 8.7970474549511818e-02
         alpha: [ 1., 9.5373228807322785e-01, 1., 6.6246345185890065e-01,
             3.7022923173983230e-01, 1., 3.6876623187014584e-01,
             -2.5395367128678881e-01, -3.3377721156191265e-01,
             -9.5304934090991977e-01, -2.5416010304879927e-01, -1.,
             -6.1522543822189812e-01, -9.4502543851278820e-01, -1. ]
         index: [ 73, 83, 84, 93, 97, 98, 99, 142, 144, 145, 148, 155,
             159, 163, 164 ]
      -
         sv_count: 25
         rho: -1.3723374644537836e-01
         alpha: [ 7.2585896610006306e-01, 1., 1., 1., 1.,
             5.7433918841172904e-01, 1., 8.6881280086974122e-01,
             1.1141655471567904e-01, 1., 3.7377346457911886e-01, 1., 1.,
             -1., -1., -7.0831548544826795e-01, -1., -1., -1., -1., -1.,
             -1., -8.8815359960666007e-01, -5.7731889621403312e-02, -1. ]
         index: [ 73, 74, 75, 78, 79, 81, 82, 83, 84, 86, 89, 92, 95,
             165, 169, 171, 172, 173, 175, 177, 178, 179, 180, 181, 184 ]
      -
         sv_count: 51
         rho: 9.1581083116667836e-02
         alpha: [ 1., 1., 1., 1., 1., 1., 1., 1., 1., 1., 1., 1., 1., 1.,
             1., 1.0774742631922576e-01, 1.4601063765160929e-01, 1., 1.,
             1., 4.4144377212990710e-01, 1., 1., 1., 1., -1., -1., -1.,
             -1., -2.3322109570318102e-02, -1., -1.,
             -1.8750191373925701e-01, -1., -1., -1., -1., -1., -1., -1.,
             -1., -4.0548450895836879e-01, -1., -1., -1., -1., -1., -1.,
             -1., -7.8893303832798453e-02, -1. ]
         index: [ 73, 74, 75, 76, 78, 79, 80, 81, 82, 83, 84, 86, 89, 90,
             91, 92, 93, 95, 96, 97, 98, 99, 101, 102, 104, 186, 188,
             189, 190, 191, 194, 195, 197, 199, 200, 201, 203, 204, 207,
             209, 210, 211, 212, 213, 214, 215, 216, 217, 219, 220, 221 ]
      -
         sv_count: 39
         rho: 3.0372249100682586e-01
         alpha: [ 1., 1., 1., 1., 1., 1., 1., 1., 1., 1.,
             5.4900978813138757e-01, 1., 1., 1., 1., 1., 1., 1., -1.,
             -1., -1., -1., -1., -3.6802300939340288e-01, -1., -1., -1.,
             -8.8547816293583637e-01, -1., -8.2398793061512532e-01, -1.,
             -1., -4.0185432698502593e-01, -6.9534292598630434e-02,
             -1.3206560336658483e-04, -1., -1., -1., -1. ]
         index: [ 110, 111, 112, 113, 114, 120, 122, 125, 126, 127, 128,
             130, 132, 133, 134, 137, 138, 140, 142, 143, 144, 145, 146,
             147, 148, 149, 151, 152, 153, 154, 155, 156, 158, 159, 160,
             161, 162, 163, 164 ]
      -
         sv_count: 13
         rho: -2.3017873575563808e-01
         alpha: [ 8.7963001632086457e-01, 4.2182430453603692e-01,
             7.5661240588878020e-01, 3.2164824343854126e-01,
             1.8108819159094187e-02, 9.1023415428185617e-01,
             4.9318483478940700e-01, 7.1704876157196881e-02,
             -1.5869243042588077e-01, -1., -7.4061790681698170e-01, -1.,
             -9.7363731732891468e-01 ]
         index: [ 107, 109, 111, 116, 120, 127, 134, 138, 169, 173, 177,
             178, 184 ]
      -
         sv_count: 22
         rho: -1.5008072476104381e-01
         alpha: [ 1., 1., 9.2585349251368432e-01, 4.7396380029989177e-01,
             3.6767654633828112e-02, 1., 1., 3.2457361460635115e-01,
             9.6617957870299631e-01, 2.5161264950117673e-01, 1.,
             -3.9349530580696297e-02, -2.9304689746303275e-01,
             -4.5108217689634200e-01, -1., -1., -1., -1.,
             -1.9547218531785751e-01, -1., -1., -1. ]
         index: [ 107, 109, 111, 116, 117, 127, 129, 133, 134, 135, 138,
             188, 190, 191, 194, 198, 201, 205, 211, 215, 216, 221 ]
      -
         sv_count: 12
         rho: -2.1649224771908654e-01
         alpha: [ 5.9656534460980577e-02, 2.5847812231693995e-01,
             5.4938106096599493e-01, 6.9501777708229101e-02, 1.,
             2.4088757030114152e-01, 5.3236157137363493e-01,
             2.5639903438851691e-01, -5.0112663017145176e-01,
             -6.0066311344753232e-01, -1., -8.6487592789645362e-01 ]
         index: [ 144, 145, 148, 150, 155, 158, 159, 160, 169, 177, 178,
             184 ]
      -
         sv_count: 19
         rho: -1.4964873712608845e-01
         alpha: [ 6.9897085311412060e-02, 2.8493603459941008e-01,
             4.0357395028556381e-01, 9.2559683625810518e-01,
             5.7042168705447689e-03, 4.1612375301009497e-01, 1.,
             1.3624733667207872e-01, 5.8615402415070827e-01,
             2.9070349032447379e-01, 1., -5.5399574142418517e-01,
             -9.4847571432950784e-01, -3.0968963128508574e-02,
             -4.1594260893881274e-01, -9.3712633005629731e-01,
             -2.3242736960507984e-01, -1., -1. ]
         index: [ 141, 142, 145, 148, 150, 154, 155, 157, 159, 160, 163,
             191, 194, 195, 198, 205, 211, 215, 216 ]
      -
         sv_count: 40
         rho: 4.6946809519719274e-01
         alpha: [ 1., 1., 1., 4.9122730000421715e-02, 1.,
             5.9011901300143033e-01, 1., 1., 1., 1.,
             1.9410368622660767e-01, 1., 1., 1., 1., 1., 1., 1., 1., 1.,
             -1., -1., -1., -1., -1., -1., -1., -7.8004087134515276e-01,
             -1., -1., -1., -1., -1., -3.6683378772766584e-01, -1.,
             -8.8016569814424975e-02, -1., -1., -1.,
             -5.9845420034121632e-01 ]
         index: [ 165, 166, 167, 168, 169, 171, 172, 173, 174, 175, 176,
             177, 178, 179, 180, 181, 182, 183, 184, 185, 187, 192, 193,
             194, 195, 196, 197, 198, 200, 202, 206, 208, 210, 211, 214,
             216, 217, 218, 219, 221 ]
