%YAML:1.0
my_svm: !!opencv-ml-svm
   svm_type: C_SVC
   kernel: { type:RBF, gamma:2. }
   C: 1.
   term_criteria: { epsilon:1.1920928955078125e-07, iterations:1000 }
   var_all: 10
   var_count: 10
   class_count: 7
   class_labels: !!opencv-matrix
      rows: 1
      cols: 7
      dt: i
      data: [ 1, 2, 3, 4, 5, 6, 7 ]
   sv_total: 221
   support_vectors:
      - [ 5.96749723e-01, 4.15563196e-01, 5.56132436e-01, 4.62618530e-01,
          5.59555471e-01, 5.26891112e-01, 6.28032327e-01, 4.29331273e-01,
          6.21465564e-01, 6.25879705e-01 ]
      - [ 7.07251787e-01, 5.00450909e-01, 6.34511888e-01, 3.55669618e-01,
          6.41601562e-01, 4.43709850e-01, 7.33153641e-01, 4.88854676e-01,
          6.46891177e-01, 5.73786974e-01 ]
      - [ 5.77319384e-01, 3.92881185e-01, 6.80135012e-01, 3.57107699e-01,
          6.86334074e-01, 5.78597784e-01, 6.06468976e-01, 3.93568248e-01,
          6.79367006e-01, 6.93087161e-01 ]
      - [ 6.72851384e-01, 5.53155065e-01, 6.76605403e-01, 3.99786144e-01,
          6.72488153e-01, 4.83927608e-01, 7.00808644e-01, 5.50477684e-01,
          7.07417667e-01, 6.10766947e-01 ]
      - [ 8.23355675e-01, 2.80376017e-01, 8.79040003e-01, 1.29126102e-01,
          8.87371659e-01, 3.46086323e-01, 8.38274956e-01, 2.88168818e-01,
          8.24720621e-01, 4.77274120e-01 ]
      - [ 5.95415175e-01, 5.84942222e-01, 6.61865771e-01, 4.19950902e-01,
          6.64002717e-01, 5.39681554e-01, 6.25336945e-01, 5.83371222e-01,
          7.07417667e-01, 6.46689355e-01 ]
      - [ 5.78317642e-01, 4.94904190e-01, 6.75683379e-01, 4.32075322e-01,
          6.83190763e-01, 5.38271964e-01, 6.09164417e-01, 4.85110402e-01,
          7.07417667e-01, 6.36971235e-01 ]
      - [ 7.11041152e-01, 5.61744690e-01, 7.84602642e-01, 3.11395019e-01,
          7.82060623e-01, 4.53715622e-01, 7.35849082e-01, 5.28466940e-01,
          6.60691500e-01, 5.82097888e-01 ]
      - [ 7.70772815e-01, 4.55801338e-01, 7.15019047e-01, 3.31302255e-01,
          7.07928240e-01, 3.84379894e-01, 7.92452812e-01, 4.78741646e-01,
          8.92222285e-01, 5.17151058e-01 ]
      - [ 6.68182313e-01, 4.03560907e-01, 7.16708839e-01, 3.55429649e-01,
          7.19329953e-01, 4.04685527e-01, 6.95417762e-01, 4.20373023e-01,
          7.07417667e-01, 4.96590644e-01 ]
      - [ 7.60530174e-01, 4.11086828e-01, 6.82315528e-01, 2.51828611e-01,
          6.96474433e-01, 4.50900704e-01, 7.81671166e-01, 3.93428296e-01,
          7.07417667e-01, 6.01289511e-01 ]
      - [ 5.52480221e-01, 4.49565262e-01, 5.43759644e-01, 3.96285892e-01,
          5.40781677e-01, 5.84543347e-01, 5.82210243e-01, 4.72197920e-01,
          8.22695553e-01, 6.84012234e-01 ]
      - [ 6.50504231e-01, 4.82388079e-01, 6.55982792e-01, 4.38737214e-01,
          6.51598215e-01, 4.13268715e-01, 6.79245293e-01, 5.05861342e-01,
          6.22140527e-01, 5.06921232e-01 ]
      - [ 6.66957498e-01, 4.96698081e-01, 6.89727604e-01, 3.99620533e-01,
          6.88093245e-01, 4.26699132e-01, 6.95417762e-01, 4.84445542e-01,
          8.72946799e-01, 5.33169806e-01 ]
      - [ 5.74218512e-01, 5.30874193e-01, 7.09844410e-01, 4.16328579e-01,
          6.82423770e-01, 4.77778822e-01, 6.03773594e-01, 5.60695648e-01,
          7.07417667e-01, 5.54916859e-01 ]
      - [ 7.42622018e-01, 3.84039342e-01, 7.36877739e-01, 2.89655000e-01,
          7.43941367e-01, 4.58346665e-01, 7.65498638e-01, 3.82160485e-01,
          7.07417667e-01, 6.02956891e-01 ]
      - [ 7.63616979e-01, 3.03183377e-01, 7.39370763e-01, 2.57977188e-01,
          7.38452017e-01, 3.15165222e-01, 7.84366548e-01, 3.44752759e-01,
          8.42496037e-01, 4.14082468e-01 ]
      - [ 7.72110879e-01, 4.50656533e-01, 6.65844977e-01, 3.78628761e-01,
          6.55826688e-01, 3.88617426e-01, 7.95148253e-01, 4.73912597e-01,
          7.40118504e-01, 5.26495755e-01 ]
      - [ 6.63293779e-01, 4.43530768e-01, 7.45076478e-01, 3.23180825e-01,
          7.46329665e-01, 4.76896733e-01, 6.90026939e-01, 4.30381089e-01,
          8.81272018e-01, 5.97541153e-01 ]
      - [ 7.80171096e-01, 3.46258372e-01, 7.71494746e-01, 2.69635826e-01,
          7.67902613e-01, 3.29559892e-01, 8.00539076e-01, 3.79221052e-01,
          8.29520762e-01, 4.39690769e-01 ]
      - [ 7.38809645e-01, 5.54756343e-01, 8.74614835e-01, 1.30550832e-01,
          8.65554214e-01, 4.60625440e-01, 7.57412374e-01, 5.18108964e-01,
          5.99339962e-01, 6.11036420e-01 ]
      - [ 7.64047027e-01, 5.21283567e-01, 9.98508394e-01, 6.33688271e-02,
          9.85571146e-01, 4.87663567e-01, 7.78975725e-01, 4.55786109e-01,
          7.07417667e-01, 6.54440343e-01 ]
      - [ 7.21221805e-01, 3.95652294e-01, 6.84431016e-01, 3.76914352e-01,
          6.80202842e-01, 4.27477449e-01, 7.46630728e-01, 4.25237089e-01,
          6.49741232e-01, 5.64249039e-01 ]
      - [ 6.79724038e-01, 4.37798917e-01, 6.39356434e-01, 3.54069114e-01,
          6.32468998e-01, 4.47502017e-01, 7.06199467e-01, 4.69923377e-01,
          7.07417667e-01, 5.67382753e-01 ]
      - [ 5.46968639e-01, 5.61050355e-01, 5.57232082e-01, 3.93924862e-01,
          5.71090102e-01, 5.57561398e-01, 5.76819420e-01, 5.31336367e-01,
          6.64891601e-01, 6.48553550e-01 ]
      - [ 6.72543406e-01, 4.97886986e-01, 6.48396492e-01, 4.29256409e-01,
          6.44567847e-01, 4.11837459e-01, 7.00808644e-01, 5.31581342e-01,
          8.88472199e-01, 5.13582468e-01 ]
      - [ 7.70020545e-01, 4.38490897e-01, 7.17893064e-01, 2.36953944e-01,
          7.13268161e-01, 3.94238681e-01, 7.89757431e-01, 4.58445609e-01,
          7.07567692e-01, 5.25583804e-01 ]
      - [ 6.56872451e-01, 4.47125852e-01, 8.24397087e-01, 2.71339625e-01,
          8.22497427e-01, 5.16470194e-01, 6.81940675e-01, 4.15054053e-01,
          5.98064959e-01, 6.43573880e-01 ]
      - [ 7.35860884e-01, 4.07096893e-01, 6.05519235e-01, 5.25019526e-01,
          6.06748223e-01, 3.35431933e-01, 7.62803257e-01, 4.54456389e-01,
          7.07417667e-01, 4.32191312e-01 ]
      - [ 5.94900131e-01, 4.41087544e-01, 7.29793370e-01, 3.13915581e-01,
          7.37455487e-01, 4.91347611e-01, 6.22641504e-01, 4.31080937e-01,
          7.24068105e-01, 5.69602966e-01 ]
      - [ 6.64299071e-01, 5.42254210e-01, 6.23384655e-01, 4.48788673e-01,
          6.19223297e-01, 4.24601972e-01, 6.92722380e-01, 5.45508623e-01,
          7.09517717e-01, 5.21654963e-01 ]
      - [ 7.70420551e-01, 5.89093983e-01, 9.29792881e-01, 1.22504279e-01,
          9.26781833e-01, 4.59916294e-01, 7.87061989e-01, 5.24197757e-01,
          5.23588061e-01, 6.17502391e-01 ]
      - [ 6.49693608e-01, 4.35107648e-01, 7.46060073e-01, 3.15888196e-01,
          7.43746877e-01, 4.84489709e-01, 6.76549852e-01, 4.43538517e-01,
          7.35018373e-01, 6.00205660e-01 ]
      - [ 7.00329542e-01, 3.65678489e-01, 8.63449574e-01, 1.85835943e-01,
          8.63005877e-01, 5.06321728e-01, 7.22371995e-01, 3.44542801e-01,
          6.28140688e-01, 6.45512700e-01 ]
      - [ 7.03400373e-01, 4.90229428e-01, 8.61463964e-01, 1.65310159e-01,
          8.58148932e-01, 5.13447702e-01, 7.25067377e-01, 4.44273353e-01,
          4.81887043e-01, 6.58892453e-01 ]
      - [ 4.71353680e-01, 5.96730649e-01, 6.46663785e-01, 3.58691722e-01,
          6.54171109e-01, 6.66055560e-01, 4.98652279e-01, 5.58806062e-01,
          5.51263809e-01, 7.63155937e-01 ]
      - [ 5.22030294e-01, 4.91714358e-01, 6.92285419e-01, 4.49328035e-01,
          6.94273889e-01, 5.93935132e-01, 5.52560627e-01, 4.73807603e-01,
          7.69744217e-01, 6.95571542e-01 ]
      - [ 5.78878701e-01, 3.94863695e-01, 9.51405823e-01, 1.52506799e-01,
          9.40053701e-01, 6.27230108e-01, 6.01078153e-01, 3.35024685e-01,
          3.60834032e-01, 7.63192058e-01 ]
      - [ 5.10058522e-01, 4.33566093e-01, 7.75458455e-01, 3.18917692e-01,
          7.66574919e-01, 5.88365793e-01, 5.36388159e-01, 4.25097108e-01,
          7.61944056e-01, 6.85834587e-01 ]
      - [ 3.98145825e-01, 5.80679655e-01, 6.23504162e-01, 4.94438559e-01,
          6.20220363e-01, 7.04046428e-01, 4.25876021e-01, 5.64544916e-01,
          5.99865019e-01, 7.85893977e-01 ]
      - [ 4.69535947e-01, 4.18929666e-01, 7.19318092e-01, 3.79335701e-01,
          7.35679805e-01, 6.81790650e-01, 4.98652279e-01, 3.68478149e-01,
          4.37785953e-01, 7.78941870e-01 ]
      - [ 4.30829346e-01, 6.09452128e-01, 6.78681612e-01, 4.16558623e-01,
          6.67575598e-01, 6.03945255e-01, 4.58221018e-01, 5.98768234e-01,
          6.83717072e-01, 6.65264547e-01 ]
      - [ 2.99328834e-01, 7.07437396e-01, 6.07611835e-01, 4.73175555e-01,
          6.05913341e-01, 7.80910313e-01, 3.23450148e-01, 6.40690088e-01,
          6.01365030e-01, 8.37738276e-01 ]
      - [ 3.41890365e-01, 4.45355356e-01, 5.61377764e-01, 5.42956114e-01,
          5.53986728e-01, 7.13023126e-01, 3.69272232e-01, 4.58375603e-01,
          7.29468226e-01, 7.77828574e-01 ]
      - [ 4.59098667e-01, 4.39432412e-01, 6.60087347e-01, 4.09868747e-01,
          6.60155594e-01, 6.85414195e-01, 4.87870634e-01, 4.17748541e-01,
          6.87692165e-01, 7.87281811e-01 ]
      - [ 4.85065341e-01, 4.13879365e-01, 7.23090231e-01, 4.09374237e-01,
          7.22415984e-01, 6.41875565e-01, 5.14824808e-01, 4.00846839e-01,
          4.62611556e-01, 7.36457169e-01 ]
      - [ 6.20001256e-01, 2.84643531e-01, 8.04680049e-01, 2.94700205e-01,
          8.05125058e-01, 5.71886897e-01, 6.46900296e-01, 2.71372080e-01,
          4.84212101e-01, 7.01765299e-01 ]
      - [ 5.05964637e-01, 4.92077947e-01, 7.46940672e-01, 3.44022155e-01,
          7.42745221e-01, 6.56374037e-01, 5.33692718e-01, 4.52111840e-01,
          7.60443985e-01, 7.71674037e-01 ]
      - [ 4.23491210e-01, 6.05902493e-01, 6.71069443e-01, 4.56423610e-01,
          6.72117412e-01, 6.72679961e-01, 4.52830195e-01, 5.61955392e-01,
          7.07417667e-01, 7.52172053e-01 ]
      - [ 4.54847306e-01, 5.48174500e-01, 7.81004131e-01, 3.70408297e-01,
          7.67132103e-01, 6.99337542e-01, 4.82479781e-01, 5.03901720e-01,
          7.31043279e-01, 8.06710720e-01 ]
      - [ 5.59880257e-01, 2.62675107e-01, 7.06413150e-01, 4.07760084e-01,
          7.14257121e-01, 5.56303144e-01, 5.90296507e-01, 2.63603598e-01,
          8.90272260e-01, 6.46602750e-01 ]
      - [ 4.38450664e-01, 5.73084533e-01, 6.68449759e-01, 4.11761194e-01,
          6.55044973e-01, 6.51254416e-01, 4.66307282e-01, 5.47363281e-01,
          4.47086185e-01, 7.23210037e-01 ]
      - [ 5.22221446e-01, 4.74359274e-01, 7.29404390e-01, 2.61731803e-01,
          7.24851966e-01, 6.02077246e-01, 5.47169805e-01, 4.65024322e-01,
          6.74266875e-01, 7.03629315e-01 ]
      - [ 4.98063684e-01, 3.52068096e-01, 7.42778182e-01, 3.32265943e-01,
          7.39963353e-01, 6.51384115e-01, 5.25606453e-01, 3.47132295e-01,
          6.28440738e-01, 7.46700287e-01 ]
      - [ 3.72872978e-01, 6.20932102e-01, 6.82649672e-01, 4.40114915e-01,
          6.78409159e-01, 7.34911323e-01, 3.98921847e-01, 5.93799233e-01,
          9.27323163e-01, 8.13372254e-01 ]
      - [ 3.36474359e-01, 4.63608325e-01, 4.26153243e-01, 5.38904548e-01,
          4.33108836e-01, 7.66801000e-01, 3.63881409e-01, 4.73667622e-01,
          5.58238983e-01, 8.37001264e-01 ]
      - [ 4.95803505e-01, 4.47887421e-01, 8.16937625e-01, 2.05691934e-01,
          8.04196894e-01, 5.58253288e-01, 5.17520189e-01, 4.17678565e-01,
          5.32138288e-01, 6.09888673e-01 ]
      - [ 3.83735061e-01, 6.05515361e-01, 7.13869393e-01, 3.11422735e-01,
          7.02457488e-01, 7.55891502e-01, 4.04312670e-01, 5.63355148e-01,
          3.10807765e-01, 8.41068089e-01 ]
      - [ 5.04116833e-01, 3.60931486e-01, 7.86208689e-01, 3.97253990e-01,
          7.93644428e-01, 6.56832397e-01, 5.33692718e-01, 3.37334216e-01,
          8.27645719e-01, 7.65804648e-01 ]
      - [ 3.62717122e-01, 5.18370688e-01, 5.93756914e-01, 5.98186910e-01,
          5.90143144e-01, 6.70997918e-01, 3.93530995e-01, 5.18178940e-01,
          7.32093275e-01, 7.21820891e-01 ]
      - [ 3.94142240e-01, 5.32413900e-01, 6.90604270e-01, 4.15597379e-01,
          6.79424584e-01, 7.34989166e-01, 4.20485169e-01, 5.02117097e-01,
          8.11670303e-01, 8.25084329e-01 ]
      - [ 3.68959665e-01, 5.96169114e-01, 6.69986546e-01, 4.69161034e-01,
          6.54294968e-01, 7.45280325e-01, 3.96226406e-01, 5.58736026e-01,
          7.07417667e-01, 8.26841414e-01 ]
      - [ 5.79657495e-01, 4.04084384e-01, 7.70328641e-01, 3.73159140e-01,
          7.68017769e-01, 5.41130126e-01, 6.09164417e-01, 3.88634205e-01,
          6.03390098e-01, 6.46731257e-01 ]
      - [ 3.77961546e-01, 5.52921653e-01, 6.41674578e-01, 5.14319777e-01,
          6.35211468e-01, 7.00621784e-01, 4.07008082e-01, 5.40259659e-01,
          7.07417667e-01, 7.70656586e-01 ]
      - [ 5.49975753e-01, 2.98779726e-01, 8.04269850e-01, 2.99145997e-01,
          8.15200567e-01, 6.20597064e-01, 5.76819420e-01, 2.78475702e-01,
          2.44131103e-01, 7.44375467e-01 ]
      - [ 3.05272281e-01, 6.91259801e-01, 5.99345088e-01, 4.90682989e-01,
          5.85555315e-01, 6.86702728e-01, 3.28840971e-01, 6.80127382e-01,
          6.46891177e-01, 7.12126017e-01 ]
      - [ 4.94058341e-01, 5.88536978e-01, 6.50802732e-01, 4.23512548e-01,
          6.50765955e-01, 6.44988894e-01, 5.22911072e-01, 5.65524697e-01,
          5.98814964e-01, 7.37411082e-01 ]
      - [ 4.03791904e-01, 5.18879533e-01, 6.43831134e-01, 5.42299092e-01,
          6.39414907e-01, 6.90304697e-01, 4.33962256e-01, 4.93368804e-01,
          7.07417667e-01, 7.68797755e-01 ]
      - [ 5.56991756e-01, 4.82572198e-01, 8.12674463e-01, 3.55430245e-01,
          8.03386092e-01, 6.06150508e-01, 5.84905684e-01, 4.62784767e-01,
          5.70914268e-01, 7.17761934e-01 ]
      - [ 3.75980973e-01, 5.35172582e-01, 5.51044762e-01, 4.53436613e-01,
          5.43446004e-01, 7.36779273e-01, 4.01617259e-01, 5.36620378e-01,
          6.90917253e-01, 8.21076810e-01 ]
      - [ 4.42526817e-01, 6.12456858e-01, 5.73652267e-01, 4.43362355e-01,
          5.60473859e-01, 6.58133924e-01, 4.71698105e-01, 5.98488271e-01,
          7.07417667e-01, 7.42557704e-01 ]
      - [ 2.55937219e-01, 7.68559337e-01, 4.09941286e-01, 7.34404325e-01,
          3.90757740e-01, 7.49245465e-01, 2.83018857e-01, 7.78668165e-01,
          7.07492709e-01, 7.82570302e-01 ]
      - [ 5.93183279e-01, 6.63433492e-01, 6.58808768e-01, 2.97360688e-01,
          6.49130821e-01, 5.62590241e-01, 6.19946063e-01, 6.33341491e-01,
          6.96317434e-01, 6.79220319e-01 ]
      - [ 5.86733639e-01, 4.67992872e-01, 6.24180853e-01, 4.58982706e-01,
          6.20077968e-01, 5.40771246e-01, 6.17250681e-01, 4.88329768e-01,
          7.07417667e-01, 6.59007013e-01 ]
      - [ 5.84015071e-01, 4.41813558e-01, 7.95236409e-01, 2.34890997e-01,
          7.94070363e-01, 6.37573183e-01, 6.09164417e-01, 3.93393278e-01,
          7.21593022e-01, 7.76071370e-01 ]
      - [ 6.76270902e-01, 5.62266648e-01, 7.78153241e-01, 2.69585371e-01,
          7.70691812e-01, 5.21905482e-01, 7.00808644e-01, 5.24267793e-01,
          6.91742301e-01, 6.51194811e-01 ]
      - [ 5.38288891e-01, 5.93807280e-01, 6.87724650e-01, 4.53102022e-01,
          6.71455204e-01, 5.20206153e-01, 5.68733156e-01, 5.89949965e-01,
          6.77116930e-01, 5.97279191e-01 ]
      - [ 7.07903087e-01, 4.90885228e-01, 8.98232520e-01, 1.34978160e-01,
          8.86130869e-01, 5.08397281e-01, 7.27762818e-01, 4.64709371e-01,
          6.28890693e-01, 6.58421338e-01 ]
      - [ 6.88212633e-01, 5.69502532e-01, 6.88552737e-01, 4.01411861e-01,
          6.72733724e-01, 4.48271692e-01, 7.14285731e-01, 6.09336197e-01,
          8.27720702e-01, 5.76107085e-01 ]
      - [ 7.01885343e-01, 4.05642867e-01, 7.41593063e-01, 3.31164539e-01,
          7.40715563e-01, 4.67582792e-01, 7.27762818e-01, 3.84470016e-01,
          6.46366179e-01, 5.96016824e-01 ]
      - [ 5.62328100e-01, 6.18299961e-01, 8.45154822e-01, 1.93780437e-01,
          8.31974447e-01, 6.28133833e-01, 5.82210243e-01, 5.62305331e-01,
          7.07417667e-01, 7.52232790e-01 ]
      - [ 7.05064118e-01, 6.06638670e-01, 8.91312361e-01, 1.20543130e-01,
          8.91129732e-01, 5.21866620e-01, 7.25067377e-01, 5.43269038e-01,
          7.07417667e-01, 6.67771757e-01 ]
      - [ 5.76643288e-01, 5.59934020e-01, 7.84586966e-01, 3.10405612e-01,
          7.71093190e-01, 5.56774437e-01, 6.03773594e-01, 5.25737464e-01,
          5.99339962e-01, 6.70015037e-01 ]
      - [ 6.26167715e-01, 4.91276562e-01, 7.24200904e-01, 3.82830441e-01,
          7.16530919e-01, 5.00566423e-01, 6.54986501e-01, 4.91899073e-01,
          7.07717717e-01, 6.25751495e-01 ]
      - [ 6.77432001e-01, 5.15776038e-01, 7.73375809e-01, 2.63282478e-01,
          7.70403147e-01, 4.68668103e-01, 7.00808644e-01, 5.08240879e-01,
          7.13792861e-01, 5.94984591e-01 ]
      - [ 6.58302546e-01, 5.66402674e-01, 7.36281574e-01, 3.20209265e-01,
          7.31931031e-01, 4.88498092e-01, 6.84636116e-01, 5.50092757e-01,
          8.95447373e-01, 6.10258937e-01 ]
      - [ 5.93544364e-01, 4.04224992e-01, 8.10647547e-01, 2.57569015e-01,
          7.99276114e-01, 4.47069615e-01, 6.17250681e-01, 4.09105211e-01,
          5.99714994e-01, 5.11321843e-01 ]
      - [ 4.94230032e-01, 6.03936315e-01, 6.34321690e-01, 3.82601947e-01,
          6.34614646e-01, 6.38714731e-01, 5.22911072e-01, 5.95723808e-01,
          7.07342684e-01, 7.40821481e-01 ]
      - [ 5.95091283e-01, 6.14918828e-01, 7.00455964e-01, 3.40896994e-01,
          7.00319469e-01, 5.62110305e-01, 6.22641504e-01, 5.70108831e-01,
          6.58291459e-01, 6.82649374e-01 ]
      - [ 7.69307256e-01, 3.93169075e-01, 8.87826204e-01, 1.49469092e-01,
          8.91777813e-01, 5.08263230e-01, 7.87061989e-01, 3.53676021e-01,
          2.60406524e-01, 6.77202046e-01 ]
      - [ 5.84632754e-01, 5.71302235e-01, 8.02365303e-01, 2.22505942e-01,
          7.95656443e-01, 5.91448784e-01, 6.09164417e-01, 5.18143952e-01,
          7.07417667e-01, 7.28117764e-01 ]
      - [ 6.04625881e-01, 4.59122002e-01, 7.68560052e-01, 3.01232070e-01,
          7.60412872e-01, 5.82191050e-01, 6.30727768e-01, 4.41053987e-01,
          6.25590622e-01, 7.08656132e-01 ]
      - [ 4.14576083e-01, 9.21497762e-01, 7.06699491e-01, 3.50440621e-01,
          6.80163145e-01, 6.95874035e-01, 4.39353108e-01, 8.49879265e-01,
          6.93167329e-01, 7.82772779e-01 ]
      - [ 6.53576851e-01, 6.01006746e-01, 6.79854810e-01, 3.31332415e-01,
          6.71366572e-01, 4.93803680e-01, 6.79245293e-01, 5.91909587e-01,
          7.07417667e-01, 6.17233992e-01 ]
      - [ 8.15670609e-01, 1.86736602e-02, 1., 0., 1., 5.00873446e-01,
          8.27493250e-01, 0., 1.83379591e-01, 6.88188791e-01 ]
      - [ 6.36305869e-01, 6.83389723e-01, 6.90320194e-01, 2.70276427e-01,
          6.78998530e-01, 5.48969567e-01, 6.60377383e-01, 6.55177236e-01,
          7.07717717e-01, 6.84252501e-01 ]
      - [ 5.54536879e-01, 5.57319462e-01, 6.46968544e-01, 4.32407230e-01,
          6.41936123e-01, 5.82329452e-01, 5.84905684e-01, 5.50932586e-01,
          6.91142261e-01, 6.89996481e-01 ]
      - [ 7.34745860e-01, 6.59135759e-01, 8.42142344e-01, 1.56882674e-01,
          8.32685828e-01, 4.76533502e-01, 7.54716992e-01, 5.96318722e-01,
          7.07417667e-01, 6.31640792e-01 ]
      - [ 6.41620994e-01, 7.49121666e-01, 7.66792655e-01, 3.33154589e-01,
          7.44310141e-01, 4.83062804e-01, 6.68463588e-01, 7.16345310e-01,
          7.07417667e-01, 5.93790233e-01 ]
      - [ 6.07098460e-01, 6.27464831e-01, 7.75302529e-01, 2.96866477e-01,
          7.59478569e-01, 4.95654345e-01, 6.33423209e-01, 5.99258125e-01,
          7.07417667e-01, 6.07373476e-01 ]
      - [ 6.63805306e-01, 4.53317434e-01, 6.75493181e-01, 3.15422952e-01,
          6.85381234e-01, 5.26973248e-01, 6.90026939e-01, 4.37064767e-01,
          7.07492709e-01, 6.51353240e-01 ]
      - [ 6.97455168e-01, 5.43183267e-01, 8.11810195e-01, 2.09269240e-01,
          8.06364954e-01, 5.12552619e-01, 7.19676554e-01, 5.02257049e-01,
          6.41716063e-01, 6.60028756e-01 ]
      - [ 6.26698673e-01, 5.47295392e-01, 7.92527676e-01, 3.01296383e-01,
          7.70449460e-01, 5.23328125e-01, 6.52291119e-01, 5.30741513e-01,
          7.07417667e-01, 6.39330089e-01 ]
      - [ 5.50851882e-01, 5.77883124e-01, 8.35833311e-01, 2.68217653e-01,
          8.28528404e-01, 6.46476328e-01, 5.76819420e-01, 5.29551744e-01,
          8.08820248e-01, 7.69202590e-01 ]
      - [ 5.34531355e-01, 4.38589692e-01, 6.18912339e-01, 4.73475754e-01,
          6.25491261e-01, 5.44727743e-01, 5.66037714e-01, 4.51341987e-01,
          3.99684995e-01, 6.25060499e-01 ]
      - [ 4.65089887e-01, 5.04393697e-01, 6.55270159e-01, 3.61977994e-01,
          6.44021869e-01, 6.95861042e-01, 4.93261456e-01, 5.02991915e-01,
          7.20242977e-01, 8.07041287e-01 ]
      - [ 2.86029577e-01, 6.22848332e-01, 5.43677092e-01, 4.93174285e-01,
          5.22378504e-01, 5.95184743e-01, 3.07277620e-01, 6.45589113e-01,
          7.07417667e-01, 5.85346699e-01 ]
      - [ 2.61988610e-01, 6.16251707e-01, 6.10488236e-01, 4.73675400e-01,
          6.07416213e-01, 8.01981270e-01, 2.83018857e-01, 5.71018636e-01,
          5.94389856e-01, 8.65524471e-01 ]
      - [ 3.79542083e-01, 4.53175485e-01, 6.78290308e-01, 3.48580450e-01,
          6.85308337e-01, 7.29264140e-01, 4.04312670e-01, 4.18413401e-01,
          8.83972108e-01, 8.08044016e-01 ]
      - [ 3.35164607e-01, 5.60483038e-01, 6.76133752e-01, 4.13410664e-01,
          6.62790120e-01, 7.82994449e-01, 3.58490556e-01, 5.20733476e-01,
          7.07417667e-01, 8.63358498e-01 ]
      - [ 2.66514331e-01, 6.31240606e-01, 5.77068985e-01, 5.36752641e-01,
          5.60026586e-01, 8.30939293e-01, 2.88409710e-01, 6.20114088e-01,
          7.07417667e-01, 8.82790327e-01 ]
      - [ 3.41810703e-01, 4.45070803e-01, 4.70170438e-01, 6.00220263e-01,
          4.79524821e-01, 7.38344610e-01, 3.71967643e-01, 4.44728285e-01,
          6.53716326e-01, 7.98749745e-01 ]
      - [ 3.08005035e-01, 5.01121521e-01, 3.20922971e-01, 7.58939683e-01,
          3.20920974e-01, 7.17701674e-01, 3.39622647e-01, 5.60695648e-01,
          6.95117354e-01, 7.60310471e-01 ]
      - [ 3.48120511e-01, 5.52161753e-01, 3.78714472e-01, 6.87363267e-01,
          3.71396661e-01, 6.80752873e-01, 3.80053908e-01, 6.05381966e-01,
          6.46891177e-01, 7.39385903e-01 ]
      - [ 3.94244909e-01, 5.27986348e-01, 6.00330234e-01, 4.87456977e-01,
          5.91801643e-01, 7.06078708e-01, 4.23180580e-01, 5.09955585e-01,
          7.07417667e-01, 7.85488009e-01 ]
      - [ 4.45089668e-01, 3.76880348e-01, 8.12139869e-01, 3.73735368e-01,
          8.01484466e-01, 7.16361225e-01, 4.71698105e-01, 3.63334149e-01,
          4.80161995e-01, 8.21052253e-01 ]
      - [ 3.91257256e-01, 3.84193748e-01, 7.59509623e-01, 3.13766003e-01,
          7.64159799e-01, 7.77719140e-01, 4.15094346e-01, 3.34499776e-01,
          5.29363215e-01, 8.73542905e-01 ]
      - [ 3.82220000e-01, 4.44695592e-01, 7.26071239e-01, 3.60346258e-01,
          7.20971584e-01, 6.96738839e-01, 4.07008082e-01, 4.13934290e-01,
          8.45571160e-01, 7.58559048e-01 ]
      - [ 3.11141372e-01, 6.29801989e-01, 6.80187821e-01, 4.49035585e-01,
          6.66281641e-01, 8.12843204e-01, 3.34231794e-01, 5.73188245e-01,
          7.07342684e-01, 8.87463093e-01 ]
      - [ 3.77400458e-01, 5.21795750e-01, 7.46019185e-01, 3.27841014e-01,
          7.32749879e-01, 6.73912287e-01, 3.98921847e-01, 5.02012134e-01,
          6.44941151e-01, 7.44110942e-01 ]
      - [ 3.46481562e-01, 6.45827532e-01, 6.41687393e-01, 4.58267093e-01,
          6.36147976e-01, 7.52674401e-01, 3.71967643e-01, 6.25083089e-01,
          7.59168983e-01, 8.24867427e-01 ]
      - [ 2.75716215e-01, 7.98655868e-01, 4.64398384e-01, 6.20103955e-01,
          4.51775163e-01, 7.52216041e-01, 3.01886797e-01, 7.79542983e-01,
          6.08115196e-01, 7.89249778e-01 ]
      - [ 3.14465284e-01, 6.13292456e-01, 5.61366796e-01, 5.61485827e-01,
          5.58662415e-01, 7.57642686e-01, 3.42318058e-01, 6.04052186e-01,
          6.24390602e-01, 8.13069940e-01 ]
      - [ 2.40388393e-01, 7.01693296e-01, 5.13812363e-01, 5.41244924e-01,
          5.08224726e-01, 8.52282643e-01, 2.58760095e-01, 6.69384480e-01,
          6.88967228e-01, 9.08352196e-01 ]
      - [ 2.90776551e-01, 7.91609406e-01, 6.95431828e-01, 3.65000784e-01,
          6.84781611e-01, 6.85695231e-01, 3.07277620e-01, 7.19634652e-01,
          5.55463910e-01, 7.11092055e-01 ]
      - [ 4.87468898e-01, 3.62162560e-01, 6.45695508e-01, 2.73070693e-01,
          6.56763911e-01, 7.10368156e-01, 5.12129366e-01, 3.54375899e-01,
          6.66766644e-01, 8.23499084e-01 ]
      - [ 3.75048220e-01, 5.76171935e-01, 7.04791963e-01, 3.50189060e-01,
          6.88079596e-01, 6.96371257e-01, 3.96226406e-01, 5.66049635e-01,
          5.67239165e-01, 7.59743869e-01 ]
      - [ 4.78403300e-01, 4.80732292e-01, 7.08064616e-01, 2.97977418e-01,
          7.06995606e-01, 7.11786449e-01, 5.04043102e-01, 4.56555963e-01,
          9.50873792e-01, 8.32214355e-01 ]
      - [ 6.65571690e-01, 6.58989698e-02, 6.89301193e-01, 3.23445290e-01,
          7.15595782e-01, 5.35028934e-01, 6.92722380e-01, 9.28368941e-02,
          3.30758274e-01, 6.72408700e-01 ]
      - [ 3.99460882e-01, 3.81513447e-01, 6.77015603e-01, 4.00638491e-01,
          6.82596505e-01, 7.83668995e-01, 4.25876021e-01, 3.56265515e-01,
          6.04965150e-01, 8.86295497e-01 ]
      - [ 4.61019069e-01, 3.17254633e-01, 7.56127179e-01, 3.25561911e-01,
          7.63334930e-01, 6.45624518e-01, 4.87870634e-01, 3.04300666e-01,
          4.47086185e-01, 7.24089384e-01 ]
      - [ 4.43675518e-01, 1.97142214e-01, 8.67764473e-01, 2.34129697e-01,
          8.74570727e-01, 7.70095885e-01, 4.66307282e-01, 1.58519089e-01,
          2.44431108e-01, 8.86819780e-01 ]
      - [ 2.21055448e-01, 7.29225874e-01, 3.24318796e-01, 7.21091211e-01,
          3.19097817e-01, 7.94063985e-01, 2.45283023e-01, 7.57217348e-01,
          7.07417667e-01, 8.20323110e-01 ]
      - [ 2.63482451e-01, 6.08073294e-01, 6.07678354e-01, 4.39557731e-01,
          6.04728460e-01, 8.35302234e-01, 2.83018857e-01, 5.58001161e-01,
          6.05940163e-01, 8.97443414e-01 ]
      - [ 2.22007662e-01, 6.78312480e-01, 5.21034896e-01, 5.98225355e-01,
          5.08061111e-01, 8.15800846e-01, 2.42587596e-01, 6.70959175e-01,
          6.59941494e-01, 8.43556881e-01 ]
      - [ 5.45549154e-01, 1.83610514e-01, 8.85147572e-01, 1.76443368e-01,
          8.88353944e-01, 6.67192757e-01, 5.68733156e-01, 1.54879794e-01,
          6.92042291e-01, 7.95046329e-01 ]
      - [ 3.19605172e-01, 6.10034525e-01, 5.23258984e-01, 5.08381426e-01,
          5.18756211e-01, 7.51731753e-01, 3.45013469e-01, 5.94918966e-01,
          7.07417667e-01, 8.29068065e-01 ]
      - [ 2.60144353e-01, 5.37135959e-01, 3.37606251e-01, 7.38641202e-01,
          3.35864514e-01, 7.78540730e-01, 2.88409710e-01, 5.68674088e-01,
          8.26820672e-01, 8.29229474e-01 ]
      - [ 3.45522255e-01, 6.20990515e-01, 6.70300007e-01, 4.17797446e-01,
          6.48647726e-01, 7.80538440e-01, 3.69272232e-01, 6.01007819e-01,
          5.92214823e-01, 8.55525255e-01 ]
      - [ 2.57039905e-01, 6.72003686e-01, 3.97255778e-01, 6.56129420e-01,
          3.92813206e-01, 7.74744213e-01, 2.83018857e-01, 6.67214870e-01,
          5.61314046e-01, 8.08618367e-01 ]
      - [ 2.96711117e-01, 5.65472126e-01, 3.65448803e-01, 6.88265800e-01,
          3.70807439e-01, 7.24490404e-01, 3.26145560e-01, 5.75882673e-01,
          6.41716063e-01, 7.66292632e-01 ]
      - [ 3.78729671e-01, 5.09793460e-01, 4.37883645e-01, 5.96150517e-01,
          4.36707199e-01, 6.89556599e-01, 4.09703493e-01, 5.52752197e-01,
          6.40441000e-01, 7.55664587e-01 ]
      - [ 1.21305712e-01, 6.45685256e-01, 4.69471186e-01, 6.07401967e-01,
          4.62053508e-01, 9.62860942e-01, 1.29380047e-01, 6.23088479e-01,
          5.71739316e-01, 1. ]
      - [ 2.51615047e-01, 4.46677417e-01, 2.88531363e-01, 9.08788800e-01,
          2.92099327e-01, 7.36835480e-01, 2.83018857e-01, 5.12720048e-01,
          7.25943148e-01, 7.49096215e-01 ]
      - [ 2.91169465e-01, 5.12678027e-01, 4.29232597e-01, 7.43813276e-01,
          4.20318037e-01, 7.45042503e-01, 3.20754707e-01, 5.45963526e-01,
          5.76989412e-01, 7.88092971e-01 ]
      - [ 1.69490293e-01, 5.98021507e-01, 5.31958997e-01, 5.52500367e-01,
          5.09032607e-01, 8.35146546e-01, 1.83288410e-01, 5.90754807e-01,
          7.77394414e-01, 8.48377287e-01 ]
      - [ 1.77281529e-01, 6.23307586e-01, 2.20311373e-01, 8.13015699e-01,
          2.13417545e-01, 8.14672291e-01, 1.99460924e-01, 6.80512309e-01,
          6.28065705e-01, 8.36371362e-01 ]
      - [ 1.66088492e-01, 4.31232274e-01, 3.13139260e-01, 8.65946651e-01,
          3.01409394e-01, 8.41429353e-01, 1.88679248e-01, 5.11355281e-01,
          3.31508279e-01, 8.56225073e-01 ]
      - [ 2.55273521e-01, 4.26233441e-01, 5.03215492e-01, 6.26103163e-01,
          5.00622571e-01, 8.35838377e-01, 2.80323446e-01, 4.28246498e-01,
          6.12240314e-01, 8.88422370e-01 ]
      - [ 1.29295185e-01, 5.77765942e-01, 5.51755786e-01, 5.94764173e-01,
          5.46245098e-01, 9.24519837e-01, 1.40161723e-01, 5.57476282e-01,
          3.83409590e-01, 9.45620477e-01 ]
      - [ 2.21221820e-01, 4.41237956e-01, 3.50994170e-01, 6.33702099e-01,
          3.53602648e-01, 8.61250699e-01, 2.42587596e-01, 4.98197854e-01,
          8.25470626e-01, 9.15678203e-01 ]
      - [ 1.94522426e-01, 7.28536844e-01, 5.59094846e-01, 4.78637815e-01,
          5.38043618e-01, 8.99855554e-01, 2.07547173e-01, 6.63855553e-01,
          7.56918907e-01, 9.49069858e-01 ]
      - [ 6.58927336e-02, 7.66459942e-01, 0., 1., 0., 8.74032497e-01,
          8.08625370e-02, 8.43440533e-01, 7.07417667e-01, 8.56871545e-01 ]
      - [ 3.86729777e-01, 3.65755200e-01, 6.31068587e-01, 4.20164555e-01,
          6.31420374e-01, 7.76192784e-01, 4.12398934e-01, 3.57490301e-01,
          4.83237088e-01, 8.79986227e-01 ]
      - [ 2.62220472e-01, 5.11658609e-01, 5.12275279e-01, 6.10311270e-01,
          5.08216202e-01, 7.37830043e-01, 2.85714298e-01, 5.13139963e-01,
          5.43688595e-01, 7.57964849e-01 ]
      - [ 2.79783487e-01, 5.14298260e-01, 4.29306597e-01, 6.84796035e-01,
          4.17721719e-01, 7.53063560e-01, 3.07277620e-01, 5.69513917e-01,
          5.62214077e-01, 7.86787868e-01 ]
      - [ 5.32915413e-01, 2.40291938e-01, 6.73826575e-01, 3.01245928e-01,
          6.84509814e-01, 6.89223647e-01, 5.60646892e-01, 2.44147390e-01,
          0., 8.25372934e-01 ]
      - [ 4.31526721e-01, 0., 5.51792324e-01, 4.32296157e-01,
          5.78398764e-01, 8.06162596e-01, 4.60916430e-01, 3.15288529e-02,
          2.99557477e-01, 9.34946120e-01 ]
      - [ 2.44319409e-01, 4.68666285e-01, 3.67249191e-01, 7.72023976e-01,
          3.58215451e-01, 6.24916792e-01, 2.72237211e-01, 5.67834258e-01,
          7.39968479e-01, 6.00197375e-01 ]
      - [ 1.27427906e-01, 7.02879012e-01, 3.20284665e-01, 6.82977915e-01,
          3.16201419e-01, 8.93698156e-01, 1.40161723e-01, 6.96049273e-01,
          7.59918988e-01, 9.06862915e-01 ]
      - [ 2.37021983e-01, 5.18971503e-01, 3.58809561e-01, 7.61609554e-01,
          3.51578146e-01, 7.78480172e-01, 2.64150947e-01, 5.49567819e-01,
          5.98664939e-01, 8.08135331e-01 ]
      - [ 3.62729520e-01, 2.74185449e-01, 4.73984480e-01, 5.44440925e-01,
          4.86581922e-01, 7.16244519e-01, 3.90835583e-01, 3.39433819e-01,
          3.90534759e-01, 7.76758134e-01 ]
      - [ 2.99112916e-01, 2.78415084e-01, 3.77510995e-01, 6.97064877e-01,
          3.83558691e-01, 6.35056615e-01, 3.28840971e-01, 3.41883332e-01,
          5.54038823e-01, 6.37489498e-01 ]
      - [ 1.36277556e-01, 7.37671256e-01, 3.13378334e-01, 7.96826243e-01,
          2.88382649e-01, 8.36742103e-01, 1.53638810e-01, 7.69814909e-01,
          7.07417667e-01, 8.53607655e-01 ]
      - [ 1., 3.75678509e-01, 8.62638414e-01, 7.87478760e-02,
          8.66039336e-01, 2.82925278e-01, 1., 3.54760826e-01,
          6.60991549e-01, 4.84035134e-01 ]
      - [ 9.12161887e-01, 3.69501531e-01, 7.85128176e-01, 1.76499709e-01,
          7.91479528e-01, 3.40222955e-01, 9.21832860e-01, 3.74951899e-01,
          6.78316951e-01, 5.22947550e-01 ]
      - [ 7.81119823e-01, 4.78027910e-01, 7.29901254e-01, 2.40913466e-01,
          7.30388165e-01, 4.32623029e-01, 8.00539076e-01, 4.71428066e-01,
          6.64591610e-01, 5.93164802e-01 ]
      - [ 8.19405138e-01, 3.97227705e-01, 7.43156850e-01, 3.16217452e-01,
          7.36972034e-01, 3.55659723e-01, 8.38274956e-01, 4.21212852e-01,
          7.07417667e-01, 5.04081666e-01 ]
      - [ 8.57885242e-01, 4.84084666e-01, 7.64168024e-01, 2.86700368e-01,
          7.55382240e-01, 3.40906143e-01, 8.73315334e-01, 5.12335122e-01,
          7.07417667e-01, 4.99348760e-01 ]
      - [ 8.18766236e-01, 6.39986634e-01, 7.68242836e-01, 2.34029710e-01,
          7.53763855e-01, 3.55741858e-01, 8.35579515e-01, 6.36875808e-01,
          7.23093092e-01, 5.07994533e-01 ]
      - [ 6.39889956e-01, 1., 5.96026599e-01, 4.17116642e-01,
          5.67645311e-01, 3.51543248e-01, 6.68463588e-01, 1.,
          7.07417667e-01, 4.12282825e-01 ]
      - [ 8.10208619e-01, 5.38255632e-01, 5.95670223e-01, 3.56776714e-01,
          5.88372767e-01, 3.59802127e-01, 8.30188692e-01, 5.79102099e-01,
          7.07417667e-01, 5.01071215e-01 ]
      - [ 9.86442327e-01, 3.95022899e-01, 8.49329352e-01, 6.39518839e-05,
          8.56035650e-01, 3.46129566e-01, 9.86522913e-01, 3.50106716e-01,
          3.58358949e-01, 5.49221933e-01 ]
      - [ 7.99596131e-01, 6.75604761e-01, 7.65751719e-01, 3.24743003e-01,
          7.45824456e-01, 3.09652090e-01, 8.19406986e-01, 6.94439590e-01,
          6.91967309e-01, 4.33309525e-01 ]
      - [ 8.93699765e-01, 4.61049706e-01, 8.15383434e-01, 2.04049408e-01,
          8.11297774e-01, 3.36720496e-01, 9.05660391e-01, 4.38359529e-01,
          7.07417667e-01, 5.05721748e-01 ]
      - [ 8.13022792e-01, 5.74892044e-01, 5.91210961e-01, 3.55735570e-01,
          5.86623311e-01, 3.50185513e-01, 8.32884073e-01, 6.05486929e-01,
          7.07417667e-01, 4.91977930e-01 ]
      - [ 7.65358567e-01, 5.73132813e-01, 6.91583276e-01, 3.01058471e-01,
          6.85689569e-01, 4.23659325e-01, 7.87061989e-01, 5.69164038e-01,
          6.93617344e-01, 5.62378109e-01 ]
      - [ 8.87597024e-01, 5.72257042e-01, 7.84806132e-01, 2.35307261e-01,
          7.77369678e-01, 3.26208770e-01, 9.00269568e-01, 5.47083318e-01,
          5.25988162e-01, 4.82841074e-01 ]
      - [ 8.51529419e-01, 5.06167352e-01, 7.68211305e-01, 2.84173518e-01,
          7.55586505e-01, 2.51537204e-01, 8.67924511e-01, 5.24372756e-01,
          7.07417667e-01, 3.65367889e-01 ]
      - [ 7.63512552e-01, 5.55437207e-01, 6.93586588e-01, 2.99967617e-01,
          6.78305149e-01, 3.53169084e-01, 7.84366548e-01, 5.72383404e-01,
          6.77116930e-01, 4.66494530e-01 ]
      - [ 7.38515794e-01, 4.19265866e-01, 2.87513256e-01, 8.06846023e-01,
          2.68735260e-01, 1.37478054e-01, 7.68194079e-01, 6.24663174e-01,
          7.07417667e-01, 1.88993931e-01 ]
      - [ 7.74753332e-01, 6.16518021e-01, 7.44789541e-01, 2.65681654e-01,
          7.28735566e-01, 3.54427367e-01, 7.95148253e-01, 6.18469417e-01,
          6.75541878e-01, 4.89781529e-01 ]
      - [ 7.20768690e-01, 7.01098561e-01, 7.12796748e-01, 2.65137315e-01,
          7.02991128e-01, 4.33422983e-01, 7.43935287e-01, 6.85411334e-01,
          7.07417667e-01, 5.71084499e-01 ]
      - [ 8.35980535e-01, 5.13551474e-01, 7.19413459e-01, 2.06942901e-01,
          7.13329852e-01, 3.98363799e-01, 8.51752043e-01, 5.04006743e-01,
          7.07417667e-01, 5.59546232e-01 ]
      - [ 6.20339334e-01, 5.81806958e-01, 5.89457154e-01, 4.09429520e-01,
          5.80906034e-01, 4.84610796e-01, 6.49595678e-01, 5.93169332e-01,
          6.16065383e-01, 5.88643730e-01 ]
      - [ 6.33410275e-01, 6.89271629e-01, 7.45252430e-01, 2.39122257e-01,
          7.24554002e-01, 5.13166666e-01, 6.57681942e-01, 6.47058845e-01,
          7.07417667e-01, 6.31945848e-01 ]
      - [ 6.71054900e-01, 5.43172479e-01, 6.65525913e-01, 3.86921316e-01,
          6.58600450e-01, 4.79651123e-01, 6.98113203e-01, 5.42044282e-01,
          6.08040214e-01, 6.09073102e-01 ]
      - [ 7.07230508e-01, 5.58183312e-01, 6.53764188e-01, 3.67541820e-01,
          6.53610229e-01, 4.50433701e-01, 7.33153641e-01, 5.52367270e-01,
          7.07417667e-01, 5.80670893e-01 ]
      - [ 7.15678394e-01, 5.32964945e-01, 8.04274619e-01, 2.36422762e-01,
          8.02995861e-01, 4.85445321e-01, 7.38544464e-01, 5.02991915e-01,
          6.90542281e-01, 6.22806728e-01 ]
      - [ 6.91171944e-01, 6.67829037e-01, 6.07472837e-01, 3.29347998e-01,
          6.01791918e-01, 4.57451582e-01, 7.16981113e-01, 6.65850163e-01,
          5.47888696e-01, 5.72839022e-01 ]
      - [ 5.84558427e-01, 6.57565176e-01, 6.49761021e-01, 4.06793505e-01,
          6.41818702e-01, 5.35115421e-01, 6.14555240e-01, 6.46219015e-01,
          7.07417667e-01, 6.40282035e-01 ]
      - [ 6.38408542e-01, 6.21698439e-01, 5.93683958e-01, 4.72027481e-01,
          5.80619156e-01, 4.93492335e-01, 6.68463588e-01, 6.17524564e-01,
          7.07417667e-01, 6.09627485e-01 ]
      - [ 7.54303575e-01, 4.59257960e-01, 8.02810192e-01, 2.66939282e-01,
          8.05192173e-01, 3.71675909e-01, 7.76280344e-01, 4.39969212e-01,
          5.65064132e-01, 4.79099184e-01 ]
      - [ 6.67883217e-01, 7.42005169e-01, 6.55631185e-01, 3.84464413e-01,
          6.39270723e-01, 4.37721074e-01, 6.95417762e-01, 7.28732884e-01,
          7.07417667e-01, 5.57417989e-01 ]
      - [ 7.05713689e-01, 3.71203631e-01, 7.29944110e-01, 2.99429566e-01,
          7.32776940e-01, 4.28355217e-01, 7.30458200e-01, 3.74252021e-01,
          7.07417667e-01, 5.55509508e-01 ]
      - [ 5.71761847e-01, 5.74145913e-01, 5.98943710e-01, 5.37238002e-01,
          5.89241624e-01, 4.66259629e-01, 6.03773594e-01, 6.19344234e-01,
          7.07417667e-01, 5.47715425e-01 ]
      - [ 7.93192506e-01, 4.68574613e-01, 7.18781173e-01, 3.28007340e-01,
          7.08813667e-01, 4.01356012e-01, 8.14016163e-01, 4.92179036e-01,
          7.07417667e-01, 5.46263039e-01 ]
      - [ 2.37016678e-01, 2.56191164e-01, 3.30378711e-01, 7.31979012e-01,
          3.46337944e-01, 8.17059159e-01, 2.64150947e-01, 2.96987087e-01,
          4.89312232e-01, 8.54198039e-01 ]
      - [ 7.17616498e-01, 4.33880061e-01, 7.73700893e-01, 3.02208900e-01,
          7.65853167e-01, 4.73039716e-01, 7.41239905e-01, 4.19393212e-01,
          7.07417667e-01, 6.17518902e-01 ]
      - [ 6.87223256e-01, 5.71098030e-01, 6.65784776e-01, 2.56227106e-01,
          6.68307424e-01, 5.20872056e-01, 7.11590290e-01, 5.44598818e-01,
          5.69264233e-01, 6.61018848e-01 ]
      - [ 5.80020308e-01, 3.96848679e-01, 8.35730553e-01, 2.75374651e-01,
          8.16166103e-01, 8.61475542e-02, 6.06468976e-01, 4.87174988e-01,
          7.26543188e-01, 3.95957157e-02 ]
      - [ 9.18593854e-02, 5.76730788e-01, 3.20197850e-01, 9.07873631e-01,
          3.02104592e-01, 4.16823059e-01, 1.07816711e-01, 7.15400517e-01,
          7.11992800e-01, 2.56982118e-01 ]
      - [ 8.04035068e-01, 2.57036060e-01, 7.95543969e-01, 2.25051671e-01,
          8.03677797e-01, 4.21103835e-01, 8.22102427e-01, 2.68817574e-01,
          6.91442311e-01, 5.82846284e-01 ]
      - [ 6.76899195e-01, 4.80627716e-01, 6.52005672e-01, 3.51961702e-01,
          6.45069778e-01, 4.96467263e-01, 7.03504026e-01, 4.83290762e-01,
          6.33315861e-01, 6.21904194e-01 ]
      - [ 7.37384796e-01, 2.42175326e-01, 9.03702438e-01, 1.75490886e-01,
          8.87801409e-01, 0., 7.57412374e-01, 3.19242746e-01,
          7.41918564e-01, 0. ]
      - [ 6.86915278e-01, 5.11966407e-01, 8.05595875e-01, 1.66228518e-01,
          8.01657856e-01, 5.11562467e-01, 7.08894908e-01, 4.72267896e-01,
          7.05692649e-01, 6.54153824e-01 ]
      - [ 7.04513669e-01, 5.71931481e-01, 6.26213551e-01, 3.53087306e-01,
          6.22287452e-01, 4.47994947e-01, 7.30458200e-01, 5.69513917e-01,
          7.07417667e-01, 5.74564755e-01 ]
      - [ 9.06326413e-01, 4.86598134e-01, 7.76269674e-01, 1.71024337e-01,
          7.78869510e-01, 2.90241539e-01, 9.16442037e-01, 4.71638024e-01,
          5.33188343e-01, 4.39728379e-01 ]
      - [ 5.07626653e-01, 6.87945783e-01, 5.19736409e-01, 4.62879807e-01,
          5.18140018e-01, 5.72302043e-01, 5.39083540e-01, 6.85131371e-01,
          6.90617263e-01, 6.58944666e-01 ]
      - [ 5.69931746e-01, 6.79145455e-01, 5.77257812e-01, 4.78200942e-01,
          5.61898291e-01, 4.98845488e-01, 6.01078153e-01, 6.85551345e-01,
          7.07417667e-01, 5.78992665e-01 ]
      - [ 7.28857279e-01, 5.65756381e-01, 7.19987333e-01, 2.61231422e-01,
          7.23064661e-01, 4.60508674e-01, 7.52021551e-01, 5.30531526e-01,
          7.07417667e-01, 6.07473195e-01 ]
      - [ 7.23520935e-01, 5.40557086e-01, 7.72828698e-01, 2.67155588e-01,
          7.73401439e-01, 4.65446711e-01, 7.46630728e-01, 5.09325683e-01,
          6.76066875e-01, 6.07266009e-01 ]
      - [ 5.50612926e-01, 5.96974552e-01, 5.65525711e-01, 4.57784206e-01,
          5.64788163e-01, 5.50755382e-01, 5.82210243e-01, 5.78577161e-01,
          7.25493133e-01, 6.47117674e-01 ]
      - [ 6.39711201e-01, 4.21482801e-01, 8.48082483e-01, 2.83458591e-01,
          8.38335633e-01, 7.32533112e-02, 6.65768206e-01, 5.05721390e-01,
          7.26543188e-01, 4.06903028e-02 ]
      - [ 7.20697939e-01, 4.11904663e-01, 6.52066231e-01, 4.02576029e-01,
          6.45893037e-01, 3.78689468e-01, 7.46630728e-01, 4.57885712e-01,
          7.07417667e-01, 4.91670191e-01 ]
      - [ 6.89421475e-01, 4.59526271e-01, 6.57664537e-01, 3.12342703e-01,
          6.60800755e-01, 4.62765813e-01, 7.14285731e-01, 4.65304255e-01,
          7.97269940e-01, 5.75334728e-01 ]
      - [ 6.75283253e-01, 2.75933176e-01, 9.30222631e-01, 2.08110049e-01,
          9.19581592e-01, 1.10989079e-01, 6.98113203e-01, 3.55355710e-01,
          6.86267138e-01, 9.96373296e-02 ]
      - [ 7.37728179e-01, 7.17446089e-01, 7.09206522e-01, 2.87195086e-01,
          6.98977351e-01, 4.21376258e-01, 7.60107815e-01, 6.85901225e-01,
          6.96017385e-01, 5.48827946e-01 ]
      - [ 5.44062436e-01, 5.71110964e-01, 5.30216455e-01, 5.15912652e-01,
          5.23141861e-01, 4.87516552e-01, 5.76819420e-01, 6.05626881e-01,
          6.94217384e-01, 5.61245918e-01 ]
      - [ 6.74823105e-01, 4.63684857e-01, 7.16473818e-01, 3.07281822e-01,
          7.16049075e-01, 4.10064608e-01, 7.00808644e-01, 4.82730865e-01,
          6.10665262e-01, 5.04506648e-01 ]
      - [ 8.29398215e-01, 4.24004734e-01, 8.20488453e-01, 2.10846990e-01,
          8.26181293e-01, 3.90498400e-01, 8.46361160e-01, 3.78556192e-01,
          5.32888293e-01, 5.45871139e-01 ]
   decision_functions:
      -
         sv_count: 27
         rho: 2.6206687624128450e-01
         alpha: [ 1., 1., 1., 1., 1., 1., 7.1765961512524068e-01, 1., 1.,
             1., 1., 1., 1., -1., -8.5816268326029477e-01, -1., -1., -1.,
             -6.6442953124889215e-01, -1., -1., -1., -1., -1., -1., -1.,
             -1.9506740061605371e-01 ]
         index: [ 0, 2, 5, 6, 11, 14, 21, 24, 27, 29, 32, 33, 34, 36, 37,
             38, 41, 46, 47, 50, 52, 56, 62, 66, 68, 70, 71 ]
      -
         sv_count: 53
         rho: 3.3753455369552754e-01
         alpha: [ 1., 1., 1., 1., 1.2527999610980503e-01, 1., 1., 1.,
             4.4496970072083164e-01, 1., 1., 1., 1., 1., 1., 1., 1., 1.,
             4.2137201877524572e-01, 1., 1., 1., 1., 1., 1., 1.,
             -3.1083245504643837e-03, -1., -1., -1., -1., -1., -1., -1.,
             -7.0843759100229720e-01, -2.7064511900999823e-02, -1., -1.,
             -1., -1., -3.9155031292944442e-01, -1., -1., -1., -1.,
             -8.6146097522267695e-01, -1., -1., -1., -1., -1., -1., -1. ]
         index: [ 0, 1, 2, 3, 4, 5, 6, 7, 10, 11, 12, 13, 14, 15, 18, 20,
             21, 24, 26, 27, 29, 30, 31, 32, 33, 34, 72, 73, 74, 75, 76,
             77, 78, 79, 81, 82, 83, 84, 85, 86, 87, 88, 89, 91, 93, 94,
             96, 97, 99, 100, 101, 102, 104 ]
      -
         sv_count: 19
         rho: 6.5417609930572962e-01
         alpha: [ 1., 1., 2.9882477182034134e-01, 3.8901004089262775e-01,
             1., 1., 3.5225215399927307e-01, 1., 1.,
             5.2236234652374336e-01, -1., -8.9220984763342825e-01,
             -2.1372914091192471e-01, -1., -1., -1., -1.,
             -6.3991973334703622e-01, -8.1659059134359657e-01 ]
         index: [ 0, 2, 4, 5, 6, 11, 21, 24, 33, 34, 105, 106, 119, 125,
             127, 128, 130, 135, 141 ]
      -
         sv_count: 13
         rho: 3.9826493358335957e-01
         alpha: [ 1., 3.9561070473245641e-01, 7.8053052974990222e-01,
             4.0924004432921224e-01, 8.3283767215187099e-01,
             1.3989494171782668e-01, 1.5567907053065685e-01,
             -4.6644827256689564e-01, -3.5317896560201451e-01, -1.,
             -7.2335424138501581e-01, -5.9580066314908475e-01,
             -5.7501082050891483e-01 ]
         index: [ 0, 4, 11, 21, 24, 31, 34, 151, 152, 153, 156, 158, 162 ]
      -
         sv_count: 34
         rho: 7.0555368837435711e-02
         alpha: [ 1., 1., 1., 1., 1., 1., 5.6156559536256145e-01,
             9.4985285879266990e-01, 1., 1., 1., 9.3597109330003869e-01,
             1., 1., 1., 1., -7.7245956990483244e-01, -1., -1., -1., -1.,
             -2.8631473864591916e-01, -1.5280073074674608e-01, -1.,
             -4.8027797144459500e-01, -1., -1., -1.,
             -7.5553653671317711e-01, -1., -1., -1., -1., -1. ]
         index: [ 1, 3, 4, 7, 8, 10, 12, 16, 17, 19, 20, 21, 26, 28, 30,
             31, 164, 165, 166, 167, 168, 169, 170, 171, 172, 174, 175,
             176, 178, 179, 180, 181, 182, 183 ]
      -
         sv_count: 61
         rho: 6.6705128700074856e-01
         alpha: [ 1., 1., 1., 1., 1., 1., 1., 1., 1., 1., 1., 1., 1., 1.,
             1., 7.8634035705873662e-01, 1., 1., 1., 1., 1., 1., 1., 1.,
             1., 5.7277557883910724e-01, 1., 1., 4.9559792976633305e-01,
             1., -1., -1., -1., -1., -1., -1., -1., -1., -1., -1., -1.,
             -7.1570251868884838e-01, -1., -1., -8.5179852876933337e-01,
             -1.7096366036946981e-01, -1., -1., -1., -1., -1.,
             -1.1624915783652512e-01, -1., -1., -1., -1., -1., -1., -1.,
             -1., -1. ]
         index: [ 0, 1, 3, 4, 5, 6, 7, 8, 9, 10, 11, 12, 13, 14, 17, 19,
             20, 21, 22, 23, 24, 25, 26, 27, 28, 29, 30, 31, 33, 34, 184,
             185, 186, 187, 188, 190, 191, 192, 194, 195, 196, 197, 198,
             199, 200, 201, 202, 203, 205, 206, 207, 209, 210, 211, 212,
             214, 215, 216, 218, 219, 220 ]
      -
         sv_count: 38
         rho: 2.5753300646412769e-01
         alpha: [ 1., 1., 1., 1., 1., 1., 1., 1., 1., 1.,
             2.7122664478265568e-01, 1., 2.7818063840498307e-02, 1., 1.,
             1., 1., 1., 1., 6.1477078482061076e-01, -1., -1., -1., -1.,
             -1., -1., -1., -1., -1., -1., -1., -1., -1., -1., -1.,
             -9.1381549344376511e-01, -1., -1. ]
         index: [ 35, 36, 37, 38, 41, 46, 47, 48, 49, 50, 51, 52, 54, 56,
             62, 64, 66, 68, 70, 71, 73, 74, 76, 80, 82, 83, 86, 87, 88,
             89, 90, 91, 92, 94, 96, 100, 103, 104 ]
      -
         sv_count: 59
         rho: 6.7252383861524068e-01
         alpha: [ 1., 1., 1., 1., 6.7694843592797080e-02, 1., 1., 1.,
             3.5250915478072568e-02, 1., 6.1975662450942492e-01, 1., 1.,
             1., 1., 1., 1., 1., 1., 1., 1., 1., 1., 1., 1., 1., 1., 1.,
             1., 1., -1., -1., -6.1938633249434183e-01, -1., -1., -1.,
             -1., -1., -1., -1., -1., -1., -1., -1., -1., -1., -1., -1.,
             -1., -1., -1., -1., -1., -8.8806546704254441e-01, -1., -1.,
             -1., -2.1525058404340858e-01, -1. ]
         index: [ 35, 37, 39, 40, 41, 42, 43, 44, 45, 46, 47, 48, 49, 50,
             51, 53, 54, 55, 57, 58, 59, 60, 61, 63, 64, 65, 67, 69, 70,
             71, 105, 106, 107, 108, 109, 111, 113, 114, 115, 116, 117,
             118, 119, 120, 121, 122, 124, 125, 126, 127, 128, 129, 130,
             131, 135, 136, 138, 140, 141 ]
      -
         sv_count: 26
         rho: 3.2141702006828415e-01
         alpha: [ 1.2982304274085943e-01, 5.8170074671101313e-01, 1., 1.,
             2.6288121344330549e-03, 3.7634037810771959e-01, 1.,
             7.2803461085887877e-01, 1., 1., 1., 1., 1.,
             -9.8945459704489014e-01, -1., -5.3064879728560110e-01,
             -2.0292851946842990e-02, -1., -3.6496492267943736e-01, -1.,
             -1., -1., -1., -1.8474479751705011e-01,
             -7.2842162407908306e-01, -1. ]
         index: [ 37, 40, 42, 43, 46, 50, 55, 57, 59, 64, 65, 69, 71,
             144, 145, 148, 149, 151, 152, 153, 154, 155, 156, 157, 158,
             161 ]
      -
         sv_count: 14
         rho: 8.0669540391289193e-02
         alpha: [ 7.0205369571895204e-01, 5.9117424805427987e-01,
             5.1224980467883674e-01, 8.8959893875114082e-01,
             2.4960886165709954e-02, 1., 8.7889043381161369e-01, -1.,
             -1., -6.7800152286990811e-01, -5.6169236205769302e-01,
             -1.4137704479716134e-01, -7.3338808699136249e-01,
             -4.8446899046440772e-01 ]
         index: [ 37, 41, 46, 50, 52, 62, 71, 166, 167, 170, 172, 176,
             180, 182 ]
      -
         sv_count: 28
         rho: 4.4613171011695607e-01
         alpha: [ 1., 1.9832301148841874e-01, 1., 1., 1., 1.,
             7.8810312262924542e-01, 4.0785101586558503e-01, 1., 1.,
             8.3466113564929312e-01, 1., 1., -1.7475135772374814e-01,
             -1., -1., -1.9376637559337770e-01, -1., -1.,
             -5.2856881126904354e-01, -7.7806879565292597e-01,
             -4.7533666032948624e-01, -1., -7.8446285063960716e-02, -1.,
             -1., -1., -1. ]
         index: [ 36, 37, 41, 46, 50, 52, 55, 56, 62, 66, 68, 70, 71,
             185, 190, 194, 195, 197, 198, 199, 201, 202, 203, 204, 205,
             208, 212, 218 ]
      -
         sv_count: 26
         rho: 1.7092226688259649e-01
         alpha: [ 1., 1., 5.4991147975831406e-02, 7.1971680551505546e-01,
             3.1579606298535357e-01, 1., 3.5297179185601230e-01, 1., 1.,
             1., 1., 1., 1., -1., -6.0270142472942789e-01,
             -5.1647219633686814e-01, -1.0697829581519362e-01, -1.,
             -2.1732389145076345e-01, -1., -1., -1., -1., -1., -1., -1. ]
         index: [ 73, 74, 76, 80, 86, 87, 89, 91, 92, 94, 96, 103, 104,
             105, 106, 113, 115, 119, 120, 124, 125, 126, 127, 128, 130,
             135 ]
      -
         sv_count: 15
         rho: 1.2413599393907888e-01
         alpha: [ 2.8506924865724159e-01, 2.9779345252700840e-01, 1.,
             3.9238937608026636e-01, 1., 1., 1., -1.,
             -5.7254302054870365e-01, -1., -4.7376701881813771e-01, -1.,
             -2.4660180599175791e-01, -4.8826991371555523e-01,
             -1.9407031819036227e-01 ]
         index: [ 73, 74, 87, 89, 92, 94, 104, 151, 152, 153, 154, 156,
             157, 158, 162 ]
      -
         sv_count: 24
         rho: 2.8173358231031547e-02
         alpha: [ 1., 1., 1., 1., 1., 4.1871370126808196e-05, 1.,
             8.9435747364138207e-01, 4.6838837700212765e-01, 1., 1.,
             2.2461802397904421e-01, 1., -1., -1., -1., -1., -1., -1.,
             -1., -5.8740574599268081e-01, -1., -1., -1. ]
         index: [ 78, 79, 84, 85, 89, 92, 93, 94, 95, 97, 98, 100, 101,
             166, 167, 169, 170, 172, 176, 179, 180, 181, 182, 183 ]
      -
         sv_count: 54
         rho: 3.3406557589832181e-01
         alpha: [ 1., 1., 1., 1., 1., 1., 1., 1., 1., 1., 1., 1., 1., 1.,
             4.5496609600310306e-01, 1., 1., 1., 1., 1., 1., 1., 1., 1.,
             1., 1., -1., -1., -1., -3.0952116395327184e-01, -1., -1.,
             -8.6223106818136519e-01, -1., -1., -1., -1.,
             -9.3737327731808129e-01, -1., -1., -2.8643044564304493e-01,
             -1., -1., -1., -1., -1., -1., -1., -1., -1.,
             -5.9410140907339488e-02, -1., -1., -1. ]
         index: [ 72, 73, 75, 76, 77, 78, 79, 83, 84, 85, 86, 87, 88, 89,
             92, 93, 94, 95, 96, 97, 98, 99, 100, 101, 102, 104, 184,
             185, 186, 187, 188, 190, 191, 192, 193, 194, 195, 197, 198,
             199, 201, 202, 203, 205, 208, 209, 210, 211, 212, 215, 216,
             217, 219, 220 ]
      -
         sv_count: 40
         rho: 3.0912515731205514e-01
         alpha: [ 1., 1., 1., 1., 1., 3.0233943523247882e-02,
             4.7580328214286932e-01, 1., 1., 1., 7.2973193751369181e-01,
             1., 1., 1., 1., 1., 1., 1., 1., -9.0728367216048122e-01,
             -4.9964230585097485e-01, -1., -1., -1.1370084836196725e-01,
             -1., -6.3158585563325931e-01, -1., -1.,
             -1.0766045207977892e-01, -1., -1., -1., -1.,
             -9.0179787639810749e-01, -1., -1., -1., -1.,
             -7.4098152695239880e-02, -1. ]
         index: [ 107, 110, 111, 112, 113, 116, 121, 123, 128, 129, 130,
             131, 132, 133, 134, 137, 139, 140, 141, 142, 143, 144, 145,
             146, 148, 149, 150, 151, 152, 153, 154, 155, 156, 157, 158,
             159, 160, 161, 162, 163 ]
      -
         sv_count: 14
         rho: -3.4970289499565398e-02
         alpha: [ 2.1915449988448105e-01, 3.9787988171864086e-01,
             7.1814196057381186e-01, 7.0790067335869722e-01, 1.,
             1.0075253909401229e-01, 2.8843885920060436e-01,
             5.6928884929119306e-01, -1., -3.0066964090970572e-01,
             -9.5104092144213326e-01, -7.6076414253949320e-01,
             -8.5901240482505969e-01, -1.3007015340504879e-01 ]
         index: [ 106, 112, 124, 127, 128, 131, 132, 135, 166, 167, 170,
             172, 180, 182 ]
      -
         sv_count: 19
         rho: 4.1041529250654192e-02
         alpha: [ 1., 1., 8.8823662428352290e-01, 1.,
             9.5380018901855312e-01, 1., 1., 2.4881132393418062e-01,
             9.5124701475836138e-01, 4.0864575884580717e-01, -1., -1.,
             -1., -1., -5.1743210005640716e-01, -9.3330881078401762e-01,
             -1., -1., -1. ]
         index: [ 105, 106, 112, 113, 124, 127, 128, 130, 135, 141, 190,
             197, 201, 202, 204, 205, 208, 212, 218 ]
      -
         sv_count: 12
         rho: -7.2608915607556598e-02
         alpha: [ 7.3627559129462328e-04, 5.9040044684211612e-01,
             6.9687096704133666e-01, 2.2414111527129743e-02,
             8.9971339904022529e-01, 3.1923506995075740e-01,
             5.0276315311402076e-01, 2.7722640683683752e-01,
             -6.1563254760116237e-01, -8.7466735379125815e-01,
             -8.3356072118147118e-01, -9.8549920736982655e-01 ]
         index: [ 147, 151, 152, 153, 156, 157, 158, 162, 166, 170, 172,
             180 ]
      -
         sv_count: 17
         rho: -7.1334308043431952e-02
         alpha: [ 1.9368636670250816e-01, 1.6790609825300079e-01,
             8.6729719685120799e-01, 7.5811156196735785e-01,
             8.7024238035511814e-01, 6.8453864815889309e-01,
             2.4787223914918205e-01, 1., 1., -1.,
             -4.4785391106444425e-03, -1., -6.7321570206856518e-01,
             -7.5085085492544790e-01, -1., -1., -3.6110939533261105e-01 ]
         index: [ 144, 147, 151, 152, 153, 156, 157, 158, 162, 197, 200,
             201, 202, 204, 208, 212, 218 ]
      -
         sv_count: 39
         rho: 3.7100151819904592e-01
         alpha: [ 1., 1., 1., 1., 1., 1., 1., 1., 8.7081151522943256e-01,
             1., 1., 1., 1.4382282204373670e-01, 6.2344845773769297e-01,
             1., 1., 1., 1., 1., -2.2976859554774076e-01, -1., -1., -1.,
             -1., -1., -1., -1.7376773083156657e-01,
             -5.8873815266435248e-01, -1., -6.6494976245127380e-01, -1.,
             -1., -1., -1., -1., -1., -9.8085855351592899e-01, -1., -1. ]
         index: [ 165, 166, 167, 168, 169, 170, 171, 172, 173, 174, 175,
             176, 177, 178, 179, 180, 181, 182, 183, 185, 187, 188, 189,
             192, 193, 196, 197, 201, 202, 204, 206, 207, 210, 211, 213,
             214, 215, 217, 220 ]
