%YAML:1.0
my_svm: !!opencv-ml-svm
   svm_type: C_SVC
   kernel: { type:RBF, gamma:2. }
   C: 7.
   term_criteria: { epsilon:1.1920928955078125e-007, iterations:1000 }
   var_all: 9
   var_count: 9
   class_count: 7
   class_labels: !!opencv-matrix
      rows: 1
      cols: 7
      dt: i
      data: [ 0, 1, 2, 3, 4, 5, 6 ]
   sv_total: 221
   support_vectors:
      - [ 6.48855716e-002, 9.46331859e-001, 5.64718723e-001,
          7.34947622e-001, 4.07138705e-001, 4.05025899e-001,
          1.65931925e-001, 5.64718723e-001, 6.55547261e-001 ]
      - [ 8.92390236e-002, 9.65036809e-001, 8.01272273e-001,
          8.26158345e-001, 2.58886307e-001, 2.92716086e-001,
          9.62906778e-002, 8.01272273e-001, 8.32880795e-001 ]
      - [ 4.00604397e-001, 6.34193361e-001, 7.22422183e-001,
          7.27625132e-001, 2.52374679e-001, 3.50102305e-001,
          3.51582319e-001, 7.22422183e-001, 6.81703568e-001 ]
      - [ 4.46904302e-001, 5.95429063e-001, 2.90822595e-001,
          4.80223477e-001, 6.71329200e-001, 5.12333035e-001,
          4.81040448e-001, 2.90822595e-001, 6.98840499e-001 ]
      - [ 1.79194838e-001, 8.39309752e-001, 6.39174998e-001,
          7.42728531e-001, 3.70209455e-001, 3.75027150e-001,
          2.06682935e-001, 6.39174998e-001, 6.62813604e-001 ]
      - [ 2.18451962e-001, 7.19682872e-001, 6.60531342e-001,
          6.18334532e-001, 3.30049962e-001, 4.79854345e-001,
          3.75636667e-001, 6.60531342e-001, 3.67588490e-001 ]
      - [ 4.51139454e-003, 9.19555843e-001, 7.59323895e-001,
          6.43993676e-001, 3.98818582e-001, 2.62138247e-001,
          2.27153391e-001, 7.59323895e-001, 3.10452193e-001 ]
      - [ 3.28256041e-001, 7.04042315e-001, 6.18478060e-001,
          6.46766424e-001, 4.25783157e-001, 4.15616304e-001,
          3.41994822e-001, 6.18478060e-001, 6.86110198e-001 ]
      - [ 2.51558840e-001, 7.29894936e-001, 3.96241248e-001,
          4.25900221e-001, 7.16053426e-001, 4.28621113e-001,
          4.52330440e-001, 3.96241248e-001, 5.16284764e-001 ]
      - [ 2.91299939e-001, 7.00368583e-001, 4.46682423e-001,
          4.47995186e-001, 6.31950200e-001, 3.73331428e-001,
          4.75670785e-001, 4.46682423e-001, 5.48321366e-001 ]
      - [ 2.20739782e-001, 7.84160137e-001, 4.37175214e-001,
          5.08964181e-001, 5.94505668e-001, 3.46691430e-001,
          3.76240224e-001, 4.37175214e-001, 6.04363382e-001 ]
      - [ 2.14183420e-001, 8.17101598e-001, 7.46454358e-001,
          8.02396238e-001, 2.88626909e-001, 2.12971911e-001,
          1.74020946e-001, 7.46454358e-001, 7.05154479e-001 ]
      - [ 2.00469330e-001, 8.28143537e-001, 6.74585283e-001,
          7.73634374e-001, 2.86108583e-001, 3.55276585e-001,
          1.93684846e-001, 6.74585283e-001, 6.97745919e-001 ]
      - [ 3.38985115e-001, 6.86146021e-001, 6.51423454e-001,
          7.43875384e-001, 3.17749411e-001, 3.16537589e-001,
          2.94377059e-001, 6.51423454e-001, 6.58832014e-001 ]
      - [ 2.17337042e-001, 7.30758607e-001, 7.14611173e-001,
          6.41011000e-001, 2.85923481e-001, 3.56253535e-001,
          3.58000219e-001, 7.14611173e-001, 4.01723027e-001 ]
      - [ 1.29905179e-001, 8.22736740e-001, 6.40511811e-001,
          6.69873774e-001, 3.38870019e-001, 3.72417599e-001,
          2.64459968e-001, 6.40511811e-001, 4.19421285e-001 ]
      - [ 3.44991803e-001, 6.36220634e-001, 4.30906564e-001,
          3.99675846e-001, 6.83353424e-001, 4.14060920e-001,
          5.34210205e-001, 4.30906564e-001, 5.08129418e-001 ]
      - [ 2.81354636e-001, 6.65374875e-001, 2.24662736e-001,
          2.90443808e-001, 8.08321834e-001, 6.03443742e-001,
          6.20733142e-001, 2.24662736e-001, 3.96428853e-001 ]
      - [ 3.59155297e-001, 6.65133357e-001, 7.63215303e-001,
          7.64837444e-001, 2.75658131e-001, 2.60311574e-001,
          2.69491255e-001, 7.63215303e-001, 6.52572572e-001 ]
      - [ 2.26557359e-001, 7.76990473e-001, 3.16424429e-001,
          4.59790558e-001, 6.61481500e-001, 4.64719594e-001,
          4.27005470e-001, 3.16424429e-001, 5.98530233e-001 ]
      - [ 4.14322406e-001, 5.93856752e-001, 6.94873154e-001,
          7.25710630e-001, 3.66929561e-001, 2.92714804e-001,
          3.22462112e-001, 6.94873154e-001, 5.90485632e-001 ]
      - [ 2.17619553e-001, 7.45637178e-001, 6.62124753e-001,
          6.48458958e-001, 3.92033398e-001, 4.40687835e-001,
          3.14967662e-001, 6.62124753e-001, 4.54500616e-001 ]
      - [ 2.85630703e-001, 6.12178564e-001, 5.92330158e-001,
          5.13479233e-001, 4.25927192e-001, 4.68076915e-001,
          4.95908529e-001, 5.92330158e-001, 2.39559129e-001 ]
      - [ 4.27622348e-001, 5.06141603e-001, 5.86217523e-001,
          3.08371931e-001, 7.02777803e-001, 3.57423693e-001,
          6.79081261e-001, 5.86217523e-001, 3.56221259e-001 ]
      - [ 1.14438705e-001, 8.25125158e-001, 4.30788368e-001,
          3.02826405e-001, 8.25118124e-001, 4.78595525e-001,
          5.43899179e-001, 4.30788368e-001, 3.71643245e-001 ]
      - [ 3.99388582e-001, 5.49347699e-001, 5.47751307e-001,
          3.33152711e-001, 6.75021291e-001, 3.13903272e-001,
          6.49430692e-001, 5.47751307e-001, 4.01777059e-001 ]
      - [ 4.87092882e-001, 5.41008532e-001, 5.65279186e-001,
          6.29029036e-001, 3.71591598e-001, 4.39482987e-001,
          4.17245328e-001, 5.65279186e-001, 6.45569205e-001 ]
      - [ 1.38068840e-001, 8.58102143e-001, 2.85395920e-001,
          4.41750079e-001, 6.46333337e-001, 5.32657385e-001,
          4.31728780e-001, 2.85395920e-001, 5.82875311e-001 ]
      - [ 2.58872151e-001, 7.20815003e-001, 5.95118523e-001,
          5.79900444e-001, 3.24079186e-001, 4.23017144e-001,
          4.07720685e-001, 5.95118523e-001, 5.09540677e-001 ]
      - [ 3.61993015e-001, 6.89782560e-001, 5.11672497e-001,
          7.09003091e-001, 3.66325498e-001, 3.80019426e-001,
          2.66361713e-001, 5.11672497e-001, 7.48763204e-001 ]
      - [ 2.96326160e-001, 6.96815550e-001, 6.74694061e-001,
          6.05513871e-001, 3.77648830e-001, 2.84866333e-001,
          3.74428242e-001, 6.74694061e-001, 5.52981555e-001 ]
      - [ 4.02820349e-001, 6.56492770e-001, 5.71736515e-001,
          6.98749125e-001, 2.78108418e-001, 3.71754050e-001,
          3.37256312e-001, 5.71736515e-001, 7.66240001e-001 ]
      - [ 3.17539394e-001, 7.01224864e-001, 4.41970885e-001,
          5.97469985e-001, 4.10177171e-001, 5.18982947e-001,
          3.92670304e-001, 4.41970885e-001, 6.39924467e-001 ]
      - [ 5.69730937e-001, 5.14446318e-001, 3.33335817e-001,
          6.89391494e-001, 3.61852825e-001, 5.65722108e-001,
          3.99019152e-001, 3.33335817e-001, 8.11417997e-001 ]
      - [ 5.13452053e-001, 4.15864229e-001, 3.61627162e-001,
          3.88456881e-001, 4.78688151e-001, 6.23476803e-001,
          6.92539930e-001, 3.61627162e-001, 3.44793618e-001 ]
      - [ 3.61145437e-001, 7.09141731e-001, 5.22545218e-001,
          7.27326274e-001, 3.11394334e-001, 3.58505815e-001,
          2.88431466e-001, 5.22545218e-001, 8.15926850e-001 ]
      - [ 2.93993354e-001, 6.85492575e-001, 6.39327943e-001,
          5.36872447e-001, 5.03757894e-001, 2.73333460e-001,
          4.38207448e-001, 6.39327943e-001, 5.06163299e-001 ]
      - [ 2.76029140e-001, 7.09333777e-001, 7.18902111e-001,
          6.12488866e-001, 3.81906450e-001, 2.59176582e-001,
          3.40514302e-001, 7.18902111e-001, 5.27906358e-001 ]
      - [ 7.17918336e-001, 3.33211899e-001, 5.08848488e-001,
          6.26817644e-001, 3.36198449e-001, 3.58423203e-001,
          5.39879560e-001, 5.08848488e-001, 6.81526959e-001 ]
      - [ 2.58093655e-001, 7.99870253e-001, 5.52879989e-001,
          7.38880694e-001, 3.64640802e-001, 3.02556515e-001,
          2.14222968e-001, 5.52879989e-001, 7.97405243e-001 ]
      - [ 3.55337739e-001, 6.42311573e-001, 5.19714892e-001,
          5.64812362e-001, 3.97251993e-001, 4.86057729e-001,
          4.41598028e-001, 5.19714892e-001, 5.62164903e-001 ]
      - [ 5.20216763e-001, 5.73687136e-001, 5.35024703e-001,
          7.23600030e-001, 4.22622949e-001, 3.56297702e-001,
          3.08613271e-001, 5.35024703e-001, 8.56368005e-001 ]
      - [ 4.96235341e-001, 5.33329010e-001, 3.21250111e-001,
          5.40103972e-001, 4.71609384e-001, 5.76814711e-001,
          5.25003850e-001, 3.21250111e-001, 6.48883700e-001 ]
      - [ 6.71835899e-001, 3.38412076e-001, 6.07252419e-001,
          6.00280643e-001, 2.97840595e-001, 4.09773409e-001,
          5.47062576e-001, 6.07252419e-001, 5.69559634e-001 ]
      - [ 4.21481162e-001, 5.48228502e-001, 3.43015879e-001,
          3.48529398e-001, 7.13078320e-001, 5.40326416e-001,
          6.25559330e-001, 3.43015879e-001, 4.66482729e-001 ]
      - [ 3.51293862e-001, 6.52101696e-001, 3.25578362e-001,
          4.21488732e-001, 6.10622466e-001, 5.47766507e-001,
          5.35148621e-001, 3.25578362e-001, 5.81990898e-001 ]
      - [ 1.23619907e-001, 8.73114169e-001, 5.60932338e-001,
          6.58166111e-001, 3.88731182e-001, 3.78765762e-001,
          2.46979564e-001, 5.60932338e-001, 5.87124586e-001 ]
      - [ 4.87942487e-001, 5.32642543e-001, 3.02747399e-001,
          3.98820162e-001, 6.29618227e-001, 5.48858404e-001,
          6.22820675e-001, 3.02747399e-001, 6.21283352e-001 ]
      - [ 4.00136322e-001, 6.03272915e-001, 1.88093916e-001,
          4.03147042e-001, 6.31859303e-001, 6.40499592e-001,
          5.65078139e-001, 1.88093916e-001, 5.76379299e-001 ]
      - [ 4.84360814e-001, 5.74814916e-001, 4.58958268e-001,
          6.73558295e-001, 3.06367338e-001, 4.82303083e-001,
          3.92712414e-001, 4.58958268e-001, 7.47898400e-001 ]
      - [ 3.46423268e-001, 5.85404575e-001, 3.18479419e-001,
          2.15013385e-001, 8.73848677e-001, 5.51531911e-001,
          7.13801742e-001, 3.18479419e-001, 3.48890871e-001 ]
      - [ 2.38098651e-001, 7.05800593e-001, 3.67285728e-001,
          2.81509459e-001, 7.95275629e-001, 5.53480387e-001,
          6.17036641e-001, 3.67285728e-001, 3.87188613e-001 ]
      - [ 3.70758772e-001, 6.37384772e-001, 1.44545168e-001,
          3.85077536e-001, 6.48145199e-001, 6.97807014e-001,
          5.76318800e-001, 1.44545168e-001, 5.95661461e-001 ]
      - [ 4.49975580e-001, 5.21089435e-001, 3.43296945e-001,
          3.19226921e-001, 6.70160770e-001, 5.57844162e-001,
          6.96581006e-001, 3.43296945e-001, 4.69323963e-001 ]
      - [ 3.86373103e-001, 6.19710445e-001, 2.05620393e-001,
          4.38268632e-001, 6.56705678e-001, 5.88151872e-001,
          4.98928279e-001, 2.05620393e-001, 5.86822748e-001 ]
      - [ 3.99006605e-001, 6.24043047e-001, 5.56854844e-001,
          6.36526585e-001, 3.37721229e-001, 4.07218844e-001,
          3.76492947e-001, 5.56854844e-001, 6.42084837e-001 ]
      - [ 4.82643008e-001, 5.66251755e-001, 5.86416960e-001,
          6.96779847e-001, 3.43185335e-001, 3.24954629e-001,
          3.46148431e-001, 5.86416960e-001, 7.14098513e-001 ]
      - [ 4.91893768e-001, 5.32544613e-001, 4.04391557e-001,
          4.48645383e-001, 6.28789425e-001, 3.81639868e-001,
          5.50990403e-001, 4.04391557e-001, 6.33049071e-001 ]
      - [ 2.69310415e-001, 6.65511549e-001, 1.78235739e-001,
          3.10684413e-001, 7.72177279e-001, 6.39091849e-001,
          5.91706872e-001, 1.78235739e-001, 3.57110351e-001 ]
      - [ 3.17125708e-001, 6.92098677e-001, 5.31907201e-001,
          5.91254413e-001, 4.99569148e-001, 4.05060828e-001,
          3.64634961e-001, 5.31907201e-001, 6.06485069e-001 ]
      - [ 2.45042637e-001, 8.14526379e-001, 7.97455132e-001,
          9.32404876e-001, 0., 1.07730508e-001, 8.20330381e-002,
          7.97455132e-001, 8.07391107e-001 ]
      - [ 3.91640484e-001, 6.78294480e-001, 5.25250256e-001,
          6.93741083e-001, 3.63123983e-001, 3.47646087e-001,
          3.24716747e-001, 5.25250256e-001, 8.06745768e-001 ]
      - [ 3.38872433e-001, 6.87282443e-001, 8.46320570e-001,
          7.75076509e-001, 2.11653143e-001, 1.67131603e-001,
          2.46264860e-001, 8.46320570e-001, 6.62602067e-001 ]
      - [ 4.93350148e-001, 5.28581440e-001, 5.32447278e-001,
          5.82093954e-001, 2.96605110e-001, 3.28136504e-001,
          5.05270243e-001, 5.32447278e-001, 6.24941766e-001 ]
      - [ 4.67049599e-001, 6.36454344e-001, 6.36361063e-001,
          7.67459393e-001, 3.39205623e-001, 2.43030995e-001,
          2.98290342e-001, 6.36361063e-001, 9.05139744e-001 ]
      - [ 3.84530276e-001, 6.27788246e-001, 6.21546447e-001,
          6.81432903e-001, 3.02503109e-001, 3.98834258e-001,
          3.37991059e-001, 6.21546447e-001, 6.08070135e-001 ]
      - [ 5.41086257e-001, 5.17076492e-001, 6.31585479e-001,
          7.18346059e-001, 2.78426677e-001, 2.95807719e-001,
          3.85253191e-001, 6.31585479e-001, 7.33216286e-001 ]
      - [ 4.98353302e-001, 5.47158539e-001, 5.03291368e-001,
          6.44878864e-001, 2.61676162e-001, 3.50562185e-001,
          4.00182724e-001, 5.03291368e-001, 7.00149715e-001 ]
      - [ 6.55956984e-001, 3.91754299e-001, 4.86188501e-001,
          6.22430146e-001, 1.44319594e-001, 3.91327322e-001,
          5.46465278e-001, 4.86188501e-001, 6.81015134e-001 ]
      - [ 3.36872041e-001, 7.34001756e-001, 4.61227804e-001,
          7.42027760e-001, 1.75260618e-001, 3.34617883e-001,
          2.46547282e-001, 4.61227804e-001, 8.24763238e-001 ]
      - [ 4.65640008e-001, 5.70912004e-001, 6.84602439e-001,
          7.31114328e-001, 2.08084673e-001, 2.74942756e-001,
          3.40959698e-001, 6.84602439e-001, 6.76444769e-001 ]
      - [ 2.98159808e-001, 7.51637697e-001, 5.07048249e-001,
          7.19102323e-001, 2.20640719e-001, 2.54936725e-001,
          2.71735519e-001, 5.07048249e-001, 7.56292999e-001 ]
      - [ 5.32796085e-001, 5.01692116e-001, 3.47022831e-001,
          6.85964584e-001, 2.60275155e-001, 5.59531629e-001,
          4.04044241e-001, 3.47022831e-001, 6.59222364e-001 ]
      - [ 2.87507653e-001, 7.43687153e-001, 5.95071375e-001,
          7.13478863e-001, 3.22558880e-001, 3.55166674e-001,
          2.62696326e-001, 5.95071375e-001, 6.89907491e-001 ]
      - [ 3.63973707e-001, 7.55366147e-001, 8.86980832e-001, 1.,
          4.91542146e-002, 0., 0., 8.86980832e-001, 1. ]
      - [ 6.38097346e-001, 4.49420601e-001, 5.50065160e-001,
          6.86050296e-001, 3.49968433e-001, 4.27206218e-001,
          4.44207579e-001, 5.50065160e-001, 8.06366384e-001 ]
      - [ 4.50941622e-001, 6.58057630e-001, 6.88960493e-001,
          8.91672611e-001, 2.15482786e-002, 1.31081983e-001,
          1.58404320e-001, 6.88960493e-001, 9.29986238e-001 ]
      - [ 5.97896457e-001, 4.66113418e-001, 5.15868187e-001,
          6.84304178e-001, 1.65168062e-001, 2.85081863e-001,
          4.26528990e-001, 5.15868187e-001, 7.40861535e-001 ]
      - [ 6.40031695e-001, 4.54475880e-001, 8.03026676e-001,
          8.33368421e-001, 3.01034451e-002, 5.80911562e-002,
          2.86384702e-001, 8.03026676e-001, 8.27998579e-001 ]
      - [ 3.72273594e-001, 6.66813374e-001, 5.08983016e-001,
          6.45814002e-001, 2.54446924e-001, 3.18582594e-001,
          3.71942282e-001, 5.08983016e-001, 7.01784372e-001 ]
      - [ 3.54609519e-001, 6.45802796e-001, 5.52552283e-001,
          5.92278838e-001, 3.95327687e-001, 4.41869766e-001,
          4.08485115e-001, 5.52552283e-001, 5.71575522e-001 ]
      - [ 5.58239937e-001, 4.97851491e-001, 8.61405790e-001,
          8.70335758e-001, 4.50481288e-002, 1.40036866e-001,
          2.29384527e-001, 8.61405790e-001, 7.23374665e-001 ]
      - [ 6.25610828e-001, 4.57290798e-001, 3.97311568e-001,
          7.24573731e-001, 2.00114354e-001, 3.51607293e-001,
          3.83559972e-001, 3.97311568e-001, 7.94590175e-001 ]
      - [ 3.12570602e-001, 7.21205890e-001, 4.80735660e-001,
          6.51014090e-001, 2.85438627e-001, 3.47112626e-001,
          3.28049988e-001, 4.80735660e-001, 6.94459081e-001 ]
      - [ 5.14791548e-001, 6.02788389e-001, 4.31397289e-001,
          7.82060087e-001, 1.42401025e-001, 3.82656276e-001,
          2.99461514e-001, 4.31397289e-001, 9.39851820e-001 ]
      - [ 2.77127355e-001, 7.61104584e-001, 7.55025983e-001,
          7.79975653e-001, 2.08390146e-001, 1.99196875e-001,
          2.22736672e-001, 7.55025983e-001, 7.18013227e-001 ]
      - [ 4.68874335e-001, 5.95329821e-001, 6.18349016e-001,
          8.13440800e-001, 1.06254600e-001, 3.15868199e-001,
          2.77621031e-001, 6.18349016e-001, 7.68221498e-001 ]
      - [ 5.25510132e-001, 4.44971412e-001, 5.67855656e-001,
          5.17427444e-001, 4.09487277e-001, 4.36887532e-001,
          5.92498243e-001, 5.67855656e-001, 4.64331836e-001 ]
      - [ 2.64974713e-001, 7.91997910e-001, 6.57806396e-001,
          7.72563696e-001, 3.10729772e-001, 2.05869481e-001,
          1.92905217e-001, 6.57806396e-001, 7.91764855e-001 ]
      - [ 7.55489349e-001, 2.17381909e-001, 4.36722517e-001,
          4.83402044e-001, 3.82818937e-001, 4.75849301e-001,
          7.13760316e-001, 4.36722517e-001, 4.61659998e-001 ]
      - [ 3.76220226e-001, 6.81258798e-001, 4.44071621e-001,
          7.86332965e-001, 2.16753021e-001, 4.35012996e-001,
          2.43847951e-001, 4.44071621e-001, 7.66019821e-001 ]
      - [ 3.36479515e-001, 6.59933150e-001, 5.45379043e-001,
          6.08207941e-001, 3.49905550e-001, 4.17307347e-001,
          4.08118427e-001, 5.45379043e-001, 5.60012281e-001 ]
      - [ 5.94962120e-001, 4.37202156e-001, 4.92993236e-001,
          6.12615228e-001, 3.55016470e-001, 5.01451969e-001,
          4.97358680e-001, 4.92993236e-001, 6.42927825e-001 ]
      - [ 4.70914274e-001, 4.52620894e-001, 4.77220833e-001,
          3.55899602e-001, 5.74032307e-001, 5.25415659e-001,
          7.22088277e-001, 4.77220833e-001, 3.27234566e-001 ]
      - [ 6.61531150e-001, 3.91180843e-001, 3.27679306e-001,
          5.78468800e-001, 2.93544948e-001, 4.77440387e-001,
          5.32816648e-001, 3.27679306e-001, 6.95112288e-001 ]
      - [ 3.39295238e-001, 6.44874990e-001, 6.85625792e-001,
          5.41106403e-001, 5.23081064e-001, 3.08093280e-001,
          4.32523608e-001, 6.85625792e-001, 5.18624067e-001 ]
      - [ 6.00935280e-001, 3.78463656e-001, 3.34248602e-001,
          4.35451508e-001, 4.35323894e-001, 5.07132888e-001,
          6.69122934e-001, 3.34248602e-001, 4.86702561e-001 ]
      - [ 4.25412744e-001, 5.53779304e-001, 4.06028152e-001,
          5.11895537e-001, 5.51189542e-001, 6.00736976e-001,
          5.01722217e-001, 4.06028152e-001, 4.96240705e-001 ]
      - [ 6.10322237e-001, 5.00730395e-001, 4.76506919e-001,
          7.63895869e-001, 1.55994222e-001, 3.27079952e-001,
          3.46974313e-001, 4.76506919e-001, 8.89095247e-001 ]
      - [ 6.28731728e-001, 3.62296194e-001, 3.16204876e-001,
          4.28005606e-001, 4.83656377e-001, 4.72823560e-001,
          6.67714238e-001, 3.16204876e-001, 5.18273056e-001 ]
      - [ 3.90458375e-001, 7.05086172e-001, 6.40663087e-001,
          8.66473734e-001, 1.37394428e-001, 1.27658561e-001,
          1.24282524e-001, 6.40663087e-001, 9.00403678e-001 ]
      - [ 2.77510375e-001, 6.46504879e-001, 5.61266363e-001,
          3.75885844e-001, 5.30707538e-001, 5.11370242e-001,
          6.14923596e-001, 5.61266363e-001, 3.22308183e-001 ]
      - [ 6.01351917e-001, 4.48597401e-001, 4.36422497e-001,
          6.51557446e-001, 2.46264130e-001, 3.36570382e-001,
          4.43797410e-001, 4.36422497e-001, 6.96521580e-001 ]
      - [ 4.63032812e-001, 4.78452682e-001, 1.45362601e-001,
          3.00509989e-001, 7.02275813e-001, 6.65024400e-001,
          7.00514317e-001, 1.45362601e-001, 3.79751056e-001 ]
      - [ 6.77162588e-001, 3.22029501e-001, 3.97996187e-001,
          4.71045166e-001, 4.73187327e-001, 5.98285496e-001,
          6.97346091e-001, 3.97996187e-001, 5.37917554e-001 ]
      - [ 6.38072729e-001, 4.26778704e-001, 3.50681275e-001,
          6.71119034e-001, 1.49354622e-001, 4.38964427e-001,
          4.67193693e-001, 3.50681275e-001, 7.36017704e-001 ]
      - [ 4.56200570e-001, 5.22941470e-001, 1.14462182e-001,
          2.40670919e-001, 8.86295974e-001, 7.73177385e-001,
          7.53404379e-001, 1.14462182e-001, 4.94157910e-001 ]
      - [ 5.05854189e-001, 5.60349226e-001, 5.17138124e-001,
          6.93236172e-001, 2.30597824e-001, 2.38963127e-001,
          3.28892440e-001, 5.17138124e-001, 7.66916454e-001 ]
      - [ 6.61021948e-001, 3.27874482e-001, 5.79791427e-001,
          4.74099100e-001, 4.87286329e-001, 2.81259835e-001,
          6.33995712e-001, 5.79791427e-001, 5.10139108e-001 ]
      - [ 3.79842669e-001, 6.41502321e-001, 3.14570725e-001,
          5.75378418e-001, 3.19823056e-001, 4.81856138e-001,
          4.40677524e-001, 3.14570725e-001, 6.39377832e-001 ]
      - [ 4.00645345e-001, 5.51239669e-001, 3.33500892e-001,
          4.56985861e-001, 6.38816833e-001, 5.48167884e-001,
          5.54420292e-001, 3.33500892e-001, 4.11697865e-001 ]
      - [ 6.23437047e-001, 2.89700300e-001, 1.81022078e-001,
          1.90334260e-001, 7.66544819e-001, 6.85485363e-001,
          8.66594017e-001, 1.81022078e-001, 3.03772837e-001 ]
      - [ 4.14574027e-001, 4.74139422e-001, 2.33678982e-001,
          2.23422974e-001, 7.72730172e-001, 6.34257793e-001,
          7.57512391e-001, 2.33678982e-001, 2.23506302e-001 ]
      - [ 5.83948731e-001, 4.49123234e-001, 4.38072860e-001,
          4.71906960e-001, 5.07166803e-001, 3.35775793e-001,
          5.82933486e-001, 4.38072860e-001, 6.47287428e-001 ]
      - [ 3.33296299e-001, 6.87389433e-001, 5.55106103e-001,
          6.20575964e-001, 4.16633934e-001, 3.75900358e-001,
          4.00509357e-001, 5.55106103e-001, 6.44320667e-001 ]
      - [ 3.14186990e-001, 6.81882262e-001, 5.07433057e-001,
          5.56527019e-001, 5.30796587e-001, 4.48184967e-001,
          4.22539055e-001, 5.07433057e-001, 5.61293840e-001 ]
      - [ 6.25706434e-001, 4.45248753e-001, 5.19546449e-001,
          7.18607605e-001, 7.34026730e-002, 3.45535040e-001,
          4.18676138e-001, 5.19546449e-001, 7.57265508e-001 ]
      - [ 4.42443192e-001, 5.54715574e-001, 2.98207939e-001,
          4.70419288e-001, 4.48102713e-001, 5.17701864e-001,
          5.34758449e-001, 2.98207939e-001, 5.51945865e-001 ]
      - [ 5.17063737e-001, 4.88028377e-001, 4.66254324e-001,
          4.89440888e-001, 4.33710307e-001, 4.41677988e-001,
          5.81847966e-001, 4.66254324e-001, 5.69395900e-001 ]
      - [ 4.66579407e-001, 6.02649331e-001, 3.91343385e-001,
          7.49411047e-001, 1.99023765e-002, 4.14093256e-001,
          3.39906603e-001, 3.91343385e-001, 7.85984218e-001 ]
      - [ 3.86412889e-001, 5.40294051e-001, 2.16441840e-001,
          2.00089797e-001, 7.88391650e-001, 6.54332519e-001,
          7.76848316e-001, 2.16441840e-001, 3.34235966e-001 ]
      - [ 3.72736573e-001, 6.76255167e-001, 4.25936013e-001,
          6.59871042e-001, 2.59597600e-001, 3.27095032e-001,
          3.41116428e-001, 4.25936013e-001, 7.36665428e-001 ]
      - [ 4.65563029e-001, 4.59037989e-001, 4.19086128e-001,
          4.01173502e-001, 5.84766209e-001, 5.75289249e-001,
          6.49108946e-001, 4.19086128e-001, 3.30151081e-001 ]
      - [ 4.78147209e-001, 4.51242268e-001, 4.07858640e-001,
          3.02997887e-001, 7.60581493e-001, 4.06020880e-001,
          6.70776784e-001, 4.07858640e-001, 3.44413489e-001 ]
      - [ 3.26461226e-001, 6.82350695e-001, 5.40496886e-001,
          5.90096116e-001, 4.34007883e-001, 4.08765882e-001,
          4.17915165e-001, 5.40496886e-001, 6.03897750e-001 ]
      - [ 4.60315973e-001, 5.58459222e-001, 2.30514199e-001,
          4.85484272e-001, 6.03656590e-001, 6.87954187e-001,
          5.54356098e-001, 2.30514199e-001, 6.19319558e-001 ]
      - [ 8.10564339e-001, 2.58282721e-001, 4.56746995e-001,
          6.71178937e-001, 1.21124975e-001, 3.57454628e-001,
          5.16471505e-001, 4.56746995e-001, 7.17867136e-001 ]
      - [ 8.34493160e-001, 9.16660205e-002, 1.54857278e-001,
          2.50635415e-001, 6.49080813e-001, 7.17205226e-001,
          9.07861531e-001, 1.54857278e-001, 3.42839479e-001 ]
      - [ 4.00728166e-001, 6.01724684e-001, 3.21391374e-001,
          4.88917321e-001, 5.37062109e-001, 4.36598867e-001,
          4.99502122e-001, 3.21391374e-001, 5.73359370e-001 ]
      - [ 3.83504689e-001, 5.39942801e-001, 5.75367928e-001,
          4.58255351e-001, 3.36230695e-001, 4.28080261e-001,
          6.07817233e-001, 5.75367928e-001, 3.24173957e-001 ]
      - [ 4.08246696e-001, 5.56509495e-001, 4.23321456e-001,
          3.99010390e-001, 5.37832201e-001, 5.35395086e-001,
          6.56211853e-001, 4.23321456e-001, 4.51675862e-001 ]
      - [ 3.99341434e-001, 5.14901936e-001, 2.22980052e-001,
          1.88258231e-001, 8.58682096e-001, 6.78855002e-001,
          7.55536795e-001, 2.22980052e-001, 2.97136426e-001 ]
      - [ 4.75510508e-001, 4.78904098e-001, 3.10141206e-001,
          3.79824370e-001, 5.82014203e-001, 5.03988624e-001,
          6.44360721e-001, 3.10141206e-001, 4.18059438e-001 ]
      - [ 2.85633564e-001, 6.49629116e-001, 5.14271438e-001,
          5.03591239e-001, 3.38244587e-001, 4.77637798e-001,
          5.12135625e-001, 5.14271438e-001, 3.58937413e-001 ]
      - [ 5.44396281e-001, 3.64117056e-001, 0., 1.94675401e-001,
          8.94605696e-001, 8.57080460e-001, 8.39024127e-001, 0.,
          2.87795991e-001 ]
      - [ 5.13720810e-001, 4.33031172e-001, 3.15733314e-001,
          2.68941373e-001, 6.12307966e-001, 6.92493737e-001,
          8.15461397e-001, 3.15733314e-001, 3.95099103e-001 ]
      - [ 4.18177485e-001, 5.42875051e-001, 4.02226716e-001,
          3.88148695e-001, 5.78394592e-001, 5.03115714e-001,
          6.36267602e-001, 4.02226716e-001, 4.39763606e-001 ]
      - [ 5.58082044e-001, 3.60299140e-001, 2.73385853e-001,
          2.03279719e-001, 7.25497544e-001, 6.63437366e-001,
          8.86184752e-001, 2.73385853e-001, 3.15524697e-001 ]
      - [ 5.35799265e-001, 4.12026644e-001, 3.77864242e-001,
          4.32896882e-001, 5.43970823e-001, 4.57388848e-001,
          6.01085782e-001, 3.77864242e-001, 3.98022711e-001 ]
      - [ 2.59135008e-001, 6.68344140e-001, 4.34498399e-001,
          4.50208873e-001, 5.07445514e-001, 5.84314048e-001,
          5.42223930e-001, 4.34498399e-001, 3.32921922e-001 ]
      - [ 3.99975687e-001, 5.16915619e-001, 3.51446360e-001,
          1.64988682e-001, 9.08011258e-001, 5.55179477e-001,
          7.65107691e-001, 3.51446360e-001, 3.05064410e-001 ]
      - [ 5.96476674e-001, 3.96839529e-001, 3.08639944e-001,
          6.33887947e-001, 1.84118643e-001, 4.93363678e-001,
          4.75601047e-001, 3.08639944e-001, 5.27201951e-001 ]
      - [ 4.38459784e-001, 5.84861040e-001, 3.53791833e-001,
          5.17024100e-001, 5.66181302e-001, 5.50730109e-001,
          4.93895590e-001, 3.53791833e-001, 6.37262046e-001 ]
      - [ 4.51817632e-001, 5.60627878e-001, 3.55786592e-001,
          5.10968804e-001, 5.42381942e-001, 5.33717036e-001,
          5.29107749e-001, 3.55786592e-001, 5.99954367e-001 ]
      - [ 4.11844850e-001, 6.23170197e-001, 7.07371056e-001,
          7.36828327e-001, 2.26621613e-001, 2.22027257e-001,
          2.92107224e-001, 7.07371056e-001, 6.80591524e-001 ]
      - [ 5.79899073e-001, 3.77498955e-001, 1.56810984e-001,
          4.91059244e-001, 4.88838375e-001, 7.19102621e-001,
          6.10379815e-001, 1.56810984e-001, 4.24678028e-001 ]
      - [ 2.36661553e-001, 6.44243658e-001, 5.21589458e-001,
          3.59699547e-001, 4.37976837e-001, 5.18250406e-001,
          6.19713902e-001, 5.21589458e-001, 1.81758910e-001 ]
      - [ 3.51730108e-001, 6.33206606e-001, 3.12051684e-001,
          4.15601313e-001, 6.98958099e-001, 5.26825726e-001,
          5.66711247e-001, 3.12051684e-001, 5.20139635e-001 ]
      - [ 4.20368165e-001, 4.49033409e-001, 2.23148808e-001,
          1.47449858e-002, 1., 6.60117149e-001, 9.46449757e-001,
          2.23148808e-001, 1.69189841e-001 ]
      - [ 4.90206540e-001, 5.64179182e-001, 6.02985501e-001,
          7.85493076e-001, 1.22763343e-001, 3.04729462e-001,
          3.02600026e-001, 6.02985501e-001, 7.30912626e-001 ]
      - [ 5.61933875e-001, 4.03828263e-001, 3.84723902e-001,
          3.26018572e-001, 6.89605892e-001, 5.32010376e-001,
          7.10843444e-001, 3.84723902e-001, 4.49095696e-001 ]
      - [ 5.88801205e-001, 4.16232735e-001, 1.99114531e-001,
          4.31275994e-001, 5.84280550e-001, 6.92793190e-001,
          6.64483190e-001, 1.99114531e-001, 5.62315702e-001 ]
      - [ 3.65069658e-001, 5.51630974e-001, 2.87436604e-001,
          2.26257384e-001, 8.29920053e-001, 6.06815457e-001,
          7.15120018e-001, 2.87436604e-001, 3.02930593e-001 ]
      - [ 4.50946033e-001, 4.88615423e-001, 4.72601205e-001,
          2.42958724e-001, 8.57916832e-001, 4.13503021e-001,
          7.07489491e-001, 4.72601205e-001, 3.73928785e-001 ]
      - [ 3.70155871e-001, 5.79874277e-001, 3.62058550e-001,
          3.09737295e-001, 6.49814665e-001, 5.75313926e-001,
          7.04148650e-001, 3.62058550e-001, 4.06341851e-001 ]
      - [ 5.79813540e-001, 4.41295713e-001, 5.23128629e-001,
          6.42258346e-001, 3.21993470e-001, 4.80930597e-001,
          4.56477851e-001, 5.23128629e-001, 6.11408234e-001 ]
      - [ 5.46682179e-001, 4.77148384e-001, 4.46391970e-001,
          7.10510254e-001, 1.12835050e-001, 3.42177063e-001,
          3.93059760e-001, 4.46391970e-001, 6.23953402e-001 ]
      - [ 3.69991153e-001, 6.44880176e-001, 3.55300009e-001,
          4.64759052e-001, 4.75713044e-001, 6.21538937e-001,
          5.80955088e-001, 3.55300009e-001, 6.18766665e-001 ]
      - [ 4.75644320e-001, 5.38167357e-001, 4.67375040e-001,
          6.49604917e-001, 5.38210332e-001, 4.50052291e-001,
          3.60440582e-001, 4.67375040e-001, 6.01341665e-001 ]
      - [ 6.13690853e-001, 4.37216163e-001, 5.51491201e-001,
          6.77501559e-001, 3.51474047e-001, 3.66976142e-001,
          4.66027349e-001, 5.51491201e-001, 6.97369277e-001 ]
      - [ 3.17670405e-001, 6.72252476e-001, 6.15146816e-001,
          7.05387771e-001, 3.27346832e-001, 3.52031589e-001,
          3.14877898e-001, 6.15146816e-001, 5.39849102e-001 ]
      - [ 3.53825539e-001, 6.58825278e-001, 4.89130765e-001,
          6.55794561e-001, 4.50262040e-001, 4.39828455e-001,
          3.52961332e-001, 4.89130765e-001, 6.13318264e-001 ]
      - [ 4.77594852e-001, 5.03413260e-001, 5.97466528e-001,
          5.87942302e-001, 3.71035248e-001, 4.68658805e-001,
          5.05872369e-001, 5.97466528e-001, 4.98544753e-001 ]
      - [ 4.61385041e-001, 5.58191836e-001, 4.11909312e-001,
          5.41456461e-001, 5.42769849e-001, 5.30881107e-001,
          4.96797264e-001, 4.11909312e-001, 6.21720791e-001 ]
      - [ 2.53032416e-001, 6.68814003e-001, 4.50729668e-001,
          5.09000897e-001, 4.37042028e-001, 5.72383046e-001,
          5.00223041e-001, 4.50729668e-001, 3.14249337e-001 ]
      - [ 5.98092258e-001, 3.87310624e-001, 5.28744817e-001,
          6.06249332e-001, 4.51052040e-001, 4.70324188e-001,
          4.87111032e-001, 5.28744817e-001, 5.04039109e-001 ]
      - [ 3.78749788e-001, 6.20785475e-001, 4.20754075e-001,
          6.12484097e-001, 4.72224474e-001, 5.11412740e-001,
          4.02623773e-001, 4.20754075e-001, 5.66045225e-001 ]
      - [ 1.94934428e-001, 8.44281614e-001, 4.59087163e-001,
          6.96006238e-001, 4.38648880e-001, 4.88678485e-001,
          2.40791604e-001, 4.59087163e-001, 7.40521908e-001 ]
      - [ 6.57332182e-001, 3.90092641e-001, 3.49070638e-001,
          6.23547912e-001, 4.40112948e-001, 5.34893036e-001,
          5.04991949e-001, 3.49070638e-001, 6.79888666e-001 ]
      - [ 3.39469075e-001, 6.50526226e-001, 3.80791396e-001,
          6.07547224e-001, 4.44637716e-001, 5.51435351e-001,
          4.06594396e-001, 3.80791396e-001, 5.38035572e-001 ]
      - [ 2.89456040e-001, 7.11191833e-001, 7.48602867e-001,
          6.89135253e-001, 3.61906707e-001, 3.13342273e-001,
          3.07810873e-001, 7.48602867e-001, 5.80059648e-001 ]
      - [ 2.53368139e-001, 7.11134434e-001, 6.66804433e-001,
          6.27943575e-001, 4.33212548e-001, 2.63430715e-001,
          3.58355165e-001, 6.66804433e-001, 4.57301497e-001 ]
      - [ 8.45154226e-002, 8.69818687e-001, 5.81398666e-001,
          6.01804018e-001, 4.29394394e-001, 4.64517325e-001,
          3.24281693e-001, 5.81398666e-001, 4.27016497e-001 ]
      - [ 3.83144140e-001, 6.17916465e-001, 2.73585260e-001,
          4.95584279e-001, 7.57063687e-001, 5.60128450e-001,
          4.66370553e-001, 2.73585260e-001, 5.70621490e-001 ]
      - [ 1.50694594e-001, 9.02583122e-001, 5.49943149e-001,
          7.42211819e-001, 4.60241824e-001, 3.92232865e-001,
          1.53192103e-001, 5.49943149e-001, 8.09364796e-001 ]
      - [ 4.62958336e-001, 5.75205445e-001, 6.19298995e-001,
          6.88945651e-001, 3.98212075e-001, 3.54681432e-001,
          3.57009977e-001, 6.19298995e-001, 6.82262719e-001 ]
      - [ 7.07295418e-001, 2.66262323e-001, 4.05345887e-001,
          5.07818639e-001, 3.81979674e-001, 5.66994607e-001,
          6.94206893e-001, 4.05345887e-001, 4.65449303e-001 ]
      - [ 6.69205308e-001, 3.78841639e-001, 5.49852908e-001,
          6.64974213e-001, 2.66051412e-001, 4.60298032e-001,
          5.31557143e-001, 5.49852908e-001, 6.79926217e-001 ]
      - [ 4.37626570e-001, 5.53036988e-001, 6.08072519e-001,
          7.13027239e-001, 3.79407734e-001, 3.10048133e-001,
          3.21663171e-001, 6.08072519e-001, 5.31622350e-001 ]
      - [ 2.83566207e-001, 6.98822141e-001, 4.45110887e-001,
          6.15480959e-001, 5.13635993e-001, 5.09227514e-001,
          3.56132299e-001, 4.45110887e-001, 5.17003357e-001 ]
      - [ 2.07255453e-001, 8.51028442e-001, 5.88129818e-001,
          7.75264204e-001, 4.42253888e-001, 2.87826121e-001,
          1.47595942e-001, 5.88129818e-001, 8.13058674e-001 ]
      - [ 8.58027935e-001, 2.12229207e-001, 3.86246920e-001,
          6.04479432e-001, 4.39401001e-001, 4.99373138e-001,
          6.07256472e-001, 3.86246920e-001, 7.14142025e-001 ]
      - [ 7.41528690e-001, 3.05744529e-001, 4.14776295e-001,
          5.95236719e-001, 5.91931820e-001, 4.99233574e-001,
          5.15903175e-001, 4.14776295e-001, 6.67082787e-001 ]
      - [ 4.98396903e-001, 5.08907616e-001, 6.36271596e-001,
          6.96619630e-001, 3.63074064e-001, 3.03337872e-001,
          3.76878291e-001, 6.36271596e-001, 5.78239083e-001 ]
      - [ 4.81707424e-001, 5.10210335e-001, 5.05966425e-001,
          6.03831530e-001, 4.07787204e-001, 4.83244956e-001,
          4.73621964e-001, 5.05966425e-001, 5.31892836e-001 ]
      - [ 4.36909884e-001, 6.44388318e-001, 5.11383593e-001,
          7.09292710e-001, 5.13391376e-001, 3.73232782e-001,
          2.87845880e-001, 5.11383593e-001, 8.35251272e-001 ]
      - [ 5.07716119e-001, 5.92601836e-001, 5.27716219e-001,
          7.13002026e-001, 3.74802828e-001, 3.61117572e-001,
          3.75881135e-001, 5.27716219e-001, 8.81906331e-001 ]
      - [ 6.90794349e-001, 3.90983969e-001, 6.37559295e-001,
          6.76521957e-001, 3.24079871e-001, 3.55912983e-001,
          4.91696209e-001, 6.37559295e-001, 7.77355075e-001 ]
      - [ 6.05263710e-001, 2.50487596e-001, 3.38052124e-001,
          2.08955899e-001, 5.65978229e-001, 1., 9.14919615e-001,
          3.38052124e-001, 1.53635174e-001 ]
      - [ 3.74746978e-001, 6.48161650e-001, 4.91167039e-001,
          6.62488759e-001, 4.40205932e-001, 4.43468422e-001,
          3.43591362e-001, 4.91167039e-001, 6.45420909e-001 ]
      - [ 3.03337812e-001, 7.41958201e-001, 6.49003804e-001,
          7.19748795e-001, 4.02393669e-001, 3.21995020e-001,
          2.76792377e-001, 6.49003804e-001, 7.38458514e-001 ]
      - [ 5.51536798e-001, 5.20054996e-001, 5.96655905e-001,
          6.90009773e-001, 3.90699685e-001, 3.70785028e-001,
          4.05276865e-001, 5.96655905e-001, 7.74630249e-001 ]
      - [ 2.74993896e-001, 7.15153515e-001, 3.36478025e-001,
          5.77762842e-001, 6.86613858e-001, 4.47492689e-001,
          3.53633225e-001, 3.36478025e-001, 5.44742167e-001 ]
      - [ 4.49448198e-001, 5.31029940e-001, 3.27129841e-001,
          5.08641183e-001, 5.40170014e-001, 5.67433357e-001,
          5.20788789e-001, 3.27129841e-001, 4.98655826e-001 ]
      - [ 5.73375642e-001, 3.58429193e-001, 5.01022816e-001,
          4.73988831e-001, 5.66798151e-001, 4.42026287e-001,
          6.19154572e-001, 5.01022816e-001, 3.52898091e-001 ]
      - [ 4.42925125e-001, 5.91546774e-001, 3.32190037e-001,
          6.36572361e-001, 4.50913012e-001, 4.82765079e-001,
          4.17998046e-001, 3.32190037e-001, 6.73345745e-001 ]
      - [ 5.35471976e-001, 4.79709953e-001, 4.28954393e-001,
          6.22810960e-001, 4.24089611e-001, 4.77563053e-001,
          4.85312849e-001, 4.28954393e-001, 5.98479152e-001 ]
      - [ 5.63810647e-001, 4.23752785e-001, 2.76002079e-001,
          4.01755989e-001, 6.15032434e-001, 5.54439664e-001,
          6.96383476e-001, 2.76002079e-001, 5.12559950e-001 ]
      - [ 5.58983505e-001, 4.44961429e-001, 1.60652786e-001,
          4.26394761e-001, 8.02509427e-001, 6.32136643e-001,
          6.09982789e-001, 1.60652786e-001, 5.61749518e-001 ]
      - [ 1.66112080e-001, 7.78172791e-001, 2.44719565e-001,
          4.39320892e-001, 7.67910302e-001, 6.11634612e-001,
          4.66600507e-001, 2.44719565e-001, 3.88809294e-001 ]
      - [ 2.77430981e-001, 6.38576627e-001, 4.54770684e-001,
          4.64785099e-001, 6.09168112e-001, 4.75828648e-001,
          5.19451201e-001, 4.54770684e-001, 2.96469808e-001 ]
      - [ 1.42217785e-001, 8.25104594e-001, 4.81621712e-001,
          7.00287819e-001, 3.82609248e-001, 4.27521437e-001,
          2.28314877e-001, 4.81621712e-001, 4.73157138e-001 ]
      - [ 5.04791021e-001, 5.35327137e-001, 3.32803845e-001,
          5.90536952e-001, 6.30645752e-001, 4.58789617e-001,
          4.21656519e-001, 3.32803845e-001, 6.81585312e-001 ]
      - [ 6.03153884e-001, 3.60381156e-001, 4.60209608e-001,
          5.53840458e-001, 4.51659322e-001, 4.26521003e-001,
          5.52793384e-001, 4.60209608e-001, 4.41387355e-001 ]
      - [ 4.63339508e-001, 5.24904251e-001, 3.82293880e-001,
          6.03853643e-001, 3.77635270e-001, 5.31102955e-001,
          4.68081027e-001, 3.82293880e-001, 5.21894336e-001 ]
      - [ 2.88896322e-001, 6.95706725e-001, 6.25895739e-001,
          6.81166589e-001, 1.38585836e-001, 3.51481080e-001,
          3.65201890e-001, 6.25895739e-001, 5.24138927e-001 ]
      - [ 3.94307673e-001, 6.08218908e-001, 3.77629369e-001,
          5.77841341e-001, 6.51818275e-001, 4.69760120e-001,
          4.07459646e-001, 3.77629369e-001, 5.74196577e-001 ]
      - [ 6.80070877e-001, 4.15342033e-001, 3.52890521e-001,
          5.45072496e-001, 6.48333073e-001, 5.12966216e-001,
          5.50482154e-001, 3.52890521e-001, 8.21487248e-001 ]
      - [ 4.89882886e-001, 5.44179559e-001, 4.19482321e-001,
          6.51635349e-001, 4.80373383e-001, 4.06810015e-001,
          3.77303660e-001, 4.19482321e-001, 6.64398968e-001 ]
      - [ 3.63595456e-001, 6.45800114e-001, 4.93987232e-001,
          6.84985697e-001, 4.08328086e-001, 4.08762962e-001,
          3.15054655e-001, 4.93987232e-001, 6.00886762e-001 ]
      - [ 4.15599257e-001, 5.66542566e-001, 6.28462732e-001,
          6.73156917e-001, 1.45461515e-001, 3.51698905e-001,
          4.09291655e-001, 6.28462732e-001, 5.06170034e-001 ]
      - [ 4.58706826e-001, 5.45035183e-001, 3.85132313e-001,
          5.85410118e-001, 6.29202306e-001, 4.75289375e-001,
          4.13559228e-001, 3.85132313e-001, 5.71170270e-001 ]
      - [ 7.35858321e-001, 2.58388668e-001, 1.55159295e-001,
          4.28729504e-001, 6.72585130e-001, 7.09022343e-001,
          7.25664556e-001, 1.55159295e-001, 5.19938350e-001 ]
      - [ 4.51941520e-001, 4.69553709e-001, 3.16829145e-001,
          4.07849342e-001, 5.96377969e-001, 6.32081985e-001,
          6.43932641e-001, 3.16829145e-001, 3.20616215e-001 ]
      - [ 3.26792806e-001, 6.33610308e-001, 4.08571780e-001,
          5.94449878e-001, 4.31470633e-001, 5.01351058e-001,
          4.05546159e-001, 4.08571780e-001, 4.40572262e-001 ]
      - [ 4.95195210e-001, 4.96207237e-001, 3.28562319e-001,
          5.33081353e-001, 5.45004547e-001, 4.89424884e-001,
          5.07733405e-001, 3.28562319e-001, 5.29176772e-001 ]
      - [ 4.41238314e-001, 5.22054136e-001, 1.73799351e-001,
          4.68537092e-001, 7.10765362e-001, 6.34570599e-001,
          5.56502998e-001, 1.73799351e-001, 4.45813596e-001 ]
      - [ 1., 0., 3.58567774e-001, 5.27673900e-001, 3.95688117e-001,
          5.24589360e-001, 7.39542425e-001, 3.58567774e-001,
          5.18323123e-001 ]
      - [ 7.06157029e-001, 2.73207277e-001, 3.23463976e-001,
          5.11955142e-001, 4.56876874e-001, 5.73853016e-001,
          6.39676094e-001, 3.23463976e-001, 4.81177539e-001 ]
      - [ 5.65723836e-001, 3.94422859e-001, 5.67673683e-001,
          4.77108538e-001, 5.33341348e-001, 3.67072850e-001,
          6.45442843e-001, 5.67673683e-001, 4.32770401e-001 ]
      - [ 6.47359788e-001, 3.38266581e-001, 3.25018704e-001,
          5.40787280e-001, 4.31384802e-001, 4.82863963e-001,
          5.96007586e-001, 3.25018704e-001, 5.01652598e-001 ]
   decision_functions:
      -
         sv_count: 36
         rho: 1.7688742912121483e-001
         alpha: [ 6.6459971689944615e+000, 7., 7.,
             5.4705570539852735e+000, 3.8679546968426165e-001, 7., 7.,
             7., 7., 7., 5.2666053237178447e+000, 7., 7., 7., 7., 7.,
             -7., -7.5063192789642030e-001, -7., -7.,
             -5.7565867940011062e+000, -7., -7., -7., -7.,
             -1.0041512144355083e+000, -2.3114258874130954e-002,
             -5.4944605800248389e+000, -3.0533586597300277e+000, -7.,
             -4.6116969776307455e+000, -7., -6.0459613420160876e+000,
             -4.2152051802046957e+000, -8.1478808156827454e-001, -7. ]
         index: [ 0, 2, 3, 4, 6, 7, 8, 9, 10, 13, 14, 16, 17, 19, 20, 22,
             24, 25, 27, 28, 29, 30, 36, 37, 39, 40, 43, 44, 45, 46, 51,
             54, 56, 57, 58, 59 ]
      -
         sv_count: 22
         rho: -5.6905266159289192e-001
         alpha: [ 7., 3.9091685644302956e+000, 7.,
             1.6916749490014715e+000, 7., 5.6838959832918858e+000, 7.,
             7., 7., 4.6160927255891115e+000, -1.3864296964750264e-001,
             -7., -2.4144709542456742e+000, -7.,
             -1.6992707531060203e+000, -7., -7.,
             -1.1933014372152972e+000, -7., -3.4551461080982691e+000,
             -7., -7. ]
         index: [ 2, 3, 7, 10, 11, 12, 13, 18, 20, 22, 60, 62, 64, 65,
             70, 73, 80, 81, 85, 87, 88, 91 ]
      -
         sv_count: 24
         rho: 3.4677457709100794e-002
         alpha: [ 5.3774093953432600e-001, 1.8739956388867738e+000, 7.,
             1.1104665753287244e+000, 7., 7., 1.7419323628984003e+000,
             7., 7., 7., 4.4739187677834291e+000, 7., -7.,
             -6.0657286094528047e+000, -5.4362350479378527e+000,
             -3.5882732818243044e+000, -5.6893620980201787e+000, -7.,
             -7., -2.1522850537775033e+000, -6.6724242113929688e-001,
             -7., -1.3892777227971065e-001, -7. ]
         index: [ 1, 2, 3, 5, 7, 9, 10, 13, 16, 17, 20, 22, 95, 100, 101,
             106, 110, 114, 115, 120, 123, 124, 125, 128 ]
      -
         sv_count: 17
         rho: 3.0634695409445734e-001
         alpha: [ 7., 7., 1.1194560787621013e+000,
             5.1104631363275548e+000, 7., 7., 7., -7.,
             -6.8985030845300299e-001, -2.7491027718738481e+000, -7.,
             -7., -5.4306812289167072e-001, -7.,
             -3.5333638494355104e+000, -2.3660403683354736e+000,
             -3.3484937941001487e+000 ]
         index: [ 2, 3, 9, 13, 16, 17, 22, 133, 134, 139, 142, 144, 146,
             147, 149, 152, 153 ]
      -
         sv_count: 32
         rho: -2.9985498553143582e-002
         alpha: [ 7., 7., 7., 7., 3.0730777060341019e+000, 7.,
             4.4522712039583263e+000, 7., 4.8365238769517243e+000, 7.,
             1.1794050814130994e+000, 2.5768092360493098e+000, 7., 7.,
             7., -7., -3.9948763263744471e+000, -1.2934413346010225e+000,
             -7., -4.3746424375300004e+000, -7., -7., -7., -7., -7., -7.,
             -1.7191822984874563e+000, -3.1464738599735447e+000,
             -5.9566769271083073e+000, -2.0667754381494547e+000,
             -5.6601848218232997e-001, -7. ]
         index: [ 0, 2, 3, 4, 5, 7, 9, 10, 12, 13, 17, 19, 20, 21, 22,
             160, 162, 163, 164, 167, 170, 171, 172, 173, 174, 175, 178,
             179, 180, 183, 188, 190 ]
      -
         sv_count: 23
         rho: -2.6988501409113290e-002
         alpha: [ 3.1662098147869968e+000, 7., 4.4012513612550528e+000,
             3.2189699425902791e+000, 3.1728764466704745e-001, 7.,
             7.3777634247716761e-001, 2.2417142130530436e+000, 7., 7.,
             3.2309545137922595e+000, 7., -7., -4.7268751764681101e+000,
             -7., -7., -5.1027074801775996e+000, -7.,
             -1.7278844917729330e+000, -1.3312260139251035e+000,
             -5.6403908941025875e+000, -2.6781456310719487e+000,
             -3.1069341451035664e+000 ]
         index: [ 0, 3, 5, 8, 10, 13, 15, 16, 17, 19, 20, 22, 192, 198,
             199, 200, 201, 205, 206, 207, 209, 210, 219 ]
      -
         sv_count: 35
         rho: -3.7236102186353270e-001
         alpha: [ 7., 7., 7., 7., 7., 5.9960096234858486e+000, 7., 7.,
             3.0544913229844690e+000, 7., 7., 3.8406710380292957e+000,
             7., 7., 7., 7., 7., -7., -7., -7., -7.,
             -5.3125797306866485e+000, -7.5095492358517479e-001, -7.,
             -7., -7., -2.2519215956204253e+000, -7., -7., -7.,
             -6.9391169221913618e+000, -5.4370777173202844e+000,
             -6.1995210950957143e+000, -7., -7. ]
         index: [ 26, 28, 29, 30, 31, 33, 34, 35, 37, 38, 39, 40, 41, 43,
             49, 55, 56, 61, 63, 64, 65, 66, 67, 72, 73, 75, 79, 80, 83,
             87, 88, 89, 90, 91, 92 ]
      -
         sv_count: 50
         rho: 4.8472164860015238e-001
         alpha: [ 7., 7., 7., 7., 4.6905343062280114e+000, 7., 7., 7.,
             7., 3.5324942435126749e-001, 7., 7., 7., 7.,
             3.3362655722652024e-001, 7., 7., 7.,
             2.9711391791956054e+000, 1.1127875826382515e-001, 7.,
             3.3808027073555182e+000, 4.0859004020608856e+000, 7., 7.,
             7., -3.1134852979600769e+000, -7., -7., -7.,
             -2.5735335497858576e+000, -7., -4.6402280317277196e+000,
             -7., -1.3530909727306930e+000, -7.,
             -6.6612841859168377e+000, -7., -7., -7., -7.,
             -4.5849092965604639e+000, -7., -7., -7., -7., -7., -7., -7.,
             -7. ]
         index: [ 23, 25, 28, 32, 33, 34, 35, 36, 38, 39, 40, 42, 43, 44,
             46, 47, 48, 49, 50, 52, 53, 54, 55, 56, 57, 58, 93, 95, 97,
             98, 100, 101, 104, 106, 107, 108, 109, 110, 113, 114, 115,
             116, 117, 118, 120, 121, 123, 124, 125, 128 ]
      -
         sv_count: 39
         rho: -1.8856499737340154e-001
         alpha: [ 7., 3.4052518030495635e+000, 7.,
             2.1388146776984160e+000, 7., 7., 7., 7., 7.,
             3.6765143254474131e+000, 7., 7., 7., 7., 7., 7.,
             5.9141934774478706e+000, 4.6148192513952093e+000,
             -2.8895246579946616e+000, -7., -1.2327329039906778e+000,
             -4.6172802251382183e+000, -4.5914749016888529e-001, -7.,
             -1.2906763559253154e+000, -3.3829957351013187e+000,
             -4.1692803040466160e+000, -7., -7., -7., -7.,
             -6.1373853880078570e+000, -7., -7., -7.,
             -6.8984888038109569e+000, -7., -2.6720816708539719e+000,
             -7. ]
         index: [ 23, 25, 28, 31, 34, 40, 42, 43, 44, 45, 47, 48, 49, 50,
             51, 53, 56, 58, 129, 130, 131, 133, 134, 136, 138, 139, 140,
             142, 143, 144, 147, 149, 151, 152, 153, 154, 155, 156, 157 ]
      -
         sv_count: 52
         rho: 4.8906957639863624e-001
         alpha: [ 1.3448571699128689e+000, 7., 2.7135633514983306e+000,
             7., 7., 7., 7., 7., 7., 6.1096447738108379e+000, 7., 7., 7.,
             7., 7., 7., 7., 2.6455041220397462e+000, 7., 7.,
             5.5940954094370108e+000, 7., 7., 6.4596772815909353e-001,
             1.4947300200857468e-002, 7., -7., -7., -7., -7., -7.,
             -6.2928078837782273e+000, -7., -7., -7., -7., -7., -7.,
             -5.6100593767699376e+000, -7., -7.,
             -4.0774352755357777e+000, -7., -4.7858057313209734e+000,
             -1.4298046653359366e+000, -1.7908777663318785e+000, -7.,
             -7.2450687587989504e-002, -2.0093384683980191e+000, -7.,
             -7., -7. ]
         index: [ 24, 26, 27, 28, 29, 30, 32, 33, 34, 36, 37, 38, 39, 40,
             41, 42, 43, 44, 46, 49, 54, 55, 56, 57, 58, 59, 159, 160,
             161, 162, 163, 164, 166, 167, 168, 169, 170, 171, 172, 173,
             175, 176, 177, 180, 184, 185, 186, 187, 188, 189, 190, 191 ]
      -
         sv_count: 35
         rho: -1.8609393926591089e-001
         alpha: [ 2.1098599469508521e+000, 7., 3.7884306875722262e+000,
             7., 7., 1.6967670677167705e+000, 7., 7., 7.,
             4.7145970704606546e+000, 7., 3.3506728867134292e+000,
             2.6105503720040035e+000, 7., 6.7776217441927393e+000, 7.,
             5.9618949705853685e+000, -3.3874802064270049e-001, -7., -7.,
             -7., -7., -2.2118797154573655e+000, -7.,
             -4.0261864839976491e+000, -2.2741965232153851e+000,
             -5.0419849048957177e-001, -7., -7., -7., -7., -7.,
             -6.5191951591420523e+000, -1.1359903532513231e+000, -7. ]
         index: [ 23, 28, 29, 33, 34, 37, 38, 40, 42, 43, 44, 46, 47, 54,
             55, 57, 58, 192, 193, 195, 196, 197, 198, 199, 200, 201,
             202, 205, 207, 208, 209, 210, 213, 217, 219 ]
      -
         sv_count: 37
         rho: 1.3328380121078851e+000
         alpha: [ 3.6859677735058050e+000, 7., 6.0388707718966153e+000,
             7., 2.8202628085679176e+000, 5.4222468404509341e+000, 7.,
             2.5393126115514644e+000, 1.1064658837816437e+000,
             2.3559773739088872e+000, 7., 2.5510640697106153e+000, 7.,
             7., 7., 7., 7., 7., 3.4847801487473578e+000,
             5.8087792578480499e+000, -4.8733390732227351e+000, -7., -7.,
             -7., -6.0575933901427792e+000, -7., -7.,
             -6.5994126420024672e+000, -5.6647854943719178e+000, -7.,
             -1.1922800535457652e+000, -7., -7., -7., -7., -7.,
             -4.4263168866836331e+000 ]
         index: [ 61, 63, 67, 68, 69, 71, 72, 74, 75, 76, 77, 78, 80, 82,
             83, 84, 87, 89, 91, 92, 95, 98, 100, 102, 104, 105, 107,
             108, 109, 114, 115, 116, 118, 119, 121, 124, 126 ]
      -
         sv_count: 25
         rho: -1.4366728195919529e-001
         alpha: [ 1.2371959169898754e+000, 1.7717724326074474e-002,
             5.2582323879357773e+000, 2.0501340208881351e+000, 7.,
             1.7296461679680773e-002, 7., 3.6491660841698810e+000,
             5.4039544712690315e+000, 4.2403676742867233e+000, 7.,
             3.2969907272867220e+000, 7., 7.9600218779299248e-001, -7.,
             -2.8313926855661036e+000, -6.0331656874180313e+000, -7.,
             -2.7314608441615902e+000, -7., -1.9111076661573265e-001,
             -7., -1.7992767286344691e-001, -7., -7. ]
         index: [ 60, 62, 63, 68, 72, 76, 80, 81, 82, 86, 87, 89, 91, 92,
             129, 133, 141, 142, 143, 144, 148, 149, 153, 155, 156 ]
      -
         sv_count: 34
         rho: 5.4477343008511181e-001
         alpha: [ 7., 3.0837794916764256e+000, 4.1969867150754823e+000,
             6.3655582171370861e+000, 7., 7., 7., 7., 7., 7., 7.,
             5.9342399890653379e+000, 7., 7., 7., -7., -7., -7.,
             -2.4610359339954663e-001, -2.3068824286211105e+000, -7.,
             -6.2564353565546735e+000, -7., -7., -7., -7.,
             -3.0560406210261495e+000, -3.2463477629841626e+000, -7.,
             -1.5651140981019953e+000, -2.8458019649805882e-001,
             -2.6190603557686369e+000, -7., -7. ]
         index: [ 61, 62, 63, 64, 65, 66, 72, 73, 75, 80, 87, 88, 89, 91,
             92, 159, 160, 162, 167, 168, 169, 170, 175, 176, 177, 180,
             183, 184, 186, 187, 188, 189, 190, 191 ]
      -
         sv_count: 24
         rho: 5.6946575884467387e-001
         alpha: [ 1.3941759913126832e+000, 4.5867399184765664e-002,
             9.0637282598095759e-001, 5.0153193971130960e+000, 7., 7.,
             1.2765289307750671e+000, 7., 7., 7., 7.,
             6.7159743888575285e+000, -6.5245085964827265e-001, -7.,
             -1.9012409292550660e+000, -1.1511519504663845e+000, -7.,
             -7., -7., -7., -7., -3.9275872120734969e+000,
             -7.2180798178087968e-001, -7. ]
         index: [ 60, 62, 63, 65, 72, 80, 81, 83, 87, 89, 91, 92, 195,
             196, 201, 203, 204, 205, 208, 209, 210, 217, 218, 219 ]
      -
         sv_count: 54
         rho: -2.6485192078483211e-001
         alpha: [ 7., 4.2917103491984907e+000, 7., 7.,
             4.8512372326808801e+000, 5.1480289119835643e+000, 7.,
             3.7195892865453319e+000, 7., 7., 1.5971184251994504e+000,
             7., 4.4123236952019251e+000, 7., 7., 7.,
             1.9674357137472347e+000, 7., 7., 7.,
             3.6480588270542396e+000, 7., 7., 7., 7., 7.,
             1.6479988113740758e+000, 7., -6.3797181003339141e+000, -7.,
             -7., -7., -1.6212305759603802e+000, -7.,
             -4.9766810757791751e+000, -7., -7., -7., -7., -7., -7., -7.,
             -7., -7., -7., -9.3467879389338826e-001, -7., -7., -7.,
             -3.5121117150327268e+000, -6.8590809919856186e+000, -7.,
             -7., -7. ]
         index: [ 93, 95, 96, 97, 99, 100, 101, 102, 103, 104, 105, 106,
             109, 110, 111, 112, 115, 116, 117, 118, 119, 120, 122, 123,
             124, 125, 127, 128, 129, 130, 131, 132, 133, 134, 135, 136,
             137, 138, 139, 141, 142, 143, 144, 145, 147, 148, 149, 150,
             151, 152, 153, 155, 156, 157 ]
      -
         sv_count: 36
         rho: -6.4946329555735954e-002
         alpha: [ 5.6352360227872484e+000, 7., 7.,
             2.6668480364415674e+000, 3.2392924047478910e+000,
             7.9488950683860826e-001, 7., 7., 3.5801318190097837e+000,
             3.1513032207636789e+000, 6.5610532598448721e+000, 7., 7.,
             2.1328491003562036e+000, 3.8917011992808065e-001, 7.,
             6.9961071517825015e+000, 3.3072642872862441e+000,
             1.7881384644423559e+000, -7., -5.4371220535558100e+000, -7.,
             -7., -6.4767488739312169e+000, -7., -7., -7., -7., -7.,
             -8.1874795050422855e-001, -9.1424559832748653e-001,
             -3.6191494113892642e+000, -8.4935917771416725e-001, -7.,
             -3.3628463982017336e+000, -4.7640639306051193e+000 ]
         index: [ 94, 95, 97, 98, 100, 101, 102, 104, 108, 109, 110, 114,
             115, 121, 122, 124, 125, 126, 127, 159, 162, 163, 164, 166,
             168, 169, 171, 173, 176, 177, 180, 181, 184, 186, 188, 190 ]
      -
         sv_count: 42
         rho: -1.2671590606795466e-001
         alpha: [ 7., 1.2829918785237893e+000, 2.8872784491721748e+000,
             7., 7., 2.0841842001950726e+000, 4.8798223178247485e-001,
             7., 4.1131390380044959e+000, 7., 7.,
             5.1213995300453297e+000, 7., 4.9412141138002541e+000, 7.,
             7., 4.5036384797617464e+000, 7., 7.,
             3.8125977899058427e+000, 7., -7., -7., -7., -7., -7.,
             -1.3579750594222770e-001, -5.6790563354834909e+000, -7.,
             -3.0124690130655840e+000, -7., -5.0415294849323793e+000,
             -5.3157006027981808e+000, -7., -1.3352590022951520e+000,
             -6.0034434503315071e+000, -7., -6.6326217220035826e+000,
             -2.9411742606351043e+000, -1.3737433370397034e-001, -7.,
             -7. ]
         index: [ 94, 95, 96, 97, 99, 100, 101, 102, 103, 104, 108, 109,
             110, 114, 115, 122, 123, 124, 125, 127, 128, 193, 194, 195,
             196, 197, 198, 199, 200, 204, 205, 207, 208, 209, 210, 212,
             213, 215, 217, 218, 219, 220 ]
      -
         sv_count: 30
         rho: 5.7005973785255772e-002
         alpha: [ 8.3484633852706924e-001, 7., 9.0214750777274066e-001,
             7., 5.7220777735367347e+000, 4.6990005640058818e+000, 7.,
             7., 7., 2.9217514967303193e-001, 1.1754413300874624e+000,
             2.2040237939368059e+000, 1.2551769904894677e-001,
             9.9281438543679856e-001, 7., 3.6605256851196923e+000,
             -2.1939308311524632e+000, -4.4007251108779206e+000, -7.,
             -7., -3.9259838626551060e+000, -7.,
             -2.7445824888438031e+000, -7., -7.,
             -6.2104637997685974e-001, -2.5727164689859667e+000,
             -6.8029763516708890e+000, -2.1304807828492707e+000,
             -2.2161279501328925e+000 ]
         index: [ 129, 133, 134, 138, 139, 141, 142, 143, 144, 145, 147,
             149, 150, 151, 155, 157, 160, 162, 163, 164, 168, 169, 170,
             173, 176, 177, 183, 184, 186, 188 ]
      -
         sv_count: 36
         rho: -5.2504701384645158e-001
         alpha: [ 3.1658559360116207e+000, 7., 7.,
             1.6589907711677327e+000, 7., 7., 7., 7., 7., 7., 7., 7.,
             1.6374399167401624e-001, 7., 7., 7.,
             5.4812953139970180e+000, -7., -4.3306203522375281e-001, -7.,
             -7., -7., -3.6335122216182683e+000,
             -4.5533192453877120e+000, -7., -7., -7., -7.,
             -4.3759531012904258e+000, -7., -2.3695686958205755e+000,
             -1.8272590641588904e+000, -3.8854839913052701e+000,
             -3.3917276580454958e+000, -7., -7. ]
         index: [ 129, 132, 133, 134, 138, 139, 141, 142, 143, 144, 145,
             147, 149, 150, 151, 155, 156, 193, 194, 195, 196, 197, 198,
             199, 200, 204, 205, 210, 212, 213, 214, 215, 216, 218, 219,
             220 ]
      -
         sv_count: 41
         rho: 9.7877935560256957e-001
         alpha: [ 7., 7., 7., 7., 7., 3.7088579300450903e+000, 7.,
             2.3101394358722289e+000, 7., 7., 3.3953531218083493e+000,
             1.6150318608504516e-001, 7., 7., 5.5669155864250541e+000,
             7., 7., 7., 7., 2.5961403496926438e+000,
             -1.0204923761018798e+000, -1.0847917106293872e+000, -7.,
             -7., -1.1404358042474241e+000, -6.4276853127421649e+000,
             -7., -1.2784556711214226e+000, -4.1845117057421586e+000,
             -7., -5.3695726233242747e+000, -7., -7., -7., -7., -7., -7.,
             -7., -5.5086623670932928e+000, -7.,
             -5.7243020389264112e+000 ]
         index: [ 158, 160, 161, 163, 164, 165, 166, 167, 168, 169, 171,
             172, 173, 176, 178, 179, 181, 182, 184, 188, 192, 193, 195,
             196, 199, 200, 201, 202, 203, 204, 205, 206, 207, 208, 209,
             210, 211, 214, 217, 218, 219 ]
