%YAML:1.0
my_svm: !!opencv-ml-svm
   svm_type: C_SVC
   kernel: { type:RBF, gamma:5.0625000000000009e-001 }
   C: 3.1250000000000000e+002
   term_criteria: { epsilon:1.1920928955078125e-007, iterations:1000 }
   var_all: 9
   var_count: 9
   class_count: 7
   class_labels: !!opencv-matrix
      rows: 1
      cols: 7
      dt: i
      data: [ 0, 1, 2, 3, 4, 5, 6 ]
   sv_total: 202
   support_vectors:
      - [ 4.14322406e-001, 5.93856752e-001, 6.94873154e-001,
          7.25710630e-001, 3.66929561e-001, 2.92714804e-001,
          3.22462112e-001, 6.94873154e-001, 5.90485632e-001 ]
      - [ 1.89978734e-001, 7.80077398e-001, 7.31335044e-001,
          7.36877859e-001, 3.76248211e-001, 2.32322052e-001,
          1.99771985e-001, 7.31335044e-001, 4.80205387e-001 ]
      - [ 1.79194838e-001, 8.39309752e-001, 6.39174998e-001,
          7.42728531e-001, 3.70209455e-001, 3.75027150e-001,
          2.06682935e-001, 6.39174998e-001, 6.62813604e-001 ]
      - [ 3.38985115e-001, 6.86146021e-001, 6.51423454e-001,
          7.43875384e-001, 3.17749411e-001, 3.16537589e-001,
          2.94377059e-001, 6.51423454e-001, 6.58832014e-001 ]
      - [ 4.28981513e-001, 5.66378713e-001, 7.62531936e-001,
          7.23300040e-001, 2.77283758e-001, 2.69743592e-001,
          3.56219292e-001, 7.62531936e-001, 5.47294319e-001 ]
      - [ 6.48855716e-002, 9.46331859e-001, 5.64718723e-001,
          7.34947622e-001, 4.07138705e-001, 4.05025899e-001,
          1.65931925e-001, 5.64718723e-001, 6.55547261e-001 ]
      - [ 2.85630703e-001, 6.12178564e-001, 5.92330158e-001,
          5.13479233e-001, 4.25927192e-001, 4.68076915e-001,
          4.95908529e-001, 5.92330158e-001, 2.39559129e-001 ]
      - [ 4.00604397e-001, 6.34193361e-001, 7.22422183e-001,
          7.27625132e-001, 2.52374679e-001, 3.50102305e-001,
          3.51582319e-001, 7.22422183e-001, 6.81703568e-001 ]
      - [ 2.04880029e-001, 8.10044587e-001, 7.57013083e-001,
          7.33067930e-001, 2.68006086e-001, 2.89331526e-001,
          2.62502968e-001, 7.57013083e-001, 6.44465148e-001 ]
      - [ 4.94201124e-001, 5.90269685e-001, 6.45181775e-001,
          7.38714218e-001, 3.51285070e-001, 4.13642645e-001,
          3.36594760e-001, 6.45181775e-001, 8.31080914e-001 ]
      - [ 3.06517422e-001, 6.77240431e-001, 6.88457727e-001,
          6.67345583e-001, 3.38967651e-001, 3.86621147e-001,
          3.38231355e-001, 6.88457727e-001, 5.19743204e-001 ]
      - [ 2.20739782e-001, 7.84160137e-001, 4.37175214e-001,
          5.08964181e-001, 5.94505668e-001, 3.46691430e-001,
          3.76240224e-001, 4.37175214e-001, 6.04363382e-001 ]
      - [ 2.14183420e-001, 8.17101598e-001, 7.46454358e-001,
          8.02396238e-001, 2.88626909e-001, 2.12971911e-001,
          1.74020946e-001, 7.46454358e-001, 7.05154479e-001 ]
      - [ 2.81354636e-001, 6.65374875e-001, 2.24662736e-001,
          2.90443808e-001, 8.08321834e-001, 6.03443742e-001,
          6.20733142e-001, 2.24662736e-001, 3.96428853e-001 ]
      - [ 3.28256041e-001, 7.04042315e-001, 6.18478060e-001,
          6.46766424e-001, 4.25783157e-001, 4.15616304e-001,
          3.41994822e-001, 6.18478060e-001, 6.86110198e-001 ]
      - [ 3.59155297e-001, 6.65133357e-001, 7.63215303e-001,
          7.64837444e-001, 2.75658131e-001, 2.60311574e-001,
          2.69491255e-001, 7.63215303e-001, 6.52572572e-001 ]
      - [ 3.44991803e-001, 6.36220634e-001, 4.30906564e-001,
          3.99675846e-001, 6.83353424e-001, 4.14060920e-001,
          5.34210205e-001, 4.30906564e-001, 5.08129418e-001 ]
      - [ 2.17619553e-001, 7.45637178e-001, 6.62124753e-001,
          6.48458958e-001, 3.92033398e-001, 4.40687835e-001,
          3.14967662e-001, 6.62124753e-001, 4.54500616e-001 ]
      - [ 2.17337042e-001, 7.30758607e-001, 7.14611173e-001,
          6.41011000e-001, 2.85923481e-001, 3.56253535e-001,
          3.58000219e-001, 7.14611173e-001, 4.01723027e-001 ]
      - [ 1.47153586e-001, 8.72687101e-001, 6.39004290e-001,
          7.62620687e-001, 3.58954817e-001, 3.41031104e-001,
          1.82548463e-001, 6.39004290e-001, 6.74281716e-001 ]
      - [ 2.91299939e-001, 7.00368583e-001, 4.46682423e-001,
          4.47995186e-001, 6.31950200e-001, 3.73331428e-001,
          4.75670785e-001, 4.46682423e-001, 5.48321366e-001 ]
      - [ 4.51139454e-003, 9.19555843e-001, 7.59323895e-001,
          6.43993676e-001, 3.98818582e-001, 2.62138247e-001,
          2.27153391e-001, 7.59323895e-001, 3.10452193e-001 ]
      - [ 4.13096905e-001, 5.63616693e-001, 3.73638928e-001,
          3.90525669e-001, 6.70306385e-001, 4.45052296e-001,
          5.74447453e-001, 3.73638928e-001, 4.88975167e-001 ]
      - [ 2.76029140e-001, 7.09333777e-001, 7.18902111e-001,
          6.12488866e-001, 3.81906450e-001, 2.59176582e-001,
          3.40514302e-001, 7.18902111e-001, 5.27906358e-001 ]
      - [ 1.23619907e-001, 8.73114169e-001, 5.60932338e-001,
          6.58166111e-001, 3.88731182e-001, 3.78765762e-001,
          2.46979564e-001, 5.60932338e-001, 5.87124586e-001 ]
      - [ 3.99006605e-001, 6.24043047e-001, 5.56854844e-001,
          6.36526585e-001, 3.37721229e-001, 4.07218844e-001,
          3.76492947e-001, 5.56854844e-001, 6.42084837e-001 ]
      - [ 3.95221829e-001, 6.49602592e-001, 6.58565402e-001,
          7.15107560e-001, 3.66850615e-001, 2.41381913e-001,
          2.81616509e-001, 6.58565402e-001, 7.17252314e-001 ]
      - [ 2.58093655e-001, 7.99870253e-001, 5.52879989e-001,
          7.38880694e-001, 3.64640802e-001, 3.02556515e-001,
          2.14222968e-001, 5.52879989e-001, 7.97405243e-001 ]
      - [ 2.58872151e-001, 7.20815003e-001, 5.95118523e-001,
          5.79900444e-001, 3.24079186e-001, 4.23017144e-001,
          4.07720685e-001, 5.95118523e-001, 5.09540677e-001 ]
      - [ 5.20216763e-001, 5.73687136e-001, 5.35024703e-001,
          7.23600030e-001, 4.22622949e-001, 3.56297702e-001,
          3.08613271e-001, 5.35024703e-001, 8.56368005e-001 ]
      - [ 5.24896264e-001, 4.40629423e-001, 4.16411012e-001,
          3.19666117e-001, 6.47656441e-001, 4.61603642e-001,
          7.28507519e-001, 4.16411012e-001, 4.49554980e-001 ]
      - [ 5.69730937e-001, 5.14446318e-001, 3.33335817e-001,
          6.89391494e-001, 3.61852825e-001, 5.65722108e-001,
          3.99019152e-001, 3.33335817e-001, 8.11417997e-001 ]
      - [ 2.93993354e-001, 6.85492575e-001, 6.39327943e-001,
          5.36872447e-001, 5.03757894e-001, 2.73333460e-001,
          4.38207448e-001, 6.39327943e-001, 5.06163299e-001 ]
      - [ 3.61145437e-001, 7.09141731e-001, 5.22545218e-001,
          7.27326274e-001, 3.11394334e-001, 3.58505815e-001,
          2.88431466e-001, 5.22545218e-001, 8.15926850e-001 ]
      - [ 3.76780838e-001, 6.45031631e-001, 6.94370508e-001,
          7.06618011e-001, 2.36738935e-001, 2.73395032e-001,
          3.28631431e-001, 6.94370508e-001, 6.41247034e-001 ]
      - [ 4.21481162e-001, 5.48228502e-001, 3.43015879e-001,
          3.48529398e-001, 7.13078320e-001, 5.40326416e-001,
          6.25559330e-001, 3.43015879e-001, 4.66482729e-001 ]
      - [ 4.82643008e-001, 5.66251755e-001, 5.86416960e-001,
          6.96779847e-001, 3.43185335e-001, 3.24954629e-001,
          3.46148431e-001, 5.86416960e-001, 7.14098513e-001 ]
      - [ 4.00136322e-001, 6.03272915e-001, 1.88093916e-001,
          4.03147042e-001, 6.31859303e-001, 6.40499592e-001,
          5.65078139e-001, 1.88093916e-001, 5.76379299e-001 ]
      - [ 3.61993015e-001, 6.89782560e-001, 5.11672497e-001,
          7.09003091e-001, 3.66325498e-001, 3.80019426e-001,
          2.66361713e-001, 5.11672497e-001, 7.48763204e-001 ]
      - [ 2.96326160e-001, 6.96815550e-001, 6.74694061e-001,
          6.05513871e-001, 3.77648830e-001, 2.84866333e-001,
          3.74428242e-001, 6.74694061e-001, 5.52981555e-001 ]
      - [ 3.74071181e-001, 5.79902768e-001, 3.83741051e-001,
          3.02946836e-001, 7.53585398e-001, 5.08496940e-001,
          6.67036116e-001, 3.83741051e-001, 4.18541282e-001 ]
      - [ 3.17125708e-001, 6.92098677e-001, 5.31907201e-001,
          5.91254413e-001, 4.99569148e-001, 4.05060828e-001,
          3.64634961e-001, 5.31907201e-001, 6.06485069e-001 ]
      - [ 3.51293862e-001, 6.52101696e-001, 3.25578362e-001,
          4.21488732e-001, 6.10622466e-001, 5.47766507e-001,
          5.35148621e-001, 3.25578362e-001, 5.81990898e-001 ]
      - [ 3.17539394e-001, 7.01224864e-001, 4.41970885e-001,
          5.97469985e-001, 4.10177171e-001, 5.18982947e-001,
          3.92670304e-001, 4.41970885e-001, 6.39924467e-001 ]
      - [ 2.38098651e-001, 7.05800593e-001, 3.67285728e-001,
          2.81509459e-001, 7.95275629e-001, 5.53480387e-001,
          6.17036641e-001, 3.67285728e-001, 3.87188613e-001 ]
      - [ 3.99388582e-001, 5.49347699e-001, 5.47751307e-001,
          3.33152711e-001, 6.75021291e-001, 3.13903272e-001,
          6.49430692e-001, 5.47751307e-001, 4.01777059e-001 ]
      - [ 1.14438705e-001, 8.25125158e-001, 4.30788368e-001,
          3.02826405e-001, 8.25118124e-001, 4.78595525e-001,
          5.43899179e-001, 4.30788368e-001, 3.71643245e-001 ]
      - [ 1.38068840e-001, 8.58102143e-001, 2.85395920e-001,
          4.41750079e-001, 6.46333337e-001, 5.32657385e-001,
          4.31728780e-001, 2.85395920e-001, 5.82875311e-001 ]
      - [ 4.84360814e-001, 5.74814916e-001, 4.58958268e-001,
          6.73558295e-001, 3.06367338e-001, 4.82303083e-001,
          3.92712414e-001, 4.58958268e-001, 7.47898400e-001 ]
      - [ 6.71835899e-001, 3.38412076e-001, 6.07252419e-001,
          6.00280643e-001, 2.97840595e-001, 4.09773409e-001,
          5.47062576e-001, 6.07252419e-001, 5.69559634e-001 ]
      - [ 4.49975580e-001, 5.21089435e-001, 3.43296945e-001,
          3.19226921e-001, 6.70160770e-001, 5.57844162e-001,
          6.96581006e-001, 3.43296945e-001, 4.69323963e-001 ]
      - [ 4.91893768e-001, 5.32544613e-001, 4.04391557e-001,
          4.48645383e-001, 6.28789425e-001, 3.81639868e-001,
          5.50990403e-001, 4.04391557e-001, 6.33049071e-001 ]
      - [ 4.27622348e-001, 5.06141603e-001, 5.86217523e-001,
          3.08371931e-001, 7.02777803e-001, 3.57423693e-001,
          6.79081261e-001, 5.86217523e-001, 3.56221259e-001 ]
      - [ 2.69310415e-001, 6.65511549e-001, 1.78235739e-001,
          3.10684413e-001, 7.72177279e-001, 6.39091849e-001,
          5.91706872e-001, 1.78235739e-001, 3.57110351e-001 ]
      - [ 4.87942487e-001, 5.32642543e-001, 3.02747399e-001,
          3.98820162e-001, 6.29618227e-001, 5.48858404e-001,
          6.22820675e-001, 3.02747399e-001, 6.21283352e-001 ]
      - [ 4.96235341e-001, 5.33329010e-001, 3.21250111e-001,
          5.40103972e-001, 4.71609384e-001, 5.76814711e-001,
          5.25003850e-001, 3.21250111e-001, 6.48883700e-001 ]
      - [ 3.55337739e-001, 6.42311573e-001, 5.19714892e-001,
          5.64812362e-001, 3.97251993e-001, 4.86057729e-001,
          4.41598028e-001, 5.19714892e-001, 5.62164903e-001 ]
      - [ 7.17918336e-001, 3.33211899e-001, 5.08848488e-001,
          6.26817644e-001, 3.36198449e-001, 3.58423203e-001,
          5.39879560e-001, 5.08848488e-001, 6.81526959e-001 ]
      - [ 4.31390792e-001, 6.05524063e-001, 6.24567688e-001,
          6.57914042e-001, 2.95169204e-001, 3.59270066e-001,
          4.03786659e-001, 6.24567688e-001, 6.83468461e-001 ]
      - [ 4.93350148e-001, 5.28581440e-001, 5.32447278e-001,
          5.82093954e-001, 2.96605110e-001, 3.28136504e-001,
          5.05270243e-001, 5.32447278e-001, 6.24941766e-001 ]
      - [ 3.91640484e-001, 6.78294480e-001, 5.25250256e-001,
          6.93741083e-001, 3.63123983e-001, 3.47646087e-001,
          3.24716747e-001, 5.25250256e-001, 8.06745768e-001 ]
      - [ 4.56897169e-001, 5.87113321e-001, 7.97058940e-001,
          8.16209316e-001, 1.95964754e-001, 1.62474796e-001,
          2.17338011e-001, 7.97058940e-001, 7.02699542e-001 ]
      - [ 4.65640008e-001, 5.70912004e-001, 6.84602439e-001,
          7.31114328e-001, 2.08084673e-001, 2.74942756e-001,
          3.40959698e-001, 6.84602439e-001, 6.76444769e-001 ]
      - [ 6.55956984e-001, 3.91754299e-001, 4.86188501e-001,
          6.22430146e-001, 1.44319594e-001, 3.91327322e-001,
          5.46465278e-001, 4.86188501e-001, 6.81015134e-001 ]
      - [ 2.87507653e-001, 7.43687153e-001, 5.95071375e-001,
          7.13478863e-001, 3.22558880e-001, 3.55166674e-001,
          2.62696326e-001, 5.95071375e-001, 6.89907491e-001 ]
      - [ 5.94962120e-001, 4.37202156e-001, 4.92993236e-001,
          6.12615228e-001, 3.55016470e-001, 5.01451969e-001,
          4.97358680e-001, 4.92993236e-001, 6.42927825e-001 ]
      - [ 3.38872433e-001, 6.87282443e-001, 8.46320570e-001,
          7.75076509e-001, 2.11653143e-001, 1.67131603e-001,
          2.46264860e-001, 8.46320570e-001, 6.62602067e-001 ]
      - [ 7.55489349e-001, 2.17381909e-001, 4.36722517e-001,
          4.83402044e-001, 3.82818937e-001, 4.75849301e-001,
          7.13760316e-001, 4.36722517e-001, 4.61659998e-001 ]
      - [ 6.39955163e-001, 4.04877067e-001, 6.01718426e-001,
          7.41714180e-001, 1.52033284e-001, 2.92093337e-001,
          4.16350394e-001, 6.01718426e-001, 6.74771249e-001 ]
      - [ 3.36479515e-001, 6.59933150e-001, 5.45379043e-001,
          6.08207941e-001, 3.49905550e-001, 4.17307347e-001,
          4.08118427e-001, 5.45379043e-001, 5.60012281e-001 ]
      - [ 5.41086257e-001, 5.17076492e-001, 6.31585479e-001,
          7.18346059e-001, 2.78426677e-001, 2.95807719e-001,
          3.85253191e-001, 6.31585479e-001, 7.33216286e-001 ]
      - [ 6.07129097e-001, 4.70690042e-001, 7.35632837e-001,
          8.34803104e-001, 6.99402243e-002, 2.37875372e-001,
          3.09231997e-001, 7.35632837e-001, 7.82552123e-001 ]
      - [ 3.54609519e-001, 6.45802796e-001, 5.52552283e-001,
          5.92278838e-001, 3.95327687e-001, 4.41869766e-001,
          4.08485115e-001, 5.52552283e-001, 5.71575522e-001 ]
      - [ 2.98159808e-001, 7.51637697e-001, 5.07048249e-001,
          7.19102323e-001, 2.20640719e-001, 2.54936725e-001,
          2.71735519e-001, 5.07048249e-001, 7.56292999e-001 ]
      - [ 4.36183572e-001, 5.71950674e-001, 7.17155874e-001,
          6.96279407e-001, 1.98153540e-001, 2.80409127e-001,
          3.79436046e-001, 7.17155874e-001, 5.87834299e-001 ]
      - [ 4.47131157e-001, 6.53283775e-001, 5.48465669e-001,
          8.14682424e-001, 9.87524763e-002, 2.60859549e-001,
          2.58647680e-001, 5.48465669e-001, 9.00272429e-001 ]
      - [ 3.12570602e-001, 7.21205890e-001, 4.80735660e-001,
          6.51014090e-001, 2.85438627e-001, 3.47112626e-001,
          3.28049988e-001, 4.80735660e-001, 6.94459081e-001 ]
      - [ 2.44209230e-001, 7.39140511e-001, 6.91688478e-001,
          6.64923251e-001, 2.83923507e-001, 2.72910237e-001,
          3.11585367e-001, 6.91688478e-001, 5.23785651e-001 ]
      - [ 3.76220226e-001, 6.81258798e-001, 4.44071621e-001,
          7.86332965e-001, 2.16753021e-001, 4.35012996e-001,
          2.43847951e-001, 4.44071621e-001, 7.66019821e-001 ]
      - [ 3.84530276e-001, 6.27788246e-001, 6.21546447e-001,
          6.81432903e-001, 3.02503109e-001, 3.98834258e-001,
          3.37991059e-001, 6.21546447e-001, 6.08070135e-001 ]
      - [ 5.14791548e-001, 6.02788389e-001, 4.31397289e-001,
          7.82060087e-001, 1.42401025e-001, 3.82656276e-001,
          2.99461514e-001, 4.31397289e-001, 9.39851820e-001 ]
      - [ 2.64974713e-001, 7.91997910e-001, 6.57806396e-001,
          7.72563696e-001, 3.10729772e-001, 2.05869481e-001,
          1.92905217e-001, 6.57806396e-001, 7.91764855e-001 ]
      - [ 3.63973707e-001, 7.55366147e-001, 8.86980832e-001, 1.,
          4.91542146e-002, 0., 0., 8.86980832e-001, 1. ]
      - [ 4.50941622e-001, 6.58057630e-001, 6.88960493e-001,
          8.91672611e-001, 2.15482786e-002, 1.31081983e-001,
          1.58404320e-001, 6.88960493e-001, 9.29986238e-001 ]
      - [ 5.32796085e-001, 5.01692116e-001, 3.47022831e-001,
          6.85964584e-001, 2.60275155e-001, 5.59531629e-001,
          4.04044241e-001, 3.47022831e-001, 6.59222364e-001 ]
      - [ 6.25610828e-001, 4.57290798e-001, 3.97311568e-001,
          7.24573731e-001, 2.00114354e-001, 3.51607293e-001,
          3.83559972e-001, 3.97311568e-001, 7.94590175e-001 ]
      - [ 8.10564339e-001, 2.58282721e-001, 4.56746995e-001,
          6.71178937e-001, 1.21124975e-001, 3.57454628e-001,
          5.16471505e-001, 4.56746995e-001, 7.17867136e-001 ]
      - [ 4.70914274e-001, 4.52620894e-001, 4.77220833e-001,
          3.55899602e-001, 5.74032307e-001, 5.25415659e-001,
          7.22088277e-001, 4.77220833e-001, 3.27234566e-001 ]
      - [ 8.34493160e-001, 9.16660205e-002, 1.54857278e-001,
          2.50635415e-001, 6.49080813e-001, 7.17205226e-001,
          9.07861531e-001, 1.54857278e-001, 3.42839479e-001 ]
      - [ 3.79842669e-001, 6.41502321e-001, 3.14570725e-001,
          5.75378418e-001, 3.19823056e-001, 4.81856138e-001,
          4.40677524e-001, 3.14570725e-001, 6.39377832e-001 ]
      - [ 6.23437047e-001, 2.89700300e-001, 1.81022078e-001,
          1.90334260e-001, 7.66544819e-001, 6.85485363e-001,
          8.66594017e-001, 1.81022078e-001, 3.03772837e-001 ]
      - [ 4.78147209e-001, 4.51242268e-001, 4.07858640e-001,
          3.02997887e-001, 7.60581493e-001, 4.06020880e-001,
          6.70776784e-001, 4.07858640e-001, 3.44413489e-001 ]
      - [ 6.39512181e-001, 4.23754722e-001, 4.28444505e-001,
          6.77994192e-001, 1.21050835e-001, 3.81693572e-001,
          4.65741485e-001, 4.28444505e-001, 7.30769992e-001 ]
      - [ 6.77899420e-001, 4.45993900e-001, 6.07728124e-001,
          8.05077195e-001, 4.97096553e-002, 2.79206723e-001,
          3.56883615e-001, 6.07728124e-001, 9.11829293e-001 ]
      - [ 6.01351917e-001, 4.48597401e-001, 4.36422497e-001,
          6.51557446e-001, 2.46264130e-001, 3.36570382e-001,
          4.43797410e-001, 4.36422497e-001, 6.96521580e-001 ]
      - [ 5.38861513e-001, 3.89445901e-001, 1.78405151e-001,
          2.66525596e-001, 6.87558770e-001, 6.55098915e-001,
          7.78518021e-001, 1.78405151e-001, 3.42538983e-001 ]
      - [ 6.55617058e-001, 3.25738609e-001, 3.64727765e-001,
          5.05660355e-001, 3.56880724e-001, 5.09927213e-001,
          6.20496988e-001, 3.64727765e-001, 4.89345700e-001 ]
      - [ 4.13448364e-001, 5.84624410e-001, 4.36709374e-001,
          4.66588348e-001, 4.86190230e-001, 3.80553871e-001,
          5.22910833e-001, 4.36709374e-001, 5.57713687e-001 ]
      - [ 3.39295238e-001, 6.44874990e-001, 6.85625792e-001,
          5.41106403e-001, 5.23081064e-001, 3.08093280e-001,
          4.32523608e-001, 6.85625792e-001, 5.18624067e-001 ]
      - [ 4.25412744e-001, 5.53779304e-001, 4.06028152e-001,
          5.11895537e-001, 5.51189542e-001, 6.00736976e-001,
          5.01722217e-001, 4.06028152e-001, 4.96240705e-001 ]
      - [ 4.65563029e-001, 4.59037989e-001, 4.19086128e-001,
          4.01173502e-001, 5.84766209e-001, 5.75289249e-001,
          6.49108946e-001, 4.19086128e-001, 3.30151081e-001 ]
      - [ 7.76726782e-001, 2.83116490e-001, 3.69474262e-001,
          6.43059254e-001, 1.71849877e-001, 4.11938041e-001,
          5.25005937e-001, 3.69474262e-001, 6.97722673e-001 ]
      - [ 4.56200570e-001, 5.22941470e-001, 1.14462182e-001,
          2.40670919e-001, 8.86295974e-001, 7.73177385e-001,
          7.53404379e-001, 1.14462182e-001, 4.94157910e-001 ]
      - [ 4.66579407e-001, 6.02649331e-001, 3.91343385e-001,
          7.49411047e-001, 1.99023765e-002, 4.14093256e-001,
          3.39906603e-001, 3.91343385e-001, 7.85984218e-001 ]
      - [ 3.33296299e-001, 6.87389433e-001, 5.55106103e-001,
          6.20575964e-001, 4.16633934e-001, 3.75900358e-001,
          4.00509357e-001, 5.55106103e-001, 6.44320667e-001 ]
      - [ 3.14186990e-001, 6.81882262e-001, 5.07433057e-001,
          5.56527019e-001, 5.30796587e-001, 4.48184967e-001,
          4.22539055e-001, 5.07433057e-001, 5.61293840e-001 ]
      - [ 5.95720589e-001, 3.08237642e-001, 3.99754196e-001,
          3.03774893e-001, 5.47641754e-001, 5.97886145e-001,
          8.37728620e-001, 3.99754196e-001, 2.78104812e-001 ]
      - [ 4.63032812e-001, 4.78452682e-001, 1.45362601e-001,
          3.00509989e-001, 7.02275813e-001, 6.65024400e-001,
          7.00514317e-001, 1.45362601e-001, 3.79751056e-001 ]
      - [ 3.26461226e-001, 6.82350695e-001, 5.40496886e-001,
          5.90096116e-001, 4.34007883e-001, 4.08765882e-001,
          4.17915165e-001, 5.40496886e-001, 6.03897750e-001 ]
      - [ 3.90458375e-001, 7.05086172e-001, 6.40663087e-001,
          8.66473734e-001, 1.37394428e-001, 1.27658561e-001,
          1.24282524e-001, 6.40663087e-001, 9.00403678e-001 ]
      - [ 4.00645345e-001, 5.51239669e-001, 3.33500892e-001,
          4.56985861e-001, 6.38816833e-001, 5.48167884e-001,
          5.54420292e-001, 3.33500892e-001, 4.11697865e-001 ]
      - [ 6.77162588e-001, 3.22029501e-001, 3.97996187e-001,
          4.71045166e-001, 4.73187327e-001, 5.98285496e-001,
          6.97346091e-001, 3.97996187e-001, 5.37917554e-001 ]
      - [ 6.00507140e-001, 2.73029417e-001, 4.52780128e-001,
          2.34873533e-001, 5.90109050e-001, 5.72866321e-001,
          8.77360284e-001, 4.52780128e-001, 1.98697597e-001 ]
      - [ 2.77510375e-001, 6.46504879e-001, 5.61266363e-001,
          3.75885844e-001, 5.30707538e-001, 5.11370242e-001,
          6.14923596e-001, 5.61266363e-001, 3.22308183e-001 ]
      - [ 4.14574027e-001, 4.74139422e-001, 2.33678982e-001,
          2.23422974e-001, 7.72730172e-001, 6.34257793e-001,
          7.57512391e-001, 2.33678982e-001, 2.23506302e-001 ]
      - [ 4.42443192e-001, 5.54715574e-001, 2.98207939e-001,
          4.70419288e-001, 4.48102713e-001, 5.17701864e-001,
          5.34758449e-001, 2.98207939e-001, 5.51945865e-001 ]
      - [ 6.25706434e-001, 4.45248753e-001, 5.19546449e-001,
          7.18607605e-001, 7.34026730e-002, 3.45535040e-001,
          4.18676138e-001, 5.19546449e-001, 7.57265508e-001 ]
      - [ 5.83948731e-001, 4.49123234e-001, 4.38072860e-001,
          4.71906960e-001, 5.07166803e-001, 3.35775793e-001,
          5.82933486e-001, 4.38072860e-001, 6.47287428e-001 ]
      - [ 5.58082044e-001, 3.60299140e-001, 2.73385853e-001,
          2.03279719e-001, 7.25497544e-001, 6.63437366e-001,
          8.86184752e-001, 2.73385853e-001, 3.15524697e-001 ]
      - [ 4.75510508e-001, 4.78904098e-001, 3.10141206e-001,
          3.79824370e-001, 5.82014203e-001, 5.03988624e-001,
          6.44360721e-001, 3.10141206e-001, 4.18059438e-001 ]
      - [ 4.26852196e-001, 6.36033893e-001, 5.00065327e-001,
          5.78212082e-001, 6.23352647e-001, 3.25684011e-001,
          4.04686451e-001, 5.00065327e-001, 7.73308873e-001 ]
      - [ 4.72110987e-001, 4.68961686e-001, 2.07288533e-001,
          3.01135182e-001, 7.30800271e-001, 6.49878263e-001,
          6.92363143e-001, 2.07288533e-001, 3.78489137e-001 ]
      - [ 4.48409408e-001, 4.73117173e-001, 3.15365136e-001,
          2.29696333e-001, 6.30285203e-001, 6.31272554e-001,
          8.06405604e-001, 3.15365136e-001, 3.20680976e-001 ]
      - [ 5.96476674e-001, 3.96839529e-001, 3.08639944e-001,
          6.33887947e-001, 1.84118643e-001, 4.93363678e-001,
          4.75601047e-001, 3.08639944e-001, 5.27201951e-001 ]
      - [ 3.51730108e-001, 6.33206606e-001, 3.12051684e-001,
          4.15601313e-001, 6.98958099e-001, 5.26825726e-001,
          5.66711247e-001, 3.12051684e-001, 5.20139635e-001 ]
      - [ 3.99571866e-001, 5.29141188e-001, 4.29782867e-001,
          4.71397609e-001, 3.76437515e-001, 5.70594907e-001,
          5.84436119e-001, 4.29782867e-001, 3.40607613e-001 ]
      - [ 5.44396281e-001, 3.64117056e-001, 0., 1.94675401e-001,
          8.94605696e-001, 8.57080460e-001, 8.39024127e-001, 0.,
          2.87795991e-001 ]
      - [ 2.59135008e-001, 6.68344140e-001, 4.34498399e-001,
          4.50208873e-001, 5.07445514e-001, 5.84314048e-001,
          5.42223930e-001, 4.34498399e-001, 3.32921922e-001 ]
      - [ 4.20368165e-001, 4.49033409e-001, 2.23148808e-001,
          1.47449858e-002, 1., 6.60117149e-001, 9.46449757e-001,
          2.23148808e-001, 1.69189841e-001 ]
      - [ 5.61933875e-001, 4.03828263e-001, 3.84723902e-001,
          3.26018572e-001, 6.89605892e-001, 5.32010376e-001,
          7.10843444e-001, 3.84723902e-001, 4.49095696e-001 ]
      - [ 4.52391773e-001, 4.99549806e-001, 4.13386464e-001,
          4.87033337e-001, 5.35792649e-001, 5.37311614e-001,
          5.66040039e-001, 4.13386464e-001, 4.11059529e-001 ]
      - [ 2.36661553e-001, 6.44243658e-001, 5.21589458e-001,
          3.59699547e-001, 4.37976837e-001, 5.18250406e-001,
          6.19713902e-001, 5.21589458e-001, 1.81758910e-001 ]
      - [ 4.38459784e-001, 5.84861040e-001, 3.53791833e-001,
          5.17024100e-001, 5.66181302e-001, 5.50730109e-001,
          4.93895590e-001, 3.53791833e-001, 6.37262046e-001 ]
      - [ 3.70155871e-001, 5.79874277e-001, 3.62058550e-001,
          3.09737295e-001, 6.49814665e-001, 5.75313926e-001,
          7.04148650e-001, 3.62058550e-001, 4.06341851e-001 ]
      - [ 5.79813540e-001, 4.41295713e-001, 5.23128629e-001,
          6.42258346e-001, 3.21993470e-001, 4.80930597e-001,
          4.56477851e-001, 5.23128629e-001, 6.11408234e-001 ]
      - [ 3.65750223e-001, 5.45921087e-001, 2.40315706e-001,
          4.15075868e-001, 5.58046699e-001, 6.03131592e-001,
          5.76994836e-001, 2.40315706e-001, 2.87753701e-001 ]
      - [ 2.83887953e-001, 6.51263952e-001, 1.60994783e-001,
          2.53959924e-001, 8.42904210e-001, 7.71462798e-001,
          6.43997550e-001, 1.60994783e-001, 3.58554304e-001 ]
      - [ 3.06736499e-001, 5.99123955e-001, 3.64366859e-001,
          1.57945171e-001, 7.77879357e-001, 6.08505726e-001,
          7.98965693e-001, 3.64366859e-001, 2.66363025e-001 ]
      - [ 3.99341434e-001, 5.14901936e-001, 2.22980052e-001,
          1.88258231e-001, 8.58682096e-001, 6.78855002e-001,
          7.55536795e-001, 2.22980052e-001, 2.97136426e-001 ]
      - [ 5.46682179e-001, 4.77148384e-001, 4.46391970e-001,
          7.10510254e-001, 1.12835050e-001, 3.42177063e-001,
          3.93059760e-001, 4.46391970e-001, 6.23953402e-001 ]
      - [ 5.79899073e-001, 3.77498955e-001, 1.56810984e-001,
          4.91059244e-001, 4.88838375e-001, 7.19102621e-001,
          6.10379815e-001, 1.56810984e-001, 4.24678028e-001 ]
      - [ 3.50533962e-001, 4.61848766e-001, 3.11469108e-001, 0.,
          7.81771243e-001, 7.16103792e-001, 1., 3.11469108e-001, 0. ]
      - [ 5.35799265e-001, 4.12026644e-001, 3.77864242e-001,
          4.32896882e-001, 5.43970823e-001, 4.57388848e-001,
          6.01085782e-001, 3.77864242e-001, 3.98022711e-001 ]
      - [ 3.69991153e-001, 6.44880176e-001, 3.55300009e-001,
          4.64759052e-001, 4.75713044e-001, 6.21538937e-001,
          5.80955088e-001, 3.55300009e-001, 6.18766665e-001 ]
      - [ 5.88801205e-001, 4.16232735e-001, 1.99114531e-001,
          4.31275994e-001, 5.84280550e-001, 6.92793190e-001,
          6.64483190e-001, 1.99114531e-001, 5.62315702e-001 ]
      - [ 3.83504689e-001, 5.39942801e-001, 5.75367928e-001,
          4.58255351e-001, 3.36230695e-001, 4.28080261e-001,
          6.07817233e-001, 5.75367928e-001, 3.24173957e-001 ]
      - [ 5.26291311e-001, 3.66375417e-001, 4.83620107e-001,
          2.65388757e-001, 5.83261788e-001, 5.32649219e-001,
          8.12838018e-001, 4.83620107e-001, 2.43369147e-001 ]
      - [ 2.53368139e-001, 7.11134434e-001, 6.66804433e-001,
          6.27943575e-001, 4.33212548e-001, 2.63430715e-001,
          3.58355165e-001, 6.66804433e-001, 4.57301497e-001 ]
      - [ 6.44087791e-001, 3.89078319e-001, 5.34449279e-001,
          5.82204759e-001, 4.14589375e-001, 5.33606768e-001,
          5.49794376e-001, 5.34449279e-001, 6.39371634e-001 ]
      - [ 4.37626570e-001, 5.53036988e-001, 6.08072519e-001,
          7.13027239e-001, 3.79407734e-001, 3.10048133e-001,
          3.21663171e-001, 6.08072519e-001, 5.31622350e-001 ]
      - [ 8.45154226e-002, 8.69818687e-001, 5.81398666e-001,
          6.01804018e-001, 4.29394394e-001, 4.64517325e-001,
          3.24281693e-001, 5.81398666e-001, 4.27016497e-001 ]
      - [ 1.50694594e-001, 9.02583122e-001, 5.49943149e-001,
          7.42211819e-001, 4.60241824e-001, 3.92232865e-001,
          1.53192103e-001, 5.49943149e-001, 8.09364796e-001 ]
      - [ 6.69205308e-001, 3.78841639e-001, 5.49852908e-001,
          6.64974213e-001, 2.66051412e-001, 4.60298032e-001,
          5.31557143e-001, 5.49852908e-001, 6.79926217e-001 ]
      - [ 6.13690853e-001, 4.37216163e-001, 5.51491201e-001,
          6.77501559e-001, 3.51474047e-001, 3.66976142e-001,
          4.66027349e-001, 5.51491201e-001, 6.97369277e-001 ]
      - [ 7.41528690e-001, 3.05744529e-001, 4.14776295e-001,
          5.95236719e-001, 5.91931820e-001, 4.99233574e-001,
          5.15903175e-001, 4.14776295e-001, 6.67082787e-001 ]
      - [ 5.47330976e-001, 4.39728141e-001, 6.08482718e-001,
          5.92917740e-001, 3.18270683e-001, 4.46860492e-001,
          5.44426084e-001, 6.08482718e-001, 5.12224257e-001 ]
      - [ 3.96240920e-001, 5.53692698e-001, 4.65816557e-001,
          5.86467266e-001, 4.23733562e-001, 4.98800009e-001,
          4.53617603e-001, 4.65816557e-001, 4.05661970e-001 ]
      - [ 3.74746978e-001, 6.48161650e-001, 4.91167039e-001,
          6.62488759e-001, 4.40205932e-001, 4.43468422e-001,
          3.43591362e-001, 4.91167039e-001, 6.45420909e-001 ]
      - [ 2.07255453e-001, 8.51028442e-001, 5.88129818e-001,
          7.75264204e-001, 4.42253888e-001, 2.87826121e-001,
          1.47595942e-001, 5.88129818e-001, 8.13058674e-001 ]
      - [ 5.07716119e-001, 5.92601836e-001, 5.27716219e-001,
          7.13002026e-001, 3.74802828e-001, 3.61117572e-001,
          3.75881135e-001, 5.27716219e-001, 8.81906331e-001 ]
      - [ 2.53032416e-001, 6.68814003e-001, 4.50729668e-001,
          5.09000897e-001, 4.37042028e-001, 5.72383046e-001,
          5.00223041e-001, 4.50729668e-001, 3.14249337e-001 ]
      - [ 3.17670405e-001, 6.72252476e-001, 6.15146816e-001,
          7.05387771e-001, 3.27346832e-001, 3.52031589e-001,
          3.14877898e-001, 6.15146816e-001, 5.39849102e-001 ]
      - [ 8.58027935e-001, 2.12229207e-001, 3.86246920e-001,
          6.04479432e-001, 4.39401001e-001, 4.99373138e-001,
          6.07256472e-001, 3.86246920e-001, 7.14142025e-001 ]
      - [ 6.90794349e-001, 3.90983969e-001, 6.37559295e-001,
          6.76521957e-001, 3.24079871e-001, 3.55912983e-001,
          4.91696209e-001, 6.37559295e-001, 7.77355075e-001 ]
      - [ 3.03337812e-001, 7.41958201e-001, 6.49003804e-001,
          7.19748795e-001, 4.02393669e-001, 3.21995020e-001,
          2.76792377e-001, 6.49003804e-001, 7.38458514e-001 ]
      - [ 4.07667130e-001, 6.81907475e-001, 5.87871492e-001,
          6.87584758e-001, 6.58708274e-001, 2.23001927e-001,
          2.61647373e-001, 5.87871492e-001, 8.73188913e-001 ]
      - [ 4.75644320e-001, 5.38167357e-001, 4.67375040e-001,
          6.49604917e-001, 5.38210332e-001, 4.50052291e-001,
          3.60440582e-001, 4.67375040e-001, 6.01341665e-001 ]
      - [ 3.39469075e-001, 6.50526226e-001, 3.80791396e-001,
          6.07547224e-001, 4.44637716e-001, 5.51435351e-001,
          4.06594396e-001, 3.80791396e-001, 5.38035572e-001 ]
      - [ 4.18931723e-001, 5.82302094e-001, 6.21542871e-001,
          6.46638453e-001, 3.86350870e-001, 4.23649251e-001,
          3.97653252e-001, 6.21542871e-001, 5.67344427e-001 ]
      - [ 5.02249181e-001, 4.73703206e-001, 5.96541882e-001,
          6.03160560e-001, 4.31229860e-001, 3.56346011e-001,
          4.67996091e-001, 5.96541882e-001, 4.81738269e-001 ]
      - [ 1.94934428e-001, 8.44281614e-001, 4.59087163e-001,
          6.96006238e-001, 4.38648880e-001, 4.88678485e-001,
          2.40791604e-001, 4.59087163e-001, 7.40521908e-001 ]
      - [ 4.81707424e-001, 5.10210335e-001, 5.05966425e-001,
          6.03831530e-001, 4.07787204e-001, 4.83244956e-001,
          4.73621964e-001, 5.05966425e-001, 5.31892836e-001 ]
      - [ 6.57332182e-001, 3.90092641e-001, 3.49070638e-001,
          6.23547912e-001, 4.40112948e-001, 5.34893036e-001,
          5.04991949e-001, 3.49070638e-001, 6.79888666e-001 ]
      - [ 7.07295418e-001, 2.66262323e-001, 4.05345887e-001,
          5.07818639e-001, 3.81979674e-001, 5.66994607e-001,
          6.94206893e-001, 4.05345887e-001, 4.65449303e-001 ]
      - [ 4.62958336e-001, 5.75205445e-001, 6.19298995e-001,
          6.88945651e-001, 3.98212075e-001, 3.54681432e-001,
          3.57009977e-001, 6.19298995e-001, 6.82262719e-001 ]
      - [ 2.89456040e-001, 7.11191833e-001, 7.48602867e-001,
          6.89135253e-001, 3.61906707e-001, 3.13342273e-001,
          3.07810873e-001, 7.48602867e-001, 5.80059648e-001 ]
      - [ 4.61385041e-001, 5.58191836e-001, 4.11909312e-001,
          5.41456461e-001, 5.42769849e-001, 5.30881107e-001,
          4.96797264e-001, 4.11909312e-001, 6.21720791e-001 ]
      - [ 7.06157029e-001, 2.73207277e-001, 3.23463976e-001,
          5.11955142e-001, 4.56876874e-001, 5.73853016e-001,
          6.39676094e-001, 3.23463976e-001, 4.81177539e-001 ]
      - [ 5.65479159e-001, 4.28808600e-001, 2.80738503e-001,
          4.77370828e-001, 6.40357971e-001, 5.91781795e-001,
          5.97337544e-001, 2.80738503e-001, 5.32327712e-001 ]
      - [ 6.35059416e-001, 3.67948592e-001, 4.58725929e-001,
          6.47894919e-001, 2.74656802e-001, 4.55161482e-001,
          5.13995945e-001, 4.58725929e-001, 5.52123904e-001 ]
      - [ 4.15599257e-001, 5.66542566e-001, 6.28462732e-001,
          6.73156917e-001, 1.45461515e-001, 3.51698905e-001,
          4.09291655e-001, 6.28462732e-001, 5.06170034e-001 ]
      - [ 6.16664529e-001, 3.99247736e-001, 4.91743088e-001,
          6.78066671e-001, 3.87533635e-001, 3.89692664e-001,
          4.23991263e-001, 4.91743088e-001, 5.91570675e-001 ]
      - [ 3.26792806e-001, 6.33610308e-001, 4.08571780e-001,
          5.94449878e-001, 4.31470633e-001, 5.01351058e-001,
          4.05546159e-001, 4.08571780e-001, 4.40572262e-001 ]
      - [ 2.59333044e-001, 6.62212312e-001, 2.21469760e-001,
          3.58776689e-001, 7.12709367e-001, 6.06269538e-001,
          5.93305469e-001, 2.21469760e-001, 3.13471556e-001 ]
      - [ 1.66112080e-001, 7.78172791e-001, 2.44719565e-001,
          4.39320892e-001, 7.67910302e-001, 6.11634612e-001,
          4.66600507e-001, 2.44719565e-001, 3.88809294e-001 ]
      - [ 5.53017795e-001, 2.76252359e-001, 3.21303643e-002,
          1.37673646e-001, 7.15540588e-001, 8.71239781e-001,
          9.59110200e-001, 3.21303643e-002, 7.98512474e-002 ]
      - [ 5.67499876e-001, 4.53138858e-001, 4.37624842e-001,
          5.99487066e-001, 4.47717786e-001, 5.22559822e-001,
          4.80581939e-001, 4.37624842e-001, 6.11400545e-001 ]
      - [ 5.63810647e-001, 4.23752785e-001, 2.76002079e-001,
          4.01755989e-001, 6.15032434e-001, 5.54439664e-001,
          6.96383476e-001, 2.76002079e-001, 5.12559950e-001 ]
      - [ 7.35858321e-001, 2.58388668e-001, 1.55159295e-001,
          4.28729504e-001, 6.72585130e-001, 7.09022343e-001,
          7.25664556e-001, 1.55159295e-001, 5.19938350e-001 ]
      - [ 6.57523572e-001, 3.75587970e-001, 2.22459480e-001,
          4.13667142e-001, 8.20935905e-001, 5.68873644e-001,
          6.44500256e-001, 2.22459480e-001, 6.37394369e-001 ]
      - [ 6.80070877e-001, 4.15342033e-001, 3.52890521e-001,
          5.45072496e-001, 6.48333073e-001, 5.12966216e-001,
          5.50482154e-001, 3.52890521e-001, 8.21487248e-001 ]
      - [ 4.51941520e-001, 4.69553709e-001, 3.16829145e-001,
          4.07849342e-001, 5.96377969e-001, 6.32081985e-001,
          6.43932641e-001, 3.16829145e-001, 3.20616215e-001 ]
      - [ 5.65723836e-001, 3.94422859e-001, 5.67673683e-001,
          4.77108538e-001, 5.33341348e-001, 3.67072850e-001,
          6.45442843e-001, 5.67673683e-001, 4.32770401e-001 ]
      - [ 4.68143225e-001, 4.77612168e-001, 1.70952395e-001,
          3.95182401e-001, 7.53963709e-001, 7.02989995e-001,
          6.21969223e-001, 1.70952395e-001, 3.92305374e-001 ]
      - [ 2.77430981e-001, 6.38576627e-001, 4.54770684e-001,
          4.64785099e-001, 6.09168112e-001, 4.75828648e-001,
          5.19451201e-001, 4.54770684e-001, 2.96469808e-001 ]
      - [ 2.88896322e-001, 6.95706725e-001, 6.25895739e-001,
          6.81166589e-001, 1.38585836e-001, 3.51481080e-001,
          3.65201890e-001, 6.25895739e-001, 5.24138927e-001 ]
      - [ 4.63339508e-001, 5.24904251e-001, 3.82293880e-001,
          6.03853643e-001, 3.77635270e-001, 5.31102955e-001,
          4.68081027e-001, 3.82293880e-001, 5.21894336e-001 ]
      - [ 2.45603293e-001, 7.53773868e-001, 3.37060034e-001,
          5.68483889e-001, 6.70831740e-001, 4.91834402e-001,
          3.63789022e-001, 3.37060034e-001, 5.80865622e-001 ]
      - [ 3.63595456e-001, 6.45800114e-001, 4.93987232e-001,
          6.84985697e-001, 4.08328086e-001, 4.08762962e-001,
          3.15054655e-001, 4.93987232e-001, 6.00886762e-001 ]
      - [ 3.16339672e-001, 7.21650243e-001, 3.62488568e-001,
          6.02177799e-001, 4.77455944e-001, 5.42108357e-001,
          3.94855857e-001, 3.62488568e-001, 7.08930790e-001 ]
      - [ 4.95195210e-001, 4.96207237e-001, 3.28562319e-001,
          5.33081353e-001, 5.45004547e-001, 4.89424884e-001,
          5.07733405e-001, 3.28562319e-001, 5.29176772e-001 ]
      - [ 1., 0., 3.58567774e-001, 5.27673900e-001, 3.95688117e-001,
          5.24589360e-001, 7.39542425e-001, 3.58567774e-001,
          5.18323123e-001 ]
   decision_functions:
      -
         sv_count: 32
         rho: 3.9154431224966428e+000
         alpha: [ 3.1250000000000000e+002, 9.6802772219802520e+001,
             1.3832592237982601e+002, 1.3682748399174031e+002,
             8.5361573827318139e+001, 2.9274539503354116e+001,
             1.0698296568474423e+002, 3.1250000000000000e+002,
             7.5603352690116935e+001, 3.1250000000000000e+002,
             3.0339721814307336e+002, 3.1250000000000000e+002,
             9.5695477578469159e+000, 3.1250000000000000e+002,
             8.3576107378759303e+001, 3.1250000000000000e+002,
             -3.1250000000000000e+002, -3.1250000000000000e+002,
             -1.8880917502808884e+002, -1.0009692465739333e+002,
             -3.9498555546556496e+001, -1.9063182099430830e+002,
             -1.4501303459837862e+002, -3.1250000000000000e+002,
             -9.4056739177961163e+001, -1.4387844577216055e+002,
             -3.1250000000000000e+002, -2.0936668696105144e+002,
             -1.0535056179639494e+002, -1.9811008975809276e+002,
             -1.6580587046381783e+002, -1.1010357882237803e+002 ]
         index: [ 3, 4, 5, 6, 7, 8, 9, 11, 12, 13, 14, 16, 18, 20, 21,
             22, 23, 24, 26, 27, 29, 32, 34, 35, 38, 40, 41, 46, 47, 51,
             53, 56 ]
      -
         sv_count: 15
         rho: -5.9273873463349007e+000
         alpha: [ 3.1250000000000000e+002, 7.2464933070553300e+001,
             3.1250000000000000e+002, 1.1114866915182786e+002,
             2.3316730031795325e+002, 7.5595805266564938e+001,
             1.7731695034961430e+002, 3.5559422807660738e+001,
             -3.1991893708486887e+000, -1.0568526540480181e+002,
             -3.1250000000000000e+002, -2.8223579037816842e+002,
             -2.6573250279308945e+002, -1.9849536263371087e+002,
             -1.6240497038355537e+002 ]
         index: [ 3, 4, 7, 11, 12, 15, 18, 22, 61, 64, 66, 72, 77, 79,
             81 ]
      -
         sv_count: 19
         rho: -1.9918182400229911e+000
         alpha: [ 1.8538307029574494e+001, 3.1250000000000000e+002,
             2.5832145963542320e+002, 2.0057121046012387e+001,
             9.7307987650960015e+001, 3.1250000000000000e+002,
             3.1250000000000000e+002, 1.6800961788565840e+002,
             3.1250000000000000e+002, -1.3820932338924905e+002,
             -7.5554904666713618e+000, -3.1250000000000000e+002,
             -2.7412619579740433e+001, -3.0758964191565968e+002,
             -3.1250000000000000e+002, -3.1250000000000000e+002,
             -1.0324387350802448e+002, -2.0329310268180069e+002,
             -8.7430441706483109e+001 ]
         index: [ 0, 3, 6, 7, 9, 14, 16, 20, 22, 91, 93, 98, 102, 104,
             105, 108, 109, 110, 113 ]
      -
         sv_count: 18
         rho: 3.1432556725881673e+000
         alpha: [ 5.2209195669615625e+001, 9.4450572257197706e+001,
             5.4971911198174874e+000, 3.1250000000000000e+002,
             3.1239842591290895e+001, 6.2759599913930009e+000,
             3.1250000000000000e+002, -1.6468338877647824e+002,
             -3.1250000000000000e+002, -2.2752627578959697e+001,
             -4.4449075694788057e+001, -2.7247900524937116e+000,
             -8.4717878795876459e+001, -3.8474080697534738e+001,
             -6.7607078263860444e+001, -1.5906898234080519e+001,
             -8.4981367524045641e+000, -5.2358806782837945e+001 ]
         index: [ 6, 9, 11, 13, 14, 16, 22, 120, 124, 127, 131, 134, 136,
             137, 138, 139, 142, 145 ]
      -
         sv_count: 25
         rho: -6.7676302168391320e+000
         alpha: [ 3.1250000000000000e+002, 7.7253404424400742e+001,
             9.6754470005097488e+001, 3.1250000000000000e+002,
             3.1250000000000000e+002, 3.1250000000000000e+002,
             3.1250000000000000e+002, 2.1413751486297801e+002,
             3.1250000000000000e+002, 3.1250000000000000e+002,
             1.3127461629270601e+002, 2.3874984541444940e+002,
             3.5560649675529696e+001, -3.1250000000000000e+002,
             -3.1250000000000000e+002, -3.1250000000000000e+002,
             -1.7962494137624134e+002, -2.0212505507349300e+002,
             -3.1250000000000000e+002, -7.8336767507348483e+001,
             -3.1250000000000000e+002, -3.1250000000000000e+002,
             -7.2913688996064195e+001, -2.6073004772201432e+002,
             -3.1250000000000000e+002 ]
         index: [ 0, 1, 2, 3, 5, 6, 9, 10, 11, 14, 17, 19, 20, 147, 150,
             151, 158, 160, 161, 163, 164, 168, 170, 174, 175 ]
      -
         sv_count: 14
         rho: 2.2844394641667707e+000
         alpha: [ 9.5356601888658687e+001, 2.4310817399553766e+001,
             2.5717908740753683e+002, 3.9891877097436073e+000,
             3.4337776169211750e+001, 2.6146617633407527e+002,
             -3.9127850711852545e+000, -2.3833133819326853e+000,
             -3.2792359670024979e+001, -1.1213775897716462e+002,
             -3.1250000000000000e+002, -1.4192112195342884e+002,
             -6.8050994552036158e+001, -2.9413133030074219e+000 ]
         index: [ 3, 5, 6, 9, 13, 22, 183, 185, 189, 192, 194, 195, 197,
             199 ]
      -
         sv_count: 29
         rho: -3.3404359302340612e+000
         alpha: [ 3.1475647013137579e+001, 3.1250000000000000e+002,
             2.6271217926042146e+002, 2.4509889778162923e+002,
             3.1250000000000000e+002, 1.7222492391624563e+001,
             3.1250000000000000e+002, 3.1250000000000000e+002,
             2.8665348461036638e+002, 3.1250000000000000e+002,
             1.2619761973186077e+002, 6.2330534503577946e+000,
             2.2192203183959993e+001, 9.0234391705360380e+001,
             1.3171271830132522e+002, 3.1250000000000000e+002,
             -2.8955019643791070e+002, -3.1250000000000000e+002,
             -1.1129751950441661e+002, -3.1250000000000000e+002,
             -3.1250000000000000e+002, -3.1554109761379397e+001,
             -3.1250000000000000e+002, -3.1250000000000000e+002,
             -3.1250000000000000e+002, -7.7092826114476210e+001,
             -3.1250000000000000e+002, -8.5238035611860411e+001,
             -3.1250000000000000e+002 ]
         index: [ 24, 25, 26, 27, 28, 30, 33, 34, 36, 48, 49, 53, 55, 56,
             57, 58, 59, 60, 62, 64, 65, 66, 69, 70, 72, 76, 79, 80, 81 ]
      -
         sv_count: 38
         rho: 5.2224027926296550e+000
         alpha: [ 3.7135398517526170e+001, 7.4199236248022601e+001,
             8.3833716972715962e+001, 3.1250000000000000e+002,
             3.1250000000000000e+002, 3.0126691451702154e+001,
             3.1250000000000000e+002, 1.4092609259415073e+002,
             3.1250000000000000e+002, 1.0081191478321020e+002,
             1.2368190862650960e+002, 1.5054637268430815e+001,
             1.9861186776567379e+002, 6.9975592576192795e+001,
             4.5068770131340827e+001, 1.3383936607462960e+001,
             3.1048209677156729e+002, 4.3165635600849498e+001,
             1.4273528252015666e+002, 1.6521478474452704e+002,
             3.1250000000000000e+002, 3.1250000000000000e+002,
             3.1250000000000000e+002, -1.9609232099729897e+002,
             -3.1250000000000000e+002, -1.4908196829337683e+002,
             -3.1250000000000000e+002, -3.1250000000000000e+002,
             -3.0892393642185209e+002, -2.6260077539291888e+002,
             -3.1250000000000000e+002, -3.1250000000000000e+002,
             -3.1250000000000000e+002, -5.8059225290504727e+001,
             -2.2785566125271649e+002, -2.7533412947176930e+002,
             -1.1645954605960179e+002, -3.1250000000000000e+002 ]
         index: [ 23, 25, 26, 28, 30, 31, 32, 33, 35, 36, 37, 39, 41, 45,
             48, 49, 50, 51, 52, 53, 55, 56, 57, 89, 91, 93, 97, 98, 99,
             102, 104, 105, 108, 109, 111, 113, 115, 117 ]
      -
         sv_count: 32
         rho: -2.8196443315671699e-001
         alpha: [ 1.4283915701352262e+002, 3.1250000000000000e+002,
             2.4983480298749594e+001, 3.1250000000000000e+002,
             1.7820979516353339e+002, 2.4572496021809852e+002,
             5.6233256810365226e+000, 9.0467617166618581e+001,
             9.8814651940872722e+001, 9.8251741496441198e+000,
             7.1828850083322195e+001, 1.4498462125554047e+002,
             3.1250000000000000e+002, 2.9508091028038689e+002,
             3.7524971468150021e+001, 3.1250000000000000e+002,
             3.1250000000000000e+002, 6.1900853420912121e+001,
             -3.1250000000000000e+002, -3.1250000000000000e+002,
             -1.8833770331468095e+001, -3.1250000000000000e+002,
             -3.1250000000000000e+002, -3.1250000000000000e+002,
             -2.8635802404221835e+002, -3.1250000000000000e+002,
             -2.2343067795282099e+002, -8.1699375512559243e+001,
             -1.1665403260036489e+002, -4.5620642100522524e+000,
             -3.1250000000000000e+002, -5.1270423490903980e+001 ]
         index: [ 29, 30, 31, 35, 37, 40, 41, 42, 43, 44, 48, 49, 50, 53,
             54, 55, 56, 57, 119, 120, 121, 124, 129, 132, 133, 134, 136,
             137, 139, 142, 143, 145 ]
      -
         sv_count: 27
         rho: 1.2255493555224345e-001
         alpha: [ 3.1250000000000000e+002, 2.1787486853127297e+002,
             3.1250000000000000e+002, 3.1250000000000000e+002,
             3.7282111790263933e+001, 4.1257392587878819e+001,
             1.0545661598691149e+002, 3.1250000000000000e+002,
             3.1250000000000000e+002, 2.6266749333435871e+002,
             1.7041871670111081e+002, 2.5585401605858453e+002,
             -3.1250000000000000e+002, -6.2911330952210855e+000,
             -1.4355492670951992e+002, -3.1250000000000000e+002,
             -7.7014413319155651e+001, -6.9525107385069845e+001,
             -1.1927453193908993e+002, -3.1250000000000000e+002,
             -8.2865436836508366e+001, -1.6999644597402326e+002,
             -1.7825996235928596e+002, -2.5866604236283206e+002,
             -3.1250000000000000e+002, -1.8890688230173243e+001,
             -2.7897252677950223e+002 ]
         index: [ 24, 26, 29, 31, 32, 35, 36, 41, 49, 55, 56, 57, 147,
             150, 152, 153, 155, 157, 158, 159, 161, 163, 167, 170, 172,
             173, 176 ]
      -
         sv_count: 22
         rho: -6.0515447546300960e-001
         alpha: [ 1.0068179129496096e+002, 1.4306863407213459e+002,
             1.3953697506679455e+002, 1.8069272988838696e+002,
             2.3867734547636150e+001, 4.1633920899512642e+000,
             1.2796619842126677e+002, 9.8429126592643655e+001,
             1.7396971114523559e+001, 3.1061702705346119e+002,
             3.1250000000000000e+002, 7.3740885424330131e+001,
             -3.1369134371102682e+001, -3.1250000000000000e+002,
             -7.1521860991106664e+001, -6.1949586296514765e+000,
             -3.1250000000000000e+002, -1.3340326265447203e+002,
             -1.3053585362853752e+002, -2.9260711814038583e+001,
             -1.9287568347718087e+002, -3.1250000000000000e+002 ]
         index: [ 24, 28, 31, 35, 38, 41, 43, 49, 51, 53, 55, 57, 180,
             183, 184, 185, 186, 187, 190, 192, 195, 199 ]
      -
         sv_count: 26
         rho: 6.3872872986200262e+000
         alpha: [ 3.1250000000000000e+002, 3.1250000000000000e+002,
             2.6174509834254820e+002, 1.5368352695485598e+001,
             8.3992507602103839e+000, 3.1250000000000000e+002,
             1.4364528886563132e+001, 7.9520926514760134e+001,
             3.1250000000000000e+002, 1.3452251640218165e+002,
             4.0793115514419132e+000, 3.1250000000000000e+002,
             3.1250000000000000e+002, 3.1250000000000000e+002,
             -5.8113702311507730e+001, -1.5941205187438530e+002,
             -1.5055249040640280e+002, -3.1250000000000000e+002,
             -3.1250000000000000e+002, -1.4490225818101527e+001,
             -3.1250000000000000e+002, -3.1250000000000000e+002,
             -3.1250000000000000e+002, -3.1250000000000000e+002,
             -1.3543151474279375e+002, -3.1250000000000000e+002 ]
         index: [ 59, 63, 67, 69, 71, 72, 73, 75, 76, 80, 82, 83, 84, 85,
             89, 92, 93, 94, 96, 98, 103, 104, 108, 109, 111, 116 ]
      -
         sv_count: 12
         rho: 1.0127133241937112e+000
         alpha: [ 2.4545795917252244e+002, 9.0301681373161614e+001,
             9.5448128151696551e+001, 2.0264551571757488e+002,
             3.0548604681546584e+002, 4.0596574365118506e+001,
             -1.2262455643751888e+002, -6.5505019111319172e+001,
             -3.1250000000000000e+002, -3.1250000000000000e+002,
             -1.0633926642940979e+002, -6.0467063617291380e+001 ]
         index: [ 59, 67, 68, 72, 84, 85, 120, 123, 134, 139, 143, 145 ]
      -
         sv_count: 18
         rho: 7.3164796787996957e+000
         alpha: [ 2.5592227540179715e+002, 3.1250000000000000e+002,
             1.1024694644021736e+001, 3.1250000000000000e+002,
             3.1250000000000000e+002, 3.1250000000000000e+002,
             3.1123919835246738e+002, 2.9894802463867101e+001,
             -1.3120249895725289e+002, -2.1384950994172669e+002,
             -3.1250000000000000e+002, -7.8360122981954675e+001,
             -3.1250000000000000e+002, -3.1250000000000000e+002,
             -1.5237453094452272e+002, -7.9679928498155107e+001,
             -5.8549474803956496e+000, -2.5925943205814536e+002 ]
         index: [ 60, 65, 66, 67, 70, 72, 79, 84, 152, 153, 155, 157,
             159, 161, 164, 167, 170, 173 ]
      -
         sv_count: 18
         rho: 3.2907416252535491e+000
         alpha: [ 2.5386026812166630e+001, 3.1250000000000000e+002,
             1.2125250096615703e+002, 3.1250000000000000e+002,
             3.1250000000000000e+002, 3.8163341256791810e+001,
             1.2891278200928494e+002, 2.5672860635320323e+001,
             3.1250000000000000e+002, -3.1250000000000000e+002,
             -1.5602117463982182e+002, -1.1265667231504861e+000,
             -2.4825930338243219e+002, -1.2699984221465186e+002,
             -3.1250000000000000e+002, -1.5435344067353776e+002,
             -1.9630404949435899e+002, -8.1323134551767751e+001 ]
         index: [ 65, 67, 68, 69, 72, 74, 77, 78, 84, 179, 180, 185, 186,
             192, 195, 198, 199, 201 ]
      -
         sv_count: 48
         rho: 4.0409456667105870e+000
         alpha: [ 3.1250000000000000e+002, 2.0763147219439912e+002,
             2.4762022243520889e+002, 1.3702394309758827e+002,
             3.0345949552968608e+002, 3.1250000000000000e+002,
             1.0653654508877580e+002, 5.0600160052983888e+001,
             3.1250000000000000e+002, 3.1250000000000000e+002,
             3.1250000000000000e+002, 2.4674461485912875e+001,
             3.0576076507798723e+002, 5.2172126543876168e+001,
             3.1250000000000000e+002, 2.6032454246297874e+001,
             3.1250000000000000e+002, 2.8085556618467973e+002,
             1.1555079086491129e+002, 3.1250000000000000e+002,
             3.1250000000000000e+002, 3.1250000000000000e+002,
             1.1192103832392237e+002, 1.0351793924122848e+002,
             -3.1250000000000000e+002, -3.1250000000000000e+002,
             -2.6030239424465003e+002, -3.1250000000000000e+002,
             -1.3153160603445434e+002, -4.9893805509013568e+001,
             -3.0653325279978645e+002, -2.2833831756530543e+002,
             -3.0919016121105557e+002, -7.1238908741216482e+000,
             -3.1250000000000000e+002, -2.5330524812308570e+002,
             -1.0133975499682519e+002, -7.4794357664866268e+001,
             -3.1250000000000000e+002, -8.4036210176946724e+001,
             -1.9984033546006827e+002, -3.1250000000000000e+002,
             -4.8409577184216147e+001, -3.1250000000000000e+002,
             -2.1499008443951084e+002, -3.1250000000000000e+002,
             -1.1622798408355189e+002, -3.1250000000000000e+002 ]
         index: [ 87, 89, 90, 91, 94, 95, 96, 97, 99, 100, 102, 104, 105,
             106, 107, 108, 110, 111, 112, 113, 114, 115, 116, 117, 118,
             119, 120, 121, 122, 123, 124, 126, 127, 128, 129, 130, 131,
             132, 134, 135, 138, 139, 140, 142, 143, 144, 145, 146 ]
      -
         sv_count: 20
         rho: 3.7451667480342490e+000
         alpha: [ 1.9979396326251312e+001, 2.1822935252319290e+001,
             1.5715240459783973e+002, 4.9930882595827896e+001,
             3.1250000000000000e+002, 5.1104947011441979e+001,
             3.1250000000000000e+002, 6.7632408012260342e+001,
             1.6103606507137397e+002, 5.6724858915866015e+001,
             1.8807564701906293e+002, -1.6141851786030509e+002,
             -1.1108524406609510e+001, -2.0055400648815245e+002,
             -1.2654120269523915e+002, -8.5691012005126041e+001,
             -1.0886796183546181e+002, -7.9278319511349181e+001,
             -3.1250000000000000e+002, -3.1250000000000000e+002 ]
         index: [ 86, 93, 96, 98, 99, 101, 104, 105, 108, 109, 111, 147,
             148, 159, 160, 164, 167, 171, 173, 176 ]
      -
         sv_count: 29
         rho: 8.3350440719912005e+000
         alpha: [ 6.1600332951152048e+001, 6.3255008053140898e+001,
             1.8421207009896648e+002, 2.9625613443534515e+001,
             2.0834910107778967e+002, 3.1250000000000000e+002,
             2.8258754607911942e+002, 8.4906881704513921e+000,
             1.7635033158472700e+002, 1.6282670290547435e+002,
             2.5845186669594091e+002, 2.6789573124174105e+001,
             3.1250000000000000e+002, 1.5347322518815892e+002,
             1.3521581606229827e+001, -2.4661124262136389e+002,
             -3.0985528029295879e+000, -5.5050182763473394e+001,
             -1.5584221855809412e+002, -5.9229855891476703e+001,
             -3.1250000000000000e+002, -3.1250000000000000e+002,
             -3.1250000000000000e+002, -1.4961812431483114e+002,
             -1.6016105700311567e+002, -9.7385493420067519e+001,
             -4.4871478112377147e+001, -3.1250000000000000e+002,
             -3.2665435491130154e+001 ]
         index: [ 86, 88, 89, 94, 96, 99, 100, 101, 104, 105, 107, 109,
             110, 111, 114, 177, 178, 180, 183, 185, 186, 187, 191, 192,
             194, 195, 196, 199, 200 ]
      -
         sv_count: 19
         rho: 1.0587867759625966e+000
         alpha: [ 2.7693741460838157e+002, 2.8081909908736415e+000,
             6.0461815666505082e+001, 2.5670131566571575e+002,
             1.4467555592003112e+002, 3.1250000000000000e+002,
             4.6261900406997661e+001, 4.4537447278688717e+001,
             2.1527936761328089e+001, -8.3347709992005846e+001,
             -5.8501261361727678e+001, -6.7373967664473426e+001,
             -3.1250000000000000e+002, -7.7485710853762882e+001,
             -1.0253790433157799e+002, -1.4725040766901603e+001,
             -1.9035306734935531e+001, -1.1840467559313696e+002,
             -3.1250000000000000e+002 ]
         index: [ 120, 123, 125, 127, 130, 134, 139, 140, 145, 153, 156,
             159, 160, 165, 169, 171, 172, 173, 176 ]
      -
         sv_count: 30
         rho: -1.0503183756084626e-001
         alpha: [ 6.7866712180162168e+001, 1.0920057710552025e+002,
             3.1250000000000000e+002, 2.1585384417460932e+002,
             2.6411017232400218e+002, 1.8143080330169590e+000,
             3.1250000000000000e+002, 3.1250000000000000e+002,
             3.1250000000000000e+002, 3.1250000000000000e+002,
             2.1013267667798152e+002, 3.1250000000000000e+002,
             2.6521994023420536e+001, 3.1250000000000000e+002,
             -9.1925501500543554e+000, -1.5117513966940720e+002,
             -1.7532101827675143e+002, -3.1250000000000000e+002,
             -1.7655445199930995e+002, -2.6327001252297902e+002,
             -3.1250000000000000e+002, -1.5327016088286584e+001,
             -1.5970849784689854e+001, -3.1250000000000000e+002,
             -9.1315462234051580e+001, -2.3156196443454076e+002,
             -1.8083152249378153e+002, -3.1250000000000000e+002,
             -2.0998029686486021e+002, -3.1250000000000000e+002 ]
         index: [ 118, 120, 124, 126, 127, 128, 130, 132, 134, 135, 139,
             140, 141, 142, 177, 179, 180, 183, 185, 186, 187, 188, 190,
             191, 192, 193, 194, 196, 199, 200 ]
      -
         sv_count: 26
         rho: 5.0627934962597925e+000
         alpha: [ 2.4992950363028152e+002, 1.3745922463292007e+002,
             3.1250000000000000e+002, 1.3672556221189183e+002,
             2.5159955184148183e+002, 8.0474217759288358e+000,
             3.1250000000000000e+002, 1.5130955821994013e+002,
             6.9455797677736072e+001, 3.1250000000000000e+002,
             3.1250000000000000e+002, 3.1250000000000000e+002,
             -1.9730038395541783e+002, -2.1490907110404356e+002,
             -7.2713495993988753e+000, -3.1250000000000000e+002,
             -6.1143495163637759e+001, -3.1250000000000000e+002,
             -2.9800939400498777e+002, -1.4199743816680450e+002,
             -1.1957001052211112e+002, -7.1715776978581800e+001,
             -2.1955034759010886e+002, -3.1250000000000000e+002,
             -1.8747569096437792e+002, -1.1058366194071075e+002 ]
         index: [ 149, 154, 156, 159, 162, 166, 167, 169, 170, 172, 173,
             176, 177, 179, 180, 181, 182, 186, 190, 192, 194, 195, 196,
             198, 199, 201 ]
