%YAML:1.0
my_svm: !!opencv-ml-svm
   svm_type: C_SVC
   kernel: { type:RBF, gamma:2. }
   C: 7.
   term_criteria: { epsilon:1.1920928955078125e-007, iterations:1000 }
   var_all: 9
   var_count: 9
   class_count: 7
   class_labels: !!opencv-matrix
      rows: 1
      cols: 7
      dt: i
      data: [ 0, 1, 2, 3, 4, 5, 6 ]
   sv_total: 217
   support_vectors:
      - [ 1.41169056e-001, 8.81519675e-001, 8.93604159e-001,
          7.55976796e-001, 6.40320182e-001, 2.10906252e-001,
          1.85835063e-001, 8.93604159e-001, 6.84221804e-001 ]
      - [ 2.07502782e-001, 8.13356400e-001, 6.23729527e-001,
          7.46746778e-001, 8.52494419e-001, 3.37969065e-001,
          1.51573509e-001, 6.23729527e-001, 6.62710607e-001 ]
      - [ 2.68235385e-001, 6.91767871e-001, 6.87010407e-001,
          6.86140776e-001, 5.85747004e-001, 3.88157576e-001,
          3.38783443e-001, 6.87010407e-001, 3.97085667e-001 ]
      - [ 4.48107362e-001, 5.91412485e-001, 2.76422739e-001,
          4.84485209e-001, 5.70250511e-001, 4.69981819e-001,
          4.00690466e-001, 2.76422739e-001, 6.99099302e-001 ]
      - [ 2.11073995e-001, 7.97165990e-001, 4.42252427e-001,
          5.93772471e-001, 4.54239279e-001, 2.95149952e-001,
          1.96218729e-001, 4.42252427e-001, 6.04489088e-001 ]
      - [ 2.37812743e-001, 7.36375809e-001, 6.44748628e-001,
          6.38867855e-001, 6.64650440e-001, 4.12580401e-001,
          2.66694009e-001, 6.44748628e-001, 4.54861611e-001 ]
      - [ 2.48294845e-001, 7.11578369e-001, 2.21802875e-001,
          3.43453169e-001, 3.92792851e-001, 5.47789633e-001,
          4.40493286e-001, 2.21802875e-001, 3.95732462e-001 ]
      - [ 1.43473729e-001, 8.22536647e-001, 6.39963746e-001,
          7.37629116e-001, 6.68693960e-001, 3.25760096e-001,
          1.42990068e-001, 6.39963746e-001, 4.19380993e-001 ]
      - [ 1.86029047e-001, 8.36488068e-001, 6.28383040e-001,
          8.02886784e-001, 8.29640090e-001, 2.97824830e-001,
          1.18990652e-001, 6.28383040e-001, 6.74396217e-001 ]
      - [ 3.98286194e-001, 5.85485101e-001, 3.69148344e-001,
          4.39557642e-001, 4.21181470e-001, 3.99627477e-001,
          4.51731503e-001, 3.69148344e-001, 4.89096105e-001 ]
      - [ 2.24046856e-001, 7.64544308e-001, 3.81186396e-001,
          4.76613551e-001, 5.71157873e-001, 3.76687050e-001,
          2.55660892e-001, 3.81186396e-001, 5.16502500e-001 ]
      - [ 9.62221920e-002, 9.18878853e-001, 5.49878657e-001,
          7.59621561e-001, 9.21667874e-001, 3.53174239e-001,
          6.41554445e-002, 5.49878657e-001, 6.55409336e-001 ]
      - [ 5.45985460e-001, 5.32745600e-001, 6.38422728e-001,
          7.41377413e-001, 8.09217632e-001, 3.75179768e-001,
          3.83607179e-001, 6.38422728e-001, 8.31254661e-001 ]
      - [ 5.23204263e-003, 1., 7.07591772e-001, 6.97662652e-001,
          7.56075442e-001, 4.37133580e-001, 1.46070234e-002,
          7.07591772e-001, 6.20512187e-001 ]
      - [ 3.83262783e-001, 6.43456042e-001, 6.27201319e-001,
          7.40840793e-001, 7.91529834e-001, 2.91906834e-001,
          3.20970923e-001, 6.27201319e-001, 6.58830047e-001 ]
      - [ 2.84466296e-001, 7.12640285e-001, 4.40554827e-001,
          5.13966680e-001, 4.50817555e-001, 3.24815422e-001,
          3.20386022e-001, 4.40554827e-001, 5.48472226e-001 ]
      - [ 4.05786067e-001, 6.20273530e-001, 7.52496898e-001,
          7.89532006e-001, 7.43599892e-001, 2.32355326e-001,
          2.66956061e-001, 7.52496898e-001, 6.52815461e-001 ]
      - [ 3.07223409e-001, 6.50454223e-001, 8.09358358e-001,
          7.02653229e-001, 6.13987982e-001, 2.43737012e-001,
          3.04183841e-001, 8.09358358e-001, 3.89221698e-001 ]
      - [ 2.14520693e-001, 7.92568028e-001, 3.04240763e-001,
          4.63462710e-001, 4.94999349e-001, 4.27619398e-001,
          2.90021181e-001, 3.04240763e-001, 5.98783612e-001 ]
      - [ 4.69907165e-001, 5.42242050e-001, 6.79322898e-001,
          7.21071601e-001, 8.20401251e-001, 2.65366673e-001,
          3.41814220e-001, 6.79322898e-001, 5.91210842e-001 ]
      - [ 0., 9.44493294e-001, 7.47987211e-001, 7.19217420e-001,
          7.68378437e-001, 2.16816053e-001, 1.78504959e-002,
          7.47987211e-001, 3.10513586e-001 ]
      - [ 1.37495637e-001, 9.24750566e-001, 7.82512963e-001,
          7.73816764e-001, 8.33332539e-001, 2.21828729e-001,
          8.16109478e-002, 7.82512963e-001, 8.86129081e-001 ]
      - [ 3.32046598e-001, 6.56054497e-001, 4.24131244e-001,
          4.48396146e-001, 4.75434482e-001, 3.72105122e-001,
          3.93702179e-001, 4.24131244e-001, 5.08664846e-001 ]
      - [ 3.58025044e-001, 6.74493670e-001, 5.93731165e-001,
          6.22511804e-001, 6.68154836e-001, 3.91398013e-001,
          3.13906670e-001, 5.93731165e-001, 6.86879933e-001 ]
      - [ 2.36143693e-001, 7.81738102e-001, 7.39547312e-001,
          7.11975336e-001, 6.60038769e-001, 2.72849202e-001,
          2.68699348e-001, 7.39547312e-001, 6.44353032e-001 ]
      - [ 3.31502467e-001, 6.59292698e-001, 6.82781756e-001,
          6.73490822e-001, 6.80427015e-001, 3.50598484e-001,
          2.94871211e-001, 6.82781756e-001, 5.19602597e-001 ]
      - [ 2.77757466e-001, 7.05402911e-001, 1., 8.35633874e-001,
          6.65175200e-001, 9.74138305e-002, 1.70157015e-001, 1.,
          4.91175801e-001 ]
      - [ 2.64751732e-001, 7.67805457e-001, 7.44478226e-001,
          8.44021440e-001, 8.07349324e-001, 1.83672085e-001,
          1.47479281e-001, 7.44478226e-001, 7.04899907e-001 ]
      - [ 2.94224292e-001, 6.92777991e-001, 6.38096213e-001,
          5.97059548e-001, 5.82259476e-001, 2.39968419e-001,
          3.35855186e-001, 6.38096213e-001, 5.06217718e-001 ]
      - [ 3.70583206e-001, 5.89758754e-001, 5.52167296e-001,
          3.83712292e-001, 3.68101776e-001, 2.86569864e-001,
          5.29073536e-001, 5.52167296e-001, 4.01170075e-001 ]
      - [ 1.18630007e-001, 8.82349968e-001, 2.84554303e-001,
          4.77675140e-001, 5.07280171e-001, 4.77187574e-001,
          2.62808681e-001, 2.84554303e-001, 5.82238913e-001 ]
      - [ 3.74439836e-001, 6.31259143e-001, 1.84808612e-001,
          4.41183031e-001, 3.82687062e-001, 5.81147492e-001,
          4.55601633e-001, 1.84808612e-001, 5.75498879e-001 ]
      - [ 3.82964253e-001, 6.65618062e-001, 5.05763829e-001,
          7.25341678e-001, 6.47936344e-001, 3.43465894e-001,
          2.17871010e-001, 5.05763829e-001, 7.48982668e-001 ]
      - [ 5.07149816e-001, 5.47556639e-001, 4.56330240e-001,
          6.94968462e-001, 5.41213214e-001, 4.35123235e-001,
          4.08947289e-001, 4.56330240e-001, 7.47207820e-001 ]
      - [ 3.77357781e-001, 6.42414808e-001, 3.79431218e-001,
          6.26230955e-001, 5.64873099e-001, 4.82845306e-001,
          3.41745853e-001, 3.79431218e-001, 6.31586313e-001 ]
      - [ 4.16308761e-001, 6.07431471e-001, 5.67111373e-001,
          6.90574706e-001, 5.34906685e-001, 3.57722223e-001,
          3.11753213e-001, 5.67111373e-001, 6.42108023e-001 ]
      - [ 6.06807828e-001, 4.70475763e-001, 3.20193887e-001,
          6.57839477e-001, 7.10296273e-001, 5.22897542e-001,
          4.64329392e-001, 3.20193887e-001, 8.10819805e-001 ]
      - [ 5.29893339e-001, 5.17182052e-001, 5.83326936e-001,
          7.22701013e-001, 6.09010279e-001, 2.93698013e-001,
          3.47047836e-001, 5.83326936e-001, 7.13852346e-001 ]
      - [ 4.66521114e-001, 5.24482906e-001, 3.80953878e-001,
          4.01721060e-001, 5.03531456e-001, 4.18416053e-001,
          5.04428446e-001, 3.80953878e-001, 5.13157189e-001 ]
      - [ 2.91445881e-001, 6.55899942e-001, 3.24242055e-001,
          2.61344969e-001, 4.22821492e-001, 5.03020167e-001,
          5.31048477e-001, 3.24242055e-001, 3.48171681e-001 ]
      - [ 5.05686581e-001, 5.22173405e-001, 5.62379539e-001,
          6.54684901e-001, 6.28881037e-001, 3.94343227e-001,
          3.86641741e-001, 5.62379539e-001, 6.45759881e-001 ]
      - [ 4.28048998e-001, 6.27092063e-001, 5.68914592e-001,
          7.26248682e-001, 5.08232892e-001, 3.41836125e-001,
          3.32364857e-001, 5.68914592e-001, 7.66016960e-001 ]
      - [ 7.36759365e-001, 3.10267746e-001, 5.06392181e-001,
          6.66169941e-001, 5.25600970e-001, 3.20502669e-001,
          6.07266307e-001, 5.06392181e-001, 6.81278348e-001 ]
      - [ 3.38331968e-001, 6.26650810e-001, 3.93595099e-001,
          4.07905370e-001, 3.96065116e-001, 4.44242537e-001,
          5.00748217e-001, 3.93595099e-001, 4.18024570e-001 ]
      - [ 4.01595294e-001, 6.63828373e-001, 5.16060412e-001,
          7.45636463e-001, 6.64882183e-001, 3.17453176e-001,
          2.79143780e-001, 5.16060412e-001, 8.15256476e-001 ]
      - [ 2.88194776e-001, 7.66127110e-001, 5.56138098e-001,
          7.74393320e-001, 6.88254058e-001, 2.62758821e-001,
          1.51657060e-001, 5.56138098e-001, 7.97537923e-001 ]
      - [ 7.46037126e-001, 2.26792961e-001, 3.10112298e-001,
          3.55393678e-001, 2.69107133e-001, 5.13932824e-001,
          8.36975574e-001, 3.10112298e-001, 4.46456730e-001 ]
      - [ 3.03401321e-001, 6.49936795e-001, 5.21201491e-001,
          3.62713128e-001, 3.78965020e-001, 3.99485230e-001,
          5.02958596e-001, 5.21201491e-001, 3.72010797e-001 ]
      - [ 1.95938975e-001, 7.62222648e-001, 3.88635695e-001,
          3.78003418e-001, 3.94506752e-001, 4.87848490e-001,
          4.00743634e-001, 3.88635695e-001, 3.86762589e-001 ]
      - [ 4.03841585e-001, 6.54479384e-001, 4.47674543e-001,
          4.98688519e-001, 6.02072060e-001, 4.40539032e-001,
          4.25483674e-001, 4.47674543e-001, 7.84723938e-001 ]
      - [ 4.82248157e-001, 4.60657626e-001, 3.59785318e-001,
          4.38869625e-001, 3.84731263e-001, 5.69919705e-001,
          6.25834584e-001, 3.59785318e-001, 3.44131738e-001 ]
      - [ 4.11941946e-001, 6.11241460e-001, 7.05187678e-001,
          7.37167776e-001, 5.20644009e-001, 2.42274389e-001,
          3.13450933e-001, 7.05187678e-001, 6.40415132e-001 ]
      - [ 3.67016643e-001, 6.41273320e-001, 2.00210884e-001,
          4.14272249e-001, 4.86416161e-001, 5.42746484e-001,
          3.91514570e-001, 2.00210884e-001, 5.86500704e-001 ]
      - [ 1.20134689e-001, 8.81786287e-001, 5.70795894e-001,
          7.29898214e-001, 5.77021182e-001, 3.25462759e-001,
          1.01231307e-001, 5.70795894e-001, 5.86756289e-001 ]
      - [ 3.62335294e-001, 7.03653574e-001, 7.72786319e-001,
          7.89325476e-001, 7.08817422e-001, 1.44745082e-001,
          2.46587515e-001, 7.72786319e-001, 8.28554094e-001 ]
      - [ 5.09982169e-001, 5.18794715e-001, 3.14471871e-001,
          5.55118501e-001, 5.36421359e-001, 5.27572870e-001,
          5.20528078e-001, 3.14471871e-001, 6.48479760e-001 ]
      - [ 2.70136595e-001, 7.21775770e-001, 7.31370568e-001,
          7.18867481e-001, 5.34627616e-001, 2.11678773e-001,
          1.89363390e-001, 7.31370568e-001, 5.27920008e-001 ]
      - [ 5.60938478e-001, 5.25276780e-001, 5.29358804e-001,
          7.21346796e-001, 7.19406068e-001, 3.30392867e-001,
          3.33792895e-001, 5.29358804e-001, 8.56298983e-001 ]
      - [ 2.53276318e-001, 7.34090626e-001, 6.02634132e-001,
          6.31816924e-001, 3.86204809e-001, 3.75385076e-001,
          3.15182805e-001, 6.02634132e-001, 5.09770751e-001 ]
      - [ 4.18835491e-001, 5.59587955e-001, 3.45562577e-001,
          3.77198458e-001, 3.29274058e-001, 5.02656460e-001,
          5.94432950e-001, 3.45562577e-001, 4.68558222e-001 ]
      - [ 3.87671024e-001, 5.89994311e-001, 3.56644809e-001,
          4.50816035e-001, 5.13582766e-001, 4.65681791e-001,
          4.51872021e-001, 3.56644809e-001, 4.66362089e-001 ]
      - [ 3.22483182e-001, 6.97247624e-001, 4.47701097e-001,
          6.56734765e-001, 5.67915499e-001, 4.62040693e-001,
          3.10059339e-001, 4.47701097e-001, 6.39178634e-001 ]
      - [ 3.64314109e-001, 6.37745261e-001, 5.26589930e-001,
          6.35525942e-001, 4.62962210e-001, 4.30046320e-001,
          3.57249200e-001, 5.26589930e-001, 5.62166393e-001 ]
      - [ 3.92172486e-001, 5.55764735e-001, 6.15855038e-001,
          4.37367588e-001, 4.42568004e-001, 2.96323776e-001,
          4.92715478e-001, 6.15855038e-001, 3.56416613e-001 ]
      - [ 4.82017338e-001, 5.41563809e-001, 4.05123830e-001,
          4.99617875e-001, 5.03959894e-001, 3.38646650e-001,
          4.53383625e-001, 4.05123830e-001, 6.32559359e-001 ]
      - [ 4.03146595e-001, 6.52526557e-001, 4.75710839e-001,
          7.66573846e-001, 4.23709095e-001, 2.59144634e-001,
          2.02246130e-001, 4.75710839e-001, 7.74071991e-001 ]
      - [ 2.94718057e-001, 7.42069781e-001, 7.42029130e-001,
          8.22393239e-001, 6.17456496e-001, 1.70044392e-001,
          1.98216468e-001, 7.42029130e-001, 7.17578053e-001 ]
      - [ 5.38498700e-001, 5.58575451e-001, 6.31299257e-001,
          7.82279968e-001, 7.22335339e-001, 2.25512266e-001,
          3.62547368e-001, 6.31299257e-001, 9.05555785e-001 ]
      - [ 4.88075227e-001, 6.03821039e-001, 5.29467344e-001,
          8.07791293e-001, 4.90627229e-001, 2.40994096e-001,
          3.25524688e-001, 5.29467344e-001, 9.00374413e-001 ]
      - [ 3.35532755e-001, 6.65243030e-001, 5.35133958e-001,
          6.42744243e-001, 5.00805736e-001, 3.78903121e-001,
          3.55452746e-001, 5.35133958e-001, 5.59552372e-001 ]
      - [ 5.50878584e-001, 5.55603027e-001, 4.21265304e-001,
          7.94602573e-001, 4.40383673e-001, 3.49245697e-001,
          3.63079101e-001, 4.21265304e-001, 9.39638674e-001 ]
      - [ 6.91760898e-001, 4.02038008e-001, 5.09535372e-001,
          6.85076296e-001, 7.34353423e-001, 3.86059701e-001,
          4.44978684e-001, 5.09535372e-001, 8.50699127e-001 ]
      - [ 3.15427184e-001, 7.17025220e-001, 4.82313484e-001,
          7.28815019e-001, 4.47482377e-001, 2.91482657e-001,
          2.29048461e-001, 4.82313484e-001, 6.94563627e-001 ]
      - [ 2.49913573e-001, 7.40742505e-001, 7.06626058e-001,
          7.82858074e-001, 5.64682305e-001, 2.18357280e-001,
          1.88151821e-001, 7.06626058e-001, 5.24320006e-001 ]
      - [ 6.10791266e-001, 4.42789763e-001, 8.68417084e-001,
          9.44399714e-001, 4.93744493e-001, 1.12412296e-001,
          2.78805763e-001, 8.68417084e-001, 7.23737597e-001 ]
      - [ 7.60119140e-001, 2.17698872e-001, 4.28009570e-001,
          5.20378411e-001, 4.00417477e-001, 4.39332485e-001,
          7.71673143e-001, 4.28009570e-001, 4.61466998e-001 ]
      - [ 6.73674524e-001, 4.12703305e-001, 7.87662983e-001,
          8.68724108e-001, 3.96567732e-001, 4.52007800e-002,
          3.45486850e-001, 7.87662983e-001, 8.28462183e-001 ]
      - [ 3.78483295e-001, 6.58397138e-001, 5.16849697e-001,
          7.31854498e-001, 2.73930848e-001, 2.75095791e-001,
          3.08376819e-001, 5.16849697e-001, 7.01335669e-001 ]
      - [ 3.96502882e-001, 6.91117287e-001, 5.93119144e-001,
          8.97219062e-001, 5.42814016e-001, 3.07029754e-001,
          2.31156334e-001, 5.93119144e-001, 9.12511766e-001 ]
      - [ 3.55612367e-001, 6.78186536e-001, 6.56264901e-001,
          8.57856154e-001, 5.85864067e-001, 2.62694597e-001,
          1.89397559e-001, 6.56264901e-001, 6.93081796e-001 ]
      - [ 5.55317760e-001, 4.78032827e-001, 3.41789544e-001,
          6.96424246e-001, 4.75806773e-001, 5.16746640e-001,
          4.51123834e-001, 3.41789544e-001, 6.59581482e-001 ]
      - [ 5.00614524e-001, 5.21445811e-001, 5.36936164e-001,
          6.67007089e-001, 3.95686954e-001, 2.81860620e-001,
          4.78883237e-001, 5.36936164e-001, 6.24844968e-001 ]
      - [ 4.25559700e-001, 6.84416413e-001, 8.71629775e-001,
          9.98347104e-001, 6.67341769e-001, 0., 3.54579240e-002,
          8.71629775e-001, 1. ]
      - [ 5.00784159e-001, 5.41951776e-001, 7.85183072e-001,
          8.03733349e-001, 6.75095856e-001, 1.50003359e-001,
          2.39834711e-001, 7.85183072e-001, 7.02614427e-001 ]
      - [ 6.68323040e-001, 3.75660062e-001, 5.03895044e-001,
          7.26316512e-001, 1.86904371e-001, 3.36000919e-001,
          5.80722213e-001, 5.03895044e-001, 6.81130946e-001 ]
      - [ 3.54880273e-001, 6.49407864e-001, 5.59026599e-001,
          6.52455330e-001, 5.99210382e-001, 3.86954278e-001,
          3.13272417e-001, 5.59026599e-001, 5.71967900e-001 ]
      - [ 6.81606770e-001, 3.99207026e-001, 5.46108961e-001,
          6.82301939e-001, 6.39668524e-001, 3.93806696e-001,
          5.40099025e-001, 5.46108961e-001, 8.06769967e-001 ]
      - [ 5.08175611e-001, 5.34130096e-001, 5.13991237e-001,
          7.10683644e-001, 4.29824531e-001, 3.00233513e-001,
          3.53572756e-001, 5.13991237e-001, 6.99710369e-001 ]
      - [ 3.03859085e-001, 7.26910770e-001, 5.79982102e-001,
          7.08002985e-001, 6.00630641e-001, 3.29238355e-001,
          2.33222425e-001, 5.79982102e-001, 6.89371765e-001 ]
      - [ 4.02532041e-001, 6.12078309e-001, 6.18794322e-001,
          7.06372321e-001, 6.10860407e-001, 3.60762864e-001,
          3.01813900e-001, 6.18794322e-001, 6.08120322e-001 ]
      - [ 5.34172952e-001, 4.43487704e-001, 5.68750978e-001,
          6.10007465e-001, 4.69213605e-001, 3.90525073e-001,
          5.72780669e-001, 5.68750978e-001, 4.64494079e-001 ]
      - [ 4.20288205e-001, 6.34421349e-001, 4.21344995e-001,
          7.64558792e-001, 6.57881081e-001, 4.02517974e-001,
          2.77567625e-001, 4.21344995e-001, 7.66424000e-001 ]
      - [ 5.85721135e-001, 4.69235480e-001, 6.20598614e-001,
          7.33139038e-001, 5.98617792e-001, 2.69349933e-001,
          4.43926662e-001, 6.20598614e-001, 7.33051300e-001 ]
      - [ 9.71247077e-001, 9.07010511e-002, 4.09528971e-001,
          6.26742721e-001, 2.53458291e-001, 3.90399009e-001,
          8.30431700e-001, 4.09528971e-001, 6.96778953e-001 ]
      - [ 4.23405886e-001, 5.62349975e-001, 4.02803987e-001,
          5.38384199e-001, 7.10048258e-001, 5.39587021e-001,
          4.14758176e-001, 4.02803987e-001, 4.96270418e-001 ]
      - [ 3.92822117e-001, 6.08627141e-001, 4.57675248e-001,
          5.86454511e-001, 3.84235233e-001, 3.25675100e-001,
          3.80435854e-001, 4.57675248e-001, 5.57885885e-001 ]
      - [ 3.90311718e-001, 6.15153670e-001, 3.10832649e-001,
          4.96974260e-001, 4.53443348e-001, 4.00836021e-001,
          4.26790178e-001, 3.10832649e-001, 5.73743463e-001 ]
      - [ 3.51294726e-001, 5.60418427e-001, 2.36910343e-001,
          2.62988955e-001, 3.15201968e-001, 5.84140718e-001,
          6.12374544e-001, 2.36910343e-001, 2.23312363e-001 ]
      - [ 6.15967572e-001, 3.78324866e-001, 3.26128930e-001,
          5.25302529e-001, 3.40219557e-001, 4.15357858e-001,
          5.96001506e-001, 3.26128930e-001, 5.18135726e-001 ]
      - [ 4.94945019e-001, 5.68746328e-001, 3.85935307e-001,
          7.66633213e-001, 2.38084674e-001, 3.74928534e-001,
          3.75661790e-001, 3.85935307e-001, 7.85550714e-001 ]
      - [ 4.34280366e-001, 5.05431592e-001, 4.21930701e-001,
          4.91208255e-001, 5.58350742e-001, 5.11032045e-001,
          5.33410788e-001, 4.21930701e-001, 3.30372602e-001 ]
      - [ 5.73129594e-001, 4.11197513e-001, 3.51910740e-001,
          5.45372725e-001, 3.12695295e-001, 4.43996608e-001,
          6.04387403e-001, 3.51910740e-001, 4.86464202e-001 ]
      - [ 4.20593828e-001, 5.79870760e-001, 3.04708093e-001,
          5.40530264e-001, 3.46792579e-001, 4.62490112e-001,
          4.21222329e-001, 3.04708093e-001, 5.51933825e-001 ]
      - [ 4.38619822e-001, 5.00001788e-001, 4.80997056e-001,
          4.09784943e-001, 5.17671049e-001, 4.75608557e-001,
          6.42754614e-001, 4.80997056e-001, 3.26956660e-001 ]
      - [ 7.88018823e-001, 1.48797438e-001, 1.50825202e-001,
          2.78022170e-001, 2.23769352e-001, 6.65502191e-001,
          9.03964341e-001, 1.50825202e-001, 3.42764407e-001 ]
      - [ 6.42445743e-001, 3.43152165e-001, 3.59151483e-001,
          5.53874791e-001, 3.44212323e-001, 4.65830147e-001,
          6.17931008e-001, 3.59151483e-001, 4.88746166e-001 ]
      - [ 2.36917794e-001, 7.04853594e-001, 5.65868676e-001,
          4.55688775e-001, 5.27588665e-001, 4.52800810e-001,
          4.47170138e-001, 5.65868676e-001, 3.22733879e-001 ]
      - [ 3.89751881e-001, 6.56028807e-001, 4.34031129e-001,
          7.39962459e-001, 4.08468723e-001, 2.76410043e-001,
          2.53556818e-001, 4.34031129e-001, 7.36377954e-001 ]
      - [ 3.85777950e-001, 5.77004433e-001, 3.15723449e-001,
          4.38512444e-001, 7.37725735e-001, 5.14161050e-001,
          5.05058885e-001, 3.15723449e-001, 4.11137789e-001 ]
      - [ 4.27560985e-001, 6.59581304e-001, 6.26942039e-001,
          8.80910873e-001, 5.55831313e-001, 1.10275947e-001,
          1.12272024e-001, 6.26942039e-001, 9.00163710e-001 ]
      - [ 6.49580836e-001, 4.51699883e-001, 4.57841754e-001,
          7.51489043e-001, 4.63000178e-001, 3.05303693e-001,
          4.31252807e-001, 4.57841754e-001, 8.89511764e-001 ]
      - [ 5.17996907e-001, 5.42280376e-001, 5.08652985e-001,
          7.32242525e-001, 4.60681170e-001, 2.09078819e-001,
          2.77301759e-001, 5.08652985e-001, 7.67014384e-001 ]
      - [ 4.62873846e-001, 5.56376576e-001, 2.16850504e-001,
          4.67285693e-001, 7.23411322e-001, 6.40043736e-001,
          5.41811943e-001, 2.16850504e-001, 6.19109988e-001 ]
      - [ 5.31469107e-001, 4.76179600e-001, 4.48865622e-001,
          4.67415899e-001, 3.22194040e-001, 4.22980547e-001,
          6.01379454e-001, 4.48865622e-001, 5.69376945e-001 ]
      - [ 5.65728247e-001, 3.54831308e-001, 4.07393813e-001,
          3.74766201e-001, 5.07753968e-001, 5.36218762e-001,
          7.65425503e-001, 4.07393813e-001, 2.78136551e-001 ]
      - [ 6.74596667e-001, 3.73735130e-001, 3.15425128e-001,
          5.78332126e-001, 3.42084020e-001, 4.45130169e-001,
          5.62989473e-001, 3.15425128e-001, 6.95176780e-001 ]
      - [ 5.40507615e-001, 3.55683923e-001, 4.67387617e-001,
          3.63896698e-001, 4.26140010e-001, 5.02529740e-001,
          7.15288401e-001, 4.67387617e-001, 1.99098766e-001 ]
      - [ 5.77191710e-001, 4.53646749e-001, 4.17212874e-001,
          4.55357134e-001, 3.73905867e-001, 3.27365935e-001,
          5.78375101e-001, 4.17212874e-001, 6.47390604e-001 ]
      - [ 6.11775815e-001, 4.11099881e-001, 4.35689062e-001,
          6.01336837e-001, 3.42529178e-001, 3.23511630e-001,
          5.66620350e-001, 4.35689062e-001, 6.15622282e-001 ]
      - [ 7.24969864e-001, 3.88345093e-001, 5.94763696e-001,
          7.63483405e-001, 4.00259912e-001, 2.78172106e-001,
          5.18234074e-001, 5.94763696e-001, 9.12368655e-001 ]
      - [ 4.31924343e-001, 5.11859357e-001, 3.93827081e-001,
          3.33752602e-001, 4.28089052e-001, 3.72729033e-001,
          5.23080289e-001, 3.93827081e-001, 3.44570994e-001 ]
      - [ 3.38583291e-001, 6.52188182e-001, 6.91012204e-001,
          6.12759590e-001, 7.46679366e-001, 2.67551154e-001,
          2.95042127e-001, 6.91012204e-001, 5.19638717e-001 ]
      - [ 3.67062420e-001, 6.55478179e-001, 5.64239323e-001,
          6.92550361e-001, 6.85889959e-001, 3.27055097e-001,
          3.47894788e-001, 5.64239323e-001, 6.44770622e-001 ]
      - [ 6.88411057e-001, 3.13084602e-001, 3.90398473e-001,
          4.48711991e-001, 5.34870505e-001, 5.68007231e-001,
          7.77332127e-001, 3.90398473e-001, 5.38115859e-001 ]
      - [ 3.32838058e-001, 6.09959662e-001, 2.15281487e-001,
          2.49617457e-001, 3.01575065e-001, 6.00835085e-001,
          6.28474176e-001, 2.15281487e-001, 3.34395677e-001 ]
      - [ 3.37170929e-001, 6.74508214e-001, 5.47059596e-001,
          6.57421768e-001, 6.70151711e-001, 3.54318470e-001,
          3.36140037e-001, 5.47059596e-001, 6.04213357e-001 ]
      - [ 4.08208638e-001, 5.49485981e-001, 5.69524884e-001,
          5.12355626e-001, 6.09880388e-001, 3.84471297e-001,
          4.99270797e-001, 5.69524884e-001, 3.93022001e-001 ]
      - [ 6.67817831e-001, 3.90592635e-001, 4.14391756e-001,
          6.93070769e-001, 3.53636533e-001, 3.45754564e-001,
          5.30566156e-001, 4.14391756e-001, 7.30757177e-001 ]
      - [ 5.74904084e-001, 3.90609086e-001, 1.51744619e-001,
          4.83319134e-001, 5.15112758e-001, 6.67431116e-001,
          6.32933021e-001, 1.51744619e-001, 4.23388422e-001 ]
      - [ 4.96109545e-001, 4.37857389e-001, 2.69791931e-001,
          2.38209754e-001, 4.11358029e-001, 6.14272892e-001,
          7.89561629e-001, 2.69791931e-001, 3.15520436e-001 ]
      - [ 5.43623030e-001, 4.29682702e-001, 3.81427616e-001,
          3.34050775e-001, 4.13269013e-001, 4.92053092e-001,
          6.34664893e-001, 3.81427616e-001, 4.49368656e-001 ]
      - [ 3.27220500e-001, 5.70270360e-001, 2.31665805e-001,
          1.16446622e-001, 3.94654006e-001, 5.88579476e-001,
          6.76993370e-001, 2.31665805e-001, 1.68934047e-001 ]
      - [ 3.36239040e-001, 5.98833978e-001, 3.45557392e-001,
          2.07267404e-001, 4.08830494e-001, 5.12130439e-001,
          5.49537003e-001, 3.45557392e-001, 3.05764884e-001 ]
      - [ 2.87272900e-001, 6.80483878e-001, 3.24069202e-001,
          3.45113605e-001, 3.84862632e-001, 5.86397171e-001,
          5.66730499e-001, 3.24069202e-001, 4.28975999e-001 ]
      - [ 5.30387998e-001, 5.21096945e-001, 6.01351738e-001,
          7.89086699e-001, 4.97025698e-001, 2.84505129e-001,
          3.72570246e-001, 6.01351738e-001, 7.30766475e-001 ]
      - [ 3.33824873e-001, 6.08907521e-001, 3.52506489e-001,
          3.83018285e-001, 4.94105130e-001, 6.42361104e-001,
          5.28621554e-001, 3.52506489e-001, 3.34064513e-001 ]
      - [ 4.47308362e-001, 5.76216757e-001, 3.51292759e-001,
          4.99430209e-001, 6.05383873e-001, 5.08607209e-001,
          4.47416991e-001, 3.51292759e-001, 6.37622893e-001 ]
      - [ 5.01951635e-001, 4.56179231e-001, 4.02628839e-001,
          5.32019854e-001, 3.34065139e-001, 3.97827387e-001,
          5.05358934e-001, 4.02628839e-001, 3.97343576e-001 ]
      - [ 3.66339475e-001, 5.73007226e-001, 5.90510488e-001,
          5.13361633e-001, 3.60596687e-001, 3.80360961e-001,
          5.28355718e-001, 5.90510488e-001, 3.23986560e-001 ]
      - [ 4.53514248e-001, 6.04762495e-001, 4.59097415e-001,
          4.52829361e-001, 7.68250108e-001, 3.40217650e-001,
          4.29836154e-001, 4.59097415e-001, 7.73374796e-001 ]
      - [ 5.99930108e-001, 3.96792293e-001, 3.09307933e-001,
          6.55481815e-001, 2.95333296e-001, 4.52028483e-001,
          5.23995638e-001, 3.09307933e-001, 5.27166903e-001 ]
      - [ 3.95224541e-001, 5.78349531e-001, 4.18903887e-001,
          4.06594247e-001, 4.90480244e-001, 4.94509578e-001,
          6.13498747e-001, 4.18903887e-001, 4.51423824e-001 ]
      - [ 2.77344644e-001, 7.04870760e-001, 2.74861366e-001,
          4.47617531e-001, 4.48208481e-001, 6.02391601e-001,
          4.82514113e-001, 2.74861366e-001, 4.87819463e-001 ]
      - [ 3.69705826e-001, 6.46643460e-001, 3.51958930e-001,
          4.54339027e-001, 4.46755499e-001, 5.80964863e-001,
          5.70258796e-001, 3.51958930e-001, 6.19353592e-001 ]
      - [ 3.90450269e-001, 5.80001831e-001, 4.10836577e-001,
          4.46140021e-001, 4.75620359e-001, 4.54775661e-001,
          5.16730070e-001, 4.10836577e-001, 4.39800322e-001 ]
      - [ 2.31442958e-001, 7.19297528e-001, 1.65527329e-001,
          3.09735954e-001, 4.72926348e-001, 6.94764197e-001,
          4.26285058e-001, 1.65527329e-001, 3.58299196e-001 ]
      - [ 5.79150915e-001, 4.27469224e-001, 1.89867854e-001,
          4.35656130e-001, 5.76566279e-001, 6.39609814e-001,
          6.47441328e-001, 1.89867854e-001, 5.62341034e-001 ]
      - [ 4.42321599e-001, 5.92016339e-001, 6.99398816e-001,
          7.60180533e-001, 5.52407980e-001, 2.00381234e-001,
          2.78726012e-001, 6.99398816e-001, 6.80280864e-001 ]
      - [ 6.02259994e-001, 4.19432938e-001, 5.12524247e-001,
          6.29880786e-001, 5.91085613e-001, 4.47773904e-001,
          4.91496325e-001, 5.12524247e-001, 6.12342298e-001 ]
      - [ 5.00598192e-001, 4.24896657e-001, 0., 2.15669408e-001,
          4.91242915e-001, 7.84617186e-001, 7.48110533e-001, 0.,
          2.87787110e-001 ]
      - [ 1.76975206e-001, 7.31519699e-001, 5.28279066e-001,
          4.41190302e-001, 3.49733353e-001, 4.61379111e-001,
          4.04412478e-001, 5.28279066e-001, 1.81727067e-001 ]
      - [ 4.43348616e-001, 5.20878971e-001, 3.17543447e-001,
          4.35554534e-001, 3.91855985e-001, 4.58088219e-001,
          5.42556345e-001, 3.17543447e-001, 4.17243212e-001 ]
      - [ 3.34003627e-001, 7.06489205e-001, 5.89045346e-001,
          6.09739959e-001, 6.74305499e-001, 4.17459577e-001,
          3.28665614e-001, 5.89045346e-001, 7.25616515e-001 ]
      - [ 3.04158598e-001, 6.39494419e-001, 3.81812990e-001,
          5.03827393e-001, 4.30375963e-001, 5.55657089e-001,
          4.72331733e-001, 3.81812990e-001, 3.35042864e-001 ]
      - [ 3.88128102e-001, 5.64760685e-001, 4.73100036e-001,
          2.96758831e-001, 4.66175318e-001, 3.76743972e-001,
          5.23509502e-001, 4.73100036e-001, 3.74683827e-001 ]
      - [ 3.78389776e-001, 5.65211236e-001, 4.39896345e-001,
          5.40760994e-001, 4.22277331e-001, 5.07470608e-001,
          4.88287032e-001, 4.39896345e-001, 3.40363771e-001 ]
      - [ 5.46120405e-001, 3.35287809e-001, 3.09756935e-001, 0., 0., 1.,
          1., 3.09756935e-001, 1.54285267e-001 ]
      - [ 3.53436619e-001, 6.42333329e-001, 3.58855754e-001,
          5.73300958e-001, 7.41009653e-001, 5.16856432e-001,
          4.03876990e-001, 3.58855754e-001, 5.38221300e-001 ]
      - [ 6.22697651e-001, 4.14565802e-001, 4.71126169e-001,
          5.83784401e-001, 7.14179218e-001, 4.34138834e-001,
          5.43114662e-001, 4.71126169e-001, 6.64115191e-001 ]
      - [ 6.60776421e-002, 9.01787758e-001, 5.63332021e-001,
          6.09673738e-001, 6.90950036e-001, 4.24389869e-001,
          2.18474880e-001, 5.63332021e-001, 4.27020997e-001 ]
      - [ 3.00172001e-001, 6.89626217e-001, 4.28864062e-001,
          6.17261469e-001, 7.99932539e-001, 4.64400530e-001,
          3.01361948e-001, 4.28864062e-001, 5.17566562e-001 ]
      - [ 7.90065825e-001, 2.50106424e-001, 5.75676978e-001,
          6.40471220e-001, 5.84936142e-001, 3.57560426e-001,
          6.83320820e-001, 5.75676978e-001, 6.52700841e-001 ]
      - [ 1.80978253e-001, 8.69327188e-001, 5.25001585e-001,
          6.87227547e-001, 8.78980875e-001, 3.72165769e-001,
          1.08565196e-001, 5.25001585e-001, 8.10221314e-001 ]
      - [ 3.41684848e-001, 7.02306867e-001, 6.21222258e-001,
          6.40845001e-001, 7.92833269e-001, 3.16568583e-001,
          3.15095454e-001, 6.21222258e-001, 7.38967597e-001 ]
      - [ 2.29900792e-001, 7.09959745e-001, 4.43951547e-001,
          5.73019624e-001, 5.82065165e-001, 5.14175713e-001,
          4.03611124e-001, 4.43951547e-001, 3.14308017e-001 ]
      - [ 2.45240897e-001, 8.09891522e-001, 5.74552298e-001,
          7.62137949e-001, 8.89906228e-001, 2.67132133e-001,
          1.15314208e-001, 5.74552298e-001, 8.13927591e-001 ]
      - [ 7.25603342e-001, 2.53274411e-001, 3.90469998e-001,
          5.21070182e-001, 5.69195390e-001, 5.25683284e-001,
          7.81654239e-001, 3.90469998e-001, 4.65524793e-001 ]
      - [ 5.38632214e-001, 5.52512527e-001, 5.08992314e-001,
          6.89122915e-001, 8.21650267e-001, 3.40933114e-001,
          4.61180866e-001, 5.08992314e-001, 8.82220685e-001 ]
      - [ 3.93649936e-001, 6.10140979e-001, 4.05756563e-001,
          5.85613966e-001, 7.48077810e-001, 4.79791045e-001,
          4.06736851e-001, 4.05756563e-001, 5.66732168e-001 ]
      - [ 6.32345796e-001, 3.58189374e-001, 5.09467006e-001,
          5.93925834e-001, 6.92211211e-001, 4.42656368e-001,
          5.25545180e-001, 5.09467006e-001, 5.04842818e-001 ]
      - [ 4.53504890e-001, 6.29481256e-001, 5.56011200e-001,
          6.35645032e-001, 1., 2.19369456e-001, 2.52941519e-001,
          5.56011200e-001, 8.74472737e-001 ]
      - [ 4.64701742e-001, 5.31359971e-001, 6.07471466e-001,
          7.79482841e-001, 8.08825850e-001, 2.64347196e-001,
          2.84552097e-001, 6.07471466e-001, 5.32250524e-001 ]
      - [ 5.04801333e-001, 5.11230469e-001, 4.40339237e-001,
          5.71968794e-001, 8.70073199e-001, 4.33728278e-001,
          3.90109301e-001, 4.40339237e-001, 6.02205575e-001 ]
      - [ 3.80739093e-001, 6.34563804e-001, 4.75389600e-001,
          6.34937346e-001, 6.69994831e-001, 4.16512311e-001,
          3.66709977e-001, 4.75389600e-001, 6.13402367e-001 ]
      - [ 4.93140072e-001, 4.94173348e-001, 5.70194960e-001,
          5.61535716e-001, 5.98750710e-001, 4.46668923e-001,
          5.50832152e-001, 5.70194960e-001, 4.99208778e-001 ]
      - [ 3.94228548e-001, 6.10725284e-001, 2.53394127e-001,
          4.39612508e-001, 8.48550260e-001, 5.33280015e-001,
          4.30455238e-001, 2.53394127e-001, 5.71168184e-001 ]
      - [ 5.03692329e-001, 5.33895850e-001, 6.01503789e-001,
          6.50316000e-001, 7.05341876e-001, 3.39840621e-001,
          4.07295167e-001, 6.01503789e-001, 6.82803154e-001 ]
      - [ 3.11853379e-001, 6.97502196e-001, 6.00956559e-001,
          6.16716683e-001, 7.23596334e-001, 3.23358864e-001,
          2.81168103e-001, 6.00956559e-001, 5.97374618e-001 ]
      - [ 2.16034129e-001, 8.22114766e-001, 4.41111594e-001,
          6.69746041e-001, 7.55955338e-001, 4.56946820e-001,
          2.01721996e-001, 4.41111594e-001, 7.41825104e-001 ]
      - [ 9.01520133e-001, 1.63403958e-001, 3.66854399e-001,
          5.61944902e-001, 6.74657524e-001, 4.76240575e-001,
          7.61680663e-001, 3.66854399e-001, 7.15083838e-001 ]
      - [ 4.65166748e-001, 5.55099010e-001, 4.00721997e-001,
          5.30357182e-001, 6.89839363e-001, 4.94028330e-001,
          4.77493197e-001, 4.00721997e-001, 6.22540236e-001 ]
      - [ 5.15685141e-001, 4.81243759e-001, 4.91384238e-001,
          5.94683528e-001, 6.23152673e-001, 4.54608738e-001,
          5.13008058e-001, 4.91384238e-001, 5.32303572e-001 ]
      - [ 4.88097489e-001, 5.11659443e-001, 4.44997370e-001,
          5.95906913e-001, 7.26600409e-001, 4.53673333e-001,
          4.59262878e-001, 4.44997370e-001, 5.44231713e-001 ]
      - [ 4.36701655e-001, 5.68455100e-001, 6.11322820e-001,
          6.55208528e-001, 6.33920908e-001, 3.92813951e-001,
          3.95115048e-001, 6.11322820e-001, 5.68211257e-001 ]
      - [ 4.90754306e-001, 4.64321941e-001, 5.65974951e-001,
          5.22806346e-001, 4.79447633e-001, 4.75834012e-001,
          5.97547293e-001, 5.65974951e-001, 3.86301219e-001 ]
      - [ 2.04355896e-001, 7.74379015e-001, 4.04076129e-001,
          6.18467212e-001, 6.72727644e-001, 4.95220065e-001,
          3.05752426e-001, 4.04076129e-001, 4.75164205e-001 ]
      - [ 2.55313516e-001, 7.19583392e-001, 6.55519903e-001,
          6.47821844e-001, 7.14252651e-001, 2.42707059e-001,
          3.10598642e-001, 6.55519903e-001, 4.57919717e-001 ]
      - [ 5.92518568e-001, 4.74227518e-001, 5.73873103e-001,
          6.37573421e-001, 7.25874364e-001, 3.58413249e-001,
          5.00068367e-001, 5.73873103e-001, 7.75337696e-001 ]
      - [ 2.63484180e-001, 6.71177804e-001, 4.46956724e-001,
          4.87892807e-001, 6.61620975e-001, 4.38045919e-001,
          4.31594610e-001, 4.46956724e-001, 2.96990693e-001 ]
      - [ 4.15448308e-001, 5.91080487e-001, 3.61041397e-001,
          5.70148587e-001, 8.18927526e-001, 4.35382813e-001,
          3.72065127e-001, 3.61041397e-001, 5.75196803e-001 ]
      - [ 2.14123279e-001, 7.25989997e-001, 2.18114719e-001,
          3.93775344e-001, 6.81750000e-001, 5.45646727e-001,
          4.21867996e-001, 2.18114719e-001, 3.13662142e-001 ]
      - [ 4.07749742e-001, 5.99465787e-001, 3.84917796e-001,
          6.33211374e-001, 6.79619908e-001, 3.40752482e-001,
          3.35106999e-001, 3.84917796e-001, 5.78554094e-001 ]
      - [ 4.34398025e-001, 5.22955179e-001, 1.55391812e-001,
          3.83098096e-001, 6.68681622e-001, 6.55503154e-001,
          5.63528776e-001, 1.55391812e-001, 3.92388463e-001 ]
      - [ 4.70236242e-001, 3.91552359e-001, 4.74660285e-002,
          2.13962704e-001, 3.85880500e-001, 7.88821638e-001,
          8.09523821e-001, 4.74660285e-002, 7.94475749e-002 ]
      - [ 5.91842830e-001, 4.29528177e-001, 4.21767980e-001,
          5.66269338e-001, 6.78939462e-001, 4.93846357e-001,
          5.24569094e-001, 4.21767980e-001, 6.12095535e-001 ]
      - [ 1.42466173e-001, 8.35555136e-001, 4.78482246e-001,
          7.61356175e-001, 8.10943723e-001, 3.65748972e-001,
          1.05640754e-001, 4.78482246e-001, 4.73481596e-001 ]
      - [ 2.47714743e-001, 7.56241143e-001, 3.33873004e-001,
          5.76546550e-001, 8.21479023e-001, 4.46125925e-001,
          2.78688014e-001, 3.33873004e-001, 5.81329942e-001 ]
      - [ 6.50730550e-001, 3.39284241e-001, 3.13446760e-001,
          5.48763156e-001, 5.59897125e-001, 4.44725007e-001,
          6.35595381e-001, 3.13446760e-001, 5.02348542e-001 ]
      - [ 4.84151542e-001, 4.73278075e-001, 4.32626247e-001,
          5.94821036e-001, 6.30133212e-001, 4.29613739e-001,
          4.82039362e-001, 4.32626247e-001, 3.94138187e-001 ]
      - [ 7.00938523e-001, 3.85506302e-001, 3.26642931e-001,
          4.34623688e-001, 7.38108695e-001, 5.07802069e-001,
          6.57186925e-001, 3.26642931e-001, 8.22482347e-001 ]
      - [ 5.08163810e-001, 5.24940789e-001, 3.92013639e-001,
          5.84657073e-001, 7.92302072e-001, 3.92532080e-001,
          4.03668076e-001, 3.92013639e-001, 6.65115356e-001 ]
      - [ 4.18052197e-001, 5.70509255e-001, 6.24962926e-001,
          6.69606864e-001, 4.02369320e-001, 3.30837667e-001,
          4.31875676e-001, 6.24962926e-001, 5.06747246e-001 ]
      - [ 6.65403724e-001, 3.65954340e-001, 1.77673489e-001,
          2.63689727e-001, 6.23108327e-001, 5.79698443e-001,
          7.27316558e-001, 1.77673489e-001, 6.38223648e-001 ]
      - [ 4.80283380e-001, 5.26896000e-001, 3.64458680e-001,
          5.66641033e-001, 8.23135078e-001, 4.43469226e-001,
          3.90629619e-001, 3.64458680e-001, 5.71910799e-001 ]
      - [ 4.47082907e-001, 5.39815843e-001, 3.07305455e-001,
          4.59345162e-001, 6.39400303e-001, 5.38135052e-001,
          5.03106773e-001, 3.07305455e-001, 4.99346793e-001 ]
      - [ 7.53017724e-001, 2.11385131e-001, 3.81468982e-001,
          5.39786637e-001, 5.51362038e-001, 4.56316203e-001,
          6.97217584e-001, 3.81468982e-001, 4.21623200e-001 ]
      - [ 4.73276675e-001, 5.20239055e-001, 3.64848435e-001,
          5.79709947e-001, 5.89462698e-001, 5.03572881e-001,
          5.07903576e-001, 3.64848435e-001, 5.22271812e-001 ]
      - [ 3.30778897e-001, 7.05810726e-001, 3.51608455e-001,
          5.98897457e-001, 7.28130877e-001, 4.94525999e-001,
          3.55027378e-001, 3.51608455e-001, 7.09314704e-001 ]
      - [ 3.94510716e-001, 6.18273377e-001, 4.84516174e-001,
          6.90865636e-001, 7.69481599e-001, 3.68359566e-001,
          2.82694906e-001, 4.84516174e-001, 6.01699531e-001 ]
      - [ 5.02378404e-001, 4.93545592e-001, 3.06704044e-001,
          4.93018508e-001, 6.14189565e-001, 4.66969371e-001,
          5.08192241e-001, 3.06704044e-001, 5.29381812e-001 ]
      - [ 6.31962776e-001, 3.84989887e-001, 4.67485428e-001,
          6.26420259e-001, 7.60065615e-001, 3.70941430e-001,
          4.89570767e-001, 4.67485428e-001, 5.92926919e-001 ]
      - [ 7.79830515e-001, 2.38642797e-001, 2.59120882e-001,
          3.02396655e-001, 6.11074865e-001, 5.73755682e-001,
          8.12964797e-001, 2.59120882e-001, 5.85396647e-001 ]
      - [ 5.71200728e-001, 3.97429883e-001, 5.41661322e-001,
          4.25494224e-001, 5.16502678e-001, 3.70847434e-001,
          7.31965303e-001, 5.41661322e-001, 4.33485508e-001 ]
      - [ 5.57834029e-001, 4.34187382e-001, 2.30610386e-001,
          2.66219407e-001, 5.42142272e-001, 5.54007292e-001,
          7.68148661e-001, 2.30610386e-001, 5.12870550e-001 ]
      - [ 4.04699177e-001, 5.32961071e-001, 3.03967893e-001,
          4.51548845e-001, 6.35904312e-001, 5.72581172e-001,
          5.48052013e-001, 3.03967893e-001, 3.20790261e-001 ]
      - [ 6.10478997e-001, 3.60726863e-001, 4.32219714e-001,
          4.78010952e-001, 5.63204706e-001, 4.24454391e-001,
          6.32268369e-001, 4.32219714e-001, 4.42061633e-001 ]
      - [ 1.34957612e-001, 8.24294150e-001, 2.21306205e-001,
          3.97559106e-001, 8.05762112e-001, 5.74765503e-001,
          3.54096889e-001, 2.21306205e-001, 3.89254510e-001 ]
   decision_functions:
      -
         sv_count: 40
         rho: 4.7463519654256509e-001
         alpha: [ 8.6986169040775652e-001, 7., 7., 7., 7.,
             1.8436059054992850e+000, 2.7519371444772611e+000, 7.,
             6.8548344253930162e+000, 7., 4.9302611056710735e-003,
             9.6528767707831054e-001, 7., 5.6338866118391433e+000, 7.,
             2.8420504710003853e+000, 7., 7., 7.,
             5.4637117905187127e-001, -7., -7., -4.6955654957668247e-001,
             -2.0044608484813637e+000, -2.9834733493897883e+000, -7.,
             -3.2864178807268813e+000, -7., -7.,
             -5.6762575654316736e+000, -7., -7., -7., -7.,
             -1.2108620708519389e+000, -3.5550662400498450e+000, -7.,
             -7., -1.0282361893911136e+000, -2.0984346719534126e+000 ]
         index: [ 0, 2, 3, 4, 6, 7, 8, 9, 10, 12, 13, 14, 15, 16, 18, 21,
             22, 23, 24, 26, 28, 30, 31, 32, 39, 40, 43, 45, 48, 49, 52,
             53, 54, 56, 57, 58, 60, 61, 63, 64 ]
      -
         sv_count: 25
         rho: -1.2412804402129871e+000
         alpha: [ 6.9332400065595694e+000, 1.4637856620902265e+000, 7.,
             1.8639336074227035e+000, 7., 5.5023626318495822e+000,
             2.6168041599001715e+000, 7., 2.0025633623526215e-001, 7.,
             4.5533903498624850e+000, 4.0552782297757506e-001,
             1.9404256480742428e+000, -4.1236638833001127e+000,
             -4.2069090005315086e+000, -7., -2.6531135357724991e+000,
             -7., -1.4614412520056406e+000, -5.0120544718543547e-001,
             -3.7532250022334530e+000, -7., -7., -7.,
             -1.7801681039431658e+000 ]
         index: [ 2, 3, 4, 9, 12, 14, 15, 16, 17, 23, 24, 26, 27, 66, 67,
             69, 71, 73, 75, 82, 83, 85, 88, 89, 91 ]
      -
         sv_count: 27
         rho: 3.2527711516119306e-001
         alpha: [ 7., 7., 1.6512720475958148e-001, 7., 7.,
             1.1487540562039813e+000, 7., 7., 3.5560726043258026e+000,
             2.0467630870110556e-001, 3.1914383814560998e-001, 7., 7.,
             2.1269017913130921e+000, -5.5160940472600455e+000, -7., -7.,
             -4.7782884260362515e+000, -7., -9.9400376875724927e-001,
             -3.4323373470335330e+000, -1.3888528052249618e+000, -7.,
             -7., -4.9858650280293082e+000, -7.,
             -4.2523438110783179e-001 ]
         index: [ 2, 3, 5, 6, 9, 12, 14, 15, 19, 20, 21, 22, 23, 25, 94,
             95, 96, 102, 106, 107, 109, 112, 121, 122, 124, 125, 126 ]
      -
         sv_count: 22
         rho: 6.7580233005879498e-001
         alpha: [ 4.8267009764906428e+000, 7., 7., 7., 7.,
             2.6419329589110778e+000, 2.0936910110994487e+000,
             9.5602725362195351e-001, 7., 7., 1.1360921044958969e+000,
             -3.7953247953624887e+000, -7., -7., -7.,
             -1.3846019075321414e+000, -2.0409698515101069e+000, -7.,
             -5.5311659222350196e+000, -4.1856368480733357e+000, -7.,
             -1.7167449799059280e+000 ]
         index: [ 2, 3, 6, 9, 12, 15, 19, 21, 22, 23, 26, 134, 136, 139,
             142, 144, 145, 147, 150, 151, 152, 154 ]
      -
         sv_count: 31
         rho: -2.4209782593594367e-001
         alpha: [ 7., 4.3290297747193716e+000, 5.5002774921541819e+000,
             7., 4.0911047202397235e+000, 7., 7., 7., 7., 7.,
             6.6902482920146147e+000, 7., 7., -1.3284627893926815e+000,
             -7., -7., -7., -5.5002983578429543e+000, -7., -7., -7.,
             -9.7671249470918375e-001, -7., -7.,
             -1.4047656065000851e+000, -6.8942724450621040e-001, -7.,
             -8.1660714367647014e-001, -2.0581159105573481e+000, -7.,
             -8.3627073194296531e-001 ]
         index: [ 1, 2, 3, 5, 8, 10, 11, 12, 14, 19, 22, 23, 25, 156,
             159, 162, 163, 164, 165, 171, 173, 175, 176, 177, 178, 179,
             183, 184, 185, 186, 187 ]
      -
         sv_count: 21
         rho: -2.7744853643292189e-001
         alpha: [ 6.4305869389965942e+000, 7., 6.1075918740205895e+000,
             7., 5.5000131415729001e+000, 2.4955459648879885e+000,
             5.6777754119858672e+000, 4.4595202998575745e-001,
             -4.2062207440666590e+000, -1.0427013798640159e+000,
             -2.5255627193926085e+000, -6.8421624643988133e-001, -7.,
             -1.1005858277844442e+000, -7., -1.4034444383140270e-002,
             -7., -7., -1.8305263135051281e-001,
             -3.6083186223201036e-001, -2.5402595059364201e+000 ]
         index: [ 2, 3, 9, 10, 11, 12, 14, 19, 188, 190, 191, 193, 195,
             199, 201, 202, 207, 208, 209, 212, 213 ]
      -
         sv_count: 41
         rho: -1.4161171405801604e-001
         alpha: [ 6.2333819880400432e+000, 7., 7.,
             5.6399753190704356e+000, 7., 7., 7., 7., 7., 7.,
             5.2108356450766893e+000, 2.9954882943067656e+000, 7.,
             4.2821249514173632e+000, 7., 1.0835260316721694e-001, 7.,
             7., 6.1807542566679556e+000, 7., 1.2308970105098433e+000,
             -2.9496948439965922e+000, -7., -7., -7., -7., -7., -7.,
             -6.3298033821612361e+000, -4.6595976580128058e+000,
             -6.1671337758189804e+000, -7., -1.4440488951078205e+000,
             -3.3315315131588830e+000, -7., -7., -7., -7., -7., -7., -7. ]
         index: [ 32, 33, 35, 36, 37, 40, 41, 42, 44, 45, 46, 50, 51, 53,
             54, 55, 56, 57, 58, 62, 63, 65, 66, 67, 69, 71, 72, 73, 75,
             78, 79, 80, 81, 83, 85, 86, 87, 88, 89, 90, 91 ]
      -
         sv_count: 52
         rho: 1.4464439540838361e+000
         alpha: [ 7., 6.2831371251302475e+000, 7., 7.,
             4.0537020998438003e+000, 7., 4.3243891390884102e+000, 7.,
             7., 7., 1.5064875585328805e+000, 3.9966710664503755e+000,
             7., 7., 7., 7., 7., 2.2274912516326234e-001,
             1.9104903696848492e+000, 2.7931990383489786e+000, 7.,
             1.5350312310993841e+000, 7., 7., 3.8291197579470049e-001,
             7., 7., -7., -7., -7., -3.9441342637506365e+000,
             -6.1040275825049939e+000, -7., -4.7202839052322680e+000,
             -8.4514804726191528e-001, -7., -7.,
             -6.0654515599421366e+000, -7., -4.3606865169515725e+000,
             -7., -7., -6.3556071096919431e-001, -7.,
             -8.7470199340424848e-001, -7., -7., -7.,
             -6.4587741491199209e+000, -7., -7., -7. ]
         index: [ 28, 29, 31, 33, 34, 35, 36, 37, 38, 39, 40, 41, 42, 43,
             45, 46, 50, 52, 53, 54, 55, 56, 59, 60, 62, 63, 64, 94, 95,
             96, 97, 101, 102, 103, 104, 106, 107, 109, 110, 111, 112,
             113, 115, 117, 119, 120, 121, 122, 123, 124, 125, 126 ]
      -
         sv_count: 44
         rho: -2.1716984179229665e-001
         alpha: [ 3.9459347384318626e+000, 7., 1.2102128178065230e+000,
             4.0223963479405676e+000, 5.1124965508578164e+000, 7., 7.,
             7., 5.3557371503676503e+000, 7., 6.4190581882493394e+000,
             7., 7., 4.0214660309143486e+000, 7.,
             2.6834072779544709e+000, 4.7845047664451563e+000,
             4.2488097995234071e+000, 7., 7., 7., 7., 7., -7.,
             -5.7659748360342826e+000, -7., -7., -7., -7., -7., -7., -7.,
             -4.7347089810604326e-001, -7., -7., -7.,
             -2.9014088262629913e+000, -4.6631691080878310e+000, -7.,
             -7., -7., -7., -7., -7. ]
         index: [ 29, 31, 33, 36, 37, 38, 39, 40, 42, 43, 46, 47, 48, 49,
             50, 51, 52, 54, 55, 59, 60, 62, 63, 130, 132, 133, 134, 136,
             137, 138, 139, 140, 141, 142, 143, 144, 145, 146, 147, 148,
             150, 151, 152, 154 ]
      -
         sv_count: 28
         rho: -9.3701571621621349e-002
         alpha: [ 7., 2.7625612510631914e-001, 6.2005894261420069e+000,
             7., 7., 2.2507564335903254e+000, 1.0280413411578755e+000,
             4.7569610276242136e+000, 4.1652177944494921e+000,
             1.0609838080322855e+000, 1.5485688644006030e+000, 7.,
             8.1033433715535480e-002, 7., 5.1464759041022310e+000,
             -1.7959813464507495e+000, -3.7672519086359499e+000,
             -1.2533219321185232e+000, -1.0530049158119044e+000, -7.,
             -7., -6.1556534049819822e+000, -5.2058646371525912e+000,
             -3.5180562794068457e+000, -7., -7., -7.,
             -3.7657497337623433e+000 ]
         index: [ 28, 30, 36, 40, 42, 45, 46, 49, 50, 53, 54, 57, 60, 61,
             63, 156, 161, 164, 165, 167, 173, 176, 178, 179, 180, 183,
             184, 186 ]
      -
         sv_count: 26
         rho: -1.5486306110858786e-001
         alpha: [ 4.0387854975149056e+000, 7., 7., 7., 7.,
             4.8781903391192625e+000, 1.5795359874910175e+000,
             2.9163007881543250e+000, 4.2731026316931979e+000,
             6.1334325135289670e-002, 7., 7., 2.3254876701274863e+000,
             -1.6743001233211756e+000, -7., -2.1168831733890339e+000,
             -5.9273740675058546e+000, -3.3125013379909771e+000,
             -2.8200145423708114e+000, -7., -7., -7.,
             -3.0706166378479520e+000, -7., -6.4041284511957626e+000,
             -1.7469189056139121e+000 ]
         index: [ 28, 34, 36, 38, 40, 42, 45, 46, 50, 53, 55, 60, 63,
             188, 191, 193, 194, 197, 199, 201, 206, 207, 208, 209, 212,
             213 ]
      -
         sv_count: 37
         rho: 4.0875150607733168e-001
         alpha: [ 7., 6.0386872399257008e-001, 6.0012953606592987e+000,
             7., 7., 6.6652479899997319e+000, 4.3102193231523449e+000,
             2.5406512245484154e+000, 7., 1.8204886908847333e+000, 7.,
             7., 2.8228481091774418e+000, 7., 7.,
             1.0972322573706768e+000, 7., 1.6765881391566599e+000, 7.,
             -9.5420658954948057e-001, -1.4282977316183583e+000, -7.,
             -7., -2.1545486665798714e+000, -7., -7., -7., -7.,
             -8.6715312195237382e-001, -7., -7.,
             -4.7171761757624360e+000, -7., -4.8695167357717040e+000,
             -7., -5.5475407977076481e+000, -7. ]
         index: [ 65, 67, 68, 69, 70, 71, 72, 73, 75, 76, 80, 81, 82, 84,
             85, 86, 87, 88, 90, 93, 94, 95, 99, 105, 107, 109, 110, 111,
             116, 118, 119, 121, 122, 123, 125, 126, 127 ]
      -
         sv_count: 27
         rho: -1.1636301513466435e-001
         alpha: [ 2.4858419063338957e+000, 7., 3.1447307212530893e+000,
             8.5874343942573805e-001, 3.9023690170618930e+000,
             4.7782489433360130e-002, 1.6908497942131611e-003, 7., 7.,
             1.1769532834575003e+000, 1.5061843582821082e+000,
             3.4536936187574091e-001, 7., 1.1265606991934112e+000,
             2.6225548798861271e+000, 7., 2.5367630021767740e-001, -7.,
             -4.2199416558223080e+000, -2.5449785356999426e+000, -7.,
             -3.1001482439567623e+000, -7., -7., -7., -7.,
             -6.0738887073574410e-001 ]
         index: [ 67, 69, 71, 74, 75, 76, 77, 80, 81, 82, 83, 84, 85, 88,
             89, 90, 91, 134, 136, 137, 138, 139, 140, 147, 148, 152,
             155 ]
      -
         sv_count: 25
         rho: 5.1488377684730080e-001
         alpha: [ 4.2533290677113929e+000, 3.9938886560340445e+000, 7.,
             7., 3.3348912360541677e-001, 7., 7., 7., 7.,
             3.4548504038294947e+000, 2.8984230401782762e-001,
             -7.1245908776161659e-001, -8.9220511609991637e-001, -7.,
             -1.4316940668459417e+000, -2.1930119275214173e+000,
             -5.1070993924657833e+000, -1.4705819905589874e+000, -7.,
             -7., -1.2512267742550880e+000, -1.7502136092123757e+000,
             -7., -6.4900388463461294e+000, -5.0268687441309137e+000 ]
         index: [ 67, 69, 71, 75, 83, 85, 86, 89, 90, 91, 92, 156, 159,
             161, 165, 166, 167, 171, 173, 176, 178, 179, 183, 184, 187 ]
      -
         sv_count: 18
         rho: 2.4989191844105121e-001
         alpha: [ 4.3989718347190712e+000, 2.4439075836174800e+000,
             1.7964639910385632e-001, 7., 1.9584241728926430e+000,
             3.4621177106124179e-001, 7., 7., 6.2337287696746770e+000,
             -3.6705520957633899e+000, -1.6201093511413808e-001,
             -3.3587528072432811e+000, -1.0547667297083874e+000, -7.,
             -5.9819139253168938e+000, -3.2885588605277039e+000, -7.,
             -5.0443351773951770e+000 ]
         index: [ 69, 71, 73, 75, 80, 82, 85, 90, 91, 191, 193, 194, 195,
             201, 205, 207, 208, 212 ]
      -
         sv_count: 50
         rho: -1.1121670179433207e+000
         alpha: [ 7., 7., 7., 7., 7., 7., 7., 7.,
             1.3471921343456761e+000, 6.0336993423689691e+000, 7.,
             2.0297371125779300e+000, 3.5455615277388559e+000,
             1.9290060404417539e+000, 7., 7., 3.9500993579563946e+000,
             6.1773571870900190e-001, 1.9079447184584717e+000,
             4.1751420489905309e+000, 7., 4.9755903765575016e-001, 7.,
             3.4065406825676510e+000, 7., 5.3832666190182437e+000, 7.,
             -3.3659901955714484e+000, -7., -7.,
             -3.3054014073333429e+000, -7., -7., -7., -7., -7., -7., -7.,
             -3.2522744472588352e+000, -7., -2.0808456772325110e+000,
             -6.3866026993285478e+000, -7., -7.,
             -2.4323699141045427e+000, -7., -7., -7., -7., -7. ]
         index: [ 94, 95, 96, 97, 100, 101, 102, 103, 104, 105, 106, 108,
             109, 111, 112, 113, 114, 116, 117, 119, 120, 121, 122, 123,
             124, 125, 126, 128, 129, 130, 131, 134, 136, 137, 138, 139,
             140, 141, 142, 144, 145, 146, 147, 148, 150, 151, 152, 153,
             154, 155 ]
      -
         sv_count: 35
         rho: -2.2895494538202898e-001
         alpha: [ 2.3229330399542127e+000, 7., 7.,
             1.6367043383031515e-001, 6.5210247245099167e+000,
             1.1746935170899033e+000, 7., 1.8766041615338509e+000, 7.,
             3.6894858761613097e-001, 2.4591120617937383e-002,
             1.9524026258523270e+000, 1.0092136952223001e+000, 7., 7.,
             7., 7., 7., -2.1140085219680942e+000, -7.,
             -2.6223611198935554e-001, -6.6014860096680408e-002, -7.,
             -6.3400526037238469e-001, -7., -1.2149979680566925e+000,
             -5.6904966345320851e+000, -7., -7.,
             -2.1071237097798878e+000, -7., -7.,
             -3.3251988394317111e+000, -7., -7. ]
         index: [ 93, 94, 100, 104, 106, 107, 108, 110, 112, 114, 116,
             118, 119, 121, 122, 123, 125, 126, 156, 157, 159, 163, 164,
             165, 166, 173, 174, 175, 177, 179, 180, 181, 183, 184, 186 ]
      -
         sv_count: 38
         rho: -6.3256007638490291e-002
         alpha: [ 5.0572030533590961e-001, 7., 7.,
             1.4260562729139206e+000, 6.2861111750661998e+000, 7.,
             5.5452853750043047e+000, 1.5375624039237812e+000,
             8.3060517883864393e-001, 7., 2.3445142960312371e+000,
             7.8506795521763095e-002, 7., 7., 2.9673157417292173e-001,
             2.5636410522366110e-001, 7., 7., 7., 7., -7.,
             -3.2118201277629660e-001, -2.5942678059335513e+000,
             -1.0223177708915772e+000, -9.8461189092980217e-001,
             -5.2376993411723474e+000, -7., -7.,
             -4.1185469351416151e+000, -7., -7., -7.,
             -3.6973394157013195e+000, -1.1314923094858320e+000, -7.,
             -7., -7., -7. ]
         index: [ 93, 94, 96, 97, 98, 100, 103, 104, 105, 108, 110, 111,
             112, 114, 118, 121, 122, 123, 125, 126, 188, 191, 193, 194,
             195, 198, 201, 204, 205, 206, 207, 208, 209, 211, 212, 213,
             214, 215 ]
      -
         sv_count: 27
         rho: 8.4372281868012641e-002
         alpha: [ 6.7627238062969441e-001, 1.4463786406027208e+000, 7.,
             2.7177316248178465e+000, 7., 1.1457364880475944e+000,
             8.1394988711401051e-001, 6.0983261742773225e+000, 7.,
             4.9904566988663995e-001, 7.2102720348812810e-001, 7., 7.,
             -1.5290447866430570e+000, -3.1692804206679415e+000,
             -5.5760005599127620e+000, -7.7869291315050548e-001,
             -1.6571896162874962e+000, -1.1497317020243385e-001, -7.,
             -2.4269969998367742e+000, -3.7472568681383911e+000,
             -5.3232250663006109e-001, -7., -4.9864399234118491e+000,
             -7., -3.6002703039826924e+000 ]
         index: [ 134, 135, 136, 138, 139, 141, 146, 147, 148, 149, 150,
             152, 155, 156, 163, 164, 165, 166, 167, 173, 175, 176, 179,
             180, 183, 184, 187 ]
      -
         sv_count: 29
         rho: 1.6642294676388419e-001
         alpha: [ 7., 4.0042863348414128e+000, 2.1830878079904967e+000,
             1.0743067035265348e+000, 7., 1.7462163174022771e+000, 7.,
             6.8041854286630299e+000, 7., 9.3735807377382152e-001, 7.,
             2.1823933671530567e+000, 7., 6.8749635569637064e+000,
             6.7368090392650304e-001, 2.2786884389270026e+000,
             -2.1370565494322618e+000, -5.5501420592943118e+000, -7.,
             -4.1171325693945100e+000, -7., -3.8097370314172272e+000,
             -7., -7., -4.4435544791392969e+000,
             -1.7805313354481791e+000, -6.9210129090420596e+000, -7.,
             -7. ]
         index: [ 128, 129, 130, 134, 136, 138, 139, 141, 144, 145, 146,
             147, 148, 149, 152, 155, 188, 192, 193, 194, 201, 202, 204,
             206, 207, 208, 209, 212, 213 ]
      -
         sv_count: 42
         rho: 4.0700871602036576e-001
         alpha: [ 1.6704928819696803e+000, 7., 7., 7.,
             6.3758547039849374e+000, 2.6686874419128594e+000, 7.,
             2.3866898916084534e-001, 7., 6.5427747654016617e+000,
             9.4434584786548570e-001, 2.3043015215967091e+000, 7.,
             2.2608213483800346e+000, 7., 3.6923495335325698e+000, 7.,
             7., 7., 7., 7., 7., 1.0454055760573480e+000, -7., -7., -7.,
             -7., -7., -7., -6.8765327456940080e+000, -7., -7., -7., -7.,
             -7., -7., -7., -7., -8.3104912393543295e-001, -7.,
             -2.9696232575590629e+000, -3.0664974826736251e+000 ]
         index: [ 156, 157, 158, 160, 164, 165, 166, 167, 168, 169, 170,
             171, 172, 173, 175, 178, 179, 180, 181, 182, 184, 185, 186,
             188, 189, 194, 195, 196, 198, 199, 200, 201, 203, 205, 206,
             207, 208, 210, 211, 212, 214, 216 ]
