%YAML:1.0
my_svm: !!opencv-ml-svm
   svm_type: C_SVC
   kernel: { type:RBF, gamma:5.0625000000000009e-001 }
   C: 3.1250000000000000e+002
   term_criteria: { epsilon:1.1920928955078125e-007, iterations:1000 }
   var_all: 9
   var_count: 9
   class_count: 7
   class_labels: !!opencv-matrix
      rows: 1
      cols: 7
      dt: i
      data: [ 0, 1, 2, 3, 4, 5, 6 ]
   sv_total: 203
   support_vectors:
      - [ 1.33873448e-001, 8.27621579e-001, 6.36997461e-001,
          6.60852611e-001, 5.73110878e-001, 3.60071331e-001,
          2.16616139e-001, 6.36997461e-001, 4.19422328e-001 ]
      - [ 2.14816898e-001, 7.91710377e-001, 4.33623284e-001,
          5.01333416e-001, 4.52832103e-001, 3.35032284e-001,
          3.18252832e-001, 4.33623284e-001, 6.04499400e-001 ]
      - [ 4.45411146e-001, 5.94174087e-001, 2.83796400e-001,
          4.47781235e-001, 5.63446999e-001, 5.03789842e-001,
          4.71680969e-001, 2.83796400e-001, 6.98997080e-001 ]
      - [ 2.18335852e-001, 8.09905887e-001, 6.69809461e-001,
          7.67007530e-001, 6.14337265e-001, 3.42267513e-001,
          1.66181952e-001, 6.69809461e-001, 6.97669148e-001 ]
      - [ 2.20458567e-001, 7.84901500e-001, 3.08421731e-001,
          4.22620863e-001, 5.07130623e-001, 4.57431614e-001,
          3.91013294e-001, 3.08421731e-001, 5.98737597e-001 ]
      - [ 4.35145229e-001, 5.74756980e-001, 6.84475005e-001,
          6.92386210e-001, 7.39039779e-001, 2.87812889e-001,
          3.42980981e-001, 6.84475005e-001, 5.90527475e-001 ]
      - [ 2.25956887e-001, 7.44382620e-001, 6.53000474e-001,
          6.07614458e-001, 6.43925786e-001, 4.35143709e-001,
          3.05472046e-001, 6.53000474e-001, 4.54470009e-001 ]
      - [ 4.49608356e-001, 5.48690557e-001, 7.48793304e-001,
          6.81531847e-001, 6.10122621e-001, 2.71478564e-001,
          3.99401516e-001, 7.48793304e-001, 5.47288179e-001 ]
      - [ 2.76813149e-001, 6.35890365e-001, 5.86431205e-001,
          4.85588402e-001, 5.45334876e-001, 4.57848072e-001,
          4.77589577e-001, 5.86431205e-001, 2.39517868e-001 ]
      - [ 2.58148700e-001, 6.97467864e-001, 6.86903894e-001,
          6.10949814e-001, 4.70197260e-001, 4.25385803e-001,
          3.91011685e-001, 6.86903894e-001, 3.96716177e-001 ]
      - [ 1.15401320e-001, 9.05065894e-001, 8.95532191e-001,
          7.34093368e-001, 5.24876893e-001, 2.23974109e-001,
          1.87927231e-001, 8.95532191e-001, 6.84455812e-001 ]
      - [ 3.58078480e-001, 6.67087018e-001, 6.41146779e-001,
          7.11653471e-001, 6.76184714e-001, 3.12978417e-001,
          3.18462372e-001, 6.41146779e-001, 6.58805847e-001 ]
      - [ 7.50598982e-002, 9.36781645e-001, 7.51275420e-001,
          7.98682213e-001, 6.51451886e-001, 2.22132683e-001,
          4.99039590e-002, 7.51275420e-001, 6.51726484e-001 ]
      - [ 1.14022113e-001, 9.37069058e-001, 7.96408951e-001,
          8.06082189e-001, 6.66721761e-001, 2.84548938e-001,
          6.74344748e-002, 7.96408951e-001, 8.32858324e-001 ]
      - [ 1.67141855e-001, 8.53470027e-001, 6.28982306e-001,
          7.40713120e-001, 7.18645632e-001, 3.33339274e-001,
          1.62433922e-001, 6.28982306e-001, 6.74296618e-001 ]
      - [ 2.81782001e-001, 7.13013113e-001, 4.41347569e-001,
          4.31186587e-001, 4.52665061e-001, 3.61934483e-001,
          4.33783114e-001, 4.41347569e-001, 5.48578739e-001 ]
      - [ 3.34686100e-001, 6.50760949e-001, 4.22535330e-001,
          3.68794143e-001, 4.84501898e-001, 4.07093257e-001,
          5.07022977e-001, 4.22535330e-001, 5.08321404e-001 ]
      - [ 0., 9.37915564e-001, 7.59163380e-001, 6.39502108e-001,
          6.36427045e-001, 2.48369619e-001, 1.39456764e-001,
          7.59163380e-001, 3.10704499e-001 ]
      - [ 4.22881603e-001, 6.11091793e-001, 7.10982203e-001,
          6.83236241e-001, 5.85353673e-001, 3.47869247e-001,
          3.97328287e-001, 7.10982203e-001, 6.81872249e-001 ]
      - [ 2.58448422e-001, 6.97143912e-001, 2.20605090e-001,
          2.58506447e-001, 5.38967550e-001, 5.89387298e-001,
          5.76803744e-001, 2.20605090e-001, 3.96529138e-001 ]
      - [ 4.00475532e-001, 5.80741227e-001, 3.68514925e-001,
          3.65818441e-001, 4.57524300e-001, 4.35125768e-001,
          5.52174032e-001, 3.68514925e-001, 4.89192754e-001 ]
      - [ 2.19893709e-001, 7.37150788e-001, 7.07867086e-001,
          6.10459745e-001, 4.76797998e-001, 3.52753699e-001,
          3.55806202e-001, 7.07867086e-001, 4.01756078e-001 ]
      - [ 3.78519684e-001, 6.86966002e-001, 5.19465148e-001,
          7.14863956e-001, 4.96942788e-001, 3.48256379e-001,
          2.90322721e-001, 5.19465148e-001, 8.15917194e-001 ]
      - [ 4.90729213e-001, 5.36314130e-001, 5.63939154e-001,
          6.19004667e-001, 4.62993681e-001, 4.27259237e-001,
          4.16492313e-001, 5.63939154e-001, 6.45615280e-001 ]
      - [ 3.75651747e-001, 6.31495595e-001, 2.02237591e-001,
          4.05020148e-001, 4.80844826e-001, 5.75296700e-001,
          4.72214371e-001, 2.02237591e-001, 5.86821198e-001 ]
      - [ 3.87976676e-001, 6.33851409e-001, 6.95894539e-001,
          7.02157736e-001, 3.66902202e-001, 2.65017152e-001,
          3.25266302e-001, 6.95894539e-001, 6.41162157e-001 ]
      - [ 3.79965305e-001, 5.76667726e-001, 5.45043647e-001,
          3.09585094e-001, 4.13166493e-001, 3.09035778e-001,
          6.31168544e-001, 5.45043647e-001, 4.01894748e-001 ]
      - [ 3.14320505e-001, 6.28008187e-001, 3.19717526e-001,
          1.89372763e-001, 5.45376778e-001, 5.38154006e-001,
          6.67377353e-001, 3.19717526e-001, 3.48923594e-001 ]
      - [ 7.23669410e-001, 3.23917478e-001, 5.06587744e-001,
          6.12513363e-001, 4.34671313e-001, 3.50198984e-001,
          5.95575690e-001, 5.06587744e-001, 6.81443274e-001 ]
      - [ 4.90238130e-001, 4.48530942e-001, 3.58443022e-001,
          3.69840682e-001, 3.57624352e-001, 6.09429300e-001,
          6.94194615e-001, 3.58443022e-001, 3.44698042e-001 ]
      - [ 3.10037017e-001, 6.38943911e-001, 5.07400513e-001,
          2.67522782e-001, 4.74082768e-001, 4.35406357e-001,
          6.29801750e-001, 5.07400513e-001, 3.72953802e-001 ]
      - [ 6.70068383e-001, 3.40387881e-001, 6.05133295e-001,
          5.97466230e-001, 3.45508397e-001, 3.97363663e-001,
          5.75360775e-001, 6.05133295e-001, 5.69678724e-001 ]
      - [ 4.09433424e-001, 6.33123875e-001, 6.50399327e-001,
          6.95296943e-001, 5.87976992e-001, 2.37177044e-001,
          2.74992466e-001, 6.50399327e-001, 7.17313588e-001 ]
      - [ 5.04055321e-001, 4.66691554e-001, 4.17990774e-001,
          3.14259678e-001, 3.36749762e-001, 4.47744936e-001,
          7.22243726e-001, 4.17990774e-001, 4.49682653e-001 ]
      - [ 3.94935340e-001, 6.63813293e-001, 4.45785314e-001,
          4.57726955e-001, 5.82733810e-001, 4.77339327e-001,
          4.87481147e-001, 4.45785314e-001, 7.84297645e-001 ]
      - [ 4.12161320e-001, 6.43074572e-001, 5.67432761e-001,
          6.86185300e-001, 4.66038257e-001, 3.62556696e-001,
          3.38067710e-001, 5.67432761e-001, 7.66275644e-001 ]
      - [ 3.55118543e-001, 6.53717875e-001, 1.43705845e-001,
          3.59172702e-001, 4.27830845e-001, 6.80241823e-001,
          5.53463101e-001, 1.43705845e-001, 5.95678210e-001 ]
      - [ 2.72501081e-001, 7.81592250e-001, 5.52068591e-001,
          7.39723921e-001, 5.62596083e-001, 2.91765869e-001,
          1.82151988e-001, 5.52068591e-001, 7.97326624e-001 ]
      - [ 7.37864316e-001, 2.33298838e-001, 3.07544470e-001,
          2.99104780e-001, 2.89099127e-001, 5.45451403e-001,
          8.68198037e-001, 3.07544470e-001, 4.46976036e-001 ]
      - [ 2.69375950e-001, 7.19945490e-001, 7.21814454e-001,
          6.31070614e-001, 4.37563032e-001, 2.44911879e-001,
          2.76016384e-001, 7.21814454e-001, 5.27947903e-001 ]
      - [ 4.83760953e-001, 5.39596260e-001, 4.03007269e-001,
          4.36771810e-001, 4.55999851e-001, 3.71078402e-001,
          5.35116613e-001, 4.03007269e-001, 6.33191288e-001 ]
      - [ 4.96870100e-001, 5.31296194e-001, 3.16921055e-001,
          5.17653584e-001, 4.92449671e-001, 5.65207183e-001,
          5.44971645e-001, 3.16921055e-001, 6.48703873e-001 ]
      - [ 2.50218153e-001, 7.34164655e-001, 5.94074309e-001,
          5.76165080e-001, 3.64269704e-001, 4.07792777e-001,
          3.70274484e-001, 5.94074309e-001, 5.09576678e-001 ]
      - [ 3.14665169e-001, 6.95607245e-001, 5.28618872e-001,
          5.86544454e-001, 5.95593572e-001, 3.89798671e-001,
          3.20230812e-001, 5.28618872e-001, 6.06500387e-001 ]
      - [ 4.39207286e-001, 5.95904827e-001, 6.18842006e-001,
          6.33555651e-001, 4.40108389e-001, 3.53768080e-001,
          4.26115602e-001, 6.18842006e-001, 6.83335543e-001 ]
      - [ 4.68193471e-001, 5.20939052e-001, 3.87542933e-001,
          3.54377091e-001, 5.00712991e-001, 4.47484881e-001,
          5.92786491e-001, 3.87542933e-001, 5.13616085e-001 ]
      - [ 2.88126349e-001, 6.96015060e-001, 6.35416150e-001,
          5.26849627e-001, 5.74263990e-001, 2.64770150e-001,
          4.04614806e-001, 6.35416150e-001, 5.06240904e-001 ]
      - [ 4.00426626e-001, 5.42959392e-001, 5.93972683e-001,
          3.24331135e-001, 3.92924517e-001, 3.39502722e-001,
          6.24918640e-001, 5.93972683e-001, 3.56271714e-001 ]
      - [ 1.26321226e-001, 8.72516215e-001, 2.84717083e-001,
          4.20351505e-001, 4.73421365e-001, 5.17658293e-001,
          3.78032476e-001, 2.84717083e-001, 5.82775116e-001 ]
      - [ 2.91764200e-001, 7.04343677e-001, 6.74268484e-001,
          6.07328475e-001, 4.46700096e-001, 2.73768842e-001,
          3.34314913e-001, 6.74268484e-001, 5.52950919e-001 ]
      - [ 4.00475919e-001, 6.22051835e-001, 5.55169225e-001,
          6.40287936e-001, 4.20261681e-001, 3.92371684e-001,
          3.49992841e-001, 5.55169225e-001, 6.42026842e-001 ]
      - [ 4.42935616e-001, 6.34760559e-001, 6.28289878e-001,
          7.42050529e-001, 6.37716770e-001, 3.10128778e-001,
          2.65948594e-001, 6.28289878e-001, 8.47002327e-001 ]
      - [ 2.11634710e-001, 7.41790295e-001, 3.69972587e-001,
          2.73208052e-001, 4.85571504e-001, 5.35721779e-001,
          5.50700843e-001, 3.69972587e-001, 3.87272328e-001 ]
      - [ 1.23338267e-001, 8.76317620e-001, 5.59809089e-001,
          6.56398296e-001, 5.30359447e-001, 3.63582730e-001,
          1.84571296e-001, 5.59809089e-001, 5.86964369e-001 ]
      - [ 3.51614714e-001, 6.09738529e-001, 3.87637526e-001,
          2.96663314e-001, 4.71790135e-001, 4.91197407e-001,
          6.28858745e-001, 3.87637526e-001, 4.18617636e-001 ]
      - [ 3.37986022e-001, 7.27831423e-001, 7.74837196e-001,
          7.67898500e-001, 6.02076769e-001, 1.55759886e-001,
          2.32563943e-001, 7.74837196e-001, 8.28791142e-001 ]
      - [ 3.69338304e-001, 6.49246156e-001, 3.83103251e-001,
          5.92731833e-001, 4.85033363e-001, 5.17349422e-001,
          3.81958306e-001, 3.83103251e-001, 6.31457210e-001 ]
      - [ 3.51890683e-001, 6.48066700e-001, 5.17027318e-001,
          5.62524438e-001, 4.11716878e-001, 4.71214294e-001,
          4.16368484e-001, 5.17027318e-001, 5.62130928e-001 ]
      - [ 5.34549952e-001, 5.74067056e-001, 4.28960174e-001,
          7.75476098e-001, 2.71135539e-001, 3.73698801e-001,
          3.31935287e-001, 4.28960174e-001, 9.39936161e-001 ]
      - [ 6.40745401e-001, 4.36284661e-001, 3.92237812e-001,
          7.00974941e-001, 2.77507275e-001, 3.47495049e-001,
          4.33740258e-001, 3.92237812e-001, 7.94630706e-001 ]
      - [ 3.72501642e-001, 6.64236903e-001, 5.13627052e-001,
          6.56284511e-001, 2.19523266e-001, 3.03996503e-001,
          3.52212161e-001, 5.13627052e-001, 7.01856017e-001 ]
      - [ 6.02627516e-001, 4.28059012e-001, 4.88189906e-001,
          5.91828883e-001, 4.50511664e-001, 4.91562277e-001,
          5.33889472e-001, 4.88189906e-001, 6.42917275e-001 ]
      - [ 4.79253560e-001, 5.55814385e-001, 6.78735316e-001,
          7.24427938e-001, 3.73491555e-001, 2.68427491e-001,
          3.56164962e-001, 6.78735316e-001, 6.76488280e-001 ]
      - [ 7.47309744e-001, 2.28963017e-001, 4.32709575e-001,
          4.58498538e-001, 3.52864802e-001, 4.69103187e-001,
          7.77440369e-001, 4.32709575e-001, 4.61753577e-001 ]
      - [ 5.21841764e-001, 4.53439385e-001, 5.64338744e-001,
          5.08994043e-001, 4.09005851e-001, 4.27819729e-001,
          6.15535080e-001, 5.64338744e-001, 4.64622587e-001 ]
      - [ 5.00090241e-001, 5.42458832e-001, 5.07129848e-001,
          6.59538031e-001, 2.16606870e-001, 3.33935499e-001,
          3.84534776e-001, 5.07129848e-001, 7.00260639e-001 ]
      - [ 2.92441666e-001, 7.44272649e-001, 7.50285208e-001,
          7.73799658e-001, 4.66315299e-001, 1.91854000e-001,
          2.14569867e-001, 7.50285208e-001, 7.18154907e-001 ]
      - [ 4.00644064e-001, 7.10594535e-001, 8.79058659e-001, 1.,
          4.33019221e-001, 0., 0., 8.79058659e-001, 1. ]
      - [ 4.91937280e-001, 5.29402316e-001, 5.35151422e-001,
          5.93877733e-001, 2.34587744e-001, 3.14575225e-001,
          5.10115385e-001, 5.35151422e-001, 6.25028074e-001 ]
      - [ 4.95169610e-001, 6.01284087e-001, 6.30008221e-001,
          7.46716261e-001, 6.24269187e-001, 2.41619915e-001,
          3.34646702e-001, 6.30008221e-001, 9.05193806e-001 ]
      - [ 5.16165733e-001, 4.98236388e-001, 6.68996751e-001,
          6.75604343e-001, 3.05938244e-001, 3.05919230e-001,
          4.33641821e-001, 6.68996751e-001, 5.97681165e-001 ]
      - [ 5.44191182e-001, 4.88828361e-001, 3.41598630e-001,
          6.64795160e-001, 3.93942297e-001, 5.50094903e-001,
          4.40272719e-001, 3.41598630e-001, 6.59275591e-001 ]
      - [ 6.57796562e-001, 4.29984152e-001, 7.94637978e-001,
          8.44707727e-001, 1.29102200e-001, 5.61954342e-002,
          3.16776454e-001, 7.94637978e-001, 8.28093469e-001 ]
      - [ 2.42087960e-001, 7.45672584e-001, 6.90518975e-001,
          6.77238047e-001, 4.16238427e-001, 2.58763105e-001,
          2.63503879e-001, 6.90518975e-001, 5.23984849e-001 ]
      - [ 3.08235586e-001, 7.38444567e-001, 5.07822454e-001,
          7.33032465e-001, 2.58385122e-001, 2.41359502e-001,
          2.45095491e-001, 5.07822454e-001, 7.56324828e-001 ]
      - [ 6.02174580e-001, 4.57126886e-001, 5.18668532e-001,
          7.04723537e-001, 1.31720290e-001, 2.70078152e-001,
          4.38323319e-001, 5.18668532e-001, 7.41004407e-001 ]
      - [ 6.58130467e-001, 3.86312038e-001, 4.91477996e-001,
          6.38197780e-001, 5.03273755e-002, 3.75276476e-001,
          5.82940936e-001, 4.91477996e-001, 6.81178033e-001 ]
      - [ 2.98346400e-001, 7.31907368e-001, 5.89258194e-001,
          6.92922354e-001, 4.99408752e-001, 3.48604083e-001,
          2.51504123e-001, 5.89258194e-001, 6.90025210e-001 ]
      - [ 3.51290524e-001, 6.51125193e-001, 5.48891008e-001,
          5.85870087e-001, 4.97858822e-001, 4.26859468e-001,
          3.78813505e-001, 5.48891008e-001, 5.71605742e-001 ]
      - [ 3.36010188e-001, 6.63013279e-001, 5.42822301e-001,
          5.90148747e-001, 4.27053511e-001, 4.07269150e-001,
          4.02836829e-001, 5.42822301e-001, 5.60129046e-001 ]
      - [ 3.54268759e-001, 6.71710432e-001, 8.41076791e-001,
          7.81228900e-001, 4.48026180e-001, 1.58907458e-001,
          2.32597277e-001, 8.41076791e-001, 6.62895560e-001 ]
      - [ 4.08172727e-001, 6.57003701e-001, 5.14986396e-001,
          6.64843142e-001, 5.58079064e-001, 3.43798071e-001,
          3.40006024e-001, 5.14986396e-001, 8.06847692e-001 ]
      - [ 6.60213530e-001, 4.34070230e-001, 5.22669256e-001,
          6.88333690e-001, 6.90973461e-001, 4.00584221e-001,
          4.06848371e-001, 5.22669256e-001, 8.50174844e-001 ]
      - [ 3.44579816e-001, 7.20727921e-001, 4.62482065e-001,
          7.56276488e-001, 2.26776376e-001, 3.17779839e-001,
          2.16249421e-001, 4.62482065e-001, 8.24824512e-001 ]
      - [ 2.85889477e-001, 7.67758965e-001, 6.47393584e-001,
          7.52120793e-001, 5.78393281e-001, 2.03155786e-001,
          1.81778923e-001, 6.47393584e-001, 7.91732192e-001 ]
      - [ 4.42944884e-001, 5.66456914e-001, 7.15623856e-001,
          7.01368034e-001, 3.31497043e-001, 2.70549685e-001,
          3.84609401e-001, 7.15623856e-001, 5.87982893e-001 ]
      - [ 6.55797839e-001, 4.25628573e-001, 5.43701470e-001,
          6.54156744e-001, 5.71199715e-001, 4.20895278e-001,
          5.05516469e-001, 5.43701470e-001, 8.06505501e-001 ]
      - [ 7.01918602e-001, 4.13216799e-001, 6.02855086e-001,
          7.86976218e-001, 1.97742343e-001, 2.80540079e-001,
          4.33375150e-001, 6.02855086e-001, 9.12048936e-001 ]
      - [ 5.65285981e-001, 3.50624293e-001, 3.99430394e-001,
          2.80009508e-001, 4.69479084e-001, 5.82557321e-001,
          8.51264417e-001, 3.99430394e-001, 2.78261602e-001 ]
      - [ 4.58114147e-001, 5.60410440e-001, 2.23067626e-001,
          4.37595725e-001, 7.18620121e-001, 6.78951919e-001,
          5.78437269e-001, 2.23067626e-001, 6.19387388e-001 ]
      - [ 5.11016369e-001, 5.50210834e-001, 5.16147554e-001,
          7.02406943e-001, 2.47785047e-001, 2.27607414e-001,
          3.07310343e-001, 5.16147554e-001, 7.66962290e-001 ]
      - [ 3.25571626e-001, 6.84349418e-001, 5.37991107e-001,
          5.78442454e-001, 6.23511136e-001, 3.94737959e-001,
          3.97047281e-001, 5.37991107e-001, 6.03895128e-001 ]
      - [ 6.74071074e-001, 3.26298475e-001, 3.93425703e-001,
          4.22587454e-001, 5.57909310e-001, 5.93323946e-001,
          7.66945541e-001, 3.93425703e-001, 5.37933290e-001 ]
      - [ 4.39966649e-001, 4.95107055e-001, 4.17163581e-001,
          3.85734081e-001, 6.03143096e-001, 5.58746755e-001,
          6.29128635e-001, 4.17163581e-001, 3.30348164e-001 ]
      - [ 3.93601626e-001, 6.10461712e-001, 3.18178236e-001,
          4.76220608e-001, 3.88025016e-001, 4.26724106e-001,
          4.84234750e-001, 3.18178236e-001, 5.73669076e-001 ]
      - [ 4.42556560e-001, 5.54285109e-001, 4.93815213e-001,
          4.63444561e-001, 2.92526603e-001, 3.35005641e-001,
          5.74495554e-001, 4.93815213e-001, 5.42929888e-001 ]
      - [ 4.05741006e-001, 5.48183978e-001, 5.48073709e-001,
          4.04763341e-001, 5.44025958e-001, 4.26778257e-001,
          5.96526623e-001, 5.48073709e-001, 3.93025339e-001 ]
      - [ 4.77325261e-001, 5.86927593e-001, 3.90941203e-001,
          7.55965829e-001, 2.03909818e-002, 4.01411235e-001,
          3.57215881e-001, 3.90941203e-001, 7.86080837e-001 ]
      - [ 5.07489145e-001, 4.30348426e-001, 1.79369628e-001,
          2.44759738e-001, 3.54737997e-001, 6.40155196e-001,
          7.77016521e-001, 1.79369628e-001, 3.42596889e-001 ]
      - [ 4.36823785e-001, 5.13086677e-001, 1.41814560e-001,
          2.61895478e-001, 4.17497396e-001, 6.52861476e-001,
          6.95213735e-001, 1.41814560e-001, 3.79974604e-001 ]
      - [ 5.78910530e-001, 4.52147365e-001, 4.28394824e-001,
          4.38488066e-001, 3.38724226e-001, 3.36026609e-001,
          6.09929681e-001, 4.28394824e-001, 6.47463799e-001 ]
      - [ 5.17660797e-001, 4.88629848e-001, 4.58623737e-001,
          4.61482465e-001, 2.52285182e-001, 4.38504875e-001,
          6.14568293e-001, 4.58623737e-001, 5.69472611e-001 ]
      - [ 8.04519475e-001, 1.29348010e-001, 1.56511039e-001,
          2.25693077e-001, 2.62387842e-001, 7.03256071e-001,
          9.52728093e-001, 1.56511039e-001, 3.43209207e-001 ]
      - [ 6.06727839e-001, 4.39895034e-001, 4.32833612e-001,
          6.47323191e-001, 2.25604132e-001, 3.28019053e-001,
          4.65059608e-001, 4.32833612e-001, 6.96527898e-001 ]
      - [ 4.11737174e-001, 6.76793516e-001, 6.38524652e-001,
          8.71520042e-001, 3.36489171e-001, 1.19941212e-001,
          1.08350135e-001, 6.38524652e-001, 9.00594473e-001 ]
      - [ 2.46321112e-001, 6.89794362e-001, 5.59054792e-001,
          3.55620593e-001, 5.22303998e-001, 4.96680409e-001,
          5.69522023e-001, 5.59054792e-001, 3.22530836e-001 ]
      - [ 4.47123438e-001, 4.86873329e-001, 4.75347281e-001,
          3.21541518e-001, 5.54635108e-001, 5.15628278e-001,
          7.29177833e-001, 4.75347281e-001, 3.27211142e-001 ]
      - [ 4.24702466e-001, 5.74265242e-001, 3.01413149e-001,
          4.80303109e-001, 2.80412644e-001, 4.98665035e-001,
          4.95915413e-001, 3.01413149e-001, 5.52055895e-001 ]
      - [ 5.81648171e-001, 4.01023686e-001, 3.37879032e-001,
          4.44664896e-001, 2.58368462e-001, 4.89206851e-001,
          6.70237958e-001, 3.37879032e-001, 4.86801058e-001 ]
      - [ 3.33925754e-001, 6.54226422e-001, 6.82407975e-001,
          5.22179186e-001, 6.94718122e-001, 2.99550861e-001,
          3.93500865e-001, 6.82407975e-001, 5.18970013e-001 ]
      - [ 6.29838109e-001, 4.73076373e-001, 4.71136570e-001,
          7.55278528e-001, 2.82955468e-001, 3.21001589e-001,
          3.88478070e-001, 4.71136570e-001, 8.89224172e-001 ]
      - [ 6.45551682e-001, 3.38751733e-001, 3.61994117e-001,
          5.04191935e-001, 2.20583782e-001, 4.98224199e-001,
          6.44433498e-001, 3.61994117e-001, 4.89440680e-001 ]
      - [ 3.80908042e-001, 5.23519337e-001, 2.38314748e-001,
          1.99299619e-001, 4.06473011e-001, 6.20567918e-001,
          7.32292473e-001, 2.38314748e-001, 2.23867893e-001 ]
      - [ 3.14328015e-001, 6.84435666e-001, 5.05601883e-001,
          5.21294773e-001, 7.10003018e-001, 4.39121723e-001,
          4.08666044e-001, 5.05601883e-001, 5.61358690e-001 ]
      - [ 8.17225039e-001, 2.46464774e-001, 4.53452945e-001,
          6.75521076e-001, 7.93803409e-002, 3.48212510e-001,
          5.66839159e-001, 4.53452945e-001, 7.17999339e-001 ]
      - [ 3.75515044e-001, 6.45328581e-001, 3.17010283e-001,
          5.87217987e-001, 2.19437733e-001, 4.63809401e-001,
          4.17408288e-001, 3.17010283e-001, 6.39568388e-001 ]
      - [ 5.88522673e-001, 3.35376203e-001, 1.81605220e-001,
          1.74401909e-001, 3.56267959e-001, 6.68912828e-001,
          8.56461823e-001, 1.81605220e-001, 3.03949773e-001 ]
      - [ 3.40273291e-001, 6.80430174e-001, 5.52793324e-001,
          6.12712681e-001, 6.25491977e-001, 3.64092648e-001,
          3.88165355e-001, 5.52793324e-001, 6.44344449e-001 ]
      - [ 4.17613298e-001, 5.65726697e-001, 4.03214306e-001,
          4.86410320e-001, 6.82475269e-001, 5.83737850e-001,
          4.83088583e-001, 4.03214306e-001, 4.96292919e-001 ]
      - [ 6.32865965e-001, 4.32835042e-001, 5.15649557e-001,
          7.20407963e-001, 3.61385159e-002, 3.38968635e-001,
          4.60398763e-001, 5.15649557e-001, 7.57366776e-001 ]
      - [ 4.87188846e-001, 4.19688016e-001, 4.93659288e-001,
          2.70226985e-001, 3.45383704e-001, 5.12737989e-001,
          7.86282599e-001, 4.93659288e-001, 2.43522167e-001 ]
      - [ 3.38838130e-001, 6.49740100e-001, 3.04507315e-001,
          3.75825435e-001, 6.93764746e-001, 5.18029511e-001,
          5.50832629e-001, 3.04507315e-001, 5.20197749e-001 ]
      - [ 3.93820852e-001, 5.73450029e-001, 3.99555445e-001,
          3.63297969e-001, 5.24414778e-001, 4.91714478e-001,
          6.13022089e-001, 3.99555445e-001, 4.39852417e-001 ]
      - [ 3.09050024e-001, 6.83318913e-001, 2.54004866e-001,
          3.56365949e-001, 7.04099119e-001, 6.93402946e-001,
          5.38202643e-001, 2.54004866e-001, 5.36911488e-001 ]
      - [ 5.74895382e-001, 4.30720240e-001, 1.93762124e-001,
          3.94863695e-001, 5.84617436e-001, 6.80070817e-001,
          6.89052761e-001, 1.93762124e-001, 5.62280655e-001 ]
      - [ 3.88978332e-001, 5.81590116e-001, 4.20947522e-001,
          3.63868386e-001, 4.91308481e-001, 5.25044978e-001,
          6.63211763e-001, 4.20947522e-001, 4.51687545e-001 ]
      - [ 4.17194128e-001, 5.31216383e-001, 4.69822705e-001,
          2.17158422e-001, 6.00238919e-001, 4.02948767e-001,
          6.61116302e-001, 4.69822705e-001, 3.74268860e-001 ]
      - [ 3.46522599e-001, 5.77816963e-001, 2.47452110e-001,
          4.12750155e-001, 3.25426459e-001, 5.86381495e-001,
          5.57785809e-001, 2.47452110e-001, 2.87677854e-001 ]
      - [ 2.50246167e-001, 6.95403874e-001, 1.62955686e-001,
          2.38235921e-001, 5.74096859e-001, 7.47403204e-001,
          5.72398543e-001, 1.62955686e-001, 3.58659983e-001 ]
      - [ 2.51799434e-001, 6.69108927e-001, 3.67048115e-001,
          1.44182533e-001, 5.13206065e-001, 5.89289963e-001,
          7.15650916e-001, 3.67048115e-001, 2.66631991e-001 ]
      - [ 2.40387931e-001, 6.98571384e-001, 4.34320718e-001,
          4.20256495e-001, 5.33217072e-001, 5.71329057e-001,
          5.20765781e-001, 4.34320718e-001, 3.32818031e-001 ]
      - [ 3.25653464e-001, 7.14360178e-001, 5.98600447e-001,
          6.49444282e-001, 5.91712952e-001, 4.24988627e-001,
          3.13384026e-001, 5.98600447e-001, 7.24746406e-001 ]
      - [ 5.15559435e-001, 4.04749244e-001, 0., 1.59749195e-001,
          5.77573538e-001, 8.37601006e-001, 8.43836606e-001, 0.,
          2.87860155e-001 ]
      - [ 1.97719142e-001, 7.02138782e-001, 5.24070382e-001,
          3.58511627e-001, 2.80699164e-001, 4.99995530e-001,
          5.46384513e-001, 5.24070382e-001, 1.81841433e-001 ]
      - [ 4.34527785e-001, 5.88000059e-001, 3.50070864e-001,
          4.78873014e-001, 6.19413257e-001, 5.41160762e-001,
          4.94272381e-001, 3.50070864e-001, 6.37358665e-001 ]
      - [ 4.36908394e-001, 6.21564150e-001, 4.85695064e-001,
          5.15997589e-001, 7.59003699e-001, 3.31670076e-001,
          4.25115496e-001, 4.85695064e-001, 7.73335993e-001 ]
      - [ 3.79361242e-001, 5.59654236e-001, 4.30757642e-001,
          4.62904721e-001, 4.02462304e-001, 5.50761461e-001,
          5.60024142e-001, 4.30757642e-001, 3.40550005e-001 ]
      - [ 4.46501732e-001, 5.02922416e-001, 2.09118813e-001,
          2.80522406e-001, 4.84338790e-001, 6.31369174e-001,
          6.62676811e-001, 2.09118813e-001, 3.78457814e-001 ]
      - [ 3.89721513e-001, 5.76479256e-001, 2.45969355e-001,
          3.10778350e-001, 4.35834557e-001, 7.19242156e-001,
          6.97331429e-001, 2.45969355e-001, 4.36128527e-001 ]
      - [ 5.76077878e-001, 3.87060851e-001, 1.57606199e-001,
          4.56146449e-001, 5.09043932e-001, 7.04779506e-001,
          6.48838758e-001, 1.57606199e-001, 4.24438804e-001 ]
      - [ 5.52729070e-001, 4.70451415e-001, 4.47509289e-001,
          7.18302131e-001, 6.39225915e-002, 3.32936674e-001,
          4.22135800e-001, 4.47509289e-001, 6.23984039e-001 ]
      - [ 5.17784655e-001, 4.11332339e-001, 2.68962204e-001,
          1.64098710e-001, 5.07063210e-001, 6.52445436e-001,
          8.92257869e-001, 2.68962204e-001, 3.15609008e-001 ]
      - [ 5.16766429e-001, 4.38176095e-001, 3.89559001e-001,
          4.53384727e-001, 2.80851603e-001, 4.35993642e-001,
          5.76551378e-001, 3.89559001e-001, 3.98001105e-001 ]
      - [ 5.86018384e-001, 4.34685379e-001, 5.19231081e-001,
          6.09600663e-001, 5.28189540e-001, 4.71333116e-001,
          4.88436818e-001, 5.19231081e-001, 6.11517310e-001 ]
      - [ 4.47003782e-001, 5.12025177e-001, 4.08276677e-001,
          4.50040162e-001, 6.36425376e-001, 5.27726471e-001,
          5.76799035e-001, 4.08276677e-001, 4.10956800e-001 ]
      - [ 4.77500796e-001, 4.76741135e-001, 3.16107124e-001,
          2.45643973e-001, 4.05493706e-001, 6.76442146e-001,
          8.08589816e-001, 3.16107124e-001, 3.95240843e-001 ]
      - [ 5.96656680e-001, 3.98779452e-001, 3.11848164e-001,
          6.38181388e-001, 7.27277175e-002, 4.80839998e-001,
          5.06324530e-001, 3.11848164e-001, 5.27240694e-001 ]
      - [ 4.48615283e-001, 5.64223111e-001, 3.49817723e-001,
          4.75759625e-001, 5.87846756e-001, 5.25152981e-001,
          5.40161610e-001, 3.49817723e-001, 5.99902987e-001 ]
      - [ 2.87975729e-001, 6.91315293e-001, 2.66661823e-001,
          3.65631014e-001, 5.13789237e-001, 6.53275907e-001,
          5.81196308e-001, 2.66661823e-001, 4.87656295e-001 ]
      - [ 3.62386167e-001, 5.72189748e-001, 5.76546490e-001,
          4.54763591e-001, 2.92046428e-001, 4.13383693e-001,
          5.86541355e-001, 5.76546490e-001, 3.24222714e-001 ]
      - [ 1.70314163e-001, 8.79765332e-001, 5.39518297e-001,
          6.99036658e-001, 7.92441010e-001, 3.88649940e-001,
          1.33772001e-001, 5.39518297e-001, 8.09564650e-001 ]
      - [ 7.94870555e-002, 8.83748353e-001, 5.74794948e-001,
          5.72045624e-001, 5.98541200e-001, 4.55551296e-001,
          2.91918159e-001, 5.74794948e-001, 4.27263707e-001 ]
      - [ 2.31235892e-001, 8.23734641e-001, 5.78826547e-001,
          7.36198604e-001, 8.07200253e-001, 2.86707461e-001,
          1.40747383e-001, 5.78826547e-001, 8.13384473e-001 ]
      - [ 2.40604401e-001, 6.93565965e-001, 4.44905519e-001,
          4.79965597e-001, 5.59596956e-001, 5.59192002e-001,
          4.87470031e-001, 4.44905519e-001, 3.14733624e-001 ]
      - [ 4.62458044e-001, 5.56972444e-001, 4.04315442e-001,
          4.93516654e-001, 6.85836792e-001, 5.24483085e-001,
          5.20402253e-001, 4.04315442e-001, 6.22035801e-001 ]
      - [ 5.71812034e-001, 3.01694006e-001, 3.27218920e-001,
          9.10677239e-002, 2.76626140e-001, 1., 1., 3.27218920e-001,
          1.54197201e-001 ]
      - [ 7.55914807e-001, 2.83733040e-001, 5.77811062e-001,
          6.12275898e-001, 5.46608448e-001, 3.73891145e-001,
          6.30944729e-001, 5.77811062e-001, 6.52210355e-001 ]
      - [ 2.58412868e-001, 7.12878287e-001, 6.53514445e-001,
          5.84987462e-001, 6.80451274e-001, 2.63421655e-001,
          3.62714916e-001, 6.53514445e-001, 4.57509667e-001 ]
      - [ 4.25021231e-001, 6.09902740e-001, 5.24498999e-001,
          6.18489981e-001, 6.51155770e-001, 4.74423349e-001,
          4.37205732e-001, 5.24498999e-001, 6.85224056e-001 ]
      - [ 3.66161078e-001, 6.47626102e-001, 4.79183942e-001,
          6.13677084e-001, 6.88110769e-001, 4.36260790e-001,
          3.72257233e-001, 4.79183942e-001, 6.13502979e-001 ]
      - [ 2.09828317e-001, 7.65548885e-001, 4.02887851e-001,
          5.48288167e-001, 6.20045602e-001, 5.33979475e-001,
          3.74546379e-001, 4.02887851e-001, 4.75507766e-001 ]
      - [ 5.03479183e-001, 4.76853877e-001, 5.88761210e-001,
          5.73534131e-001, 6.45436227e-001, 3.49372864e-001,
          4.85301554e-001, 5.88761210e-001, 4.82035697e-001 ]
      - [ 6.73179746e-001, 3.71687025e-001, 3.35410446e-001,
          5.55675924e-001, 6.94745779e-001, 5.35581470e-001,
          5.86996973e-001, 3.35410446e-001, 6.80224061e-001 ]
      - [ 4.80318129e-001, 5.56412160e-001, 6.11836731e-001,
          6.47836864e-001, 6.67981267e-001, 3.52706373e-001,
          3.89421046e-001, 6.11836731e-001, 6.82500064e-001 ]
      - [ 6.51114762e-001, 3.80418301e-001, 5.23839951e-001,
          5.29341400e-001, 5.96906364e-001, 5.31200051e-001,
          6.15639806e-001, 5.23839951e-001, 6.39582157e-001 ]
      - [ 3.99159521e-001, 5.58526456e-001, 4.59237993e-001,
          5.54072678e-001, 6.05254233e-001, 4.89363790e-001,
          4.64632571e-001, 4.59237993e-001, 4.05994952e-001 ]
      - [ 4.49975640e-001, 5.43992043e-001, 6.04463995e-001,
          7.02765644e-001, 6.71499133e-001, 3.00169766e-001,
          3.21594477e-001, 6.04463995e-001, 5.32024503e-001 ]
      - [ 3.44274372e-001, 6.49216473e-001, 3.73831570e-001,
          5.63742697e-001, 6.23348594e-001, 5.44557035e-001,
          4.23842341e-001, 3.73831570e-001, 5.38285732e-001 ]
      - [ 7.07012951e-001, 2.70190090e-001, 3.99036586e-001,
          4.66532946e-001, 4.93508607e-001, 5.59806347e-001,
          7.73235142e-001, 3.99036586e-001, 4.65655059e-001 ]
      - [ 8.74596298e-001, 1.90905944e-001, 3.76120776e-001,
          5.45551181e-001, 6.69696271e-001, 4.98555005e-001,
          7.15403318e-001, 3.76120776e-001, 7.14410901e-001 ]
      - [ 5.26497185e-001, 5.66438138e-001, 5.16128302e-001,
          6.63549125e-001, 6.94976389e-001, 3.62152755e-001,
          4.40266371e-001, 5.16128302e-001, 8.82082760e-001 ]
      - [ 3.27250302e-001, 6.66369200e-001, 6.07262552e-001,
          6.72424376e-001, 6.74154878e-001, 3.44522178e-001,
          3.22616786e-001, 6.07262552e-001, 5.40208697e-001 ]
      - [ 3.86120856e-001, 6.17048204e-001, 2.62467504e-001,
          4.30916458e-001, 8.68128002e-001, 5.57637572e-001,
          4.78288054e-001, 2.62467504e-001, 5.70973933e-001 ]
      - [ 3.22321177e-001, 7.20933080e-001, 6.38315678e-001,
          6.67640269e-001, 7.27105200e-001, 3.22563380e-001,
          2.99877763e-001, 6.38315678e-001, 7.38809049e-001 ]
      - [ 4.80431616e-001, 5.04551649e-001, 5.87846041e-001,
          5.45233965e-001, 5.33950210e-001, 4.64887172e-001,
          5.48800647e-001, 5.87846041e-001, 4.98856574e-001 ]
      - [ 5.71127415e-001, 4.95939791e-001, 5.85888207e-001,
          6.42077506e-001, 6.50290430e-001, 3.71119440e-001,
          4.66977268e-001, 5.85888207e-001, 7.74933875e-001 ]
      - [ 4.56989080e-001, 6.18782043e-001, 5.00543296e-001,
          6.52581275e-001, 8.46681595e-001, 3.71488333e-001,
          3.14712733e-001, 5.00543296e-001, 8.35610449e-001 ]
      - [ 5.53120494e-001, 4.37110931e-001, 5.97716808e-001,
          5.43099284e-001, 5.01875579e-001, 4.43856686e-001,
          6.07392907e-001, 5.97716808e-001, 5.12674868e-001 ]
      - [ 6.87923908e-001, 3.57644379e-001, 5.38751721e-001,
          6.10674024e-001, 5.29641032e-001, 4.59913969e-001,
          6.34176791e-001, 5.38751721e-001, 6.80327237e-001 ]
      - [ 2.07024395e-001, 8.30345750e-001, 4.48853999e-001,
          6.47530556e-001, 7.52993345e-001, 4.82294112e-001,
          2.33783126e-001, 4.48853999e-001, 7.40878820e-001 ]
      - [ 1., 0., 3.53062779e-001, 4.76431876e-001, 5.17859757e-001,
          5.20079911e-001, 8.45293939e-001, 3.53062779e-001,
          5.18473625e-001 ]
      - [ 5.73998094e-001, 4.46373016e-001, 4.28843111e-001,
          5.45100033e-001, 6.87599182e-001, 5.17141104e-001,
          5.23394644e-001, 4.28843111e-001, 6.11647725e-001 ]
      - [ 7.02118635e-001, 2.80293524e-001, 3.15557659e-001,
          4.60042030e-001, 5.96367598e-001, 5.67547977e-001,
          7.00104773e-001, 3.15557659e-001, 4.81325120e-001 ]
      - [ 4.99295175e-001, 5.33365846e-001, 4.06758726e-001,
          6.00721657e-001, 7.43273795e-001, 4.04648036e-001,
          4.02278036e-001, 4.06758726e-001, 6.64593875e-001 ]
      - [ 6.89033568e-001, 3.99050802e-001, 3.40255558e-001,
          4.62490529e-001, 8.32784116e-001, 5.16998470e-001,
          6.30066812e-001, 3.40255558e-001, 8.21764648e-001 ]
      - [ 4.02103543e-001, 6.02438569e-001, 3.66627425e-001,
          5.28227031e-001, 8.86323035e-001, 4.63903666e-001,
          4.16033536e-001, 3.66627425e-001, 5.74381828e-001 ]
      - [ 2.30381206e-001, 7.03670919e-001, 2.17879862e-001,
          3.30288500e-001, 6.95304155e-001, 5.89742482e-001,
          5.43657243e-001, 2.17879862e-001, 3.13443899e-001 ]
      - [ 6.44416332e-001, 3.43913734e-001, 3.17984849e-001,
          5.09753108e-001, 4.64011967e-001, 4.76715237e-001,
          6.45224094e-001, 3.17984849e-001, 5.01811385e-001 ]
      - [ 2.88730055e-001, 7.00103223e-001, 6.19886339e-001,
          6.54723227e-001, 3.38471949e-001, 3.44161600e-001,
          3.69588673e-001, 6.19886339e-001, 5.24552882e-001 ]
      - [ 4.67502922e-001, 5.24058402e-001, 3.74054998e-001,
          5.53200722e-001, 5.53691566e-001, 5.27219236e-001,
          5.12463272e-001, 3.74054998e-001, 5.22287011e-001 ]
      - [ 2.64698178e-001, 6.64136112e-001, 4.46866453e-001,
          4.25453246e-001, 6.88469410e-001, 4.69215661e-001,
          5.06843626e-001, 4.46866453e-001, 2.96695799e-001 ]
      - [ 2.45591179e-001, 7.56242275e-001, 3.30458730e-001,
          5.26554763e-001, 8.71270001e-001, 4.82678920e-001,
          3.45627278e-001, 3.30458730e-001, 5.80959499e-001 ]
      - [ 6.25446975e-001, 3.90595138e-001, 4.79281008e-001,
          6.34118974e-001, 6.94228113e-001, 3.85722160e-001,
          4.68086928e-001, 4.79281008e-001, 5.91748714e-001 ]
      - [ 5.54891884e-001, 4.35449213e-001, 2.62688130e-001,
          3.20675820e-001, 5.47033608e-001, 5.58171213e-001,
          7.65283465e-001, 2.62688130e-001, 5.12881935e-001 ]
      - [ 3.22198153e-001, 7.13888705e-001, 3.55701983e-001,
          5.63662350e-001, 6.84721649e-001, 5.30502617e-001,
          3.96148771e-001, 3.55701983e-001, 7.09265232e-001 ]
      - [ 6.04418755e-001, 3.64314973e-001, 4.47104871e-001,
          4.99519348e-001, 5.49981713e-001, 4.29376632e-001,
          6.10764682e-001, 4.47104871e-001, 4.41723615e-001 ]
      - [ 5.00848711e-001, 3.51029366e-001, 3.99033725e-002,
          1.24835216e-001, 4.09314185e-001, 8.45169902e-001,
          9.37456548e-001, 3.99033725e-002, 7.98499882e-002 ]
      - [ 4.26527917e-001, 5.05936623e-001, 3.09432298e-001,
          3.80159497e-001, 5.94304979e-001, 6.17744029e-001,
          6.38213754e-001, 3.09432298e-001, 3.20817143e-001 ]
      - [ 4.16040540e-001, 5.70144892e-001, 6.22931361e-001,
          6.40719712e-001, 3.27682614e-001, 3.47737163e-001,
          4.35307086e-001, 6.22931361e-001, 5.06417215e-001 ]
      - [ 5.46314716e-001, 4.69326913e-001, 4.24188286e-001,
          5.86891949e-001, 6.43010139e-001, 4.71343130e-001,
          5.37629604e-001, 4.24188286e-001, 5.98642945e-001 ]
      - [ 4.42303836e-001, 5.42141557e-001, 3.18807542e-001,
          4.57435012e-001, 6.22837067e-001, 5.61050832e-001,
          5.34237146e-001, 3.18807542e-001, 4.98830467e-001 ]
      - [ 7.35836625e-001, 2.59978324e-001, 1.45674080e-001,
          3.68214577e-001, 7.06308603e-001, 7.03443766e-001,
          8.05098951e-001, 1.45674080e-001, 5.20098805e-001 ]
      - [ 1.44867122e-001, 8.29339564e-001, 4.74878490e-001,
          6.84300125e-001, 6.88100100e-001, 4.12277371e-001,
          1.83421969e-001, 4.74878490e-001, 4.73259419e-001 ]
   decision_functions:
      -
         sv_count: 31
         rho: 7.6934560505008616e+000
         alpha: [ 3.1250000000000000e+002, 3.1250000000000000e+002,
             3.1250000000000000e+002, 3.1250000000000000e+002,
             6.5647872996752000e+001, 8.0310423270426369e+001,
             3.3966115999029185e+001, 5.1093794099195833e+001,
             3.1250000000000000e+002, 3.1250000000000000e+002,
             1.5027937178312760e+001, 3.1250000000000000e+002,
             3.1250000000000000e+002, 3.1250000000000000e+002,
             1.8708725624917963e+002, -3.1250000000000000e+002,
             -2.2792015255608976e+002, -6.2404465645459986e+001,
             -1.5669420372220452e+002, -2.8425684331809487e+002,
             -3.1250000000000000e+002, -1.5496505204363979e+002,
             -3.1250000000000000e+002, -3.1250000000000000e+002,
             -2.1272533646066651e+002, -1.0744688572670785e+002,
             -2.1397459534856119e+002, -3.1250000000000000e+002,
             -6.3555855282075356e+001, -8.9622399993508836e+001,
             -1.0956760969588720e+002 ]
         index: [ 1, 2, 3, 4, 7, 8, 10, 12, 15, 16, 17, 18, 19, 20, 21,
             24, 27, 34, 39, 40, 43, 45, 46, 48, 49, 51, 52, 53, 54, 55,
             56 ]
      -
         sv_count: 12
         rho: -7.7764636432572702e+000
         alpha: [ 1.2578079099098312e+002, 2.0202573285925673e+001,
             9.2269382898812154e+001, 1.3761458373804695e+001,
             1.3588529722647330e+001, 2.0651089662949440e+002,
             2.0887075509842717e+001, -1.5804113469384363e+001,
             -3.1250000000000000e+002, -2.7244919218063867e+001,
             -5.6181610873624885e+000, -1.3183351363669968e+002 ]
         index: [ 1, 2, 3, 9, 11, 18, 20, 69, 78, 80, 82, 84 ]
      -
         sv_count: 22
         rho: 1.6544320051856647e+000
         alpha: [ 2.4090046626759261e+002, 2.9975502932456754e+002,
             3.1250000000000000e+002, 8.2832853501450060e+001,
             1.9830527394038862e+002, 3.1250000000000000e+002,
             2.8353284698373301e+002, 3.1250000000000000e+002,
             -3.1250000000000000e+002, -3.1250000000000000e+002,
             -7.7508491805694035e+001, -4.2715186271769227e+001,
             -4.3137762487507729e+001, -2.5836773105447818e+001,
             -7.9888082138142721e+001, -2.1574808617996152e+002,
             -7.2163314992323564e+001, -3.1250000000000000e+002,
             -5.0744749092248050e+001, -1.2242937786313703e+002,
             -3.1250000000000000e+002, -6.2654646081500374e+001 ]
         index: [ 2, 8, 11, 14, 15, 16, 18, 20, 91, 94, 95, 96, 99, 100,
             104, 105, 107, 109, 112, 113, 117, 118 ]
      -
         sv_count: 17
         rho: 2.2760762194738495e+000
         alpha: [ 2.2715114548710707e+002, 1.7301735530369695e+002,
             7.2128692446715998e+000, 6.4025436343502591e+001,
             1.7300928815623445e+002, 3.1250000000000000e+002,
             1.6289562236277260e+002, -3.0370896987659148e+002,
             -7.9681935045056690e+001, -9.0748188047977720e+001,
             -1.1839798933042231e+002, -2.9633744585591194e+002,
             -6.6252939959671863e+001, -4.8749759692756257e+001,
             -2.1952629385443718e+001, -5.1103627869946031e+001,
             -4.2878231834207625e+001 ]
         index: [ 2, 8, 13, 14, 18, 19, 20, 121, 126, 127, 128, 131, 133,
             135, 140, 142, 149 ]
      -
         sv_count: 18
         rho: -4.1139861522230996e+000
         alpha: [ 3.8970726159333054e+001, 8.8832529422295494e+001,
             2.0354734199045559e+001, 3.1250000000000000e+002,
             2.9481168255712470e+002, 2.6462787411987347e+002,
             3.1250000000000000e+002, 3.1250000000000000e+002,
             9.6901845165069034e+001, -2.9955951550436544e+002,
             -9.8140960178093806e+001, -8.7941891355101447e+001,
             -2.5061319809731454e+001, -2.0149340613671583e+002,
             -2.2578395051888975e+002, -3.1250000000000000e+002,
             -3.1250000000000000e+002, -1.7901834811984392e+002 ]
         index: [ 1, 2, 4, 5, 6, 8, 11, 14, 16, 151, 152, 153, 155, 157,
             166, 171, 173, 174 ]
      -
         sv_count: 15
         rho: -1.1599526034945027e+000
         alpha: [ 4.2295303594554556e-001, 4.7389123903986189e+001,
             1.6238036350627976e+002, 2.0967250376668341e+002,
             1.5337401918954676e+001, 1.3083446256876101e+002,
             4.9203122888467405e+001, 1.3829425700004514e+001,
             -6.1480441584699598e+001, -1.6744199100899979e+002,
             -2.0954671009991418e+002, -3.7836135323541626e+001,
             -1.0813227262818110e+002, -7.0978040548255930e+000,
             -3.7534002588920842e+001 ]
         index: [ 0, 1, 2, 8, 9, 11, 19, 20, 183, 188, 190, 193, 194,
             196, 198 ]
      -
         sv_count: 37
         rho: 3.1553923733351374e+000
         alpha: [ 3.1250000000000000e+002, 1.7781815399037731e+002,
             3.1250000000000000e+002, 3.1250000000000000e+002,
             1.3387372009799148e+002, 3.1250000000000000e+002,
             1.8325175861375732e+002, 2.1963778944204503e+002,
             2.1617721943010332e+002, 3.1250000000000000e+002,
             2.1267191583743818e+002, 1.4954237674564231e+002,
             3.1250000000000000e+002, 5.8577016732378496e+001,
             3.1250000000000000e+002, 2.5972238571350488e+002,
             3.1250000000000000e+002, -1.9562854695243331e+001,
             -3.1250000000000000e+002, -2.7792724776848509e+001,
             -8.9844356588174222e+001, -3.1250000000000000e+002,
             -1.9289884343247030e+002, -2.9684156941843099e+002,
             -6.9804845614879312e+001, -3.1250000000000000e+002,
             -2.0702304815618928e+002, -6.3613430191070790e+001,
             -1.2862599624371239e+002, -3.1250000000000000e+002,
             -3.1250000000000000e+002, -3.1250000000000000e+002,
             -2.3196401282803831e+002, -3.1250000000000000e+002,
             -3.7221868726318455e+001, -3.1250000000000000e+002,
             -2.4607878593186243e+002 ]
         index: [ 22, 23, 25, 28, 29, 31, 32, 35, 37, 39, 41, 42, 44, 49,
             50, 51, 55, 60, 61, 62, 63, 64, 65, 66, 68, 69, 70, 71, 73,
             77, 78, 79, 80, 81, 82, 84, 86 ]
      -
         sv_count: 44
         rho: 8.6777633800702567e+000
         alpha: [ 1.4252875944701549e+002, 8.0139605421319246e+001,
             1.5924913261293595e+001, 2.5836109945807783e+002,
             2.2005274573486798e+002, 3.1250000000000000e+002,
             2.0198125524032875e+001, 4.0895803091577449e+001,
             3.1084734910288574e+002, 1.8674087481702081e+001,
             2.7307827725182079e+002, 2.8020906298827850e+002,
             3.1250000000000000e+002, 1.4108337708010410e+002,
             1.6904495225411381e+002, 1.2991106248849755e+002,
             2.6832280617748019e+000, 3.1250000000000000e+002,
             4.6073535059004271e+001, 1.2760090165090578e+002,
             3.5422313077547862e+001, 9.4419008623746862e+001,
             4.5065370635698780e+000, -4.3888446262915281e+001,
             -6.4651348323832664e+001, -3.1250000000000000e+002,
             -3.1250000000000000e+002, -3.1250000000000000e+002,
             -2.6437885667354857e+002, -4.2657075220383710e+001,
             -7.2554670675439592e+000, -3.1250000000000000e+002,
             -3.1250000000000000e+002, -1.7290003139772892e+001,
             -1.2845906973037273e+002, -2.6122721777378581e+002,
             -2.6248945391506634e+001, -1.2647104774616322e+001,
             -1.6459590541326696e+002, -1.0315380121866087e+002,
             -1.8961511750336169e+002, -8.4413667052700436e+000,
             -1.3964501892329875e+002, -3.1250000000000000e+002 ]
         index: [ 22, 25, 26, 27, 28, 29, 30, 32, 33, 36, 38, 40, 41, 42,
             43, 44, 45, 46, 47, 54, 55, 56, 57, 88, 89, 91, 92, 94, 95,
             96, 99, 100, 101, 102, 104, 105, 107, 108, 109, 111, 112,
             113, 116, 117 ]
      -
         sv_count: 30
         rho: 8.3468234568693411e+000
         alpha: [ 9.3081381109563267e+001, 3.1250000000000000e+002,
             3.1250000000000000e+002, 2.3338475716285143e+002,
             2.7291895116305801e+002, 9.8367306647619177e+000,
             3.1250000000000000e+002, 3.1250000000000000e+002,
             1.1395638382979355e+002, 1.1967538938121804e+001,
             7.3848798409914252e+001, 1.0399286529075204e+002,
             3.1250000000000000e+002, 1.8351271249824899e+002,
             2.7818507662669267e+000, -3.1250000000000000e+002,
             -6.7831109375251884e+001, -2.6040912741433169e+002,
             -1.2521685189947375e+002, -3.1250000000000000e+002,
             -5.6106405793052367e+000, -1.3244766878581552e+002,
             -1.0078163409996111e+002, -1.1546224453006408e+002,
             -3.1250000000000000e+002, -3.1250000000000000e+002,
             -1.3427620317660688e+002, -1.3374669467163983e+001,
             -2.7981909389658830e+002, -1.7655272660876929e+002 ]
         index: [ 23, 27, 29, 30, 31, 38, 41, 43, 45, 46, 47, 51, 54, 56,
             57, 122, 125, 126, 129, 131, 133, 134, 135, 140, 142, 143,
             145, 147, 148, 149 ]
      -
         sv_count: 16
         rho: 2.5330926639047320e+000
         alpha: [ 2.1114106435517861e+001, 2.1327917692223128e+001,
             1.7289153224261526e+001, 1.5655414883821859e+002,
             6.4187719040748563e+000, 6.6401221222693508e+001,
             -3.5029489205611910e+001, -2.1162067567398974e+001,
             -6.3558087288517173e-001, -8.3805393847961547e+000,
             -4.6713995399778824e+001, -8.1238192566134249e+000,
             -5.9651244219460878e+001, -4.3287148745698069e+001,
             -2.9672849243627599e+001, -3.6448585421118487e+001 ]
         index: [ 27, 28, 41, 43, 46, 51, 151, 152, 155, 160, 163, 166,
             167, 170, 173, 177 ]
      -
         sv_count: 17
         rho: 1.8796792865276291e+000
         alpha: [ 1.9810593078161395e+002, 6.1056764512901793e+000,
             7.1172429533526198e+001, 6.9782388522614241e+001,
             1.3791349514764178e+002, 2.2347204165309634e+002,
             1.0977366331576812e+002, 6.4955422997191103e-001,
             1.4171579215348427e+002, -1.0643842484112171e+000,
             -3.3444135587956310e+001, -2.3441670031020085e+001,
             -3.1250000000000000e+002, -8.4449280508565380e+001,
             -1.8369305133254014e+002, -7.5984500805138726e+000,
             -3.1250000000000000e+002 ]
         index: [ 25, 27, 29, 31, 41, 42, 46, 53, 56, 180, 181, 187, 188,
             193, 194, 196, 198 ]
      -
         sv_count: 30
         rho: 1.0245265434462560e+000
         alpha: [ 3.1250000000000000e+002, 3.1250000000000000e+002,
             1.0541675337200398e+002, 3.5029690652077028e-001,
             3.1250000000000000e+002, 7.0989560908764304e+001,
             8.2192197910817306e+000, 1.2325261326873802e+002,
             3.6058277806588031e+001, 1.2992375055126936e+002,
             1.9082426530089842e+002, 3.1250000000000000e+002,
             3.1250000000000000e+002, 3.1250000000000000e+002,
             2.4251733480120823e+001, 1.5306984783698317e+002,
             1.0486071212496475e+001, -2.6806599061102457e+002,
             -2.2314023989916637e+002, -1.6632240707754968e+002,
             -3.8254858546151498e+000, -1.2300090117595768e+002,
             -2.0863685516888054e+002, -2.9554308535263482e+002,
             -3.1250000000000000e+002, -3.0932077901805008e+002,
             -1.0856596932368014e+002, -8.3920676953905982e+001,
             -3.1250000000000000e+002, -3.1250000000000000e+002 ]
         index: [ 58, 59, 63, 64, 65, 67, 68, 69, 71, 72, 74, 75, 76, 78,
             79, 81, 83, 87, 90, 91, 92, 97, 101, 103, 104, 110, 111,
             115, 117, 119 ]
      -
         sv_count: 15
         rho: 8.0396775043356268e+000
         alpha: [ 1.1264161757199842e+001, 2.3547112536072297e+002,
             2.0294436878989796e+001, 1.7889501845877146e+002,
             1.2572626888373858e+002, 3.1250000000000000e+002,
             2.3832659072636403e+002, 9.1325442666818645e+001,
             2.2287480990554116e+001, 4.9436223594122026e+000,
             -3.1250000000000000e+002, -2.6232204303727690e+002,
             -3.1250000000000000e+002, -1.5189092651886827e+002,
             -2.0182117852642656e+002 ]
         index: [ 63, 64, 67, 71, 76, 78, 79, 82, 83, 84, 131, 140, 143,
             147, 149 ]
      -
         sv_count: 12
         rho: -2.6141918048297352e-001
         alpha: [ 4.4502963372840441e+001, 1.0710937068191259e+002,
             1.0795075844481852e+002, 4.2885088752233882e+000,
             3.1047401952627678e+002, -8.5214667073739925e+000,
             -2.3280288130185983e+001, -2.6021600764794979e+001,
             -5.7039104052594771e+000, -1.1459269194994060e+002,
             -8.3705662943516472e+001, -3.1250000000000000e+002 ]
         index: [ 63, 64, 82, 84, 86, 155, 156, 166, 167, 170, 175, 178 ]
      -
         sv_count: 15
         rho: 1.9499571424872302e+000
         alpha: [ 9.2983448296258242e+000, 1.9335848225291585e+002,
             1.2994846610901376e+002, 2.5704660451320311e+000,
             1.8175220476354735e+002, 3.1250000000000000e+002,
             5.8351135514518056e+001, -1.0309299025339533e-001,
             -7.9006777325365974e+001, -7.5004464446272323e+001,
             -3.1250000000000000e+002, -7.7161644128677665e+001,
             -2.1645983944248457e+001, -3.1250000000000000e+002,
             -9.8571366799352216e+000 ]
         index: [ 63, 64, 71, 72, 73, 79, 85, 180, 181, 187, 188, 194,
             195, 198, 202 ]
      -
         sv_count: 49
         rho: -1.8269398717858125e+000
         alpha: [ 3.1250000000000000e+002, 3.1250000000000000e+002,
             1.1495829264694299e+002, 1.1134264975664489e+002,
             1.6263315730005721e+002, 3.1250000000000000e+002,
             1.3253594382505733e+002, 1.0253574797455050e+002,
             1.8909855177092712e+002, 1.9321777460328633e+002,
             3.1250000000000000e+002, 6.6184082506681605e+001,
             5.8762642383317647e+001, 2.6127874001167357e+000,
             3.0801214140013002e+002, 3.1250000000000000e+002,
             3.1250000000000000e+002, 2.5440938063822435e+002,
             3.1250000000000000e+002, 1.5008456928133057e+002,
             1.3014295327457177e+001, 3.1250000000000000e+002,
             3.1250000000000000e+002, 1.3464992306578858e+002,
             -3.1250000000000000e+002, -1.6147475540076891e+002,
             -2.7252784427383870e+002, -1.5684812691446066e+002,
             -2.7604306805423158e+002, -2.2836775261287426e+002,
             -1.0247805090845972e+002, -3.1250000000000000e+002,
             -3.1250000000000000e+002, -3.1637357407082433e+001,
             -2.0241601801214237e+001, -2.1906912231206110e+002,
             -2.5636672720219190e+002, -1.4937639885103170e+001,
             -2.2549251341140982e+002, -3.0567776168019276e+002,
             -2.8243540943659281e+002, -2.1430124143037983e+002,
             -2.7152986359229101e+002, -3.1250000000000000e+002,
             -1.6564569878797428e+002, -1.2807394900406391e+002,
             -4.6825778927423478e+001, -7.4501340549605345e+001,
             -1.0207633628829282e+002 ]
         index: [ 88, 89, 90, 91, 92, 93, 94, 95, 96, 98, 99, 101, 103,
             104, 105, 106, 107, 111, 112, 113, 115, 117, 118, 119, 120,
             121, 122, 124, 125, 126, 127, 130, 131, 132, 134, 135, 137,
             138, 139, 140, 141, 142, 143, 144, 145, 146, 147, 148, 149 ]
      -
         sv_count: 24
         rho: 1.0121523128338740e+001
         alpha: [ 2.4426810653939569e+001, 1.7904775805857051e+002,
             2.2353983131123817e+002, 1.8158729018136137e+002,
             1.0057416995028757e+002, 7.2367851562234098e-001,
             1.8835794893021367e+002, 3.1250000000000000e+002,
             2.7815552134066099e+001, 3.1250000000000000e+002,
             3.1250000000000000e+002, -1.1767200404656169e+001,
             -8.6486953984643847e+001, -3.1250000000000000e+002,
             -2.2725069810935899e+001, -2.5306296637617521e+002,
             -2.2184322931709374e+002, -3.6960670279174906e+001,
             -2.1532335612353116e+001, -1.8375906524442613e+002,
             -1.2500480366876089e+002, -2.1326186893288988e+002,
             -1.3344113474255650e+002, -2.4122774136163318e+002 ]
         index: [ 87, 89, 91, 92, 93, 104, 109, 113, 114, 117, 118, 151,
             153, 154, 155, 157, 158, 160, 164, 167, 168, 172, 173, 174 ]
      -
         sv_count: 22
         rho: -1.6230328739851323e+000
         alpha: [ 4.5810933124068516e+000, 3.1250000000000000e+002,
             4.2748905625607875e+001, 1.9501216708505117e+002,
             3.1250000000000000e+002, 2.1895185790649620e+002,
             6.5060982754841888e+001, 1.8418867789573798e+000,
             6.1643411878340679e+001, 1.1477892247357069e+001,
             4.3241288645368307e+001, 3.1250000000000000e+002,
             3.1250000000000000e+002, -3.1250000000000000e+002,
             -1.0897083608401596e+002, -8.6999843689227490e+001,
             -3.1250000000000000e+002, -3.1250000000000000e+002,
             -1.4815850099559485e+001, -2.7226415101633319e+002,
             -1.6150880534529142e+002, -3.1250000000000000e+002 ]
         index: [ 88, 89, 91, 92, 93, 94, 99, 102, 103, 104, 112, 117,
             118, 181, 188, 190, 193, 194, 196, 197, 198, 200 ]
      -
         sv_count: 22
         rho: 1.3272865301015422e+000
         alpha: [ 5.8866346346041880e+001, 9.3716653978815820e+000,
             3.0038726571782661e+002, 2.5728224530331568e+002,
             1.8201170436056773e+002, 8.6529066212574790e+000,
             3.1250000000000000e+002, 3.1250000000000000e+002,
             -5.5005351402910598e+000, -4.2068873931000839e-001,
             -3.1250000000000000e+002, -3.1250000000000000e+002,
             -2.3659440156268843e+001, -3.2556993798094647e+000,
             -3.7340779261275230e+001, -2.1628965342465457e+002,
             -4.6187815925771851e+001, -6.5513947172582277e+001,
             -1.0079727344501590e+002, -2.1554058328418020e+002,
             -7.3342309105609033e+001, -2.8723408712122367e+001 ]
         index: [ 123, 124, 130, 131, 135, 139, 143, 144, 150, 151, 153,
             154, 155, 160, 163, 167, 168, 170, 173, 174, 175, 177 ]
      -
         sv_count: 23
         rho: 5.9003412752601192e-001
         alpha: [ 3.1250000000000000e+002, 1.2669933050092365e+002,
             7.1336473863403356e+001, 8.1084547481458728e+001,
             6.8255624455908631e+001, 1.6745364310438833e+002,
             3.1250000000000000e+002, 6.0457481228417258e+001,
             1.2267187726176832e+002, 3.1250000000000000e+002,
             3.1250000000000000e+002, 3.1250000000000000e+002,
             3.5967672600305235e+001, -2.9104058743712471e+002,
             -4.4587968721199189e+001, -7.2277361297078897e+001,
             -2.4889008518146960e+002, -3.1250000000000000e+002,
             -2.8283513489767449e+002, -1.0679551296202703e+002,
             -3.1250000000000000e+002, -3.1250000000000000e+002,
             -3.1250000000000000e+002 ]
         index: [ 121, 131, 132, 134, 135, 136, 139, 140, 141, 143, 144,
             147, 149, 181, 186, 187, 189, 193, 194, 196, 197, 198, 200 ]
      -
         sv_count: 33
         rho: 7.0778873723216646e+000
         alpha: [ 2.0687478127723431e+001, 5.2371966626441484e+001,
             1.9919018256970517e+002, 4.1985646077685814e+000,
             9.6900589138589510e+001, 3.1250000000000000e+002,
             9.9605909201756063e+001, 3.1250000000000000e+002,
             3.1250000000000000e+002, 1.8223283315503855e+002,
             3.1250000000000000e+002, 3.1250000000000000e+002,
             3.1250000000000000e+002, 7.6331390714607608e+001,
             3.1250000000000000e+002, 9.7822317595073258e+001,
             1.4329019030923069e+001, -1.7649933318955294e+002,
             -3.1250000000000000e+002, -1.6406342329310114e+001,
             -3.0386293701674236e+002, -6.4928217706096802e+001,
             -3.1250000000000000e+002, -1.9932950853879345e+002,
             -1.0800727552643390e+002, -3.1250000000000000e+002,
             -3.1250000000000000e+002, -2.1328493016092341e+002,
             -1.3598129564455110e+002, -3.1250000000000000e+002,
             -1.1477392843302855e+001, -7.3055185182203166e+000,
             -2.3158749929369947e+002 ]
         index: [ 152, 153, 154, 157, 159, 160, 161, 162, 165, 166, 167,
             168, 169, 170, 172, 176, 179, 180, 181, 182, 184, 185, 189,
             190, 191, 192, 194, 197, 198, 199, 200, 201, 202 ]
