%YAML:1.0
my_svm: !!opencv-ml-svm
   svm_type: C_SVC
   kernel: { type:RBF, gamma:3.3750000000000002e-002 }
   C: 3.1250000000000000e+002
   term_criteria: { epsilon:1.1920928955078125e-007, iterations:1000 }
   var_all: 9
   var_count: 9
   class_count: 7
   class_labels: !!opencv-matrix
      rows: 1
      cols: 7
      dt: i
      data: [ 0, 1, 2, 3, 4, 5, 6 ]
   sv_total: 223
   support_vectors:
      - [ 3.59949678e-001, 6.12413466e-001, 7.79797912e-001,
          6.73648119e-001, 8.71799171e-001, 2.89547652e-001,
          3.56122851e-001, 7.79797912e-001, 4.54602510e-001 ]
      - [ 5.41594207e-001, 4.66221452e-001, 6.43274605e-001,
          6.86413527e-001, 9.05221045e-001, 2.61172444e-001,
          3.85024428e-001, 6.43274605e-001, 5.91076851e-001 ]
      - [ 2.65978485e-001, 7.14408278e-001, 7.06871629e-001,
          7.15384603e-001, 7.92816341e-001, 3.38201076e-001,
          3.01596195e-001, 7.06871629e-001, 4.70255077e-001 ]
      - [ 2.80149668e-001, 7.58967936e-001, 6.86761796e-001,
          8.51505637e-001, 8.72507989e-001, 2.72069037e-001,
          1.49781853e-001, 6.86761796e-001, 6.98132277e-001 ]
      - [ 5.10879040e-001, 4.84127402e-001, 7.05966592e-001,
          6.33208692e-001, 8.29792619e-001, 2.62038141e-001,
          4.77896720e-001, 7.05966592e-001, 5.47196627e-001 ]
      - [ 1.91965774e-001, 8.23107958e-001, 2.85229743e-001,
          4.67035323e-001, 6.65313661e-001, 4.12129939e-001,
          2.50092000e-001, 2.85229743e-001, 5.98136544e-001 ]
      - [ 5.46679974e-001, 5.31430244e-001, 6.04144633e-001,
          7.15493500e-001, 9.04857159e-001, 3.60243678e-001,
          4.08949941e-001, 6.04144633e-001, 8.30057561e-001 ]
      - [ 2.01286420e-001, 8.31700683e-001, 7.67555237e-001,
          5.70346713e-001, 7.69512057e-001, 2.31793985e-001,
          2.20787406e-001, 7.67555237e-001, 6.73409343e-001 ]
      - [ 1.84346497e-001, 8.85110140e-001, 7.67728209e-001,
          7.78449118e-001, 9.09113109e-001, 2.57957608e-001,
          8.26923400e-002, 7.67728209e-001, 8.32661569e-001 ]
      - [ 3.18115354e-001, 6.39678121e-001, 6.75780058e-001,
          6.98875844e-001, 7.91627526e-001, 3.57960373e-001,
          3.41641396e-001, 6.75780058e-001, 3.96893710e-001 ]
      - [ 3.93308312e-001, 5.87712944e-001, 3.72573256e-001,
          5.02373815e-001, 6.54327452e-001, 3.68217468e-001,
          3.99830043e-001, 3.72573256e-001, 4.88539875e-001 ]
      - [ 2.41223678e-001, 7.21950650e-001, 6.91937685e-001,
          6.39039695e-001, 7.33123362e-001, 3.21590453e-001,
          3.34580272e-001, 6.91937685e-001, 4.02169794e-001 ]
      - [ 2.31274679e-001, 7.98981905e-001, 6.00432694e-001,
          7.28678524e-001, 8.95406842e-001, 3.23660970e-001,
          1.63781479e-001, 6.00432694e-001, 6.62241340e-001 ]
      - [ 2.88534343e-001, 7.12065995e-001, 4.59974408e-001,
          6.13525271e-001, 6.61570609e-001, 2.87866980e-001,
          2.64950156e-001, 4.59974408e-001, 5.48322797e-001 ]
      - [ 2.37246811e-001, 7.46709704e-001, 7.01064050e-001,
          7.70467460e-001, 8.89607549e-001, 1.87225521e-001,
          1.32164076e-001, 7.01064050e-001, 4.79589105e-001 ]
      - [ 2.01474890e-001, 8.10799420e-001, 6.80605769e-001,
          7.50256240e-001, 8.88758242e-001, 3.02884847e-001,
          2.25018829e-001, 6.80605769e-001, 5.87782681e-001 ]
      - [ 3.73936117e-001, 6.62186742e-001, 5.76106131e-001,
          5.97265720e-001, 8.00449967e-001, 3.85599047e-001,
          3.31917018e-001, 5.76106131e-001, 6.85682893e-001 ]
      - [ 2.72588849e-001, 6.99535787e-001, 6.85770631e-001,
          7.47541606e-001, 8.44458580e-001, 3.37583423e-001,
          2.44870603e-001, 6.85770631e-001, 4.40624863e-001 ]
      - [ 2.55496919e-001, 7.05368638e-001, 2.41507620e-001,
          4.27657515e-001, 6.45665646e-001, 5.06190717e-001,
          3.74765664e-001, 2.41507620e-001, 3.95969152e-001 ]
      - [ 4.14208204e-001, 6.12542152e-001, 7.36005962e-001,
          7.71223307e-001, 9.00260389e-001, 2.16905639e-001,
          2.96252161e-001, 7.36005962e-001, 6.51612699e-001 ]
      - [ 2.30476990e-001, 7.85655558e-001, 4.55161989e-001,
          6.73214257e-001, 6.67613447e-001, 2.59762734e-001,
          1.47907063e-001, 4.55161989e-001, 6.04740322e-001 ]
      - [ 5.04016161e-001, 5.31177044e-001, 6.85829341e-001,
          6.12789214e-001, 7.68231034e-001, 3.40799391e-001,
          4.98834819e-001, 6.85829341e-001, 6.82008803e-001 ]
      - [ 2.40835786e-001, 7.84923315e-001, 7.10888147e-001,
          6.69056356e-001, 7.78446198e-001, 2.75306076e-001,
          2.93764114e-001, 7.10888147e-001, 6.44181728e-001 ]
      - [ 3.07946324e-001, 6.76633239e-001, 1., 8.34902167e-001,
          8.89496744e-001, 8.32590759e-002, 1.95057213e-001, 1.,
          4.91232246e-001 ]
      - [ 1.22556575e-001, 9.06284153e-001, 5.31939566e-001,
          7.33700693e-001, 1., 3.32644254e-001, 7.47288540e-002,
          5.31939566e-001, 6.54543519e-001 ]
      - [ 3.47345263e-001, 6.40611589e-001, 4.40928936e-001,
          5.53994060e-001, 6.26988769e-001, 3.30264717e-001,
          3.34308684e-001, 4.40928936e-001, 5.07729113e-001 ]
      - [ 2.21014217e-001, 8.11992943e-001, 6.03255510e-001,
          7.73815691e-001, 9.67092812e-001, 2.81808108e-001,
          1.40145078e-001, 6.03255510e-001, 6.73474431e-001 ]
      - [ 1.93696365e-001, 8.11964214e-001, 3.94969165e-001,
          5.64914167e-001, 6.90769494e-001, 3.88255090e-001,
          2.07707673e-001, 3.94969165e-001, 5.59898496e-001 ]
      - [ 5.88217199e-001, 4.98191446e-001, 5.17192006e-001,
          6.92554891e-001, 8.18011820e-001, 3.22525382e-001,
          3.66968632e-001, 5.17192006e-001, 8.55103433e-001 ]
      - [ 4.80352461e-001, 5.04828870e-001, 3.94618958e-001,
          4.73110259e-001, 6.21386409e-001, 3.90994132e-001,
          4.54899877e-001, 3.94618958e-001, 5.11855364e-001 ]
      - [ 4.88692880e-001, 4.43198800e-001, 3.66441339e-001,
          5.04240811e-001, 5.58201909e-001, 5.35667241e-001,
          5.99486649e-001, 3.66441339e-001, 3.43441665e-001 ]
      - [ 4.28490818e-001, 5.94831884e-001, 6.97284937e-001,
          7.16591358e-001, 7.40402758e-001, 2.30764419e-001,
          3.40870470e-001, 6.97284937e-001, 6.39367819e-001 ]
      - [ 3.84902090e-001, 6.67548060e-001, 5.02832890e-001,
          7.32681274e-001, 8.27104092e-001, 3.21278095e-001,
          2.10116863e-001, 5.02832890e-001, 7.46945381e-001 ]
      - [ 4.46139038e-001, 6.25510216e-001, 5.12960970e-001,
          7.32087314e-001, 8.33929002e-001, 2.92967856e-001,
          3.11416954e-001, 5.12960970e-001, 8.15262973e-001 ]
      - [ 3.66019398e-001, 6.40128911e-001, 2.04485491e-001,
          5.17093539e-001, 5.69541276e-001, 5.37617385e-001,
          4.05349284e-001, 2.04485491e-001, 5.74747801e-001 ]
      - [ 7.89785624e-001, 1.61984697e-001, 3.09818298e-001,
          4.33258712e-001, 5.01972079e-001, 4.81073916e-001,
          8.20221484e-001, 3.09818298e-001, 4.45604444e-001 ]
      - [ 2.49654040e-001, 7.46208429e-001, 7.45816946e-001,
          7.57547975e-001, 7.62915075e-001, 1.86056450e-001,
          1.60364792e-001, 7.45816946e-001, 5.26770353e-001 ]
      - [ 4.11377698e-001, 5.62879324e-001, 3.58391613e-001,
          4.44758177e-001, 5.95878482e-001, 4.61491942e-001,
          5.38512111e-001, 3.58391613e-001, 4.67650205e-001 ]
      - [ 6.94479585e-001, 3.03766042e-001, 6.26790524e-001,
          7.13813424e-001, 6.19534373e-001, 3.28549236e-001,
          5.63926876e-001, 6.26790524e-001, 5.69592059e-001 ]
      - [ 3.97264659e-001, 6.76498771e-001, 7.44648814e-001,
          7.52604127e-001, 8.72316599e-001, 1.34166345e-001,
          2.78774559e-001, 7.44648814e-001, 8.27755868e-001 ]
      - [ 3.09109986e-001, 7.14688301e-001, 4.63012755e-001,
          6.66524112e-001, 7.08534837e-001, 4.34083372e-001,
          3.01946640e-001, 4.63012755e-001, 6.38226807e-001 ]
      - [ 3.57349962e-001, 6.04628384e-001, 4.16731626e-001,
          5.13152480e-001, 6.51412070e-001, 3.90511930e-001,
          4.33479935e-001, 4.16731626e-001, 4.17781293e-001 ]
      - [ 5.26846945e-001, 4.98095453e-001, 3.09905887e-001,
          5.58701038e-001, 7.39120424e-001, 4.98089910e-001,
          5.21411180e-001, 3.09905887e-001, 6.47142291e-001 ]
      - [ 4.14292932e-001, 5.25636315e-001, 6.19928718e-001,
          5.61250806e-001, 6.52809024e-001, 2.50676215e-001,
          4.25341219e-001, 6.19928718e-001, 3.54324669e-001 ]
      - [ 3.60615641e-001, 6.47220194e-001, 3.39983910e-001,
          5.41099906e-001, 6.17039680e-001, 4.44815904e-001,
          3.65225226e-001, 3.39983910e-001, 5.80621302e-001 ]
      - [ 3.96082371e-001, 6.25125289e-001, 3.61268848e-001,
          6.09515667e-001, 7.25707293e-001, 4.68280941e-001,
          3.47476035e-001, 3.61268848e-001, 6.31001294e-001 ]
      - [ 2.92540967e-001, 6.52672470e-001, 3.30679297e-001,
          3.59006524e-001, 5.22273481e-001, 4.75137889e-001,
          4.43169266e-001, 3.30679297e-001, 3.47396433e-001 ]
      - [ 5.09980977e-001, 4.54433024e-001, 4.17144716e-001,
          4.66055602e-001, 5.74272811e-001, 3.72903705e-001,
          5.91698349e-001, 4.17144716e-001, 4.48308080e-001 ]
      - [ 3.49908710e-001, 6.61599576e-001, 1.44277871e-001,
          4.55336183e-001, 6.29990697e-001, 5.99075198e-001,
          4.23764288e-001, 1.44277871e-001, 5.93320549e-001 ]
      - [ 4.62981701e-001, 6.17051423e-001, 6.26735151e-001,
          7.74270773e-001, 8.75610113e-001, 2.67641902e-001,
          2.82489091e-001, 6.26735151e-001, 8.45088422e-001 ]
      - [ 5.18103480e-001, 4.98835236e-001, 2.90673435e-001,
          4.66082096e-001, 6.11517608e-001, 4.69034642e-001,
          5.40500760e-001, 2.90673435e-001, 6.19885802e-001 ]
      - [ 6.43275738e-001, 4.31141019e-001, 3.04219306e-001,
          6.27101362e-001, 7.33795166e-001, 5.10515988e-001,
          5.10258794e-001, 3.04219306e-001, 8.09262335e-001 ]
      - [ 3.30149889e-001, 7.33936429e-001, 5.55285096e-001,
          7.75839627e-001, 8.83300900e-001, 2.37418324e-001,
          1.61459878e-001, 5.55285096e-001, 7.95670927e-001 ]
      - [ 4.87011850e-001, 5.48344851e-001, 5.93580365e-001,
          6.43119216e-001, 7.46251941e-001, 3.15799505e-001,
          4.49696004e-001, 5.93580365e-001, 6.82520688e-001 ]
      - [ 3.98057997e-001, 6.03597760e-001, 5.27109861e-001,
          6.66746616e-001, 6.64219677e-001, 4.03548390e-001,
          3.65391701e-001, 5.27109861e-001, 5.61309874e-001 ]
      - [ 4.05640081e-002, 9.25392509e-001, 4.81628060e-001,
          5.54132998e-001, 7.44527936e-001, 3.53246272e-001,
          1.65007979e-001, 4.81628060e-001, 3.70195121e-001 ]
      - [ 4.27861810e-001, 6.29890144e-001, 5.71736634e-001,
          7.50070333e-001, 7.11412191e-001, 3.20080876e-001,
          3.37953150e-001, 5.71736634e-001, 7.64840007e-001 ]
      - [ 4.41760033e-001, 6.02876127e-001, 6.25557661e-001,
          6.82785392e-001, 8.23867261e-001, 2.16909468e-001,
          2.85502791e-001, 6.25557661e-001, 7.16060042e-001 ]
      - [ 3.46731782e-001, 6.10886037e-001, 5.37448347e-001,
          4.28567678e-001, 5.73698223e-001, 2.68702298e-001,
          4.76311028e-001, 5.37448347e-001, 4.01006520e-001 ]
      - [ 4.17524934e-001, 6.44822896e-001, 4.37565982e-001,
          5.52394748e-001, 7.21621811e-001, 4.12760377e-001,
          4.00811255e-001, 4.37565982e-001, 7.82412410e-001 ]
      - [ 4.08153057e-001, 5.65415978e-001, 3.87033314e-001,
          5.84031463e-001, 6.55989408e-001, 4.12139386e-001,
          3.84840459e-001, 3.87033314e-001, 4.64991480e-001 ]
      - [ 5.40749371e-001, 5.13258100e-001, 4.56672788e-001,
          6.92830682e-001, 7.33542204e-001, 4.06964004e-001,
          4.36195761e-001, 4.56672788e-001, 7.46032655e-001 ]
      - [ 1.90650076e-001, 7.70881593e-001, 3.92396390e-001,
          4.76262718e-001, 6.24607444e-001, 4.42690372e-001,
          3.16647112e-001, 3.92396390e-001, 3.85754287e-001 ]
      - [ 4.71651554e-001, 5.36246002e-001, 7.44875371e-001,
          7.84335673e-001, 7.41681099e-001, 2.18578041e-001,
          3.93828958e-001, 7.44875371e-001, 5.88048518e-001 ]
      - [ 5.27672887e-001, 5.05621910e-001, 6.81310952e-001,
          7.55426049e-001, 7.81779826e-001, 2.24573210e-001,
          3.79505187e-001, 6.81310952e-001, 6.75598502e-001 ]
      - [ 5.22156358e-001, 5.18238366e-001, 5.13796210e-001,
          7.40182996e-001, 6.15376651e-001, 2.77389169e-001,
          3.62640828e-001, 5.13796210e-001, 6.99934065e-001 ]
      - [ 3.28800589e-001, 6.73794329e-001, 5.39877951e-001,
          6.40965343e-001, 7.27838039e-001, 3.54560763e-001,
          3.55115384e-001, 5.39877951e-001, 5.59498012e-001 ]
      - [ 6.22181535e-001, 4.31114107e-001, 5.17513454e-001,
          7.86202788e-001, 6.87563956e-001, 2.04282910e-001,
          4.45035309e-001, 5.17513454e-001, 7.40792155e-001 ]
      - [ 2.40806013e-001, 7.54512072e-001, 7.26666689e-001,
          8.41174603e-001, 8.00837040e-001, 1.78146198e-001,
          1.67171866e-001, 7.26666689e-001, 5.24439156e-001 ]
      - [ 6.80003941e-001, 3.52561384e-001, 5.67607343e-001,
          6.96262836e-001, 6.86167538e-001, 2.81365126e-001,
          5.86801112e-001, 5.67607343e-001, 6.73971891e-001 ]
      - [ 3.58733684e-001, 7.13012695e-001, 4.74767119e-001,
          8.37478518e-001, 7.17588246e-001, 2.49698192e-001,
          1.74855009e-001, 4.74767119e-001, 8.23861420e-001 ]
      - [ 5.97086012e-001, 4.30937529e-001, 3.23247343e-001,
          6.69736028e-001, 6.72370017e-001, 5.01957297e-001,
          4.89785016e-001, 3.23247343e-001, 6.59310341e-001 ]
      - [ 7.13643551e-001, 3.61195207e-001, 5.44307470e-001,
          6.85665131e-001, 8.04360449e-001, 3.71542245e-001,
          5.79757512e-001, 5.44307470e-001, 8.05935502e-001 ]
      - [ 4.96980608e-001, 5.44032514e-001, 7.79325843e-001,
          7.80967474e-001, 8.43444407e-001, 1.44158602e-001,
          2.67140329e-001, 7.79325843e-001, 7.02392042e-001 ]
      - [ 5.49885631e-001, 4.17926788e-001, 5.89048147e-001,
          6.56648278e-001, 6.86043322e-001, 3.59351397e-001,
          5.78382075e-001, 5.89048147e-001, 4.65086043e-001 ]
      - [ 3.03373426e-001, 7.34748602e-001, 4.87471640e-001,
          7.55999506e-001, 7.33000040e-001, 2.56493747e-001,
          2.13997856e-001, 4.87471640e-001, 6.94045484e-001 ]
      - [ 4.04145360e-001, 6.10484898e-001, 6.15570545e-001,
          6.53596938e-001, 8.25644970e-001, 3.51771861e-001,
          3.25837076e-001, 6.15570545e-001, 6.08082592e-001 ]
      - [ 6.63285017e-001, 3.71627539e-001, 5.03188670e-001,
          7.49373555e-001, 5.92753589e-001, 2.99721688e-001,
          6.03306293e-001, 5.03188670e-001, 6.81625009e-001 ]
      - [ 2.77689636e-001, 7.57266939e-001, 7.47911692e-001,
          8.51783514e-001, 8.66200030e-001, 1.84093639e-001,
          1.94479004e-001, 7.47911692e-001, 6.82253659e-001 ]
      - [ 5.85413158e-001, 5.24702191e-001, 4.15614247e-001,
          7.71359324e-001, 7.25268006e-001, 3.29011858e-001,
          3.99908900e-001, 4.15614247e-001, 9.40227270e-001 ]
      - [ 2.81194091e-001, 7.55711079e-001, 5.79121411e-001,
          6.90933406e-001, 7.72878647e-001, 3.14324379e-001,
          2.33262658e-001, 5.79121411e-001, 6.89238250e-001 ]
      - [ 5.01335382e-001, 5.94492137e-001, 5.14864862e-001,
          7.58350194e-001, 7.32333601e-001, 2.36040249e-001,
          3.71235073e-001, 5.14864862e-001, 8.99508893e-001 ]
      - [ 3.93401116e-001, 6.36291623e-001, 8.45673025e-001,
          8.31597388e-001, 9.02097404e-001, 1.15001552e-001,
          2.33613089e-001, 8.45673025e-001, 6.62786484e-001 ]
      - [ 7.76407301e-001, 1.81871310e-001, 4.21959043e-001,
          5.32186627e-001, 6.58782065e-001, 4.18402374e-001,
          7.74280310e-001, 4.21959043e-001, 4.61979896e-001 ]
      - [ 7.27915764e-001, 3.60734731e-001, 4.80633408e-001,
          6.18847311e-001, 8.15327048e-001, 3.87528986e-001,
          5.09277582e-001, 4.80633408e-001, 8.49107027e-001 ]
      - [ 5.21710098e-001, 4.96440470e-001, 5.47955871e-001,
          7.16891825e-001, 6.28653646e-001, 2.48685956e-001,
          4.83363420e-001, 5.47955871e-001, 6.24494076e-001 ]
      - [ 4.52475131e-001, 6.05724514e-001, 4.06603634e-001,
          7.16036320e-001, 8.11677814e-001, 3.92263681e-001,
          3.29735607e-001, 4.06603634e-001, 7.65876412e-001 ]
      - [ 6.08775318e-001, 4.41676676e-001, 6.06122971e-001,
          6.99619532e-001, 8.44948590e-001, 2.54290372e-001,
          4.83643740e-001, 6.06122971e-001, 7.31887281e-001 ]
      - [ 4.63609725e-001, 6.06072128e-001, 5.06328702e-001,
          6.95935190e-001, 7.40317225e-001, 3.10026288e-001,
          3.61493170e-001, 5.06328702e-001, 8.07115197e-001 ]
      - [ 3.27774465e-001, 7.26197064e-001, 5.15769243e-001,
          8.28698039e-001, 7.67363131e-001, 1.77095726e-001,
          1.93997160e-001, 5.15769243e-001, 7.55843103e-001 ]
      - [ 4.45037514e-001, 5.36324978e-001, 4.08884555e-001,
          5.66831529e-001, 8.02967846e-001, 5.08512795e-001,
          3.98883879e-001, 4.08884555e-001, 4.96699661e-001 ]
      - [ 2.38193005e-001, 7.03409135e-001, 5.93192399e-001,
          5.18228114e-001, 6.39613032e-001, 4.17908520e-001,
          4.08695877e-001, 5.93192399e-001, 3.23374182e-001 ]
      - [ 5.43521941e-001, 3.34933758e-001, 4.86931294e-001,
          4.31372881e-001, 7.22797453e-001, 4.61722404e-001,
          6.66917801e-001, 4.86931294e-001, 1.99156463e-001 ]
      - [ 5.91378152e-001, 3.19977105e-001, 2.07709312e-001,
          3.88263881e-001, 5.06442368e-001, 5.70588171e-001,
          6.71806276e-001, 2.07709312e-001, 3.03518474e-001 ]
      - [ 7.30538845e-001, 3.76989663e-001, 5.82036257e-001,
          7.42741823e-001, 6.32868171e-001, 2.72584319e-001,
          5.68184614e-001, 5.82036257e-001, 9.11100864e-001 ]
      - [ 7.79365599e-001, 1.33919835e-001, 1.54315636e-001,
          3.35346311e-001, 4.80379403e-001, 6.27162278e-001,
          8.76438975e-001, 1.54315636e-001, 3.43063563e-001 ]
      - [ 6.39159620e-001, 4.58431154e-001, 4.47652370e-001,
          7.15765715e-001, 7.37145364e-001, 2.88917780e-001,
          4.59017396e-001, 4.47652370e-001, 8.88915479e-001 ]
      - [ 7.39648521e-001, 3.19200248e-001, 3.95206034e-001,
          6.44867122e-001, 5.77500463e-001, 3.27725083e-001,
          6.13600135e-001, 3.95206034e-001, 7.55075336e-001 ]
      - [ 4.01302427e-001, 6.90605700e-001, 6.35612726e-001,
          8.72536540e-001, 8.15900266e-001, 8.95872936e-002,
          1.20380916e-001, 6.35612726e-001, 8.98908436e-001 ]
      - [ 5.83467424e-001, 3.90114337e-001, 3.59563768e-001,
          5.99548519e-001, 6.07846022e-001, 4.04364556e-001,
          5.90471864e-001, 3.59563768e-001, 4.86972749e-001 ]
      - [ 4.00065809e-001, 6.05001748e-001, 3.03411722e-001,
          5.39600134e-001, 6.51365101e-001, 3.73328626e-001,
          3.83351147e-001, 3.03411722e-001, 5.74375510e-001 ]
      - [ 3.31387430e-001, 6.07198417e-001, 2.22151771e-001,
          3.46184969e-001, 5.47189176e-001, 5.59467435e-001,
          5.58845699e-001, 2.22151771e-001, 3.34151328e-001 ]
      - [ 4.17558521e-001, 5.13306022e-001, 4.92334664e-001,
          4.65582401e-001, 6.67823732e-001, 4.42108244e-001,
          6.02290034e-001, 4.92334664e-001, 3.26795518e-001 ]
      - [ 4.05091226e-001, 6.44409955e-001, 4.47492361e-001,
          7.87672400e-001, 7.11389601e-001, 2.40819722e-001,
          2.42014617e-001, 4.47492361e-001, 7.36042500e-001 ]
      - [ 3.56861711e-001, 6.33886397e-001, 6.94844484e-001,
          6.45651996e-001, 9.40003812e-001, 2.40523413e-001,
          2.53666371e-001, 6.94844484e-001, 5.19983411e-001 ]
      - [ 6.83640242e-001, 3.27021748e-001, 3.19349885e-001,
          6.12168372e-001, 5.73271275e-001, 4.48581845e-001,
          7.00436294e-001, 3.19349885e-001, 6.07204616e-001 ]
      - [ 7.17598736e-001, 2.69066423e-001, 3.79393041e-001,
          4.45507735e-001, 6.12699509e-001, 5.54099858e-001,
          7.99589992e-001, 3.79393041e-001, 5.37918627e-001 ]
      - [ 5.02065361e-001, 5.62067509e-001, 3.75751168e-001,
          7.50419199e-001, 5.87522507e-001, 3.56090248e-001,
          4.05761033e-001, 3.75751168e-001, 7.84824073e-001 ]
      - [ 3.94320011e-001, 6.30094588e-001, 5.80543339e-001,
          7.52247632e-001, 8.92070174e-001, 2.84143865e-001,
          3.39302301e-001, 5.80543339e-001, 6.43544376e-001 ]
      - [ 1., 4.06042337e-002, 4.03319538e-001, 6.46477580e-001,
          5.66615820e-001, 3.62982780e-001, 8.78559053e-001,
          4.03319538e-001, 6.96718156e-001 ]
      - [ 6.64725125e-001, 3.13834488e-001, 5.71780860e-001,
          5.37779868e-001, 6.53923750e-001, 2.39837676e-001,
          6.40285254e-001, 5.71780860e-001, 5.09892523e-001 ]
      - [ 3.86400849e-001, 5.62696874e-001, 1.18504725e-001,
          3.06396514e-001, 5.41612506e-001, 5.95366597e-001,
          5.43277919e-001, 1.18504725e-001, 3.80524307e-001 ]
      - [ 4.67873693e-001, 4.64516610e-001, 1.76465318e-001,
          3.60836953e-001, 5.21498442e-001, 5.65640807e-001,
          6.30236685e-001, 1.76465318e-001, 3.41475666e-001 ]
      - [ 4.28669274e-001, 5.69556296e-001, 2.97885329e-001,
          5.42253613e-001, 6.24077916e-001, 4.41129535e-001,
          4.08634543e-001, 2.97885329e-001, 5.52574337e-001 ]
      - [ 7.08839059e-001, 3.42003137e-001, 4.13291276e-001,
          7.02991068e-001, 6.63833559e-001, 3.14818621e-001,
          5.64329922e-001, 4.13291276e-001, 7.30366945e-001 ]
      - [ 3.84796530e-001, 6.15879476e-001, 4.73262250e-001,
          6.47611082e-001, 6.51133716e-001, 2.92848527e-001,
          3.39994401e-001, 4.73262250e-001, 5.57733476e-001 ]
      - [ 4.78519499e-001, 5.38338006e-001, 2.15403378e-001,
          4.79666442e-001, 7.18919098e-001, 6.16290867e-001,
          5.38818717e-001, 2.15403378e-001, 6.19223297e-001 ]
      - [ 4.13991243e-001, 5.22682250e-001, 3.89500767e-001,
          4.06898677e-001, 5.61089694e-001, 3.48359317e-001,
          4.53480631e-001, 3.89500767e-001, 3.44894439e-001 ]
      - [ 8.69249046e-001, 1.78334162e-001, 4.46142584e-001,
          7.19823182e-001, 5.69217384e-001, 3.01717013e-001,
          6.30350590e-001, 4.46142584e-001, 7.17789650e-001 ]
      - [ 6.76374078e-001, 3.62894058e-001, 3.07423353e-001,
          5.69141567e-001, 6.05393112e-001, 4.25254732e-001,
          5.71180761e-001, 3.07423353e-001, 6.95424139e-001 ]
      - [ 5.74611604e-001, 4.49698895e-001, 3.96446347e-001,
          4.63262409e-001, 6.39513671e-001, 3.14335763e-001,
          5.58057249e-001, 3.96446347e-001, 6.46504402e-001 ]
      - [ 3.53704959e-001, 6.60127521e-001, 5.62456667e-001,
          7.01242447e-001, 8.21636796e-001, 3.20489138e-001,
          3.26643080e-001, 5.62456667e-001, 6.03292108e-001 ]
      - [ 5.69056392e-001, 4.31164443e-001, 4.32830036e-001,
          4.93055254e-001, 5.61838806e-001, 4.02428836e-001,
          6.02307558e-001, 4.32830036e-001, 5.68457365e-001 ]
      - [ 4.16148335e-001, 5.65450549e-001, 8.25442001e-002,
          2.21049726e-001, 5.86608708e-001, 7.05327451e-001,
          6.33057654e-001, 8.25442001e-002, 4.94275361e-001 ]
      - [ 6.22786283e-001, 3.91606480e-001, 4.29382682e-001,
          6.27471685e-001, 6.76808953e-001, 2.93650687e-001,
          5.60527742e-001, 4.29382682e-001, 6.16482854e-001 ]
      - [ 3.79281610e-001, 5.79219282e-001, 3.05913270e-001,
          4.40940231e-001, 7.72564411e-001, 4.96826530e-001,
          4.88558501e-001, 3.05913270e-001, 4.10583794e-001 ]
      - [ 6.06325150e-001, 4.32721168e-001, 4.10998881e-001,
          6.56901777e-001, 6.92422152e-001, 2.85823226e-001,
          4.68426406e-001, 4.10998881e-001, 6.94901407e-001 ]
      - [ 5.98534286e-001, 3.87587965e-001, 3.05703551e-001,
          6.63312316e-001, 5.72571993e-001, 4.26591247e-001,
          5.32502234e-001, 3.05703551e-001, 5.26987314e-001 ]
      - [ 3.28428537e-001, 6.22841716e-001, 3.03270906e-001,
          4.08219934e-001, 6.07952356e-001, 5.52069128e-001,
          4.97231603e-001, 3.03270906e-001, 3.77034962e-001 ]
      - [ 5.57157576e-001, 4.60049778e-001, 4.23230648e-001,
          6.87190592e-001, 6.02637887e-001, 3.02033424e-001,
          4.85352099e-001, 4.23230648e-001, 6.23402834e-001 ]
      - [ 4.76785302e-001, 4.76873815e-001, 4.13045287e-001,
          4.95608211e-001, 7.85337329e-001, 4.74028379e-001,
          5.18546402e-001, 4.13045287e-001, 4.10364717e-001 ]
      - [ 2.93930113e-001, 6.89925671e-001, 2.85709590e-001,
          5.23286641e-001, 6.81366205e-001, 5.57276189e-001,
          4.22388881e-001, 2.85709590e-001, 4.87851173e-001 ]
      - [ 2.19225913e-001, 7.25990295e-001, 4.49448049e-001,
          4.68889743e-001, 6.30991399e-001, 5.19226193e-001,
          4.35775220e-001, 4.49448049e-001, 3.31882834e-001 ]
      - [ 2.69631445e-001, 6.64091110e-001, 3.10565978e-001,
          3.92553359e-001, 6.07217312e-001, 5.03543973e-001,
          3.93864006e-001, 3.10565978e-001, 3.02664727e-001 ]
      - [ 2.17670292e-001, 7.09756434e-001, 3.93922478e-001,
          3.32493514e-001, 5.18619001e-001, 5.20521998e-001,
          4.48600918e-001, 3.93922478e-001, 2.67501593e-001 ]
      - [ 4.91917342e-001, 4.30187821e-001, 2.69320309e-001,
          2.86743879e-001, 5.09445250e-001, 5.91058731e-001,
          7.48357356e-001, 2.69320309e-001, 3.15116614e-001 ]
      - [ 4.41584527e-001, 5.03207445e-001, 2.03576028e-001,
          3.61154109e-001, 5.91598272e-001, 5.71230054e-001,
          5.21454990e-001, 2.03576028e-001, 3.75968158e-001 ]
      - [ 3.52511525e-001, 5.84577322e-001, 3.56394231e-001,
          4.13518667e-001, 5.87516189e-001, 6.18942022e-001,
          4.98922437e-001, 3.56394231e-001, 3.33341777e-001 ]
      - [ 4.69085336e-001, 5.91228485e-001, 4.40924436e-001,
          4.44024682e-001, 7.61354983e-001, 3.45003366e-001,
          4.19927120e-001, 4.40924436e-001, 7.72914171e-001 ]
      - [ 3.95540357e-001, 5.40619254e-001, 4.49053824e-001,
          5.55172682e-001, 6.65910363e-001, 4.75852460e-001,
          4.86780077e-001, 4.49053824e-001, 3.39247584e-001 ]
      - [ 5.82697213e-001, 4.14715976e-001, 1.79958627e-001,
          4.55130368e-001, 6.64165318e-001, 6.14157438e-001,
          6.29623473e-001, 1.79958627e-001, 5.61080456e-001 ]
      - [ 3.54099035e-001, 6.36793852e-001, 2.75538266e-001,
          4.14468914e-001, 6.82088733e-001, 4.77314144e-001,
          4.47304338e-001, 2.75538266e-001, 5.20165026e-001 ]
      - [ 3.46326351e-001, 5.88070869e-001, 6.02013707e-001,
          5.66647410e-001, 6.03701472e-001, 3.47999483e-001,
          4.89820063e-001, 6.02013707e-001, 3.22904021e-001 ]
      - [ 2.88779259e-001, 6.38826013e-001, 2.56744474e-001,
          4.80960071e-001, 5.49498081e-001, 5.25416255e-001,
          4.62872118e-001, 2.56744474e-001, 2.86673754e-001 ]
      - [ 2.69591153e-001, 6.98890924e-001, 3.24560821e-001,
          3.64981532e-001, 5.49080372e-001, 5.69884479e-001,
          5.21428704e-001, 3.24560821e-001, 4.27659780e-001 ]
      - [ 3.68659824e-001, 5.97664833e-001, 2.59507716e-001,
          4.12103474e-001, 5.94075382e-001, 6.43554747e-001,
          5.66958129e-001, 2.59507716e-001, 4.35902536e-001 ]
      - [ 5.14644146e-001, 5.33901811e-001, 5.82727253e-001,
          7.60590374e-001, 7.73113072e-001, 2.71392196e-001,
          4.04122800e-001, 5.82727253e-001, 7.28783369e-001 ]
      - [ 4.35990304e-001, 4.66807008e-001, 5.27644157e-001,
          4.45826948e-001, 5.86236179e-001, 4.32633519e-001,
          6.17892861e-001, 5.27644157e-001, 2.43216619e-001 ]
      - [ 4.23265129e-001, 5.34737349e-001, 3.09677750e-001,
          4.60181355e-001, 6.17827117e-001, 4.38699275e-001,
          5.11975884e-001, 3.09677750e-001, 4.15748388e-001 ]
      - [ 3.22514743e-001, 6.08216941e-001, 3.50523204e-001,
          2.83907324e-001, 5.28501272e-001, 4.87500459e-001,
          4.60419118e-001, 3.50523204e-001, 3.05141747e-001 ]
      - [ 4.54542816e-001, 5.67576647e-001, 3.41443390e-001,
          4.90028858e-001, 6.87163770e-001, 4.93168801e-001,
          4.40357089e-001, 3.41443390e-001, 6.37169123e-001 ]
      - [ 3.16262096e-001, 7.29531884e-001, 5.85860193e-001,
          5.94902635e-001, 6.99966967e-001, 4.10964459e-001,
          3.29902053e-001, 5.85860193e-001, 7.24469602e-001 ]
      - [ 4.50167745e-001, 5.00170887e-001, 4.22451407e-001,
          6.00552499e-001, 5.85472047e-001, 3.62677515e-001,
          4.78720248e-001, 4.22451407e-001, 3.95594984e-001 ]
      - [ 2.93314844e-001, 6.48006022e-001, 3.94944340e-001,
          5.28804958e-001, 5.78982174e-001, 5.33853590e-001,
          4.61321473e-001, 3.94944340e-001, 3.34312558e-001 ]
      - [ 2.59721458e-001, 6.90117419e-001, 5.34757733e-001,
          5.80383420e-001, 5.67540824e-001, 4.11509782e-001,
          4.03036475e-001, 5.34757733e-001, 3.57701391e-001 ]
      - [ 5.64305544e-001, 3.89091134e-001, 1.58790931e-001,
          4.82689559e-001, 6.62259698e-001, 6.40774131e-001,
          6.37805939e-001, 1.58790931e-001, 4.22534227e-001 ]
      - [ 5.08756399e-001, 4.02938753e-001, 0., 2.83042341e-001,
          6.30674720e-001, 7.41521418e-001, 6.99139714e-001, 0.,
          2.87208200e-001 ]
      - [ 4.76600736e-001, 5.34287989e-001, 3.36190104e-001,
          5.12754440e-001, 7.30642378e-001, 4.71731156e-001,
          4.97257888e-001, 3.36190104e-001, 5.98953068e-001 ]
      - [ 7.84397304e-001, 1.74975798e-001, 4.03092653e-001,
          5.35428405e-001, 6.69005513e-001, 4.99740720e-001,
          8.24768305e-001, 4.03092653e-001, 4.66733783e-001 ]
      - [ 7.57079244e-001, 2.77917266e-001, 3.11388463e-001,
          5.14187992e-001, 7.57208467e-001, 5.10448039e-001,
          6.74784899e-001, 3.11388463e-001, 6.81714118e-001 ]
      - [ 5.00479102e-001, 4.44458157e-001, 5.59813678e-001,
          4.93597984e-001, 6.62813008e-001, 4.68640357e-001,
          6.32365584e-001, 5.59813678e-001, 3.86512339e-001 ]
      - [ 7.39566028e-001, 2.95515835e-001, 5.34965634e-001,
          6.18662715e-001, 7.74195254e-001, 4.11246121e-001,
          7.33621836e-001, 5.34965634e-001, 6.81955099e-001 ]
      - [ 3.89050841e-001, 6.14447832e-001, 4.04105008e-001,
          5.84764123e-001, 8.49419296e-001, 4.55821276e-001,
          4.08126444e-001, 4.04105008e-001, 5.67855418e-001 ]
      - [ 3.23078692e-001, 6.89822197e-001, 6.01609886e-001,
          6.19004726e-001, 7.90539265e-001, 3.11310887e-001,
          2.81744421e-001, 6.01609886e-001, 5.97977996e-001 ]
      - [ 9.08424199e-001, 1.38695866e-001, 3.53642136e-001,
          5.40729702e-001, 7.71369994e-001, 4.59039003e-001,
          8.15709710e-001, 3.53642136e-001, 7.15472460e-001 ]
      - [ 3.49588752e-001, 7.00446188e-001, 6.19669855e-001,
          6.09952509e-001, 7.81003952e-001, 3.14212143e-001,
          3.36420029e-001, 6.19669855e-001, 7.39921033e-001 ]
      - [ 6.86972961e-002, 9.09325778e-001, 5.80838680e-001,
          6.49332285e-001, 7.53605664e-001, 3.99356991e-001,
          1.94978356e-001, 5.80838680e-001, 4.28548753e-001 ]
      - [ 2.35294163e-001, 8.30982327e-001, 5.74110508e-001,
          7.45965540e-001, 9.50117826e-001, 2.49628350e-001,
          1.19557410e-001, 5.74110508e-001, 8.13826799e-001 ]
      - [ 5.91876268e-001, 3.90404791e-001, 6.00899637e-001,
          5.57232261e-001, 5.84805608e-001, 4.16637212e-001,
          6.65218234e-001, 6.00899637e-001, 5.14143765e-001 ]
      - [ 1.89645424e-001, 8.74943197e-001, 5.06614327e-001,
          6.33150578e-001, 8.67222369e-001, 3.71508658e-001,
          1.23114258e-001, 5.06614327e-001, 8.10965419e-001 ]
      - [ 3.92723441e-001, 6.11815095e-001, 2.61411399e-001,
          4.76255924e-001, 7.93400407e-001, 5.09373248e-001,
          4.06032622e-001, 2.61411399e-001, 5.71668029e-001 ]
      - [ 3.38362008e-001, 6.69887602e-001, 7.63666928e-001,
          7.27496505e-001, 8.35156560e-001, 2.57260680e-001,
          2.90846825e-001, 7.63666928e-001, 5.81678510e-001 ]
      - [ 5.17718077e-001, 5.17606080e-001, 6.01463318e-001,
          6.34113848e-001, 8.15750420e-001, 3.26988906e-001,
          4.39069271e-001, 6.01463318e-001, 6.83119953e-001 ]
      - [ 1.74086347e-001, 8.11367929e-001, 4.10160154e-001,
          6.25564575e-001, 7.65085816e-001, 4.70171660e-001,
          2.99388498e-001, 4.10160154e-001, 4.77249980e-001 ]
      - [ 7.48503566e-001, 2.81935006e-001, 3.94182712e-001,
          5.50780177e-001, 9.16286588e-001, 4.48262572e-001,
          6.02377653e-001, 3.94182712e-001, 6.67924345e-001 ]
      - [ 4.92693663e-001, 5.01905620e-001, 4.46500897e-001,
          5.84288538e-001, 7.27939725e-001, 4.42087024e-001,
          4.82653797e-001, 4.46500897e-001, 5.45018077e-001 ]
      - [ 6.74218714e-001, 3.02718014e-001, 4.88739312e-001,
          5.62835276e-001, 7.67611563e-001, 4.38354909e-001,
          5.68832874e-001, 4.88739312e-001, 5.05463898e-001 ]
      - [ 6.40491605e-001, 3.60553414e-001, 5.85509658e-001,
          6.36176050e-001, 8.00312698e-001, 3.54848444e-001,
          5.63567698e-001, 5.85509658e-001, 5.75331450e-001 ]
      - [ 2.67344475e-001, 7.09831059e-001, 6.52165949e-001,
          6.52473986e-001, 8.26981425e-001, 2.24864528e-001,
          3.14053923e-001, 6.52165949e-001, 4.59079355e-001 ]
      - [ 2.43440703e-001, 6.95855737e-001, 4.61051881e-001,
          5.94291508e-001, 7.12586105e-001, 4.81306136e-001,
          3.99532169e-001, 4.61051881e-001, 3.16215426e-001 ]
      - [ 3.10153872e-001, 6.81747258e-001, 4.30326998e-001,
          6.13544464e-001, 8.62804115e-001, 4.38139707e-001,
          3.10497075e-001, 4.30326998e-001, 5.18793523e-001 ]
      - [ 6.22269988e-001, 4.17911410e-001, 5.38335979e-001,
          6.39761627e-001, 7.22796321e-001, 3.41459960e-001,
          6.10262275e-001, 5.38335979e-001, 6.98383093e-001 ]
      - [ 5.42353511e-001, 3.21149975e-001, 3.30904692e-001, 0., 0., 1.,
          1., 3.30904692e-001, 1.56409800e-001 ]
      - [ 3.78184974e-001, 6.38479352e-001, 4.73368406e-001,
          6.10794127e-001, 8.01146388e-001, 3.99740905e-001,
          3.77577841e-001, 4.73368406e-001, 6.14341915e-001 ]
      - [ 4.73646104e-001, 5.17941475e-001, 6.33206308e-001,
          8.12291026e-001, 9.14560437e-001, 2.30557472e-001,
          2.99589992e-001, 6.33206308e-001, 5.33502400e-001 ]
      - [ 4.34769958e-001, 6.51925802e-001, 5.45909166e-001,
          6.35343790e-001, 9.70521152e-001, 2.06837192e-001,
          2.51274675e-001, 5.45909166e-001, 8.74358296e-001 ]
      - [ 6.26812041e-001, 4.02574480e-001, 4.52870667e-001,
          5.44515550e-001, 7.53317714e-001, 4.30921078e-001,
          5.83822489e-001, 4.52870667e-001, 6.63872838e-001 ]
      - [ 4.35370028e-001, 5.19405007e-001, 4.71780360e-001,
          6.46452785e-001, 7.53203094e-001, 4.24010009e-001,
          4.33996797e-001, 4.71780360e-001, 4.07370746e-001 ]
      - [ 5.40835500e-001, 4.49018329e-001, 4.91830170e-001,
          5.79832911e-001, 7.73534119e-001, 4.32922244e-001,
          5.42287946e-001, 4.91830170e-001, 5.33438921e-001 ]
      - [ 5.15630305e-001, 4.95657831e-001, 4.14236605e-001,
          5.35985053e-001, 8.31572473e-001, 4.30310339e-001,
          4.14101243e-001, 4.14236605e-001, 6.01650298e-001 ]
      - [ 8.41892421e-001, 1.83022872e-001, 5.82810044e-001,
          6.15518868e-001, 7.05642700e-001, 3.47249389e-001,
          7.50538766e-001, 5.82810044e-001, 6.52946353e-001 ]
      - [ 5.09100914e-001, 4.95750606e-001, 6.16896451e-001,
          6.51548147e-001, 7.60451138e-001, 2.87523955e-001,
          4.71370012e-001, 6.16896451e-001, 5.80185592e-001 ]
      - [ 3.36237252e-001, 6.47043586e-001, 1.68443784e-001,
          4.49683428e-001, 7.42376387e-001, 5.97823381e-001,
          4.26742941e-001, 1.68443784e-001, 4.90127623e-001 ]
      - [ 5.77956796e-001, 4.10690159e-001, 2.94509619e-001,
          5.42494416e-001, 7.73987174e-001, 5.03773868e-001,
          5.76796412e-001, 2.94509619e-001, 5.32437801e-001 ]
      - [ 5.69233358e-001, 4.40596104e-001, 4.09247488e-001,
          5.64834237e-001, 7.96104074e-001, 4.33322340e-001,
          5.96394062e-001, 4.09247488e-001, 5.99176228e-001 ]
      - [ 4.17983949e-001, 5.88333964e-001, 3.88146967e-001,
          6.53793037e-001, 8.27196956e-001, 3.08286279e-001,
          3.29569161e-001, 3.88146967e-001, 5.79282761e-001 ]
      - [ 5.81177473e-001, 3.75328958e-001, 5.38604498e-001,
          4.50650781e-001, 6.64453566e-001, 3.55960011e-001,
          7.26473093e-001, 5.38604498e-001, 4.33977038e-001 ]
      - [ 2.15262130e-001, 7.25069761e-001, 2.22764984e-001,
          4.41462934e-001, 6.48676574e-001, 5.18209219e-001,
          3.64357919e-001, 2.22764984e-001, 3.12698871e-001 ]
      - [ 7.28384972e-001, 2.38875136e-001, 3.00241768e-001,
          4.61084038e-001, 7.46837556e-001, 5.20989299e-001,
          7.25211561e-001, 3.00241768e-001, 4.82569069e-001 ]
      - [ 4.59101468e-001, 3.86080205e-001, 6.14663586e-002,
          3.02498579e-001, 5.21036267e-001, 7.45327353e-001,
          7.55865276e-001, 6.14663586e-002, 7.92066678e-002 ]
      - [ 5.53983986e-001, 4.29179192e-001, 2.07269758e-001,
          2.42481232e-001, 5.55743098e-001, 5.48731565e-001,
          7.50932992e-001, 2.07269758e-001, 5.13165593e-001 ]
      - [ 5.97145975e-001, 3.61597896e-001, 4.20708686e-001,
          4.63035405e-001, 6.89924777e-001, 4.15478915e-001,
          6.34546995e-001, 4.20708686e-001, 4.42877501e-001 ]
      - [ 3.70725363e-001, 5.61844170e-001, 3.18797737e-001,
          5.06162941e-001, 7.19873786e-001, 5.36433399e-001,
          5.07814527e-001, 3.18797737e-001, 3.22016597e-001 ]
      - [ 2.55624056e-001, 7.54073977e-001, 3.41051221e-001,
          6.07711554e-001, 8.09284747e-001, 4.17682409e-001,
          2.62225568e-001, 3.41051221e-001, 5.81137598e-001 ]
      - [ 4.55585092e-001, 5.33680797e-001, 3.76908988e-001,
          5.94477177e-001, 7.16067016e-001, 4.82801586e-001,
          5.11362612e-001, 3.76908988e-001, 5.23716927e-001 ]
      - [ 1.28729299e-001, 8.57616961e-001, 4.97099429e-001,
          8.01556826e-001, 8.95430565e-001, 3.21527749e-001,
          8.42254683e-002, 4.97099429e-001, 4.73668963e-001 ]
      - [ 5.28251529e-001, 4.71021593e-001, 1.23500794e-001,
          3.76263559e-001, 6.95762634e-001, 5.87060928e-001,
          5.92591941e-001, 1.23500794e-001, 5.62636077e-001 ]
      - [ 6.53476357e-001, 3.23259473e-001, 3.14886957e-001,
          6.01743102e-001, 7.13564754e-001, 4.10155267e-001,
          6.25278175e-001, 3.14886957e-001, 5.02621293e-001 ]
      - [ 2.83983976e-001, 6.88002527e-001, 3.93511295e-001,
          5.99560738e-001, 7.75039077e-001, 4.41787481e-001,
          3.27694356e-001, 3.93511295e-001, 4.42057163e-001 ]
      - [ 2.85058916e-001, 6.46320760e-001, 4.54604387e-001,
          5.44636846e-001, 7.67742872e-001, 4.05366153e-001,
          3.91980439e-001, 4.54604387e-001, 2.98192233e-001 ]
      - [ 4.32580441e-001, 5.72503924e-001, 3.49049836e-001,
          5.64675510e-001, 8.59964132e-001, 4.14516568e-001,
          3.71497899e-001, 3.49049836e-001, 5.75981319e-001 ]
      - [ 7.43514776e-001, 2.59228736e-001, 2.50229836e-001,
          2.94089258e-001, 6.31644666e-001, 5.70811331e-001,
          8.00457299e-001, 2.50229836e-001, 5.85868835e-001 ]
      - [ 6.39756441e-001, 3.81585360e-001, 1.56480029e-001,
          2.58636683e-001, 6.07994139e-001, 5.76172650e-001,
          7.11606205e-001, 1.56480029e-001, 6.38146162e-001 ]
      - [ 3.36827964e-001, 7.05371916e-001, 3.52324694e-001,
          6.13607585e-001, 7.78374434e-001, 4.69943583e-001,
          3.54177982e-001, 3.52324694e-001, 7.09530234e-001 ]
      - [ 4.95723695e-001, 5.34580350e-001, 3.81095856e-001,
          5.87700784e-001, 8.61796618e-001, 3.75525773e-001,
          3.98550987e-001, 3.81095856e-001, 6.65501356e-001 ]
      - [ 9.73365366e-001, 0., 3.40021700e-001, 4.88354653e-001,
          6.71312094e-001, 4.90816534e-001, 9.12103772e-001,
          3.40021700e-001, 5.19784808e-001 ]
      - [ 4.28646117e-001, 5.84317088e-001, 4.83047217e-001,
          6.88636899e-001, 8.98775041e-001, 3.41481358e-001,
          2.93746591e-001, 4.83047217e-001, 6.03166044e-001 ]
      - [ 2.81466216e-001, 7.13382423e-001, 6.44168258e-001,
          6.61684632e-001, 5.95555663e-001, 3.11909914e-001,
          3.64182711e-001, 6.44168258e-001, 5.26334405e-001 ]
      - [ 7.06496775e-001, 3.73339981e-001, 3.07915419e-001,
          4.06318992e-001, 7.46241331e-001, 5.03937125e-001,
          6.73716128e-001, 3.07915419e-001, 8.22852254e-001 ]
      - [ 4.56276923e-001, 5.76775789e-001, 3.37043941e-001,
          6.31810844e-001, 7.53103852e-001, 4.25822616e-001,
          4.73691583e-001, 3.37043941e-001, 6.74578726e-001 ]
      - [ 6.44717932e-001, 3.49153578e-001, 4.62277293e-001,
          6.77608788e-001, 7.27574944e-001, 3.86222303e-001,
          6.02097332e-001, 4.62277293e-001, 5.53521276e-001 ]
      - [ 5.72283685e-001, 4.35515970e-001, 4.51979578e-001,
          6.05034113e-001, 8.51520419e-001, 3.61219108e-001,
          4.97389317e-001, 4.51979578e-001, 5.92739046e-001 ]
      - [ 5.69418848e-001, 4.44454283e-001, 4.14564401e-001,
          5.31319737e-001, 7.70143151e-001, 4.84427154e-001,
          5.41736007e-001, 4.14564401e-001, 6.12251639e-001 ]
   decision_functions:
      -
         sv_count: 36
         rho: -1.6458583726895875e+000
         alpha: [ 3.1250000000000000e+002, 3.1250000000000000e+002,
             2.3500684839487582e+002, 3.1250000000000000e+002,
             3.1250000000000000e+002, 1.2646666495374548e+002,
             3.1250000000000000e+002, 2.5365428117062200e+002,
             3.1250000000000000e+002, 3.1250000000000000e+002,
             1.7214037891310969e+002, 3.1250000000000000e+002,
             3.1250000000000000e+002, 3.1250000000000000e+002,
             3.1250000000000000e+002, 3.1250000000000000e+002,
             3.1250000000000000e+002, 3.1250000000000000e+002,
             -3.1250000000000000e+002, -3.1250000000000000e+002,
             -3.1250000000000000e+002, -1.9835255291425511e+002,
             -3.1250000000000000e+002, -3.1250000000000000e+002,
             -3.1250000000000000e+002, -3.1250000000000000e+002,
             -5.9253920986903189e+001, -3.1250000000000000e+002,
             -3.1250000000000000e+002, -3.1250000000000000e+002,
             -3.1250000000000000e+002, -2.8166773503671732e+002,
             -3.1250000000000000e+002, -3.1250000000000000e+002,
             -2.4799396449447750e+002, -3.1250000000000000e+002 ]
         index: [ 1, 3, 4, 5, 6, 7, 10, 11, 12, 13, 14, 16, 18, 19, 20,
             21, 22, 25, 27, 31, 32, 33, 36, 39, 40, 41, 42, 43, 49, 52,
             53, 54, 55, 57, 58, 62 ]
      -
         sv_count: 26
         rho: -3.6281495606847218e+000
         alpha: [ 3.1250000000000000e+002, 3.1250000000000000e+002,
             3.1250000000000000e+002, 3.1250000000000000e+002,
             1.0955557144222232e+002, 2.4162921060355110e+001,
             3.1250000000000000e+002, 3.1250000000000000e+002,
             3.1250000000000000e+002, 3.1250000000000000e+002,
             3.1250000000000000e+002, 3.1250000000000000e+002,
             2.0549343632807350e+002, -1.8348416801707742e+002,
             -3.1250000000000000e+002, -3.1250000000000000e+002,
             -3.1250000000000000e+002, -3.1250000000000000e+002,
             -3.1250000000000000e+002, -3.1250000000000000e+002,
             -3.1250000000000000e+002, -3.1250000000000000e+002,
             -3.1250000000000000e+002, -1.9517869365464044e+001,
             -3.1250000000000000e+002, -1.3620989144810963e+002 ]
         index: [ 1, 3, 4, 6, 8, 10, 13, 19, 20, 21, 23, 25, 26, 63, 66,
             68, 73, 74, 75, 76, 78, 80, 82, 83, 86, 87 ]
      -
         sv_count: 26
         rho: -5.5043968736360860e-001
         alpha: [ 3.1250000000000000e+002, 3.1250000000000000e+002,
             2.8498958835482671e+002, 3.1250000000000000e+002,
             3.1250000000000000e+002, 3.1250000000000000e+002,
             3.1250000000000000e+002, 8.7016578415441863e+000,
             3.1250000000000000e+002, 1.3667006689616747e+002,
             3.1250000000000000e+002, 3.1250000000000000e+002,
             3.1250000000000000e+002, -3.1250000000000000e+002,
             -3.1250000000000000e+002, -5.8219399790469069e+001,
             -3.1250000000000000e+002, -3.1250000000000000e+002,
             -3.1250000000000000e+002, -3.1250000000000000e+002,
             -3.1250000000000000e+002, -3.1250000000000000e+002,
             -3.1250000000000000e+002, -2.4109865980152122e+002,
             -3.1250000000000000e+002, -1.3104325350054791e+002 ]
         index: [ 1, 4, 5, 6, 9, 10, 13, 17, 18, 19, 20, 21, 25, 90, 91,
             94, 98, 100, 102, 103, 104, 108, 115, 117, 121, 125 ]
      -
         sv_count: 19
         rho: -1.6124204952471701e+000
         alpha: [ 3.1250000000000000e+002, 3.1250000000000000e+002,
             8.2983289524763236e+001, 2.0069125112529466e+001,
             3.1250000000000000e+002, 2.7573382909094869e+002,
             3.1250000000000000e+002, 3.1250000000000000e+002,
             3.1250000000000000e+002, -8.4912431449753782e+001,
             -1.3596613937434051e+002, -1.5676749762777158e+001,
             -3.1250000000000000e+002, -3.1250000000000000e+002,
             -3.1250000000000000e+002, -3.1250000000000000e+002,
             -1.4223092314137008e+002, -3.1250000000000000e+002,
             -3.1250000000000000e+002 ]
         index: [ 4, 5, 6, 9, 10, 16, 18, 21, 25, 130, 131, 133, 138,
             141, 142, 146, 150, 151, 154 ]
      -
         sv_count: 36
         rho: -3.6667296510312388e+000
         alpha: [ 1.5166469649173499e+002, 3.1250000000000000e+002,
             3.1250000000000000e+002, 3.1250000000000000e+002,
             3.1250000000000000e+002, 3.1250000000000000e+002,
             3.1250000000000000e+002, 3.1250000000000000e+002,
             3.1250000000000000e+002, 3.1250000000000000e+002,
             1.5493346590289255e+002, 3.1250000000000000e+002,
             3.1250000000000000e+002, 3.1250000000000000e+002,
             3.1250000000000000e+002, 3.1250000000000000e+002,
             3.1250000000000000e+002, 3.1250000000000000e+002,
             -3.1250000000000000e+002, -3.1250000000000000e+002,
             -3.1250000000000000e+002, -3.1250000000000000e+002,
             -2.6253426377777510e+002, -3.1250000000000000e+002,
             -3.1250000000000000e+002, -3.1250000000000000e+002,
             -3.1250000000000000e+002, -3.1250000000000000e+002,
             -3.1250000000000000e+002, -3.1250000000000000e+002,
             -3.1250000000000000e+002, -3.1250000000000000e+002,
             -3.1250000000000000e+002, -3.1250000000000000e+002,
             -4.4063898616852541e+001, -3.1250000000000000e+002 ]
         index: [ 0, 1, 2, 4, 5, 6, 9, 10, 12, 13, 15, 16, 18, 19, 21,
             24, 25, 26, 163, 165, 166, 167, 168, 169, 171, 172, 173,
             178, 179, 180, 183, 184, 185, 187, 189, 191 ]
      -
         sv_count: 21
         rho: -2.6226257076487101e+000
         alpha: [ 3.1250000000000000e+002, 3.9146780589073956e+001,
             3.1250000000000000e+002, 3.1250000000000000e+002,
             3.1250000000000000e+002, 3.1250000000000000e+002,
             2.1974623581682474e+002, 3.6681561788373315e+001,
             3.1250000000000000e+002, 2.3361657362475898e+002,
             3.1250000000000000e+002, -3.1250000000000000e+002,
             -3.1250000000000000e+002, -3.1250000000000000e+002,
             -3.1250000000000000e+002, -1.4821217969767565e+002,
             -2.6106781333075264e+002, -3.1250000000000000e+002,
             -1.1991115879060290e+002, -3.1250000000000000e+002,
             -3.1250000000000000e+002 ]
         index: [ 1, 4, 5, 6, 9, 10, 13, 17, 18, 24, 25, 195, 196, 203,
             205, 208, 209, 213, 214, 216, 217 ]
      -
         sv_count: 38
         rho: -1.1021956736736007e+000
         alpha: [ 3.1250000000000000e+002, 3.1250000000000000e+002,
             3.1250000000000000e+002, 3.1250000000000000e+002,
             3.1250000000000000e+002, 3.1250000000000000e+002,
             3.1250000000000000e+002, 3.1250000000000000e+002,
             7.5263731276172621e+001, 2.7279729517822818e+002,
             3.1250000000000000e+002, 3.1250000000000000e+002,
             3.1250000000000000e+002, 3.1250000000000000e+002,
             3.1250000000000000e+002, 3.1250000000000000e+002,
             3.1250000000000000e+002, 3.1250000000000000e+002,
             3.1250000000000000e+002, -3.1250000000000000e+002,
             -3.1250000000000000e+002, -3.1250000000000000e+002,
             -2.3372089917175416e+002, -3.1250000000000000e+002,
             -3.1250000000000000e+002, -2.3771349123012655e+002,
             -3.1250000000000000e+002, -3.1250000000000000e+002,
             -3.1250000000000000e+002, -3.1250000000000000e+002,
             -3.1250000000000000e+002, -2.7576245286054262e+002,
             -3.1250000000000000e+002, -3.1250000000000000e+002,
             -2.2586418319197776e+002, -3.1250000000000000e+002,
             -3.1250000000000000e+002, -3.1250000000000000e+002 ]
         index: [ 28, 31, 32, 33, 35, 36, 38, 39, 40, 42, 43, 49, 51, 52,
             53, 54, 56, 57, 61, 65, 66, 68, 70, 71, 72, 73, 74, 75, 76,
             78, 80, 81, 83, 84, 85, 86, 87, 88 ]
      -
         sv_count: 53
         rho: 8.6726429037650998e+000
         alpha: [ 3.1250000000000000e+002, 3.1250000000000000e+002,
             3.1250000000000000e+002, 3.1250000000000000e+002,
             3.1250000000000000e+002, 3.1250000000000000e+002,
             3.1250000000000000e+002, 3.1250000000000000e+002,
             3.1250000000000000e+002, 3.1250000000000000e+002,
             3.1250000000000000e+002, 3.1250000000000000e+002,
             3.1250000000000000e+002, 3.1250000000000000e+002,
             3.1250000000000000e+002, 3.1250000000000000e+002,
             2.1258358683383454e+002, 3.1250000000000000e+002,
             3.1250000000000000e+002, 3.1250000000000000e+002,
             3.1250000000000000e+002, 3.1250000000000000e+002,
             3.1250000000000000e+002, 4.8566300047137617e+001,
             3.1250000000000000e+002, 3.1250000000000000e+002,
             -3.1250000000000000e+002, -3.1250000000000000e+002,
             -1.0369234972605208e+001, -3.1250000000000000e+002,
             -3.1250000000000000e+002, -3.1250000000000000e+002,
             -3.1250000000000000e+002, -3.1250000000000000e+002,
             -3.1250000000000000e+002, -3.1250000000000000e+002,
             -3.1250000000000000e+002, -2.4303440375730551e+002,
             -3.1250000000000000e+002, -3.1250000000000000e+002,
             -1.2132250097299605e+002, -3.1250000000000000e+002,
             -3.1250000000000000e+002, -3.1250000000000000e+002,
             -3.1250000000000000e+002, -3.1250000000000000e+002,
             -3.1250000000000000e+002, -3.1250000000000000e+002,
             -3.1250000000000000e+002, -3.1250000000000000e+002,
             -1.9892374717806501e+002, -3.1250000000000000e+002,
             -3.1250000000000000e+002 ]
         index: [ 28, 29, 30, 33, 34, 35, 37, 38, 41, 42, 43, 44, 45, 46,
             47, 48, 49, 50, 51, 52, 53, 57, 58, 59, 60, 61, 90, 91, 92,
             94, 96, 98, 100, 101, 102, 103, 104, 106, 107, 108, 110,
             111, 113, 115, 116, 117, 119, 120, 121, 122, 123, 125, 126 ]
      -
         sv_count: 43
         rho: -2.5177833289910709e+000
         alpha: [ 3.1250000000000000e+002, 3.1250000000000000e+002,
             3.1250000000000000e+002, 3.1250000000000000e+002,
             3.1250000000000000e+002, 4.2887373422262144e+001,
             3.1250000000000000e+002, 3.1250000000000000e+002,
             3.1250000000000000e+002, 3.1250000000000000e+002,
             3.1250000000000000e+002, 3.1250000000000000e+002,
             3.1250000000000000e+002, 3.1250000000000000e+002,
             3.1250000000000000e+002, 2.0754905409004419e+002,
             3.1250000000000000e+002, 3.1250000000000000e+002,
             3.1250000000000000e+002, 3.1250000000000000e+002,
             3.1250000000000000e+002, -3.1250000000000000e+002,
             -3.1250000000000000e+002, -3.1250000000000000e+002,
             -3.1250000000000000e+002, -2.5042266173306036e+001,
             -3.1250000000000000e+002, -3.1250000000000000e+002,
             -3.1250000000000000e+002, -3.1250000000000000e+002,
             -3.1250000000000000e+002, -3.1250000000000000e+002,
             -3.1250000000000000e+002, -1.8931516554372698e+002,
             -3.1250000000000000e+002, -3.1250000000000000e+002,
             -3.1250000000000000e+002, -3.1250000000000000e+002,
             -3.1250000000000000e+002, -3.1250000000000000e+002,
             -3.6078995795273507e+001, -3.1250000000000000e+002,
             -3.1250000000000000e+002 ]
         index: [ 29, 30, 34, 35, 37, 40, 41, 42, 43, 44, 45, 46, 47, 48,
             50, 51, 54, 55, 58, 60, 62, 127, 129, 131, 133, 134, 136,
             138, 139, 140, 141, 142, 143, 144, 146, 148, 149, 150, 151,
             152, 153, 154, 157 ]
      -
         sv_count: 39
         rho: 6.1621881168265809e+000
         alpha: [ 3.1250000000000000e+002, 3.1250000000000000e+002,
             3.1250000000000000e+002, 1.0469513079245904e+002,
             1.8990503276749035e+001, 3.1234438279879703e+002,
             3.1250000000000000e+002, 3.1250000000000000e+002,
             2.4525882834689099e+002, 3.1250000000000000e+002,
             3.1250000000000000e+002, 3.1250000000000000e+002,
             3.1250000000000000e+002, 3.1250000000000000e+002,
             2.5339904613678368e+002, 3.1250000000000000e+002,
             3.1250000000000000e+002, 3.1250000000000000e+002,
             3.1250000000000000e+002, 9.6992461628098951e+001,
             -3.1250000000000000e+002, -3.1250000000000000e+002,
             -3.1250000000000000e+002, -3.1250000000000000e+002,
             -3.1250000000000000e+002, -3.1250000000000000e+002,
             -3.1250000000000000e+002, -2.1769332909207526e+002,
             -3.1250000000000000e+002, -3.1250000000000000e+002,
             -3.1250000000000000e+002, -1.3172919447823818e+002,
             -3.1250000000000000e+002, -3.1250000000000000e+002,
             -3.1250000000000000e+002, -3.1250000000000000e+002,
             -3.1250000000000000e+002, -5.7257829409464740e+001,
             -3.1250000000000000e+002 ]
         index: [ 28, 30, 31, 33, 35, 36, 37, 39, 40, 41, 42, 43, 45, 49,
             51, 53, 55, 57, 59, 62, 163, 165, 166, 167, 168, 169, 170,
             172, 173, 175, 181, 182, 183, 184, 185, 186, 187, 190, 191 ]
      -
         sv_count: 33
         rho: 2.3522474830048794e+000
         alpha: [ 3.1250000000000000e+002, 3.1250000000000000e+002,
             3.1250000000000000e+002, 3.1250000000000000e+002,
             3.1250000000000000e+002, 3.1250000000000000e+002,
             3.1250000000000000e+002, 3.0994007744083416e+002,
             3.1250000000000000e+002, 1.6844563127924722e+001,
             3.1250000000000000e+002, 3.1250000000000000e+002,
             2.1255132216514866e+002, 3.1250000000000000e+002,
             3.1250000000000000e+002, 2.8624243828781914e+002,
             1.9272802633012850e+002, -3.1250000000000000e+002,
             -3.1250000000000000e+002, -3.1250000000000000e+002,
             -3.1250000000000000e+002, -2.2302158072490047e+002,
             -3.1250000000000000e+002, -3.1250000000000000e+002,
             -3.1250000000000000e+002, -3.1250000000000000e+002,
             -3.1250000000000000e+002, -3.1250000000000000e+002,
             -3.1250000000000000e+002, -1.7483176720801140e+002,
             -3.1250000000000000e+002, -3.1250000000000000e+002,
             -3.0795307941894350e+002 ]
         index: [ 30, 33, 35, 37, 41, 42, 45, 47, 48, 49, 50, 51, 52, 53,
             55, 60, 62, 195, 196, 197, 200, 201, 203, 204, 205, 208,
             212, 213, 217, 218, 219, 220, 222 ]
      -
         sv_count: 36
         rho: 7.2625481831007317e+000
         alpha: [ 3.1250000000000000e+002, 3.1250000000000000e+002,
             3.1250000000000000e+002, 3.1250000000000000e+002,
             9.7012499344640645e+001, 3.1250000000000000e+002,
             3.1250000000000000e+002, 3.1250000000000000e+002,
             3.1250000000000000e+002, 3.1250000000000000e+002,
             2.8040216547343380e+002, 3.1250000000000000e+002,
             3.1250000000000000e+002, 3.1250000000000000e+002,
             3.1250000000000000e+002, 7.8925665995981106e+001,
             3.1250000000000000e+002, 3.1250000000000000e+002,
             -3.1250000000000000e+002, -3.1250000000000000e+002,
             -3.1250000000000000e+002, -3.1250000000000000e+002,
             -3.1250000000000000e+002, -3.1250000000000000e+002,
             -3.1250000000000000e+002, -3.1250000000000000e+002,
             -7.6920565709705443e+001, -3.1250000000000000e+002,
             -3.1250000000000000e+002, -6.6919765104350162e+001,
             -3.1250000000000000e+002, -3.1250000000000000e+002,
             -3.1250000000000000e+002, -3.1250000000000000e+002,
             -3.1250000000000000e+002, -3.1250000000000000e+002 ]
         index: [ 65, 66, 67, 69, 70, 71, 74, 75, 76, 77, 79, 83, 84, 85,
             86, 87, 88, 89, 90, 91, 94, 96, 97, 98, 103, 104, 105, 107,
             108, 109, 114, 115, 118, 121, 124, 126 ]
      -
         sv_count: 16
         rho: -3.5010633778861084e+000
         alpha: [ 3.1250000000000000e+002, 3.1250000000000000e+002,
             3.1250000000000000e+002, 2.8944454828399523e+002,
             3.1250000000000000e+002, 3.1250000000000000e+002,
             2.3429942227281418e+002, 1.6420689272758310e+001,
             -3.1250000000000000e+002, -3.1250000000000000e+002,
             -1.7009599106503561e+002, -2.6201925525917983e+002,
             -3.1250000000000000e+002, -3.1250000000000000e+002,
             -3.1250000000000000e+002, -1.0804941350535209e+002 ]
         index: [ 66, 71, 74, 75, 80, 83, 85, 86, 127, 129, 130, 138,
             142, 146, 151, 152 ]
      -
         sv_count: 30
         rho: 1.7605744441060507e+000
         alpha: [ 2.8391335480106420e+002, 3.1250000000000000e+002,
             1.6365541180176385e+002, 4.5064094908911940e+001,
             3.1250000000000000e+002, 3.1250000000000000e+002,
             3.1250000000000000e+002, 3.1250000000000000e+002,
             3.1250000000000000e+002, 3.1250000000000000e+002,
             3.1250000000000000e+002, 3.1250000000000000e+002,
             3.1250000000000000e+002, 3.1250000000000000e+002,
             2.0094106986528169e+002, -3.1250000000000000e+002,
             -4.5181611597502126e+001, -3.1250000000000000e+002,
             -3.1250000000000000e+002, -1.4732081503427275e+002,
             -2.5618715610308323e+002, -3.1250000000000000e+002,
             -3.1250000000000000e+002, -3.1250000000000000e+002,
             -3.1250000000000000e+002, -3.1250000000000000e+002,
             -3.1250000000000000e+002, -2.4488434864216327e+002,
             -3.1250000000000000e+002, -3.1250000000000000e+002 ]
         index: [ 64, 66, 69, 71, 72, 74, 76, 78, 80, 82, 83, 84, 86, 87,
             88, 161, 164, 165, 167, 168, 169, 171, 172, 177, 181, 184,
             185, 187, 190, 191 ]
      -
         sv_count: 19
         rho: -5.3344966766667035e-001
         alpha: [ 3.1250000000000000e+002, 3.1250000000000000e+002,
             3.1250000000000000e+002, 2.0757269093199341e+002,
             3.1250000000000000e+002, 2.3371902070480357e+002,
             3.1250000000000000e+002, 3.1250000000000000e+002,
             -1.6881844198518488e+002, -2.3629965083681034e+002,
             -4.3555305512148102e+001, -2.0253010998742713e+000,
             -3.1250000000000000e+002, -3.1250000000000000e+002,
             -2.9496368795466331e+001, -3.1250000000000000e+002,
             -3.1250000000000000e+002, -3.1250000000000000e+002,
             -2.7359664340731371e+002 ]
         index: [ 66, 71, 74, 75, 76, 80, 83, 86, 196, 205, 213, 215,
             216, 217, 218, 219, 220, 221, 222 ]
      -
         sv_count: 47
         rho: -5.0722449850477886e+000
         alpha: [ 3.1250000000000000e+002, 3.1250000000000000e+002,
             3.1250000000000000e+002, 3.1250000000000000e+002,
             4.5619365867789718e+001, 3.1250000000000000e+002,
             3.1250000000000000e+002, 3.1250000000000000e+002,
             3.1250000000000000e+002, 5.3235188080540560e+001,
             9.4128615487059093e+001, 3.1250000000000000e+002,
             3.1250000000000000e+002, 3.1250000000000000e+002,
             3.1250000000000000e+002, 3.1250000000000000e+002,
             3.1250000000000000e+002, 3.1250000000000000e+002,
             3.1250000000000000e+002, 3.1250000000000000e+002,
             3.1250000000000000e+002, 3.1250000000000000e+002,
             3.1250000000000000e+002, 3.1250000000000000e+002,
             -3.1250000000000000e+002, -3.1250000000000000e+002,
             -3.1250000000000000e+002, -2.7227891125109909e+002,
             -3.1250000000000000e+002, -3.1250000000000000e+002,
             -3.1250000000000000e+002, -3.1250000000000000e+002,
             -3.1250000000000000e+002, -3.1250000000000000e+002,
             -3.1250000000000000e+002, -3.2452605680120818e+001,
             -3.1250000000000000e+002, -3.1250000000000000e+002,
             -3.1250000000000000e+002, -2.8433243713413623e+002,
             -3.1250000000000000e+002, -3.1250000000000000e+002,
             -3.1250000000000000e+002, -2.2891921537003373e+002,
             -3.1250000000000000e+002, -3.1250000000000000e+002,
             -3.1250000000000000e+002 ]
         index: [ 90, 91, 92, 93, 95, 99, 100, 101, 102, 103, 104, 106,
             107, 108, 111, 112, 113, 115, 116, 117, 121, 122, 123, 125,
             127, 129, 130, 131, 135, 136, 138, 139, 140, 141, 142, 143,
             146, 147, 148, 149, 150, 151, 152, 154, 155, 156, 157 ]
      -
         sv_count: 38
         rho: -1.4358446890547367e+000
         alpha: [ 3.1250000000000000e+002, 3.1250000000000000e+002,
             3.1250000000000000e+002, 3.1250000000000000e+002,
             3.1250000000000000e+002, 2.9843276847525982e+002,
             1.3562424054616368e+001, 3.1250000000000000e+002,
             3.1250000000000000e+002, 3.8839490208731839e+001,
             3.1250000000000000e+002, 3.1250000000000000e+002,
             3.1250000000000000e+002, 3.1250000000000000e+002,
             3.1250000000000000e+002, 3.1250000000000000e+002,
             3.1250000000000000e+002, 3.1250000000000000e+002,
             3.1250000000000000e+002, -3.1250000000000000e+002,
             -3.1250000000000000e+002, -3.1250000000000000e+002,
             -3.1250000000000000e+002, -3.1250000000000000e+002,
             -3.1250000000000000e+002, -3.1250000000000000e+002,
             -3.1250000000000000e+002, -3.1250000000000000e+002,
             -1.8570578375505679e+002, -3.1250000000000000e+002,
             -2.1354624715572564e+002, -3.1250000000000000e+002,
             -3.1250000000000000e+002, -3.1250000000000000e+002,
             -3.1250000000000000e+002, -1.0881066723169292e+002,
             -1.5527198459613291e+002, -3.1250000000000000e+002 ]
         index: [ 90, 91, 92, 94, 96, 98, 101, 102, 104, 105, 106, 108,
             109, 110, 116, 121, 122, 123, 125, 158, 159, 163, 164, 168,
             170, 173, 175, 178, 179, 181, 182, 183, 185, 186, 187, 189,
             190, 191 ]
      -
         sv_count: 46
         rho: 1.5831549855949056e+000
         alpha: [ 3.1250000000000000e+002, 4.1316152717730709e+001,
             3.1250000000000000e+002, 1.6994177351049593e+001,
             3.1250000000000000e+002, 3.1250000000000000e+002,
             3.1250000000000000e+002, 3.1250000000000000e+002,
             3.1250000000000000e+002, 3.1250000000000000e+002,
             3.1250000000000000e+002, 3.1250000000000000e+002,
             3.1250000000000000e+002, 3.1250000000000000e+002,
             1.3800491381250096e+001, 3.1250000000000000e+002,
             3.1250000000000000e+002, 3.1250000000000000e+002,
             3.1250000000000000e+002, 3.1250000000000000e+002,
             3.1250000000000000e+002, 3.1250000000000000e+002,
             3.1250000000000000e+002, 1.0003350523483614e+002,
             -3.1250000000000000e+002, -3.1250000000000000e+002,
             -3.1250000000000000e+002, -3.1250000000000000e+002,
             -3.1250000000000000e+002, -3.1250000000000000e+002,
             -3.1250000000000000e+002, -3.1250000000000000e+002,
             -3.1250000000000000e+002, -3.1250000000000000e+002,
             -3.1250000000000000e+002, -3.1250000000000000e+002,
             -3.1250000000000000e+002, -3.1250000000000000e+002,
             -3.1250000000000000e+002, -3.1250000000000000e+002,
             -8.1132981079075748e+001, -3.1250000000000000e+002,
             -9.1011345605790765e+001, -3.1250000000000000e+002,
             -3.1250000000000000e+002, -3.1250000000000000e+002 ]
         index: [ 90, 91, 92, 93, 95, 96, 99, 100, 101, 102, 104, 105,
             106, 108, 109, 111, 112, 113, 116, 121, 123, 124, 125, 126,
             195, 196, 197, 199, 200, 201, 202, 203, 204, 207, 208, 209,
             211, 212, 213, 215, 216, 217, 218, 219, 220, 222 ]
      -
         sv_count: 29
         rho: 1.4841069708142077e+001
         alpha: [ 3.1250000000000000e+002, 3.1250000000000000e+002,
             2.2976721578082660e+002, 3.1250000000000000e+002,
             3.1250000000000000e+002, 3.1250000000000000e+002,
             3.1250000000000000e+002, 3.1250000000000000e+002,
             3.1250000000000000e+002, 3.1250000000000000e+002,
             3.1250000000000000e+002, 3.1250000000000000e+002,
             3.1250000000000000e+002, 3.1250000000000000e+002,
             -3.1250000000000000e+002, -3.1250000000000000e+002,
             -3.1250000000000000e+002, -3.1250000000000000e+002,
             -3.1250000000000000e+002, -3.1250000000000000e+002,
             -3.1250000000000000e+002, -3.1250000000000000e+002,
             -3.1250000000000000e+002, -1.0160052255183462e+002,
             -3.1250000000000000e+002, -3.1250000000000000e+002,
             -1.2816669322899162e+002, -3.1250000000000000e+002,
             -3.1250000000000000e+002 ]
         index: [ 130, 132, 137, 138, 139, 140, 142, 146, 147, 150, 151,
             154, 155, 157, 159, 160, 162, 166, 168, 170, 173, 175, 179,
             180, 182, 183, 186, 187, 189 ]
      -
         sv_count: 39
         rho: 1.0194786929947110e+001
         alpha: [ 1.7671171181791482e+002, 3.1250000000000000e+002,
             3.1250000000000000e+002, 3.1250000000000000e+002,
             3.1250000000000000e+002, 2.0424366476912007e+002,
             3.1250000000000000e+002, 3.1250000000000000e+002,
             3.1250000000000000e+002, 3.1250000000000000e+002,
             3.1250000000000000e+002, 2.5337594732758456e+002,
             3.1250000000000000e+002, 3.1250000000000000e+002,
             3.1250000000000000e+002, 3.1250000000000000e+002,
             2.2866549167517283e+002, 3.1250000000000000e+002,
             3.1250000000000000e+002, 3.1250000000000000e+002,
             -3.1250000000000000e+002, -3.1250000000000000e+002,
             -3.1250000000000000e+002, -3.1250000000000000e+002,
             -3.1250000000000000e+002, -3.1250000000000000e+002,
             -3.1250000000000000e+002, -3.1250000000000000e+002,
             -3.1250000000000000e+002, -3.1250000000000000e+002,
             -3.1250000000000000e+002, -3.1250000000000000e+002,
             -3.1250000000000000e+002, -3.1250000000000000e+002,
             -3.1250000000000000e+002, -3.1250000000000000e+002,
             -3.1250000000000000e+002, -3.1250000000000000e+002,
             -2.3799681558979208e+002 ]
         index: [ 127, 128, 129, 130, 131, 135, 136, 138, 139, 140, 141,
             145, 146, 147, 148, 150, 151, 155, 156, 157, 192, 196, 197,
             199, 200, 201, 202, 203, 204, 206, 208, 209, 211, 212, 213,
             217, 219, 220, 222 ]
      -
         sv_count: 40
         rho: -1.4584912669902235e+000
         alpha: [ 3.1250000000000000e+002, 3.1250000000000000e+002,
             3.1250000000000000e+002, 3.1250000000000000e+002,
             2.9103973941793299e+001, 3.1250000000000000e+002,
             3.1250000000000000e+002, 3.1250000000000000e+002,
             3.1250000000000000e+002, 2.8952621177514527e+002,
             3.1250000000000000e+002, 3.1250000000000000e+002,
             3.1250000000000000e+002, 1.8674087588003138e+002,
             8.4036512062052140e+001, 3.1250000000000000e+002,
             1.2588610222225697e+002, 3.1250000000000000e+002,
             3.1250000000000000e+002, 3.1250000000000000e+002,
             3.1250000000000000e+002, -9.0293675881279356e+001,
             -3.1250000000000000e+002, -3.1250000000000000e+002,
             -3.1250000000000000e+002, -3.1250000000000000e+002,
             -3.1250000000000000e+002, -3.1250000000000000e+002,
             -3.1250000000000000e+002, -3.1250000000000000e+002,
             -3.1250000000000000e+002, -3.1250000000000000e+002,
             -3.1250000000000000e+002, -3.1250000000000000e+002,
             -3.1250000000000000e+002, -3.1250000000000000e+002,
             -3.1250000000000000e+002, -3.1250000000000000e+002,
             -3.1250000000000000e+002, -3.1250000000000000e+002 ]
         index: [ 158, 159, 162, 164, 166, 170, 173, 174, 175, 176, 178,
             179, 180, 181, 182, 183, 185, 186, 187, 188, 189, 193, 194,
             196, 198, 201, 204, 205, 208, 209, 210, 213, 214, 215, 216,
             217, 218, 220, 221, 222 ]
