%YAML:1.0
my_svm: !!opencv-ml-svm
   svm_type: C_SVC
   kernel: { type:RBF, gamma:2. }
   C: 7.
   term_criteria: { epsilon:1.1920928955078125e-007, iterations:1000 }
   var_all: 9
   var_count: 9
   class_count: 7
   class_labels: !!opencv-matrix
      rows: 1
      cols: 7
      dt: i
      data: [ 0, 1, 2, 3, 4, 5, 6 ]
   sv_total: 215
   support_vectors:
      - [ 4.22881603e-001, 6.11091793e-001, 7.10982203e-001,
          6.83236241e-001, 5.85353673e-001, 3.47869247e-001,
          3.97328287e-001, 7.10982203e-001, 6.81872249e-001 ]
      - [ 2.81782001e-001, 7.13013113e-001, 4.41347569e-001,
          4.31186587e-001, 4.52665061e-001, 3.61934483e-001,
          4.33783114e-001, 4.41347569e-001, 5.48578739e-001 ]
      - [ 1.67141855e-001, 8.53470027e-001, 6.28982306e-001,
          7.40713120e-001, 7.18645632e-001, 3.33339274e-001,
          1.62433922e-001, 6.28982306e-001, 6.74296618e-001 ]
      - [ 3.38843554e-001, 6.92368746e-001, 6.07233405e-001,
          6.05780065e-001, 6.67599142e-001, 4.09878165e-001,
          3.41749072e-001, 6.07233405e-001, 6.86188877e-001 ]
      - [ 4.45411146e-001, 5.94174087e-001, 2.83796400e-001,
          4.47781235e-001, 5.63446999e-001, 5.03789842e-001,
          4.71680969e-001, 2.83796400e-001, 6.98997080e-001 ]
      - [ 2.76813149e-001, 6.35890365e-001, 5.86431205e-001,
          4.85588402e-001, 5.45334876e-001, 4.57848072e-001,
          4.77589577e-001, 5.86431205e-001, 2.39517868e-001 ]
      - [ 2.38343835e-001, 7.92590797e-001, 7.41873324e-001,
          7.87884533e-001, 6.78370059e-001, 2.07228854e-001,
          1.64919913e-001, 7.41873324e-001, 7.05132365e-001 ]
      - [ 1.33873448e-001, 8.27621579e-001, 6.36997461e-001,
          6.60852611e-001, 5.73110878e-001, 3.60071331e-001,
          2.16616139e-001, 6.36997461e-001, 4.19422328e-001 ]
      - [ 2.16174111e-001, 7.32192457e-001, 6.58017755e-001,
          6.02105141e-001, 5.31707287e-001, 4.65183377e-001,
          3.48924488e-001, 6.58017755e-001, 3.67644876e-001 ]
      - [ 3.34686100e-001, 6.50760949e-001, 4.22535330e-001,
          3.68794143e-001, 4.84501898e-001, 4.07093257e-001,
          5.07022977e-001, 4.22535330e-001, 5.08321404e-001 ]
      - [ 1.15401320e-001, 9.05065894e-001, 8.95532191e-001,
          7.34093368e-001, 5.24876893e-001, 2.23974109e-001,
          1.87927231e-001, 8.95532191e-001, 6.84455812e-001 ]
      - [ 1.14022113e-001, 9.37069058e-001, 7.96408951e-001,
          8.06082189e-001, 6.66721761e-001, 2.84548938e-001,
          6.74344748e-002, 7.96408951e-001, 8.32858324e-001 ]
      - [ 2.19893709e-001, 7.37150788e-001, 7.07867086e-001,
          6.10459745e-001, 4.76797998e-001, 3.52753699e-001,
          3.55806202e-001, 7.07867086e-001, 4.01756078e-001 ]
      - [ 3.78116012e-001, 6.46251380e-001, 7.56022692e-001,
          7.44351387e-001, 6.48413479e-001, 2.53631026e-001,
          2.74646401e-001, 7.56022692e-001, 6.52489424e-001 ]
      - [ 2.18335852e-001, 8.09905887e-001, 6.69809461e-001,
          7.67007530e-001, 6.14337265e-001, 3.42267513e-001,
          1.66181952e-001, 6.69809461e-001, 6.97669148e-001 ]
      - [ 2.20458567e-001, 7.84901500e-001, 3.08421731e-001,
          4.22620863e-001, 5.07130623e-001, 4.57431614e-001,
          3.91013294e-001, 3.08421731e-001, 5.98737597e-001 ]
      - [ 4.35145229e-001, 5.74756980e-001, 6.84475005e-001,
          6.92386210e-001, 7.39039779e-001, 2.87812889e-001,
          3.42980981e-001, 6.84475005e-001, 5.90527475e-001 ]
      - [ 2.37368643e-001, 7.48533547e-001, 3.90619099e-001,
          4.07783777e-001, 5.34274101e-001, 4.14832860e-001,
          3.90224308e-001, 3.90619099e-001, 5.16513348e-001 ]
      - [ 2.48853773e-001, 7.30740368e-001, 1., 7.64542460e-001,
          5.71581781e-001, 1.13957092e-001, 1.99084029e-001, 1.,
          4.90533531e-001 ]
      - [ 4.00475532e-001, 5.80741227e-001, 3.68514925e-001,
          3.65818441e-001, 4.57524300e-001, 4.35125768e-001,
          5.52174032e-001, 3.68514925e-001, 4.89192754e-001 ]
      - [ 2.25956887e-001, 7.44382620e-001, 6.53000474e-001,
          6.07614458e-001, 6.43925786e-001, 4.35143709e-001,
          3.05472046e-001, 6.53000474e-001, 4.54470009e-001 ]
      - [ 1.11435428e-001, 9.50123370e-001, 7.95384943e-001,
          7.80418694e-001, 7.17650712e-001, 2.31601432e-001,
          8.75081345e-002, 7.95384943e-001, 8.86265278e-001 ]
      - [ 5.17066240e-001, 5.61789215e-001, 6.38941526e-001,
          7.13791311e-001, 6.68442369e-001, 4.05960947e-001,
          3.70512605e-001, 6.38941526e-001, 8.31130803e-001 ]
      - [ 1.94374576e-001, 8.24833572e-001, 6.32987738e-001,
          7.18777299e-001, 7.07399666e-001, 3.66323382e-001,
          1.87290654e-001, 6.32987738e-001, 6.62768126e-001 ]
      - [ 3.58078480e-001, 6.67087018e-001, 6.41146779e-001,
          7.11653471e-001, 6.76184714e-001, 3.12978417e-001,
          3.18462372e-001, 6.41146779e-001, 6.58805847e-001 ]
      - [ 2.14816898e-001, 7.91710377e-001, 4.33623284e-001,
          5.01333416e-001, 4.52832103e-001, 3.35032284e-001,
          3.18252832e-001, 4.33623284e-001, 6.04499400e-001 ]
      - [ 4.90238130e-001, 4.48530942e-001, 3.58443022e-001,
          3.69840682e-001, 3.57624352e-001, 6.09429300e-001,
          6.94194615e-001, 3.58443022e-001, 3.44698042e-001 ]
      - [ 7.23669410e-001, 3.23917478e-001, 5.06587744e-001,
          6.12513363e-001, 4.34671313e-001, 3.50198984e-001,
          5.95575690e-001, 5.06587744e-001, 6.81443274e-001 ]
      - [ 4.90729213e-001, 5.36314130e-001, 5.63939154e-001,
          6.19004667e-001, 4.62993681e-001, 4.27259237e-001,
          4.16492313e-001, 5.63939154e-001, 6.45615280e-001 ]
      - [ 4.98878628e-001, 5.47398567e-001, 5.82342446e-001,
          6.87433422e-001, 5.09005606e-001, 3.17045420e-001,
          3.51558119e-001, 5.82342446e-001, 7.14056075e-001 ]
      - [ 4.96870100e-001, 5.31296194e-001, 3.16921055e-001,
          5.17653584e-001, 4.92449671e-001, 5.65207183e-001,
          5.44971645e-001, 3.16921055e-001, 6.48703873e-001 ]
      - [ 2.91764200e-001, 7.04343677e-001, 6.74268484e-001,
          6.07328475e-001, 4.46700096e-001, 2.73768842e-001,
          3.34314913e-001, 6.74268484e-001, 5.52950919e-001 ]
      - [ 4.00426626e-001, 5.42959392e-001, 5.93972683e-001,
          3.24331135e-001, 3.92924517e-001, 3.39502722e-001,
          6.24918640e-001, 5.93972683e-001, 3.56271714e-001 ]
      - [ 3.69338304e-001, 6.49246156e-001, 3.83103251e-001,
          5.92731833e-001, 4.85033363e-001, 5.17349422e-001,
          3.81958306e-001, 3.83103251e-001, 6.31457210e-001 ]
      - [ 2.45715544e-001, 6.99647486e-001, 1.80159077e-001,
          2.94977158e-001, 4.97392595e-001, 6.18078947e-001,
          5.30646265e-001, 1.80159077e-001, 3.57141674e-001 ]
      - [ 4.68193471e-001, 5.20939052e-001, 3.87542933e-001,
          3.54377091e-001, 5.00712991e-001, 4.47484881e-001,
          5.92786491e-001, 3.87542933e-001, 5.13616085e-001 ]
      - [ 3.10037017e-001, 6.38943911e-001, 5.07400513e-001,
          2.67522782e-001, 4.74082768e-001, 4.35406357e-001,
          6.29801750e-001, 5.07400513e-001, 3.72953802e-001 ]
      - [ 3.78519684e-001, 6.86966002e-001, 5.19465148e-001,
          7.14863956e-001, 4.96942788e-001, 3.48256379e-001,
          2.90322721e-001, 5.19465148e-001, 8.15917194e-001 ]
      - [ 3.51614714e-001, 6.09738529e-001, 3.87637526e-001,
          2.96663314e-001, 4.71790135e-001, 4.91197407e-001,
          6.28858745e-001, 3.87637526e-001, 4.18617636e-001 ]
      - [ 5.04055321e-001, 4.66691554e-001, 4.17990774e-001,
          3.14259678e-001, 3.36749762e-001, 4.47744936e-001,
          7.22243726e-001, 4.17990774e-001, 4.49682653e-001 ]
      - [ 4.00475919e-001, 6.22051835e-001, 5.55169225e-001,
          6.40287936e-001, 4.20261681e-001, 3.92371684e-001,
          3.49992841e-001, 5.55169225e-001, 6.42026842e-001 ]
      - [ 5.38069189e-001, 5.48972309e-001, 5.31333923e-001,
          7.08305895e-001, 6.58878744e-001, 3.48793209e-001,
          3.20848346e-001, 5.31333923e-001, 8.56300235e-001 ]
      - [ 4.30377096e-001, 5.45589566e-001, 3.41165245e-001,
          2.90422142e-001, 4.06427979e-001, 5.44641078e-001,
          6.92218184e-001, 3.41165245e-001, 4.69378293e-001 ]
      - [ 4.39207286e-001, 5.95904827e-001, 6.18842006e-001,
          6.33555651e-001, 4.40108389e-001, 3.53768080e-001,
          4.26115602e-001, 6.18842006e-001, 6.83335543e-001 ]
      - [ 2.69375950e-001, 7.19945490e-001, 7.21814454e-001,
          6.31070614e-001, 4.37563032e-001, 2.44911879e-001,
          2.76016384e-001, 7.21814454e-001, 5.27947903e-001 ]
      - [ 7.37864316e-001, 2.33298838e-001, 3.07544470e-001,
          2.99104780e-001, 2.89099127e-001, 5.45451403e-001,
          8.68198037e-001, 3.07544470e-001, 4.46976036e-001 ]
      - [ 5.84503770e-001, 4.93549675e-001, 3.31924468e-001,
          6.68601930e-001, 5.14686346e-001, 5.54515004e-001,
          4.38513815e-001, 3.31924468e-001, 8.11199784e-001 ]
      - [ 4.83760953e-001, 5.39596260e-001, 4.03007269e-001,
          4.36771810e-001, 4.55999851e-001, 3.71078402e-001,
          5.35116613e-001, 4.03007269e-001, 6.33191288e-001 ]
      - [ 2.88126349e-001, 6.96015060e-001, 6.35416150e-001,
          5.26849627e-001, 5.74263990e-001, 2.64770150e-001,
          4.04614806e-001, 6.35416150e-001, 5.06240904e-001 ]
      - [ 3.14320505e-001, 6.28008187e-001, 3.19717526e-001,
          1.89372763e-001, 5.45376778e-001, 5.38154006e-001,
          6.67377353e-001, 3.19717526e-001, 3.48923594e-001 ]
      - [ 4.42935616e-001, 6.34760559e-001, 6.28289878e-001,
          7.42050529e-001, 6.37716770e-001, 3.10128778e-001,
          2.65948594e-001, 6.28289878e-001, 8.47002327e-001 ]
      - [ 4.94290113e-001, 5.60890257e-001, 4.55658644e-001,
          6.60079539e-001, 4.37004894e-001, 4.70371038e-001,
          4.10278916e-001, 4.55658644e-001, 7.47812450e-001 ]
      - [ 1.92188486e-001, 8.03462029e-001, 3.74166250e-001,
          4.10705775e-001, 4.98483062e-001, 4.67568606e-001,
          3.98450613e-001, 3.74166250e-001, 5.61013877e-001 ]
      - [ 3.55118543e-001, 6.53717875e-001, 1.43705845e-001,
          3.59172702e-001, 4.27830845e-001, 6.80241823e-001,
          5.53463101e-001, 1.43705845e-001, 5.95678210e-001 ]
      - [ 3.38238031e-001, 6.66557908e-001, 3.27986002e-001,
          4.08094734e-001, 3.85766596e-001, 5.29893875e-001,
          5.01890659e-001, 3.27986002e-001, 5.82070351e-001 ]
      - [ 3.14665169e-001, 6.95607245e-001, 5.28618872e-001,
          5.86544454e-001, 5.95593572e-001, 3.89798671e-001,
          3.20230812e-001, 5.28618872e-001, 6.06500387e-001 ]
      - [ 6.70068383e-001, 3.40387881e-001, 6.05133295e-001,
          5.97466230e-001, 3.45508397e-001, 3.97363663e-001,
          5.75360775e-001, 6.05133295e-001, 5.69678724e-001 ]
      - [ 8.66653398e-002, 8.63877118e-001, 4.37032223e-001,
          3.02928299e-001, 5.73625743e-001, 4.58195895e-001,
          4.50191289e-001, 4.37032223e-001, 3.71782809e-001 ]
      - [ 1.23338267e-001, 8.76317620e-001, 5.59809089e-001,
          6.56398296e-001, 5.30359447e-001, 3.63582730e-001,
          1.84571296e-001, 5.59809089e-001, 5.86964369e-001 ]
      - [ 3.51890683e-001, 6.48066700e-001, 5.17027318e-001,
          5.62524438e-001, 4.11716878e-001, 4.71214294e-001,
          4.16368484e-001, 5.17027318e-001, 5.62130928e-001 ]
      - [ 2.72501081e-001, 7.81592250e-001, 5.52068591e-001,
          7.39723921e-001, 5.62596083e-001, 2.91765869e-001,
          1.82151988e-001, 5.52068591e-001, 7.97326624e-001 ]
      - [ 4.09433424e-001, 6.33123875e-001, 6.50399327e-001,
          6.95296943e-001, 5.87976992e-001, 2.37177044e-001,
          2.74992466e-001, 6.50399327e-001, 7.17313588e-001 ]
      - [ 6.55797839e-001, 4.25628573e-001, 5.43701470e-001,
          6.54156744e-001, 5.71199715e-001, 4.20895278e-001,
          5.05516469e-001, 5.43701470e-001, 8.06505501e-001 ]
      - [ 4.75965142e-001, 6.25148058e-001, 6.86503291e-001,
          8.97678792e-001, 2.05966860e-001, 1.26965642e-001,
          1.68699697e-001, 6.86503291e-001, 9.29974794e-001 ]
      - [ 4.42944884e-001, 5.66456914e-001, 7.15623856e-001,
          7.01368034e-001, 3.31497043e-001, 2.70549685e-001,
          3.84609401e-001, 7.15623856e-001, 5.87982893e-001 ]
      - [ 6.02627516e-001, 4.28059012e-001, 4.88189906e-001,
          5.91828883e-001, 4.50511664e-001, 4.91562277e-001,
          5.33889472e-001, 4.88189906e-001, 6.42917275e-001 ]
      - [ 2.98346400e-001, 7.31907368e-001, 5.89258194e-001,
          6.92922354e-001, 4.99408752e-001, 3.48604083e-001,
          2.51504123e-001, 5.89258194e-001, 6.90025210e-001 ]
      - [ 5.82462668e-001, 4.70773548e-001, 8.59180331e-001,
          8.79394174e-001, 3.35795134e-001, 1.34351507e-001,
          2.52166122e-001, 8.59180331e-001, 7.23617017e-001 ]
      - [ 2.85889477e-001, 7.67758965e-001, 6.47393584e-001,
          7.52120793e-001, 5.78393281e-001, 2.03155786e-001,
          1.81778923e-001, 6.47393584e-001, 7.91732192e-001 ]
      - [ 6.57015741e-001, 3.85466963e-001, 5.96448243e-001,
          7.26296544e-001, 2.88376629e-001, 2.92198867e-001,
          4.79983479e-001, 5.96448243e-001, 6.74760222e-001 ]
      - [ 5.59359968e-001, 4.95376766e-001, 6.27636909e-001,
          7.03692436e-001, 4.66879278e-001, 2.90059149e-001,
          4.22600925e-001, 6.27636909e-001, 7.33168900e-001 ]
      - [ 4.79253560e-001, 5.55814385e-001, 6.78735316e-001,
          7.24427938e-001, 3.73491555e-001, 2.68427491e-001,
          3.56164962e-001, 6.78735316e-001, 6.76488280e-001 ]
      - [ 6.60213530e-001, 4.34070230e-001, 5.22669256e-001,
          6.88333690e-001, 6.90973461e-001, 4.00584221e-001,
          4.06848371e-001, 5.22669256e-001, 8.50174844e-001 ]
      - [ 3.72501642e-001, 6.64236903e-001, 5.13627052e-001,
          6.56284511e-001, 2.19523266e-001, 3.03996503e-001,
          3.52212161e-001, 5.13627052e-001, 7.01856017e-001 ]
      - [ 3.51290524e-001, 6.51125193e-001, 5.48891008e-001,
          5.85870087e-001, 4.97858822e-001, 4.26859468e-001,
          3.78813505e-001, 5.48891008e-001, 5.71605742e-001 ]
      - [ 2.42087960e-001, 7.45672584e-001, 6.90518975e-001,
          6.77238047e-001, 4.16238427e-001, 2.58763105e-001,
          2.63503879e-001, 6.90518975e-001, 5.23984849e-001 ]
      - [ 3.97576690e-001, 6.56685412e-001, 4.35981005e-001,
          7.65935898e-001, 4.55348045e-001, 4.26692873e-001,
          2.61186153e-001, 4.35981005e-001, 7.66055584e-001 ]
      - [ 6.02174580e-001, 4.57126886e-001, 5.18668532e-001,
          7.04723537e-001, 1.31720290e-001, 2.70078152e-001,
          4.38323319e-001, 5.18668532e-001, 7.41004407e-001 ]
      - [ 6.58130467e-001, 3.86312038e-001, 4.91477996e-001,
          6.38197780e-001, 5.03273755e-002, 3.75276476e-001,
          5.82940936e-001, 4.91477996e-001, 6.81178033e-001 ]
      - [ 7.47309744e-001, 2.28963017e-001, 4.32709575e-001,
          4.58498538e-001, 3.52864802e-001, 4.69103187e-001,
          7.77440369e-001, 4.32709575e-001, 4.61753577e-001 ]
      - [ 4.68145221e-001, 6.24907196e-001, 5.46107292e-001,
          8.08215678e-001, 2.43703023e-001, 2.55495250e-001,
          2.89355963e-001, 5.46107292e-001, 9.00402427e-001 ]
      - [ 5.44191182e-001, 4.88828361e-001, 3.41598630e-001,
          6.64795160e-001, 3.93942297e-001, 5.50094903e-001,
          4.40272719e-001, 3.41598630e-001, 6.59275591e-001 ]
      - [ 2.92441666e-001, 7.44272649e-001, 7.50285208e-001,
          7.73799658e-001, 4.66315299e-001, 1.91854000e-001,
          2.14569867e-001, 7.50285208e-001, 7.18154907e-001 ]
      - [ 6.40745401e-001, 4.36284661e-001, 3.92237812e-001,
          7.00974941e-001, 2.77507275e-001, 3.47495049e-001,
          4.33740258e-001, 3.92237812e-001, 7.94630706e-001 ]
      - [ 3.36010188e-001, 6.63013279e-001, 5.42822301e-001,
          5.90148747e-001, 4.27053511e-001, 4.07269150e-001,
          4.02836829e-001, 5.42822301e-001, 5.60129046e-001 ]
      - [ 4.00644064e-001, 7.10594535e-001, 8.79058659e-001, 1.,
          4.33019221e-001, 0., 0., 8.79058659e-001, 1. ]
      - [ 3.44579816e-001, 7.20727921e-001, 4.62482065e-001,
          7.56276488e-001, 2.26776376e-001, 3.17779839e-001,
          2.16249421e-001, 4.62482065e-001, 8.24824512e-001 ]
      - [ 3.90629441e-001, 6.22574329e-001, 6.19637609e-001,
          6.75379634e-001, 4.64453906e-001, 3.86489511e-001,
          3.25226605e-001, 6.19637609e-001, 6.08172655e-001 ]
      - [ 4.01398599e-001, 6.02639258e-001, 6.83235645e-001,
          7.83531189e-001, 4.39406306e-001, 2.49310359e-001,
          2.36288160e-001, 6.83235645e-001, 5.72658956e-001 ]
      - [ 3.12429637e-001, 7.19599605e-001, 4.82272565e-001,
          6.61694586e-001, 2.92085737e-001, 3.29241872e-001,
          2.90713251e-001, 4.82272565e-001, 6.94634795e-001 ]
      - [ 6.54972553e-001, 3.36169511e-001, 5.81817985e-001,
          4.70290571e-001, 3.27832103e-001, 2.76603669e-001,
          6.61222696e-001, 5.81817985e-001, 5.10304213e-001 ]
      - [ 3.97782624e-001, 6.02145195e-001, 4.42110509e-001,
          4.85320628e-001, 2.94198751e-001, 3.63764822e-001,
          4.75817949e-001, 4.42110509e-001, 5.57948649e-001 ]
      - [ 3.33925754e-001, 6.54226422e-001, 6.82407975e-001,
          5.22179186e-001, 6.94718122e-001, 2.99550861e-001,
          3.93500865e-001, 6.82407975e-001, 5.18970013e-001 ]
      - [ 6.74071074e-001, 3.26298475e-001, 3.93425703e-001,
          4.22587454e-001, 5.57909310e-001, 5.93323946e-001,
          7.66945541e-001, 3.93425703e-001, 5.37933290e-001 ]
      - [ 5.07489145e-001, 4.30348426e-001, 1.79369628e-001,
          2.44759738e-001, 3.54737997e-001, 6.40155196e-001,
          7.77016521e-001, 1.79369628e-001, 3.42596889e-001 ]
      - [ 7.01918602e-001, 4.13216799e-001, 6.02855086e-001,
          7.86976218e-001, 1.97742343e-001, 2.80540079e-001,
          4.33375150e-001, 6.02855086e-001, 9.12048936e-001 ]
      - [ 4.77325261e-001, 5.86927593e-001, 3.90941203e-001,
          7.55965829e-001, 2.03909818e-002, 4.01411235e-001,
          3.57215881e-001, 3.90941203e-001, 7.86080837e-001 ]
      - [ 4.11737174e-001, 6.76793516e-001, 6.38524652e-001,
          8.71520042e-001, 3.36489171e-001, 1.19941212e-001,
          1.08350135e-001, 6.38524652e-001, 9.00594473e-001 ]
      - [ 4.24702466e-001, 5.74265242e-001, 3.01413149e-001,
          4.80303109e-001, 2.80412644e-001, 4.98665035e-001,
          4.95915413e-001, 3.01413149e-001, 5.52055895e-001 ]
      - [ 4.36823785e-001, 5.13086677e-001, 1.41814560e-001,
          2.61895478e-001, 4.17497396e-001, 6.52861476e-001,
          6.95213735e-001, 1.41814560e-001, 3.79974604e-001 ]
      - [ 4.31531340e-001, 5.51450074e-001, 1.08745389e-001,
          1.80964157e-001, 6.72122836e-001, 7.62188017e-001,
          7.61908472e-001, 1.08745389e-001, 4.94333953e-001 ]
      - [ 6.45551682e-001, 3.38751733e-001, 3.61994117e-001,
          5.04191935e-001, 2.20583782e-001, 4.98224199e-001,
          6.44433498e-001, 3.61994117e-001, 4.89440680e-001 ]
      - [ 5.78910530e-001, 4.52147365e-001, 4.28394824e-001,
          4.38488066e-001, 3.38724226e-001, 3.36026609e-001,
          6.09929681e-001, 4.28394824e-001, 6.47463799e-001 ]
      - [ 3.25571626e-001, 6.84349418e-001, 5.37991107e-001,
          5.78442454e-001, 6.23511136e-001, 3.94737959e-001,
          3.97047281e-001, 5.37991107e-001, 6.03895128e-001 ]
      - [ 6.29838109e-001, 4.73076373e-001, 4.71136570e-001,
          7.55278528e-001, 2.82955468e-001, 3.21001589e-001,
          3.88478070e-001, 4.71136570e-001, 8.89224172e-001 ]
      - [ 4.47123438e-001, 4.86873329e-001, 4.75347281e-001,
          3.21541518e-001, 5.54635108e-001, 5.15628278e-001,
          7.29177833e-001, 4.75347281e-001, 3.27211142e-001 ]
      - [ 6.32865965e-001, 4.32835042e-001, 5.15649557e-001,
          7.20407963e-001, 3.61385159e-002, 3.38968635e-001,
          4.60398763e-001, 5.15649557e-001, 7.57366776e-001 ]
      - [ 4.42556560e-001, 5.54285109e-001, 4.93815213e-001,
          4.63444561e-001, 2.92526603e-001, 3.35005641e-001,
          5.74495554e-001, 4.93815213e-001, 5.42929888e-001 ]
      - [ 9.45096076e-001, 1.17919259e-001, 4.19244587e-001,
          6.29770696e-001, 0., 4.06974822e-001, 7.51712084e-001,
          4.19244587e-001, 6.96985960e-001 ]
      - [ 6.06727839e-001, 4.39895034e-001, 4.32833612e-001,
          6.47323191e-001, 2.25604132e-001, 3.28019053e-001,
          4.65059608e-001, 4.32833612e-001, 6.96527898e-001 ]
      - [ 6.60057127e-001, 3.88743252e-001, 3.24525982e-001,
          5.65864444e-001, 2.32172415e-001, 4.66575235e-001,
          5.60228944e-001, 3.24525982e-001, 6.95349693e-001 ]
      - [ 4.51572984e-001, 4.87668395e-001, 4.06037986e-001,
          2.87207812e-001, 4.85750914e-001, 3.95082057e-001,
          6.33702159e-001, 4.06037986e-001, 3.44774276e-001 ]
      - [ 3.74531090e-001, 6.71063066e-001, 4.29084510e-001,
          6.81417465e-001, 2.29879856e-001, 3.08768928e-001,
          3.03859144e-001, 4.29084510e-001, 7.36818194e-001 ]
      - [ 3.80908042e-001, 5.23519337e-001, 2.38314748e-001,
          1.99299619e-001, 4.06473011e-001, 6.20567918e-001,
          7.32292473e-001, 2.38314748e-001, 2.23867893e-001 ]
      - [ 3.14328015e-001, 6.84435666e-001, 5.05601883e-001,
          5.21294773e-001, 7.10003018e-001, 4.39121723e-001,
          4.08666044e-001, 5.05601883e-001, 5.61358690e-001 ]
      - [ 5.65285981e-001, 3.50624293e-001, 3.99430394e-001,
          2.80009508e-001, 4.69479084e-001, 5.82557321e-001,
          8.51264417e-001, 3.99430394e-001, 2.78261602e-001 ]
      - [ 4.17613298e-001, 5.65726697e-001, 4.03214306e-001,
          4.86410320e-001, 6.82475269e-001, 5.83737850e-001,
          4.83088583e-001, 4.03214306e-001, 4.96292919e-001 ]
      - [ 8.04519475e-001, 1.29348010e-001, 1.56511039e-001,
          2.25693077e-001, 2.62387842e-001, 7.03256071e-001,
          9.52728093e-001, 1.56511039e-001, 3.43209207e-001 ]
      - [ 5.11016369e-001, 5.50210834e-001, 5.16147554e-001,
          7.02406943e-001, 2.47785047e-001, 2.27607414e-001,
          3.07310343e-001, 5.16147554e-001, 7.66962290e-001 ]
      - [ 3.90862823e-001, 5.68470597e-001, 3.25586289e-001,
          4.05961663e-001, 7.22114086e-001, 5.43296158e-001,
          5.64421415e-001, 3.25586289e-001, 4.11782593e-001 ]
      - [ 3.93601626e-001, 6.10461712e-001, 3.18178236e-001,
          4.76220608e-001, 3.88025016e-001, 4.26724106e-001,
          4.84234750e-001, 3.18178236e-001, 5.73669076e-001 ]
      - [ 3.75515044e-001, 6.45328581e-001, 3.17010283e-001,
          5.87217987e-001, 2.19437733e-001, 4.63809401e-001,
          4.17408288e-001, 3.17010283e-001, 6.39568388e-001 ]
      - [ 2.46321112e-001, 6.89794362e-001, 5.59054792e-001,
          3.55620593e-001, 5.22303998e-001, 4.96680409e-001,
          5.69522023e-001, 5.59054792e-001, 3.22530836e-001 ]
      - [ 5.81648171e-001, 4.01023686e-001, 3.37879032e-001,
          4.44664896e-001, 2.58368462e-001, 4.89206851e-001,
          6.70237958e-001, 3.37879032e-001, 4.86801058e-001 ]
      - [ 3.50507915e-001, 5.87151945e-001, 2.17487127e-001,
          1.84032455e-001, 4.09719497e-001, 6.37135804e-001,
          7.41698265e-001, 2.17487127e-001, 3.34428877e-001 ]
      - [ 2.67448843e-001, 6.78065896e-001, 5.13262987e-001,
          4.88895923e-001, 3.43437493e-001, 4.63740140e-001,
          4.83437836e-001, 5.13262987e-001, 3.58851492e-001 ]
      - [ 4.25207615e-001, 6.08517766e-001, 7.06973553e-001,
          7.41259873e-001, 3.89028072e-001, 2.12472975e-001,
          2.80797869e-001, 7.06973553e-001, 6.80737019e-001 ]
      - [ 3.46522599e-001, 5.77816963e-001, 2.47452110e-001,
          4.12750155e-001, 3.25426459e-001, 5.86381495e-001,
          5.57785809e-001, 2.47452110e-001, 2.87677854e-001 ]
      - [ 5.52729070e-001, 4.70451415e-001, 4.47509289e-001,
          7.18302131e-001, 6.39225915e-002, 3.32936674e-001,
          4.22135800e-001, 4.47509289e-001, 6.23984039e-001 ]
      - [ 2.87975729e-001, 6.91315293e-001, 2.66661823e-001,
          3.65631014e-001, 5.13789237e-001, 6.53275907e-001,
          5.81196308e-001, 2.66661823e-001, 4.87656295e-001 ]
      - [ 3.62386167e-001, 5.72189748e-001, 5.76546490e-001,
          4.54763591e-001, 2.92046428e-001, 4.13383693e-001,
          5.86541355e-001, 5.76546490e-001, 3.24222714e-001 ]
      - [ 4.46501732e-001, 5.02922416e-001, 2.09118813e-001,
          2.80522406e-001, 4.84338790e-001, 6.31369174e-001,
          6.62676811e-001, 2.09118813e-001, 3.78457814e-001 ]
      - [ 4.02896345e-001, 5.29903293e-001, 3.18807721e-001,
          2.14420274e-001, 3.55063021e-001, 6.14630163e-001,
          7.64046788e-001, 3.18807721e-001, 3.20673406e-001 ]
      - [ 2.50246167e-001, 6.95403874e-001, 1.62955686e-001,
          2.38235921e-001, 5.74096859e-001, 7.47403204e-001,
          5.72398543e-001, 1.62955686e-001, 3.58659983e-001 ]
      - [ 3.88978332e-001, 5.81590116e-001, 4.20947522e-001,
          3.63868386e-001, 4.91308481e-001, 5.25044978e-001,
          6.63211763e-001, 4.20947522e-001, 4.51687545e-001 ]
      - [ 3.09050024e-001, 6.83318913e-001, 2.54004866e-001,
          3.56365949e-001, 7.04099119e-001, 6.93402946e-001,
          5.38202643e-001, 2.54004866e-001, 5.36911488e-001 ]
      - [ 3.38838130e-001, 6.49740100e-001, 3.04507315e-001,
          3.75825435e-001, 6.93764746e-001, 5.18029511e-001,
          5.50832629e-001, 3.04507315e-001, 5.20197749e-001 ]
      - [ 3.59282970e-001, 6.55603409e-001, 3.52100521e-001,
          4.29676563e-001, 4.51950043e-001, 6.12187862e-001,
          5.95237553e-001, 3.52100521e-001, 6.18856251e-001 ]
      - [ 4.47003782e-001, 5.12025177e-001, 4.08276677e-001,
          4.50040162e-001, 6.36425376e-001, 5.27726471e-001,
          5.76799035e-001, 4.08276677e-001, 4.10956800e-001 ]
      - [ 3.62410426e-001, 5.26259303e-001, 2.28604972e-001,
          3.45597649e-003, 5.31340659e-001, 6.36913538e-001,
          8.72439802e-001, 2.28604972e-001, 1.69366434e-001 ]
      - [ 5.08343399e-001, 5.42962909e-001, 5.99904835e-001,
          7.82206833e-001, 2.79615402e-001, 3.00012857e-001,
          3.33872020e-001, 5.99904835e-001, 7.30867326e-001 ]
      - [ 5.76077878e-001, 3.87060851e-001, 1.57606199e-001,
          4.56146449e-001, 5.09043932e-001, 7.04779506e-001,
          6.48838758e-001, 1.57606199e-001, 4.24438804e-001 ]
      - [ 4.34527785e-001, 5.88000059e-001, 3.50070864e-001,
          4.78873014e-001, 6.19413257e-001, 5.41160762e-001,
          4.94272381e-001, 3.50070864e-001, 6.37358665e-001 ]
      - [ 5.43565571e-001, 4.27231073e-001, 3.82972449e-001,
          2.97762096e-001, 4.47760165e-001, 5.20288408e-001,
          7.09334373e-001, 3.82972449e-001, 4.49334592e-001 ]
      - [ 4.17194128e-001, 5.31216383e-001, 4.69822705e-001,
          2.17158422e-001, 6.00238919e-001, 4.02948767e-001,
          6.61116302e-001, 4.69822705e-001, 3.74268860e-001 ]
      - [ 3.61049294e-001, 5.68120182e-001, 3.48412395e-001,
          1.37588605e-001, 5.64457774e-001, 5.41676998e-001,
          7.05002129e-001, 3.48412395e-001, 3.05419594e-001 ]
      - [ 5.17784655e-001, 4.11332339e-001, 2.68962204e-001,
          1.64098710e-001, 5.07063210e-001, 6.52445436e-001,
          8.92257869e-001, 2.68962204e-001, 3.15609008e-001 ]
      - [ 3.56351972e-001, 5.73774219e-001, 1.71244770e-001,
          2.14599565e-001, 3.71294975e-001, 7.87733138e-001,
          8.08064401e-001, 1.71244770e-001, 3.08518767e-001 ]
      - [ 3.25653464e-001, 7.14360178e-001, 5.98600447e-001,
          6.49444282e-001, 5.91712952e-001, 4.24988627e-001,
          3.13384026e-001, 5.98600447e-001, 7.24746406e-001 ]
      - [ 4.54589695e-001, 5.06537318e-001, 3.15873802e-001,
          3.81935537e-001, 3.73701841e-001, 4.88256663e-001,
          6.18694127e-001, 3.15873802e-001, 4.18035239e-001 ]
      - [ 3.02992284e-001, 6.60989940e-001, 3.24794143e-001,
          3.11498433e-001, 4.00654286e-001, 6.15597367e-001,
          6.48895919e-001, 3.24794143e-001, 4.28830981e-001 ]
      - [ 5.16766429e-001, 4.38176095e-001, 3.89559001e-001,
          4.53384727e-001, 2.80851603e-001, 4.35993642e-001,
          5.76551378e-001, 3.89559001e-001, 3.98001105e-001 ]
      - [ 4.48615283e-001, 5.64223111e-001, 3.49817723e-001,
          4.75759625e-001, 5.87846756e-001, 5.25152981e-001,
          5.40161610e-001, 3.49817723e-001, 5.99902987e-001 ]
      - [ 5.96656680e-001, 3.98779452e-001, 3.11848164e-001,
          6.38181388e-001, 7.27277175e-002, 4.80839998e-001,
          5.06324530e-001, 3.11848164e-001, 5.27240694e-001 ]
      - [ 4.77500796e-001, 4.76741135e-001, 3.16107124e-001,
          2.45643973e-001, 4.05493706e-001, 6.76442146e-001,
          8.08589816e-001, 3.16107124e-001, 3.95240843e-001 ]
      - [ 1.70314163e-001, 8.79765332e-001, 5.39518297e-001,
          6.99036658e-001, 7.92441010e-001, 3.88649940e-001,
          1.33772001e-001, 5.39518297e-001, 8.09564650e-001 ]
      - [ 5.53120494e-001, 4.37110931e-001, 5.97716808e-001,
          5.43099284e-001, 5.01875579e-001, 4.43856686e-001,
          6.07392907e-001, 5.97716808e-001, 5.12674868e-001 ]
      - [ 5.71127415e-001, 4.95939791e-001, 5.85888207e-001,
          6.42077506e-001, 6.50290430e-001, 3.71119440e-001,
          4.66977268e-001, 5.85888207e-001, 7.74933875e-001 ]
      - [ 3.86889130e-001, 6.15032971e-001, 4.10229802e-001,
          5.58659434e-001, 7.09507704e-001, 5.08176744e-001,
          4.28584129e-001, 4.10229802e-001, 5.66261649e-001 ]
      - [ 5.26497185e-001, 5.66438138e-001, 5.16128302e-001,
          6.63549125e-001, 6.94976389e-001, 3.62152755e-001,
          4.40266371e-001, 5.16128302e-001, 8.82082760e-001 ]
      - [ 6.73179746e-001, 3.71687025e-001, 3.35410446e-001,
          5.55675924e-001, 6.94745779e-001, 5.35581470e-001,
          5.86996973e-001, 3.35410446e-001, 6.80224061e-001 ]
      - [ 4.74220395e-001, 5.23635447e-001, 4.54071283e-001,
          5.67791164e-001, 6.76468909e-001, 4.79233742e-001,
          4.72003251e-001, 4.54071283e-001, 5.43884456e-001 ]
      - [ 2.96294808e-001, 7.10967302e-001, 6.09874845e-001,
          6.18825376e-001, 7.00007677e-001, 3.30222577e-001,
          2.99191982e-001, 6.09874845e-001, 5.96947372e-001 ]
      - [ 2.58412868e-001, 7.12878287e-001, 6.53514445e-001,
          5.84987462e-001, 6.80451274e-001, 2.63421655e-001,
          3.62714916e-001, 6.53514445e-001, 4.57509667e-001 ]
      - [ 3.00101101e-001, 7.03110635e-001, 7.39559591e-001,
          6.59838200e-001, 6.71305537e-001, 3.06928724e-001,
          3.03525776e-001, 7.39559591e-001, 5.80366015e-001 ]
      - [ 2.31235892e-001, 8.23734641e-001, 5.78826547e-001,
          7.36198604e-001, 8.07200253e-001, 2.86707461e-001,
          1.40747383e-001, 5.78826547e-001, 8.13384473e-001 ]
      - [ 3.44274372e-001, 6.49216473e-001, 3.73831570e-001,
          5.63742697e-001, 6.23348594e-001, 5.44557035e-001,
          4.23842341e-001, 3.73831570e-001, 5.38285732e-001 ]
      - [ 4.83889312e-001, 4.67469513e-001, 5.73817015e-001,
          5.00075400e-001, 5.17127156e-001, 4.92224813e-001,
          5.96464694e-001, 5.73817015e-001, 3.85653168e-001 ]
      - [ 5.14932632e-001, 4.93939489e-001, 6.24699056e-001,
          6.43086612e-001, 6.42148674e-001, 3.06501538e-001,
          4.29466754e-001, 6.24699056e-001, 5.78698158e-001 ]
      - [ 4.80318129e-001, 5.56412160e-001, 6.11836731e-001,
          6.47836864e-001, 6.67981267e-001, 3.52706373e-001,
          3.89421046e-001, 6.11836731e-001, 6.82500064e-001 ]
      - [ 5.71812034e-001, 3.01694006e-001, 3.27218920e-001,
          9.10677239e-002, 2.76626140e-001, 1., 1., 3.27218920e-001,
          1.54197201e-001 ]
      - [ 3.86120856e-001, 6.17048204e-001, 2.62467504e-001,
          4.30916458e-001, 8.68128002e-001, 5.57637572e-001,
          4.78288054e-001, 2.62467504e-001, 5.70973933e-001 ]
      - [ 2.09828317e-001, 7.65548885e-001, 4.02887851e-001,
          5.48288167e-001, 6.20045602e-001, 5.33979475e-001,
          3.74546379e-001, 4.02887851e-001, 4.75507766e-001 ]
      - [ 7.55816460e-001, 2.88719386e-001, 4.02455598e-001,
          5.35997331e-001, 8.53936195e-001, 4.96033400e-001,
          5.79364359e-001, 4.02455598e-001, 6.67430997e-001 ]
      - [ 4.80431616e-001, 5.04551649e-001, 5.87846041e-001,
          5.45233965e-001, 5.33950210e-001, 4.64887172e-001,
          5.48800647e-001, 5.87846041e-001, 4.98856574e-001 ]
      - [ 4.56989080e-001, 6.18782043e-001, 5.00543296e-001,
          6.52581275e-001, 8.46681595e-001, 3.71488333e-001,
          3.14712733e-001, 5.00543296e-001, 8.35610449e-001 ]
      - [ 3.66161078e-001, 6.47626102e-001, 4.79183942e-001,
          6.13677084e-001, 6.88110769e-001, 4.36260790e-001,
          3.72257233e-001, 4.79183942e-001, 6.13502979e-001 ]
      - [ 7.07012951e-001, 2.70190090e-001, 3.99036586e-001,
          4.66532946e-001, 4.93508607e-001, 5.59806347e-001,
          7.73235142e-001, 3.99036586e-001, 4.65655059e-001 ]
      - [ 4.25021231e-001, 6.09902740e-001, 5.24498999e-001,
          6.18489981e-001, 6.51155770e-001, 4.74423349e-001,
          4.37205732e-001, 5.24498999e-001, 6.85224056e-001 ]
      - [ 3.22321177e-001, 7.20933080e-001, 6.38315678e-001,
          6.67640269e-001, 7.27105200e-001, 3.22563380e-001,
          2.99877763e-001, 6.38315678e-001, 7.38809049e-001 ]
      - [ 7.94870555e-002, 8.83748353e-001, 5.74794948e-001,
          5.72045624e-001, 5.98541200e-001, 4.55551296e-001,
          2.91918159e-001, 5.74794948e-001, 4.27263707e-001 ]
      - [ 7.12702215e-001, 3.63815606e-001, 6.27387226e-001,
          6.15513921e-001, 5.95444739e-001, 3.60405177e-001,
          5.92305481e-001, 6.27387226e-001, 7.77701259e-001 ]
      - [ 4.62458044e-001, 5.56972444e-001, 4.04315442e-001,
          4.93516654e-001, 6.85836792e-001, 5.24483085e-001,
          5.20402253e-001, 4.04315442e-001, 6.22035801e-001 ]
      - [ 5.03479183e-001, 4.76853877e-001, 5.88761210e-001,
          5.73534131e-001, 6.45436227e-001, 3.49372864e-001,
          4.85301554e-001, 5.88761210e-001, 4.82035697e-001 ]
      - [ 2.91068196e-001, 6.95918143e-001, 4.35924113e-001,
          5.77008247e-001, 7.43087471e-001, 5.00193059e-001,
          3.50173831e-001, 4.35924113e-001, 5.17251194e-001 ]
      - [ 7.55914807e-001, 2.83733040e-001, 5.77811062e-001,
          6.12275898e-001, 5.46608448e-001, 3.73891145e-001,
          6.30944729e-001, 5.77811062e-001, 6.52210355e-001 ]
      - [ 4.88964260e-001, 5.25702000e-001, 4.57385242e-001,
          5.99081516e-001, 7.82255173e-001, 4.47387129e-001,
          3.84423673e-001, 4.57385242e-001, 6.01678848e-001 ]
      - [ 4.90836143e-001, 5.03997028e-001, 4.96803224e-001,
          5.55238783e-001, 6.24279201e-001, 4.79741067e-001,
          5.15120745e-001, 4.96803224e-001, 5.32127738e-001 ]
      - [ 5.62658012e-001, 4.03202534e-001, 5.57306170e-001,
          4.20196176e-001, 5.73933542e-001, 3.72188538e-001,
          7.15100110e-001, 5.57306170e-001, 4.33063149e-001 ]
      - [ 4.55140173e-001, 5.78082144e-001, 3.23534131e-001,
          5.87736011e-001, 6.82729185e-001, 4.78335947e-001,
          4.60652769e-001, 3.23534131e-001, 6.73633754e-001 ]
      - [ 4.72947598e-001, 5.18518984e-001, 2.71685094e-001,
          5.52198291e-001, 6.51711702e-001, 5.85560799e-001,
          4.60686117e-001, 2.71685094e-001, 5.21585345e-001 ]
      - [ 1., 0., 3.53062779e-001, 4.76431876e-001, 5.17859757e-001,
          5.20079911e-001, 8.45293939e-001, 3.53062779e-001,
          5.18473625e-001 ]
      - [ 2.45591179e-001, 7.56242275e-001, 3.30458730e-001,
          5.26554763e-001, 8.71270001e-001, 4.82678920e-001,
          3.45627278e-001, 3.30458730e-001, 5.80959499e-001 ]
      - [ 3.75686079e-001, 6.35200262e-001, 4.85260636e-001,
          6.53583765e-001, 6.96605563e-001, 3.99565339e-001,
          3.12209278e-001, 4.85260636e-001, 6.01154983e-001 ]
      - [ 4.26527917e-001, 5.05936623e-001, 3.09432298e-001,
          3.80159497e-001, 5.94304979e-001, 6.17744029e-001,
          6.38213754e-001, 3.09432298e-001, 3.20817143e-001 ]
      - [ 5.62460482e-001, 3.78042579e-001, 4.90965873e-001,
          4.40546781e-001, 6.32260323e-001, 4.36335772e-001,
          6.41077578e-001, 4.90965873e-001, 3.53172779e-001 ]
      - [ 6.44416332e-001, 3.43913734e-001, 3.17984849e-001,
          5.09753108e-001, 4.64011967e-001, 4.76715237e-001,
          6.45224094e-001, 3.17984849e-001, 5.01811385e-001 ]
      - [ 5.46314716e-001, 4.69326913e-001, 4.24188286e-001,
          5.86891949e-001, 6.43010139e-001, 4.71343130e-001,
          5.37629604e-001, 4.24188286e-001, 5.98642945e-001 ]
      - [ 3.22198153e-001, 7.13888705e-001, 3.55701983e-001,
          5.63662350e-001, 6.84721649e-001, 5.30502617e-001,
          3.96148771e-001, 3.55701983e-001, 7.09265232e-001 ]
      - [ 6.57115102e-001, 3.74065012e-001, 2.06898749e-001,
          3.16380560e-001, 8.42694879e-001, 5.77255964e-001,
          7.17101872e-001, 2.06898749e-001, 6.37579799e-001 ]
      - [ 7.02118635e-001, 2.80293524e-001, 3.15557659e-001,
          4.60042030e-001, 5.96367598e-001, 5.67547977e-001,
          7.00104773e-001, 3.15557659e-001, 4.81325120e-001 ]
      - [ 4.99295175e-001, 5.33365846e-001, 4.06758726e-001,
          6.00721657e-001, 7.43273795e-001, 4.04648036e-001,
          4.02278036e-001, 4.06758726e-001, 6.64593875e-001 ]
      - [ 4.67502922e-001, 5.24058402e-001, 3.74054998e-001,
          5.53200722e-001, 5.53691566e-001, 5.27219236e-001,
          5.12463272e-001, 3.74054998e-001, 5.22287011e-001 ]
      - [ 2.64698178e-001, 6.64136112e-001, 4.46866453e-001,
          4.25453246e-001, 6.88469410e-001, 4.69215661e-001,
          5.06843626e-001, 4.46866453e-001, 2.96695799e-001 ]
      - [ 6.40371561e-001, 3.63847345e-001, 4.53999490e-001,
          6.26080632e-001, 4.94181454e-001, 4.44221526e-001,
          5.64765930e-001, 4.53999490e-001, 5.52295327e-001 ]
      - [ 4.52154815e-001, 5.01427472e-001, 1.62409425e-001,
          3.43698829e-001, 7.68928170e-001, 6.93786323e-001,
          6.31662250e-001, 1.62409425e-001, 3.92467022e-001 ]
      - [ 2.88730055e-001, 7.00103223e-001, 6.19886339e-001,
          6.54723227e-001, 3.38471949e-001, 3.44161600e-001,
          3.69588673e-001, 6.19886339e-001, 5.24552882e-001 ]
      - [ 6.89033568e-001, 3.99050802e-001, 3.40255558e-001,
          4.62490529e-001, 8.32784116e-001, 5.16998470e-001,
          6.30066812e-001, 3.40255558e-001, 8.21764648e-001 ]
      - [ 6.04418755e-001, 3.64314973e-001, 4.47104871e-001,
          4.99519348e-001, 5.49981713e-001, 4.29376632e-001,
          6.10764682e-001, 4.47104871e-001, 4.41723615e-001 ]
      - [ 7.69773364e-001, 2.48317257e-001, 2.73497134e-001,
          3.24678272e-001, 7.86599934e-001, 5.79458654e-001,
          7.96163082e-001, 2.73497134e-001, 5.84690571e-001 ]
      - [ 4.02103543e-001, 6.02438569e-001, 3.66627425e-001,
          5.28227031e-001, 8.86323035e-001, 4.63903666e-001,
          4.16033536e-001, 3.66627425e-001, 5.74381828e-001 ]
      - [ 1.52615860e-001, 8.01536202e-001, 2.34048769e-001,
          3.75112593e-001, 8.54695439e-001, 6.05530500e-001,
          4.47006822e-001, 2.34048769e-001, 3.89043182e-001 ]
      - [ 4.96469617e-001, 4.97700959e-001, 3.19186985e-001,
          4.87307906e-001, 5.96502304e-001, 4.86039579e-001,
          5.30816138e-001, 3.19186985e-001, 5.29395998e-001 ]
      - [ 5.54891884e-001, 4.35449213e-001, 2.62688130e-001,
          3.20675820e-001, 5.47033608e-001, 5.58171213e-001,
          7.65283465e-001, 2.62688130e-001, 5.12881935e-001 ]
      - [ 4.66337264e-001, 5.39155722e-001, 3.73565495e-001,
          5.36337614e-001, 8.65445971e-001, 4.69613224e-001,
          4.23699468e-001, 3.73565495e-001, 5.71474254e-001 ]
   decision_functions:
      -
         sv_count: 39
         rho: 6.0419255675883554e-001
         alpha: [ 7., 7., 4.3622367526083687e+000, 7., 7.,
             8.9457916816313032e-001, 2.9336423829949689e+000, 7.,
             1.6521661254451918e+000, 7., 1.8734484465329020e+000, 7.,
             7., 7., 7., 7., 7., 7., -9.8616620712145675e-001, -7., -7.,
             -1.8532454850625979e+000, -7., -5.6549413244341835e+000,
             -2.7603134696443854e-001, -4.5685483233575130e+000, -7.,
             -1.4976316246546555e+000, -7., -7., -7.,
             -6.7992442455694513e-001, -6.0290369541064193e+000, -7.,
             -7., -7., -3.1536926365980369e+000,
             -1.0168545488883145e+000, -7. ]
         index: [ 0, 1, 3, 4, 5, 6, 7, 9, 10, 12, 13, 14, 15, 17, 19, 22,
             24, 25, 30, 31, 33, 34, 35, 36, 38, 41, 44, 47, 48, 50, 52,
             53, 54, 55, 57, 58, 59, 60, 61 ]
      -
         sv_count: 22
         rho: -8.7797570471493180e-001
         alpha: [ 7., 2.1071483846400825e+000, 2.6232078261330258e+000,
             1.3768540937174742e+000, 4.8277197812579387e-001,
             6.8099368133985108e+000, 7., 9.5210007626584692e-001, 7.,
             3.5180285545745957e+000, 7., -7., -1.8556005047567423e-001,
             -7., -7., -7., -7., -1.1145699064150332e+000,
             -1.8997304031519768e+000, -7., -5.2006753209150847e-001,
             -1.5011983472113319e-001 ]
         index: [ 0, 1, 4, 6, 10, 12, 14, 19, 22, 24, 25, 66, 67, 68, 72,
             74, 75, 79, 82, 84, 85, 87 ]
      -
         sv_count: 27
         rho: 4.6660581560565645e-001
         alpha: [ 2.6232152411102949e+000, 7., 7., 7., 7.,
             2.8775396337300791e+000, 7., 4.6924822279670648e+000,
             3.3374112148797246e+000, 8.1099613758201849e-002, 7.,
             6.7370565948764449e-001, 1.0818188347674174e+000, -7., -7.,
             -3.1859581612876031e+000, -6.2188390953779060e-001,
             -7.7056645762275067e-001, -7., -5.6725534549036993e-001,
             -1.9373221839780213e+000, -7., -6.8247157888726910e+000,
             -7., -7.2034672232889285e-001, -7.,
             -7.3922385658229894e-001 ]
         index: [ 0, 1, 3, 4, 5, 8, 9, 16, 17, 18, 19, 21, 22, 91, 92,
             97, 98, 100, 103, 107, 111, 114, 116, 120, 121, 122, 124 ]
      -
         sv_count: 25
         rho: 2.2480756620445452e-001
         alpha: [ 6.0594533036720195e+000, 3.8766366331888151e+000, 7.,
             7., 2.5349726706497478e-002, 7., 6.2415527586667674e-001,
             4.3068280725924091e-001, 9.5134906909198014e-001,
             1.4373919264762158e+000, 2.1504610728150935e+000,
             4.4238512741078573e-001, 7., 4.5698984224953811e+000, -7.,
             -7., -6.0912965537250452e-001, -3.6035878579658287e+000,
             -5.1484329946001983e+000, -1.2560445395300439e+000,
             -1.5772273930581331e-002, -7., -4.9201375873000099e+000,
             -7., -5.0146584562835423e+000 ]
         index: [ 0, 1, 4, 5, 8, 9, 10, 11, 12, 14, 15, 18, 19, 22, 125,
             126, 127, 130, 136, 137, 140, 142, 144, 148, 152 ]
      -
         sv_count: 33
         rho: -1.1953791462681869e-001
         alpha: [ 7., 7., 7., 7., 7., 2.4738173657559628e+000,
             2.8270956469323951e+000, 9.2978826618356103e-001, 7., 7.,
             7.5997652846716973e-002, 7., 1.0116487936160876e-001, 7.,
             7., 7., -2.3428363524709850e+000, -2.5698086693956332e+000,
             -1.9674212524189034e+000, -7., -7., -7., -7., -7.,
             -3.5100037260788070e-001, -3.1212415742021125e+000, -7.,
             -1.3275474077123848e+000, -7., -7.,
             -1.7280081822723394e+000, -7., -7. ]
         index: [ 0, 2, 3, 4, 5, 7, 9, 15, 16, 17, 19, 20, 21, 22, 23,
             24, 155, 157, 159, 162, 163, 164, 165, 166, 167, 168, 169,
             170, 172, 174, 178, 179, 180 ]
      -
         sv_count: 19
         rho: -5.4478597671164662e-002
         alpha: [ 5.3664904127370976e+000, 7., 7.,
             1.5484181185273598e+000, 1.6818824291348922e+000,
             3.2648467746021842e-001, 2.2639815048606771e+000, 7.,
             1.7703160022624209e+000, 3.7084628380225304e+000,
             -2.8650993106232372e+000, -7., -7.,
             -3.0448531967718413e-002, -2.2515796153232532e+000, -7.,
             -7., -1.2940605957002591e+000, -3.2248479293907319e+000 ]
         index: [ 3, 4, 5, 7, 15, 16, 17, 19, 22, 24, 188, 193, 198, 201,
             202, 203, 206, 212, 213 ]
      -
         sv_count: 41
         rho: 2.7317082399460918e-001
         alpha: [ 7.6763764869998641e-001, 7., 7., 7.,
             1.9173258983311717e-001, 7., 4.2922863012723839e-001, 7.,
             7., 1.6349133171262966e+000, 7., 7.,
             4.8386946064336351e+000, 7., 3.8757953239097147e+000, 7.,
             4.1328764114487715e-002, 7., 4.5576019362891280e+000,
             6.9848316613514925e+000, 6.7721564363558731e+000, 7., -7.,
             -2.7440424676730388e+000, -7., -7., -7., -7., -7., -7., -7.,
             -7., -7., -1.2137713496284608e+000, -7., -7.,
             -4.1868840284029387e+000, -9.4922306853653782e-001, -7.,
             -7., -7. ]
         index: [ 26, 27, 28, 29, 30, 31, 34, 37, 40, 41, 43, 44, 45, 46,
             50, 51, 53, 56, 58, 59, 60, 61, 62, 64, 65, 66, 68, 70, 71,
             72, 74, 75, 76, 78, 79, 81, 82, 83, 84, 87, 89 ]
      -
         sv_count: 51
         rho: 1.3386810097289876e+000
         alpha: [ 7., 7., 7., 7., 1.2868958649318398e+000, 7., 7.,
             4.9729181345240194e+000, 7., 7., 4.2254980034030538e+000,
             7., 1.1441244276919944e+000, 7., 1.5844292048595177e+000,
             7., 7., 7., 3.3460213288433795e+000,
             3.5890113203051812e+000, 7., 7., 6.9324002215876923e-001,
             2.6125291163444673e+000, 1.5946637331639351e+000,
             3.5874427799877315e+000, -7., -7., -7., -7.,
             -3.6890864767036198e+000, -7., -4.6025535115466640e+000,
             -2.0745968498505523e+000, -7., -7.,
             -5.1047303983582815e+000, -7., -7.,
             -1.6553418804345238e-001, -7., -4.2883568204487519e+000,
             -7., -4.3394069169906346e-001, -7.,
             -4.7144601843250461e-001, -8.0652898113099003e-001, -7.,
             -7., -7., -7. ]
         index: [ 26, 27, 30, 32, 33, 34, 35, 36, 38, 39, 40, 42, 44, 45,
             46, 47, 48, 49, 51, 53, 55, 56, 58, 59, 60, 61, 90, 91, 92,
             93, 97, 98, 99, 100, 102, 103, 104, 105, 107, 108, 111, 113,
             114, 115, 116, 117, 119, 120, 122, 123, 124 ]
      -
         sv_count: 44
         rho: 1.8031999968230621e-002
         alpha: [ 7., 1.4542971637836595e+000, 8.7638036379172479e-001,
             7., 5.6711637451915120e+000, 7., 7., 7., 7., 7., 7.,
             6.3044753079205069e+000, 7., 5.0158942242459084e+000,
             3.0461759012936347e+000, 9.1098156242843065e-002, 7.,
             4.7936355373739561e+000, 7., 6.0607306006420325e+000,
             4.8582735486366442e+000, 1.5649921468988486e+000, 7., -7.,
             -7., -7., -7., -5.8842186112447878e+000,
             -3.7409820439830828e+000, -7., -3.4752832439272505e+000,
             -7., -7., -1.4270092516498276e-001, -7., -7., -7.,
             -1.9961265347938619e+000, -7., -7., -7., -7., -7.,
             -3.4978053369072999e+000 ]
         index: [ 26, 28, 29, 30, 32, 33, 34, 35, 36, 38, 39, 40, 42, 44,
             45, 46, 49, 50, 53, 54, 56, 57, 59, 125, 126, 129, 130, 132,
             133, 134, 136, 137, 140, 141, 142, 143, 144, 145, 148, 149,
             150, 151, 152, 153 ]
      -
         sv_count: 25
         rho: 1.6856337196526380e-001
         alpha: [ 3.2530654668944252e+000, 7., 6.5607384222363798e+000,
             7., 2.9870832892516814e+000, 7., 7., 7.,
             2.1742953718996829e+000, 5.6288340459354229e+000, 7.,
             -4.9078227630479399e+000, -7., -7.,
             -3.1150878874397754e+000, -3.5384708937549361e+000,
             -5.1052482746009469e+000, -6.5850551560059953e+000,
             -1.3603469560883261e+000, -1.8575480849721218e+000,
             -5.3882786500904434e+000, -7., -6.6505985500782028e-001,
             -7., -2.0810980752092814e+000 ]
         index: [ 26, 27, 30, 41, 45, 48, 50, 55, 56, 57, 58, 156, 157,
             159, 163, 164, 165, 166, 169, 170, 172, 177, 179, 180, 185 ]
      -
         sv_count: 23
         rho: -5.8426570048308901e-001
         alpha: [ 4.7210777006081432e+000, 7., 7.,
             6.9601468132708417e+000, 7., 9.5142829866263667e-001,
             3.9130637334980536e+000, 2.4871524231130957e+000,
             5.4194957173279592e+000, 1.6711038511158065e+000, 7.,
             8.5490639425507053e-001, 6.5911638443408005e-001,
             -3.6666148773336791e+000, -9.3579875636959509e-001, -7.,
             -6.6251341116370313e+000, -7., -7.,
             -2.4099435709453858e+000, -7., -7., -7. ]
         index: [ 26, 27, 30, 33, 35, 41, 45, 46, 48, 49, 55, 56, 58,
             188, 191, 193, 196, 198, 202, 203, 204, 206, 213 ]
      -
         sv_count: 35
         rho: 1.3348326156216197e+000
         alpha: [ 4.1613000722372879e+000, 4.1069776358257748e+000,
             2.8984883386263133e-001, 7., 2.2390798034583610e+000, 7.,
             7., 7., 7., 7., 7., 7., 7., 7., 2.4213167661631414e+000,
             6.5084895138059222e+000, -6.4045348480101172e+000,
             -3.8922144768211417e+000, -2.6964717585871938e+000,
             -4.5756672541691765e+000, -7., -3.5809615978505214e+000,
             -7., -4.4649761278263700e+000, -7., -7., -7.,
             -3.0543446823630666e-001, -7., -6.6918151299141981e-001,
             -7., -1.9808786656896158e+000, -1.2074784745039953e+000,
             -7., -3.9492134406672497e+000 ]
         index: [ 63, 65, 68, 69, 72, 73, 74, 77, 78, 79, 80, 81, 83, 84,
             85, 86, 90, 91, 92, 93, 95, 96, 97, 101, 103, 104, 106, 108,
             109, 110, 112, 114, 116, 118, 121 ]
      -
         sv_count: 26
         rho: 9.6002605248186920e-002
         alpha: [ 1.2433541088496309e+000, 9.6384448216285681e-002,
             2.8613379616840415e+000, 1.2242461581527537e+000,
             9.7233316540312820e-001, 5.7376798877477224e+000, 7.,
             1.2070958502363467e+000, 2.9010353133137068e-001,
             1.5970535610636087e+000, 7., 2.1777215801482472e+000, 7.,
             7., 7.9101457200416081e-001, 2.9730457672822332e+000,
             6.7379532018407695e-001, -5.0933883459402720e+000, -7., -7.,
             -2.3306069556351492e+000, -7., -7., -7.,
             -1.4488620295289738e+000, -5.9723085811992194e+000 ]
         index: [ 63, 64, 67, 68, 72, 73, 74, 75, 76, 77, 78, 79, 81, 84,
             85, 87, 88, 125, 126, 128, 130, 140, 142, 148, 152, 153 ]
      -
         sv_count: 20
         rho: 7.2204942768355118e-001
         alpha: [ 7., 7., 3.4768710775854555e-002,
             6.7959808336656806e+000, 8.4858968133305823e-001, 7., 7.,
             7., -3.6068870434534372e+000, -7., -7.,
             -2.2999900383133074e+000, -2.8357265251407284e+000,
             -2.3849412932292844e+000, -1.5354877316260427e+000,
             -1.4225525896390601e-001, -6.5834577701400745e+000,
             -1.1912389955080578e+000, -1.5404789429175687e+000,
             -6.5588756264821839e+000 ]
         index: [ 62, 65, 67, 68, 70, 72, 74, 79, 156, 157, 159, 164,
             165, 166, 169, 170, 177, 178, 180, 185 ]
      -
         sv_count: 17
         rho: 9.4738570377972606e-003
         alpha: [ 2.9668355625427822e+000, 1.7310601782436374e-001,
             3.8516483936691581e+000, 7., 1.9662078850391460e+000, 7.,
             5.3530352875393437e+000, 6.2273927178594093e+000,
             4.0356402092881793e-001, -2.3093318272379277e+000,
             -2.1938137956510992e+000, -7., -4.5222288597563223e+000,
             -2.5452416171653174e+000, -2.3711737855923514e+000, -7.,
             -7. ]
         index: [ 65, 68, 72, 74, 75, 79, 81, 84, 85, 188, 191, 193, 196,
             198, 202, 204, 206 ]
      -
         sv_count: 52
         rho: -1.1267614966071002e+000
         alpha: [ 7., 4.7264421930861011e-001, 7., 7.,
             1.2980054286336848e-001, 5.4481379823255311e+000, 7., 7.,
             7., 4.7726468864452558e+000, 7., 7.,
             6.7554129805372831e+000, 7., 7., 7., 7., 7., 7.,
             2.3520143142265035e+000, 7., 7., 3.5641664205050767e+000,
             7., 7., 7., -7., -6.0810496380397003e+000,
             -2.4720761876359627e+000, -7., -5.9289772069365414e+000,
             -7., -3.4037590068116454e+000, -1.9000843236883533e+000,
             -7., -7., -3.1500139049592684e+000, -7.,
             -4.8415181016457725e+000, -7., -7., -7., -7., -7., -7.,
             -4.4013148253479111e+000, -7., -7., -7., -7., -7.,
             -5.3160301511464798e+000 ]
         index: [ 91, 92, 93, 94, 95, 97, 98, 99, 100, 101, 103, 105,
             106, 107, 111, 113, 114, 115, 116, 118, 119, 120, 121, 122,
             123, 124, 125, 126, 127, 128, 130, 131, 132, 133, 134, 136,
             137, 138, 139, 140, 141, 142, 143, 144, 146, 147, 148, 149,
             151, 152, 153, 154 ]
      -
         sv_count: 32
         rho: 7.8612779472948702e-002
         alpha: [ 7., 7., 7., 1.4466069862059812e+000,
             3.9675773858832120e-001, 1.9235199240937040e-001, 7.,
             1.0956334525294533e+000, 7., 2.0990344199328699e+000, 7.,
             1.7166648530862603e+000, 7., 2.0416388237928955e+000,
             4.3669149254683868e+000, -5.9716116348536490e+000,
             -1.5558472534722149e-002, -6.0390212335434380e-002,
             -1.1540675776538933e+000, -7., -2.2529677947627045e+000,
             -7., -3.2018854598264923e+000, -6.3361665474380962e+000,
             -7., -3.8968305768155935e+000, -7.,
             -3.1641861535075915e+000, -7.6343338592054499e-001,
             -4.1867240715815052e-001, -7., -1.1983296920665636e-001 ]
         index: [ 90, 92, 93, 97, 100, 101, 103, 104, 114, 115, 116, 117,
             119, 121, 122, 156, 159, 160, 162, 163, 166, 167, 170, 171,
             172, 174, 177, 179, 180, 181, 182, 185 ]
      -
         sv_count: 34
         rho: -4.2551498069456278e-001
         alpha: [ 3.1734606938917871e+000, 2.9421172638051765e+000, 7.,
             1.3799452468923628e+000, 5.1285752896907633e-001,
             4.5572775813619115e+000, 2.7659315740052248e+000, 7.,
             3.7737421926720943e-001, 7., 4.8704077351946806e-001,
             3.5595583380435478e+000, 1.1938247183047717e+000, 7.,
             1.9662355288621258e+000, 7., 6.7115175272366390e-001, 7.,
             7., -7., -1.4424868421882313e+000, -7., -7.,
             -5.2899477494039422e+000, -6.1113538583266829e+000, -7.,
             -2.5519822791780561e-001, -6.3955808986753517e+000, -7.,
             -2.5903938772710213e+000, -7., -2.1335206930343131e-002,
             -1.4804785589329450e+000, -7. ]
         index: [ 90, 92, 93, 97, 99, 100, 101, 103, 104, 105, 110, 111,
             112, 114, 115, 116, 117, 119, 120, 188, 191, 193, 194, 195,
             196, 198, 199, 202, 203, 205, 206, 207, 211, 213 ]
      -
         sv_count: 21
         rho: 7.8203888435776825e-001
         alpha: [ 3.0480369955110733e+000, 4.5347659865185141e+000,
             2.7084045227989439e+000, 6.7406053812174092e+000, 7., 7.,
             7., 7., 1.5322987315192482e-001, -2.0118192687869700e+000,
             -2.5903065325794946e-002, -1.7639631438307233e+000, -7.,
             -5.3670189707642724e+000, -1.0256038762944082e+000, -7.,
             -6.2675620458962156e+000, -4.4058241685493105e+000,
             -2.3486766226804550e+000, -9.6867159706972017e-001, -7. ]
         index: [ 126, 130, 135, 136, 138, 142, 148, 152, 153, 159, 160,
             164, 166, 167, 170, 171, 172, 174, 177, 179, 182 ]
      -
         sv_count: 27
         rho: -1.4678137361827384e-001
         alpha: [ 3.9537565779458737e+000, 1.8437218640692603e+000, 7.,
             7., 7., 1.6513855773978205e+000, 7., 7.,
             4.2966891834552434e-002, 5.9429364235809281e+000,
             3.2809958282238330e+000, 7., 4.5970315430606954e+000, 7.,
             -5.4826049219946178e+000, -2.7740413250228269e+000,
             -2.5976147133103624e+000, -7., -1.9458737355224569e+000,
             -7., -7., -6.5719153008807742e+000,
             -6.2586689492867924e+000, -7., -2.6820757600951444e+000,
             -7., -7. ]
         index: [ 125, 126, 135, 136, 138, 140, 141, 142, 143, 144, 146,
             148, 151, 152, 188, 189, 193, 194, 196, 198, 202, 203, 205,
             206, 211, 212, 213 ]
      -
         sv_count: 42
         rho: 7.8799028829737838e-001
         alpha: [ 1.1819825813287224e+000, 2.2243345692235441e+000, 7.,
             9.4026259181623018e-001, 7., 7., 1.6162096171866620e+000,
             7.4504375774950493e-001, 7., 7., 1.8365272555094527e+000,
             7., 7., 7., 2.6413639425076596e+000,
             1.7113979274270630e+000, 7., 7., 6.1860827684554485e+000,
             7., 2.8925569128022759e+000, 7., 1.7400923898331746e+000,
             -7., -3.9964423931583797e+000, -2.4803707061897597e+000,
             -7., -7., -7., -7., -7., -2.2527230953770339e+000, -7., -7.,
             -7., -7., -7., -7., -9.6769666830955392e-001,
             -1.8621450805011611e-002, -7., -7. ]
         index: [ 155, 156, 158, 159, 160, 161, 163, 165, 166, 167, 170,
             171, 172, 173, 175, 176, 177, 182, 183, 184, 185, 186, 187,
             188, 190, 191, 192, 193, 195, 197, 198, 200, 201, 202, 203,
             204, 206, 207, 208, 209, 210, 214 ]
