%YAML:1.0
my_svm: !!opencv-ml-svm
   svm_type: C_SVC
   kernel: { type:RBF, gamma:5.0625000000000009e-001 }
   C: 3.1250000000000000e+002
   term_criteria: { epsilon:1.1920928955078125e-007, iterations:1000 }
   var_all: 9
   var_count: 9
   class_count: 7
   class_labels: !!opencv-matrix
      rows: 1
      cols: 7
      dt: i
      data: [ 0, 1, 2, 3, 4, 5, 6 ]
   sv_total: 210
   support_vectors:
      - [ 1.93926379e-001, 7.77476132e-001, 7.28370428e-001,
          7.32017934e-001, 5.33955336e-001, 2.31378719e-001,
          1.96185052e-001, 7.28370428e-001, 4.80201840e-001 ]
      - [ 2.49021485e-001, 7.33203828e-001, 3.95749688e-001,
          4.17550713e-001, 7.53617167e-001, 4.26673710e-001,
          4.55613941e-001, 3.95749688e-001, 5.16317487e-001 ]
      - [ 9.28592011e-002, 9.71028626e-001, 8.01538825e-001,
          8.09187591e-001, 4.73983675e-001, 2.33795002e-001,
          1.00341596e-001, 8.01538825e-001, 8.86175156e-001 ]
      - [ 2.26226836e-001, 7.77274251e-001, 3.15267473e-001,
          4.47112322e-001, 6.99622393e-001, 4.64654475e-001,
          4.36396658e-001, 3.15267473e-001, 5.98534048e-001 ]
      - [ 2.08416000e-001, 8.06179345e-001, 7.54266202e-001,
          7.24195004e-001, 4.13639724e-001, 2.88631707e-001,
          2.70755380e-001, 7.54266202e-001, 6.44507468e-001 ]
      - [ 3.44099581e-001, 6.80505753e-001, 6.47471368e-001,
          7.36632168e-001, 4.73019630e-001, 3.16152036e-001,
          3.07986736e-001, 6.47471368e-001, 6.58921361e-001 ]
      - [ 2.16985658e-001, 7.23685920e-001, 6.59308553e-001,
          6.14458144e-001, 4.32201087e-001, 4.76555020e-001,
          3.79363418e-001, 6.59308553e-001, 3.67622018e-001 ]
      - [ 2.81756938e-001, 6.20146275e-001, 5.91964364e-001,
          5.09561121e-001, 5.17669320e-001, 4.65541512e-001,
          5.03240228e-001, 5.91964364e-001, 2.39666253e-001 ]
      - [ 4.05738741e-001, 6.28238261e-001, 7.19694376e-001,
          7.19516993e-001, 3.93871427e-001, 3.49077165e-001,
          3.70158255e-001, 7.19694376e-001, 6.81743264e-001 ]
      - [ 5.11047081e-004, 9.27063882e-001, 7.57906795e-001,
          6.44330680e-001, 5.29877782e-001, 2.58083433e-001,
          2.06911728e-001, 7.57906795e-001, 3.10525060e-001 ]
      - [ 1.52898267e-001, 8.66507769e-001, 6.35685027e-001,
          7.53665268e-001, 5.31441569e-001, 3.39699626e-001,
          1.84209436e-001, 6.35685027e-001, 6.74390495e-001 ]
      - [ 2.16010809e-001, 7.34214067e-001, 7.12119699e-001,
          6.35031521e-001, 3.99021357e-001, 3.54647547e-001,
          3.63636523e-001, 7.12119699e-001, 4.01723742e-001 ]
      - [ 4.48523015e-001, 5.92603981e-001, 2.88857907e-001,
          4.66485471e-001, 7.44738638e-001, 5.12083650e-001,
          4.99054104e-001, 2.88857907e-001, 6.98915124e-001 ]
      - [ 2.19042808e-001, 7.85701513e-001, 4.36572522e-001,
          5.03639281e-001, 6.31601512e-001, 3.44876528e-001,
          3.76224518e-001, 4.36572522e-001, 6.04364991e-001 ]
      - [ 3.42161953e-001, 6.39819860e-001, 4.29789484e-001,
          3.86342943e-001, 7.40205228e-001, 4.12663817e-001,
          5.47741055e-001, 4.29789484e-001, 5.08209527e-001 ]
      - [ 2.88903207e-001, 7.03131437e-001, 4.45662409e-001,
          4.39087898e-001, 6.78890765e-001, 3.71597022e-001,
          4.83218729e-001, 4.45662409e-001, 5.48335969e-001 ]
      - [ 3.31018507e-001, 7.00374484e-001, 6.13517284e-001,
          6.36174798e-001, 5.69890141e-001, 4.14837599e-001,
          3.51573050e-001, 6.13517284e-001, 6.86155915e-001 ]
      - [ 1.84038982e-001, 8.34044099e-001, 6.35688961e-001,
          7.32878804e-001, 5.40400088e-001, 3.74104440e-001,
          2.09472358e-001, 6.35688961e-001, 6.62849188e-001 ]
      - [ 2.20377654e-001, 8.10108781e-001, 7.43796229e-001,
          7.95906067e-001, 4.60157484e-001, 2.12473124e-001,
          1.76818937e-001, 7.43796229e-001, 7.05144286e-001 ]
      - [ 4.20939893e-001, 5.87337375e-001, 6.91050112e-001,
          7.15476274e-001, 5.39426148e-001, 2.92397708e-001,
          3.38363737e-001, 6.91050112e-001, 5.90553582e-001 ]
      - [ 4.09537077e-001, 5.68059385e-001, 3.73114020e-001,
          3.80291522e-001, 7.07167506e-001, 4.43504393e-001,
          5.89855194e-001, 3.73114020e-001, 4.88991827e-001 ]
      - [ 2.04487562e-001, 8.23290944e-001, 6.72991693e-001,
          7.73657084e-001, 4.33829397e-001, 3.51893544e-001,
          1.88969389e-001, 6.72991693e-001, 6.97724879e-001 ]
      - [ 5.01911938e-001, 5.80466032e-001, 6.41395390e-001,
          7.26215839e-001, 5.29870450e-001, 4.12986308e-001,
          3.58475804e-001, 6.41395390e-001, 8.31132591e-001 ]
      - [ 7.47569323e-001, 2.20665872e-001, 3.09558690e-001,
          3.10688019e-001, 6.04317129e-001, 5.52803159e-001,
          8.62593830e-001, 3.09558690e-001, 4.46961313e-001 ]
      - [ 4.15300369e-001, 5.55509210e-001, 3.44578058e-001,
          3.46791923e-001, 7.29207098e-001, 5.36162376e-001,
          6.35639906e-001, 3.44578058e-001, 4.66504782e-001 ]
      - [ 3.96445185e-001, 6.06862307e-001, 1.88783363e-001,
          3.95319104e-001, 6.45392478e-001, 6.38235033e-001,
          5.80500305e-001, 1.88783363e-001, 5.76410651e-001 ]
      - [ 2.94196159e-001, 6.99262142e-001, 6.75894499e-001,
          6.09539211e-001, 4.48042363e-001, 2.80840874e-001,
          3.71541679e-001, 6.75894499e-001, 5.53003430e-001 ]
      - [ 6.71678066e-001, 3.38362187e-001, 6.05311871e-001,
          5.95404923e-001, 3.86324346e-001, 4.07061815e-001,
          5.71885049e-001, 6.05311871e-001, 5.69594145e-001 ]
      - [ 2.03336015e-001, 7.89590418e-001, 3.74285609e-001,
          4.13586020e-001, 7.22155452e-001, 4.81534094e-001,
          4.65721071e-001, 3.74285609e-001, 5.60966849e-001 ]
      - [ 4.34229761e-001, 6.01684690e-001, 6.23687506e-001,
          6.51240468e-001, 3.80741417e-001, 3.58287662e-001,
          4.22374129e-001, 6.23687506e-001, 6.83459520e-001 ]
      - [ 3.93843204e-001, 5.56808233e-001, 5.50649643e-001,
          3.26020509e-001, 6.81371272e-001, 3.12802017e-001,
          6.66650832e-001, 5.50649643e-001, 4.01774585e-001 ]
      - [ 4.98151630e-001, 5.30637443e-001, 3.20359796e-001,
          5.32868028e-001, 5.32206357e-001, 5.75610161e-001,
          5.49255371e-001, 3.20359796e-001, 6.48861825e-001 ]
      - [ 1.04699954e-001, 8.37491691e-001, 4.35066968e-001,
          3.02409858e-001, 8.46690059e-001, 4.73219156e-001,
          5.36955237e-001, 4.35066968e-001, 3.71650964e-001 ]
      - [ 3.97550672e-001, 6.64382458e-001, 4.51275170e-001,
          4.80179042e-001, 6.86348736e-001, 4.86708522e-001,
          5.08868039e-001, 4.51275170e-001, 7.84163535e-001 ]
      - [ 4.86275852e-001, 5.33685029e-001, 3.03527951e-001,
          3.88505697e-001, 6.47200704e-001, 5.47328532e-001,
          6.48088038e-001, 3.03527951e-001, 6.21286511e-001 ]
      - [ 3.35930854e-001, 5.98572195e-001, 3.21396112e-001,
          2.09632263e-001, 8.78376007e-001, 5.48481643e-001,
          7.24122465e-001, 3.21396112e-001, 3.48901719e-001 ]
      - [ 3.67498785e-001, 6.50502980e-001, 3.87049377e-001,
          6.07331038e-001, 5.19391596e-001, 5.26527524e-001,
          3.97860765e-001, 3.87049377e-001, 6.31474435e-001 ]
      - [ 3.98301244e-001, 6.24042451e-001, 5.57758451e-001,
          6.39892399e-001, 4.15027022e-001, 4.02906924e-001,
          3.77692193e-001, 5.57758451e-001, 6.42105877e-001 ]
      - [ 3.85182798e-001, 6.20759368e-001, 2.05790505e-001,
          4.25111204e-001, 6.96401834e-001, 5.86851895e-001,
          5.13746381e-001, 2.05790505e-001, 5.86770356e-001 ]
      - [ 4.86956656e-001, 5.60659707e-001, 5.85795164e-001,
          6.89912915e-001, 4.56379950e-001, 3.23632330e-001,
          3.60424966e-001, 5.85795164e-001, 7.14062393e-001 ]
      - [ 3.66802156e-001, 7.01499701e-001, 5.20315707e-001,
          7.20599353e-001, 4.23474669e-001, 3.57030123e-001,
          3.00008059e-001, 5.20315707e-001, 8.15936029e-001 ]
      - [ 3.65473658e-001, 6.84795916e-001, 5.11806369e-001,
          7.07780480e-001, 4.51529592e-001, 3.78651798e-001,
          2.69907206e-001, 5.11806369e-001, 7.48803020e-001 ]
      - [ 1.23402439e-001, 8.73514652e-001, 5.60889125e-001,
          6.55531943e-001, 4.96217519e-001, 3.75525445e-001,
          2.39003003e-001, 5.60889125e-001, 5.87104023e-001 ]
      - [ 4.29405659e-001, 6.51879549e-001, 6.32260084e-001,
          7.49953210e-001, 5.07142186e-001, 3.16706538e-001,
          2.71365047e-001, 6.32260084e-001, 8.46985221e-001 ]
      - [ 3.77644181e-001, 6.43527389e-001, 6.97307169e-001,
          7.09272146e-001, 3.12610686e-001, 2.69981951e-001,
          3.32719773e-001, 6.97307169e-001, 6.41135335e-001 ]
      - [ 3.17362338e-001, 6.91656113e-001, 5.30480802e-001,
          5.90813756e-001, 5.78449667e-001, 4.02313650e-001,
          3.64919543e-001, 5.30480802e-001, 6.06505096e-001 ]
      - [ 3.67404968e-001, 5.88301420e-001, 3.84948313e-001,
          2.98298210e-001, 7.74329007e-001, 5.05108953e-001,
          6.80121064e-001, 3.84948313e-001, 4.18539613e-001 ]
      - [ 4.18483168e-001, 5.17741382e-001, 5.90576470e-001,
          3.10654312e-001, 7.01734364e-001, 3.53074282e-001,
          6.87086582e-001, 5.90576470e-001, 3.56182247e-001 ]
      - [ 5.05294919e-001, 4.26531315e-001, 3.60485643e-001,
          3.83929700e-001, 5.14097810e-001, 6.20508373e-001,
          7.13133097e-001, 3.60485643e-001, 3.44772577e-001 ]
      - [ 3.16330254e-001, 7.01825082e-001, 4.43122625e-001,
          5.97206593e-001, 4.90191370e-001, 5.15338778e-001,
          3.96345556e-001, 4.43122625e-001, 6.39979184e-001 ]
      - [ 3.54100555e-001, 6.43725693e-001, 5.19293785e-001,
          5.64105868e-001, 4.57145840e-001, 4.82838184e-001,
          4.47796643e-001, 5.19293785e-001, 5.62183619e-001 ]
      - [ 4.43483323e-001, 5.28599799e-001, 3.44279438e-001,
          3.11856031e-001, 6.74192965e-001, 5.55205226e-001,
          7.18278587e-001, 3.44279438e-001, 4.69307840e-001 ]
      - [ 3.68204862e-001, 6.39700711e-001, 1.45296842e-001,
          3.77546042e-001, 6.63015246e-001, 6.94819570e-001,
          5.91509402e-001, 1.45296842e-001, 5.95718265e-001 ]
      - [ 3.27923715e-001, 6.13908291e-001, 5.08002341e-001,
          2.76744604e-001, 7.67952323e-001, 4.45210516e-001,
          6.83661640e-001, 5.08002341e-001, 3.72870952e-001 ]
      - [ 4.06050473e-001, 6.51543975e-001, 5.70967257e-001,
          6.91922188e-001, 3.81957471e-001, 3.70023429e-001,
          3.49577248e-001, 5.70967257e-001, 7.66321719e-001 ]
      - [ 4.00005579e-001, 6.43655837e-001, 6.56535506e-001,
          7.04485118e-001, 5.06287754e-001, 2.41497934e-001,
          2.91941553e-001, 6.56535506e-001, 7.17307270e-001 ]
      - [ 2.30307952e-001, 7.15870798e-001, 3.69492054e-001,
          2.77871937e-001, 8.04533243e-001, 5.49925208e-001,
          6.21159256e-001, 3.69492054e-001, 3.87189358e-001 ]
      - [ 4.89419430e-001, 5.37984967e-001, 5.64299524e-001,
          6.24872148e-001, 4.47846949e-001, 4.37998921e-001,
          4.32181835e-001, 5.64299524e-001, 6.45607769e-001 ]
      - [ 2.73765266e-001, 7.12213397e-001, 7.21318543e-001,
          6.16386056e-001, 4.51679468e-001, 2.55589992e-001,
          3.33636969e-001, 7.21318543e-001, 5.27928710e-001 ]
      - [ 4.90978301e-001, 5.32758653e-001, 4.06077266e-001,
          4.43575263e-001, 6.50584340e-001, 3.80060256e-001,
          5.68315804e-001, 4.06077266e-001, 6.33122206e-001 ]
      - [ 3.85279149e-001, 6.26762748e-001, 6.20407224e-001,
          6.76638126e-001, 4.22867745e-001, 3.96154761e-001,
          3.44310760e-001, 6.20407224e-001, 6.08092487e-001 ]
      - [ 4.55126643e-001, 6.42690659e-001, 5.48865139e-001,
          8.13023508e-001, 1.56361759e-001, 2.60223955e-001,
          2.75383502e-001, 5.48865139e-001, 9.00351584e-001 ]
      - [ 3.52766097e-001, 6.47697031e-001, 5.50930858e-001,
          5.89636981e-001, 4.83538151e-001, 4.39044148e-001,
          4.13759798e-001, 5.50930858e-001, 5.71578741e-001 ]
      - [ 3.91015768e-001, 6.10962749e-001, 6.82429492e-001,
          7.71381080e-001, 3.26705277e-001, 2.59668887e-001,
          2.57876009e-001, 6.82429492e-001, 5.72610199e-001 ]
      - [ 6.55562699e-001, 3.90770257e-001, 4.88883466e-001,
          6.24220014e-001, 1.42789021e-001, 3.87677103e-001,
          5.73436141e-001, 4.88883466e-001, 6.81027830e-001 ]
      - [ 6.31024301e-001, 4.49791610e-001, 3.96884054e-001,
          7.17104375e-001, 2.60337591e-001, 3.51432085e-001,
          4.09816653e-001, 3.96884054e-001, 7.94604897e-001 ]
      - [ 3.82933199e-001, 6.73056066e-001, 4.42880720e-001,
          7.83341229e-001, 3.13554317e-001, 4.33606535e-001,
          2.54688650e-001, 4.42880720e-001, 7.66026378e-001 ]
      - [ 4.68957007e-001, 5.66650033e-001, 6.83442831e-001,
          7.28326440e-001, 3.01185787e-001, 2.73878783e-001,
          3.54841977e-001, 6.83442831e-001, 6.76437855e-001 ]
      - [ 2.80625194e-001, 7.56470978e-001, 7.53962338e-001,
          7.79391527e-001, 3.18134815e-001, 1.97194099e-001,
          2.25279063e-001, 7.53962338e-001, 7.18007505e-001 ]
      - [ 6.44082546e-001, 4.41259414e-001, 5.48275054e-001,
          6.78275168e-001, 4.81141478e-001, 4.25535560e-001,
          4.72428381e-001, 5.48275054e-001, 8.06343436e-001 ]
      - [ 3.12002212e-001, 7.20620751e-001, 4.80871111e-001,
          6.52947724e-001, 3.33968848e-001, 3.43013227e-001,
          3.28115851e-001, 4.80871111e-001, 6.94481730e-001 ]
      - [ 3.97213668e-001, 6.70784950e-001, 5.22975266e-001,
          6.86613083e-001, 4.57820326e-001, 3.47627342e-001,
          3.40124637e-001, 5.22975266e-001, 8.06783974e-001 ]
      - [ 4.15012032e-001, 6.42765522e-001, 7.19990790e-001,
          8.76153767e-001, 8.89516771e-002, 1.97444811e-001,
          2.16062218e-001, 7.19990790e-001, 7.64986157e-001 ]
      - [ 4.62056845e-001, 5.80885053e-001, 7.96477556e-001,
          8.13314617e-001, 3.13081652e-001, 1.61245719e-001,
          2.24383384e-001, 7.96477556e-001, 7.02767193e-001 ]
      - [ 4.59499985e-001, 6.46689832e-001, 6.90921545e-001,
          8.92891645e-001, 7.83181861e-002, 1.30404800e-001,
          1.66958347e-001, 6.90921545e-001, 9.30017471e-001 ]
      - [ 3.71415824e-001, 6.66347623e-001, 5.12042701e-001,
          6.50554240e-001, 2.68496186e-001, 3.14717889e-001,
          3.76380503e-001, 5.12042701e-001, 7.01748550e-001 ]
      - [ 2.89598614e-001, 7.40646660e-001, 5.94417036e-001,
          7.07350969e-001, 4.38250035e-001, 3.53576332e-001,
          2.66791582e-001, 5.94417036e-001, 6.89897537e-001 ]
      - [ 5.46542764e-001, 5.10179341e-001, 6.33007705e-001,
          7.15710223e-001, 3.75414431e-001, 2.94026941e-001,
          4.05609906e-001, 6.33007705e-001, 7.33222187e-001 ]
      - [ 3.00651789e-001, 7.47557938e-001, 5.09121478e-001,
          7.26001620e-001, 2.43950889e-001, 2.51431346e-001,
          2.71532714e-001, 5.09121478e-001, 7.56278157e-001 ]
      - [ 3.35196853e-001, 6.61435843e-001, 5.44275880e-001,
          6.03800535e-001, 4.25941110e-001, 4.15024698e-001,
          4.18379873e-001, 5.44275880e-001, 5.60035288e-001 ]
      - [ 4.97665673e-001, 5.46418726e-001, 5.06112337e-001,
          6.49303734e-001, 2.88085043e-001, 3.45980674e-001,
          4.06678617e-001, 5.06112337e-001, 7.00130343e-001 ]
      - [ 5.21546125e-001, 5.92898905e-001, 4.30457205e-001,
          7.76557446e-001, 2.06960693e-001, 3.81815404e-001,
          3.19948882e-001, 4.30457205e-001, 9.39840734e-001 ]
      - [ 5.22772372e-001, 4.48777944e-001, 5.67719936e-001,
          5.16499579e-001, 4.72163796e-001, 4.34221268e-001,
          6.13853037e-001, 5.67719936e-001, 4.64408934e-001 ]
      - [ 6.46333873e-001, 4.52635288e-001, 5.29441535e-001,
          7.13309169e-001, 5.64588666e-001, 4.04587924e-001,
          3.86245579e-001, 5.29441535e-001, 8.50222826e-001 ]
      - [ 2.41963625e-001, 7.42082477e-001, 6.91599369e-001,
          6.67924285e-001, 3.83485377e-001, 2.68606275e-001,
          3.05201054e-001, 6.91599369e-001, 5.23818016e-001 ]
      - [ 5.96386015e-001, 4.34946179e-001, 4.91384566e-001,
          6.06491745e-001, 4.40147072e-001, 4.99756604e-001,
          5.21661341e-001, 4.91384566e-001, 6.42944872e-001 ]
      - [ 7.51864731e-001, 2.21816063e-001, 4.36198920e-001,
          4.79628056e-001, 4.25300330e-001, 4.73998398e-001,
          7.49430239e-001, 4.36198920e-001, 4.61648941e-001 ]
      - [ 3.42362046e-001, 6.83148682e-001, 8.47190678e-001,
          7.79998302e-001, 3.00820410e-001, 1.64594293e-001,
          2.47346580e-001, 8.47190678e-001, 6.62689447e-001 ]
      - [ 6.47256076e-001, 4.45002735e-001, 8.05966914e-001,
          8.39737177e-001, 4.47093993e-002, 5.71139678e-002,
          3.02202910e-001, 8.05966914e-001, 8.28067958e-001 ]
      - [ 4.77099419e-001, 5.67138135e-001, 7.58445501e-001,
          8.29687417e-001, 1.73210204e-001, 1.78250447e-001,
          2.78041869e-001, 7.58445501e-001, 7.04487801e-001 ]
      - [ 3.35018665e-001, 6.49766803e-001, 6.84104860e-001,
          5.36856592e-001, 6.52407050e-001, 3.05747628e-001,
          4.32863235e-001, 6.84104860e-001, 5.18702209e-001 ]
      - [ 9.40665603e-001, 1.25917584e-001, 4.24716324e-001,
          6.29856646e-001, 8.83627310e-002, 4.12161827e-001,
          6.99359834e-001, 4.24716324e-001, 6.96887553e-001 ]
      - [ 4.16780025e-001, 5.31103194e-001, 5.46606243e-001,
          4.07869607e-001, 6.35491490e-001, 4.36234087e-001,
          6.35327935e-001, 5.46606243e-001, 3.93015653e-001 ]
      - [ 3.77522349e-001, 6.43092692e-001, 3.17121506e-001,
          5.84154725e-001, 3.20959300e-001, 4.76397276e-001,
          4.42941666e-001, 3.17121506e-001, 6.39409840e-001 ]
      - [ 5.95520735e-001, 3.84544849e-001, 3.38607728e-001,
          4.39235181e-001, 4.34291601e-001, 5.02709150e-001,
          6.88600898e-001, 3.38607728e-001, 4.86737072e-001 ]
      - [ 3.33896667e-001, 6.86185896e-001, 5.53532779e-001,
          6.14256561e-001, 5.60897410e-001, 3.73521626e-001,
          4.09807682e-001, 5.53532779e-001, 6.44351840e-001 ]
      - [ 4.22920167e-001, 5.57070076e-001, 4.05144781e-001,
          5.04494190e-001, 6.78354740e-001, 5.97312510e-001,
          5.12182713e-001, 4.05144781e-001, 4.96255964e-001 ]
      - [ 3.72104675e-001, 6.75222039e-001, 4.29997087e-001,
          6.68918550e-001, 2.77747363e-001, 3.21462780e-001,
          3.38852376e-001, 4.29997087e-001, 7.36659765e-001 ]
      - [ 4.56524372e-001, 4.70867842e-001, 4.17882949e-001,
          4.00638521e-001, 6.63347185e-001, 5.71518421e-001,
          6.59987450e-001, 4.17882949e-001, 3.30218613e-001 ]
      - [ 3.24836582e-001, 6.83728993e-001, 5.39560318e-001,
          5.87997019e-001, 5.63359141e-001, 4.04790074e-001,
          4.21806604e-001, 5.39560318e-001, 6.03976727e-001 ]
      - [ 3.97137672e-001, 6.95738077e-001, 6.41041040e-001,
          8.64902854e-001, 2.22125664e-001, 1.26407012e-001,
          1.26261711e-001, 6.41041040e-001, 9.00432408e-001 ]
      - [ 8.27069342e-001, 1.01278685e-001, 1.57484815e-001,
          2.39364028e-001, 6.27212048e-001, 7.15214193e-001,
          9.52973485e-001, 1.57484815e-001, 3.42907429e-001 ]
      - [ 5.07950664e-001, 5.56322277e-001, 5.19219041e-001,
          6.95460796e-001, 2.71297723e-001, 2.35725373e-001,
          3.33263099e-001, 5.19219041e-001, 7.66930282e-001 ]
      - [ 3.75310719e-001, 5.54238141e-001, 2.16917977e-001,
          1.92843676e-001, 7.84014523e-001, 6.51274025e-001,
          7.94742465e-001, 2.16917977e-001, 3.34292978e-001 ]
      - [ 4.69882995e-001, 4.62086678e-001, 4.09553707e-001,
          2.98384696e-001, 7.87247777e-001, 4.03182715e-001,
          6.82167053e-001, 4.09553707e-001, 3.44482273e-001 ]
      - [ 6.27805114e-001, 4.41170335e-001, 5.21467924e-001,
          7.20913410e-001, 6.43342137e-002, 3.44318449e-001,
          4.41719651e-001, 5.21467924e-001, 7.57227719e-001 ]
      - [ 5.84316373e-001, 4.47847545e-001, 4.38950449e-001,
          4.63113159e-001, 5.16921341e-001, 3.36090982e-001,
          6.10647798e-001, 4.38950449e-001, 6.47324264e-001 ]
      - [ 4.59075511e-001, 5.59151590e-001, 2.27698937e-001,
          4.69766349e-001, 7.40578830e-001, 6.87345505e-001,
          5.79118669e-001, 2.27698937e-001, 6.19371235e-001 ]
      - [ 6.76528037e-001, 3.22783291e-001, 3.97210568e-001,
          4.62225348e-001, 5.57852864e-001, 5.97385943e-001,
          7.34740674e-001, 3.97210568e-001, 5.37989020e-001 ]
      - [ 6.85984969e-001, 4.34973478e-001, 6.08085990e-001,
          8.00585806e-001, 1.08337380e-001, 2.79947847e-001,
          3.87305319e-001, 6.08085990e-001, 9.11876798e-001 ]
      - [ 4.69922900e-001, 5.97328424e-001, 3.94761860e-001,
          7.55170286e-001, 0., 4.10885870e-001, 3.53437036e-001,
          3.94761860e-001, 7.86038458e-001 ]
      - [ 4.51724082e-001, 5.43123960e-001, 4.94104624e-001,
          4.63851988e-001, 4.48639780e-001, 3.42918754e-001,
          5.97838342e-001, 4.94104624e-001, 5.42771578e-001 ]
      - [ 3.12520087e-001, 6.83772981e-001, 5.06458998e-001,
          5.51771164e-001, 6.59929633e-001, 4.45666850e-001,
          4.26918000e-001, 5.06458998e-001, 5.61342955e-001 ]
      - [ 6.17590725e-001, 4.90697175e-001, 4.76331472e-001,
          7.60121167e-001, 2.15453625e-001, 3.26104462e-001,
          3.70100856e-001, 4.76331472e-001, 8.89078021e-001 ]
      - [ 4.35622424e-001, 5.61573625e-001, 3.01334143e-001,
          4.75274742e-001, 4.63323832e-001, 5.11981547e-001,
          5.37193716e-001, 3.01334143e-001, 5.51996350e-001 ]
      - [ 4.08015013e-001, 5.90093493e-001, 4.41379100e-001,
          4.72978115e-001, 4.91763979e-001, 3.75658900e-001,
          5.24834335e-001, 4.41379100e-001, 5.57744861e-001 ]
      - [ 5.30062199e-001, 4.00761127e-001, 1.81017235e-001,
          2.60383368e-001, 6.75493777e-001, 6.51862502e-001,
          8.03675950e-001, 1.81017235e-001, 3.42527360e-001 ]
      - [ 6.13999844e-001, 3.02103370e-001, 1.82928890e-001,
          1.83239803e-001, 7.59277701e-001, 6.82306051e-001,
          8.93916726e-001, 1.82928890e-001, 3.03832352e-001 ]
      - [ 6.51836812e-001, 3.30129147e-001, 3.65647584e-001,
          5.01795590e-001, 3.85561675e-001, 5.07705927e-001,
          6.47181630e-001, 3.65647584e-001, 4.89398748e-001 ]
      - [ 5.17917514e-001, 4.87156689e-001, 4.69023615e-001,
          4.81355578e-001, 4.36415523e-001, 4.41189915e-001,
          6.11151636e-001, 4.69023615e-001, 5.69398999e-001 ]
      - [ 3.97383332e-001, 5.56313574e-001, 3.30961347e-001,
          4.40315247e-001, 7.69399703e-001, 5.48259914e-001,
          5.76465666e-001, 3.30961347e-001, 4.11750585e-001 ]
      - [ 6.04561448e-001, 4.44115162e-001, 4.37179714e-001,
          6.49325073e-001, 2.73890615e-001, 3.34939152e-001,
          4.65125740e-001, 4.37179714e-001, 6.96576893e-001 ]
      - [ 4.50086206e-001, 5.29783964e-001, 1.13527581e-001,
          2.21817330e-001, 9.51013029e-001, 7.72420764e-001,
          7.83354998e-001, 1.13527581e-001, 4.94197696e-001 ]
      - [ 4.65774238e-001, 4.77416158e-001, 2.08877474e-001,
          2.90062845e-001, 7.63358057e-001, 6.47021711e-001,
          7.12266982e-001, 2.08877474e-001, 3.78484875e-001 ]
      - [ 3.19023967e-001, 6.70594633e-001, 2.55149603e-001,
          3.96766156e-001, 8.07131767e-001, 7.03708351e-001,
          5.65258443e-001, 2.55149603e-001, 5.36941707e-001 ]
      - [ 5.02253711e-001, 4.46372271e-001, 3.14826995e-001,
          2.59477109e-001, 6.49538815e-001, 6.89568579e-001,
          8.40759397e-001, 3.14826995e-001, 3.95152301e-001 ]
      - [ 4.15188462e-001, 6.18910730e-001, 7.08855569e-001,
          7.42397845e-001, 2.85969228e-001, 2.19143018e-001,
          2.95185357e-001, 7.08855569e-001, 6.80634022e-001 ]
      - [ 4.09236640e-001, 5.53228021e-001, 4.02152449e-001,
          3.79994720e-001, 6.52699113e-001, 5.00720739e-001,
          6.49641812e-001, 4.02152449e-001, 4.39827144e-001 ]
      - [ 5.56110203e-001, 4.10821915e-001, 3.86001319e-001,
          3.13869178e-001, 7.35666037e-001, 5.29421568e-001,
          7.35377252e-001, 3.86001319e-001, 4.49161708e-001 ]
      - [ 3.06883246e-001, 6.68428123e-001, 2.66006768e-001,
          3.74553651e-001, 6.53413236e-001, 6.69579923e-001,
          6.29401505e-001, 2.66006768e-001, 4.87638086e-001 ]
      - [ 3.91885638e-001, 5.39516568e-001, 4.30789143e-001,
          4.72536922e-001, 4.23871130e-001, 5.65762877e-001,
          5.92450798e-001, 4.30789143e-001, 3.40595037e-001 ]
      - [ 3.52986455e-001, 5.67037404e-001, 2.88640767e-001,
          2.20772266e-001, 8.48439455e-001, 6.02442265e-001,
          7.22747147e-001, 2.88640767e-001, 3.03012311e-001 ]
      - [ 3.66197675e-001, 6.48117065e-001, 3.54456484e-001,
          4.55189556e-001, 5.41650951e-001, 6.19819522e-001,
          6.02089047e-001, 3.54456484e-001, 6.18792295e-001 ]
      - [ 4.29940492e-001, 6.31109715e-001, 4.96237487e-001,
          5.58879316e-001, 7.87173271e-001, 3.27631205e-001,
          4.23952132e-001, 4.96237487e-001, 7.73349047e-001 ]
      - [ 5.12394011e-001, 3.84284914e-001, 4.86790508e-001,
          2.71237731e-001, 5.75798035e-001, 5.27410507e-001,
          8.26009750e-001, 4.86790508e-001, 2.43396431e-001 ]
      - [ 5.37341833e-001, 3.74388099e-001, 0., 1.81637377e-001,
          9.19380069e-001, 8.54091048e-001, 8.71529996e-001, 0.,
          2.87823260e-001 ]
      - [ 2.21083030e-001, 6.65139377e-001, 5.23711085e-001,
          3.65725070e-001, 4.55059409e-001, 5.11931777e-001,
          6.10902429e-001, 5.23711085e-001, 1.81731299e-001 ]
      - [ 3.73825073e-001, 5.52584946e-001, 5.75707853e-001,
          4.57614064e-001, 3.84011567e-001, 4.23836589e-001,
          6.17027819e-001, 5.75707853e-001, 3.24212164e-001 ]
      - [ 3.68930101e-001, 5.74155748e-001, 3.00327957e-001,
          2.93887466e-001, 6.76697850e-001, 6.37169778e-001,
          7.26667881e-001, 3.00327957e-001, 3.77565295e-001 ]
      - [ 4.96305585e-001, 5.56735396e-001, 6.05259836e-001,
          7.85516858e-001, 1.96495175e-001, 3.03190738e-001,
          3.18338633e-001, 6.05259836e-001, 7.30874121e-001 ]
      - [ 4.40333098e-001, 5.01474023e-001, 4.73881185e-001,
          2.35781997e-001, 8.84011269e-001, 4.11342204e-001,
          7.19210982e-001, 4.73881185e-001, 3.74030501e-001 ]
      - [ 4.67785895e-001, 4.88231421e-001, 3.14192295e-001,
          3.83050144e-001, 6.04683340e-001, 4.98879462e-001,
          6.52786136e-001, 3.14192295e-001, 4.18021083e-001 ]
      - [ 5.98641872e-001, 3.95053297e-001, 3.11742634e-001,
          6.38369441e-001, 1.51764423e-001, 4.90656495e-001,
          4.97776479e-001, 3.11742634e-001, 5.27233541e-001 ]
      - [ 3.18473965e-001, 7.22492695e-001, 6.01510525e-001,
          6.83583021e-001, 4.66820925e-001, 4.28438455e-001,
          3.14321965e-001, 6.01510525e-001, 7.24599779e-001 ]
      - [ 3.59809816e-001, 5.55253148e-001, 2.43896201e-001,
          4.17395771e-001, 5.51720023e-001, 5.99011362e-001,
          5.87892592e-001, 2.43896201e-001, 2.87753373e-001 ]
      - [ 5.30675113e-001, 4.18938905e-001, 3.82999063e-001,
          4.33232248e-001, 5.55827141e-001, 4.52544451e-001,
          6.15960896e-001, 3.82999063e-001, 3.97978842e-001 ]
      - [ 5.50358474e-001, 4.72968876e-001, 4.49475855e-001,
          7.15264380e-001, 9.69438776e-002, 3.40213358e-001,
          4.12269682e-001, 4.49475855e-001, 6.23962700e-001 ]
      - [ 4.50364232e-001, 5.03342688e-001, 4.11377311e-001,
          4.71967340e-001, 6.70327783e-001, 5.36028087e-001,
          5.88741660e-001, 4.11377311e-001, 4.11107183e-001 ]
      - [ 4.11615938e-001, 5.49745381e-001, 2.46774301e-001,
          3.29740614e-001, 6.15209401e-001, 7.32884765e-001,
          7.29951143e-001, 2.46774301e-001, 4.36214387e-001 ]
      - [ 3.47579569e-001, 6.37944937e-001, 3.10766995e-001,
          4.00279433e-001, 8.08148682e-001, 5.25840640e-001,
          5.84476650e-001, 3.10766995e-001, 5.20217538e-001 ]
      - [ 2.78222382e-001, 6.59646511e-001, 5.13088226e-001,
          4.98594731e-001, 4.15944964e-001, 4.73786980e-001,
          5.17845511e-001, 5.13088226e-001, 3.59014452e-001 ]
      - [ 5.43943703e-001, 3.77375424e-001, 2.72654116e-001,
          1.94451883e-001, 7.59335041e-001, 6.61051512e-001,
          9.13598418e-001, 2.72654116e-001, 3.15559030e-001 ]
      - [ 4.51581836e-001, 5.60575247e-001, 3.55754465e-001,
          4.97944832e-001, 6.54348433e-001, 5.32328904e-001,
          5.51172256e-001, 3.55754465e-001, 6.00026786e-001 ]
      - [ 4.00996268e-001, 5.65027893e-001, 4.22596902e-001,
          3.90163690e-001, 6.04204178e-001, 5.33511043e-001,
          6.77085221e-001, 4.22596902e-001, 4.51666474e-001 ]
      - [ 2.73607314e-001, 6.64165437e-001, 1.61046311e-001,
          2.48306021e-001, 8.72739732e-001, 7.66709745e-001,
          6.46824777e-001, 1.61046311e-001, 3.58601928e-001 ]
      - [ 6.61619306e-001, 3.84719402e-001, 3.44744623e-001,
          6.04882300e-001, 6.05389476e-001, 5.35628438e-001,
          5.40956676e-001, 3.44744623e-001, 6.80037737e-001 ]
      - [ 2.91887373e-001, 7.08969116e-001, 7.45410502e-001,
          6.78195477e-001, 5.23758888e-001, 3.12408328e-001,
          3.16556245e-001, 7.45410502e-001, 5.80203950e-001 ]
      - [ 3.83562297e-001, 6.17619514e-001, 2.69343317e-001,
          4.77483183e-001, 9.09671247e-001, 5.60898006e-001,
          4.84761745e-001, 2.69343317e-001, 5.70695937e-001 ]
      - [ 3.20011407e-001, 6.70493126e-001, 6.11247778e-001,
          6.94595456e-001, 5.03085256e-001, 3.50095630e-001,
          3.25484365e-001, 6.11247778e-001, 5.39959550e-001 ]
      - [ 8.26065317e-002, 8.73717725e-001, 5.77383041e-001,
          5.89603305e-001, 5.77193320e-001, 4.62835938e-001,
          3.26298475e-001, 5.77383041e-001, 4.27056164e-001 ]
      - [ 5.46931148e-001, 4.40681279e-001, 6.04542851e-001,
          5.80138922e-001, 4.34814662e-001, 4.46372986e-001,
          5.75593293e-001, 6.04542851e-001, 5.12309730e-001 ]
      - [ 4.61644083e-001, 5.57419181e-001, 4.08013314e-001,
          5.29114008e-001, 6.70743585e-001, 5.30369759e-001,
          5.17930686e-001, 4.08013314e-001, 6.21767879e-001 ]
      - [ 3.77828091e-001, 6.44543707e-001, 4.86728758e-001,
          6.49583638e-001, 5.96439600e-001, 4.43633109e-001,
          3.58408570e-001, 4.86728758e-001, 6.45485520e-001 ]
      - [ 3.56866956e-001, 6.55588269e-001, 4.85491931e-001,
          6.42497540e-001, 6.13123000e-001, 4.39545482e-001,
          3.68492395e-001, 4.85491931e-001, 6.13382757e-001 ]
      - [ 7.39164770e-001, 3.01569670e-001, 5.87982237e-001,
          6.53302372e-001, 4.40745801e-001, 3.70255321e-001,
          5.68735361e-001, 5.87982237e-001, 6.52082145e-001 ]
      - [ 5.93582034e-001, 2.67374337e-001, 3.34298134e-001,
          1.83654875e-001, 5.94911516e-001, 1., 9.59255815e-001,
          3.34298134e-001, 1.53781757e-001 ]
      - [ 5.90192437e-001, 4.47192758e-001, 4.87815440e-001,
          6.30469084e-001, 5.86250722e-001, 4.50987548e-001,
          4.78960872e-001, 4.87815440e-001, 6.63000166e-001 ]
      - [ 5.14478624e-001, 5.83228528e-001, 5.24414480e-001,
          6.99780583e-001, 5.31758249e-001, 3.62007082e-001,
          4.03983504e-001, 5.24414480e-001, 8.81984353e-001 ]
      - [ 1.55729786e-001, 8.95818591e-001, 5.46994865e-001,
          7.31864631e-001, 6.40266836e-001, 3.91579390e-001,
          1.51040480e-001, 5.46994865e-001, 8.09483469e-001 ]
      - [ 6.97886944e-001, 3.82026225e-001, 6.35185599e-001,
          6.60751522e-001, 4.62201297e-001, 3.57677609e-001,
          5.32525241e-001, 6.35185599e-001, 7.77449608e-001 ]
      - [ 3.40822637e-001, 6.49702132e-001, 3.77407312e-001,
          5.91856182e-001, 5.94399989e-001, 5.50810993e-001,
          4.24634427e-001, 3.77407312e-001, 5.38068891e-001 ]
      - [ 4.68513638e-001, 5.27097642e-001, 4.58435833e-001,
          5.99496841e-001, 6.05390131e-001, 4.84235168e-001,
          4.63072568e-001, 4.58435833e-001, 5.43668211e-001 ]
      - [ 7.06667542e-001, 2.67759770e-001, 4.03488964e-001,
          4.99428213e-001, 4.62449700e-001, 5.65830529e-001,
          7.34481573e-001, 4.03488964e-001, 4.65477884e-001 ]
      - [ 2.14062974e-001, 8.42521012e-001, 5.85781932e-001,
          7.66131520e-001, 6.23766899e-001, 2.87654757e-001,
          1.48303226e-001, 5.85781932e-001, 8.13150346e-001 ]
      - [ 2.47470036e-001, 6.77588165e-001, 4.47431684e-001,
          4.98833627e-001, 5.44737816e-001, 5.70411086e-001,
          5.12715280e-001, 4.47431684e-001, 3.14369768e-001 ]
      - [ 6.74556971e-001, 3.72427315e-001, 5.45620680e-001,
          6.51738763e-001, 3.95531654e-001, 4.60883617e-001,
          5.72747588e-001, 5.45620680e-001, 6.80021882e-001 ]
      - [ 4.80003417e-001, 5.33686161e-001, 4.63162303e-001,
          6.34844720e-001, 7.03292310e-001, 4.50559974e-001,
          3.79016459e-001, 4.63162303e-001, 6.01522028e-001 ]
      - [ 8.63488913e-001, 2.05183238e-001, 3.83689731e-001,
          5.90820551e-001, 5.82798183e-001, 4.99207765e-001,
          6.52125359e-001, 3.83689731e-001, 7.14201629e-001 ]
      - [ 4.68419582e-001, 5.68879783e-001, 6.15698636e-001,
          6.73891723e-001, 5.56852400e-001, 3.55420083e-001,
          3.79180521e-001, 6.15698636e-001, 6.82350516e-001 ]
      - [ 4.15549070e-001, 6.19847953e-001, 5.28938830e-001,
          6.41388595e-001, 5.60848117e-001, 4.80666548e-001,
          4.26233023e-001, 5.28938830e-001, 6.85069442e-001 ]
      - [ 3.08553040e-001, 7.35511601e-001, 6.43931806e-001,
          7.02932715e-001, 5.84407866e-001, 3.22834283e-001,
          2.91941553e-001, 6.43931806e-001, 7.38552749e-001 ]
      - [ 2.52376348e-001, 7.13612378e-001, 6.62841618e-001,
          6.18126273e-001, 5.73916137e-001, 2.63360560e-001,
          3.67471188e-001, 6.62841618e-001, 4.57424968e-001 ]
      - [ 7.46521771e-001, 2.99719453e-001, 4.11371261e-001,
          5.77120841e-001, 7.69290984e-001, 4.99938697e-001,
          5.49908102e-001, 4.11371261e-001, 6.67190671e-001 ]
      - [ 4.21159863e-001, 5.80249846e-001, 6.18661404e-001,
          6.39731348e-001, 5.11202037e-001, 4.22295094e-001,
          4.11916435e-001, 6.18661404e-001, 5.67423820e-001 ]
      - [ 4.77260172e-001, 5.04512072e-001, 5.92946768e-001,
          5.75326025e-001, 4.90536243e-001, 4.68505114e-001,
          5.31688690e-001, 5.92946768e-001, 4.98580158e-001 ]
      - [ 6.46963656e-001, 3.85449052e-001, 5.29176950e-001,
          5.64035654e-001, 5.55167675e-001, 5.34696996e-001,
          5.86042047e-001, 5.29176950e-001, 6.39496386e-001 ]
      - [ 5.00834346e-001, 4.76038843e-001, 5.94180942e-001,
          5.98059714e-001, 5.57745516e-001, 3.54540408e-001,
          4.83722597e-001, 5.94180942e-001, 4.81826723e-001 ]
      - [ 4.83539522e-001, 5.08836567e-001, 5.01350641e-001,
          5.89762986e-001, 5.36844492e-001, 4.83670324e-001,
          4.99011964e-001, 5.01350641e-001, 5.31949997e-001 ]
      - [ 2.86218107e-001, 6.99043274e-001, 6.21919215e-001,
          6.77372932e-001, 2.29340598e-001, 3.49645764e-001,
          3.72242808e-001, 6.21919215e-001, 5.24249494e-001 ]
      - [ 4.64148670e-001, 4.83594626e-001, 1.66714370e-001,
          3.77216339e-001, 8.78925025e-001, 7.03052998e-001,
          6.47571623e-001, 1.66714370e-001, 3.92412037e-001 ]
      - [ 5.07672012e-001, 5.31400204e-001, 3.29514503e-001,
          5.73301017e-001, 8.03416610e-001, 4.58805948e-001,
          4.43158656e-001, 3.29514503e-001, 6.81629539e-001 ]
      - [ 3.94792974e-001, 6.09008372e-001, 3.96751225e-001,
          6.08291447e-001, 5.95143020e-001, 3.74881446e-001,
          3.97676080e-001, 3.96751225e-001, 5.78384697e-001 ]
      - [ 6.83693171e-001, 4.09253716e-001, 3.48602861e-001,
          5.20067513e-001, 8.26490879e-001, 5.15144527e-001,
          5.90898812e-001, 3.48602861e-001, 8.21658909e-001 ]
      - [ 4.63904232e-001, 5.24905622e-001, 3.78678650e-001,
          5.91687024e-001, 4.91832048e-001, 5.30914605e-001,
          4.92268801e-001, 3.78678650e-001, 5.21988451e-001 ]
      - [ 5.62201023e-001, 4.25873518e-001, 2.73957849e-001,
          3.81896794e-001, 6.95322990e-001, 5.55500507e-001,
          7.36279190e-001, 2.73957849e-001, 5.12658894e-001 ]
      - [ 3.66956890e-001, 6.42382145e-001, 4.91891026e-001,
          6.78339839e-001, 5.52548826e-001, 4.07253593e-001,
          3.22851121e-001, 4.91891026e-001, 6.00994408e-001 ]
      - [ 5.35988808e-001, 2.99948156e-001, 3.35377678e-002,
          1.31630912e-001, 7.36299992e-001, 8.65786672e-001,
          9.83136237e-001, 3.35377678e-002, 7.99357370e-002 ]
      - [ 4.14581925e-001, 5.68316579e-001, 6.25970781e-001,
          6.64562345e-001, 2.55689293e-001, 3.50062430e-001,
          4.25161600e-001, 6.25970781e-001, 5.06273925e-001 ]
      - [ 4.60450143e-001, 5.43374777e-001, 3.81773025e-001,
          5.71428895e-001, 8.03088367e-001, 4.74549204e-001,
          4.29140627e-001, 3.81773025e-001, 5.71261942e-001 ]
      - [ 2.72992522e-001, 6.46376908e-001, 4.51557040e-001,
          4.53718305e-001, 7.36480594e-001, 4.74444449e-001,
          5.31033337e-001, 4.51557040e-001, 2.96481520e-001 ]
      - [ 5.64270377e-001, 3.97282004e-001, 5.64273536e-001,
          4.58919913e-001, 6.52160585e-001, 3.68879765e-001,
          6.83640122e-001, 5.64273536e-001, 4.32850391e-001 ]
      - [ 2.45297134e-001, 7.54223764e-001, 3.34646732e-001,
          5.55292726e-001, 8.39817107e-001, 4.90445018e-001,
          3.71501327e-001, 3.34646732e-001, 5.80959618e-001 ]
      - [ 3.77630770e-001, 5.99274337e-001, 1.89763770e-001,
          4.56470728e-001, 8.72199595e-001, 6.55527949e-001,
          5.26671469e-001, 1.89763770e-001, 4.88656193e-001 ]
      - [ 6.22215211e-001, 3.93552184e-001, 4.88023430e-001,
          6.66437507e-001, 5.35071790e-001, 3.89720738e-001,
          4.49491203e-001, 4.88023430e-001, 5.91710210e-001 ]
      - [ 3.17554951e-001, 7.19240069e-001, 3.59847784e-001,
          5.90465724e-001, 6.26254797e-001, 5.39755702e-001,
          4.06926066e-001, 3.59847784e-001, 7.09003031e-001 ]
      - [ 4.44007218e-001, 4.80400562e-001, 3.13944817e-001,
          3.98074657e-001, 6.92601919e-001, 6.29815698e-001,
          6.63144290e-001, 3.13944817e-001, 3.20656002e-001 ]
      - [ 7.04849601e-001, 2.75233209e-001, 3.19728345e-001,
          5.00948489e-001, 5.55399001e-001, 5.73051691e-001,
          6.73119664e-001, 3.19728345e-001, 4.81292933e-001 ]
      - [ 5.68775117e-001, 4.51385409e-001, 4.34171706e-001,
          5.89202821e-001, 5.91324627e-001, 5.21379352e-001,
          5.02129376e-001, 4.34171706e-001, 6.11448765e-001 ]
      - [ 5.38314939e-001, 4.76630449e-001, 4.26422387e-001,
          6.11174405e-001, 5.57278633e-001, 4.77521628e-001,
          5.14532685e-001, 4.26422387e-001, 5.98580003e-001 ]
      - [ 5.64231038e-001, 4.30356115e-001, 2.78892696e-001,
          4.64305639e-001, 7.73068786e-001, 5.90036690e-001,
          6.24845088e-001, 2.78892696e-001, 5.32426000e-001 ]
   decision_functions:
      -
         sv_count: 32
         rho: 4.5570896201018094e+000
         alpha: [ 3.1250000000000000e+002, 3.6175994815822897e+001,
             5.7157884083107389e+000, 9.0691917372577379e+001,
             3.0315320915836810e+002, 5.3297729054828409e+001,
             3.3817307737476774e+001, 3.1250000000000000e+002,
             3.1250000000000000e+002, 3.1250000000000000e+002,
             3.1250000000000000e+002, 1.6377949966841118e+002,
             1.9590313938965801e+002, 3.1250000000000000e+002,
             1.4693426456962604e+002, 2.7449144241404673e+002,
             -7.1264706660435721e+001, -8.5592114663865971e+001,
             -3.1250000000000000e+002, -3.9683796665229963e+001,
             -1.3453815408091458e+002, -2.1079895321760438e+002,
             -2.6413757547072109e+001, -2.7861770310368553e+002,
             -3.1250000000000000e+002, -3.1250000000000000e+002,
             -3.1250000000000000e+002, -1.6776288788491320e+002,
             -2.8831798116244670e+002, -9.7023760295810990e-001,
             -3.1250000000000000e+002, -3.1250000000000000e+002 ]
         index: [ 3, 4, 5, 7, 8, 9, 11, 12, 13, 14, 15, 16, 18, 20, 21,
             22, 24, 26, 28, 30, 32, 33, 36, 38, 42, 43, 45, 46, 55, 57,
             58, 59 ]
      -
         sv_count: 12
         rho: -3.4179599411970041e-001
         alpha: [ 2.7686317006669799e+002, 2.9125640936079492e+002,
             1.3856802552313539e+002, 7.0461567783206576e+001,
             5.9132866656641617e+001, 2.3886974032736656e+000,
             6.0964530837913316e+001, -3.1250000000000000e+002,
             -1.9917204223723039e+002, -7.6134679183799776e+001,
             -1.5323870158705239e+002, -1.5858984462358029e+002 ]
         index: [ 5, 8, 11, 12, 13, 20, 21, 62, 76, 83, 84, 87 ]
      -
         sv_count: 19
         rho: -8.4481375324058627e-001
         alpha: [ 3.1250000000000000e+002, 1.7100368979070504e+002,
             1.3648403127834367e+001, 4.1164368479043723e+001,
             3.1250000000000000e+002, 2.0071381887920188e+002,
             3.1250000000000000e+002, 9.9746351557275261e+001,
             3.1250000000000000e+002, 3.2685979045409688e+001,
             -3.1250000000000000e+002, -3.1250000000000000e+002,
             -3.1250000000000000e+002, -8.2603880535635142e+001,
             -6.7996176149709342e+001, -1.0008574432018222e+002,
             -3.1250000000000000e+002, -1.4627177272966242e+002,
             -1.6200503714428066e+002 ]
         index: [ 5, 7, 8, 12, 14, 15, 16, 19, 20, 22, 90, 95, 99, 100,
             103, 104, 112, 115, 120 ]
      -
         sv_count: 20
         rho: 6.0087625953840327e+000
         alpha: [ 3.8995792596191339e+000, 6.5379480989257559e+001,
             1.6493738167887696e+002, 6.8927583190350887e+001,
             1.8959317719174092e+002, 3.1250000000000000e+002,
             3.0193862823287213e+002, 3.1250000000000000e+002,
             8.8118050750395341e+001, 2.0361509832991166e+002,
             -2.2917607605178853e+002, -1.1178492547483600e+001,
             -3.1250000000000000e+002, -1.6573982197361065e+001,
             -9.5710235052773484e+001, -3.1250000000000000e+002,
             -2.3262487410625226e+001, -3.1250000000000000e+002,
             -1.1631903960279507e+002, -2.8168866676019752e+002 ]
         index: [ 2, 3, 5, 7, 8, 12, 14, 20, 21, 22, 126, 127, 133, 136,
             140, 143, 145, 149, 150, 152 ]
      -
         sv_count: 29
         rho: -2.6277924032755866e+000
         alpha: [ 3.5766539733651975e+001, 1.3652196524938708e+002,
             3.1250000000000000e+002, 3.8452711478827318e+001,
             3.1250000000000000e+002, 3.0144866302171220e+001,
             2.9511629702353503e+002, 1.3434220859240853e+002,
             1.7386480702871623e+002, 2.4372339869249366e+001,
             3.1250000000000000e+002, 3.1250000000000000e+002,
             3.1250000000000000e+002, 3.1250000000000000e+002,
             -3.1250000000000000e+002, -9.5489819228450017e+001,
             -3.1250000000000000e+002, -2.5549355116152688e+002,
             -3.5311658111652235e+001, -9.0456938833344296e+000,
             -2.5259798789892699e+002, -1.7557507305998811e+002,
             -1.6705760142375161e+002, -1.9131308443465724e+002,
             -1.0850339032840833e+002, -3.1250000000000000e+002,
             -2.0079506261587241e+002, -3.1250000000000000e+002,
             -2.3988131313782510e+000 ]
         index: [ 0, 1, 5, 6, 7, 9, 10, 12, 13, 15, 16, 17, 19, 22, 156,
             157, 158, 159, 160, 165, 167, 168, 173, 174, 178, 180, 181,
             183, 184 ]
      -
         sv_count: 15
         rho: 2.4916524198985641e+000
         alpha: [ 7.4188965049088068e+001, 8.9567146803049368e+001,
             2.6468964540821264e+002, 1.1565089751883774e-001,
             2.2420727346118812e+002, 9.8022923346186303e+001,
             5.7328950052689606e+001, -8.5133555002411711e+001,
             -3.5997547428601507e+001, -6.5526052888066786e+001,
             -6.6234612526406433e+000, -7.3195274688979993e+001,
             -2.8573570465615319e+002, -5.9785893377216567e+001,
             -1.9612306572386265e+002 ]
         index: [ 3, 5, 7, 10, 12, 20, 22, 188, 190, 192, 195, 197, 199,
             200, 204 ]
      -
         sv_count: 32
         rho: 1.7902522444641329e+000
         alpha: [ 2.4869570884465097e+002, 3.1250000000000000e+002,
             3.1250000000000000e+002, 1.3805462471678436e+002,
             3.1250000000000000e+002, 3.1250000000000000e+002,
             2.9323593501745785e+002, 2.3176117586836844e+002,
             1.5208185419051236e+002, 3.1250000000000000e+002,
             1.0830773303851331e+002, 8.3113912873078277e+001,
             3.1250000000000000e+002, 3.1250000000000000e+002,
             1.2645511342858929e+002, -3.1250000000000000e+002,
             -3.1250000000000000e+002, -4.8857499087878274e+001,
             -1.3890660777452425e+002, -1.8659195516241891e+002,
             -3.1250000000000000e+002, -3.1250000000000000e+002,
             -4.4261536355791009e+001, -3.1250000000000000e+002,
             -3.1250000000000000e+002, -3.1250000000000000e+002,
             -1.0738720231425646e+001, -3.1250000000000000e+002,
             -7.8511730865970819e+001, -1.5542393553413558e+002,
             -3.1250000000000000e+002, -9.3414072965810490e+001 ]
         index: [ 26, 27, 29, 31, 37, 39, 40, 41, 42, 44, 48, 50, 54, 57,
             58, 60, 62, 67, 68, 69, 70, 71, 75, 76, 77, 79, 80, 82, 83,
             84, 85, 87 ]
      -
         sv_count: 44
         rho: 1.2450298321145450e+000
         alpha: [ 3.1250000000000000e+002, 3.1250000000000000e+002,
             1.1267823540166012e+002, 3.1250000000000000e+002,
             1.4636610039126185e+002, 4.8570933076748723e+001,
             3.1250000000000000e+002, 3.1250000000000000e+002,
             6.5765436281654559e+001, 1.7426842860207861e+002,
             2.1322420967698494e+002, 2.0245678695408688e+002,
             1.5995500445668284e+002, 2.6275974088450294e+001,
             3.0930836998433404e+002, 2.2040829973987434e+002,
             7.3747144901491538e+001, 3.1250000000000000e+002,
             4.3069819451522228e+001, 1.0647531199573829e+002,
             6.1896063802081464e+001, 2.2070321939755482e+002,
             2.1159790857346302e+001, 3.1250000000000000e+002,
             -3.1250000000000000e+002, -3.1250000000000000e+002,
             -6.8350789521659706e+001, -3.1250000000000000e+002,
             -2.2529772163227797e+001, -3.1250000000000000e+002,
             -2.1859800248190280e+002, -4.8538141065473802e+001,
             -3.1250000000000000e+002, -3.1250000000000000e+002,
             -3.0621625442203032e+002, -3.1250000000000000e+002,
             -3.1250000000000000e+002, -3.6492200097999188e+000,
             -3.1250000000000000e+002, -2.2583710290181494e+002,
             -2.9359785405133397e+002, -7.6589364973450131e+001,
             -3.1250000000000000e+002, -4.9226274688581393e+000 ]
         index: [ 23, 24, 25, 26, 27, 29, 30, 31, 34, 35, 36, 39, 40, 44,
             45, 46, 47, 48, 50, 51, 52, 55, 58, 59, 90, 92, 93, 95, 96,
             99, 100, 101, 103, 104, 106, 107, 108, 109, 112, 114, 115,
             117, 119, 122 ]
      -
         sv_count: 48
         rho: 4.5739651789900275e+000
         alpha: [ 1.1770838116903414e+002, 3.1250000000000000e+002,
             3.1202934775208480e+001, 1.1213264774612658e+002,
             2.0773666784030331e+002, 4.4863132902145665e+001,
             3.1250000000000000e+002, 3.1250000000000000e+002,
             7.1730461229082350e+000, 8.4906850616549328e+000,
             1.1636570920290772e+002, 4.9302546487093188e+001,
             1.3224232211217662e+002, 3.1250000000000000e+002,
             3.1250000000000000e+002, 1.9949694673145095e+002,
             3.1250000000000000e+002, 1.9847640034877369e+001,
             1.8925879914714673e+002, 3.1250000000000000e+002,
             1.7923177459155227e+002, 2.8014993715408483e+001,
             1.5785183797254705e+001, 7.9659118452754015e+001,
             1.4397658996035375e+002, 1.6597975059805967e+002,
             -1.1958509365465508e+002, -3.1250000000000000e+002,
             -3.1250000000000000e+002, -1.7957522155455138e+002,
             -2.7948666488168811e+002, -1.5944577535237519e+002,
             -3.1250000000000000e+002, -2.9061311504156026e+002,
             -3.0056032605686873e+001, -2.4951447295046098e+001,
             -5.9860463563408388e+001, -1.7625861442523893e+002,
             -3.1250000000000000e+002, -3.1250000000000000e+002,
             -4.9164257933379339e+001, -3.1250000000000000e+002,
             -1.3085245389022396e+002, -7.3933235381456683e+001,
             -4.8654261003831927e+001, -3.1250000000000000e+002,
             -1.6163138594819191e+002, -6.4400847917122178e+001 ]
         index: [ 23, 24, 27, 29, 31, 33, 35, 36, 37, 38, 39, 40, 43, 44,
             46, 47, 48, 49, 50, 51, 52, 53, 54, 55, 56, 59, 125, 126,
             127, 128, 129, 131, 132, 133, 134, 136, 137, 139, 140, 141,
             142, 143, 145, 149, 150, 152, 153, 154 ]
      -
         sv_count: 22
         rho: 1.9496721612620522e+000
         alpha: [ 3.1250000000000000e+002, 1.1347490648901515e+002,
             3.7548788585890705e+001, 1.7927209758637170e+002,
             6.5118025185457151e+000, 3.1250000000000000e+002,
             3.1250000000000000e+002, 2.1481995714318995e+001,
             4.2986300235955028e+001, -5.4931504414965119e+001,
             -5.1584284912367423e+001, -3.1250000000000000e+002,
             -3.1250000000000000e+002, -1.1486636135655404e+001,
             -5.0474828037929989e+001, -3.1250000000000000e+002,
             -6.0371313631211812e+001, -8.5240504789761061e+001,
             -2.1385591990820519e+001, -1.2503440571667749e+001,
             -4.7821660424382479e+001, -5.4761262213353419e+000 ]
         index: [ 27, 31, 33, 36, 42, 43, 45, 47, 48, 156, 158, 160, 167,
             168, 169, 170, 172, 173, 175, 178, 180, 183 ]
      -
         sv_count: 19
         rho: 2.0901146230663373e-002
         alpha: [ 1.0327514954169389e+002, 1.7670086024923293e+002,
             4.2193185803744335e+001, 2.6542451463649655e+002,
             3.1250000000000000e+002, 5.0390876825983263e+001,
             3.2134549407250852e+001, 1.6347875748437954e+002,
             7.7681334930493662e+001, 1.8883809273359208e+001,
             -1.5584724650968553e+002, -1.2073361234672235e+002,
             -3.1250000000000000e+002, -7.3260490817091025e+001,
             -1.1928753740271073e+001, -9.1425960142583392e+001,
             -1.5467732718246245e+001, -3.1250000000000000e+002,
             -1.4899924187803438e+002 ]
         index: [ 23, 24, 27, 31, 36, 38, 42, 44, 45, 48, 188, 193, 194,
             195, 196, 197, 200, 204, 207 ]
      -
         sv_count: 26
         rho: 4.1560765558863428e+000
         alpha: [ 2.1453891088680257e+002, 2.7202294063676550e+002,
             3.1250000000000000e+002, 3.1250000000000000e+002,
             2.7912413637443245e+002, 8.8352798924611463e+001,
             2.1804269135717360e+002, 7.9287723077619319e+001,
             3.1250000000000000e+002, 3.1250000000000000e+002,
             3.0655308202553467e+001, 6.2914433550800567e+001,
             1.5907695199030999e+002, 1.2757885509661858e+002,
             -3.1250000000000000e+002, -3.1250000000000000e+002,
             -1.0834178005728010e+002, -3.1250000000000000e+002,
             -2.5847522149071199e+002, -3.1250000000000000e+002,
             -7.4330902570040124e+001, -2.8276577235608994e+002,
             -1.7892932025742732e+002, -3.1250000000000000e+002,
             -1.8422108935747789e+002, -1.3203066400865987e+002 ]
         index: [ 61, 62, 64, 65, 70, 71, 74, 78, 80, 81, 82, 83, 86, 88,
             95, 97, 99, 100, 102, 105, 108, 109, 110, 113, 118, 119 ]
      -
         sv_count: 23
         rho: 4.9394073172339112e+000
         alpha: [ 3.1250000000000000e+002, 1.0336176220188126e+002,
             1.3410814351272487e+002, 1.1025647630304120e+002,
             1.0012868363456090e+002, 1.5998296568617832e+001,
             2.9895854634324564e+001, 2.0762637617416021e+002,
             2.4106811209539664e+001, 5.4867654924559034e+001,
             3.1250000000000000e+002, 3.2807894931243453e+001,
             1.0546403772298849e+002, 2.5365206210045205e+001,
             4.6928994555957452e+001, -3.1250000000000000e+002,
             -3.2975502166006187e+001, -9.9968802691323333e+001,
             -3.1250000000000000e+002, -3.1250000000000000e+002,
             -2.7754082198059598e+002, -1.1150745982968049e+002,
             -1.5642360591603779e+002 ]
         index: [ 62, 63, 64, 65, 66, 70, 71, 72, 73, 75, 79, 80, 82, 88,
             89, 126, 133, 137, 139, 143, 146, 150, 152 ]
      -
         sv_count: 24
         rho: 1.0650216614796861e+000
         alpha: [ 2.8685523578070622e+001, 2.9324583477408709e+002,
             3.1250000000000000e+002, 8.5544629391032068e+000,
             3.1250000000000000e+002, 3.1250000000000000e+002,
             3.1250000000000000e+002, 3.1250000000000000e+002,
             5.6243673127408002e+001, -7.0053101291259722e+001,
             -1.2410887816598770e+002, -3.1250000000000000e+002,
             -3.0569017209894650e+001, -3.7478476661212483e+001,
             -7.4988221613516458e+001, -3.1250000000000000e+002,
             -1.2841801419513325e+002, -2.9711836968385887e+002,
             -4.5729863985327249e+001, -3.1250000000000000e+002,
             -1.5365884076074220e+001, -6.2917733045074563e+001,
             -8.8487547662080928e+001, -3.6494386829249194e+001 ]
         index: [ 60, 62, 69, 77, 82, 83, 85, 86, 87, 155, 158, 160, 162,
             164, 166, 167, 169, 172, 174, 175, 177, 178, 183, 187 ]
      -
         sv_count: 14
         rho: 3.2276285731534755e+000
         alpha: [ 9.0679862436433098e+001, 2.1325935314498383e+002,
             9.0997457669584250e+001, 1.6627785764401175e+001,
             3.1250000000000000e+002, 3.1250000000000000e+002,
             5.6029412965877064e+001, 3.8953441085078218e+001,
             -2.5645369326480375e+002, -2.7660586295256434e+002,
             -3.1250000000000000e+002, -1.7891405268500031e+002,
             -1.4003598818719505e+001, -9.3070105345270179e+001 ]
         index: [ 62, 63, 66, 70, 79, 82, 84, 86, 188, 195, 197, 200,
             204, 207 ]
      -
         sv_count: 52
         rho: 2.0514755618046339e+000
         alpha: [ 3.1250000000000000e+002, 2.3155150174081120e+002,
             9.5725920192522427e+000, 3.1250000000000000e+002,
             3.1250000000000000e+002, 3.1250000000000000e+002,
             3.1250000000000000e+002, 1.4716894075507190e+002,
             3.1250000000000000e+002, 3.1250000000000000e+002,
             2.9431060314106298e+002, 3.1250000000000000e+002,
             4.8677584326689045e+000, 1.0151850839654874e+002,
             1.0247731148236153e+002, 1.0316346025513174e+002,
             3.6733168070624522e+001, 3.1250000000000000e+002,
             3.1250000000000000e+002, 8.4003675808416816e+001,
             3.1250000000000000e+002, 3.1250000000000000e+002,
             3.1250000000000000e+002, -3.1250000000000000e+002,
             -1.7022726605935804e+002, -8.7498149849567497e+001,
             -1.9732115197629105e+002, -3.1250000000000000e+002,
             -2.5700653672921379e+002, -3.3893874439188529e+001,
             -1.9522671511959185e+001, -3.1250000000000000e+002,
             -1.8021619879967741e+002, -5.9357999632791234e+001,
             -3.1058742998052395e+002, -6.7983853189114797e+001,
             -2.1546398264287348e+001, -2.5730053707855038e+000,
             -1.6639008501460361e+002, -1.7232662533941243e+002,
             -3.1250000000000000e+002, -7.4212155047642966e+001,
             -3.1250000000000000e+002, -3.1250000000000000e+002,
             -3.1250000000000000e+002, -3.1250000000000000e+002,
             -2.3529568320350656e+001, -2.8295586095767663e+002,
             -1.4446538670275185e+001, -2.1536468733027829e+002,
             -3.1250000000000000e+002, -8.4074636189524856e+000 ]
         index: [ 92, 93, 94, 95, 96, 98, 99, 100, 103, 104, 105, 107,
             110, 111, 112, 114, 115, 116, 117, 118, 119, 120, 122, 123,
             124, 125, 126, 127, 128, 129, 131, 132, 133, 134, 135, 136,
             137, 138, 139, 140, 141, 142, 143, 145, 146, 147, 148, 149,
             150, 151, 152, 153 ]
      -
         sv_count: 22
         rho: 7.8805987125925023e+000
         alpha: [ 8.0830876271899839e+001, 4.5389706830745709e+001,
             3.1250000000000000e+002, 3.1250000000000000e+002,
             1.0148001510551287e+001, 3.7414430512505696e+001,
             1.2175842328548151e+002, 2.5049149506785545e+002,
             1.4774680924987628e+001, 3.1250000000000000e+002,
             7.3538121289959065e+001, 1.0273219689026591e+002,
             -2.3210856728192095e+002, -3.1250000000000000e+002,
             -1.6618647638493218e+001, -5.8307287046284046e+001,
             -3.1250000000000000e+002, -1.8703248998961649e+002,
             -3.1250000000000000e+002, -3.7456809509366892e+001,
             -1.8746914710212920e+002, -1.8084984016441037e+001 ]
         index: [ 90, 91, 95, 96, 99, 100, 107, 108, 109, 112, 118, 120,
             157, 161, 165, 167, 172, 174, 179, 180, 181, 185 ]
      -
         sv_count: 28
         rho: 2.8655059142739829e+000
         alpha: [ 4.9005475045088687e+001, 2.7576813664455040e+002,
             3.1097249838536828e+002, 6.8060672545463259e+000,
             3.1250000000000000e+002, 2.7119142107262181e+001,
             8.0417270520855055e+000, 4.5713565034434829e+001,
             1.2204655846945089e+002, 3.0074514466161531e+002,
             5.4497667160312339e+001, 1.2356300460205122e+002,
             3.1250000000000000e+002, 1.0648533824956920e+002,
             -4.7624610756806455e+001, -9.0970931257293302e+001,
             -1.3797802515131465e+002, -3.1250000000000000e+002,
             -4.0204128762084794e+000, -7.0639708224303362e+001,
             -2.2920119364440802e+002, -1.5630275422555783e+002,
             -1.9481481744844679e+001, -3.1250000000000000e+002,
             -3.1250000000000000e+002, -2.3693832605451128e+001,
             -3.1250000000000000e+002, -2.5851374180147253e+001 ]
         index: [ 93, 95, 96, 97, 98, 99, 100, 101, 104, 107, 108, 118,
             120, 121, 188, 189, 193, 194, 196, 197, 199, 200, 201, 204,
             205, 206, 207, 209 ]
      -
         sv_count: 18
         rho: 4.2218785798795651e+000
         alpha: [ 1.7698687653436903e+002, 1.5954667293584175e+000,
             4.6180832838941271e+001, 3.0430926380818318e+002,
             1.2747561879789613e+001, 6.8224355474126796e+001,
             7.9791480560801169e+000, 3.1250000000000000e+002,
             3.1250000000000000e+002, 6.6935236539052568e+001,
             -2.3044834694351906e+002, -9.9029146443157913e+001,
             -3.1250000000000000e+002, -2.6237502313118046e+001,
             -1.6548485973677273e+002, -2.1181695481585399e+002,
             -2.5997647592015522e+002, -4.4654556873238489e+000 ]
         index: [ 124, 126, 130, 133, 136, 139, 142, 143, 147, 152, 157,
             160, 161, 165, 167, 174, 180, 184 ]
      -
         sv_count: 27
         rho: 3.1628404198354860e+000
         alpha: [ 7.6960609672732502e+001, 7.4119182122692294e+001,
             8.7825336827789613e+000, 1.5193632679428296e+002,
             2.8490685579165948e+001, 8.7239776238166087e+001,
             5.9214130472552476e+001, 1.6599245960397926e+002,
             9.0803086532609029e+001, 2.5572762117801358e+002,
             3.1250000000000000e+002, 5.1479468551313424e+001,
             1.9908035087808361e+002, 8.0381478649182384e+001,
             3.1250000000000000e+002, -9.8518243407322032e+001,
             -6.4234774879878657e+001, -4.6535280702009075e+001,
             -1.2180483791027345e+002, -3.1250000000000000e+002,
             -1.0390785651593255e+002, -3.1250000000000000e+002,
             -1.5939400859774221e+002, -8.2596697127005271e+001,
             -2.7578306218133912e+002, -3.1250000000000000e+002,
             -6.4932948634050248e+001 ]
         index: [ 124, 126, 133, 135, 137, 139, 142, 143, 144, 145, 147,
             149, 150, 151, 152, 188, 189, 191, 193, 194, 196, 197, 199,
             200, 204, 205, 207 ]
      -
         sv_count: 29
         rho: 3.3360931158178211e+000
         alpha: [ 3.1250000000000000e+002, 3.1250000000000000e+002,
             2.4431944870539678e+002, 2.6463508306641876e+002,
             1.8007460106433049e+002, 3.1250000000000000e+002,
             3.1250000000000000e+002, 2.4123927517902663e+002,
             1.1527215106459114e+000, 4.5254664165697477e+001,
             9.2207048050717603e+001, 6.1160029825693840e+001,
             4.1911855901583188e+001, 2.2706604483972583e+002,
             3.1250000000000000e+002, -3.0643926490339715e+002,
             -3.1250000000000000e+002, -1.0387750269265310e+002,
             -2.9243610462195960e+002, -1.6799070863087735e+002,
             -1.4902135443419294e+002, -6.8122545999334434e+001,
             -3.3605122486893990e+001, -3.1250000000000000e+002,
             -3.1250000000000000e+002, -3.1959008321823806e+001,
             -2.4556916021810420e+002, -3.1250000000000000e+002,
             -3.1250000000000000e+002 ]
         index: [ 155, 157, 161, 163, 167, 170, 171, 172, 173, 174, 176,
             177, 181, 182, 186, 192, 195, 197, 198, 199, 200, 201, 202,
             203, 204, 205, 206, 207, 208 ]
